3 64
3 -0.04449009 0.09337862 0.16751476 0.20437099 -0.21490932 -0.15115601 0.2248211 0.30084285 -0.054822724 -0.14006785 0.27562755 0.056912754 0.079593174 0.052921437 -0.20254369 -0.1520405 0.01638586 0.12213868 -0.03376144 -0.0967645 0.07429907 0.13422938 0.27211183 -0.12888527 0.076044746 0.05498184 -0.0041242787 0.18079703 -0.018997837 -0.015659526 -0.019805195 0.1140695 -0.010919817 -0.20235263 -0.07077188 0.005050901 0.06773627 -0.01739011 0.13448574 -0.061813507 -0.018644676 0.06817977 -0.1803171 -0.07610756 0.007749839 -0.03194591 -0.15514345 0.013078634 -0.040212628 0.24491128 -0.065023586 0.1481752 -0.0667001 0.14665303 0.15003262 -0.14484599 0.1254484 -0.20368429 0.0442454 -0.0372549 0.082151525 0.004360522 -0.13307613 -0.09894034
13 -0.051269468 0.114839084 0.15247136 0.1710377 -0.17617285 -0.111247726 0.21979496 0.29279044 -0.021185827 -0.14942512 0.27057093 0.08429029 0.15201756 0.0003892575 -0.20318174 -0.18157084 -0.008956564 0.14303875 0.047087815 -0.015152426 0.010601212 0.117305584 0.27518877 -0.17123015 0.026298601 0.110443704 0.0068045533 0.16407038 0.05436059 0.018779648 0.063886516 0.1553668 -0.11901616 -0.18722522 -0.061823715 0.03550053 -0.009618052 0.04155018 0.17100908 -0.019705772 0.08141509 0.024258906 -0.13289319 -0.039881043 0.004798994 -0.04643507 -0.115507305 -0.08980198 -0.10548497 0.22060555 0.004575921 0.14885682 -0.029631976 0.18235552 0.09415089 -0.13366269 0.11278215 -0.18953021 0.101572566 -0.15113302 0.12588213 0.0072466484 -0.13002847 -0.039106205
16 -0.04911016 0.112414785 0.16930857 0.16901672 -0.1850316 -0.1327936 0.21831977 0.2872037 -0.021900624 -0.12750594 0.27685928 0.08542848 0.12867327 0.0098043 -0.2096153 -0.16124314 -0.003493361 0.14162095 0.021716205 -0.05125896 0.039384875 0.12198858 0.27478704 -0.16240852 0.04544415 0.08824127 0.00024084172 0.17822868 0.03726108 0.015194975 0.024642657 0.14452021 -0.08348967 -0.17890039 -0.07090773 0.012006004 0.029543208 0.024571087 0.16151641 -0.04665126 0.049064055 0.053279907 -0.15299731 -0.068736754 0.015521435 -0.026542725 -0.12796403 -0.05458114 -0.08588785 0.21579258 -0.015499265 0.13494007 -0.060442943 0.16561869 0.12172754 -0.14346233 0.11486414 -0.19013032 0.07285608 -0.11407711 0.10645251 -0.0027932078 -0.123170316 -0.06503778
