6 64
7 -0.008333357 -0.026957894 0.1734552 0.23156434 -0.20246193 -0.15482596 0.18528804 0.27736995 -0.066421874 -0.014721942 0.20008977 0.015722487 -0.029798321 0.12007725 -0.12684521 0.027859539 0.06485794 0.07779403 -0.19421262 -0.045495752 0.22871141 0.16809003 0.27634463 -0.12636513 0.18557848 0.044670288 -0.07696442 0.098899715 -0.1211735 -0.09981958 -0.09402736 -0.026641153 0.07712254 -0.24713288 -0.077384114 0.023796156 0.1277286 0.02841634 0.1801296 -0.14195693 -0.1017725 0.11807525 -0.1255766 -0.14223532 0.014251824 0.015017408 -0.13537987 0.13135695 -0.018082121 0.0983365 -0.042211533 0.13069008 -0.0517498 0.14785084 0.1835992 -0.15034395 0.044475757 -0.12844636 -0.019008689 0.044341825 -0.024775239 -0.029804073 -0.14384998 -0.106516495
9 -0.0143879885 -0.033220656 0.1457251 0.20712173 -0.16093801 -0.1464388 0.18761131 0.28667733 -0.06137712 0.005249582 0.2083235 0.046537343 0.016975407 0.11231657 -0.12950116 0.021525187 0.042427372 0.110087514 -0.1555857 0.015898684 0.22657403 0.1685439 0.28799644 -0.1659855 0.16503803 0.077521354 -0.10354852 0.0836766 -0.081610024 -0.097556725 -0.059650227 -0.028554678 0.04155251 -0.2448345 -0.06837824 0.063674554 0.091695845 0.061876465 0.23460694 -0.11804925 -0.03749889 0.08975226 -0.097264074 -0.14194602 -0.006735098 0.034875732 -0.1118254 0.058967963 -0.059565324 0.0823435 0.004903006 0.16162708 -0.010906925 0.1626857 0.17744516 -0.14072959 0.04179389 -0.14138 0.040464427 -0.039170172 0.013710124 -0.05568609 -0.17953922 -0.0663033
6 -0.014852327 -0.020770514 0.17155135 0.20418052 -0.17276599 -0.15683194 0.19196801 0.28430867 -0.04922089 0.013536762 0.21958841 0.052979194 0.013744371 0.10060343 -0.14129043 0.027334932 0.045449942 0.11154238 -0.15777603 -0.0024952618 0.22984163 0.17051378 0.29489657 -0.16936988 0.17102964 0.07231662 -0.0967499 0.100799225 -0.07718508 -0.08642291 -0.071104676 -0.015788248 0.03580694 -0.2375188 -0.08025661 0.04163683 0.11040431 0.06307086 0.23192586 -0.13620937 -0.04331339 0.11145606 -0.108508304 -0.15849881 0.010199395 0.041113954 -0.118832044 0.070829846 -0.059118487 0.07686799 0.0018513245 0.14264779 -0.040368237 0.16435277 0.18707378 -0.15442568 0.042400908 -0.13746713 0.020477964 -0.030278176 0.0049737287 -0.055853333 -0.16420561 -0.079657316
5 -0.0068056653 -0.04382191 0.15543523 0.20705311 -0.15563391 -0.15460756 0.15709022 0.28093845 -0.05085783 0.017438296 0.18679112 0.039283495 0.022713209 0.119937435 -0.13912952 0.035817735 0.026720615 0.115023874 -0.17149119 -0.0155652575 0.24511606 0.1649589 0.29639044 -0.16888994 0.18032275 0.089078836 -0.111856066 0.080192305 -0.101349 -0.09940437 -0.08194305 -0.041951958 0.06347082 -0.24180318 -0.05428361 0.051687375 0.09194451 0.06476111 0.22705233 -0.14986183 -0.07139149 0.10079194 -0.12630862 -0.1524892 0.008332782 0.043346874 -0.11190132 0.07755372 -0.06275615 0.07909981 -0.007619621 0.15211043 -0.028200362 0.16520658 0.18155089 -0.15257405 0.028348206 -0.13108571 0.016396038 -0.021384586 -0.019604055 -0.06887505 -0.17730123 -0.09481524
4 -0.016747693 -0.03895685 0.13784637 0.19571567 -0.15677169 -0.15248068 0.20255171 0.27699545 -0.07330839 0.027207939 0.21954699 0.05314895 -0.011517428 0.119251736 -0.11529527 0.039049417 0.058629423 0.10302778 -0.16691029 0.024152707 0.24276517 0.17272404 0.27065217 -0.15413201 0.16844057 0.04781717 -0.11206744 0.08542819 -0.08157732 -0.10569368 -0.075780615 -0.04176304 0.06119832 -0.23567559 -0.08300576 0.06253148 0.12186426 0.047439568 0.23667231 -0.11036997 -0.033801086 0.09932878 -0.07809656 -0.15794076 -0.017172845 0.05247662 -0.113592006 0.06968475 -0.03969988 0.066639155 0.004823823 0.16038957 -0.010459325 0.13903295 0.19567256 -0.13027006 0.04835589 -0.14503239 0.04232806 -0.025847621 0.02404101 -0.06014861 -0.18050563 -0.056148015
8 -0.010491091 -0.03647632 0.15866327 0.21167593 -0.17238633 -0.14177054 0.19025841 0.2764248 -0.05700109 0.013452248 0.20223819 0.038116146 -0.006750685 0.10708958 -0.116553865 0.04270773 0.059890047 0.09264529 -0.17289883 0.021155234 0.23093596 0.17075813 0.2819398 -0.157646 0.17526035 0.0679896 -0.095805146 0.080050655 -0.08857653 -0.09890029 -0.06293007 -0.031511977 0.03650309 -0.24597384 -0.07973657 0.05304568 0.105735175 0.06729434 0.22894697 -0.12629868 -0.04520716 0.10326933 -0.08357396 -0.14655976 0.0027915528 0.030284865 -0.11207431 0.082329035 -0.051760286 0.059805 0.0075371563 0.1428521 -0.021510512 0.16376238 0.17493854 -0.14344513 0.032471392 -0.12339873 0.020104466 -0.01992525 -0.0005302455 -0.04523536 -0.16113846 -0.06551412
