7 64
902 -0.04135619 0.021735815 0.116989635 0.15673853 -0.15538001 -0.21702726 0.18171021 0.25143993 -0.11014472 -0.034894448 0.27588594 0.06495436 0.0034458674 0.12227337 -0.1716481 -0.081912614 0.0055806246 0.12461045 -0.12097414 -0.15494601 0.19842884 0.14522773 0.20846993 -0.072974645 0.1050284 -0.029392308 -0.09540208 0.17380488 -0.0932817 -0.06852183 -0.15902856 -0.0075686914 0.17004952 -0.14227384 -0.054380782 -0.0066679013 0.17342079 -0.11682976 0.12967524 -0.064590886 -0.09869234 0.099282764 -0.18575688 -0.14122072 -0.04948746 0.0735151 -0.1468598 0.08272932 0.04718899 0.1958829 -0.101472475 0.15336621 -0.071175076 0.033066653 0.2400029 -0.10213075 0.13838355 -0.23660302 0.014534973 0.07140599 0.074258074 -0.07886128 -0.167626 -0.12531966
4 -0.029767042 -0.017505841 0.16664663 0.23271725 -0.1682778 -0.18422069 0.13723075 0.2869791 -0.07118591 -0.073799595 0.2539025 0.037406452 0.09013485 0.068965636 -0.16374291 -0.08296357 -0.024423746 0.12650333 -0.13949753 -0.03279948 0.18370344 0.1759377 0.28301546 -0.14055224 0.103462085 0.12517007 -0.10990093 0.11998206 -0.11066621 -0.067765065 -0.06073846 -0.014793905 0.02092881 -0.20541318 -0.010627629 0.04145038 0.0513545 -0.010926309 0.23458366 -0.039348003 -0.05048074 0.055981375 -0.13137183 -0.067117184 -0.060066517 0.0066379206 -0.08248898 0.03586422 -0.05431678 0.111041166 0.018505817 0.14852427 -0.014415952 0.17510027 0.14781728 -0.1224988 0.07640847 -0.20267388 0.012579757 -0.004216778 0.06867244 -0.076005846 -0.16659501 -0.075414345
6 -0.03453783 0.010586852 0.18468426 0.203642 -0.17386192 -0.20519346 0.1530631 0.27342728 -0.06182349 -0.050584316 0.27583072 0.05858104 0.073256984 0.062407054 -0.18302195 -0.07808676 -0.01785832 0.1332642 -0.12851815 -0.080539085 0.188071 0.16937526 0.2737648 -0.13366568 0.10608462 0.08449672 -0.09948794 0.15562326 -0.09187468 -0.049730513 -0.094784275 0.0066079404 0.042906992 -0.17591363 -0.03580945 0.00369011 0.100496106 -0.03175308 0.21053122 -0.06506833 -0.05902218 0.09123974 -0.15628543 -0.1065276 -0.037108496 0.034704003 -0.103414886 0.05027547 -0.034916062 0.12273813 -0.008231798 0.12622821 -0.063918374 0.14277788 0.18114509 -0.13369043 0.0928931 -0.20747213 -0.005486309 0.013141175 0.06526249 -0.080735154 -0.14892189 -0.09968249
7 -0.025643935 -0.027142942 0.18070172 0.22453041 -0.15662688 -0.20074604 0.10498748 0.27456114 -0.058624275 -0.05230744 0.24577683 0.039861273 0.10205251 0.0647808 -0.17427018 -0.070003875 -0.04580719 0.13628861 -0.15224281 -0.056987837 0.2046135 0.17570527 0.2874983 -0.14533602 0.10988895 0.137761 -0.12565063 0.12165929 -0.12379201 -0.06345434 -0.08507185 -0.029159486 0.03429292 -0.18758647 0.0030868708 0.025604665 0.056395404 -0.0126894 0.23957177 -0.05915846 -0.071700394 0.068845816 -0.15057485 -0.0794887 -0.053694993 0.025185985 -0.07307397 0.044978388 -0.058928713 0.0911619 0.021380994 0.13157785 -0.034280624 0.17446955 0.15419579 -0.12982902 0.06594189 -0.19830355 -0.012035695 0.008977731 0.049603354 -0.099581756 -0.16114193 -0.094949655
9 -0.03219799 -0.024864953 0.15022622 0.2007123 -0.14326859 -0.20480393 0.12869589 0.26688996 -0.08134517 -0.037137065 0.26047644 0.052595306 0.074416764 0.082591966 -0.16280529 -0.068703145 -0.031534206 0.13514952 -0.14519677 -0.057971798 0.21100888 0.17216325 0.2594404 -0.12701438 0.10343519 0.09188734 -0.13195942 0.12775685 -0.11324082 -0.07211179 -0.10192689 -0.036955576 0.071132876 -0.17307648 -0.011346963 0.03126424 0.087488055 -0.0423505 0.2282483 -0.04176505 -0.062553234 0.06841787 -0.13863593 -0.094784416 -0.07124992 0.047217447 -0.08275231 0.04278958 -0.030252814 0.1039433 0.004724182 0.14680892 -0.02539163 0.13152693 0.1794706 -0.110365644 0.086954184 -0.21564206 0.010658958 0.015212986 0.07391813 -0.10335553 -0.17417826 -0.08392474
8 -0.029904477 -0.008440146 0.17620419 0.23260215 -0.18814448 -0.18733416 0.16608852 0.28660914 -0.0760264 -0.06342447 0.26414138 0.03798453 0.05128578 0.07666813 -0.15867288 -0.06484829 0.0054320353 0.11311974 -0.15254544 -0.0442322 0.19273496 0.17900634 0.27750182 -0.12933677 0.119170465 0.08875032 -0.09740231 0.13203715 -0.10976656 -0.0712536 -0.076424964 -0.008634885 0.036876798 -0.20983061 -0.038598306 0.02680307 0.089850225 -0.018111784 0.21835975 -0.055690415 -0.060258333 0.07981983 -0.12910154 -0.09049719 -0.0460337 0.011267441 -0.10304549 0.06509269 -0.03261868 0.114177264 -0.0011557881 0.14027514 -0.034498625 0.1591928 0.1680237 -0.12857917 0.082749 -0.19676235 0.0011129222 0.018907517 0.06022075 -0.061549895 -0.15584002 -0.08268566
5 -0.031866625 -0.017890414 0.17789105 0.22024925 -0.16495135 -0.2077664 0.12230758 0.26752746 -0.07265941 -0.057991672 0.26734066 0.042010795 0.080619484 0.062478717 -0.16783227 -0.07995128 -0.0327548 0.12649983 -0.15334047 -0.06440122 0.1989042 0.17794211 0.26750523 -0.12355387 0.10030224 0.107657045 -0.119956814 0.13624905 -0.12326693 -0.061951846 -0.095433176 -0.025207158 0.04578536 -0.17497778 -0.008750024 0.015714448 0.08095829 -0.042529907 0.2260307 -0.037564225 -0.06994271 0.07311201 -0.14044018 -0.078397684 -0.06628285 0.027025148 -0.078826144 0.054967422 -0.033149846 0.096338436 0.012552672 0.12640312 -0.039554276 0.15122165 0.16418742 -0.11792335 0.08397498 -0.211127 -0.015266266 0.031548373 0.069787055 -0.092942424 -0.15257788 -0.08868699
