7 64
902 -0.02233984 -0.016327392 0.17452843 0.26590848 -0.2441575 -0.18408217 0.19192581 0.26469234 -0.116212085 -0.08436321 0.2492316 -0.014837062 -0.068614185 0.113194466 -0.11323824 -0.036866453 0.07458331 0.040635284 -0.2235408 -0.09623333 0.20297159 0.18020232 0.22574626 -0.043973405 0.15080442 -0.003543943 -0.061323218 0.13338698 -0.17162472 -0.10039525 -0.124749996 -0.03011733 0.11596455 -0.22020197 -0.06768798 -0.0069952146 0.16531675 -0.08346409 0.13521743 -0.062226504 -0.14488935 0.11129174 -0.12624341 -0.090489835 -0.042122066 -0.016493259 -0.14235094 0.18436542 0.060056835 0.13156016 -0.07503817 0.11702519 -0.058489177 0.10831251 0.18745206 -0.11587431 0.095267646 -0.18075334 -0.06118062 0.15552402 0.023056846 -0.010131247 -0.11806795 -0.11115292
9 -0.025763033 -0.026827693 0.20192882 0.2795579 -0.2047244 -0.1654251 0.14646776 0.2982243 -0.063266166 -0.10059275 0.25813174 0.013804651 0.085078955 0.04001801 -0.14242621 -0.07507321 -0.0011122967 0.09830887 -0.16668166 0.026659748 0.17105746 0.19693023 0.3022953 -0.14695552 0.10788106 0.16176082 -0.0949123 0.103490986 -0.124067865 -0.069191225 -0.017586524 -0.010056225 -0.05051842 -0.23836221 -0.016916078 0.04851147 0.025974927 0.02371744 0.26286244 -0.018430155 -0.03276596 0.05117825 -0.082897685 -0.03231537 -0.06230807 -0.039020102 -0.06484286 0.04846595 -0.07283291 0.064384826 0.06519898 0.12866418 -6.288489e-05 0.2302284 0.107943505 -0.12833239 0.054864217 -0.17879531 -0.0076858136 -0.0031821874 0.06815205 -0.046775315 -0.14112827 -0.045184575
7 -0.026601858 -0.0038681717 0.20467825 0.25608265 -0.22208832 -0.1752612 0.17782381 0.27912158 -0.06988373 -0.078334354 0.2640594 0.018466491 0.022081984 0.05686363 -0.14041936 -0.052817572 0.035058584 0.08057631 -0.17336583 -0.029311953 0.17888005 0.18554959 0.27291498 -0.114322245 0.12522459 0.083547875 -0.07160311 0.1304634 -0.118674874 -0.067002974 -0.06252919 0.0022098278 0.0043781926 -0.21897516 -0.05561852 0.010659792 0.09794093 -0.010144584 0.20824727 -0.052055214 -0.06429183 0.09250609 -0.10324542 -0.07696873 -0.034709413 -0.017958848 -0.103001475 0.09706583 -0.023888981 0.0882369 0.008319616 0.10990593 -0.04708302 0.17562911 0.14912136 -0.1330106 0.07307884 -0.17280877 -0.030997103 0.047386266 0.04896425 -0.030749405 -0.11993071 -0.07479302
6 -0.019521864 -0.03159209 0.20405376 0.26871726 -0.20245104 -0.17448422 0.134101 0.28561592 -0.060296368 -0.07723135 0.24072208 0.010194921 0.06280238 0.05688926 -0.14506784 -0.050294235 0.00129351 0.09542757 -0.18414909 -0.013576586 0.19355483 0.19013232 0.29570842 -0.13701546 0.1282328 0.13969834 -0.09723012 0.10630121 -0.13869421 -0.074125946 -0.053156313 -0.022342063 -0.0077101607 -0.2296514 -0.01998216 0.029731262 0.054057315 0.014063524 0.23950103 -0.055266134 -0.07028244 0.07373296 -0.10908722 -0.059342887 -0.04335172 -0.020921797 -0.07790574 0.08073898 -0.056092925 0.06739307 0.03534404 0.11810918 -0.025730532 0.20903389 0.12861183 -0.13668594 0.04985251 -0.16822535 -0.031135734 0.028280297 0.035201848 -0.053709216 -0.13610318 -0.07565813
5 -0.025214054 -0.026930457 0.19156884 0.26243743 -0.20909077 -0.17643216 0.16680354 0.28229758 -0.080232315 -0.07198197 0.26022393 0.014869613 0.026605006 0.06601609 -0.12989007 -0.046350535 0.027853651 0.08304177 -0.18798545 -0.006618631 0.19598015 0.19339912 0.2741422 -0.11730734 0.12660018 0.09753766 -0.093462534 0.11405126 -0.13343944 -0.08168952 -0.062123414 -0.023724021 0.011015284 -0.22589442 -0.04207929 0.03001649 0.08691938 -0.009109534 0.23040566 -0.03770493 -0.062387343 0.07948366 -0.0887502 -0.06893459 -0.055981614 -0.013794749 -0.08918269 0.09172409 -0.027630439 0.07149613 0.024871511 0.12347405 -0.022186864 0.1807903 0.146729 -0.12321784 0.06730461 -0.17852598 -0.021602051 0.04392196 0.055712115 -0.044342015 -0.13680868 -0.06224472
4 -0.021029338 -0.0204851 0.21087098 0.2755326 -0.22869125 -0.16822238 0.16963859 0.28351972 -0.06929676 -0.08109563 0.25205702 0.0042170277 0.0186131 0.05824669 -0.12957945 -0.03944087 0.03952736 0.071009666 -0.19481029 -0.010051659 0.18773277 0.1933009 0.28225344 -0.11762079 0.13613038 0.10185836 -0.07560306 0.11440579 -0.13631849 -0.077038795 -0.054360487 -0.0114471065 -0.0062110317 -0.2368422 -0.049864072 0.019162688 0.085889965 0.005174727 0.22067368 -0.05386081 -0.07127988 0.089468434 -0.09112145 -0.066994436 -0.0362487 -0.030868435 -0.095244095 0.10874461 -0.031174606 0.06870565 0.021715771 0.10864217 -0.036131382 0.19644445 0.1367679 -0.13574675 0.058078364 -0.16094495 -0.040112395 0.05293531 0.03637138 -0.026757408 -0.11910845 -0.070107594
8 -0.025492039 -0.03205965 0.21868785 0.2776928 -0.20120649 -0.17742765 0.12687603 0.28681546 -0.055166513 -0.091305874 0.26395723 0.015387836 0.09386488 0.023920376 -0.14484154 -0.07144126 -0.013565631 0.099968135 -0.17675163 0.023226567 0.17915864 0.201798 0.30171466 -0.14680648 0.10422036 0.17399317 -0.10500595 0.10763377 -0.13267435 -0.06239983 -0.027594319 -0.017578019 -0.058344845 -0.22244143 -0.009114548 0.03559268 0.02853998 0.01930493 0.27407855 -0.014471515 -0.03667708 0.058112662 -0.08039047 -0.030944632 -0.06676453 -0.031870466 -0.0504407 0.052292425 -0.075428426 0.03685867 0.08210947 0.10897703 -0.011831961 0.23461208 0.1053565 -0.12867199 0.049600855 -0.17808257 -0.028631365 0.007852142 0.06800791 -0.06063333 -0.12903014 -0.04655897
