7 64
902 -0.009234784 -0.02510658 0.13458546 0.2713689 -0.23053716 -0.15682109 0.16248628 0.27719405 -0.11336406 -0.1057067 0.17042212 -0.040581968 -0.055248052 0.15698473 -0.117456436 -0.042582892 0.05717495 0.043530434 -0.20395876 -0.13593866 0.18524715 0.14659667 0.22814992 -0.043520022 0.16581476 0.008090639 -0.04769238 0.10285231 -0.18424356 -0.11478974 -0.11883166 -0.034148045 0.16045107 -0.24584648 -0.03728903 0.014489124 0.122013 -0.0682617 0.0872711 -0.10655887 -0.1894739 0.086509585 -0.18287152 -0.079980604 -0.015541784 -0.035338935 -0.16258417 0.18648349 0.051092386 0.2012269 -0.1322275 0.152954 -0.039778575 0.107689515 0.17347138 -0.123781316 0.08035541 -0.16224425 -0.042548012 0.1477216 -0.02879025 0.0017312001 -0.14416748 -0.14981581
9 -0.019703567 -0.03122717 0.18781531 0.26794916 -0.20867616 -0.17491694 0.14345911 0.27927685 -0.078264594 -0.08226069 0.23543319 0.0005739986 0.030388506 0.076919034 -0.13463567 -0.050219867 0.01625552 0.08121259 -0.19239865 -0.037795138 0.19393735 0.1838507 0.27294177 -0.1091282 0.13188693 0.10257383 -0.089516565 0.1086275 -0.15048455 -0.08380431 -0.07207909 -0.028758127 0.03256194 -0.22651258 -0.02582824 0.024671195 0.077333815 -0.015377017 0.2074423 -0.05423189 -0.09369682 0.07685283 -0.11665079 -0.062473644 -0.046872966 -0.020756444 -0.093766876 0.10593208 -0.023935124 0.090627566 0.0017873344 0.12336906 -0.027578037 0.17862162 0.14159521 -0.12688959 0.06196848 -0.17283125 -0.034861367 0.06247662 0.031415187 -0.04342761 -0.1358654 -0.085868575
4 -0.024180518 -0.030836951 0.22465408 0.24719295 -0.19059914 -0.19551896 0.12446845 0.26373932 -0.050213594 -0.045361303 0.268197 0.030616494 0.067794904 0.030711122 -0.14878166 -0.039148435 -0.008326185 0.10362642 -0.18854177 -0.009407523 0.20971256 0.19856222 0.2883357 -0.1402908 0.1185215 0.1378149 -0.114476 0.12144662 -0.13017522 -0.06010729 -0.071052976 -0.027438495 -0.01949699 -0.19466713 -0.025329826 0.009454981 0.07675262 0.005640349 0.26176307 -0.045042373 -0.05418016 0.091135256 -0.09248779 -0.07507028 -0.05135741 0.0075641153 -0.059310026 0.074568786 -0.055951532 0.020753114 0.06495231 0.08917634 -0.04684574 0.19881512 0.1388611 -0.13268101 0.050684597 -0.17192067 -0.048250258 0.030413184 0.051362485 -0.078209326 -0.11948179 -0.065886065
7 -0.017565925 -0.04781175 0.20300971 0.258053 -0.1848951 -0.18347019 0.10897948 0.2670848 -0.059387825 -0.056038324 0.2380444 0.011797867 0.064377986 0.053280417 -0.13911496 -0.03652262 -0.011211174 0.097274534 -0.19880153 -0.012542597 0.21251822 0.19296671 0.28637016 -0.13343142 0.12663817 0.14415024 -0.11685641 0.099908076 -0.1502552 -0.07613835 -0.06951446 -0.04496855 0.0026083244 -0.21055827 -0.008679322 0.025574801 0.058576215 0.0067789373 0.24941483 -0.05025217 -0.07604573 0.07588627 -0.10106243 -0.061904185 -0.05430797 -0.0039688284 -0.060494967 0.08363572 -0.053416494 0.03567682 0.049619034 0.10590833 -0.026380844 0.20083977 0.13038059 -0.12863278 0.04219253 -0.16605054 -0.04365236 0.03918654 0.03351304 -0.07407438 -0.13260226 -0.07306228
5 -0.022126492 -0.042649396 0.19300734 0.24707858 -0.18987027 -0.18682049 0.14449525 0.26539522 -0.07503383 -0.041152757 0.2557461 0.020166622 0.026381515 0.06374611 -0.12595779 -0.023743853 0.017383227 0.08734758 -0.20316848 -0.005839096 0.22074646 0.19612072 0.26909715 -0.11950505 0.13122694 0.10100562 -0.11438555 0.10836372 -0.14188395 -0.08385751 -0.08149559 -0.046047743 0.02229346 -0.20850047 -0.0354228 0.02437255 0.096432865 -0.00924969 0.24339959 -0.043760564 -0.06804265 0.08805659 -0.08293672 -0.081735045 -0.059938837 0.008906097 -0.07444496 0.09584687 -0.028190637 0.036595974 0.038890168 0.11031236 -0.027981803 0.17427355 0.15427418 -0.120862275 0.056932457 -0.17324296 -0.034746874 0.050965045 0.048269376 -0.0670652 -0.13485403 -0.06310179
6 -0.01874274 -0.037725512 0.21465078 0.26224518 -0.20383766 -0.17732109 0.1360766 0.26724887 -0.059022486 -0.05704901 0.24860664 0.010538017 0.039153937 0.0449678 -0.12876326 -0.026880857 0.016063675 0.08100794 -0.20307775 0.0016252275 0.20529485 0.19707882 0.2822766 -0.12740889 0.13072816 0.12594652 -0.100135446 0.10516612 -0.14186406 -0.07379678 -0.061524022 -0.032188956 -0.014019212 -0.2164603 -0.03229971 0.01826714 0.07585451 0.011608092 0.24490936 -0.04858968 -0.065964445 0.08762736 -0.08078951 -0.06639078 -0.046336446 -0.013033327 -0.06816617 0.096638635 -0.045014985 0.026181715 0.052134775 0.094286315 -0.03437672 0.20235722 0.13117293 -0.13144243 0.04408827 -0.15701698 -0.04993822 0.046179716 0.036248572 -0.054290246 -0.11701988 -0.06326655
8 -0.021566128 -0.042848915 0.21483354 0.26293972 -0.19713488 -0.19566685 0.11029884 0.2583483 -0.06569025 -0.06365381 0.25503713 0.008893542 0.05267453 0.04333902 -0.13698965 -0.046144124 -0.008038918 0.08797045 -0.20740052 -0.026783139 0.20912795 0.1969027 0.27255076 -0.113915175 0.11902631 0.13028163 -0.11388954 0.11425877 -0.16013393 -0.07139715 -0.0826079 -0.044000734 0.007479427 -0.196564 -0.011399972 0.008782075 0.07684294 -0.020275034 0.24141088 -0.033948306 -0.08484489 0.08336298 -0.09875871 -0.05628912 -0.06439301 -0.0054866 -0.060015637 0.09958616 -0.03408623 0.031204365 0.047149986 0.091001734 -0.03919146 0.18788664 0.13301773 -0.12129842 0.0533269 -0.17519407 -0.062671944 0.06945203 0.044317886 -0.07226259 -0.11739306 -0.07467999
