7 64
902 -0.033489387 -0.03432161 0.11727096 0.2151355 -0.1618876 -0.21355884 0.13470681 0.25339866 -0.13239357 -0.06765468 0.25314906 0.017503992 0.0059945737 0.121528 -0.13478361 -0.083102666 -0.007259408 0.09758892 -0.18386023 -0.113676235 0.21515119 0.1692316 0.20722848 -0.05191718 0.104805075 0.022490356 -0.12404989 0.13462831 -0.16792771 -0.09939528 -0.14998753 -0.06589771 0.16308017 -0.1685253 -0.00800678 0.019584844 0.13338529 -0.129108 0.16488715 -0.014669683 -0.12857231 0.067226805 -0.15266928 -0.0786066 -0.102253 0.036184963 -0.10720461 0.11024307 0.04972455 0.14908972 -0.061158165 0.15740146 -0.02191121 0.07434534 0.20387845 -0.08282342 0.11926047 -0.24379972 -0.013206618 0.11831091 0.07676109 -0.08673213 -0.17506342 -0.10643367
9 -0.030368254 -0.038455933 0.13849948 0.21276237 -0.13883758 -0.19298445 0.1271518 0.27556315 -0.08612685 -0.04523486 0.2537131 0.045913897 0.08299816 0.08642924 -0.1528269 -0.06901667 -0.031879343 0.13372189 -0.14863262 -0.025136834 0.21058379 0.17740448 0.26704103 -0.13544688 0.102619626 0.112237446 -0.1388236 0.1093944 -0.11723296 -0.08206371 -0.08105506 -0.046660986 0.055915788 -0.19095263 -0.0027620313 0.054470245 0.062909804 -0.026623923 0.24582636 -0.027845329 -0.049751163 0.05010983 -0.12014476 -0.07800906 -0.083211094 0.035189547 -0.07245683 0.030182006 -0.043083653 0.09589993 0.02244896 0.1612727 0.0029901145 0.1486117 0.163752 -0.10444267 0.07852238 -0.21271116 0.026746169 -0.002527259 0.07937925 -0.10063184 -0.1857577 -0.065949075
6 -0.03125755 -0.034218613 0.1451541 0.19593391 -0.13220385 -0.20403577 0.12630329 0.26755884 -0.080134794 -0.02257491 0.25821343 0.05792142 0.07877432 0.08456031 -0.15876089 -0.05724483 -0.0344297 0.14039013 -0.14488642 -0.04110435 0.22002758 0.1729375 0.26139057 -0.13651279 0.10546024 0.09860074 -0.14284335 0.118687235 -0.10890275 -0.07596987 -0.09905444 -0.046001963 0.06857032 -0.17349909 -0.009779123 0.04079955 0.08221555 -0.030320078 0.2407734 -0.042619128 -0.051910296 0.064917855 -0.12786484 -0.09949272 -0.07354747 0.05604527 -0.074982196 0.032156806 -0.038919706 0.08935323 0.016931511 0.1507907 -0.01590812 0.13303998 0.17904453 -0.10790624 0.079732955 -0.21091352 0.020366274 -0.0003731251 0.07431213 -0.11166386 -0.18134683 -0.07501684
4 -0.019815953 -0.06145354 0.13466148 0.21362162 -0.12492539 -0.1883819 0.092246145 0.2661179 -0.077710584 -0.02941621 0.216754 0.03297958 0.08566636 0.09768273 -0.14728762 -0.044514135 -0.043906298 0.13210094 -0.16639717 -0.031591866 0.22808585 0.17157078 0.26901543 -0.13846293 0.117706016 0.1292039 -0.14997038 0.086632 -0.13713133 -0.0910116 -0.09051492 -0.07060911 0.07153402 -0.1926084 0.015416963 0.057099935 0.049825687 -0.011749952 0.24365188 -0.05257259 -0.07543022 0.049907535 -0.13016446 -0.080004126 -0.0736634 0.039119076 -0.06334547 0.043149635 -0.051088884 0.07826934 0.02079645 0.1553777 0.005284643 0.15325747 0.15463494 -0.107349716 0.054498993 -0.19005145 0.012206412 0.005690093 0.044044822 -0.11030484 -0.18564492 -0.079409756
8 -0.029369239 -0.051715396 0.12510562 0.19844823 -0.12303098 -0.19739307 0.1241962 0.26524132 -0.093117714 -0.019022036 0.24858083 0.050933763 0.067921154 0.098474495 -0.14240703 -0.04889766 -0.029370276 0.13387008 -0.15729007 -0.021912966 0.22999413 0.17600407 0.2531815 -0.13004345 0.1078329 0.09573821 -0.15363155 0.10200662 -0.11990285 -0.091209985 -0.09773387 -0.066715956 0.08110587 -0.18072532 -0.0045554237 0.057947822 0.07886735 -0.03320306 0.247493 -0.029939001 -0.052485976 0.05389299 -0.11145284 -0.09292255 -0.0898078 0.055957437 -0.069160394 0.03453971 -0.032590996 0.08118457 0.021212729 0.16341434 0.00737524 0.12793753 0.17710337 -0.09544547 0.07664345 -0.21114142 0.030510088 0.0032155456 0.07800489 -0.11323951 -0.19272035 -0.06258682
5 -0.023930127 -0.047886673 0.162388 0.21645807 -0.14173028 -0.18445948 0.13188349 0.27901748 -0.063939236 -0.014261343 0.24591656 0.052031513 0.0821435 0.07712535 -0.14821483 -0.028166799 -0.019996228 0.13391641 -0.1580355 0.011679458 0.22732179 0.1838086 0.28948876 -0.16529538 0.12355843 0.13202584 -0.1417684 0.09476743 -0.10485146 -0.08205795 -0.0663607 -0.047433026 0.02124993 -0.20535888 -0.017558506 0.058272075 0.059110183 0.024620375 0.27336037 -0.057146087 -0.03150633 0.064828224 -0.09820393 -0.09807485 -0.05926045 0.04023526 -0.06502964 0.027712613 -0.07147248 0.052141946 0.05210272 0.14818515 -0.0016562121 0.1756439 0.15707766 -0.12100385 0.050455436 -0.17979032 0.023449682 -0.03170882 0.056951188 -0.10001439 -0.17815354 -0.055459447
7 -0.029171934 -0.042942934 0.14748581 0.20921317 -0.13809311 -0.20247012 0.10351515 0.25255233 -0.08529147 -0.043314494 0.24935696 0.037081566 0.07426076 0.07544684 -0.1468144 -0.0678174 -0.038609628 0.12277418 -0.16421062 -0.045828212 0.21284844 0.17642526 0.24814329 -0.113598034 0.09692368 0.10587052 -0.14104791 0.113984376 -0.13635108 -0.077466615 -0.101217784 -0.057459094 0.06724691 -0.16774432 0.0061270287 0.033712797 0.07509323 -0.051063966 0.23329347 -0.019599034 -0.07102384 0.057588268 -0.121468365 -0.070825726 -0.08991055 0.03756846 -0.062832765 0.05162 -0.025824187 0.077418275 0.021553371 0.13664226 -0.012398967 0.13685673 0.16205724 -0.09773641 0.07843705 -0.21201044 -0.0048704776 0.03570619 0.07504271 -0.107142895 -0.16606075 -0.0744293
