7 64
902 -0.046354067 0.027230505 0.12874089 0.12961634 -0.14252208 -0.20774263 0.21339431 0.2493863 -0.09054175 0.015038177 0.29948217 0.09881608 0.00037101502 0.09892904 -0.1643072 -0.043184213 0.026430769 0.13432856 -0.109744705 -0.0901405 0.21336664 0.15685263 0.22241426 -0.10991563 0.11151787 -0.027181895 -0.106765084 0.17653653 -0.050435223 -0.061968952 -0.14113528 0.0014843799 0.12104388 -0.14434546 -0.09088519 0.0011442688 0.19162719 -0.07090189 0.18588588 -0.070914425 -0.038009312 0.1193581 -0.13944572 -0.17871934 -0.04111943 0.100685425 -0.13778754 0.05342644 0.019036584 0.1406182 -0.05026884 0.14593759 -0.07362859 0.04859313 0.25289547 -0.11169832 0.12997529 -0.22802876 0.036689475 0.014807493 0.09527314 -0.090290196 -0.1709976 -0.0895949
5 -0.03418896 -0.035284173 0.16402304 0.18781337 -0.12476083 -0.21752787 0.11446372 0.25524876 -0.0696525 -0.008495021 0.27417672 0.06977444 0.09439278 0.059401423 -0.1622154 -0.056814037 -0.047439758 0.14699662 -0.14584453 -0.02934989 0.22514947 0.18055417 0.2613481 -0.14298126 0.0941298 0.11265245 -0.15531464 0.12615591 -0.10473932 -0.064385936 -0.101463854 -0.048440054 0.045901436 -0.15251192 -0.0064390493 0.0308314 0.0840399 -0.031143673 0.2649817 -0.027756665 -0.035992544 0.07000838 -0.11336191 -0.0990084 -0.0836632 0.06787548 -0.055331342 0.02093732 -0.047514174 0.053248864 0.048205853 0.13107651 -0.024399308 0.13899247 0.17641622 -0.10552645 0.077358276 -0.21404575 0.008858414 -0.005103712 0.08928758 -0.12869307 -0.16969125 -0.063462004
7 -0.036405727 -0.023215622 0.18787378 0.17722237 -0.1291347 -0.22677706 0.121150345 0.24904056 -0.055073306 0.008437744 0.29108116 0.08394505 0.0953551 0.040330984 -0.1706283 -0.048039954 -0.04494236 0.15127069 -0.1420099 -0.030544467 0.22796886 0.18375252 0.26605496 -0.1518155 0.09455576 0.11018097 -0.15350774 0.14186695 -0.09052897 -0.05080682 -0.106840886 -0.03593049 0.02829731 -0.13989113 -0.02089768 0.012916164 0.10108371 -0.02430342 0.27457356 -0.037132226 -0.024571886 0.089431316 -0.11028647 -0.11659633 -0.07188978 0.079977885 -0.054535817 0.019936508 -0.052878834 0.033689898 0.060348 0.11076358 -0.04871958 0.14112848 0.18439634 -0.11514359 0.07697837 -0.21000572 -0.0033118925 -0.010201224 0.09122559 -0.133558 -0.15479039 -0.06383761
6 -0.02738963 -0.04899121 0.17250718 0.19497816 -0.124857485 -0.21895756 0.09620924 0.2511598 -0.063588195 0.000862551 0.2574333 0.06021643 0.09162304 0.06285558 -0.15911032 -0.039041854 -0.0509139 0.14315733 -0.16497844 -0.034205638 0.23995806 0.18205434 0.26672426 -0.14454713 0.107229784 0.12353316 -0.16173108 0.11636758 -0.12191158 -0.06992114 -0.110414505 -0.06292115 0.052451067 -0.15650335 0.0011197593 0.027395412 0.082272016 -0.022625698 0.26686108 -0.04465136 -0.05521218 0.07620649 -0.118525244 -0.10207898 -0.07658305 0.068605356 -0.050847467 0.037254836 -0.05075053 0.037273526 0.04956545 0.122870326 -0.029172737 0.14713985 0.17372361 -0.111581095 0.062581055 -0.20070033 -0.008863789 0.007854128 0.06626904 -0.13357903 -0.16562293 -0.073757924
9 -0.03498285 -0.036053717 0.15134545 0.17055002 -0.119724534 -0.21531694 0.1302761 0.24209975 -0.077884205 0.013393011 0.27507252 0.07469062 0.06144829 0.068926595 -0.14706418 -0.0362757 -0.02710418 0.13705221 -0.15080692 -0.026527464 0.23472868 0.17774849 0.2408963 -0.12979932 0.09967485 0.07719028 -0.1556024 0.12640795 -0.09948255 -0.070938334 -0.115628 -0.05573246 0.067698225 -0.14421633 -0.024504442 0.027951078 0.11395212 -0.041037142 0.25519595 -0.029593257 -0.034650754 0.08101692 -0.09894582 -0.11799809 -0.08395562 0.0833178 -0.06264956 0.033264987 -0.027246572 0.045516614 0.03865549 0.12906972 -0.027376805 0.111998826 0.19345279 -0.097457215 0.08222217 -0.21067484 0.011889083 0.006356139 0.09126651 -0.12671667 -0.16816495 -0.05792332
4 -0.03564016 -0.02088856 0.17652546 0.18908584 -0.15140693 -0.21364675 0.15780216 0.2567476 -0.07359682 0.0007393035 0.290908 0.07181284 0.04796079 0.061200257 -0.151693 -0.0354706 -0.004930837 0.12821177 -0.15726373 -0.025094757 0.2290699 0.18677232 0.25710416 -0.13384561 0.11031192 0.07261983 -0.13643074 0.13974862 -0.095926635 -0.066845 -0.107307106 -0.034744807 0.046642702 -0.16320708 -0.046059135 0.017718056 0.1264349 -0.031012032 0.2549549 -0.040267225 -0.03327367 0.09677192 -0.097970344 -0.12359364 -0.068124406 0.06755982 -0.07801532 0.049218822 -0.027338095 0.050956007 0.03599085 0.12155051 -0.043499894 0.12867862 0.1953705 -0.11305533 0.08479835 -0.20620003 0.00095980824 0.011698698 0.08739847 -0.10580889 -0.15570305 -0.061038047
8 -0.037269603 -0.023947887 0.18539171 0.18102616 -0.13675037 -0.23017608 0.119248 0.23853527 -0.06626734 -0.0011618563 0.29363495 0.07324061 0.07572472 0.041351497 -0.16088133 -0.05300547 -0.037932716 0.13651194 -0.15426165 -0.044607893 0.22507054 0.18387681 0.24741304 -0.12701917 0.09052939 0.09191157 -0.14918575 0.14631374 -0.105916 -0.053373866 -0.119444475 -0.041721985 0.044746917 -0.13148117 -0.020620646 0.0028359115 0.11561724 -0.051051967 0.2573213 -0.023673499 -0.041035533 0.09160151 -0.108274214 -0.10804504 -0.0816739 0.07475117 -0.056476366 0.041054882 -0.029259166 0.035542786 0.048818514 0.102557614 -0.052940827 0.12593296 0.18630096 -0.1058435 0.08519493 -0.2152263 -0.018921265 0.024199683 0.0945176 -0.12772858 -0.14453138 -0.06699888
