7 64
902 -0.025495369 -0.044346236 0.11694719 0.18964267 -0.14391401 -0.1993705 0.15687193 0.2538318 -0.11039568 0.00016184316 0.24014692 0.042179666 -0.008940685 0.13423887 -0.1287554 -0.015396054 0.016224591 0.10811271 -0.18313561 -0.0687022 0.2504395 0.16931912 0.22822218 -0.09494748 0.1378114 0.01816465 -0.13357271 0.11306813 -0.13178171 -0.106479265 -0.14162298 -0.07060844 0.14953351 -0.18214089 -0.040054645 0.034602135 0.14639473 -0.06227373 0.19381498 -0.06747385 -0.09671731 0.089514464 -0.12756573 -0.13364461 -0.066222906 0.068921484 -0.11074148 0.0966259 0.019907748 0.107649826 -0.041362684 0.15892796 -0.022958893 0.07888503 0.21755777 -0.09903123 0.088518955 -0.20133953 0.010786335 0.061994426 0.047938634 -0.091859326 -0.18316391 -0.09198865
9 -0.02713264 -0.048695285 0.08226851 0.18692553 -0.11609513 -0.16103612 0.1832376 0.29472435 -0.10350295 -0.0019208529 0.22969638 0.06293658 0.04133035 0.13994986 -0.12863584 -0.021233702 0.011214439 0.13711424 -0.13395834 0.023068143 0.2323714 0.16831052 0.2646229 -0.15499197 0.13239808 0.06861864 -0.14397408 0.081574805 -0.08349409 -0.115849175 -0.07019806 -0.058388397 0.09094846 -0.22985676 -0.03934246 0.1033895 0.08062446 0.01132123 0.25230542 -0.057678524 -0.019133808 0.046847623 -0.09635633 -0.12538017 -0.07169215 0.060614824 -0.10105973 0.013249738 -0.044307094 0.11781243 0.0025940717 0.21809433 0.04241605 0.12525447 0.19631879 -0.10191703 0.07623962 -0.2016565 0.098877504 -0.057165712 0.07515963 -0.091341324 -0.23584205 -0.044561807
7 -0.028839184 -0.03941531 0.116612 0.17688523 -0.12505803 -0.18387438 0.17454588 0.2717989 -0.090843834 0.016801344 0.2487741 0.07007573 0.03090917 0.11620528 -0.13554645 -0.011176097 0.010118984 0.1329605 -0.1471802 -0.0038421093 0.24205855 0.1725197 0.2560872 -0.14455478 0.13131663 0.05547367 -0.14301904 0.1039887 -0.08652291 -0.098476425 -0.097336814 -0.053946525 0.08917889 -0.1970757 -0.04853767 0.06438865 0.11357583 -0.006040995 0.24610353 -0.064339615 -0.030852934 0.07619923 -0.099021144 -0.14038453 -0.062627606 0.07578538 -0.09627419 0.03553104 -0.030861076 0.08706396 0.0072268615 0.17587043 0.00045072765 0.11303267 0.20614244 -0.10688514 0.07735002 -0.19664928 0.057139426 -0.024491522 0.070275165 -0.10009548 -0.2025513 -0.056601
5 -0.02282654 -0.056035057 0.09967219 0.17678349 -0.11409756 -0.17399709 0.1561367 0.2629948 -0.09475399 0.020432856 0.22149728 0.057046674 0.02356902 0.13002877 -0.12273016 0.00096631714 0.0082136085 0.1254065 -0.15787293 -0.0035232462 0.24825807 0.16658977 0.24712233 -0.1368157 0.13758312 0.056862928 -0.1479773 0.08452444 -0.10125193 -0.109615296 -0.100593 -0.072674066 0.10699882 -0.19997032 -0.036589433 0.07287354 0.10446184 -0.0045941416 0.23649898 -0.069087215 -0.046779025 0.068026096 -0.09836493 -0.13401078 -0.0641652 0.0734742 -0.09157504 0.044588022 -0.027046759 0.08338091 0.00048421623 0.1799226 0.013095594 0.10825177 0.19903202 -0.100384414 0.066395745 -0.18536294 0.055407528 -0.01463903 0.053580888 -0.10066469 -0.20652844 -0.059524752
6 -0.027761808 -0.053630635 0.10551972 0.1793016 -0.1258206 -0.18491782 0.17442667 0.25940078 -0.10701045 0.022471791 0.24445702 0.05885379 -0.00041216298 0.12697838 -0.11422538 0.0017409122 0.023795772 0.11492463 -0.16956015 -0.0026994527 0.2529835 0.17455 0.23332319 -0.12000969 0.1346993 0.03196969 -0.14742966 0.0958485 -0.105103426 -0.11109073 -0.11212153 -0.074856505 0.114349164 -0.1915274 -0.050144732 0.06357471 0.13177592 -0.027263733 0.23450132 -0.051895373 -0.045716424 0.07738396 -0.08310141 -0.1375845 -0.07647124 0.077562824 -0.09455903 0.059651952 -0.004934661 0.0747594 0.0003615856 0.17245968 0.0071136653 0.092844345 0.21111614 -0.09230446 0.07901536 -0.1953224 0.04718933 0.0088226795 0.070024274 -0.0975698 -0.19849995 -0.051858395
8 -0.024868002 -0.05283905 0.12485924 0.19695993 -0.13961539 -0.17732373 0.17570612 0.27114248 -0.094688006 0.0130986655 0.24125543 0.053229645 0.010126303 0.11532437 -0.11676666 0.004428148 0.026466131 0.11251476 -0.1722204 0.014032768 0.24670929 0.1797437 0.2529037 -0.13479275 0.14141291 0.056777243 -0.14057101 0.09186791 -0.104930736 -0.10809094 -0.09318949 -0.06574345 0.08210838 -0.20986502 -0.051590025 0.06576226 0.11548355 -0.0013516464 0.24798137 -0.059893247 -0.039566673 0.07829459 -0.07869794 -0.13076109 -0.06555112 0.06105237 -0.091871895 0.05863779 -0.024327544 0.06496975 0.015847558 0.16738386 0.0064753257 0.123629674 0.19665334 -0.10519019 0.06717422 -0.18384252 0.04135336 -0.0036463155 0.061049037 -0.08843014 -0.19243287 -0.049250286
4 -0.027550241 -0.053033214 0.115508325 0.18664286 -0.12413982 -0.18704085 0.15391219 0.26214948 -0.0977565 0.008146535 0.24334435 0.056364667 0.02917653 0.11328452 -0.12530082 -0.0151197985 0.0028278874 0.12306715 -0.16361164 -0.0052541355 0.24360073 0.17518166 0.24459076 -0.12862815 0.12625268 0.062119033 -0.15033351 0.09700658 -0.109344 -0.10305655 -0.10340668 -0.0707726 0.095463246 -0.19058566 -0.033005435 0.06274378 0.10825621 -0.022416163 0.24421234 -0.046591863 -0.045446087 0.06881545 -0.09292973 -0.12129262 -0.07894245 0.06866453 -0.08360756 0.04757605 -0.02121191 0.07369405 0.012784977 0.1685047 0.007293251 0.11227803 0.1962072 -0.096418835 0.07492979 -0.19878401 0.04128269 0.00092522765 0.071150824 -0.10393696 -0.19651827 -0.05507799
