7 64
902 -0.017504029 -0.030197501 0.14398593 0.19936056 -0.16567215 -0.20810372 0.12345884 0.24271591 -0.09312346 -0.020028053 0.21539965 0.020162812 -0.010025092 0.1318664 -0.15008129 -0.023597743 0.00353735 0.09935367 -0.19362336 -0.14945275 0.24033172 0.15527338 0.22819357 -0.07179989 0.14635687 0.01472009 -0.107222304 0.12648252 -0.15557915 -0.09081976 -0.16808428 -0.05647824 0.17322029 -0.16699198 -0.026777828 -0.008563146 0.15142536 -0.08044027 0.13587919 -0.10707839 -0.1584645 0.10856524 -0.18444243 -0.13010867 -0.030601604 0.053778857 -0.12553936 0.13971683 0.034727663 0.13513963 -0.08764816 0.12528102 -0.0708441 0.07284227 0.21055835 -0.11656564 0.082786106 -0.18377477 -0.044208784 0.116087794 -0.0017776686 -0.08000626 -0.1491834 -0.14657712
7 -0.024208795 -0.0056595807 0.20279561 0.19886532 -0.15835518 -0.17991856 0.1444948 0.27531755 -0.025042225 -0.011032842 0.24860732 0.06796081 0.09464717 0.04376678 -0.17460051 -0.028454779 -0.01572066 0.14021607 -0.12655774 -0.0117513575 0.2002955 0.17277677 0.3067593 -0.18702935 0.12720881 0.1353913 -0.10996607 0.1258583 -0.06961438 -0.048860207 -0.05867481 0.0036609343 -0.020528222 -0.19964446 -0.043143615 0.023382695 0.069334306 0.052668143 0.2642759 -0.097915076 -0.020189371 0.0962053 -0.12281163 -0.12284018 -0.010139955 0.038642723 -0.081440665 0.023732716 -0.09268028 0.059442505 0.048401255 0.117386304 -0.0539783 0.19469163 0.16022438 -0.15513995 0.048743512 -0.16444333 0.004523159 -0.052223366 0.04044148 -0.08731213 -0.1494416 -0.07648706
9 -0.022335479 -0.008029515 0.19279884 0.18843576 -0.15920652 -0.19717202 0.1343013 0.25583664 -0.040110916 -0.0013375003 0.24056219 0.059040464 0.058356363 0.06722059 -0.17223871 -0.020825606 -0.011553083 0.12965052 -0.14695731 -0.07136433 0.21747373 0.16444245 0.27668366 -0.14770357 0.13344076 0.08726119 -0.10794721 0.133671 -0.09230736 -0.054950327 -0.10586209 -0.012407915 0.04745479 -0.17373613 -0.04203202 -0.0010384109 0.10862724 0.0054254145 0.21510461 -0.11048689 -0.06875081 0.11147509 -0.14905223 -0.13687405 -0.008239075 0.054606836 -0.09671625 0.06539667 -0.04750354 0.078263834 7.6662036e-05 0.1067076 -0.07645927 0.14474498 0.18317284 -0.14509709 0.05991298 -0.16667551 -0.021539977 0.008264568 0.021361113 -0.08974658 -0.13964243 -0.10680478
6 -0.01816392 -0.024582421 0.18035336 0.18978365 -0.14275089 -0.18748482 0.117602885 0.25940126 -0.037580326 0.002814749 0.22254455 0.055834524 0.075391635 0.072588906 -0.16794701 -0.0146356225 -0.023593172 0.1360517 -0.14785375 -0.050551437 0.22358961 0.1642532 0.2870772 -0.16319606 0.13710636 0.113713585 -0.1224188 0.115460224 -0.09777675 -0.06368111 -0.095423676 -0.026987907 0.041667007 -0.18635187 -0.027257511 0.018585077 0.084146746 0.024933133 0.23537692 -0.11229725 -0.06431317 0.09817111 -0.14541347 -0.13059784 -0.013652267 0.05419858 -0.08547327 0.051539622 -0.0665465 0.069060266 0.015177189 0.120274775 -0.055903938 0.1618358 0.17394394 -0.14544219 0.047019776 -0.16298959 -0.009284109 -0.012273104 0.016240459 -0.0997367 -0.1557377 -0.10065463
8 -0.023134187 -0.023902375 0.18075259 0.18308482 -0.14109913 -0.1920592 0.13995734 0.26247913 -0.042890377 0.018226229 0.24477303 0.07008567 0.0669077 0.06905226 -0.16273053 -0.0068782656 -0.012215402 0.13874859 -0.14726247 -0.025927676 0.23251824 0.1730277 0.28625718 -0.16973865 0.13639273 0.103443556 -0.1310912 0.12118833 -0.085726544 -0.066123284 -0.094587974 -0.028178098 0.03426002 -0.18647438 -0.04307087 0.024244254 0.10032496 0.026455557 0.2572079 -0.100868054 -0.04073152 0.103479154 -0.12329927 -0.14337343 -0.023654183 0.06706843 -0.08436996 0.042709067 -0.06566076 0.05363423 0.031474605 0.1245833 -0.051372346 0.15824607 0.18684663 -0.14194575 0.053698715 -0.17169696 0.0038240044 -0.025207167 0.03742615 -0.10497745 -0.16213997 -0.082435004
5 -0.018117458 -0.020741815 0.19021402 0.20605063 -0.16943756 -0.18975386 0.13919616 0.26246768 -0.048205737 -0.0057373247 0.2313572 0.044866808 0.04082671 0.0790228 -0.15931688 -0.008467677 0.0025375572 0.11687214 -0.16769485 -0.059700485 0.22628644 0.17039043 0.2795368 -0.14306717 0.14663312 0.08676007 -0.10763256 0.1213976 -0.10896397 -0.06926511 -0.103601895 -0.024553262 0.05290941 -0.19389077 -0.04383484 0.007841507 0.1088522 0.010656349 0.21634696 -0.11315345 -0.07993215 0.11056514 -0.14016518 -0.13272078 -0.010011756 0.04341656 -0.09984403 0.083611935 -0.04252293 0.07411731 -0.0019555048 0.112773545 -0.06561801 0.15261008 0.180523 -0.14540826 0.053150047 -0.15962015 -0.025147436 0.021113198 0.01092765 -0.08012773 -0.14282045 -0.10484894
4 -0.02326792 -0.023035718 0.19992746 0.1966022 -0.15082127 -0.1982742 0.12330393 0.25944215 -0.036888167 0.0019185478 0.24956287 0.061875317 0.080249794 0.05128757 -0.16727032 -0.020205656 -0.023364846 0.13529173 -0.15345849 -0.032245357 0.2239988 0.17713918 0.28958416 -0.16564445 0.12837204 0.12234271 -0.12839454 0.1260557 -0.09774782 -0.057626322 -0.09214248 -0.025248442 0.01673853 -0.1809328 -0.031602804 0.013015062 0.08989354 0.020735634 0.25953943 -0.090588845 -0.047978893 0.10235035 -0.12600505 -0.12519826 -0.027559584 0.05425409 -0.07403886 0.04776642 -0.06898264 0.043614578 0.042357024 0.108414285 -0.059143882 0.17276424 0.17266646 -0.14374864 0.0513834 -0.17249255 -0.017535524 -0.011104098 0.037931006 -0.10499503 -0.14711119 -0.0855134
