7 64
902 -0.018735673 -0.0059432066 0.182361 0.22951208 -0.21268222 -0.18810676 0.15116209 0.24571694 -0.0812924 -0.06000527 0.22868997 0.0033669046 -0.024862327 0.095356986 -0.13980736 -0.035300117 0.035939652 0.06750579 -0.19303432 -0.124973856 0.1982803 0.16161396 0.23311506 -0.06736214 0.14366862 0.021764448 -0.06648944 0.13868189 -0.14992867 -0.07569865 -0.13165462 -0.018195596 0.10693933 -0.18884312 -0.051350255 -0.024388118 0.14802204 -0.06396391 0.13289164 -0.094412625 -0.14318529 0.11764155 -0.15898186 -0.105865955 -0.015624395 0.006565775 -0.13102159 0.1569283 0.031047516 0.12548938 -0.07106618 0.09782742 -0.08524764 0.10970882 0.18306479 -0.12960589 0.081702545 -0.16807517 -0.06825926 0.12594084 0.0025484983 -0.035397258 -0.11053394 -0.13273044
9 -0.030332148 -0.02212589 0.14293699 0.23412675 -0.17758043 -0.17662552 0.16787054 0.28528067 -0.09746046 -0.07229894 0.25426954 0.028585814 0.039183717 0.09515527 -0.1396302 -0.06962869 0.010640265 0.10468186 -0.15526141 -0.029120984 0.19079877 0.17666045 0.26006645 -0.11407364 0.11347955 0.0775714 -0.10286243 0.11541836 -0.11867701 -0.08743513 -0.071574174 -0.025874607 0.056681614 -0.21574047 -0.030800017 0.048550177 0.08260525 -0.032161064 0.2141648 -0.032091305 -0.060215753 0.059402607 -0.115147956 -0.07529981 -0.069114536 0.0059917187 -0.10122237 0.0630832 -0.019200657 0.12483543 -0.0069882595 0.16279976 -0.0030652434 0.14620635 0.16548495 -0.10955848 0.08858622 -0.20574473 0.02115132 0.023708485 0.072810404 -0.05829486 -0.17282024 -0.06891312
5 -0.028804619 -0.011238327 0.17138156 0.21863067 -0.17865078 -0.18829465 0.16045131 0.27247635 -0.07430917 -0.046402443 0.2571428 0.04120125 0.041728962 0.07820436 -0.15300177 -0.051981322 0.0065187295 0.11101247 -0.1532781 -0.048667125 0.1983476 0.17348857 0.2646359 -0.12369428 0.119863026 0.07604941 -0.10014995 0.1291374 -0.10695607 -0.07066872 -0.08658862 -0.015148209 0.048554834 -0.19567738 -0.04079259 0.021489296 0.10036618 -0.021583088 0.21078038 -0.060537204 -0.062620446 0.08526725 -0.12581071 -0.10004026 -0.043459628 0.023515277 -0.100708954 0.06885225 -0.026018774 0.10336491 -0.0037832437 0.1325565 -0.039696068 0.14408456 0.17300531 -0.124353 0.079930924 -0.18989035 -0.0027346478 0.02437276 0.05490003 -0.066744186 -0.15108372 -0.08347575
6 -0.027377719 -0.03448034 0.13656087 0.23009354 -0.16402277 -0.18204942 0.14810567 0.28200483 -0.09712102 -0.061771866 0.24282806 0.027812444 0.04732519 0.10352666 -0.14199926 -0.063483536 -0.0035576879 0.112129964 -0.1617726 -0.037663106 0.20479667 0.17509086 0.26185516 -0.11712775 0.117689125 0.08620525 -0.1172897 0.108456865 -0.12910496 -0.09262375 -0.08330214 -0.04170887 0.07369339 -0.21177512 -0.01735362 0.05153061 0.07808598 -0.033277206 0.21639861 -0.03968681 -0.072114184 0.05696699 -0.124996684 -0.078333445 -0.071491115 0.016403604 -0.09511994 0.062872544 -0.021909744 0.1203842 -0.008396609 0.1655336 -0.00043200343 0.142759 0.16777845 -0.10840681 0.08231684 -0.20532154 0.018958267 0.025863374 0.063064806 -0.07306801 -0.18071285 -0.0769908
7 -0.031016946 -0.023208084 0.15141563 0.22087502 -0.17516524 -0.19101371 0.17531136 0.27810624 -0.09619558 -0.041588757 0.26495817 0.04094347 0.022353092 0.09785005 -0.14053524 -0.04748129 0.017683813 0.10778362 -0.16529739 -0.037039023 0.21353707 0.18014553 0.255969 -0.11443291 0.12346283 0.05745413 -0.1122641 0.1241034 -0.11573465 -0.088178694 -0.09495246 -0.03320037 0.0739242 -0.20349741 -0.04475784 0.036642563 0.114015065 -0.036827687 0.21685305 -0.046193898 -0.062623054 0.07989275 -0.11318475 -0.10345542 -0.063474216 0.030921567 -0.10468007 0.07384942 -0.0097069405 0.10745599 -0.008691232 0.15235677 -0.02058028 0.12873864 0.18721154 -0.112103954 0.089319885 -0.20367643 0.01277404 0.03234543 0.068886735 -0.06979845 -0.16929802 -0.073351525
8 -0.024563858 -0.02229642 0.17690425 0.23833095 -0.19455154 -0.18094319 0.1679002 0.27621934 -0.08008438 -0.05024073 0.25116923 0.025883112 0.01877261 0.08378761 -0.13746746 -0.036166895 0.025944002 0.09310563 -0.17795978 -0.03395212 0.20623815 0.18169814 0.26625505 -0.11678433 0.1335537 0.07365339 -0.096139595 0.11857724 -0.123590395 -0.08255997 -0.0833373 -0.024867788 0.04654561 -0.21426705 -0.047290307 0.025066549 0.10502799 -0.015428572 0.2124987 -0.062155873 -0.07264598 0.08897079 -0.11063685 -0.095682316 -0.043279003 0.0097851725 -0.10280082 0.09244158 -0.019247087 0.090548314 -0.0016883127 0.13024034 -0.033819616 0.15381043 0.16846551 -0.1254132 0.07181775 -0.17876597 -0.013619472 0.04230511 0.044120245 -0.053320613 -0.14593917 -0.07918561
4 -0.02546528 -0.021220503 0.1881262 0.2550262 -0.20796563 -0.19650762 0.13618466 0.26346493 -0.088644944 -0.08669003 0.25590566 0.003328827 0.0217521 0.073378 -0.14232597 -0.06916186 0.008154289 0.08049782 -0.19555858 -0.08054397 0.19442025 0.18300897 0.25114614 -0.08215712 0.119075954 0.0761636 -0.090941206 0.13274632 -0.16093425 -0.07596207 -0.103889495 -0.02913455 0.06315548 -0.19581775 -0.022994401 -0.00052700035 0.105642684 -0.06350633 0.18544236 -0.039792612 -0.11405013 0.0864127 -0.13390343 -0.06371235 -0.059312962 -0.0087826075 -0.09780055 0.121878125 0.0064212247 0.102535255 -0.018098444 0.10986119 -0.04967767 0.14726102 0.15825123 -0.11703186 0.08327962 -0.19412732 -0.055184167 0.102493435 0.04461805 -0.052440796 -0.1245428 -0.10072918
