7 64
902 -0.015533126 -0.031525597 0.16778913 0.2538356 -0.206485 -0.17124933 0.14629434 0.26391608 -0.088874966 -0.072474405 0.21783037 -0.0076532695 -0.0076611205 0.10299593 -0.12617384 -0.034901593 0.032907218 0.06826942 -0.20334704 -0.07107476 0.2054274 0.17565961 0.2548476 -0.08620963 0.14772585 0.061955564 -0.08341154 0.11179316 -0.16425228 -0.09639699 -0.10111128 -0.037722383 0.08352219 -0.22831541 -0.036346834 0.015894113 0.10973672 -0.037218675 0.17489152 -0.07540244 -0.12802471 0.09190249 -0.13751054 -0.08372444 -0.03895408 -0.012677103 -0.11919822 0.14204046 0.006105899 0.11698321 -0.040039953 0.13149393 -0.03974871 0.1521484 0.16836919 -0.12953357 0.071037844 -0.17608695 -0.043574266 0.099446 0.013583879 -0.037411984 -0.14263548 -0.109967604
9 -0.029231003 -0.005939096 0.16908877 0.25489965 -0.20802626 -0.16400293 0.18797685 0.2978019 -0.08493508 -0.09281949 0.25778022 0.02115972 0.036030848 0.07971267 -0.14214289 -0.0716796 0.029211344 0.09295764 -0.1524693 -0.018184477 0.17008275 0.17944564 0.27557832 -0.12142944 0.118398935 0.08621834 -0.07529702 0.11894372 -0.108450465 -0.07752923 -0.04594663 0.0016867627 0.016190097 -0.23415676 -0.046421833 0.04144398 0.07454563 -0.008051403 0.20817643 -0.041017897 -0.050859172 0.06556792 -0.10787302 -0.06724943 -0.04674703 -0.021381116 -0.10836755 0.068679705 -0.03035329 0.12516819 -0.0023168274 0.1488033 -0.013621768 0.17142597 0.14747114 -0.12363649 0.08142024 -0.1868284 0.011724042 0.016619712 0.0629383 -0.029638862 -0.15141925 -0.0660213
5 -0.029725226 -0.0028093327 0.18118493 0.23684236 -0.20140228 -0.1802077 0.185831 0.28889778 -0.07640711 -0.06318981 0.26628458 0.03603399 0.03203399 0.07711676 -0.15170525 -0.05522849 0.025888529 0.10256286 -0.15582787 -0.035969246 0.18943565 0.18014945 0.27638367 -0.12673931 0.12604608 0.07487412 -0.08497621 0.13243817 -0.10383733 -0.07234926 -0.07067583 -0.00068330683 0.030156458 -0.21818963 -0.055273913 0.024744615 0.100847654 -0.011235031 0.21278867 -0.060926214 -0.055947777 0.08746741 -0.11808758 -0.09616307 -0.036873758 0.0050609317 -0.111447714 0.07484997 -0.027522337 0.11252384 -0.004508445 0.13634558 -0.038217235 0.15887438 0.16902001 -0.13141002 0.082064554 -0.18722172 0.00019615759 0.021238519 0.056671612 -0.04625115 -0.14793989 -0.078143165
7 -0.022413189 -0.030818729 0.16900642 0.25135502 -0.19167204 -0.17342676 0.15630575 0.28548387 -0.0824292 -0.06751926 0.2409153 0.01654555 0.03591344 0.08728933 -0.13740502 -0.047674116 0.015466486 0.09550861 -0.17775105 -0.024064777 0.20085026 0.18291524 0.27592176 -0.12238512 0.13089794 0.09718439 -0.09958295 0.10710178 -0.13272057 -0.087992586 -0.0691344 -0.029813709 0.0387447 -0.2284824 -0.031203229 0.04026472 0.07818612 -0.00824389 0.22016303 -0.054205988 -0.07362093 0.07175275 -0.11284106 -0.07640383 -0.051246483 -0.0044921935 -0.096539475 0.083381616 -0.030818649 0.09811136 0.0041612973 0.14339921 -0.015000129 0.17107281 0.1540077 -0.12420147 0.06717763 -0.18167675 -0.005534133 0.033218764 0.0443098 -0.052762378 -0.1567646 -0.076407515
6 -0.030388044 -0.018123854 0.15471563 0.23760462 -0.19237232 -0.17186795 0.19433977 0.28790888 -0.095811695 -0.06137096 0.26290333 0.031336516 0.015243576 0.09166855 -0.1298391 -0.04976353 0.036787037 0.09377868 -0.16300489 -0.009609254 0.19470611 0.18252721 0.26105925 -0.11606715 0.123701565 0.062608704 -0.09403514 0.11633214 -0.10923324 -0.08878282 -0.06607919 -0.019547746 0.043262303 -0.22417516 -0.05478325 0.045822486 0.10055673 -0.018869516 0.21710919 -0.038155776 -0.04774768 0.07270579 -0.092869684 -0.087939315 -0.05881168 0.0050770976 -0.106798336 0.07274115 -0.01606152 0.107622266 -0.00048590597 0.15356417 -0.008813976 0.14701432 0.16885793 -0.113080084 0.08475536 -0.19174358 0.01932879 0.02201999 0.07087209 -0.044592742 -0.16186196 -0.057703637
8 -0.022828255 -0.022305813 0.18754363 0.2589001 -0.20780534 -0.1632307 0.16873147 0.28170127 -0.07317385 -0.07380315 0.2467055 0.013451221 0.028125528 0.06546521 -0.12804617 -0.04321914 0.031648986 0.08091911 -0.17696927 -0.0010705108 0.18453225 0.18566407 0.27451077 -0.12197158 0.12711982 0.09946499 -0.08293825 0.10707858 -0.12233029 -0.07847783 -0.049132153 -0.014649595 0.0007520002 -0.22962032 -0.044717 0.03331038 0.07635497 0.006247389 0.22208624 -0.046166714 -0.055944923 0.075983815 -0.08729347 -0.06722099 -0.043513767 -0.020264713 -0.0905575 0.08466243 -0.035413492 0.07534504 0.022542654 0.12263751 -0.019920308 0.18355966 0.13664499 -0.12512809 0.06040814 -0.16456959 -0.015033794 0.029805971 0.04675264 -0.03452773 -0.1326275 -0.060208116
4 -0.034135688 -0.00931531 0.18618008 0.25138655 -0.20287742 -0.18655454 0.17969216 0.29436222 -0.08292102 -0.07948554 0.28365016 0.034158953 0.05017049 0.062377486 -0.14911495 -0.07449376 0.014325546 0.103867196 -0.15827735 -0.01474104 0.18283522 0.18974693 0.27674288 -0.12596926 0.108701065 0.095871754 -0.09390826 0.12979303 -0.1092154 -0.06979315 -0.057293974 -0.005705771 0.007648408 -0.21305026 -0.041427806 0.0322297 0.08238418 -0.018489873 0.23182653 -0.025361795 -0.04054953 0.07074315 -0.09845171 -0.069309786 -0.061434284 -0.0042472193 -0.09084488 0.059098706 -0.03290483 0.09542136 0.022446286 0.13395365 -0.02137238 0.16938278 0.15158801 -0.118586354 0.08396281 -0.19742444 0.0021278528 0.017223315 0.080618754 -0.05161454 -0.14569767 -0.058110148
