7 64
902 -0.026982455 -0.020742297 0.110600494 0.20933916 -0.17827722 -0.20154579 0.14176005 0.2365862 -0.1324286 -0.07135547 0.22934133 0.0012451551 -0.0376399 0.14144908 -0.12949406 -0.06974081 0.018702548 0.073693134 -0.18704025 -0.1606241 0.20417406 0.14979802 0.18558443 -0.023373555 0.1206427 -0.023799071 -0.09079359 0.13618179 -0.17050833 -0.098930895 -0.1670615 -0.053116776 0.19942759 -0.16466765 -0.024897961 -0.003573996 0.16019043 -0.14127521 0.100600034 -0.049844246 -0.16679579 0.08547905 -0.17627133 -0.09238575 -0.06838606 0.027749939 -0.1367471 0.15222862 0.08057969 0.18037724 -0.11652191 0.14283659 -0.048711963 0.041792393 0.20828456 -0.086443655 0.11850631 -0.21635397 -0.034483124 0.1581247 0.03704625 -0.055526208 -0.15033944 -0.13527891
9 -0.026612531 -0.025754698 0.1337911 0.2296704 -0.18653649 -0.16888806 0.20045422 0.28591835 -0.107082136 -0.047273412 0.24715221 0.027892657 -0.010998318 0.12059495 -0.122487985 -0.03191755 0.048822552 0.089538984 -0.17192689 -0.024277842 0.21084267 0.17671672 0.2518127 -0.10669156 0.13966925 0.03542766 -0.09643051 0.109620035 -0.116540015 -0.10415152 -0.084714696 -0.033222187 0.085382566 -0.23044507 -0.060973544 0.050615735 0.11932003 -0.026251331 0.19931585 -0.057197552 -0.067679584 0.07846436 -0.10349728 -0.10670728 -0.053605307 0.016450163 -0.12284683 0.0906689 0.001001529 0.12454149 -0.02903011 0.16798192 -0.006720788 0.124913976 0.18791153 -0.11168898 0.08638825 -0.1895996 0.025501378 0.03576639 0.0552958 -0.043692432 -0.17497513 -0.06990633
6 -0.026281077 -0.023114983 0.13542853 0.20653564 -0.1737363 -0.18127806 0.18337673 0.26391807 -0.10119648 -0.026456341 0.24402675 0.034809116 -0.015892655 0.117695704 -0.12698333 -0.02404084 0.039205186 0.09255044 -0.1715419 -0.054761074 0.21882543 0.16846691 0.2355977 -0.09633571 0.13778198 0.019033192 -0.10136616 0.11910814 -0.11711114 -0.096310824 -0.11195792 -0.038024817 0.1087845 -0.20100151 -0.059314273 0.02965973 0.13976854 -0.04380367 0.18403926 -0.06805653 -0.082457684 0.09241505 -0.11746994 -0.12239826 -0.047972765 0.0380845 -0.12168849 0.099752866 0.013456068 0.11731291 -0.040255733 0.15003492 -0.029694727 0.10023698 0.20056413 -0.109776065 0.08824801 -0.18812373 0.008096231 0.054326773 0.04706189 -0.05795918 -0.16392556 -0.08502836
7 -0.018791215 -0.03969707 0.12335143 0.20949112 -0.1598521 -0.16762766 0.1703709 0.27305242 -0.09455245 -0.017238706 0.21530952 0.03068158 -0.0023167932 0.13211727 -0.12529424 -0.007674815 0.0318429 0.10032923 -0.1727517 -0.037534583 0.22930123 0.1654886 0.2522941 -0.117088474 0.1512601 0.043694843 -0.11076587 0.09520476 -0.11897812 -0.10727661 -0.09989482 -0.05042659 0.10727352 -0.22107229 -0.04812951 0.051299468 0.11380427 -0.011588023 0.19683158 -0.088338464 -0.082564615 0.08203097 -0.12047061 -0.12426109 -0.039418124 0.037421394 -0.117373616 0.08877871 -0.009621903 0.11467961 -0.034564238 0.16659462 -0.0109777935 0.118281975 0.19200242 -0.11635469 0.06882821 -0.17363267 0.023171516 0.027775243 0.02649481 -0.06299219 -0.18201819 -0.08562002
8 -0.027350035 -0.03698383 0.11162668 0.19883858 -0.15836158 -0.17962371 0.18720189 0.26110467 -0.115990005 -0.014423933 0.24271637 0.0374349 -0.026265042 0.13171247 -0.11286091 -0.016266426 0.042780355 0.09215297 -0.17558369 -0.037103344 0.23035313 0.16968416 0.22304156 -0.09115189 0.13646065 0.0076672407 -0.11587171 0.10783309 -0.11908817 -0.10955159 -0.115551576 -0.057128478 0.12692554 -0.2000755 -0.057983033 0.046288162 0.14385255 -0.05128555 0.19148256 -0.053471934 -0.07515981 0.08290734 -0.10075143 -0.124051206 -0.066338435 0.049236733 -0.116994 0.09394751 0.021788824 0.1113408 -0.03685345 0.1654029 -0.008135675 0.08507739 0.20754308 -0.09492335 0.09111594 -0.19474195 0.026234515 0.05105543 0.059278008 -0.06583472 -0.17975846 -0.07060554
5 -0.02070319 -0.03330202 0.12904066 0.21920486 -0.18117541 -0.16641839 0.18718444 0.26610667 -0.10531229 -0.03034114 0.22519031 0.019717593 -0.034203824 0.12906235 -0.11160857 -0.009288135 0.055067044 0.07747761 -0.18522997 -0.04193203 0.22043724 0.16829722 0.2347306 -0.09156055 0.150082 0.016790055 -0.09482568 0.10255369 -0.12735958 -0.10828536 -0.104083486 -0.045868043 0.11101368 -0.21960708 -0.062156834 0.039028183 0.13532901 -0.032454856 0.17738612 -0.074670844 -0.09105419 0.089571394 -0.107570104 -0.117434874 -0.04316333 0.024464156 -0.12526634 0.11495973 0.016321588 0.11493211 -0.045019373 0.15431005 -0.01830825 0.10629684 0.19262013 -0.10965028 0.07802165 -0.17294341 0.0071883006 0.061696548 0.03148532 -0.043261662 -0.16372344 -0.082370505
4 -0.025070213 -0.037845183 0.14028506 0.22191194 -0.17661685 -0.17895378 0.17857988 0.2660078 -0.10425957 -0.029432664 0.24569806 0.027125914 -0.01483797 0.111417 -0.11504572 -0.018936489 0.04076151 0.08559 -0.1874947 -0.026570214 0.22444192 0.179005 0.23927018 -0.09793392 0.13771276 0.036058426 -0.10987382 0.107422404 -0.12909052 -0.10300171 -0.101561345 -0.051091805 0.09164846 -0.20963395 -0.053505328 0.03940083 0.12880439 -0.03669252 0.20445476 -0.051539585 -0.07599986 0.08508965 -0.09460048 -0.10788206 -0.06192855 0.029054407 -0.10723339 0.10070604 0.0077808136 0.09143272 -0.01611212 0.14830713 -0.014257346 0.11671767 0.18826048 -0.1047842 0.07995544 -0.18550916 0.0047090007 0.055378657 0.052850187 -0.058807563 -0.16332804 -0.06899785
