7 64
902 -0.009747231 -0.03399589 0.15624067 0.2711669 -0.22386833 -0.16706078 0.14135161 0.26573092 -0.1039569 -0.09605113 0.19320534 -0.035055373 -0.03569357 0.1316929 -0.121802114 -0.038135584 0.04295806 0.050155416 -0.22127627 -0.11670876 0.20116927 0.16430017 0.2410082 -0.056220576 0.15997079 0.037816394 -0.065572314 0.10536243 -0.19122283 -0.107462056 -0.11846405 -0.043472257 0.12963846 -0.2354865 -0.02946737 0.007575777 0.11654396 -0.06057539 0.12254277 -0.0930418 -0.17716457 0.09111538 -0.16455832 -0.074326485 -0.026707366 -0.029471127 -0.1373494 0.17984422 0.035682175 0.1533272 -0.09077319 0.13142148 -0.04489299 0.12872246 0.16492708 -0.12525375 0.07126715 -0.16417004 -0.061455056 0.1455122 -0.01960806 -0.016435634 -0.13315141 -0.13811858
7 -0.017073816 -0.01772194 0.19655868 0.226324 -0.18558466 -0.16792522 0.15683153 0.27655354 -0.043673802 -0.026014304 0.22892092 0.036599964 0.043495394 0.06867779 -0.14975803 -0.010783507 0.018353434 0.10614798 -0.16277348 -0.019717244 0.20649865 0.17496854 0.29345873 -0.15483211 0.14680749 0.105486974 -0.09200208 0.11022213 -0.099662334 -0.06940603 -0.06545703 -0.01004728 0.008411816 -0.2206007 -0.051694773 0.023024576 0.08504015 0.040373478 0.22898947 -0.10415573 -0.056428663 0.09986542 -0.11568539 -0.114420936 -0.0058655506 0.014928895 -0.09740719 0.073823735 -0.060504638 0.068432465 0.017878303 0.116770394 -0.0484454 0.18377304 0.15707959 -0.1497461 0.04431 -0.14673544 -0.014011037 -0.0022459552 0.01475997 -0.056628566 -0.13873272 -0.08384286
9 -0.017097468 -0.013646005 0.2076177 0.22525737 -0.19144745 -0.17938776 0.14629799 0.2663861 -0.042656183 -0.027507376 0.23304562 0.03298692 0.037668142 0.06461678 -0.15530701 -0.014054833 0.014336579 0.10261507 -0.17164189 -0.04876082 0.20902556 0.17440788 0.28700352 -0.14188409 0.14681636 0.09706312 -0.08994748 0.12246304 -0.11175956 -0.06442623 -0.08509023 -0.010231882 0.022443673 -0.20790018 -0.049705558 0.0031928883 0.10030914 0.02098749 0.21541113 -0.10890384 -0.07761439 0.11161119 -0.13094929 -0.1171106 -0.003184691 0.017762046 -0.100651324 0.09287855 -0.047039673 0.07009575 0.0058694277 0.10179367 -0.068925634 0.17470461 0.16366602 -0.15216927 0.04900822 -0.15046285 -0.037808873 0.026541129 0.00806606 -0.059671957 -0.1265275 -0.10047721
6 -0.014114659 -0.027765594 0.20818703 0.22063114 -0.17248976 -0.17778546 0.13490275 0.27405256 -0.030329484 -0.00513221 0.22479343 0.044015117 0.06334739 0.06254915 -0.15899166 0.0019358024 -0.00033679188 0.120196715 -0.16828346 -0.019466804 0.22468904 0.17816475 0.30694014 -0.17247292 0.15221255 0.12857498 -0.10984825 0.107472196 -0.10277431 -0.06683536 -0.07361388 -0.020855235 0.003997399 -0.21433651 -0.04138183 0.02055908 0.07906079 0.054566536 0.25014153 -0.11864509 -0.057894003 0.10572179 -0.12237873 -0.12477102 -0.0019304167 0.030426776 -0.085190415 0.06691108 -0.078103386 0.04531754 0.034666136 0.109638706 -0.055383854 0.19525655 0.1589349 -0.15785526 0.031800237 -0.1427662 -0.021998828 -0.013056769 0.004689917 -0.07853697 -0.14183407 -0.08983694
5 -0.017485507 -0.02702095 0.18952605 0.21621504 -0.17604232 -0.17504099 0.15569325 0.26675388 -0.05063479 -0.0066809715 0.23169741 0.04074361 0.029480096 0.074473076 -0.14115617 0.0028169914 0.021251015 0.10454373 -0.17294142 -0.018037813 0.22258589 0.17693308 0.28117463 -0.14741872 0.14904329 0.09056027 -0.1043363 0.108544216 -0.10432629 -0.075696915 -0.081431024 -0.025989234 0.027284332 -0.20984739 -0.054240566 0.022224884 0.10235977 0.029179892 0.23207375 -0.10036173 -0.05879073 0.104950204 -0.10648064 -0.12499259 -0.0150707625 0.031428672 -0.09389547 0.080295354 -0.048606206 0.053500183 0.019264607 0.11504236 -0.0476177 0.16662833 0.16910349 -0.14148024 0.045802444 -0.14923804 -0.015428665 0.008414156 0.018459553 -0.067259386 -0.14123857 -0.080001175
8 -0.011833809 -0.024034148 0.21046495 0.23310712 -0.19574481 -0.1647963 0.14904594 0.2641208 -0.038099635 -0.020353768 0.21808994 0.024290845 0.024131 0.0632308 -0.13828787 0.008606035 0.029541628 0.088938124 -0.18345048 -0.020963091 0.21175283 0.17651492 0.28785127 -0.1449017 0.156889 0.1018943 -0.08615216 0.10507771 -0.113509245 -0.070672646 -0.07167503 -0.01656142 0.0061855526 -0.2200942 -0.055944487 0.01043036 0.094672486 0.043478455 0.22137178 -0.113527425 -0.071978025 0.112039015 -0.107664146 -0.114887826 0.0031276543 0.00875593 -0.09492386 0.10011135 -0.053192772 0.045456864 0.019480996 0.095678695 -0.060164656 0.18677138 0.1514955 -0.15277147 0.032680105 -0.12844686 -0.04056128 0.02279481 -0.0042132996 -0.04898287 -0.11923781 -0.08810491
4 -0.016799452 -0.027330514 0.20184812 0.23452228 -0.18829496 -0.1797461 0.13556007 0.2641559 -0.051050108 -0.033795413 0.23104376 0.024472632 0.038689777 0.06438218 -0.14462465 -0.017159099 0.009818531 0.097016014 -0.18271202 -0.036217563 0.21144968 0.17891653 0.28052938 -0.13414265 0.141315 0.1053449 -0.098768964 0.11229948 -0.12573692 -0.070979215 -0.082523346 -0.025418628 0.022408385 -0.20716164 -0.037676085 0.011231695 0.09065072 0.013239534 0.22235724 -0.088693455 -0.079041414 0.0999391 -0.11762155 -0.10006818 -0.021312857 0.012114309 -0.08803696 0.09363129 -0.04374455 0.05742886 0.017236453 0.10330175 -0.053031024 0.17683965 0.15405391 -0.14092144 0.046736408 -0.15352708 -0.039372504 0.035395138 0.015460852 -0.06314317 -0.12814936 -0.09012462
