7 64
902 -0.006646318 -0.009892971 0.13860866 0.20039856 -0.20315753 -0.16455252 0.1736753 0.23444657 -0.090639204 -0.02026145 0.17386559 -0.003418826 -0.09401409 0.15705723 -0.12108286 0.020557443 0.07700107 0.0515154 -0.19915569 -0.16000906 0.22123295 0.1355813 0.21078262 -0.05118895 0.18715112 -0.049801044 -0.05068974 0.1206348 -0.1461323 -0.10183202 -0.16383007 -0.030238068 0.19057328 -0.2035374 -0.08076224 -0.021321123 0.19187662 -0.057625867 0.072230615 -0.16374971 -0.18321113 0.13998374 -0.18351045 -0.16014381 0.026913004 0.02880295 -0.17657341 0.19856624 0.06369897 0.16620088 -0.14609355 0.11851082 -0.09430184 0.057676952 0.22025591 -0.13542885 0.07495744 -0.13591716 -0.054989483 0.14440006 -0.05432062 -0.01598382 -0.12449026 -0.16452686
7 -0.028067296 -0.0003027792 0.1503173 0.21215416 -0.18884835 -0.17885385 0.18756801 0.2719088 -0.08988916 -0.050729696 0.2482479 0.034537457 0.0002520179 0.10558627 -0.1451149 -0.04708283 0.03477668 0.09635475 -0.1527809 -0.074891314 0.19468361 0.16349961 0.24757153 -0.10127255 0.13193741 0.027211368 -0.0803804 0.13433987 -0.10625846 -0.08064421 -0.10068541 -0.008427696 0.08977648 -0.20434555 -0.061163157 0.017782107 0.13002641 -0.040229164 0.17048028 -0.07623535 -0.08291321 0.09434237 -0.13937308 -0.11571068 -0.031303346 0.022052502 -0.13209112 0.094566174 0.0051546865 0.14390731 -0.05116841 0.14456224 -0.045917664 0.11235886 0.19228624 -0.12234468 0.09370051 -0.18896842 0.003217338 0.048183 0.04409861 -0.044520166 -0.15348887 -0.097858146
9 -0.037789796 0.0070700105 0.17717603 0.21022499 -0.1802362 -0.19618091 0.19618417 0.29411265 -0.07323149 -0.04012785 0.2933822 0.06874141 0.05592465 0.07212748 -0.17025436 -0.062703855 0.01019858 0.131886 -0.12977198 -0.03136024 0.19720928 0.18126804 0.28276664 -0.14788292 0.114757314 0.074618846 -0.102668 0.1480892 -0.07512791 -0.06313559 -0.075552866 0.006172355 0.028210804 -0.20110667 -0.059992842 0.02859775 0.10795826 -0.010934792 0.23698796 -0.056489024 -0.025165742 0.08907111 -0.12115449 -0.11771182 -0.04393725 0.0362709 -0.10842563 0.038203 -0.04027476 0.11361214 0.00861775 0.1472812 -0.040502913 0.14918293 0.18912299 -0.13127801 0.09456588 -0.20821491 0.026547281 -0.016510833 0.08385959 -0.07162195 -0.16592196 -0.070195295
6 -0.036122315 -0.012706949 0.1550548 0.21582258 -0.1646903 -0.19271865 0.18125515 0.298713 -0.084767744 -0.044084094 0.28139707 0.062054 0.066461846 0.08623032 -0.1629008 -0.06644411 -0.0020342555 0.13610575 -0.1351412 -0.017753776 0.20441882 0.18229772 0.28179467 -0.14852388 0.11194922 0.08938671 -0.11932343 0.1296856 -0.08822968 -0.076767504 -0.07123326 -0.015445744 0.03981347 -0.20824517 -0.040126957 0.05089677 0.08698746 -0.012342457 0.2476561 -0.042528536 -0.027009314 0.06823074 -0.11687909 -0.10299803 -0.06364718 0.035239156 -0.098036304 0.028356925 -0.044369236 0.11519654 0.014367779 0.1681176 -0.011905769 0.1523101 0.1832531 -0.12070111 0.09136604 -0.21619424 0.041990314 -0.022676196 0.08873406 -0.0820154 -0.18706892 -0.06295629
8 -0.028723491 -0.010997091 0.14162563 0.20503792 -0.18135741 -0.18354422 0.19741683 0.2697751 -0.09916881 -0.028718356 0.25412273 0.041024704 -0.016905501 0.115873545 -0.13490027 -0.028793376 0.044321466 0.09574801 -0.16361773 -0.06153975 0.21433903 0.16847941 0.24053839 -0.09976089 0.13847362 0.011788253 -0.09384228 0.13007239 -0.10719203 -0.091235876 -0.111600794 -0.024552679 0.1055652 -0.20263995 -0.069352984 0.024376158 0.14772484 -0.043499887 0.18114977 -0.07400459 -0.07820476 0.09918155 -0.12416584 -0.130556 -0.04042576 0.038842566 -0.13147318 0.09850464 0.013686863 0.12947948 -0.046918683 0.15090457 -0.039295387 0.09963424 0.2079121 -0.11620453 0.09504212 -0.1921855 0.010743705 0.04974425 0.050179224 -0.05332099 -0.16314662 -0.08899558
4 -0.027043244 -0.010631559 0.15991741 0.22565836 -0.1956146 -0.17529115 0.19795926 0.28100488 -0.089359604 -0.044503096 0.25472906 0.034029983 -0.0031326837 0.10098021 -0.13578948 -0.032504138 0.04547221 0.09233211 -0.16591676 -0.039237514 0.20415704 0.17555213 0.25891668 -0.11280705 0.1389572 0.040190034 -0.086515985 0.12480336 -0.107381396 -0.087239385 -0.08710482 -0.01517115 0.06675467 -0.21970074 -0.06762532 0.0289334 0.12563108 -0.02011773 0.19669381 -0.070853285 -0.067192666 0.09419475 -0.11337559 -0.11444176 -0.035855122 0.017512761 -0.12387831 0.09282344 -0.00597577 0.116723046 -0.025553457 0.14482522 -0.034057997 0.13172716 0.1862214 -0.12398749 0.08385262 -0.1818069 0.0064324094 0.03628616 0.047860473 -0.04258986 -0.15490854 -0.07968876
5 -0.02760745 -0.009447983 0.15965906 0.20821127 -0.18382622 -0.19311923 0.16946493 0.25752652 -0.08914411 -0.037388332 0.25260034 0.034299325 -0.002647143 0.09845382 -0.1428412 -0.039287254 0.02635169 0.094683565 -0.16874115 -0.08411741 0.20898047 0.16760896 0.2390069 -0.0927122 0.13087529 0.02678371 -0.09309667 0.13738392 -0.120421834 -0.07947703 -0.12024975 -0.023570916 0.09935658 -0.1859909 -0.054386385 0.004898077 0.14217326 -0.05471064 0.17471288 -0.07195181 -0.094701335 0.10265056 -0.13731974 -0.118163384 -0.039452255 0.0339551 -0.12090677 0.10679515 0.013585116 0.1195251 -0.043290004 0.12795146 -0.05656719 0.10489042 0.19705078 -0.11830695 0.09161211 -0.19073059 -0.018080968 0.07058712 0.04302059 -0.059471138 -0.14435038 -0.10167739
