7 64
902 -0.019917028 -0.013798395 0.23166893 0.2937346 -0.28835624 -0.17602506 0.18051815 0.22038046 -0.102404974 -0.10549348 0.25932294 -0.047493618 -0.108942695 0.04921698 -0.07363915 -0.025110355 0.10614616 -0.020531766 -0.26345515 -0.06974512 0.17391844 0.19256939 0.19219102 7.7235294e-05 0.13622944 -0.0056305854 -0.029269649 0.13583262 -0.19602555 -0.080101244 -0.11101265 -0.022909183 0.04901539 -0.1962716 -0.08102341 -0.05199367 0.17996056 -0.095795296 0.12343416 -0.02019245 -0.14767596 0.12993631 -0.062856704 -0.047817677 -0.04632253 -0.059676386 -0.112625 0.23633505 0.083781734 0.046275675 -0.0316246 0.033730824 -0.0861278 0.12602264 0.14229423 -0.10497939 0.079684235 -0.14446616 -0.14083327 0.22616827 0.023132682 0.025726525 -0.033319592 -0.08511439
9 -0.027092665 -0.016315317 0.22880584 0.27518868 -0.24320354 -0.17568634 0.18723287 0.26463243 -0.07517345 -0.07518425 0.2824721 0.006456209 -0.010878042 0.03288612 -0.10990443 -0.03312277 0.06201517 0.049398575 -0.20938165 0.01111981 0.18520594 0.20501065 0.25892755 -0.09601414 0.12504272 0.07794511 -0.0714985 0.12643139 -0.13575742 -0.07072871 -0.05795978 -0.010919712 -0.025168592 -0.21737285 -0.06998688 0.0019028384 0.116604425 -0.015093006 0.22676103 -0.020393295 -0.055010945 0.102502175 -0.049105953 -0.06321451 -0.05275977 -0.030590452 -0.085034885 0.12416068 -0.008876161 0.02776045 0.044819962 0.0794843 -0.045855835 0.1848647 0.13754934 -0.12211272 0.06644272 -0.1619487 -0.06019301 0.079739854 0.06215028 -0.019526716 -0.09078428 -0.045355815
8 -0.027223261 -0.01616829 0.22834845 0.24890836 -0.22271007 -0.18983592 0.17883438 0.25783202 -0.066341415 -0.041121997 0.2835264 0.026047504 -0.002867496 0.037265014 -0.12294384 -0.018561017 0.048478633 0.068754345 -0.20210394 -0.006201527 0.2051904 0.20018427 0.26074505 -0.10844167 0.13027392 0.07213558 -0.08738173 0.13371618 -0.12497702 -0.066765055 -0.08054478 -0.016431268 -0.0049550654 -0.19942349 -0.07113726 -0.0055518756 0.1320257 -0.013390395 0.23267241 -0.043125894 -0.05585995 0.11594756 -0.065645285 -0.09360002 -0.043802675 0.0025967795 -0.08599408 0.11563101 -0.013592634 0.022689745 0.04110327 0.07799161 -0.06172929 0.16950253 0.15925191 -0.1278977 0.06566769 -0.16417424 -0.05753809 0.06816579 0.055713616 -0.043940023 -0.09896625 -0.057693943
5 -0.02331263 -0.036505677 0.213081 0.25301722 -0.200748 -0.18513344 0.15040685 0.26492447 -0.06465036 -0.04202956 0.26390767 0.022555452 0.029340262 0.044635307 -0.12525024 -0.021897715 0.022505987 0.08325011 -0.20095997 0.008968845 0.21249264 0.19996698 0.27400514 -0.12541051 0.12852003 0.109622344 -0.10748997 0.112530604 -0.13389583 -0.07489548 -0.06966187 -0.034846812 -0.007638651 -0.20831859 -0.043250743 0.017907858 0.094865195 0.0027802847 0.25357395 -0.040366665 -0.054158162 0.09361131 -0.0696392 -0.07908883 -0.054877196 0.0021164892 -0.06916727 0.09337745 -0.037021656 0.018763099 0.056708097 0.09613897 -0.035301447 0.18778946 0.14517914 -0.12534137 0.052583933 -0.16554621 -0.042264007 0.044159926 0.052067995 -0.061108217 -0.12061875 -0.054064225
6 -0.03136148 -0.028810162 0.20651273 0.2364355 -0.20443648 -0.19936417 0.18797602 0.25897542 -0.0836506 -0.020284222 0.29640326 0.03877328 -0.0102562355 0.052596778 -0.11581419 -0.011741364 0.048627514 0.07761907 -0.20577425 0.008190504 0.22671874 0.2058993 0.2519726 -0.10798309 0.12894163 0.057199366 -0.1108471 0.13089022 -0.123941466 -0.07988123 -0.09325973 -0.03720575 0.019923361 -0.19432084 -0.072665825 0.009919178 0.14633386 -0.026681544 0.24974959 -0.02812482 -0.04475934 0.111269996 -0.052237738 -0.105835795 -0.06680378 0.02644198 -0.08279231 0.10532644 -0.0043383157 0.016926909 0.046118177 0.09709597 -0.043930627 0.14927654 0.17894775 -0.11387186 0.074983254 -0.18165655 -0.03531965 0.061463416 0.076736756 -0.062231533 -0.12168129 -0.043959845
7 -0.026655002 -0.027655063 0.22808665 0.2554522 -0.21692245 -0.17915963 0.18391384 0.26637638 -0.06256882 -0.03473833 0.28427717 0.029724535 0.008609689 0.029829644 -0.11348064 -0.008548214 0.050933655 0.07128287 -0.20229122 0.042881813 0.20845786 0.20905021 0.27369314 -0.1285701 0.13028271 0.096573435 -0.09693488 0.117638975 -0.11670665 -0.07162412 -0.054893404 -0.022056509 -0.03843159 -0.21447049 -0.07153258 0.01609095 0.11154504 0.016176412 0.26690942 -0.03171516 -0.026076192 0.10490136 -0.035056405 -0.08674207 -0.051832985 -0.0016584579 -0.07076868 0.09444084 -0.03654284 -0.0048904438 0.07629033 0.085488565 -0.038145464 0.19376667 0.14586064 -0.12650707 0.05335659 -0.15737736 -0.039865837 0.035091504 0.065910734 -0.045855075 -0.10730943 -0.030801415
4 -0.028163847 -0.022542143 0.23093008 0.25553676 -0.22077195 -0.19271979 0.16235764 0.25122404 -0.068222895 -0.05199797 0.2860484 0.019499118 0.0071283095 0.025923034 -0.119087994 -0.029895796 0.03770279 0.06537313 -0.20777394 -0.001025475 0.2003657 0.20396438 0.25561193 -0.10132683 0.11881434 0.08591918 -0.09261007 0.13125153 -0.13621676 -0.06450408 -0.07740297 -0.023286875 -0.014728678 -0.19154237 -0.05734851 -0.006341083 0.12050277 -0.02332833 0.23867176 -0.021420049 -0.056304898 0.10666206 -0.05746229 -0.07337812 -0.059342694 -0.004966016 -0.07117495 0.113737755 -0.013231698 0.009435982 0.055357672 0.070481345 -0.055233616 0.17511228 0.14613548 -0.11945044 0.065038204 -0.16884427 -0.06670451 0.07777515 0.06519446 -0.04828405 -0.09265701 -0.050654195
