7 64
902 -0.045407433 0.022749305 0.17526484 0.20994252 -0.19408436 -0.1872237 0.2316085 0.29047903 -0.08358696 -0.051933266 0.31690237 0.072259635 0.032666974 0.059968203 -0.15480903 -0.07187963 0.03752001 0.115489036 -0.12016763 -0.006860923 0.17644809 0.18479283 0.265506 -0.13332467 0.10147442 0.0476711 -0.08554344 0.15737931 -0.05786255 -0.059087753 -0.05966139 0.023208924 0.008666856 -0.20013085 -0.084028274 0.028567309 0.123773836 -0.022029528 0.2340092 -0.02582295 0.0021565123 0.08842656 -0.0886988 -0.11136947 -0.0551521 0.026191778 -0.11385777 0.036069248 -0.024589814 0.11295368 0.015214897 0.14532313 -0.03524989 0.13990758 0.18941422 -0.12010278 0.11102219 -0.21541844 0.037207153 -0.015703445 0.11486138 -0.050807327 -0.15572946 -0.04439548
9 -0.046748936 -0.001935574 0.16184193 0.16152216 -0.1410133 -0.201462 0.20019886 0.25139877 -0.076599546 0.012604134 0.31852883 0.098548464 0.041042995 0.04425625 -0.13901109 -0.039176654 0.015501995 0.1287777 -0.12115053 0.023701772 0.20690596 0.18452233 0.23865762 -0.13866206 0.08775766 0.048541263 -0.12896402 0.14595762 -0.04748205 -0.056646183 -0.08031973 -0.013260443 0.013313188 -0.15022303 -0.07444648 0.029702755 0.13510343 -0.024144439 0.26891065 -0.0067380466 0.029859962 0.089996435 -0.051480845 -0.12865016 -0.079137996 0.07680382 -0.07394484 0.009939188 -0.029276485 0.039186914 0.060652513 0.12587433 -0.028492836 0.11347715 0.19666669 -0.09689698 0.09907577 -0.21124834 0.04053571 -0.031954546 0.13283136 -0.09730852 -0.15538779 -0.016973272
5 -0.04072466 -0.0075267656 0.15690301 0.12652169 -0.116772875 -0.20459232 0.18354002 0.22614563 -0.06276439 0.060472954 0.2961593 0.10966389 0.027461458 0.051950324 -0.13773645 -0.0013289221 0.013097556 0.13350707 -0.122971475 0.0042070053 0.22962266 0.17194392 0.22631651 -0.14077803 0.101994485 0.029461449 -0.1385108 0.14227773 -0.04082475 -0.05546472 -0.10896568 -0.025999937 0.04269879 -0.12748267 -0.080437794 0.0156081775 0.15880862 -0.017402403 0.2576744 -0.043450657 0.017180901 0.111080065 -0.061551306 -0.1652802 -0.05807347 0.11113397 -0.07508186 0.019241743 -0.025676038 0.019662693 0.04975224 0.11075014 -0.050425183 0.08807849 0.21529222 -0.10112911 0.08659774 -0.19151837 0.03023772 -0.028859334 0.10523054 -0.11478059 -0.15039396 -0.03273402
7 -0.039248295 -0.018090757 0.15324739 0.15878265 -0.13278663 -0.20695506 0.18666773 0.25133952 -0.07911488 0.034159258 0.2961813 0.09339847 0.028023908 0.072426945 -0.14074486 -0.01424906 0.013390925 0.13250944 -0.14126039 -0.0014003306 0.2371945 0.18168627 0.24302879 -0.13919593 0.11203449 0.04052166 -0.14165527 0.13720024 -0.06639423 -0.07199251 -0.10803319 -0.035666823 0.057700925 -0.15711185 -0.06959022 0.02994586 0.14821635 -0.023816789 0.26018164 -0.04180369 -0.003883708 0.10087964 -0.07582367 -0.15183784 -0.068065286 0.09355747 -0.084469035 0.03235014 -0.022551151 0.04600974 0.03655211 0.13455857 -0.034520112 0.102669835 0.21572703 -0.104580335 0.09049529 -0.20514674 0.033225298 -0.01558281 0.10162584 -0.10921186 -0.16916645 -0.042048275
6 -0.049210016 -0.0077980906 0.15037851 0.1459647 -0.13190113 -0.20945168 0.2101125 0.23982893 -0.088580675 0.035965472 0.32803422 0.106651925 0.01630336 0.053044073 -0.12753849 -0.02398515 0.026333 0.12524356 -0.12979916 0.025472494 0.22387446 0.18643759 0.21982516 -0.1264477 0.08957437 0.018691085 -0.13996533 0.14844717 -0.047556568 -0.064166024 -0.10030099 -0.027878264 0.039213136 -0.13710365 -0.085460596 0.028047437 0.16477424 -0.04220422 0.26902035 -4.6137095e-05 0.031001326 0.098482 -0.038095254 -0.14602628 -0.09057684 0.09849644 -0.07562909 0.018349597 -0.008976781 0.027404401 0.05741267 0.12643845 -0.028810406 0.08599894 0.21734925 -0.08572161 0.107154645 -0.21797763 0.04356339 -0.018789323 0.14326048 -0.10632086 -0.15918978 -0.010244823
4 -0.0402468 -0.007951959 0.16749056 0.16691265 -0.15143952 -0.19736765 0.2064646 0.25110683 -0.07490136 0.02622783 0.3042218 0.09036199 0.013940716 0.058027536 -0.13214716 -0.011032167 0.0341828 0.117719404 -0.14119393 0.016777279 0.22307275 0.1850619 0.24188858 -0.13647766 0.11146402 0.03467404 -0.12399567 0.14023504 -0.057380095 -0.0663237 -0.09186361 -0.020110287 0.029439798 -0.16348757 -0.08694564 0.024507362 0.15283841 -0.014196432 0.25877634 -0.03586543 0.009885586 0.106742546 -0.05515795 -0.14721045 -0.06098383 0.078329846 -0.08668275 0.038340002 -0.021781284 0.035013296 0.045853272 0.12167372 -0.039256524 0.111963354 0.20648341 -0.10703017 0.08927267 -0.1942039 0.027381202 -0.01522487 0.105414964 -0.088977166 -0.15143499 -0.029565237
8 -0.0440264 -0.015902175 0.16868123 0.1448726 -0.12603423 -0.21870312 0.17605929 0.22794722 -0.0724969 0.046765894 0.31562185 0.102858804 0.03125157 0.04199794 -0.1351969 -0.014763871 0.006564699 0.1292742 -0.14131345 0.008347458 0.2343016 0.18568826 0.22570892 -0.1309087 0.093647234 0.040078904 -0.14860354 0.14705758 -0.061407834 -0.05736716 -0.11334751 -0.036942113 0.03734507 -0.12427505 -0.07008942 0.012728719 0.15876494 -0.037296522 0.27195153 -0.015900668 0.012436641 0.10705882 -0.052105952 -0.14684151 -0.08178157 0.10415854 -0.06300097 0.02698679 -0.01827867 0.0050216042 0.06538862 0.10487924 -0.046093985 0.09541823 0.2108826 -0.09366754 0.09236079 -0.20692603 0.015613865 -0.0069564576 0.12208068 -0.12114265 -0.1464892 -0.026049824
