7 64
902 -0.0061367108 -0.059278153 0.14422831 0.25294757 -0.1918251 -0.1728182 0.119174376 0.25444862 -0.10352145 -0.058640014 0.18747653 -0.026709106 -0.030174892 0.14017293 -0.108985364 -0.010573175 0.028377531 0.057955567 -0.22775236 -0.094042465 0.22529227 0.16279702 0.23104729 -0.06441569 0.1603114 0.047063913 -0.09449784 0.084991165 -0.19143179 -0.11391025 -0.12703946 -0.07400577 0.13845928 -0.21844421 -0.017287977 0.018775959 0.11256961 -0.05071169 0.14539875 -0.09148318 -0.16806509 0.08682425 -0.14570133 -0.08403735 -0.038559154 -0.0020685673 -0.113815255 0.16625609 0.026695669 0.11140949 -0.06593725 0.12958795 -0.030891782 0.12041031 0.16640474 -0.11400477 0.055538844 -0.15555608 -0.055064276 0.131722 -0.021254921 -0.04468483 -0.14243807 -0.12475692
9 -0.016032927 -0.07027745 0.10868719 0.23825036 -0.15611996 -0.16454849 0.14296025 0.27666938 -0.11256664 -0.042012215 0.20354871 0.006193439 0.007280927 0.138953 -0.10907304 -0.020381812 0.01825029 0.09166192 -0.19895336 -0.017723063 0.23486853 0.17597187 0.2506617 -0.10542985 0.14518179 0.072324015 -0.12875834 0.07146963 -0.15714306 -0.12592363 -0.09196297 -0.08256993 0.110863954 -0.23455463 -0.016087698 0.07388274 0.083003215 -0.023656597 0.2111981 -0.0537901 -0.09620878 0.05330584 -0.10660532 -0.08392044 -0.07470179 0.016819086 -0.09635802 0.0930713 -0.007970286 0.10420347 -0.018578742 0.1804308 0.02642964 0.13406143 0.16992864 -0.09929295 0.06280748 -0.18324216 0.021271713 0.04592932 0.03395833 -0.06809195 -0.19444539 -0.073457055
6 -0.015640084 -0.064710066 0.12433984 0.22502209 -0.15270433 -0.1772005 0.13400336 0.26693785 -0.100517966 -0.023199255 0.20653841 0.015524953 0.009917511 0.12983814 -0.11930174 -0.0110644465 0.011015739 0.098107 -0.19862902 -0.037442893 0.24347793 0.17383644 0.25120756 -0.10892226 0.14819463 0.06913503 -0.13172747 0.08292873 -0.15327983 -0.11594458 -0.10921971 -0.079753496 0.11499231 -0.2173908 -0.019338384 0.054825254 0.09825459 -0.024922699 0.2099013 -0.07098505 -0.102858245 0.070664465 -0.11886139 -0.10179961 -0.0625474 0.033316214 -0.09618747 0.09821255 -0.008591097 0.09296387 -0.01957909 0.16275698 0.0014341543 0.12782033 0.18022957 -0.107373945 0.06068011 -0.1794724 0.0046592173 0.05161192 0.024642624 -0.07961347 -0.18383816 -0.08654761
7 -0.011415992 -0.08534615 0.10023893 0.22675365 -0.13748686 -0.16679806 0.120414734 0.26502258 -0.10884332 -0.01996509 0.1819027 0.006371802 0.008952637 0.14536445 -0.10575144 -0.0029519799 0.0070939334 0.095777996 -0.2054773 -0.023986882 0.2506298 0.17041203 0.24505486 -0.10661189 0.15110779 0.075161524 -0.14269689 0.06017141 -0.16436894 -0.13070087 -0.10589861 -0.101227954 0.12956755 -0.2242634 -0.00542324 0.07460549 0.08219484 -0.020815628 0.21073313 -0.06660857 -0.10752527 0.054288737 -0.11163399 -0.09258524 -0.07275934 0.032395303 -0.08851271 0.0948538 -0.009617547 0.09047899 -0.019210069 0.17772183 0.026786506 0.12519498 0.17263561 -0.09683259 0.05182378 -0.17442514 0.017181797 0.04806265 0.018584955 -0.08349978 -0.19821733 -0.080196545
5 -0.01704416 -0.07424579 0.102303706 0.21805829 -0.14390557 -0.17180197 0.14006563 0.25658593 -0.116053596 -0.017479956 0.20456864 0.013018796 -0.011046193 0.13925178 -0.099597074 -0.005107674 0.022065323 0.087676354 -0.20416929 -0.02356269 0.24692623 0.17327972 0.22954428 -0.09266991 0.14423344 0.048197683 -0.13705423 0.07405719 -0.15681587 -0.12676705 -0.1127103 -0.09452745 0.13171665 -0.21250214 -0.022138435 0.06444866 0.10776954 -0.039703466 0.2054172 -0.05144172 -0.098788895 0.06327354 -0.097937316 -0.09839653 -0.07982672 0.037655592 -0.093281396 0.101417676 0.008960087 0.08695863 -0.020710645 0.16970877 0.01838987 0.10755434 0.18357478 -0.08957305 0.065761924 -0.18258572 0.01472509 0.061245978 0.036844134 -0.07828709 -0.18873276 -0.07157548
8 -0.010803112 -0.07364579 0.12698385 0.23998867 -0.16379628 -0.1626763 0.13354564 0.2630047 -0.1006236 -0.030206354 0.19125625 -0.0011937101 -0.0067029777 0.12863548 -0.10179821 0.0014203761 0.026259856 0.078617714 -0.21425176 -0.02051708 0.23965782 0.17548685 0.2475441 -0.10114855 0.15512654 0.07135484 -0.122630246 0.06840001 -0.16434187 -0.12246033 -0.09799285 -0.0849446 0.10371396 -0.22976619 -0.021605698 0.05798778 0.09224252 -0.014683222 0.20510182 -0.069386326 -0.107903026 0.068693854 -0.1011129 -0.08956776 -0.05964646 0.015064717 -0.09291557 0.114346266 -0.006233821 0.07809024 -0.014472473 0.15518408 0.008968028 0.13806765 0.1647041 -0.10570149 0.04887081 -0.16151085 -0.005593958 0.06355329 0.012570995 -0.063201785 -0.17249535 -0.079215445
4 -0.0171494 -0.07472011 0.12139612 0.2376056 -0.15625006 -0.1826599 0.12247898 0.26079142 -0.114049494 -0.039369874 0.21289012 0.002821911 0.0054068104 0.12825009 -0.109209105 -0.02368137 0.007087936 0.08757849 -0.21392272 -0.03828692 0.24266788 0.17979239 0.23851569 -0.08914066 0.13872187 0.06988535 -0.13735667 0.080911614 -0.17545027 -0.1211399 -0.114364766 -0.09375482 0.122127585 -0.21187378 -0.0065230946 0.054480642 0.09654669 -0.0500614 0.20813018 -0.043047115 -0.11399518 0.061177947 -0.11027761 -0.079476714 -0.08587817 0.023888 -0.08630444 0.10934058 0.0066569615 0.086671524 -0.015679263 0.1597247 0.011141408 0.1239256 0.17288242 -0.093529314 0.06621532 -0.19026457 -0.006964908 0.0795123 0.03637609 -0.08070033 -0.17989716 -0.08125686
