7 64
902 -0.007206236 -0.0552156 0.089994736 0.27816543 -0.19916983 -0.13237573 0.1501789 0.28946623 -0.13017191 -0.117281884 0.15766425 -0.04596827 -0.02640681 0.17211255 -0.101223275 -0.05021499 0.042548977 0.05167404 -0.19643888 -0.072584435 0.18351077 0.15002264 0.23255974 -0.060223274 0.15185207 0.046113543 -0.06905261 0.06104399 -0.18224843 -0.13298205 -0.078114085 -0.058402866 0.14095375 -0.26694888 -0.011052286 0.069942795 0.067098744 -0.043614544 0.12358509 -0.07064695 -0.15636891 0.039145462 -0.1484203 -0.046508715 -0.049259484 -0.046631377 -0.14089501 0.1479433 0.024332382 0.19481413 -0.09741086 0.20238957 0.028134605 0.13804263 0.15671784 -0.109523185 0.0725916 -0.17855471 0.0057238527 0.10398175 -0.005829815 -0.009476929 -0.18935382 -0.11396536
9 -0.018449804 -0.06750459 0.12113715 0.24392103 -0.17072189 -0.15699658 0.16258642 0.26775542 -0.11390893 -0.042598855 0.21844208 0.003592894 -0.015374283 0.119452514 -0.08767892 -0.011123492 0.043004114 0.070384644 -0.20654114 0.016475243 0.22532974 0.18389162 0.2382555 -0.095544524 0.1396828 0.061717685 -0.11829229 0.07112698 -0.15115471 -0.12279366 -0.077267475 -0.07725327 0.07998609 -0.23320249 -0.034823637 0.06986337 0.09417371 -0.020846436 0.2187028 -0.030687254 -0.07468921 0.05810416 -0.06493629 -0.07574738 -0.08120193 0.005722116 -0.089399494 0.101319015 -0.0006002261 0.071913265 0.004928046 0.16319388 0.028164752 0.13915075 0.16146418 -0.09253132 0.062338337 -0.17509873 0.013311269 0.053340297 0.049545478 -0.05236627 -0.17474255 -0.047500227
6 -0.022508858 -0.05427133 0.16725129 0.2218414 -0.16623831 -0.18605515 0.16563849 0.26702592 -0.083074525 0.004605679 0.25295737 0.040852387 0.007464785 0.08988893 -0.11669191 0.009890173 0.030384734 0.09917041 -0.20159149 0.014923544 0.25181752 0.19571139 0.26620817 -0.13297053 0.14701714 0.075798094 -0.1354124 0.099224016 -0.125557 -0.10101394 -0.09425725 -0.064387806 0.05259653 -0.21215487 -0.052319065 0.04385877 0.118864834 0.0023519134 0.2584664 -0.059356146 -0.05144667 0.09398492 -0.07033548 -0.12018039 -0.06072516 0.044761218 -0.07915638 0.081077546 -0.026770666 0.028274884 0.036661018 0.12877072 -0.014843622 0.14482468 0.17735462 -0.112202495 0.054436356 -0.16676092 -0.0007459897 0.02194652 0.04993369 -0.08049959 -0.15728311 -0.050231397
5 -0.012841005 -0.06804651 0.135897 0.23876294 -0.16527382 -0.16749299 0.14083184 0.2704199 -0.09594304 -0.026512342 0.20447251 0.0078925025 0.002254985 0.124006614 -0.109871246 7.568727e-05 0.02409799 0.08668283 -0.20767151 -0.01566066 0.24054764 0.17862381 0.25718933 -0.11260945 0.15448783 0.07731675 -0.12420396 0.07481776 -0.15453653 -0.11741906 -0.09441226 -0.07745407 0.09192589 -0.23055224 -0.02630043 0.05733764 0.09278457 -0.006800211 0.21722364 -0.07230408 -0.096919894 0.072634295 -0.101624615 -0.096349284 -0.05667286 0.01957299 -0.092145756 0.10363976 -0.015517634 0.07485644 -0.0063123927 0.154013 0.00445273 0.14403202 0.16674232 -0.1107233 0.049524687 -0.16324681 -0.0013083825 0.04891927 0.017758228 -0.06656005 -0.17299898 -0.07662313
7 -0.022235032 -0.076942384 0.14084713 0.21798909 -0.1548821 -0.18426314 0.1615058 0.24697782 -0.10744557 0.013664171 0.24827549 0.029758498 -0.026328297 0.10291534 -0.08437877 0.022803355 0.042924732 0.07925741 -0.22565898 0.030307556 0.26533744 0.19883427 0.23242882 -0.10255484 0.1437969 0.049518075 -0.14920768 0.083831534 -0.14692548 -0.11987478 -0.10852582 -0.0976843 0.08320102 -0.20243093 -0.049192768 0.052953955 0.13510461 -0.026496554 0.2532782 -0.028893363 -0.059179228 0.08558895 -0.03967902 -0.11080552 -0.09118284 0.050492868 -0.07045495 0.10064807 0.004043379 0.008423118 0.037843637 0.13312562 0.007511351 0.11834684 0.18295881 -0.08602532 0.058755655 -0.17267723 -0.0016710293 0.05544581 0.062559515 -0.0840427 -0.1621169 -0.03344662
8 -0.015766248 -0.06890939 0.14577484 0.24752863 -0.18077317 -0.16293006 0.16470444 0.2657149 -0.102548234 -0.025464194 0.22297949 0.0057432484 -0.02418496 0.11050509 -0.088542044 0.010679342 0.05113585 0.0669407 -0.22172348 0.019487012 0.23926164 0.19088231 0.24763803 -0.10296375 0.15288779 0.06394416 -0.118950844 0.074840255 -0.1532433 -0.12009782 -0.08422097 -0.07773068 0.06921813 -0.23414586 -0.045899384 0.05689693 0.10834509 -0.007400909 0.22854127 -0.048329733 -0.07758327 0.077738285 -0.059949122 -0.09119233 -0.06773437 0.011251847 -0.08699039 0.11387001 -0.0049427273 0.044875186 0.0153211225 0.14189391 0.009605421 0.14614205 0.16286816 -0.1023293 0.051104095 -0.1587971 -0.006147571 0.058214504 0.035439696 -0.052639276 -0.15820912 -0.049941815
4 -0.022037694 -0.07368017 0.1660625 0.23639786 -0.16668105 -0.19973591 0.13605513 0.25248533 -0.0991247 -0.008997377 0.25402626 0.021637447 0.0012149175 0.08870284 -0.10461355 -0.000554115 0.018227737 0.085694805 -0.23055556 0.0013309648 0.2592641 0.20221296 0.2464077 -0.10316743 0.13763967 0.07780876 -0.14868645 0.09536989 -0.16446528 -0.10846453 -0.1136196 -0.0919794 0.07378499 -0.19741759 -0.028800782 0.03685806 0.120466374 -0.036003985 0.2530189 -0.029425154 -0.07995638 0.08595659 -0.06667696 -0.09395988 -0.09047103 0.038625933 -0.06452975 0.10648723 -0.0033255138 0.014085842 0.038764473 0.1200922 -0.008737721 0.13736074 0.17266431 -0.0958704 0.05859614 -0.18102074 -0.028227776 0.07225905 0.056215998 -0.09077836 -0.15205976 -0.05345203
