7 64
902 -0.025416205 -0.0053650113 0.14264698 0.2287978 -0.2032041 -0.18349825 0.1722884 0.268533 -0.10381065 -0.07361847 0.22506791 0.007135882 -0.022112112 0.12735033 -0.14107308 -0.055349525 0.035335816 0.079071455 -0.17244637 -0.12557065 0.1926775 0.15443824 0.23026843 -0.06745516 0.13934153 0.0077710883 -0.06983502 0.1333896 -0.14159536 -0.09030839 -0.12565148 -0.019453421 0.13771631 -0.20443769 -0.047518924 0.0048828544 0.13883406 -0.0748684 0.12527864 -0.08503776 -0.13697153 0.09447914 -0.17070979 -0.103634164 -0.029258532 0.007967515 -0.14651123 0.13588835 0.036686394 0.17745762 -0.09642765 0.14073767 -0.0537235 0.0903141 0.19146091 -0.11725147 0.098282374 -0.18824989 -0.022630455 0.104412846 0.018667463 -0.032677673 -0.14624545 -0.12895316
6 -0.035373326 -0.013589295 0.1562423 0.21314459 -0.17361175 -0.19390337 0.1805578 0.27426696 -0.09392036 -0.04334554 0.28214186 0.050227523 0.029784173 0.082993716 -0.14393191 -0.058059376 0.015529229 0.111137025 -0.15434402 -0.03056662 0.20456368 0.18214047 0.25328308 -0.1155551 0.11108183 0.057276312 -0.110818 0.13400944 -0.10358368 -0.07833419 -0.08961534 -0.02297496 0.05752426 -0.19237453 -0.048839495 0.031922415 0.11571785 -0.041217063 0.22350566 -0.0313227 -0.045599572 0.07998817 -0.10478945 -0.100881286 -0.06939633 0.033116292 -0.09989764 0.06158919 -0.011480493 0.10167855 0.0030953158 0.14682259 -0.02438372 0.12876028 0.18702963 -0.10926588 0.09668507 -0.21147048 0.015381593 0.024425546 0.087282516 -0.07194114 -0.16406535 -0.06387207
9 -0.039025877 -0.010318176 0.17992048 0.19715238 -0.16590643 -0.20880596 0.18586153 0.2685418 -0.0797064 -0.011133844 0.31105798 0.07556388 0.041029226 0.05875648 -0.1514258 -0.043575745 0.01166691 0.12485144 -0.1519585 -0.0085234195 0.2199587 0.19337952 0.2629439 -0.13620038 0.10822874 0.06545628 -0.12619042 0.14657332 -0.08455597 -0.066402346 -0.09268322 -0.020288272 0.029948257 -0.17596972 -0.061728276 0.02295694 0.13075855 -0.02778673 0.26064998 -0.029936142 -0.015896564 0.09678237 -0.085727565 -0.12236428 -0.070335604 0.05787018 -0.08656511 0.045004867 -0.026734922 0.05952408 0.039280742 0.1307155 -0.03931768 0.13670255 0.19863065 -0.1154436 0.09422244 -0.21355434 0.012843963 0.0022174073 0.10355038 -0.09224699 -0.15781762 -0.04912034
4 -0.02992459 -0.023292337 0.15530549 0.21545911 -0.17119594 -0.20033462 0.15644914 0.26848832 -0.09248666 -0.039492346 0.2585658 0.0381724 0.025587352 0.09651912 -0.14664632 -0.0498868 0.005351991 0.10936079 -0.16884024 -0.0647863 0.21649365 0.17548074 0.25017732 -0.10641274 0.122645 0.056290664 -0.11468133 0.1296922 -0.12584695 -0.0837664 -0.112378135 -0.03717878 0.089915074 -0.18898603 -0.035157446 0.022426097 0.11879722 -0.050674304 0.20414919 -0.053409915 -0.082437046 0.08538578 -0.13132389 -0.10479693 -0.060502786 0.036859635 -0.10357841 0.08385721 -0.0028780035 0.10962853 -0.019385725 0.14123219 -0.035032913 0.11943881 0.19000398 -0.11265319 0.08959774 -0.20458518 -0.0044726823 0.051262356 0.059085898 -0.078148544 -0.16248211 -0.0900237
5 -0.037257116 -0.020763144 0.150555 0.20056978 -0.16308564 -0.20436431 0.18404989 0.26740772 -0.10025917 -0.020112038 0.29045767 0.059855368 0.018397601 0.0881968 -0.13862818 -0.044732627 0.01765262 0.11411203 -0.16125113 -0.027648155 0.22287785 0.18535602 0.24390528 -0.11263166 0.11336605 0.04191643 -0.12574054 0.13609329 -0.103845 -0.083768435 -0.106657825 -0.03706386 0.075757846 -0.18149865 -0.054236222 0.031648047 0.13628045 -0.051506292 0.23234092 -0.028549671 -0.043200087 0.08704772 -0.09646197 -0.11675653 -0.07874045 0.054442264 -0.097734496 0.06362697 -0.0017070038 0.08776762 0.0061865966 0.1471915 -0.024845524 0.11111874 0.20356938 -0.10241725 0.100471795 -0.21750297 0.01807924 0.028940769 0.09481022 -0.08555516 -0.16942328 -0.058995906
7 -0.03275069 -0.019998413 0.17384137 0.22167026 -0.1849615 -0.1974521 0.18610205 0.27293023 -0.09091315 -0.030905467 0.28699178 0.047649346 0.013598959 0.07841386 -0.13675298 -0.0372644 0.028721666 0.10198949 -0.1749282 -0.019959627 0.21888678 0.19141707 0.25754017 -0.116322935 0.12337075 0.055409256 -0.112744085 0.13322103 -0.111413926 -0.081803136 -0.09480077 -0.029538454 0.050805766 -0.19752349 -0.059472155 0.025286417 0.13035353 -0.033507433 0.23381779 -0.03870393 -0.04882916 0.09452691 -0.091477 -0.11008549 -0.06504569 0.034489423 -0.098511614 0.07965171 -0.009424754 0.075667985 0.013721055 0.13394147 -0.032979853 0.13622814 0.19072594 -0.11487715 0.08870122 -0.20139684 -0.0008508825 0.0364276 0.079099804 -0.07011749 -0.15398456 -0.061270054
8 -0.03925145 -0.01387699 0.17790964 0.20795082 -0.17245163 -0.21981359 0.16450217 0.2610632 -0.09049461 -0.032406908 0.304437 0.057776194 0.036117278 0.0640021 -0.15150586 -0.061730962 0.0006089818 0.115645535 -0.16516784 -0.047274668 0.2159392 0.18969908 0.24702992 -0.1084332 0.10235272 0.058575846 -0.12445249 0.15140957 -0.11334212 -0.06809129 -0.1130463 -0.029819712 0.059551384 -0.16452011 -0.04245323 0.009157971 0.13149334 -0.06364999 0.23048551 -0.019000577 -0.050556723 0.09113915 -0.10421703 -0.10204209 -0.07982447 0.04845785 -0.085010104 0.06688428 -0.0034193725 0.07413281 0.01687508 0.12041131 -0.04483091 0.11910986 0.1916692 -0.10451487 0.10061283 -0.2197896 -0.010847023 0.04626768 0.09683526 -0.09116054 -0.14694783 -0.06677538
