7 64
902 -0.02358533 -0.026510729 0.22738609 0.24929868 -0.2439858 -0.19452155 0.19229399 0.22392823 -0.08962642 -0.02441159 0.28008014 0.0036739248 -0.09018024 0.052383237 -0.08566313 0.018443005 0.09545852 0.02215651 -0.25421995 -0.02861975 0.22737028 0.20460533 0.21540406 -0.051937867 0.14955172 0.0013888412 -0.077769496 0.137236 -0.16016899 -0.08415388 -0.12533678 -0.041607026 0.048151698 -0.18693216 -0.09790533 -0.034273796 0.2013487 -0.059595715 0.19238655 -0.042157296 -0.09996525 0.14837946 -0.045029577 -0.11105396 -0.048670113 0.007202119 -0.10262296 0.19460723 0.050257217 -0.0002843154 0.012040982 0.050792765 -0.08529499 0.12782276 0.18598107 -0.11652311 0.073339395 -0.1556402 -0.10429834 0.15916352 0.04125794 -0.026631448 -0.07061711 -0.06624194
9 -0.02502909 -0.01835961 0.2475839 0.24143916 -0.18765624 -0.1757328 0.14074194 0.2745623 -0.016902996 -0.033358514 0.27237576 0.051143676 0.101173766 -0.006120031 -0.15141211 -0.028889721 -0.0064079957 0.11442194 -0.15528023 0.05512239 0.18824232 0.19947627 0.3143162 -0.18555364 0.11172274 0.17798544 -0.10629877 0.11369333 -0.08360368 -0.040820442 -0.018842675 0.001759814 -0.10413363 -0.20494173 -0.039839916 0.022661926 0.043422926 0.0710315 0.30417407 -0.047546055 0.009732697 0.085541256 -0.056522906 -0.07347336 -0.031946436 0.00030978615 -0.040363215 0.024038471 -0.10704959 -0.015740328 0.117426276 0.07872677 -0.038248926 0.23874947 0.10977479 -0.1436574 0.029313525 -0.1447957 -0.023738151 -0.04569397 0.06025433 -0.07108646 -0.110132225 -0.030838303
8 -0.021588838 -0.019289766 0.24755165 0.2250431 -0.19559097 -0.18385549 0.15330777 0.24937013 -0.025661385 -0.0014097479 0.2672925 0.047149207 0.038113974 0.010985054 -0.13479711 0.009059093 0.025526969 0.09142473 -0.18364225 0.022286206 0.21231312 0.1956779 0.28458422 -0.15364705 0.13356379 0.117000945 -0.100381345 0.12247892 -0.09668664 -0.04977655 -0.06356306 -0.011603288 -0.052112553 -0.18981875 -0.06666911 -0.00481186 0.1060037 0.044028506 0.2698717 -0.072481595 -0.024917755 0.122917786 -0.05895811 -0.11165155 -0.018760206 0.022004949 -0.06223554 0.07924666 -0.06427061 -0.025004104 0.08454474 0.05948674 -0.07103403 0.19957408 0.14553657 -0.14535828 0.034539722 -0.13580087 -0.05475706 0.010487694 0.038559742 -0.06654175 -0.09392507 -0.050568465
5 -0.017839354 -0.03509858 0.23211958 0.22989717 -0.18715248 -0.18662563 0.13493395 0.24957988 -0.035796974 -0.0033733877 0.2510434 0.0363181 0.03721828 0.03051623 -0.13264388 0.009655415 0.015578577 0.09217217 -0.19674054 0.007018092 0.2248538 0.1937723 0.2815659 -0.14571793 0.13942063 0.11902779 -0.11168694 0.11211817 -0.11850915 -0.06257633 -0.07730162 -0.032196924 -0.02093953 -0.19338591 -0.04975554 0.0023075528 0.101070136 0.0322784 0.26259026 -0.076083355 -0.04954091 0.11483017 -0.07333932 -0.10683457 -0.026787672 0.02382629 -0.062039755 0.08939595 -0.056439996 -0.014219607 0.06979759 0.071261436 -0.060877092 0.19207935 0.14787981 -0.140195 0.03244372 -0.13986853 -0.05636563 0.026846148 0.02721216 -0.07462192 -0.106588535 -0.062468268
6 -0.024072219 -0.030664654 0.22953185 0.23455468 -0.20642824 -0.1855405 0.17289194 0.24285054 -0.057292182 -0.006368974 0.27661285 0.03382255 -0.009209405 0.029252725 -0.10793871 0.014030361 0.053051624 0.06676553 -0.21061102 0.026819654 0.22215277 0.20341861 0.25656104 -0.118334524 0.13569395 0.076222435 -0.10161512 0.119897656 -0.11857676 -0.06942823 -0.07935281 -0.03210531 -0.017846175 -0.19195715 -0.07703315 -0.001115481 0.13646436 0.007239773 0.2555636 -0.045343857 -0.038420726 0.1224114 -0.035833478 -0.10673245 -0.044474285 0.019051934 -0.06972132 0.110797554 -0.023508055 -0.024817092 0.07053241 0.066577606 -0.0575854 0.17240618 0.15895487 -0.1252338 0.049467202 -0.14781609 -0.05796018 0.054503877 0.053406402 -0.0557066 -0.09544981 -0.03966861
7 -0.01981657 -0.025489615 0.24888697 0.25349483 -0.21796218 -0.16948281 0.16458438 0.2554488 -0.03653336 -0.027031364 0.26348048 0.02577815 0.01906189 0.011966946 -0.11609319 0.0069391304 0.046220947 0.06821447 -0.20093559 0.043696288 0.20221324 0.20314683 0.28261533 -0.14047071 0.13625957 0.117614605 -0.08747644 0.11140317 -0.112127714 -0.059525117 -0.045670606 -0.013371579 -0.06588637 -0.21160768 -0.06975726 0.0037711083 0.0981197 0.044815455 0.26569018 -0.05522995 -0.0278184 0.11334394 -0.037142143 -0.08732813 -0.02647487 -0.008001213 -0.06249605 0.09624519 -0.055852074 -0.027345406 0.08755876 0.060688116 -0.05448959 0.21251431 0.12789321 -0.13959394 0.03174685 -0.12873943 -0.059675317 0.027362159 0.039248705 -0.04187427 -0.086265326 -0.037706092
4 -0.021344993 -0.027174218 0.24899876 0.22851092 -0.18641096 -0.1820801 0.12892962 0.24183789 -0.020946603 -0.010524579 0.26282856 0.042281672 0.060359456 -0.0046005854 -0.13177006 -0.0019912182 0.007228162 0.092196025 -0.18146555 0.03485906 0.20315678 0.19590054 0.28200403 -0.15417784 0.118830815 0.14291248 -0.10696429 0.113849245 -0.10223352 -0.044372898 -0.051835492 -0.01744024 -0.07212962 -0.18019402 -0.046958987 -0.0011462154 0.080618285 0.04523934 0.27994117 -0.051858988 -0.01806789 0.107482485 -0.049182914 -0.087245375 -0.03172957 0.01392969 -0.040405616 0.06508199 -0.07503184 -0.042954613 0.106366105 0.051590297 -0.059616633 0.21066226 0.1233816 -0.13658535 0.02734519 -0.13434276 -0.05873307 0.005569194 0.04571933 -0.073452294 -0.08812228 -0.04001001
