7 64
902 -0.017729783 -0.02519402 0.11286421 0.21450226 -0.19261211 -0.15906219 0.20675209 0.26272124 -0.117595546 -0.03323922 0.22361381 0.011353629 -0.07721256 0.16162694 -0.110593535 0.00035314262 0.084663466 0.06560291 -0.19932513 -0.07433294 0.23084937 0.16676575 0.23698883 -0.07730569 0.17605 -0.02578381 -0.081006914 0.11340512 -0.1386608 -0.12419144 -0.12682463 -0.043157525 0.15687789 -0.2427248 -0.08526849 0.03356332 0.1730334 -0.048309088 0.1483373 -0.10276099 -0.122694075 0.10866604 -0.13258241 -0.14253055 -0.028950103 0.024730708 -0.16341405 0.1532328 0.044975087 0.15785205 -0.09433311 0.16157523 -0.030020308 0.0756721 0.21217658 -0.11237375 0.08865634 -0.17030936 0.004716055 0.09212459 0.012566847 -0.024036873 -0.16495216 -0.10405355
9 -0.024333298 -0.017725697 0.18534277 0.25659207 -0.2136176 -0.1519716 0.21042602 0.29799452 -0.07348858 -0.056196403 0.25270703 0.026667263 0.0124457665 0.07074846 -0.11973836 -0.022140332 0.058400165 0.08069504 -0.16790919 0.03671298 0.18814296 0.18910962 0.28171957 -0.13901015 0.13762325 0.08687612 -0.07792572 0.10227072 -0.09593912 -0.08391613 -0.03130606 -0.0053468915 -0.015816864 -0.24839224 -0.072536536 0.04898723 0.08524085 0.035115987 0.23771457 -0.05480305 -0.024355626 0.081303954 -0.062185217 -0.08795699 -0.033602517 -0.015523986 -0.10066899 0.07302691 -0.044878814 0.06973844 0.032133702 0.13860115 -0.010718251 0.19180344 0.14895505 -0.13264106 0.05927653 -0.15839131 0.01237642 -0.0037968163 0.053609572 -0.023864347 -0.1452488 -0.041365176
5 -0.025999226 -0.007407522 0.2000793 0.2383611 -0.20616806 -0.16227713 0.20625083 0.29127762 -0.057743203 -0.036922246 0.26172078 0.043578476 0.025201162 0.05720272 -0.13425824 -0.01753761 0.04851391 0.09407167 -0.15655066 0.026291687 0.1918167 0.18679649 0.28684336 -0.15148084 0.13568676 0.08919847 -0.08112384 0.11539817 -0.08009905 -0.0698116 -0.039640233 0.0045063626 -0.023892354 -0.23091066 -0.07751624 0.03435386 0.09414324 0.04134226 0.24440439 -0.068605095 -0.016019447 0.095152915 -0.07112891 -0.106270865 -0.021594876 0.0026352955 -0.09856838 0.06290363 -0.054578744 0.059355937 0.038862657 0.12403615 -0.03227642 0.18903685 0.15686882 -0.1408353 0.05824289 -0.15639263 0.006674638 -0.01639638 0.052548833 -0.036849715 -0.13766013 -0.047513768
7 -0.01919435 -0.031068 0.16617313 0.2424716 -0.19704242 -0.15651973 0.19469096 0.28743187 -0.07998263 -0.03555441 0.23451626 0.024051793 -0.003043897 0.098388195 -0.11877771 -0.0039282916 0.055323835 0.08363247 -0.18218446 0.009035996 0.21353771 0.18345925 0.27574322 -0.13190107 0.15400562 0.06934534 -0.0911813 0.096871495 -0.112074435 -0.09796278 -0.061971586 -0.027745899 0.034635764 -0.2459846 -0.067512244 0.048446972 0.1027496 0.022985848 0.2240831 -0.0784916 -0.054767836 0.089087665 -0.08409832 -0.10853963 -0.030372936 0.0046023047 -0.110258274 0.09183606 -0.030348873 0.08036751 0.005340021 0.14611843 -0.014307346 0.16681817 0.16774686 -0.13091098 0.057174858 -0.15708141 0.008891864 0.015674546 0.032324437 -0.03684063 -0.15724796 -0.061962448
6 -0.026734186 -0.018193768 0.18083361 0.24114758 -0.20686568 -0.15523872 0.22483404 0.2905764 -0.07713605 -0.03350074 0.26393205 0.03849315 -0.004593856 0.072844826 -0.11254747 -0.006487196 0.07046785 0.080325745 -0.16966099 0.04762059 0.19990268 0.19156146 0.27241483 -0.13781428 0.13980812 0.066081844 -0.08416333 0.10524246 -0.08592628 -0.0864306 -0.039919373 -0.0101011945 -0.008366748 -0.24015567 -0.08762257 0.048469417 0.10753487 0.032309297 0.24404414 -0.053004548 -0.012187815 0.09048771 -0.04631472 -0.10597494 -0.036861267 0.0022112688 -0.101833835 0.072748415 -0.036543284 0.05542584 0.036553644 0.13697393 -0.012522035 0.17538565 0.16367383 -0.12728705 0.0630298 -0.15890117 0.018999903 -0.006435991 0.06279299 -0.028892934 -0.14625953 -0.03110065
4 -0.01980099 -0.018516092 0.20456669 0.25970015 -0.22114652 -0.14514144 0.21221244 0.2954586 -0.057734556 -0.04285927 0.2444391 0.025831727 0.007077973 0.059630733 -0.11546602 0.00082264957 0.06839958 0.074209794 -0.17456803 0.051624577 0.19121695 0.19067739 0.28961208 -0.14948939 0.148482 0.09500828 -0.07167963 0.09650827 -0.090586364 -0.07983126 -0.023359282 -0.0011601158 -0.039060146 -0.25333217 -0.08266318 0.042897843 0.08555029 0.061731707 0.24472615 -0.0726193 -0.019038942 0.09339329 -0.050304677 -0.09630436 -0.01506678 -0.018253114 -0.09719321 0.0794715 -0.057056334 0.04317196 0.04614716 0.12248464 -0.021258004 0.20859161 0.14289553 -0.14431188 0.043037146 -0.13605411 0.0001140012 -0.010453918 0.036622863 -0.017710464 -0.13142657 -0.039095834
8 -0.023911992 -0.024828888 0.18378004 0.24618019 -0.20703529 -0.16576712 0.19433664 0.27696788 -0.07987625 -0.04326491 0.25530604 0.024034549 -0.0049745375 0.074696474 -0.115282044 -0.014655298 0.055889133 0.07492832 -0.18612489 0.011630589 0.20422241 0.18974356 0.2645301 -0.1190155 0.13946754 0.06731478 -0.08783702 0.10900438 -0.114417106 -0.08708306 -0.0627247 -0.02252221 0.0163794 -0.22860572 -0.06954353 0.032870263 0.11109903 0.0058910972 0.22675975 -0.053411067 -0.04815498 0.09299417 -0.06861957 -0.09601445 -0.042169675 -0.00021248752 -0.099576615 0.096371144 -0.021320535 0.06021323 0.021133294 0.123787574 -0.024162835 0.16541544 0.16088253 -0.12361302 0.06368543 -0.16230546 -0.00956496 0.033367224 0.050012052 -0.03553289 -0.13604102 -0.052023895
