7 64
902 -0.014546658 -0.021937069 0.16805229 0.26839945 -0.23353769 -0.1723502 0.15272091 0.25809714 -0.103750214 -0.0992299 0.21148993 -0.030673126 -0.044264913 0.11491302 -0.11918197 -0.044951215 0.050829593 0.042574953 -0.21684512 -0.11592947 0.18966709 0.16569877 0.22867621 -0.04541146 0.14884746 0.023874316 -0.056335893 0.11588171 -0.18041787 -0.095339365 -0.11632883 -0.031525586 0.11559976 -0.21572325 -0.03922428 -0.0064775953 0.12798789 -0.073217675 0.113440886 -0.074781895 -0.16456257 0.09530833 -0.14852169 -0.06911956 -0.029911673 -0.031061681 -0.13305658 0.17963102 0.046503995 0.14179829 -0.08433883 0.11220347 -0.05477857 0.11688107 0.16030824 -0.11679974 0.0784336 -0.16267447 -0.069597304 0.15402322 -0.004708534 -0.008812739 -0.112008 -0.12690584
9 -0.020327266 -0.022302777 0.1764248 0.2460675 -0.20048313 -0.17442288 0.16278684 0.28018698 -0.07776112 -0.059703887 0.23573202 0.015719749 0.017462991 0.09172437 -0.13989094 -0.035898954 0.02680659 0.08961377 -0.18100414 -0.046833184 0.20323032 0.1775749 0.27237594 -0.11611435 0.14189018 0.07722256 -0.0881204 0.11517258 -0.13186234 -0.08562162 -0.083073705 -0.02272656 0.053087123 -0.22686309 -0.044061407 0.024563627 0.09918405 -0.010376645 0.20094535 -0.07798943 -0.08943255 0.089655586 -0.12651022 -0.094040275 -0.031998426 -0.00020999067 -0.111314915 0.1033342 -0.02039933 0.1061137 -0.016512658 0.13361424 -0.03678323 0.16056648 0.16553354 -0.13326134 0.06747339 -0.17271273 -0.019141762 0.048973266 0.0265071 -0.045473587 -0.14669926 -0.09315354
6 -0.023668801 -0.0014535519 0.18783945 0.23914298 -0.21413775 -0.17781644 0.17467795 0.27050835 -0.074576825 -0.06604305 0.24688035 0.01804012 0.0037369987 0.08061608 -0.14348604 -0.043799262 0.036963746 0.081127174 -0.1719027 -0.06891398 0.1869293 0.17163822 0.2591621 -0.10139913 0.13549586 0.05341149 -0.0686501 0.13247392 -0.12103274 -0.07147788 -0.0886242 -0.0022622985 0.051687583 -0.20945981 -0.0577549 0.0019255496 0.11806932 -0.025982426 0.17463942 -0.07761321 -0.09142102 0.101669915 -0.13069409 -0.0971367 -0.021186559 -0.0027812552 -0.12066871 0.11346257 -0.0046040835 0.11496771 -0.031307746 0.11445154 -0.060124636 0.1441627 0.16825688 -0.13330616 0.07775569 -0.17032593 -0.032914326 0.06582126 0.02853571 -0.032295484 -0.12428412 -0.099482015
4 -0.008899513 -0.043757938 0.15995555 0.22067866 -0.16213271 -0.1775903 0.11329901 0.26601246 -0.062974155 -0.022436297 0.18983069 0.017108526 0.034986258 0.11416488 -0.1503261 -0.00815233 -0.004800786 0.10936708 -0.18549171 -0.079745024 0.23343724 0.16226774 0.2772515 -0.1299033 0.159891 0.09227745 -0.11211511 0.097023085 -0.1438432 -0.092260994 -0.11180941 -0.050444666 0.095851965 -0.21451254 -0.018314173 0.024898127 0.08954231 0.0030059638 0.19405876 -0.12495168 -0.12221252 0.093169756 -0.1643047 -0.11732852 -0.013725118 0.02967944 -0.10607543 0.103900775 -0.03347165 0.10335105 -0.032862067 0.13643304 -0.043766078 0.1502354 0.17409095 -0.1411194 0.045070946 -0.15637214 -0.024855666 0.044454053 -0.017465236 -0.07692958 -0.16175804 -0.12494859
7 -0.019889276 -0.032667316 0.16586566 0.21636067 -0.17005742 -0.18536586 0.15081188 0.2683911 -0.073166996 -0.017469654 0.2328423 0.03527861 0.022700896 0.098153375 -0.14251725 -0.0138785625 0.013806677 0.10717905 -0.17835164 -0.047112484 0.22947843 0.17468545 0.26844037 -0.12785752 0.14586358 0.072491385 -0.11315026 0.113596655 -0.12406243 -0.08833497 -0.10441648 -0.04059961 0.07458331 -0.20881833 -0.042603206 0.026442653 0.1124908 -0.007297344 0.21699598 -0.09142699 -0.08399524 0.09756828 -0.12857342 -0.12234513 -0.03348405 0.037128508 -0.10433069 0.090940446 -0.025194863 0.08730492 -0.009680583 0.13615793 -0.040077846 0.14395545 0.18645526 -0.13191004 0.063697375 -0.17515878 -0.010215181 0.03408003 0.02558166 -0.075316325 -0.16087903 -0.09465929
8 -0.013350726 -0.030330328 0.18189079 0.23743095 -0.19440502 -0.17286497 0.14456871 0.264385 -0.06673784 -0.039012663 0.21436326 0.010913617 0.007159107 0.09333252 -0.13564193 -0.010522674 0.026736308 0.0840149 -0.19333194 -0.05845861 0.21553843 0.17195024 0.26780462 -0.114141025 0.15449741 0.07488613 -0.08973899 0.1073812 -0.13934357 -0.085830905 -0.09699737 -0.032876533 0.063728206 -0.21817528 -0.042993214 0.013031467 0.10674846 -0.0024067583 0.19110383 -0.10194972 -0.1071123 0.102307126 -0.13123122 -0.106322065 -0.016202252 0.008407014 -0.10863421 0.12043997 -0.019095913 0.08692462 -0.020808104 0.116265364 -0.05115792 0.15578929 0.1662118 -0.1383265 0.052263085 -0.15203282 -0.0391369 0.06251467 -0.000952995 -0.04967013 -0.1349116 -0.10556188
5 -0.018609935 -0.032074936 0.18517672 0.23339242 -0.18205123 -0.19018255 0.13221487 0.26859647 -0.066802576 -0.037802223 0.23355618 0.023537558 0.036872763 0.083914585 -0.14959852 -0.028078971 0.001876148 0.10372464 -0.18685417 -0.05924344 0.22154029 0.17853624 0.27592936 -0.12449927 0.14141952 0.0940548 -0.10886484 0.11696719 -0.1392186 -0.08066038 -0.10176578 -0.03711664 0.059450183 -0.20678502 -0.028822782 0.01505736 0.09876574 -0.011570842 0.21479996 -0.08619971 -0.09736587 0.09588111 -0.13731776 -0.102609076 -0.033743557 0.020581748 -0.0963458 0.099192254 -0.029188834 0.082958005 -0.0039549507 0.12106275 -0.048416384 0.16042772 0.17000297 -0.13576546 0.059537966 -0.17372099 -0.033553697 0.050327484 0.019856617 -0.07294699 -0.14591353 -0.1026951
