7 64
902 -0.012811384 0.0035396265 0.12718612 0.17612123 -0.16530788 -0.17374691 0.1457413 0.25414273 -0.07115117 -0.027107263 0.18450177 0.028145934 -0.0015158174 0.14527826 -0.1720745 -0.024625352 0.014552188 0.11157827 -0.14709881 -0.16821635 0.21246499 0.13142392 0.25184685 -0.10293787 0.1642647 0.011336665 -0.074213825 0.13254711 -0.116057 -0.08216414 -0.1464241 -0.0117253885 0.16612555 -0.1974972 -0.047845226 -0.0035069962 0.13954017 -0.03686439 0.11129597 -0.16538727 -0.1516776 0.115492195 -0.22536327 -0.15692818 0.023082007 0.04658406 -0.16507725 0.12397301 0.008865188 0.19847076 -0.1262063 0.14920005 -0.08619436 0.086941175 0.21961077 -0.15024035 0.081422396 -0.16939871 -0.014856878 0.06718299 -0.03154878 -0.05626565 -0.16365439 -0.17284258
6 -0.022831902 -0.022645095 0.19590893 0.20474206 -0.17036425 -0.19130307 0.16214064 0.2651086 -0.051529825 0.008689323 0.2539718 0.057218824 0.032470778 0.068498634 -0.14773601 0.0018321581 0.01669924 0.114667356 -0.168225 -0.020464566 0.23078167 0.1804812 0.27795509 -0.14996119 0.14301664 0.08208707 -0.11457956 0.121949695 -0.09537258 -0.070458554 -0.09344216 -0.02572018 0.030956576 -0.1942929 -0.059990436 0.015645022 0.11949511 0.018623352 0.24385938 -0.094881386 -0.04867543 0.113296926 -0.10525446 -0.13901639 -0.022083431 0.050698478 -0.091950394 0.07226827 -0.045408085 0.04586956 0.02594476 0.11193065 -0.05634474 0.155249 0.18418199 -0.13933083 0.05514787 -0.16207576 -0.013060039 0.0047679334 0.034455385 -0.081588745 -0.14333408 -0.076965645
9 -0.023759041 -0.022172747 0.2073956 0.18241297 -0.15425113 -0.20623924 0.14663252 0.24922147 -0.03831499 0.03783295 0.2602044 0.073214285 0.042474285 0.05562002 -0.15659179 0.013372769 0.0022223229 0.12698765 -0.16624913 -0.029828947 0.24464191 0.17985542 0.2758093 -0.15744598 0.1407234 0.083745115 -0.12851726 0.13118753 -0.088219516 -0.059953906 -0.11149877 -0.029899374 0.032196537 -0.16842951 -0.05933039 0.00031915144 0.132283 0.01764163 0.25428587 -0.10321223 -0.044845052 0.1270807 -0.108349726 -0.15729262 -0.018611789 0.07665374 -0.081419736 0.06586705 -0.05012682 0.020321436 0.038313296 0.09352596 -0.075664505 0.1463761 0.19419786 -0.14148876 0.05176711 -0.16087285 -0.024420828 0.001505352 0.03409238 -0.10411871 -0.13578089 -0.08103448
7 -0.01820533 -0.032671664 0.18760373 0.19573417 -0.15573214 -0.19588183 0.13575196 0.25523728 -0.049292415 0.019171089 0.23460694 0.053212374 0.03678288 0.079267435 -0.15174916 0.0088187875 0.0012862359 0.12001152 -0.17509703 -0.04479578 0.24377027 0.17410131 0.27503267 -0.14710611 0.14894904 0.08478758 -0.12492892 0.116655566 -0.1089772 -0.074105345 -0.11262936 -0.04079286 0.05816982 -0.18564272 -0.045141865 0.011492359 0.11857057 0.012362815 0.23418203 -0.11051933 -0.0722861 0.11459679 -0.12562844 -0.14444746 -0.018679045 0.06183469 -0.09007585 0.08024602 -0.042925216 0.0481096 0.0132452 0.11100764 -0.06161791 0.14612485 0.18891306 -0.1400662 0.049027693 -0.15942979 -0.022697046 0.017069217 0.015943553 -0.09551555 -0.1475564 -0.09518032
4 -0.023166202 -0.039185446 0.1870738 0.18853043 -0.15161446 -0.19681418 0.15868649 0.24935006 -0.0567073 0.04127832 0.2567739 0.06566247 0.018564502 0.06977106 -0.13171153 0.025992688 0.019877313 0.1132971 -0.18077484 0.00043590422 0.25312904 0.1850358 0.26283747 -0.14678563 0.14399277 0.07081548 -0.13548769 0.11387573 -0.09678319 -0.0782857 -0.10660367 -0.04962346 0.04205747 -0.17963625 -0.06334608 0.019838551 0.13545465 0.014488054 0.25973773 -0.08417429 -0.0385428 0.116628915 -0.078401536 -0.15069117 -0.03709282 0.0737411 -0.077700615 0.07131125 -0.03804035 0.008702669 0.044204284 0.10674267 -0.048433278 0.13844173 0.19332038 -0.1257052 0.050901584 -0.15984352 -0.010718306 0.0065801693 0.04335217 -0.09831997 -0.14548685 -0.05997979
5 -0.01744017 -0.02326135 0.19766428 0.20192035 -0.17668091 -0.18783067 0.15465666 0.2507502 -0.04929032 0.013167088 0.23713122 0.04545524 0.009033478 0.074431896 -0.14206679 0.016980689 0.026804047 0.10069516 -0.18298039 -0.043778457 0.23619133 0.17578447 0.26929438 -0.13541079 0.15561616 0.06541271 -0.105626315 0.121802576 -0.108577125 -0.07280679 -0.11010714 -0.029590337 0.05064288 -0.19191693 -0.06466435 0.00015862226 0.13586125 0.011954003 0.21947081 -0.113999575 -0.075470984 0.12715551 -0.11504107 -0.1466733 -0.0077335946 0.0495387 -0.10100608 0.1024934 -0.03001417 0.045892414 0.0057929754 0.09808051 -0.07363035 0.14502263 0.18885362 -0.14380907 0.05022883 -0.14858565 -0.036287703 0.03534221 0.010154259 -0.073788024 -0.12946764 -0.09440577
8 -0.023943027 -0.0265221 0.2127134 0.19479792 -0.16398126 -0.21524423 0.13334492 0.24217904 -0.04717595 0.021754848 0.26399016 0.0591931 0.035138592 0.053184394 -0.1532605 0.0021714473 -0.0013383365 0.11607871 -0.183713 -0.04897741 0.24477391 0.18404546 0.26624492 -0.13642503 0.13662422 0.080822006 -0.12853959 0.13609721 -0.11272241 -0.061468665 -0.124900244 -0.038459588 0.04478525 -0.16159311 -0.04915587 -0.011225762 0.13774686 -0.009174005 0.24266447 -0.08893577 -0.06773543 0.1269485 -0.11313837 -0.14141876 -0.030818602 0.06758358 -0.07836586 0.08748965 -0.032242525 0.02003558 0.031658635 0.08333116 -0.0809374 0.14165145 0.19128476 -0.13533458 0.057223607 -0.16875923 -0.04771742 0.039136413 0.034842074 -0.10330094 -0.12537079 -0.08906319
