7 64
902 -0.029004859 -0.001736151 0.14719222 0.22674294 -0.20629743 -0.18934214 0.17554145 0.25639823 -0.11134982 -0.07972055 0.2506891 0.009731881 -0.027569907 0.1080862 -0.13125716 -0.06541137 0.03853094 0.069514155 -0.17201474 -0.1135357 0.18177584 0.1582826 0.21087319 -0.051326867 0.120413415 -0.0011633569 -0.068366386 0.14008462 -0.13894238 -0.082417764 -0.12317961 -0.017839178 0.12300737 -0.18381678 -0.05001012 -0.002572815 0.1461896 -0.09393468 0.12682047 -0.05153462 -0.12268175 0.092369944 -0.14628492 -0.09005322 -0.047865096 0.0061586737 -0.13415144 0.1338595 0.04872196 0.15673533 -0.079755045 0.12795457 -0.05413067 0.0837916 0.18764769 -0.10455858 0.10810542 -0.19805792 -0.030049192 0.11723193 0.044361852 -0.032729246 -0.13245001 -0.11148802
9 -0.025850529 -0.034305464 0.15869984 0.22640274 -0.1613996 -0.19422884 0.12432568 0.27240282 -0.081507795 -0.053344812 0.24390188 0.03053458 0.06369111 0.0879561 -0.15525307 -0.0622265 -0.020914927 0.11976418 -0.16841973 -0.054205395 0.21282367 0.17836562 0.27014017 -0.12333463 0.117514685 0.103603974 -0.124040306 0.11689521 -0.13567102 -0.081731826 -0.09494636 -0.042373363 0.06582286 -0.19771776 -0.008492419 0.033387426 0.07808738 -0.032528814 0.2238438 -0.049322546 -0.081643894 0.067856066 -0.1373952 -0.08157822 -0.06531918 0.023539267 -0.08550761 0.06655054 -0.030315958 0.10216127 0.0018423462 0.14496006 -0.021238191 0.15197349 0.16678987 -0.11695983 0.07531339 -0.20224257 -0.0051426105 0.033359423 0.053802527 -0.08712349 -0.1677583 -0.08911516
6 -0.031075248 -0.022375192 0.15946968 0.20504484 -0.15671712 -0.20388724 0.13896021 0.26204196 -0.08214437 -0.035097543 0.26214167 0.047292594 0.051967513 0.08206571 -0.15615804 -0.058174822 -0.01452875 0.12238947 -0.15788367 -0.061060976 0.21395662 0.17533791 0.25535634 -0.11774599 0.111484066 0.07664078 -0.12365492 0.13201171 -0.11846222 -0.073777966 -0.10817557 -0.035291802 0.073779285 -0.17634359 -0.024340203 0.021184726 0.10526828 -0.045788758 0.21935724 -0.04706078 -0.070379205 0.08075237 -0.13270597 -0.100685924 -0.06476618 0.043599203 -0.08991642 0.063635826 -0.01821032 0.0980339 -0.0013262583 0.13634117 -0.036154028 0.12774722 0.18388228 -0.11288247 0.08697217 -0.20848195 -0.003144863 0.03424815 0.067170426 -0.09264046 -0.16206464 -0.08617305
7 -0.022647219 -0.038135905 0.14681648 0.21657044 -0.15742515 -0.19642462 0.11680803 0.25710496 -0.08847822 -0.04400204 0.2294716 0.023445804 0.03915878 0.10216561 -0.14664687 -0.05041865 -0.015610838 0.109425515 -0.1771109 -0.08160479 0.2190337 0.16826308 0.24799013 -0.10159584 0.12335744 0.075698346 -0.12154686 0.114920534 -0.14671354 -0.08696325 -0.118625045 -0.05339906 0.10339884 -0.18435389 -0.008800197 0.022842333 0.09788921 -0.052325726 0.19430533 -0.060425 -0.10778916 0.07558359 -0.14807679 -0.0906761 -0.060665444 0.032309975 -0.09331612 0.08988685 -0.0066434518 0.108860195 -0.024945222 0.13875641 -0.030877719 0.123169094 0.17645317 -0.110726506 0.076782316 -0.19634393 -0.017693343 0.06396472 0.03770859 -0.08640171 -0.16203041 -0.10422435
5 -0.029244423 -0.032041356 0.14172947 0.21498142 -0.1617561 -0.19397084 0.14795226 0.2634765 -0.09879714 -0.043645956 0.25235754 0.033480987 0.027776381 0.09963387 -0.13853146 -0.053495668 0.0017956914 0.106915474 -0.17017832 -0.05359661 0.21478756 0.17523348 0.2434262 -0.10170962 0.116708234 0.06066413 -0.12007084 0.11972565 -0.13090768 -0.088950165 -0.10700334 -0.04679049 0.091428034 -0.18896659 -0.026328312 0.032583263 0.10843922 -0.054336805 0.20710303 -0.038803253 -0.07979511 0.07310827 -0.12207031 -0.092617325 -0.07329737 0.03340559 -0.095726274 0.07860338 -0.0018991537 0.10634641 -0.013713466 0.14812519 -0.019069484 0.1189221 0.18307503 -0.1030837 0.088601105 -0.20686057 0.0023563022 0.05043937 0.06543232 -0.07982498 -0.16763245 -0.08084023
8 -0.023968086 -0.02718619 0.16739145 0.23483798 -0.1890205 -0.19316906 0.14674392 0.2651708 -0.09030658 -0.055647645 0.24534595 0.01731607 0.01400446 0.09468904 -0.14018737 -0.04623557 0.013183385 0.09172971 -0.18795621 -0.07268713 0.21215305 0.17698321 0.2515419 -0.09516541 0.13092187 0.061618604 -0.10212726 0.123972096 -0.14596815 -0.08596759 -0.11069744 -0.038312737 0.08563754 -0.19930546 -0.032091923 0.013862396 0.11516689 -0.049590357 0.19063632 -0.06011512 -0.10525905 0.089132264 -0.13413192 -0.09176614 -0.052359447 0.015517502 -0.10539676 0.110630795 0.002557532 0.10626452 -0.025718775 0.12858611 -0.041467443 0.13179457 0.1766122 -0.117698066 0.08024417 -0.19022031 -0.029510304 0.07819384 0.038562626 -0.062403023 -0.14580736 -0.09932269
4 -0.028822813 -0.039507117 0.15843935 0.21838711 -0.154279 -0.20985916 0.11230932 0.25586522 -0.089248255 -0.04514381 0.25512326 0.032330275 0.056561347 0.082119875 -0.14944781 -0.06372619 -0.0280215 0.116303526 -0.1767299 -0.06600659 0.21943066 0.17893273 0.2487452 -0.10477288 0.107285336 0.09030916 -0.13460451 0.123035446 -0.14575592 -0.07983925 -0.11565131 -0.05571341 0.08287407 -0.17140844 -0.0025825363 0.021615185 0.09449581 -0.061311364 0.21985872 -0.031713143 -0.089493684 0.071085714 -0.13245894 -0.07999936 -0.081964076 0.036687907 -0.0757922 0.07472127 -0.011845474 0.08662033 0.0039231214 0.13180193 -0.027532086 0.13047911 0.17323127 -0.10370393 0.08266424 -0.21194209 -0.019383717 0.0590558 0.0649152 -0.10044051 -0.15982664 -0.0883198
