7 64
902 -0.039757956 -0.009209748 0.18684319 0.25475004 -0.22252777 -0.18449733 0.22005749 0.28055403 -0.104839675 -0.07495266 0.31346393 0.031231437 -0.006778953 0.055519436 -0.11466568 -0.060307387 0.059644874 0.0710567 -0.18094513 0.01842311 0.18571706 0.20492056 0.24817011 -0.09566872 0.10695506 0.05001006 -0.08734152 0.13748889 -0.113445126 -0.07967325 -0.060858805 -0.011387403 0.005167919 -0.2130717 -0.07500818 0.027836591 0.12698333 -0.04368411 0.23533697 0.011732741 -0.025804633 0.083894834 -0.04707439 -0.07160451 -0.085516185 -0.007909117 -0.095715396 0.088006414 0.0036301175 0.06834395 0.03390761 0.12540047 -0.017388968 0.15290049 0.1660297 -0.10255958 0.10063765 -0.20635138 -0.0045918217 0.051765785 0.11229857 -0.033182923 -0.13241953 -0.02759218
9 -0.044017125 -0.013056674 0.1614651 0.21127896 -0.16070868 -0.1650963 0.20098583 0.27609637 -0.078566864 -0.045527566 0.30650732 0.06921389 0.06614865 0.028310208 -0.12017215 -0.06436924 0.020250997 0.11097177 -0.12124963 0.09193077 0.16987497 0.19497666 0.2588631 -0.14922425 0.07531134 0.1054984 -0.11345605 0.114122674 -0.055684805 -0.062897384 -0.01058789 -0.0058036586 -0.05903272 -0.19589718 -0.05684036 0.06713935 0.06529804 0.012270374 0.2935451 0.03415242 0.05787717 0.047343224 -0.012138873 -0.06408172 -0.0961898 0.014217492 -0.053124245 -0.01133271 -0.06099922 0.031673003 0.10130887 0.14059071 0.02306266 0.17488101 0.13778585 -0.09168369 0.082597926 -0.2003278 0.05731149 -0.060868863 0.14578396 -0.065113865 -0.1563569 0.020753825
5 -0.04106301 0.0005418075 0.19002882 0.22948498 -0.20339993 -0.17901437 0.21551064 0.27175787 -0.08344017 -0.054761257 0.3112357 0.05119095 0.016808255 0.037092447 -0.12236123 -0.05483314 0.048584912 0.08586458 -0.15275364 0.034216367 0.17673942 0.1967534 0.25204384 -0.11783921 0.098028295 0.06323106 -0.088431105 0.13793148 -0.08162381 -0.063637175 -0.04686635 0.002719312 -0.02375799 -0.19832055 -0.07842474 0.027652143 0.11531606 -0.01785477 0.24926911 0.0045989747 0.0053157303 0.08427535 -0.04023091 -0.08191797 -0.07297447 0.0057495614 -0.085041076 0.055125583 -0.021247452 0.051691074 0.05487175 0.11683396 -0.022473289 0.15803938 0.15996453 -0.106774 0.09246826 -0.1956313 0.008616089 0.009998387 0.116392136 -0.042711005 -0.12894943 -0.017347345
7 -0.038738113 -0.043380346 0.14436255 0.18637462 -0.11600445 -0.16787855 0.16372378 0.26064375 -0.070436895 -0.0013281319 0.28484005 0.08015386 0.08639883 0.03298567 -0.11415339 -0.035632778 -0.006039676 0.12858646 -0.12691276 0.11310375 0.20117596 0.19349308 0.25822827 -0.16773443 0.07837058 0.12897547 -0.15148233 0.09037118 -0.0586615 -0.071186796 -0.020866806 -0.04176251 -0.04856861 -0.18096404 -0.03596657 0.0828709 0.051765822 0.0298107 0.32463557 0.027874678 0.06477973 0.040088736 -0.0019624045 -0.07563349 -0.106227286 0.04633189 -0.02587066 -0.032297928 -0.08033365 -0.010400551 0.12885249 0.14320853 0.03939832 0.17250381 0.13846253 -0.08395017 0.06157352 -0.19167767 0.06660716 -0.084476896 0.13792679 -0.10269024 -0.17304291 0.02922848
6 -0.04531956 -0.0332737 0.15346646 0.19481428 -0.14019966 -0.18087427 0.19701782 0.26346403 -0.087249294 -0.0053456086 0.31545958 0.08193591 0.052470494 0.035219103 -0.10858161 -0.038050976 0.019638903 0.115854934 -0.1390697 0.10630372 0.20464893 0.20311327 0.24690959 -0.14804287 0.079910316 0.09213421 -0.14359844 0.10996914 -0.061877355 -0.07428812 -0.03518071 -0.036317393 -0.034892805 -0.18052144 -0.059404306 0.07077575 0.09033419 0.0019425246 0.31561923 0.04057344 0.061758768 0.055357657 0.0072233235 -0.084795386 -0.11445395 0.047108937 -0.041735414 -0.0088038165 -0.05072269 -0.0033535818 0.11612928 0.1402019 0.027940746 0.15431906 0.15884891 -0.08003571 0.08182829 -0.20639095 0.059132643 -0.05471653 0.15546598 -0.09117747 -0.16634208 0.03181827
4 -0.041151635 -0.022183983 0.17923848 0.21708588 -0.1704311 -0.16522738 0.20892107 0.26926023 -0.07295827 -0.023199093 0.30686823 0.0681669 0.04340764 0.021841055 -0.105496205 -0.03222156 0.039691027 0.098313116 -0.1426229 0.11512148 0.18621604 0.20380412 0.2596549 -0.15163815 0.0895876 0.10071275 -0.115714714 0.10812716 -0.05877452 -0.06738174 -0.012532837 -0.014584598 -0.070861906 -0.20034792 -0.07281693 0.062538676 0.08220202 0.027845327 0.30705336 0.025855646 0.06195967 0.0635306 0.013340761 -0.077055134 -0.08971908 0.018278936 -0.04868223 0.0057931207 -0.06032566 -0.0071418714 0.11860847 0.12398599 0.016720388 0.18103199 0.13982859 -0.09544903 0.06966362 -0.18213254 0.042969603 -0.053748995 0.13617587 -0.061909985 -0.14346267 0.030668387
8 -0.04258111 -0.021531655 0.18029302 0.22234038 -0.1743854 -0.18646128 0.18479499 0.26223254 -0.08474425 -0.042980593 0.312588 0.05689402 0.045152027 0.027006386 -0.116948105 -0.057865858 0.020526415 0.09800552 -0.15497644 0.060465682 0.1877477 0.20235416 0.24784583 -0.124939345 0.08196549 0.09244046 -0.11926999 0.12437235 -0.08853309 -0.065797254 -0.044414837 -0.022818187 -0.032662578 -0.18218549 -0.05281125 0.042299524 0.09306416 -0.019459546 0.2822768 0.03392401 0.020995405 0.06519205 -0.021089105 -0.06582304 -0.10276243 0.018314337 -0.05258836 0.029160772 -0.034767695 0.016930936 0.09147455 0.11834736 0.00079691486 0.16301535 0.14854 -0.0905296 0.08548532 -0.20466337 0.0161664 -0.0048048873 0.13558349 -0.07167728 -0.13921753 0.0027976453
