7 64
902 -0.027710123 -0.059607334 0.15106228 0.15131746 -0.12646295 -0.23351689 0.12976897 0.18899561 -0.09945101 0.07041914 0.26575038 0.058306314 -0.04579137 0.09258449 -0.10512503 0.033359468 0.018910894 0.0915481 -0.22322479 -0.06604668 0.29008767 0.1818407 0.18369007 -0.06729358 0.13267192 -0.012899763 -0.16468252 0.13008195 -0.14523941 -0.09407239 -0.19708098 -0.10506953 0.15672727 -0.11199883 -0.054399483 -0.0145220645 0.21562491 -0.0975252 0.21199028 -0.048647653 -0.097732894 0.13277471 -0.081307136 -0.16246891 -0.08433445 0.1195611 -0.075565845 0.13037486 0.052055385 -0.0027919777 0.0018127491 0.086348996 -0.06684255 0.04066314 0.2388917 -0.08142836 0.082657665 -0.19167921 -0.051483702 0.1191194 0.059374716 -0.12926021 -0.13504551 -0.0777362
9 -0.03704038 -0.037450604 0.17537509 0.17636813 -0.13474435 -0.2232955 0.13701814 0.22872448 -0.07762242 0.021309063 0.29617846 0.07298548 0.03956694 0.04747352 -0.13378607 -0.023664478 -0.011144351 0.12013735 -0.17361012 -0.011652311 0.24183264 0.19150789 0.23179832 -0.11764373 0.09890377 0.06798649 -0.15592691 0.13499014 -0.10774221 -0.0673565 -0.12238061 -0.059746478 0.050348613 -0.13390999 -0.03843401 0.010874537 0.13832486 -0.050509796 0.2660674 -0.012890941 -0.0300115 0.097132824 -0.06942367 -0.11749185 -0.09206278 0.08273514 -0.052911695 0.05360042 -0.014328853 0.004064491 0.060747884 0.10058235 -0.040600512 0.11260468 0.19315001 -0.093388334 0.0818455 -0.20654933 -0.014946812 0.03247046 0.101322465 -0.12379622 -0.14313053 -0.04425306
6 -0.03813925 -0.029165193 0.20566079 0.16968115 -0.121285565 -0.23118038 0.11047972 0.23418257 -0.042777456 0.027472807 0.30342275 0.09265024 0.10387087 0.010857345 -0.16154455 -0.035464223 -0.04949184 0.14938201 -0.14534251 0.0002620174 0.23051694 0.19053175 0.26187047 -0.1585616 0.08488793 0.12599058 -0.1637114 0.13965271 -0.08379874 -0.04086398 -0.09977136 -0.040690374 -0.007048027 -0.1215025 -0.021393867 0.006953535 0.09835258 -0.012655888 0.30180585 -0.020597715 -0.00046771788 0.09325334 -0.078269996 -0.11323054 -0.07974533 0.087338164 -0.02912614 0.008823807 -0.06491966 -0.019112665 0.102188006 0.08576477 -0.05119411 0.15161778 0.17285304 -0.11038588 0.06649117 -0.20167512 -0.014475044 -0.019737838 0.103408016 -0.14512257 -0.13785546 -0.041772917
7 -0.029524215 -0.05767955 0.18311721 0.18734206 -0.1237618 -0.22763918 0.10129918 0.23596545 -0.06543343 0.027660847 0.27507278 0.06665567 0.06947332 0.050623074 -0.14278618 -0.015007654 -0.037576117 0.13288082 -0.18434155 -0.01355395 0.25760594 0.19243303 0.25375834 -0.1374203 0.10903864 0.10975539 -0.1730632 0.11839748 -0.12472847 -0.07157005 -0.12253951 -0.07697828 0.04738889 -0.14207259 -0.012223152 0.018565537 0.10844478 -0.027730122 0.28416553 -0.03293324 -0.04549073 0.0911661 -0.08667333 -0.11380339 -0.087123655 0.0839883 -0.03949046 0.049318057 -0.03995531 -0.008410149 0.07279973 0.103293285 -0.035702664 0.13878402 0.18278106 -0.10449446 0.06076835 -0.19832078 -0.023033667 0.022271149 0.07684977 -0.14219333 -0.15298031 -0.05734002
5 -0.03788509 -0.044365082 0.176657 0.16636382 -0.1257402 -0.22738986 0.13633767 0.21846446 -0.076720156 0.04168531 0.3019981 0.080403775 0.033614684 0.04099256 -0.12479634 -0.009095602 -0.008868626 0.11897434 -0.17821613 0.004503343 0.25168568 0.19446671 0.22347519 -0.11795703 0.097343884 0.06370597 -0.1660566 0.13212508 -0.10405569 -0.06767963 -0.12664022 -0.069387175 0.047111046 -0.12260882 -0.04281549 0.010348828 0.14778173 -0.049273502 0.28018412 -0.0061172713 -0.018959032 0.10204784 -0.05049193 -0.12569931 -0.09943739 0.09666473 -0.042991877 0.051333208 -0.013263561 -0.023816457 0.07773073 0.09296045 -0.039921362 0.106946684 0.1980868 -0.08777402 0.07891472 -0.20473498 -0.016023498 0.030571118 0.10870691 -0.13375992 -0.14074019 -0.0321276
8 -0.032029063 -0.041152403 0.21148412 0.2168505 -0.16811022 -0.21285272 0.13933876 0.243117 -0.06569756 -0.0017938489 0.29595485 0.053411864 0.041805055 0.027454978 -0.12832437 -0.018711127 0.001456489 0.10304979 -0.19538534 0.016074259 0.23410529 0.20614897 0.25684443 -0.12743276 0.109119736 0.102076754 -0.1416996 0.12702817 -0.121851005 -0.06610992 -0.09477276 -0.0516878 0.0003226323 -0.1641283 -0.041033033 0.009723857 0.11920277 -0.021022014 0.2861666 -0.014387901 -0.030033438 0.10091895 -0.052785587 -0.09764755 -0.083355024 0.04793563 -0.04651748 0.07017672 -0.032654427 -0.02114198 0.08727667 0.08519366 -0.04159177 0.1619796 0.16786562 -0.10955851 0.06428805 -0.18938908 -0.038895532 0.037095252 0.08855533 -0.10340823 -0.12535536 -0.037666604
4 -0.039666984 -0.039112344 0.19243541 0.17432538 -0.12960437 -0.23661013 0.11634504 0.21761541 -0.06936886 0.023310062 0.30893213 0.077507176 0.05919356 0.023327483 -0.13796766 -0.03199278 -0.029686986 0.12451901 -0.17430958 -0.0100415535 0.24011424 0.19577318 0.22936189 -0.118043624 0.08450099 0.08623467 -0.16534664 0.1411973 -0.11074427 -0.05525364 -0.124615885 -0.062044047 0.031368166 -0.11247234 -0.026551567 -0.00048943004 0.13205579 -0.057289243 0.27993834 0.0041708397 -0.023693357 0.09668036 -0.06288407 -0.10643104 -0.10271923 0.08653393 -0.032730892 0.045313805 -0.020603124 -0.022933092 0.08499537 0.08049411 -0.048035063 0.11879414 0.18352276 -0.089360654 0.07983875 -0.21046464 -0.031012427 0.035827387 0.112434626 -0.13810462 -0.12976232 -0.038711067
