7 64
902 -0.011719501 -0.011923634 0.20014729 0.26583284 -0.23788686 -0.16790009 0.15036494 0.26715565 -0.07406561 -0.08855964 0.218602 -0.01887978 -0.018144999 0.09032164 -0.1366869 -0.03326886 0.046121825 0.05547542 -0.21060663 -0.098769896 0.18736142 0.17224656 0.2623727 -0.08043443 0.15950176 0.05915482 -0.054039024 0.123389736 -0.16583036 -0.08261702 -0.10076937 -0.013242435 0.06823988 -0.2314439 -0.04908348 -0.011932434 0.119509235 -0.029715344 0.15082726 -0.10346221 -0.14851566 0.11296653 -0.15495256 -0.086458385 -0.0061892876 -0.031329315 -0.13296165 0.17023502 0.008496023 0.122748114 -0.056593835 0.1036975 -0.0741756 0.16313818 0.16092293 -0.14997932 0.06511363 -0.15678053 -0.07761477 0.12220421 -0.015126263 -0.015377065 -0.11352775 -0.13374576
9 -0.025477234 -0.033133343 0.14931835 0.22142036 -0.15922165 -0.17734574 0.15805756 0.28454328 -0.07853667 -0.035257038 0.24071163 0.042734414 0.054227836 0.09458007 -0.1446765 -0.03962667 0.0013177829 0.12090477 -0.15379214 -0.011787338 0.21358186 0.17657761 0.27728045 -0.14446847 0.12633054 0.09732753 -0.11955458 0.10418356 -0.106314026 -0.08736704 -0.071052454 -0.034490358 0.046737827 -0.21656168 -0.030802695 0.05497797 0.07547788 0.004191017 0.23781617 -0.059682883 -0.04692876 0.066429056 -0.11120421 -0.09796232 -0.053168595 0.027474688 -0.09063623 0.046095748 -0.046123892 0.09524886 0.013195951 0.15923052 -0.004901268 0.15665893 0.1670273 -0.11932371 0.06725992 -0.18629213 0.028070323 -0.010575719 0.055779032 -0.07637858 -0.1786775 -0.06657939
4 -0.021881988 -0.023689477 0.17363134 0.22288825 -0.17688216 -0.18260555 0.15999414 0.2806089 -0.067367256 -0.02820863 0.23998992 0.039308775 0.037329875 0.09021044 -0.15086421 -0.02472885 0.01210336 0.11292248 -0.16568524 -0.03807471 0.21860668 0.1761445 0.2814066 -0.14017594 0.14148979 0.085497014 -0.10640126 0.11566724 -0.11060623 -0.080731966 -0.08659808 -0.025297709 0.050923884 -0.21397696 -0.044065937 0.029908007 0.09808415 0.0057054376 0.22181587 -0.08861943 -0.06801918 0.09202097 -0.12659438 -0.115658835 -0.028596886 0.02828741 -0.10331527 0.07483817 -0.03879546 0.092501335 -0.0016554104 0.13750531 -0.03756489 0.1563434 0.17596309 -0.1354808 0.06313785 -0.17325617 -0.0011960787 0.013201899 0.031342074 -0.068727665 -0.15869504 -0.08795775
6 -0.018215816 -0.05174854 0.1371549 0.2165242 -0.14325842 -0.17554326 0.13319746 0.2762153 -0.07780653 -0.018972704 0.212447 0.034993827 0.051180795 0.1110593 -0.13934016 -0.020588698 -0.007575276 0.12138418 -0.16703029 -0.02229156 0.23216425 0.17093088 0.2741054 -0.1432 0.13795161 0.10057848 -0.13175172 0.08770526 -0.12212694 -0.09786831 -0.08577719 -0.057240956 0.07371981 -0.2151885 -0.0171331 0.058803447 0.07184775 0.0073154033 0.23151581 -0.07781739 -0.06921325 0.065609485 -0.1215189 -0.10389868 -0.04943575 0.037189353 -0.0866621 0.05627917 -0.045317896 0.08885737 0.004281213 0.16131037 -0.001109148 0.14971645 0.16845533 -0.11810466 0.053849366 -0.17496395 0.022179073 -0.0013358766 0.031457853 -0.087273665 -0.18460213 -0.0783685
7 -0.023617983 -0.04132836 0.13857463 0.21473664 -0.15731055 -0.17917864 0.1612526 0.27380154 -0.08994549 -0.020825403 0.23560391 0.038140386 0.023138518 0.10910147 -0.1306524 -0.021813864 0.015181857 0.10907528 -0.17025197 -0.02032771 0.22748357 0.1751498 0.25860468 -0.125817 0.1347777 0.06833145 -0.122199334 0.100356825 -0.1168585 -0.09767085 -0.09108601 -0.05020669 0.07815193 -0.20987666 -0.037930544 0.05074804 0.10041689 -0.0122293 0.22311345 -0.06286937 -0.06285327 0.07494436 -0.10617587 -0.10942778 -0.056221396 0.03776125 -0.09647564 0.06899722 -0.02262925 0.09038588 -0.0019482672 0.15702331 -0.007210764 0.13240755 0.18072312 -0.111417234 0.06931005 -0.18328707 0.020734051 0.016185395 0.048862915 -0.075963005 -0.17709419 -0.06993223
8 -0.018290007 -0.041881703 0.16212413 0.23967847 -0.18244375 -0.1711235 0.16565743 0.28308538 -0.08120965 -0.032265432 0.22911574 0.023421923 0.015173601 0.10293511 -0.12779225 -0.011321445 0.029209198 0.095526375 -0.18719049 -0.01269389 0.22592579 0.18210243 0.27539214 -0.13038303 0.14931135 0.0817061 -0.10825107 0.09574336 -0.12689185 -0.09849328 -0.07915717 -0.04361891 0.055343226 -0.23159008 -0.04441212 0.04591797 0.09497986 0.008420271 0.22410995 -0.07753104 -0.071812235 0.08329089 -0.10274732 -0.10414819 -0.039999574 0.015822347 -0.100150175 0.08896707 -0.030342171 0.0807784 0.0026370152 0.14564446 -0.014572783 0.15925597 0.16817622 -0.125973 0.056106832 -0.16544437 0.0016185959 0.024948392 0.028598526 -0.05797299 -0.16305669 -0.07420238
5 -0.023996402 -0.035831597 0.16677138 0.22587048 -0.16645019 -0.18859233 0.14005291 0.27220365 -0.07550983 -0.035800237 0.24357022 0.034671906 0.0487452 0.08404125 -0.14480717 -0.037909184 -0.0034635526 0.11276205 -0.17185396 -0.03142727 0.21852334 0.1800901 0.271178 -0.13090548 0.12702234 0.097620286 -0.120723955 0.11125097 -0.12520532 -0.08301717 -0.0883135 -0.041017424 0.051710203 -0.20326075 -0.025291754 0.034784097 0.08700831 -0.011932551 0.23199847 -0.05945055 -0.068334065 0.07783831 -0.117256664 -0.09481761 -0.05444352 0.026989713 -0.085583545 0.06911995 -0.03520625 0.079875305 0.013237107 0.13733399 -0.023357837 0.15561673 0.16716649 -0.12101877 0.06586003 -0.18579675 -0.0040890076 0.023101762 0.04860264 -0.082682885 -0.16598444 -0.081051506
