7 64
902 -0.0020091129 -0.04850817 0.1652995 0.24726987 -0.19568811 -0.18794689 0.06308712 0.21972279 -0.08578347 -0.0746588 0.16133684 -0.04407729 -0.019674381 0.11894639 -0.12867881 -0.030623788 -0.001274782 0.052146398 -0.23485294 -0.17742024 0.21283828 0.1478718 0.21515374 -0.034602307 0.15244511 0.047742777 -0.0816467 0.104288094 -0.22034878 -0.093093134 -0.16318496 -0.06892714 0.16357596 -0.17958184 0.008575144 -0.029915135 0.11756468 -0.08933289 0.09525139 -0.10754222 -0.22610088 0.10068592 -0.19764866 -0.07135304 -0.022653962 -0.0073615066 -0.11285257 0.20052023 0.046202 0.12451364 -0.098952964 0.08768924 -0.07830386 0.105055 0.15845199 -0.11952088 0.05607068 -0.1511579 -0.11559109 0.19330288 -0.0527276 -0.04952364 -0.10507908 -0.17310534
9 -0.00896896 -0.041652072 0.1519341 0.23978332 -0.17438357 -0.16984256 0.10979275 0.27198544 -0.07356397 -0.05891856 0.18339999 -0.0011712019 0.036427636 0.11891114 -0.14782013 -0.03295384 -0.0056069884 0.09880709 -0.18429671 -0.08915213 0.21236043 0.15867127 0.27169 -0.113924526 0.1514084 0.09538387 -0.09863489 0.09305967 -0.15639544 -0.09431367 -0.10069184 -0.04565266 0.097373754 -0.22314194 -0.006398324 0.029193869 0.07194855 -0.010992448 0.17383385 -0.10888452 -0.13483071 0.076520644 -0.17127503 -0.08862487 -0.021292249 0.003360394 -0.10921818 0.10968448 -0.02506643 0.1295059 -0.047126554 0.1436367 -0.032115556 0.15356448 0.15796477 -0.13471518 0.050971363 -0.16180083 -0.025986094 0.059996847 -0.01581092 -0.06062099 -0.160479 -0.12822238
5 -0.017256266 -0.050583094 0.16291523 0.1997313 -0.13585967 -0.2056528 0.09346469 0.25159368 -0.064002976 -0.00023984672 0.21950033 0.039691318 0.060586292 0.094074294 -0.15679404 -0.01818192 -0.034273382 0.12893154 -0.18023187 -0.07348767 0.24673253 0.16940404 0.26613003 -0.13230465 0.13616017 0.10155604 -0.14417453 0.10816545 -0.13939881 -0.08234179 -0.12789899 -0.0656792 0.093971364 -0.17521752 -0.004116875 0.0198148 0.09500916 -0.01968208 0.22463284 -0.09201069 -0.10175156 0.08984211 -0.15154901 -0.11780371 -0.045054298 0.060928762 -0.07852067 0.077601776 -0.035203096 0.06931463 0.0001292105 0.12652025 -0.043715965 0.136784 0.18258055 -0.1252794 0.054287408 -0.18016489 -0.024035769 0.037635066 0.018016474 -0.11528238 -0.16446435 -0.10925691
6 -0.010152093 -0.06125444 0.14142804 0.21051009 -0.13206932 -0.18467355 0.0843027 0.25970313 -0.067420125 -0.014914448 0.1858241 0.022589609 0.06275579 0.115211986 -0.15049876 -0.016934644 -0.034536112 0.12509923 -0.1809833 -0.07072081 0.24197438 0.16169325 0.27245507 -0.13476726 0.14568113 0.11350855 -0.13917491 0.08550009 -0.14921504 -0.09554736 -0.11419446 -0.07248772 0.1034388 -0.19957693 0.008503261 0.039937437 0.06832038 -0.0041810754 0.21290128 -0.10418514 -0.1151919 0.0729172 -0.16145453 -0.1051931 -0.038684234 0.04358669 -0.08357329 0.07851919 -0.042711556 0.09148651 -0.014867233 0.14704967 -0.022060528 0.14687027 0.16886133 -0.1264946 0.04323482 -0.1695806 -0.011413353 0.030636424 -0.0028875275 -0.104380116 -0.17931746 -0.11573478
7 -0.015208261 -0.05967959 0.13693483 0.2105599 -0.13759504 -0.18891524 0.10956172 0.26414645 -0.081044264 -0.011162088 0.20662609 0.029011456 0.04467945 0.119174086 -0.14280383 -0.01571414 -0.018381678 0.121117905 -0.1844786 -0.056979273 0.24707879 0.16916327 0.26552418 -0.12860727 0.14446767 0.09291225 -0.14145496 0.09148055 -0.1446416 -0.10133049 -0.116460264 -0.07393856 0.10832981 -0.20144492 -0.006325927 0.04438441 0.087470084 -0.015338578 0.21943715 -0.08877849 -0.10282724 0.07554995 -0.14391568 -0.11143301 -0.05117396 0.049002364 -0.08853941 0.080030754 -0.029635357 0.09001358 -0.01279378 0.15415475 -0.015995057 0.13553645 0.18151094 -0.11898081 0.05513346 -0.18080795 -0.0009477713 0.033267822 0.016989913 -0.101572685 -0.18441753 -0.10200869
8 -0.010366639 -0.060540695 0.16746424 0.2188404 -0.15290162 -0.19486387 0.086836904 0.24361141 -0.0674511 -0.011577603 0.19926848 0.014251574 0.033541802 0.098462656 -0.13841291 -0.005033834 -0.01765548 0.10279279 -0.20632435 -0.07646322 0.24596354 0.16975561 0.2574466 -0.11264265 0.14777716 0.095650285 -0.13195689 0.09584315 -0.1640222 -0.091192774 -0.12934157 -0.07506825 0.09954594 -0.18613638 -0.003938218 0.014056846 0.09755978 -0.021971934 0.20532605 -0.09652481 -0.12791595 0.09326403 -0.14511572 -0.10537673 -0.03972596 0.04019013 -0.08061993 0.112659186 -0.020669408 0.060982134 -0.009583874 0.114017285 -0.044678193 0.14035866 0.17041601 -0.12446286 0.043680783 -0.16163826 -0.049030133 0.07356051 -0.004713991 -0.09629369 -0.1477284 -0.114885226
4 -0.014195749 -0.05759226 0.15996766 0.21932532 -0.14605257 -0.1996221 0.07621656 0.24695016 -0.07213943 -0.029002225 0.20609497 0.015501558 0.05620403 0.09583068 -0.14798862 -0.031808496 -0.036504485 0.11283693 -0.19457887 -0.08473242 0.23571688 0.16857292 0.25781846 -0.11170295 0.13247855 0.10773463 -0.13641475 0.10038963 -0.16534047 -0.08705809 -0.12603888 -0.072678074 0.0995627 -0.18004958 0.011992367 0.018242832 0.081723265 -0.035552002 0.20659651 -0.07879853 -0.12590571 0.07861618 -0.15570293 -0.089172706 -0.05366538 0.036661334 -0.07525832 0.09664477 -0.02350959 0.077375546 -0.009267167 0.12287905 -0.036577575 0.14106503 0.16499366 -0.11850608 0.052913755 -0.17955267 -0.041350763 0.0689491 0.010510234 -0.10387985 -0.1563229 -0.11576518
