7 64
902 -0.013054515 -0.0062607056 0.16089027 0.26447698 -0.25400183 -0.15895054 0.19064638 0.25824466 -0.109136246 -0.09695195 0.2028938 -0.03524253 -0.09112631 0.12986217 -0.1061297 -0.028168501 0.08983016 0.021470372 -0.2141726 -0.12633374 0.17950323 0.15318087 0.20932932 -0.02626421 0.15962003 -0.025005989 -0.026057126 0.11838174 -0.16737376 -0.09856024 -0.11884707 -0.015792096 0.13326117 -0.22365706 -0.0704497 -0.014385487 0.15763086 -0.07399755 0.075717226 -0.09545524 -0.17136896 0.110736035 -0.14683293 -0.088099055 -0.0062116566 -0.03578219 -0.16116153 0.20404728 0.06976598 0.16396303 -0.11920893 0.11101857 -0.067053735 0.09360073 0.17258458 -0.11967713 0.083821766 -0.14637321 -0.067714766 0.16820818 -0.019897643 0.021324951 -0.10145031 -0.1330484
9 -0.030671043 -0.014608345 0.19409615 0.24835832 -0.2122301 -0.18803596 0.18120138 0.27227733 -0.08676051 -0.06444658 0.28032914 0.024370596 0.008163391 0.064406894 -0.1316404 -0.048823338 0.036990512 0.08076463 -0.18586572 -0.025140341 0.19721602 0.19356701 0.25939482 -0.10323529 0.12311037 0.065933324 -0.09034557 0.13403177 -0.12811716 -0.077002965 -0.08171556 -0.017608743 0.028426332 -0.20931618 -0.0571552 0.013641037 0.119675614 -0.03458077 0.21868075 -0.033354662 -0.06443865 0.09407129 -0.091109335 -0.08368501 -0.058364395 -0.00034785262 -0.09938077 0.102161184 -0.005690467 0.07754822 0.011619996 0.11586662 -0.04003484 0.15568902 0.16689013 -0.11955801 0.0841001 -0.19036448 -0.027716707 0.06261863 0.067972906 -0.045145273 -0.1296601 -0.06623222
8 -0.032162365 -0.006880931 0.20992476 0.23646173 -0.21175583 -0.19407982 0.18878303 0.26749808 -0.073927365 -0.043436762 0.2914232 0.038988683 0.008565041 0.050172143 -0.1362214 -0.035913378 0.0400731 0.08579685 -0.18089579 -0.018870473 0.20232567 0.19547158 0.2628792 -0.11406471 0.12441387 0.06343303 -0.09125881 0.1430442 -0.11189188 -0.06702701 -0.0840824 -0.0093935905 0.012994314 -0.19860825 -0.070580885 0.002855514 0.13288641 -0.023319919 0.22998327 -0.04237232 -0.049288083 0.109161474 -0.083552375 -0.10168578 -0.0482011 0.013621514 -0.09702016 0.096636415 -0.0130144 0.05671945 0.025174322 0.10106594 -0.056451585 0.15632915 0.17398475 -0.12637387 0.081311285 -0.18421859 -0.03211953 0.050727036 0.06973903 -0.051044956 -0.12013714 -0.06236877
7 -0.028322762 -0.033505853 0.19999988 0.22776806 -0.17924108 -0.19965181 0.14804947 0.25788897 -0.06946809 -0.02334005 0.2775025 0.04163588 0.036497865 0.05075184 -0.1363962 -0.02695342 0.009624107 0.10149784 -0.19059004 -0.006023044 0.22484748 0.19959879 0.26953208 -0.12852298 0.12361578 0.09693979 -0.12477408 0.12667021 -0.12653267 -0.0739742 -0.091022804 -0.039876103 0.017322652 -0.1913999 -0.04311204 0.015919216 0.11233399 -0.015817853 0.26063618 -0.03851809 -0.05058782 0.09798088 -0.08204792 -0.097875044 -0.06497298 0.030258473 -0.07181423 0.08119374 -0.030871872 0.027555296 0.050930552 0.10562201 -0.04059464 0.16627592 0.16954084 -0.12143701 0.067013785 -0.18725826 -0.030618375 0.03882663 0.06812968 -0.0836027 -0.13605522 -0.058793448
6 -0.033238668 -0.024211667 0.1893858 0.23064843 -0.19417378 -0.19724363 0.18088177 0.2616731 -0.08917689 -0.03469319 0.29172972 0.039196447 0.0043782773 0.06250259 -0.12590565 -0.033418745 0.035585843 0.08761872 -0.19142887 -0.007968593 0.21696356 0.19962277 0.25227183 -0.107336245 0.12165721 0.059316568 -0.11119954 0.1340646 -0.12336911 -0.080235444 -0.09331098 -0.0333631 0.033988275 -0.19525361 -0.06145459 0.016551647 0.13517584 -0.037839115 0.24075575 -0.02431997 -0.049605403 0.099087566 -0.07241831 -0.098709166 -0.0720374 0.024618056 -0.08854476 0.093965 -0.004017728 0.048935723 0.030463556 0.11437342 -0.036695603 0.1440374 0.18059093 -0.11151645 0.08492015 -0.19639751 -0.021626137 0.055907454 0.08263317 -0.06496417 -0.13596973 -0.05231424
5 -0.024129506 -0.018141162 0.19506021 0.25510797 -0.22434738 -0.17088602 0.18849346 0.26668042 -0.08435734 -0.062225603 0.2569807 0.009375613 -0.021065975 0.07039802 -0.11304331 -0.025449533 0.060483914 0.05854108 -0.19647045 -0.018879805 0.1935171 0.1873376 0.25010642 -0.092960775 0.1366987 0.05185642 -0.07353899 0.11974986 -0.131845 -0.08296542 -0.07625015 -0.018337948 0.028988967 -0.21968648 -0.068537995 0.011802771 0.12450688 -0.021384574 0.19848852 -0.048916727 -0.07474592 0.10021166 -0.0800101 -0.08525751 -0.04135085 -0.01297066 -0.106166154 0.12500058 0.0018930378 0.070380464 0.0013831413 0.106625825 -0.04141015 0.15448897 0.15861098 -0.12134833 0.07119535 -0.16343133 -0.03773286 0.07599142 0.043670814 -0.023563711 -0.11559915 -0.06678824
4 -0.031571537 -0.023597462 0.21322367 0.23437919 -0.19727059 -0.20800227 0.15607856 0.2520579 -0.073442325 -0.034502216 0.29389045 0.03729898 0.021674555 0.03892425 -0.13368711 -0.035612833 0.018644324 0.08880003 -0.19680505 -0.018633591 0.21609212 0.20190892 0.25668645 -0.109242015 0.116265744 0.08077093 -0.113338575 0.14005584 -0.13110015 -0.06662009 -0.097809434 -0.031893745 0.015229625 -0.17933133 -0.050340682 -0.0022716003 0.12898232 -0.037118267 0.2464388 -0.025416208 -0.056657355 0.10619879 -0.07756128 -0.09138478 -0.06811843 0.0233303 -0.07386018 0.09766075 -0.012678207 0.024880461 0.046499606 0.08762886 -0.055302534 0.15696561 0.16930695 -0.117290735 0.07632892 -0.19039766 -0.05003188 0.06641829 0.07558669 -0.074090205 -0.11592374 -0.059574533
