7 64
902 -0.020818476 -0.039435636 0.18110612 0.23763165 -0.16889061 -0.19292414 0.1134931 0.27409217 -0.066139266 -0.048655327 0.23811057 0.026107347 0.072105065 0.07502977 -0.15638973 -0.047832068 -0.023354955 0.11773531 -0.17859915 -0.044474278 0.21720767 0.18243214 0.28516528 -0.13640405 0.12647964 0.12780365 -0.124014325 0.11119675 -0.140611 -0.07797606 -0.08814879 -0.042493835 0.041507207 -0.2048138 -0.0064888434 0.028650817 0.06827655 -0.008339882 0.23790796 -0.06464898 -0.083687045 0.07563627 -0.13482843 -0.081870794 -0.052285478 0.017445676 -0.07744395 0.07190318 -0.047952976 0.077424936 0.019405719 0.1297861 -0.029818187 0.17705148 0.15536906 -0.13003948 0.05801106 -0.18597473 -0.022441784 0.029482268 0.03652808 -0.088249035 -0.15790038 -0.092372954
9 -0.018698186 -0.030333607 0.20110725 0.23320845 -0.16735661 -0.184052 0.10378737 0.27084658 -0.039789714 -0.04562789 0.23078918 0.03185824 0.096371695 0.049397234 -0.16385046 -0.044942774 -0.031797756 0.1228141 -0.16191784 -0.029930001 0.20212473 0.178394 0.2984191 -0.15696217 0.12190628 0.15561129 -0.1154877 0.109724805 -0.121771134 -0.06064947 -0.06643727 -0.024272926 -0.002879481 -0.20178245 -0.0063835657 0.02303558 0.04700569 0.02400177 0.24939506 -0.07505157 -0.06404406 0.0774992 -0.13034435 -0.079062186 -0.033641916 0.011168559 -0.066276886 0.053210545 -0.07670736 0.057833284 0.042882305 0.112000786 -0.03948707 0.20215733 0.13597168 -0.14203154 0.04274482 -0.16734082 -0.026928402 0.00044302273 0.028655274 -0.08588026 -0.14212531 -0.087171346
6 -0.01810152 -0.019971965 0.21870025 0.21364334 -0.1607888 -0.19372272 0.09530046 0.26024875 -0.020233009 -0.022558771 0.2323064 0.046312563 0.10495359 0.036881667 -0.17839809 -0.034043994 -0.040739883 0.13371602 -0.15319236 -0.048537586 0.2073265 0.1731476 0.30233872 -0.167676 0.12457793 0.15491872 -0.11559552 0.12196796 -0.1078863 -0.045723334 -0.0793312 -0.01457905 -0.0063893185 -0.18233994 -0.012126433 0.0029098855 0.059140112 0.03179391 0.24826619 -0.09873987 -0.06368495 0.096259795 -0.14414327 -0.1013333 -0.013790279 0.030035231 -0.06629052 0.050533768 -0.084578164 0.046421938 0.043742534 0.09226068 -0.06807394 0.19777456 0.14488626 -0.15360425 0.038145542 -0.15886365 -0.039950248 -0.005895314 0.017073223 -0.097265 -0.12982714 -0.10015967
5 -0.010127132 -0.06042149 0.17324153 0.22064514 -0.13565971 -0.19078743 0.059528906 0.25660095 -0.046800632 -0.0230449 0.19324699 0.022441685 0.09675594 0.080795184 -0.16078486 -0.02707641 -0.05586574 0.13025136 -0.18057223 -0.060710613 0.2327713 0.16837333 0.28729564 -0.14853698 0.13426808 0.15478447 -0.14128007 0.088523984 -0.15050669 -0.07799846 -0.099958204 -0.06497066 0.057400934 -0.18989852 0.022841131 0.02896217 0.04427942 0.009934047 0.23481905 -0.09455604 -0.10492921 0.071415 -0.15604176 -0.086370625 -0.038828887 0.033296734 -0.06030072 0.06638779 -0.06685942 0.059911054 0.020453004 0.12196369 -0.03139098 0.17832635 0.14505203 -0.13340142 0.031334724 -0.16384885 -0.03263377 0.022126859 -0.0003753413 -0.11217015 -0.16007055 -0.11068991
7 -0.019440169 -0.042607225 0.19258629 0.20730823 -0.14178035 -0.19834985 0.09210566 0.2539619 -0.040965527 -0.007074132 0.23343201 0.04698554 0.0919301 0.053081457 -0.16021025 -0.02467894 -0.04065041 0.13230126 -0.16730651 -0.03093289 0.22776796 0.17804493 0.284934 -0.15675668 0.12242924 0.1419848 -0.13880914 0.10808987 -0.119552016 -0.06324517 -0.090859964 -0.045842316 0.021264851 -0.17580536 -0.0051613813 0.020101612 0.066600844 0.014065807 0.25848374 -0.075559646 -0.06155208 0.08494661 -0.1229603 -0.100032 -0.042871095 0.04550342 -0.05568507 0.04920334 -0.06955243 0.03173956 0.050224196 0.10667034 -0.042481784 0.17675187 0.15355931 -0.13202518 0.041630395 -0.16955276 -0.025899073 0.0017454035 0.03277481 -0.11198146 -0.1468385 -0.08356159
4 -0.014926524 -0.03863535 0.20533873 0.22379515 -0.16366768 -0.18577163 0.100978345 0.25663736 -0.03607366 -0.019147027 0.22320151 0.032460652 0.075076215 0.051389337 -0.15351912 -0.016069144 -0.021710984 0.11503441 -0.17734559 -0.02918235 0.2192108 0.17826079 0.2894648 -0.1524119 0.1336854 0.14047243 -0.11939555 0.10461539 -0.12507607 -0.06408786 -0.0811876 -0.036395825 0.008470826 -0.1928689 -0.015404925 0.014368516 0.06703472 0.026805205 0.24621682 -0.088578224 -0.07126444 0.092372425 -0.120309964 -0.09612164 -0.02606254 0.024757832 -0.06457509 0.07016993 -0.068218574 0.03230183 0.043622967 0.09728125 -0.04971485 0.1902054 0.14384225 -0.14153391 0.03350173 -0.15185635 -0.040434804 0.013942603 0.014312261 -0.089305684 -0.13220544 -0.08825607
8 -0.017260397 -0.03689305 0.22018652 0.2188155 -0.1510105 -0.2026085 0.06248951 0.24684522 -0.022927448 -0.025948524 0.2288972 0.037032478 0.11651128 0.027310634 -0.17194383 -0.040109538 -0.060477756 0.13088241 -0.16787088 -0.048751008 0.21229142 0.17694154 0.29253936 -0.15695769 0.11391538 0.17211148 -0.13090783 0.114486 -0.13006917 -0.046344187 -0.086589314 -0.03538263 -0.004904179 -0.16617084 0.011659167 0.00050139637 0.04744866 0.015568499 0.2552264 -0.07631202 -0.07419207 0.08624118 -0.13752815 -0.07994859 -0.035037022 0.02907583 -0.04368949 0.05338953 -0.08137314 0.022317206 0.060147934 0.08073773 -0.06095333 0.1988282 0.13191582 -0.14104515 0.03329495 -0.16298217 -0.057081476 0.014000991 0.02174363 -0.11177919 -0.12329957 -0.09622115
