7 64
902 -0.015522969 -0.087610155 0.08142637 0.21975687 -0.15492569 -0.18862508 0.13217428 0.22723147 -0.15663618 -0.02380977 0.20534208 -0.015669927 -0.08115348 0.17140284 -0.07437182 -0.0006547526 0.0422279 0.051748782 -0.2526393 -0.084137924 0.26616785 0.1718647 0.17629772 -0.020989908 0.15067984 -0.02085587 -0.13676181 0.08193067 -0.21092805 -0.1475429 -0.17421271 -0.12989844 0.22062355 -0.18709603 -0.021014517 0.037661124 0.16444671 -0.119442284 0.14295086 -0.037412617 -0.16716273 0.07636454 -0.10788979 -0.09584468 -0.100679815 0.04173085 -0.10881221 0.17484349 0.08763322 0.10137373 -0.07749915 0.15589955 0.004525332 0.04234599 0.20696507 -0.06277355 0.0797374 -0.17568162 -0.024790823 0.16252932 0.020138668 -0.06109999 -0.15895492 -0.090596795
9 -0.040860146 -0.03575806 0.17477879 0.22337794 -0.15845399 -0.22549893 0.1273714 0.2579199 -0.09606149 -0.050716788 0.30581895 0.047721896 0.070314094 0.04825372 -0.14495663 -0.08410513 -0.030453555 0.118984185 -0.17366526 -0.023905529 0.21299602 0.19863454 0.24535093 -0.106359385 0.08005128 0.101135895 -0.14715381 0.13705683 -0.1355036 -0.06984202 -0.10077112 -0.052208878 0.040101893 -0.15675755 -0.0067667207 0.023763042 0.09593639 -0.07434436 0.26057526 0.024403356 -0.045832757 0.063687004 -0.089426436 -0.061963573 -0.118173 0.03761843 -0.05188309 0.049844153 -0.0154882725 0.049880274 0.053220004 0.12207534 -0.01653207 0.13938715 0.16645119 -0.088243574 0.09855506 -0.2406863 -0.014411215 0.04939013 0.12103475 -0.11264609 -0.15690917 -0.05067466
6 -0.035802137 -0.03549916 0.18908353 0.2030445 -0.14812028 -0.23050886 0.10039846 0.23151137 -0.07510538 -0.024655098 0.28753784 0.050260816 0.069212064 0.036993794 -0.14855234 -0.06302469 -0.04003712 0.11843491 -0.17585704 -0.049072135 0.21947594 0.18807365 0.23649108 -0.10445287 0.085061796 0.098748356 -0.14684135 0.13933565 -0.13522375 -0.057772357 -0.12060078 -0.054117702 0.04687586 -0.13184966 -0.0048757703 -0.001449166 0.10814367 -0.07164711 0.24958628 -0.002159087 -0.06284269 0.08347742 -0.103086725 -0.07916132 -0.098152794 0.054171108 -0.046755236 0.06304158 -0.015589725 0.027622338 0.0506428 0.09277674 -0.04682486 0.1312258 0.1701652 -0.09647081 0.0860371 -0.22263402 -0.043404274 0.06351135 0.09556574 -0.12454072 -0.13667706 -0.06940414
5 -0.03210761 -0.05395812 0.18153544 0.21551195 -0.1440529 -0.22904369 0.08876338 0.23804343 -0.08157484 -0.025770135 0.27621052 0.040766317 0.07193983 0.049006328 -0.14278127 -0.057324693 -0.045033485 0.11834496 -0.19123505 -0.040058464 0.23250234 0.1928851 0.24294263 -0.1069711 0.092362314 0.11285146 -0.15914743 0.124444015 -0.15276916 -0.07101444 -0.12049367 -0.07313296 0.055629157 -0.14502431 0.007847591 0.012509982 0.096058846 -0.06742175 0.2601455 -0.0015122144 -0.07279241 0.07454708 -0.101912245 -0.07193163 -0.10734143 0.050916553 -0.041058347 0.06690959 -0.019313855 0.023169225 0.05482576 0.104672424 -0.030215368 0.14070776 0.1667223 -0.094624855 0.0783907 -0.2233182 -0.04130126 0.06633076 0.08909612 -0.1306509 -0.14991492 -0.06908145
7 -0.038110618 -0.052453674 0.16816363 0.20855932 -0.14571328 -0.22343256 0.12505296 0.23581469 -0.0979288 -0.01710176 0.29743654 0.049227104 0.042915873 0.049775373 -0.121616654 -0.04962979 -0.016987164 0.10676372 -0.19073895 -0.0040394873 0.23216356 0.19957337 0.2253265 -0.09748228 0.08692892 0.08292562 -0.15857032 0.12454875 -0.13857405 -0.07815521 -0.11285123 -0.07450835 0.050653957 -0.14454848 -0.015721709 0.023272559 0.116438724 -0.073542856 0.26630324 0.025664112 -0.042889982 0.07285022 -0.060502794 -0.075722165 -0.123329 0.055137914 -0.04187534 0.062028207 -0.0037386392 0.009777912 0.06564364 0.11004684 -0.014099669 0.12287533 0.17345437 -0.07780171 0.088179305 -0.22462586 -0.020507066 0.059563246 0.116741024 -0.118849404 -0.14905258 -0.036464654
8 -0.032569624 -0.04800399 0.2005219 0.225589 -0.1650447 -0.22203 0.11060286 0.23585218 -0.07795177 -0.027074788 0.28739643 0.037357047 0.050550424 0.033238705 -0.12977567 -0.045489904 -0.019397946 0.100010335 -0.200254 -0.016196184 0.22573103 0.20049748 0.24133079 -0.10330648 0.09562304 0.10491135 -0.14467393 0.12671204 -0.1475592 -0.06770822 -0.10782245 -0.06296155 0.026382627 -0.15098587 -0.013171939 0.0053407033 0.10719944 -0.05641298 0.26225844 0.004421379 -0.058823794 0.08480691 -0.07290588 -0.07034276 -0.10078568 0.037891027 -0.040884458 0.0788297 -0.0160961 -0.0004219767 0.06927085 0.08652518 -0.03636765 0.14961618 0.15879431 -0.09640496 0.07396007 -0.20767573 -0.052195504 0.0714324 0.09122365 -0.11040764 -0.12780975 -0.0530636
4 -0.028903 -0.061215054 0.15189013 0.219114 -0.15516517 -0.2178274 0.10471528 0.22517891 -0.11174984 -0.034689907 0.26160362 0.016792415 0.010386831 0.080700815 -0.11312831 -0.04613376 -0.010610216 0.08470588 -0.2161083 -0.05819001 0.2350339 0.18715654 0.20662661 -0.06137502 0.10310178 0.057709586 -0.1453643 0.116244584 -0.17750801 -0.09283323 -0.14108917 -0.090335235 0.10823649 -0.14815457 -0.003726165 0.011133097 0.1266252 -0.1017402 0.20947269 0.0036188911 -0.10612019 0.07549215 -0.09420356 -0.06886124 -0.11230987 0.040849686 -0.06061869 0.11219166 0.030757697 0.04377557 0.010480172 0.10872531 -0.02269961 0.09881325 0.17459688 -0.07524485 0.084161945 -0.20717807 -0.047404837 0.117884785 0.073909044 -0.099253364 -0.13683845 -0.071004726
