7 64
902 -0.021174649 0.00812836 0.17820211 0.18923922 -0.19568324 -0.21165977 0.12083114 0.20249 -0.07964544 -0.042940095 0.22546339 0.009419319 -0.038338725 0.092587695 -0.14934827 -0.041944034 0.017867085 0.06724925 -0.18583733 -0.20248261 0.19682744 0.14051129 0.19009794 -0.029840361 0.12992518 -0.022156974 -0.06445161 0.16387984 -0.155743 -0.058805425 -0.18591048 -0.019780302 0.16329694 -0.12899241 -0.044926744 -0.06912943 0.18844907 -0.120618895 0.0820771 -0.10275805 -0.18176953 0.13825919 -0.19646375 -0.12294521 -0.010870515 0.03709076 -0.13666645 0.18027225 0.070293054 0.13801931 -0.11150953 0.06696615 -0.12975888 0.051423438 0.20608559 -0.11959854 0.0984643 -0.17587665 -0.103020534 0.17874192 -0.006141884 -0.05287791 -0.0863347 -0.1675592
9 -0.02557291 -0.046707198 0.16818266 0.23173775 -0.17977485 -0.20207016 0.15655412 0.26296353 -0.098111816 -0.023490207 0.2625015 0.028209755 0.00043380336 0.093976736 -0.12393622 -0.019423477 0.022714928 0.09167123 -0.20803109 -0.03299349 0.24187814 0.19276986 0.24937606 -0.101489656 0.13643415 0.05823239 -0.12758681 0.116443634 -0.14745487 -0.09763621 -0.11641614 -0.06292195 0.08305767 -0.19732949 -0.04122417 0.024995359 0.13175717 -0.044667933 0.22686467 -0.045534763 -0.08512874 0.09407306 -0.09648535 -0.105012804 -0.07199085 0.036204 -0.09070777 0.10805708 0.0032173656 0.06069313 0.0061948323 0.12888534 -0.028069936 0.12963013 0.18841562 -0.10860335 0.075917386 -0.19277985 -0.02290802 0.07213382 0.05528987 -0.07915149 -0.15400763 -0.07371963
7 -0.02616747 -0.03990123 0.17837176 0.20816119 -0.16828194 -0.21278271 0.14560294 0.24596983 -0.08435559 0.00081939646 0.26511472 0.04196196 0.0042771916 0.08260197 -0.13268094 -0.00967645 0.013522472 0.099769466 -0.20125574 -0.050610237 0.24799223 0.18723315 0.24343382 -0.104230486 0.13462973 0.05148961 -0.13171346 0.12770928 -0.13725495 -0.08512106 -0.13382342 -0.059727915 0.08706487 -0.17199367 -0.0448177 0.005748118 0.14772539 -0.047206413 0.22472124 -0.059297882 -0.08544658 0.1101523 -0.10512951 -0.12442739 -0.061291266 0.058060452 -0.08761858 0.10663982 0.0028383252 0.046278223 0.0074402457 0.10965019 -0.052501064 0.11691586 0.1990076 -0.11284438 0.07472429 -0.18880002 -0.03557449 0.07290035 0.0502188 -0.09362946 -0.14270242 -0.08300074
5 -0.020040615 -0.057781342 0.15803185 0.21387422 -0.15697189 -0.20470591 0.12158392 0.24419205 -0.09072366 -0.0056934296 0.2356659 0.025910087 0.0070567126 0.10125685 -0.12591818 -0.008116422 0.0030726437 0.09714178 -0.21014129 -0.058157574 0.25248992 0.18082044 0.23979059 -0.09788506 0.13940352 0.0610411 -0.13831699 0.107911296 -0.15725133 -0.097820766 -0.13646986 -0.07910952 0.10976242 -0.1793646 -0.023800014 0.018245542 0.12904267 -0.048829053 0.21405944 -0.06357632 -0.1076842 0.09545349 -0.11616768 -0.11179859 -0.06573995 0.05178622 -0.08422031 0.112719394 0.004021131 0.056232296 -0.0047190613 0.12200973 -0.035523098 0.11603946 0.19015244 -0.107315436 0.06582474 -0.18409665 -0.034278955 0.08206947 0.03306129 -0.09624351 -0.15399577 -0.091854006
6 -0.024248969 -0.035196044 0.16163567 0.2021918 -0.1735397 -0.21092162 0.14517991 0.23138039 -0.09776499 -0.007305905 0.24992925 0.027901476 -0.028963659 0.10206927 -0.12485589 -0.011090615 0.025420776 0.08274128 -0.20717312 -0.0925093 0.24238831 0.17396641 0.21561556 -0.07017296 0.13797148 0.011108965 -0.11668624 0.13141806 -0.1513505 -0.09048894 -0.15787785 -0.062311843 0.13357602 -0.16274965 -0.047702704 -0.008493266 0.17133737 -0.08061613 0.17671089 -0.06687486 -0.12090622 0.11622116 -0.124678336 -0.12691098 -0.05614225 0.055986486 -0.10643233 0.13896133 0.038669586 0.0764542 -0.03766076 0.10737362 -0.06416871 0.08194465 0.20977147 -0.10535924 0.08554392 -0.18811588 -0.04926148 0.11703295 0.03527643 -0.08031955 -0.13455077 -0.1044571
8 -0.020270647 -0.037689853 0.18356736 0.22517581 -0.1929966 -0.19610028 0.15413363 0.24090825 -0.08616577 -0.015405544 0.24677002 0.018462833 -0.029581478 0.08701515 -0.116182454 0.0011193149 0.04062312 0.070578195 -0.21723926 -0.056399286 0.23639515 0.18351498 0.23400314 -0.08394163 0.1466966 0.034495078 -0.105942875 0.1207553 -0.1505741 -0.090073615 -0.12963529 -0.054526333 0.08839221 -0.1866093 -0.056145206 -0.003014042 0.1553557 -0.04642639 0.19486971 -0.06940636 -0.1068701 0.11736722 -0.100723 -0.11643505 -0.045869302 0.03268588 -0.10022951 0.14195581 0.019402249 0.05123253 -0.011817455 0.09766956 -0.059163027 0.11801206 0.18866026 -0.11589797 0.06839424 -0.16750571 -0.05615541 0.10447816 0.027020946 -0.06266954 -0.122203715 -0.089847624
4 -0.02560181 -0.047670066 0.1783776 0.2131329 -0.16836369 -0.21934617 0.12661184 0.2342941 -0.09054782 -0.007180153 0.2623119 0.03073397 0.00049350766 0.08049374 -0.12719887 -0.016023424 0.0060627316 0.091390505 -0.21453829 -0.06482981 0.24865301 0.18755418 0.23012707 -0.085725255 0.12880851 0.050438788 -0.13537356 0.12708257 -0.15758002 -0.08643361 -0.14606898 -0.07186013 0.09990973 -0.16036566 -0.031866174 -0.002530214 0.14938557 -0.06946019 0.21508564 -0.04632521 -0.10426689 0.107502066 -0.10737428 -0.11055264 -0.07339454 0.054335315 -0.080080315 0.121458575 0.016930098 0.040515855 0.004316786 0.0998733 -0.054126345 0.10932286 0.1943352 -0.10408 0.076350875 -0.19281472 -0.054215048 0.10275834 0.049644686 -0.09730183 -0.13419937 -0.08811629
