7 64
902 -0.016685754 -0.04397357 0.1459201 0.17942554 -0.1496651 -0.21232982 0.093805395 0.18259174 -0.10332782 0.0041405405 0.2000676 0.006342243 -0.06168742 0.12857953 -0.119730346 -0.001443018 0.012322957 0.06736361 -0.22226979 -0.18381923 0.25070554 0.14531268 0.16813552 -0.019239323 0.1441275 -0.034825325 -0.11294219 0.13104999 -0.18619862 -0.094031274 -0.21876344 -0.08648045 0.22472772 -0.12165527 -0.027183866 -0.042692333 0.20124641 -0.13596733 0.10182405 -0.09628886 -0.19964692 0.12992504 -0.17681302 -0.13735257 -0.044669632 0.07379886 -0.11982588 0.19153027 0.08822382 0.10391184 -0.106181815 0.08751241 -0.09507917 0.020635467 0.22630551 -0.094688736 0.08814155 -0.16893852 -0.08915564 0.19071475 -0.012129994 -0.08332807 -0.11073755 -0.15183076
9 -0.027227664 -0.035173792 0.1612136 0.22896226 -0.17666012 -0.20497097 0.13753583 0.26207426 -0.09676468 -0.04951239 0.25703934 0.023912797 0.024290806 0.09210019 -0.1400779 -0.052245382 -2.678399e-05 0.09964172 -0.18935676 -0.06720469 0.2205267 0.18157038 0.24649903 -0.094341755 0.12117146 0.06668897 -0.11955896 0.124810845 -0.14978507 -0.08723388 -0.11755145 -0.050971564 0.090677045 -0.1869658 -0.022123672 0.018004982 0.11447721 -0.062227335 0.20525502 -0.041371677 -0.09884181 0.08251957 -0.12762362 -0.08783307 -0.07210172 0.027142355 -0.093019865 0.099798664 0.0036717823 0.09486335 -0.012603086 0.13125125 -0.03307668 0.12581827 0.17977619 -0.107610404 0.08491999 -0.20575139 -0.025418159 0.0777209 0.056027062 -0.08041917 -0.15453596 -0.091888316
7 -0.029289195 -0.025613856 0.17380098 0.22157553 -0.17769778 -0.21331294 0.15066291 0.27609053 -0.08360997 -0.035187963 0.27440622 0.043442473 0.0427179 0.08220081 -0.15606388 -0.048098292 -0.0037625786 0.11765382 -0.1774215 -0.054742474 0.22646867 0.18732215 0.26906747 -0.122128494 0.12437136 0.080535494 -0.12442803 0.13432558 -0.12873289 -0.07879668 -0.110180505 -0.037883665 0.06715916 -0.19088633 -0.032352023 0.018686868 0.11427068 -0.038566913 0.23028007 -0.053880967 -0.075287916 0.09105618 -0.12764964 -0.10539763 -0.061338965 0.03871048 -0.09299023 0.078930154 -0.018943354 0.08676145 0.004730445 0.13252719 -0.041700304 0.1417256 0.1874639 -0.121719055 0.08309614 -0.20978864 -0.0155184055 0.045216218 0.06225414 -0.090567835 -0.16192997 -0.08946219
5 -0.020461433 -0.054373473 0.14453427 0.22982264 -0.16296266 -0.1991365 0.124553725 0.26938564 -0.097243965 -0.037464265 0.23290525 0.019488184 0.0300399 0.112301685 -0.13705665 -0.035479814 -0.0068246643 0.106404155 -0.19743073 -0.058769442 0.23804139 0.17990583 0.25687525 -0.107051626 0.13530897 0.08122946 -0.13355835 0.10389047 -0.15859486 -0.1018345 -0.11738333 -0.0704066 0.1051463 -0.20236136 -0.0106105255 0.036868937 0.09930483 -0.043404065 0.21403182 -0.058750015 -0.106949285 0.074532434 -0.13281672 -0.09268902 -0.06943557 0.032274745 -0.09044612 0.096384905 -0.008621199 0.09380334 -0.0134588 0.14893554 -0.016212385 0.13333619 0.17952567 -0.1104023 0.070665665 -0.19866064 -0.014050377 0.06502883 0.037956815 -0.0900931 -0.17527185 -0.09640375
6 -0.026865639 -0.04652349 0.14894266 0.22107255 -0.16602072 -0.20388731 0.14329973 0.26016554 -0.10193592 -0.030394062 0.25722042 0.029655626 0.015833328 0.098037176 -0.12819232 -0.035542708 0.0061416915 0.09977126 -0.19435374 -0.043250926 0.23378122 0.18478525 0.24165496 -0.098044194 0.12432567 0.061764974 -0.13192746 0.11464831 -0.146426 -0.09600705 -0.117393315 -0.065020666 0.093990214 -0.18764937 -0.026609156 0.030090753 0.11932965 -0.055653185 0.21975507 -0.03606814 -0.08590807 0.08046958 -0.10701163 -0.095542975 -0.08065002 0.03887079 -0.086560935 0.09366125 0.0031176386 0.07597837 -1.6685208e-05 0.13787319 -0.019659106 0.12060147 0.18520294 -0.100543134 0.081223264 -0.20443192 -0.013188983 0.067873895 0.06257549 -0.08793717 -0.16412613 -0.07716611
8 -0.020203594 -0.04820823 0.16550721 0.2294655 -0.17957261 -0.19781502 0.12811342 0.24012654 -0.09538338 -0.033000752 0.23633611 0.00929244 -0.010032811 0.09443671 -0.1181485 -0.020497039 0.017347623 0.07613795 -0.21556562 -0.06774125 0.23186544 0.17957434 0.22860189 -0.07604406 0.1348112 0.049578015 -0.11605357 0.11272917 -0.16661608 -0.09441743 -0.13110794 -0.06753374 0.10356196 -0.18208133 -0.02845215 0.0066609215 0.13255246 -0.06336059 0.19026405 -0.0525031 -0.11957501 0.09605483 -0.113580205 -0.09344147 -0.06435437 0.027227081 -0.09075624 0.13376299 0.020531584 0.0662548 -0.016574472 0.1098719 -0.041854076 0.115598164 0.17833512 -0.10459082 0.071203835 -0.18015733 -0.051650275 0.1104831 0.031768844 -0.0723303 -0.13375145 -0.0938631
4 -0.02570004 -0.050286558 0.16892923 0.23287256 -0.17229806 -0.214558 0.11805632 0.25288004 -0.09592446 -0.0408109 0.25883812 0.020222692 0.027643252 0.08270818 -0.13326932 -0.044360366 -0.009079705 0.09692628 -0.20749208 -0.05835125 0.23320335 0.18899257 0.24325238 -0.09136898 0.11927877 0.07983054 -0.13457131 0.119198896 -0.16548166 -0.08897212 -0.12474924 -0.06920887 0.0865742 -0.17739423 -0.011278666 0.0148979295 0.113160536 -0.06618367 0.220459 -0.030102596 -0.10269444 0.08272104 -0.114871986 -0.080681205 -0.0849163 0.031431362 -0.0748895 0.105255194 0.0031770724 0.06207251 0.008115545 0.11858561 -0.031677887 0.1312861 0.1749072 -0.10246112 0.07732748 -0.2055803 -0.0419758 0.091205634 0.057606902 -0.094216146 -0.1489034 -0.08659738
