7 64
902 -0.022636326 0.002504371 0.21048605 0.23238468 -0.2014682 -0.19662622 0.13176432 0.26748177 -0.05120745 -0.06495671 0.24714874 0.02624256 0.054006178 0.0619185 -0.17694254 -0.06031809 -0.007552369 0.10795751 -0.16360414 -0.10365807 0.190533 0.1701093 0.2811268 -0.12101446 0.13010255 0.09578704 -0.08286837 0.14893913 -0.1280353 -0.05375138 -0.102874964 0.0021081544 0.043260634 -0.19459322 -0.031390518 -0.01610204 0.10049297 -0.02302389 0.19118185 -0.0964207 -0.106286876 0.10791766 -0.1693085 -0.09652269 -0.012227031 0.007538633 -0.107570045 0.09905525 -0.029079864 0.11242473 -0.022642924 0.099167995 -0.084147215 0.16151579 0.16350423 -0.14848179 0.07111929 -0.16547759 -0.052020364 0.05949004 0.014871002 -0.053360477 -0.11193298 -0.11863024
7 -0.026495356 -0.020994665 0.1796383 0.17121637 -0.10414931 -0.20563114 0.06637227 0.252706 -0.022368232 -0.009753736 0.23608433 0.07577321 0.16056037 0.037623547 -0.19687945 -0.066074766 -0.09207261 0.175009 -0.10757009 -0.052935626 0.20255671 0.15930526 0.29177493 -0.18200141 0.089503914 0.17006394 -0.14608188 0.121208906 -0.08217134 -0.03592775 -0.080670595 -0.021865223 0.008281567 -0.14373071 0.0196015 0.021736845 0.030974904 0.016033728 0.2612632 -0.07108224 -0.034589756 0.06474441 -0.15896463 -0.09725404 -0.042089395 0.064081326 -0.04580402 -0.013761178 -0.10112649 0.0627568 0.054276217 0.11799089 -0.045411453 0.17522433 0.1496852 -0.13376293 0.05219602 -0.19781503 0.0026374783 -0.0539209 0.054520447 -0.14384718 -0.16765457 -0.09481922
6 -0.029487345 0.0069672302 0.21481608 0.17437862 -0.1377331 -0.20927268 0.096315295 0.2498326 -0.01175009 -0.0133806085 0.25955987 0.07943944 0.13603187 0.017081592 -0.20221345 -0.06274545 -0.065161504 0.16076382 -0.107951075 -0.06673375 0.18994793 0.16264828 0.2921906 -0.17488235 0.094672516 0.1461718 -0.11835388 0.14888471 -0.0698624 -0.019689322 -0.083996445 0.009366463 -0.012136313 -0.14128084 -0.012783408 -0.0097552445 0.064309694 0.014212116 0.2475052 -0.08375479 -0.03348888 0.095127694 -0.15662095 -0.111537054 -0.018386351 0.056455 -0.06253982 0.009097606 -0.08920668 0.06020734 0.046794437 0.08839687 -0.0835918 0.17434032 0.15670864 -0.14771228 0.05957491 -0.18512334 -0.022625156 -0.03530691 0.05169744 -0.12070195 -0.13477574 -0.10073324
9 -0.0201732 -0.02108986 0.18364288 0.18232171 -0.12583569 -0.20087476 0.07817059 0.25316486 -0.027313694 -0.00961165 0.22221139 0.059735846 0.121273726 0.057903614 -0.19063742 -0.045467198 -0.06625624 0.15637386 -0.13127135 -0.07846887 0.21312128 0.15798074 0.2901811 -0.16679773 0.1157468 0.14346437 -0.13137794 0.12266827 -0.100382045 -0.04732784 -0.09923819 -0.024034422 0.03789256 -0.16131954 0.004316557 0.009816304 0.057735246 0.011967838 0.23433061 -0.10280981 -0.07047939 0.08516007 -0.17281125 -0.11241623 -0.021007823 0.057119317 -0.06931393 0.029668558 -0.07950573 0.07722802 0.019816315 0.113562666 -0.06205797 0.16554959 0.1616713 -0.14365658 0.04919437 -0.17683272 -0.016828982 -0.016976831 0.021353116 -0.120917045 -0.1545037 -0.113791786
8 -0.026058221 -0.025914209 0.17216097 0.15995508 -0.10027091 -0.20635863 0.078191616 0.24421231 -0.028781988 0.012393719 0.23709373 0.08002104 0.13405377 0.047118183 -0.18511124 -0.044471875 -0.07610561 0.16845745 -0.11717563 -0.048519675 0.217516 0.16000305 0.27956817 -0.1747567 0.09830127 0.14464782 -0.15056892 0.11972234 -0.08111924 -0.04369852 -0.09433908 -0.032166965 0.026981682 -0.13972934 0.0054672565 0.020580618 0.0560239 0.011237905 0.25890252 -0.0760703 -0.03525347 0.075590365 -0.1470939 -0.11576041 -0.04230488 0.07900554 -0.050780054 -0.0017418482 -0.086838104 0.05152343 0.04938794 0.116982594 -0.04765246 0.15655592 0.16544043 -0.12924133 0.053290214 -0.19347043 0.003580802 -0.04462939 0.05317706 -0.14523616 -0.16831888 -0.09091318
5 -0.022402344 -0.002287133 0.21841654 0.221337 -0.18214557 -0.19211192 0.11892057 0.26459405 -0.031459164 -0.047071245 0.24589004 0.04070584 0.08615747 0.039406046 -0.17882288 -0.05255023 -0.023642512 0.12203886 -0.14875685 -0.065641396 0.18937516 0.17175694 0.293246 -0.14904219 0.120538786 0.12937982 -0.0945025 0.13730462 -0.106768094 -0.04325482 -0.0796007 0.003324704 0.00040681832 -0.18621224 -0.02508202 -0.0060321684 0.07408468 0.010384721 0.2237271 -0.09020418 -0.07005159 0.09929759 -0.14926165 -0.09520587 -0.01280019 0.015331591 -0.083996855 0.064077504 -0.06346434 0.07623945 0.020119 0.09319581 -0.07533727 0.18542184 0.14863421 -0.15121593 0.055626605 -0.16396372 -0.041622628 0.0143347755 0.0252985 -0.07428147 -0.11996151 -0.103065625
4 -0.024330603 -0.022343323 0.20214006 0.19081545 -0.13144824 -0.21562189 0.06653606 0.24687569 -0.027652826 -0.018377937 0.24325043 0.058900844 0.13159211 0.035517655 -0.1914791 -0.059576713 -0.077081226 0.1543631 -0.14015602 -0.075967684 0.21095558 0.16802484 0.28665185 -0.15937282 0.10122461 0.15566885 -0.13817725 0.13216391 -0.110798605 -0.03902659 -0.101885386 -0.02685142 0.021000601 -0.14584912 0.012991411 -0.0014412324 0.05750375 -0.0049598794 0.24745752 -0.07581646 -0.067535765 0.08456497 -0.16226454 -0.09590315 -0.03929566 0.053815484 -0.052864157 0.030598367 -0.07662452 0.05456518 0.041640665 0.09603989 -0.067158975 0.17207098 0.15413366 -0.13742869 0.05370486 -0.18931696 -0.035897132 -0.0010872367 0.039921794 -0.13024533 -0.14211005 -0.1069727
