7 64
902 -0.019209774 -0.076221526 0.12100365 0.20745313 -0.15379712 -0.20024337 0.1328703 0.22836055 -0.1218627 0.0012374019 0.22129421 0.0119055575 -0.04876454 0.13668698 -0.09718992 0.008269152 0.030147072 0.070165984 -0.22695702 -0.06870509 0.25888416 0.17106214 0.19597936 -0.0559136 0.14528593 0.0050493698 -0.13663284 0.096076384 -0.1754094 -0.12026067 -0.16102533 -0.10484303 0.16970222 -0.17400548 -0.031964473 0.022610536 0.16309102 -0.08658132 0.17969663 -0.05390011 -0.13372338 0.09539332 -0.10543571 -0.117178455 -0.08136381 0.058829233 -0.098040976 0.14797848 0.051198345 0.06811666 -0.039611008 0.13425775 -0.022714382 0.069482036 0.20956188 -0.08459524 0.077175856 -0.18735282 -0.03250966 0.12781918 0.030951675 -0.086831056 -0.15940548 -0.09175508
7 -0.0190495 -0.08838023 0.12877351 0.17587355 -0.08818595 -0.2086449 0.078502856 0.23403083 -0.0804286 0.04409917 0.223015 0.0543941 0.0623525 0.099508464 -0.12773655 0.006946498 -0.045396358 0.13886796 -0.19513638 -0.01453316 0.2849459 0.18175395 0.2497911 -0.13868397 0.1284736 0.10833887 -0.1967376 0.08231074 -0.14489341 -0.10423043 -0.13498823 -0.11750559 0.10624937 -0.16149125 0.008703887 0.053433392 0.094074756 -0.021713357 0.2767155 -0.05367146 -0.07074537 0.07161363 -0.10089453 -0.12088769 -0.0925607 0.09685794 -0.043016065 0.05001416 -0.03807118 0.011551253 0.0472297 0.14307553 0.00071233447 0.12244474 0.19002561 -0.0949277 0.047916934 -0.1923547 0.005011399 0.016418798 0.0507738 -0.15553461 -0.19438404 -0.06737303
6 -0.019213311 -0.07813135 0.14280853 0.17250368 -0.10195071 -0.21498694 0.0912833 0.2295919 -0.07717608 0.052096628 0.22971389 0.056567077 0.041333053 0.09884435 -0.13081987 0.017065892 -0.030825924 0.13115545 -0.19891168 -0.033979237 0.2860813 0.1797813 0.24447022 -0.13042234 0.1363443 0.084927075 -0.18412465 0.09518897 -0.14128721 -0.09863565 -0.14848068 -0.10744801 0.11434368 -0.15508893 -0.008443611 0.033720847 0.12061586 -0.027947012 0.259942 -0.07001912 -0.08098909 0.09209421 -0.10766322 -0.13795476 -0.07657236 0.10148751 -0.056275297 0.070378795 -0.024749415 0.013449093 0.031931378 0.12825127 -0.02413066 0.11126156 0.20345722 -0.10274744 0.051839277 -0.1869407 -0.011434503 0.03510766 0.040748168 -0.14801897 -0.17995676 -0.079532124
9 -0.013137116 -0.097003505 0.11598405 0.16472928 -0.07838714 -0.20610797 0.061558124 0.21556544 -0.08157831 0.05790201 0.19774169 0.04526808 0.043094967 0.11199873 -0.11719296 0.024593247 -0.043546956 0.12782538 -0.20303153 -0.034246925 0.2896479 0.16895083 0.22724873 -0.120190166 0.13360755 0.08935407 -0.19347946 0.07123971 -0.15358792 -0.10772775 -0.1510241 -0.13009813 0.13500597 -0.1471657 0.012980381 0.04521697 0.10262358 -0.030478055 0.24774837 -0.06708631 -0.093798734 0.07532021 -0.10666747 -0.12556256 -0.084143 0.10308248 -0.043956794 0.06885388 -0.02228063 0.008647496 0.027517369 0.13303426 -0.0052029965 0.098883905 0.18919009 -0.08776639 0.039877452 -0.17482133 -0.007757503 0.039116215 0.027620787 -0.15344073 -0.18367821 -0.07835832
8 -0.018847516 -0.095164254 0.12153997 0.15872568 -0.083283424 -0.2115768 0.08490754 0.20940386 -0.08803877 0.07108278 0.22246121 0.055501003 0.022407092 0.10246399 -0.10579412 0.033395145 -0.025253573 0.120487705 -0.20834987 -0.0130037265 0.29518747 0.17833315 0.21689194 -0.11476081 0.13077046 0.06877755 -0.19634926 0.07995847 -0.14527123 -0.10762061 -0.1541244 -0.13073368 0.12744121 -0.13927524 -0.0067510186 0.0414879 0.12829866 -0.039093286 0.26084602 -0.04875307 -0.07415804 0.08512367 -0.077475525 -0.13479523 -0.095780976 0.112779476 -0.041737437 0.07130815 -0.010284691 -0.014522271 0.042933088 0.12516417 -0.00715732 0.08864653 0.20065963 -0.08022742 0.048557583 -0.18094268 -0.0068309885 0.04341432 0.050117336 -0.1534771 -0.17753084 -0.058767416
5 -0.0141265085 -0.09280462 0.14757767 0.18353064 -0.10725307 -0.20966913 0.07999023 0.21784343 -0.077698536 0.05454673 0.21707721 0.04085477 0.024107067 0.09446468 -0.11120855 0.034258775 -0.021851216 0.1121787 -0.22299737 -0.020786831 0.2919537 0.18378165 0.23497733 -0.11835949 0.14190836 0.086924575 -0.18407139 0.08118771 -0.15936728 -0.10478366 -0.14829658 -0.12266219 0.109518416 -0.15566173 -0.005834116 0.031181602 0.12054963 -0.026160356 0.25841105 -0.064336345 -0.0909284 0.09323143 -0.08742306 -0.12696025 -0.07999945 0.09170772 -0.04521322 0.0907035 -0.017914794 -0.016328076 0.042635094 0.1121122 -0.020441933 0.11524871 0.189712 -0.09666737 0.03857416 -0.16969807 -0.031368382 0.057440076 0.029419541 -0.14132875 -0.16417032 -0.0724173
4 -0.017893272 -0.09277073 0.14006354 0.18026574 -0.103206806 -0.22317582 0.06869074 0.21023135 -0.08889884 0.045528755 0.22549589 0.039146937 0.02520886 0.096571624 -0.11469552 0.015848782 -0.03364455 0.11285073 -0.2233277 -0.045407295 0.28936508 0.18132879 0.21842249 -0.09887277 0.12871252 0.07595335 -0.18787785 0.08994693 -0.16956249 -0.10241657 -0.16430324 -0.12805401 0.13168196 -0.13666262 0.005574844 0.022713259 0.12759484 -0.059793726 0.24477011 -0.04706059 -0.104774386 0.08891342 -0.09849536 -0.11788944 -0.09586021 0.095972896 -0.043496322 0.095608406 0.00030594593 -0.0045513078 0.030720795 0.11090652 -0.023399746 0.094921984 0.1929777 -0.084459335 0.05165361 -0.18533 -0.038413294 0.08055208 0.040542893 -0.14796272 -0.16142794 -0.078591645
