7 64
902 -0.04196769 0.01974455 0.1428764 0.19019504 -0.16895051 -0.19544455 0.19730583 0.28339097 -0.0905329 -0.054313846 0.28747696 0.068056375 0.045625214 0.09099873 -0.17179751 -0.08777388 0.0067939446 0.13187148 -0.109539464 -0.07149273 0.18103644 0.16412841 0.2546492 -0.120985344 0.101126336 0.038077965 -0.093481325 0.15779254 -0.07210159 -0.063254505 -0.09179275 0.011464558 0.07352276 -0.18398288 -0.055874843 0.025294298 0.11913284 -0.05118081 0.1951112 -0.047485445 -0.04091787 0.079917446 -0.14602289 -0.115901284 -0.051316287 0.041232362 -0.12588215 0.039028075 -0.011454512 0.1646891 -0.034898464 0.16332601 -0.040039767 0.10838975 0.2027713 -0.11711993 0.11881482 -0.22784299 0.03984275 0.0014104665 0.09344935 -0.06789442 -0.17496648 -0.084492646
9 -0.036527544 0.018843945 0.14386131 0.21046498 -0.17424355 -0.15985537 0.19609667 0.29807723 -0.074146345 -0.08033758 0.2624044 0.055410944 0.07173265 0.07757745 -0.16472188 -0.09211243 0.008630214 0.12609093 -0.09270428 -0.02218439 0.15016773 0.16069058 0.27529773 -0.14467262 0.097868204 0.08336684 -0.07578765 0.13076633 -0.05819662 -0.06011703 -0.034647197 0.027967213 0.011666649 -0.21521991 -0.048676215 0.050717663 0.06257727 0.0012294974 0.20906235 -0.04448106 -0.012504054 0.054957267 -0.12467843 -0.0839026 -0.03937702 0.0027958932 -0.11316775 0.012088268 -0.05077344 0.15778741 -0.0068901493 0.16909003 -0.011575187 0.1554629 0.15743493 -0.12330222 0.095073104 -0.20079438 0.057755202 -0.044431116 0.085042305 -0.043671787 -0.17226464 -0.062171474
6 -0.037865102 0.027520895 0.1582705 0.17259045 -0.15641889 -0.18300994 0.1891376 0.27884293 -0.05742374 -0.031752657 0.27294666 0.082712814 0.07106241 0.070404775 -0.18123959 -0.069310546 -0.0013065797 0.14420848 -0.087246664 -0.051736176 0.17429471 0.156321 0.27191716 -0.15375511 0.103903234 0.06477628 -0.08926255 0.15166122 -0.04212347 -0.04674879 -0.07104096 0.028327612 0.03152769 -0.1809924 -0.06080085 0.023555331 0.09984689 -0.0032106086 0.21149965 -0.074479744 -0.014611389 0.08636533 -0.1419707 -0.12913541 -0.022302706 0.04762179 -0.115745805 0.0126794875 -0.04873994 0.13954775 -0.01028183 0.14799206 -0.050768875 0.13084938 0.18901286 -0.13317214 0.09655591 -0.20024255 0.04403608 -0.044950284 0.07720526 -0.07159397 -0.16516505 -0.07988236
5 -0.030114846 0.003979281 0.14797048 0.2025562 -0.16128834 -0.16811672 0.17955983 0.29654816 -0.0649123 -0.04808694 0.24757554 0.06020827 0.07344696 0.08948641 -0.17050856 -0.06302766 -5.7077796e-05 0.13709174 -0.10730538 -0.031474236 0.18148336 0.16148227 0.28760743 -0.15958034 0.11821493 0.090843275 -0.09397518 0.123747736 -0.06632702 -0.06719035 -0.054877553 0.009483429 0.031536996 -0.21609986 -0.044837095 0.04935269 0.07004864 0.016250104 0.22008705 -0.078120194 -0.028339395 0.06857354 -0.13895519 -0.10964246 -0.026609207 0.02514366 -0.112385675 0.019968009 -0.05981729 0.14229386 -0.007862535 0.16814494 -0.021043986 0.15647028 0.17149201 -0.13452844 0.08018978 -0.19065416 0.050110992 -0.04654153 0.059269067 -0.063560896 -0.18114494 -0.07806305
7 -0.04115856 0.01414241 0.137876 0.17052716 -0.1494681 -0.18272083 0.20995146 0.28166983 -0.07809106 -0.018853135 0.28469655 0.08741658 0.049637653 0.08441334 -0.16228737 -0.058232434 0.014698268 0.1396909 -0.09701198 -0.021132238 0.18947576 0.1647001 0.26036435 -0.14795539 0.10484829 0.045727234 -0.10352032 0.1431169 -0.042563077 -0.06357945 -0.072390474 0.009664595 0.045188855 -0.1864866 -0.07017392 0.04279697 0.11381217 -0.0112755485 0.22676826 -0.052996412 0.0007814112 0.080229916 -0.11223621 -0.13385685 -0.04548488 0.058046944 -0.113792755 0.0101362225 -0.036030505 0.12840651 -0.0016110564 0.16556673 -0.026393695 0.11641957 0.20102939 -0.11721667 0.103466414 -0.21029277 0.06551283 -0.047468018 0.098667294 -0.075007334 -0.18183932 -0.056363862
4 -0.035397816 0.017054904 0.16860276 0.20002607 -0.1858031 -0.16784695 0.2215407 0.28319505 -0.06833339 -0.03496718 0.27815977 0.066058144 0.025749538 0.06965947 -0.1486574 -0.042962912 0.04330342 0.110599585 -0.118805565 -0.0059393337 0.17851254 0.17160626 0.2676636 -0.14219749 0.11869141 0.050213348 -0.07755637 0.1381705 -0.05290209 -0.062053174 -0.054809406 0.021446375 0.01076765 -0.2078184 -0.08589777 0.031141145 0.11462357 0.009099871 0.21987128 -0.062001906 -0.006601922 0.09295526 -0.09392111 -0.12274178 -0.026245926 0.02551363 -0.117147245 0.041756988 -0.036125466 0.10783099 0.005751215 0.14068079 -0.037808474 0.14314578 0.18072614 -0.12919168 0.08822589 -0.18194042 0.03571128 -0.026711343 0.077332795 -0.04278972 -0.15109451 -0.053787462
8 -0.036629036 0.016120385 0.16600488 0.20119523 -0.17071748 -0.17907798 0.1776961 0.2807004 -0.064197324 -0.059318464 0.2725136 0.061781105 0.07270014 0.06091079 -0.16919543 -0.08106847 -0.0016750239 0.12832275 -0.105959654 -0.03640547 0.16568299 0.16542865 0.2711773 -0.14190866 0.09753959 0.0844704 -0.08731594 0.14194542 -0.06589666 -0.05112535 -0.0576251 0.019889094 0.013140112 -0.19058852 -0.046928555 0.027784957 0.08109783 -0.008982183 0.21682116 -0.04818818 -0.021291895 0.07305099 -0.12602124 -0.09517343 -0.039442997 0.020558422 -0.102078296 0.023468407 -0.046838105 0.1259444 0.00531771 0.1418844 -0.03613252 0.15028223 0.16532677 -0.12573412 0.09182206 -0.19992627 0.029016804 -0.024944227 0.08192495 -0.061935756 -0.15561245 -0.06958769
