7 64
902 -0.016353494 -0.031266864 0.1776966 0.25309765 -0.22421578 -0.17826879 0.17125218 0.25329366 -0.09910182 -0.051620718 0.22950362 -0.00776072 -0.057629213 0.10879662 -0.10991442 -0.0077816965 0.0651325 0.04856221 -0.22605929 -0.077242725 0.21985799 0.17829654 0.23253529 -0.06367344 0.15932891 0.015267224 -0.07664192 0.11741665 -0.16773568 -0.10188089 -0.12507536 -0.04433055 0.10675575 -0.21796948 -0.063965514 -0.0018700602 0.15810828 -0.054542363 0.15793933 -0.08107962 -0.13719156 0.11635129 -0.11766806 -0.105359904 -0.03342728 0.00020390328 -0.12847741 0.17555177 0.039072435 0.0965897 -0.05261692 0.11076728 -0.057730626 0.11955368 0.1862655 -0.12215949 0.07443452 -0.16358255 -0.061630554 0.13438912 0.0078968145 -0.02738743 -0.12125538 -0.10722201
9 -0.03288773 -0.032812525 0.20394437 0.2347972 -0.20590214 -0.18383878 0.21299945 0.2552105 -0.08535247 -0.008707007 0.3029642 0.042114094 -0.030097378 0.042250015 -0.09063026 0.007901858 0.07495835 0.06268488 -0.20748334 0.06273562 0.22331315 0.21242721 0.2437259 -0.110440634 0.12754922 0.050097097 -0.10778535 0.118603714 -0.10778965 -0.083426334 -0.069406085 -0.03757287 -0.011629168 -0.20035234 -0.09228731 0.023045486 0.14851238 -0.0070348084 0.26763606 -0.00875711 -0.009097614 0.10851453 -0.0016779088 -0.10370599 -0.073434286 0.021970583 -0.07290326 0.09691974 -0.0075733606 -0.018334534 0.07584268 0.09287416 -0.02606917 0.15419026 0.16914588 -0.104091585 0.06811363 -0.16735955 -0.021626608 0.043142732 0.09236949 -0.049479134 -0.11482207 -0.0072855763
8 -0.031599518 -0.020141743 0.22677526 0.22705272 -0.2110833 -0.1896001 0.20729384 0.24746758 -0.067346215 -0.00058257213 0.305665 0.048156176 -0.024748065 0.026316578 -0.10310259 0.012518054 0.07153625 0.065779336 -0.2035194 0.04518301 0.22111453 0.21005958 0.24988058 -0.116490826 0.13013095 0.052588847 -0.100061834 0.13189429 -0.100398384 -0.068716094 -0.07612829 -0.023315191 -0.023487166 -0.1893527 -0.0987774 0.0014181372 0.15748756 -0.00044659333 0.26374128 -0.02780909 -0.012714106 0.126256 -0.013979476 -0.11596779 -0.053873487 0.026815383 -0.074601345 0.101617604 -0.013418105 -0.02620509 0.07580977 0.07051653 -0.05433471 0.15779446 0.17048846 -0.116906956 0.06390974 -0.15768534 -0.041157097 0.045239527 0.08004431 -0.05055367 -0.0964778 -0.020251233
5 -0.02067146 -0.042096905 0.19274485 0.23680681 -0.20244977 -0.18059278 0.18050514 0.25055265 -0.082682215 -0.010245517 0.2568212 0.021589542 -0.03633559 0.073418684 -0.09906368 0.017877387 0.06375845 0.06147333 -0.22080183 0.0052502924 0.23462158 0.19637546 0.24493614 -0.100532465 0.14991334 0.046308808 -0.10373367 0.1087305 -0.1359815 -0.09377568 -0.0970826 -0.050680306 0.0413669 -0.20765822 -0.07451911 0.01444459 0.1474012 -0.0126187885 0.22799309 -0.055782802 -0.0681944 0.114657484 -0.05405276 -0.11277295 -0.048960075 0.021390287 -0.09044779 0.1292934 0.0019788947 0.016545871 0.026344815 0.09757648 -0.040249366 0.14364913 0.17514594 -0.11599099 0.057454403 -0.15399142 -0.041600183 0.074837685 0.040366277 -0.049650908 -0.11965027 -0.054291494
6 -0.034626596 -0.038076404 0.18460155 0.21190034 -0.18831202 -0.19021967 0.21809977 0.24293725 -0.09582333 0.016062465 0.30644247 0.05223223 -0.048415598 0.054295428 -0.08212595 0.021091364 0.079818346 0.063999094 -0.20881215 0.06033728 0.23837404 0.20956597 0.22447902 -0.10086244 0.12775883 0.022128984 -0.119807206 0.11907585 -0.103982314 -0.08995415 -0.08893476 -0.05166379 0.018300584 -0.18452822 -0.09896086 0.023916326 0.17224556 -0.02321324 0.26400578 -0.005644347 -0.0077511477 0.11317986 0.0054030404 -0.12141135 -0.08251374 0.046279654 -0.074707605 0.098710656 0.009351519 -0.0235436 0.068823226 0.09750582 -0.024479385 0.12429186 0.18931638 -0.092709884 0.07551153 -0.17385025 -0.0129928915 0.049333878 0.10048757 -0.061275546 -0.122808084 -0.0033183605
7 -0.023359057 -0.037008826 0.2162839 0.24603528 -0.22072734 -0.17883494 0.20007734 0.24812953 -0.07826365 -0.009037813 0.27748114 0.023187522 -0.04997361 0.050352104 -0.08778608 0.026500262 0.083861984 0.04739699 -0.22890721 0.035937026 0.22955583 0.20785603 0.24468894 -0.100265004 0.1477306 0.044764314 -0.09552626 0.11359275 -0.1287578 -0.08755492 -0.08339421 -0.041614376 0.0045089214 -0.20881191 -0.09325526 0.007382806 0.15755405 -0.003557496 0.24339622 -0.040696945 -0.046527136 0.12420272 -0.019960804 -0.10970395 -0.050444394 0.012519599 -0.08341875 0.13410112 0.0013340071 -0.01669362 0.053156685 0.077637196 -0.045398615 0.15611662 0.16752899 -0.11613314 0.055067312 -0.14566097 -0.05225473 0.075845934 0.0531188 -0.03761414 -0.09914458 -0.032742217
4 -0.024771448 -0.03879531 0.2035445 0.2411219 -0.20904745 -0.18830246 0.17382114 0.24050738 -0.08515887 -0.021262169 0.27135363 0.01871281 -0.03550779 0.057102427 -0.09713547 0.0039774734 0.059692625 0.054881006 -0.22443928 0.0008985952 0.2260075 0.20003907 0.2339462 -0.086478315 0.13614413 0.04564995 -0.102160096 0.117883936 -0.14255679 -0.08595374 -0.100028254 -0.048989065 0.03295117 -0.19214952 -0.070310384 0.0023488568 0.15099545 -0.0324957 0.22595614 -0.032971263 -0.06860526 0.11413025 -0.046688635 -0.098049775 -0.061709218 0.01604503 -0.0816848 0.13415974 0.011762767 0.006038216 0.03496721 0.08239507 -0.046339612 0.14109197 0.16936772 -0.10850065 0.0646123 -0.16221662 -0.057300452 0.09409426 0.054783683 -0.050138947 -0.105051674 -0.049654987
