7 64
902 -0.032665942 0.006846418 0.18458134 0.25391555 -0.22758906 -0.18208113 0.19574943 0.2831137 -0.09266256 -0.09569041 0.27491477 0.017418444 0.005265639 0.075835064 -0.1430676 -0.07665443 0.042098902 0.08006867 -0.16924477 -0.058451645 0.17444792 0.18397811 0.26007602 -0.09300059 0.119975984 0.05017411 -0.06620471 0.14647214 -0.123213105 -0.07316425 -0.078443035 0.0063180816 0.042284455 -0.21843877 -0.060361214 0.009694542 0.11838714 -0.048788242 0.18440802 -0.03978581 -0.07802447 0.090278335 -0.12125704 -0.07793955 -0.04754263 -0.01718551 -0.124813884 0.10713633 0.0048437086 0.1343308 -0.026432633 0.13053982 -0.046456207 0.14932625 0.17095432 -0.12578446 0.10118464 -0.20181991 -0.020517733 0.0696585 0.06627916 -0.0251584 -0.13378902 -0.08525514
9 -0.03084728 -0.013912427 0.18045655 0.23003896 -0.18457301 -0.17496757 0.19065714 0.29292232 -0.06924842 -0.041060496 0.2749201 0.0518907 0.049174774 0.06507797 -0.14461455 -0.04018566 0.023098683 0.11278109 -0.14875956 0.018610122 0.19792058 0.18840879 0.28677654 -0.15299624 0.12219448 0.0981787 -0.1028912 0.11887012 -0.085394785 -0.07347368 -0.04865291 -0.007929533 -0.004932532 -0.22180395 -0.057626855 0.045785036 0.085029855 0.020145422 0.25670573 -0.048244685 -0.014370532 0.07897253 -0.08277022 -0.09883871 -0.047153343 0.01553862 -0.090594284 0.042085074 -0.054506212 0.07353877 0.04002816 0.14150131 -0.016600557 0.1771105 0.16134201 -0.12782443 0.07008861 -0.18230657 0.023377283 -0.02347321 0.07407142 -0.05946296 -0.158572 -0.045968436
6 -0.03217082 -0.0067528277 0.19175321 0.2211881 -0.18625599 -0.18522057 0.190035 0.28577486 -0.06432171 -0.031089123 0.28207278 0.05819052 0.04499687 0.058982838 -0.1510523 -0.037344344 0.022449695 0.11534235 -0.15031175 0.0012758668 0.20335905 0.18894619 0.28526238 -0.15082794 0.12362615 0.08849328 -0.10276272 0.13221371 -0.08362229 -0.06673957 -0.063628614 -0.0037176574 0.0011781389 -0.20967382 -0.063941784 0.02979798 0.10293845 0.0116575565 0.25294828 -0.056485172 -0.02007368 0.093349576 -0.09129318 -0.11186587 -0.041043624 0.026293676 -0.094466455 0.049955763 -0.04845504 0.070358835 0.035403233 0.12955292 -0.036456347 0.16901961 0.17282858 -0.13268274 0.07434503 -0.18476278 0.010657987 -0.012979719 0.072415955 -0.06488968 -0.15034729 -0.055436805
7 -0.0262725 -0.022709107 0.16835584 0.21859165 -0.16984642 -0.17652586 0.1687597 0.28155193 -0.069076374 -0.029683504 0.2539811 0.04773066 0.046788216 0.07842705 -0.1449358 -0.03133845 0.012901128 0.11499787 -0.15392144 -0.0048524486 0.20858864 0.17977747 0.27879354 -0.14657983 0.12815498 0.09310166 -0.1100115 0.11262561 -0.09634126 -0.0780906 -0.06735265 -0.021954423 0.02535495 -0.21279733 -0.046511494 0.042264756 0.08776331 0.012526181 0.24198161 -0.06389008 -0.03732803 0.08076737 -0.10105295 -0.106143646 -0.042921044 0.026589172 -0.09179917 0.05173038 -0.047969356 0.07886055 0.023091497 0.14196795 -0.020897616 0.16293716 0.16768935 -0.1268489 0.06557665 -0.17855363 0.016454939 -0.010108551 0.05593788 -0.06963699 -0.1626623 -0.062874176
4 -0.031222962 -0.020409882 0.16715828 0.22048853 -0.17921138 -0.17962736 0.1969156 0.28430796 -0.08202189 -0.026033452 0.27553412 0.0527735 0.023954151 0.079482086 -0.134053 -0.027580028 0.03354749 0.106790744 -0.15944117 0.012069683 0.21214202 0.18789949 0.2699719 -0.13831648 0.12730104 0.070297815 -0.10938132 0.118540205 -0.091592744 -0.08320473 -0.06809901 -0.02216455 0.026147109 -0.21468215 -0.06458263 0.044667393 0.10927228 0.0022368953 0.24761422 -0.04732327 -0.023779754 0.085243344 -0.07834577 -0.111568786 -0.054255072 0.029658861 -0.09626178 0.056469157 -0.033255126 0.07249096 0.027094495 0.14461567 -0.016308919 0.15193973 0.17827855 -0.11887625 0.076329805 -0.18616582 0.023650033 -0.0046465946 0.07533212 -0.06315806 -0.16267139 -0.046692472
8 -0.02713529 -0.02001805 0.18816498 0.23384571 -0.19207895 -0.17427757 0.18939109 0.2850468 -0.06878633 -0.032488167 0.26769516 0.043718148 0.027973123 0.06625955 -0.1345286 -0.022126442 0.035556838 0.100262634 -0.16844326 0.016626136 0.20855147 0.19184849 0.28304446 -0.14487267 0.13378164 0.08885766 -0.1011163 0.11639416 -0.09737104 -0.07833728 -0.058540557 -0.015946725 0.0016959632 -0.2239154 -0.064547546 0.037430093 0.100014634 0.01952041 0.25203484 -0.057336956 -0.028222045 0.09135176 -0.07737755 -0.10548375 -0.04184742 0.015052678 -0.09312477 0.06605171 -0.044840023 0.058800448 0.03755397 0.13022254 -0.0254963 0.1759722 0.1652164 -0.13073018 0.06420584 -0.17232448 0.00538886 -0.001668681 0.06086588 -0.055001575 -0.14863747 -0.050306514
5 -0.031941347 -0.016046256 0.18491887 0.23590614 -0.1931124 -0.18971358 0.17789732 0.28019282 -0.08037396 -0.051163238 0.2801241 0.040099367 0.033814687 0.06572238 -0.14202663 -0.049955457 0.02073236 0.10175165 -0.16792366 -0.01369216 0.20168154 0.19065124 0.26981464 -0.124826275 0.11844924 0.08191907 -0.10338023 0.12964462 -0.11088086 -0.07446 -0.07425006 -0.01779606 0.021987604 -0.20654242 -0.050389558 0.02704818 0.10403436 -0.018307855 0.23705396 -0.036877513 -0.04456022 0.08530537 -0.09373939 -0.0908764 -0.059062075 0.014250869 -0.09231818 0.07088441 -0.02658704 0.07742115 0.023733702 0.12899904 -0.029956253 0.15981825 0.16819522 -0.12054981 0.08092672 -0.19411743 -0.0042587672 0.02512736 0.07465997 -0.06142853 -0.14684856 -0.060273472
