7 64
902 -0.035349928 -0.03174316 0.16641814 0.16685307 -0.119461045 -0.26099917 0.03638835 0.19101155 -0.08494204 -0.027484281 0.2668657 0.042494114 0.071926385 0.0602567 -0.17297153 -0.09269979 -0.08653463 0.12991458 -0.1761985 -0.17615435 0.22679718 0.1616365 0.19648398 -0.056344926 0.07307502 0.0629221 -0.15647016 0.16444263 -0.17157558 -0.05063985 -0.19847424 -0.07243311 0.15162237 -0.071604766 0.03373793 -0.043919057 0.13534941 -0.15580943 0.17620495 -0.017756814 -0.14459328 0.09066933 -0.18714555 -0.08470939 -0.10124756 0.08402576 -0.05847591 0.09534601 0.03378759 0.082425065 -0.024898961 0.080837004 -0.086942665 0.061861888 0.19727223 -0.08425249 0.10743949 -0.24400137 -0.08145331 0.13861005 0.070419446 -0.1518777 -0.12770224 -0.13491482
7 -0.040769134 -0.04473493 0.13177598 0.17503868 -0.122489884 -0.2229202 0.14444382 0.2379242 -0.108690605 0.0059375493 0.29343888 0.06871536 0.032192953 0.08058817 -0.12757254 -0.044203583 -0.013193632 0.1226064 -0.16675575 -0.02159638 0.24012588 0.18512982 0.21428433 -0.09955597 0.09104762 0.0461956 -0.16294244 0.12798975 -0.11549325 -0.08497548 -0.12846926 -0.07351065 0.09544984 -0.13821842 -0.02725537 0.033506706 0.13555294 -0.08097542 0.24886289 0.007697724 -0.03859667 0.0737693 -0.078340314 -0.10752509 -0.11693633 0.08430381 -0.062970266 0.04760941 0.0069637834 0.047348585 0.032146227 0.13819806 -0.010614626 0.08470767 0.20368879 -0.073552154 0.101073205 -0.23100556 0.015857374 0.038434528 0.118061095 -0.124639414 -0.17330219 -0.04326135
9 -0.0445409 -0.0314773 0.14542519 0.15271138 -0.114732735 -0.23623161 0.14202662 0.22603779 -0.09583902 0.025127327 0.3080125 0.087342314 0.040653322 0.06452664 -0.14063272 -0.043269143 -0.02213325 0.13417414 -0.15404902 -0.036263634 0.24181558 0.18244967 0.21171756 -0.10510739 0.084491305 0.03988938 -0.16563898 0.14626427 -0.09900338 -0.0689317 -0.14164637 -0.06292848 0.091538444 -0.113097884 -0.03421134 0.0143948365 0.15203734 -0.085441574 0.251672 0.0009741079 -0.02987864 0.08909052 -0.08540548 -0.12577523 -0.10937394 0.1051876 -0.061038762 0.039167073 0.004951116 0.037160363 0.03697109 0.121090926 -0.035266373 0.0741726 0.21563125 -0.07811633 0.105972946 -0.23425424 0.008173221 0.032978516 0.12408925 -0.13854332 -0.16334988 -0.048537537
6 -0.037846666 -0.04902853 0.13337657 0.1543515 -0.10311303 -0.23655632 0.10480267 0.21118541 -0.09916029 0.022517642 0.281329 0.06986962 0.04107198 0.07506946 -0.13479896 -0.04104875 -0.038152132 0.12877406 -0.17080334 -0.0589807 0.24988101 0.17645857 0.20047674 -0.08949323 0.08661359 0.046278987 -0.17463978 0.13322191 -0.12759939 -0.07664284 -0.1587725 -0.08639853 0.12024569 -0.10538406 -0.00972454 0.011929619 0.14367495 -0.100797415 0.23651858 -0.0018608412 -0.0635602 0.08244576 -0.10061331 -0.1137962 -0.1156503 0.10416993 -0.0531165 0.056438252 0.014456422 0.03612988 0.024854334 0.117683 -0.032134693 0.06658854 0.20914473 -0.07135914 0.0979356 -0.23099977 -0.009900964 0.062106684 0.10438334 -0.14722577 -0.16239814 -0.06424556
8 -0.04664468 -0.04921177 0.10492887 0.14078796 -0.100347325 -0.22935446 0.16440387 0.21589619 -0.12602274 0.04394482 0.30960742 0.08766326 -0.0017523174 0.08789593 -0.10595214 -0.024140375 0.0037405943 0.11833747 -0.16573854 -0.0047434065 0.25601712 0.18412426 0.17801417 -0.082402125 0.083982944 -0.0014335855 -0.17807928 0.12994978 -0.10118226 -0.09213395 -0.1493348 -0.09098105 0.124443844 -0.111559875 -0.04662517 0.036006656 0.17617704 -0.105694816 0.25185555 0.029246125 -0.018512843 0.08040306 -0.045652937 -0.13086677 -0.13840407 0.11923614 -0.060404103 0.044662785 0.03459371 0.025554774 0.035606764 0.13991651 -0.003822692 0.03853231 0.23035598 -0.049693428 0.11512645 -0.24105524 0.0328659 0.04325478 0.1460692 -0.13792883 -0.17920098 -0.020125685
5 -0.038083035 -0.04635229 0.15310407 0.18760827 -0.14289355 -0.22283855 0.15813497 0.23690638 -0.10531837 0.01391231 0.29902354 0.0629932 0.0072156745 0.07375914 -0.1173042 -0.022036849 0.009456049 0.10643075 -0.18850462 -0.009850328 0.24908377 0.19445933 0.21717122 -0.09674392 0.10504083 0.038472246 -0.1559355 0.12869751 -0.1217572 -0.08721009 -0.13013099 -0.07395891 0.083482616 -0.14690042 -0.044982918 0.023442408 0.15423949 -0.071948364 0.25332165 -0.00064871926 -0.041691475 0.091701746 -0.06120288 -0.115975365 -0.1077876 0.079050355 -0.06574269 0.0722184 0.012442163 0.022221176 0.04011932 0.12096746 -0.022765279 0.0931399 0.20541587 -0.080750056 0.09353993 -0.21675582 -0.0041529844 0.05519701 0.10818832 -0.113393374 -0.15674579 -0.039989397
4 -0.041444242 -0.04495701 0.1534122 0.1751877 -0.12871644 -0.2389311 0.122031935 0.21398604 -0.104891695 0.005884761 0.30376396 0.062355638 0.026118334 0.05863859 -0.12510353 -0.046899393 -0.020559017 0.11153139 -0.18481407 -0.042477056 0.24183495 0.1893218 0.19821768 -0.07816154 0.08220122 0.04279659 -0.16469574 0.13952608 -0.13319845 -0.07402039 -0.14849406 -0.079304405 0.09527241 -0.10973577 -0.021015517 0.0047946493 0.15145457 -0.10771624 0.24078894 0.021211613 -0.05594131 0.08596408 -0.07572132 -0.09874355 -0.12445354 0.08560109 -0.05001769 0.07000779 0.023895297 0.019695006 0.039335158 0.103182144 -0.033839215 0.076285936 0.19996291 -0.06791186 0.102283776 -0.2315444 -0.024403607 0.080206946 0.118952364 -0.13118732 -0.14427154 -0.049386755
