7 64
902 -0.013082533 -0.010833357 0.21375144 0.26101544 -0.22666544 -0.18128034 0.13863325 0.2719294 -0.057742268 -0.074480355 0.2203399 -0.0029779526 0.015396584 0.08024688 -0.15573716 -0.035877272 0.021776304 0.07913255 -0.1967699 -0.10145462 0.19769603 0.17289141 0.2819873 -0.106793486 0.15515366 0.08433415 -0.066736676 0.12884293 -0.15296444 -0.071497984 -0.10050246 -0.008603663 0.054536276 -0.22228786 -0.039352715 -0.013885649 0.10525353 -0.013781349 0.16837245 -0.11399407 -0.13552454 0.11320622 -0.16569768 -0.09382915 0.0009607541 -0.01620906 -0.12144815 0.1430339 -0.015796453 0.113233194 -0.04074813 0.09874127 -0.081582494 0.17173514 0.15852484 -0.15574017 0.057800867 -0.1543331 -0.07253467 0.09154559 -0.015628869 -0.034060884 -0.113185264 -0.13457307
7 -0.031639256 -0.00011964582 0.19190565 0.19086465 -0.16492549 -0.18402843 0.1728941 0.26292193 -0.04641214 -0.008831464 0.27353576 0.0713477 0.05658294 0.043700326 -0.15484138 -0.02944385 0.009832678 0.122588895 -0.13169625 -0.003939079 0.19766977 0.1767443 0.2741083 -0.15577523 0.11462122 0.08873146 -0.10390359 0.13420348 -0.06479648 -0.051458612 -0.067155436 0.0019384759 -0.0065549104 -0.18183783 -0.06280985 0.01781505 0.10298704 0.018408306 0.24947011 -0.06433573 -0.0092894435 0.09910044 -0.09208072 -0.122364804 -0.030531062 0.04349421 -0.08475088 0.035201747 -0.05690996 0.053380203 0.04356858 0.11166499 -0.05081187 0.15917419 0.17128095 -0.13247365 0.06834658 -0.17427494 0.0072088735 -0.026853463 0.06905394 -0.07664006 -0.1387804 -0.055964984
9 -0.031410437 0.0043067457 0.20130111 0.17239778 -0.15707792 -0.19792947 0.17053324 0.25743517 -0.036648236 0.019095818 0.27813867 0.086443596 0.056434926 0.04446825 -0.16761136 -0.014468123 0.0046193185 0.13499206 -0.1306116 -0.024284672 0.2153672 0.17505586 0.2782699 -0.16450769 0.12334327 0.079501376 -0.11182075 0.14601009 -0.05729975 -0.04601365 -0.089424774 0.0020304073 0.008413201 -0.16808455 -0.07021185 0.003417775 0.12445869 0.019333083 0.25099248 -0.08929094 -0.0147588765 0.11883219 -0.10797994 -0.15187235 -0.01669258 0.06912785 -0.090039365 0.037857007 -0.057477247 0.047985602 0.03731558 0.103163645 -0.0742874 0.14768714 0.19198763 -0.14222845 0.06801312 -0.17337528 -9.3126335e-05 -0.028067425 0.059154324 -0.09239061 -0.13822842 -0.07091145
6 -0.028398914 -0.020501345 0.18845502 0.17949115 -0.14196739 -0.1967254 0.15549202 0.26240927 -0.043055333 0.02674753 0.26793444 0.08248346 0.066691995 0.054507405 -0.15894204 -0.0056005693 -0.0058457083 0.1399928 -0.143344 0.00018787647 0.23230875 0.18098983 0.28362313 -0.17280246 0.12639584 0.10046121 -0.13395344 0.12512551 -0.0706175 -0.060513873 -0.08534962 -0.023996035 0.011947904 -0.1773377 -0.053596545 0.025491998 0.10596339 0.028712144 0.27422696 -0.08068491 -0.012512681 0.10372125 -0.09576722 -0.14356351 -0.03363226 0.07250081 -0.07463651 0.02872305 -0.06790338 0.030740261 0.055187598 0.11777193 -0.047611818 0.15745482 0.18573123 -0.1347563 0.057145502 -0.17417565 0.011190377 -0.038602818 0.06002302 -0.106681876 -0.15657721 -0.05962355
5 -0.03069129 -0.01368852 0.1882491 0.19073562 -0.16246748 -0.19314836 0.17982578 0.2651314 -0.056271333 0.0121970195 0.27810007 0.07411534 0.038122196 0.058882523 -0.1482611 -0.009028729 0.0183665 0.12258522 -0.15160817 -0.000107237174 0.22507635 0.18464242 0.2737933 -0.15476577 0.12835872 0.07550834 -0.11923909 0.13123818 -0.07503775 -0.06529551 -0.085117415 -0.017758897 0.017293464 -0.18587337 -0.06911468 0.02195874 0.12374487 0.013797143 0.2593576 -0.07065314 -0.01679635 0.108063065 -0.08632918 -0.14001648 -0.03673038 0.059721105 -0.087755434 0.04841427 -0.046925314 0.042137053 0.04193017 0.11824101 -0.048431944 0.14910161 0.19002749 -0.13085836 0.06811899 -0.17754366 0.007577698 -0.016518513 0.06671244 -0.086567484 -0.1495342 -0.056029186
4 -0.027845195 -0.003689096 0.21087801 0.20006551 -0.17746036 -0.18456134 0.18044685 0.26740208 -0.038562868 0.003756926 0.27298555 0.06983577 0.044925347 0.042280354 -0.15313531 -0.0068926937 0.022617439 0.1176546 -0.1478773 0.003979 0.21136668 0.18387674 0.28690186 -0.16455775 0.13180971 0.09116005 -0.10256078 0.13258243 -0.06812078 -0.05423761 -0.06879104 0.00064931007 -0.0152882505 -0.19358057 -0.0746383 0.012872981 0.11295418 0.036584735 0.2584866 -0.084010415 -0.012900865 0.114581764 -0.086651914 -0.13596867 -0.016364127 0.043685295 -0.08794826 0.050296087 -0.06205518 0.035105985 0.049771838 0.10223069 -0.061289705 0.17179506 0.1746808 -0.14467439 0.057218004 -0.1600134 -0.005285015 -0.02417236 0.05295693 -0.0727236 -0.131879 -0.058726225
8 -0.037295934 -0.0060036597 0.22356312 0.19915564 -0.17047918 -0.21116059 0.16153316 0.25577503 -0.04463822 -0.0028197265 0.30908075 0.078143634 0.06779144 0.014288077 -0.1576483 -0.03471021 -0.002815415 0.12514822 -0.15076362 0.005246443 0.21097681 0.19615465 0.2758991 -0.15421852 0.10274691 0.10460127 -0.12282776 0.14908995 -0.07751255 -0.042677928 -0.07852647 -0.0078343265 -0.027526677 -0.16127983 -0.05727232 0.0019655882 0.11368353 0.0016864166 0.2814136 -0.03604189 -0.0018592103 0.10764232 -0.07388698 -0.11503842 -0.053717416 0.051984403 -0.061591793 0.037230656 -0.05599952 0.008761331 0.08064107 0.0866781 -0.06213688 0.16838314 0.17158608 -0.12803434 0.07165342 -0.1890328 -0.018738266 -0.009667842 0.0927753 -0.09710729 -0.12392484 -0.044426247
