7 64
902 -0.02113905 -0.027699534 0.15156169 0.20736562 -0.16648114 -0.2049411 0.13325725 0.25881565 -0.087615095 -0.026704669 0.23092839 0.029579265 0.014872317 0.11775275 -0.15561137 -0.033715513 -0.0013225385 0.11008053 -0.18125956 -0.11465665 0.23291056 0.14882644 0.22423302 -0.08563474 0.13273211 0.03837038 -0.10638819 0.121133715 -0.13723381 -0.083217375 -0.1385451 -0.045614697 0.13154511 -0.1713104 -0.025943171 0.004029933 0.12695572 -0.057823762 0.15785861 -0.090599865 -0.1245077 0.0954313 -0.16290851 -0.11672117 -0.034833208 0.04510953 -0.111742236 0.10998606 0.011469271 0.12085254 -0.057646666 0.12662844 -0.05627138 0.09398789 0.1923114 -0.11537508 0.07832672 -0.1826227 -0.02779675 0.08077675 0.015001565 -0.0788874 -0.15097246 -0.124446385
9 -0.025427416 -0.025939044 0.15724108 0.19651803 -0.14445394 -0.18232696 0.14572528 0.27078897 -0.062230155 -0.012795045 0.24187274 0.05732245 0.0651541 0.08107814 -0.15389636 -0.030998984 -0.009732022 0.13121895 -0.14235713 -0.02050818 0.21527664 0.17351685 0.27991918 -0.1552858 0.12523606 0.09994637 -0.12482761 0.11294869 -0.09276596 -0.0749248 -0.080548845 -0.029446328 0.04165112 -0.19705899 -0.033345252 0.04172482 0.08355967 0.0104059195 0.24451345 -0.073616125 -0.040913705 0.07922817 -0.11903376 -0.11613689 -0.04262221 0.04695633 -0.08662698 0.03771924 -0.055239525 0.08140099 0.020570882 0.14565314 -0.024309408 0.1538206 0.17544761 -0.1269619 0.06449684 -0.18417996 0.021482382 -0.02088247 0.052576173 -0.091768876 -0.17345802 -0.07331359
8 -0.02701172 -0.020551762 0.18945439 0.17752258 -0.13099831 -0.18669112 0.14197142 0.26519257 -0.029083757 0.0226445 0.25650564 0.08530134 0.09678509 0.043585412 -0.16473761 -0.011953414 -0.021610841 0.15069617 -0.1269919 0.016202837 0.22141677 0.19265391 0.32139945 -0.20552613 0.12931734 0.13744505 -0.14283417 0.12390724 -0.065408476 -0.058285005 -0.0690253 -0.018660337 -0.012968186 -0.19403744 -0.04431833 0.03815324 0.080348775 0.053386446 0.30362338 -0.08642668 0.0009153098 0.09645705 -0.10384387 -0.14065509 -0.031984102 0.06912263 -0.069317125 0.0056494195 -0.09809847 0.03261299 0.07381879 0.13013493 -0.03981885 0.18863541 0.17923872 -0.14740938 0.050291147 -0.1779223 0.023630535 -0.07213872 0.06218294 -0.114960045 -0.16991293 -0.057337
7 -0.020240631 -0.037776638 0.15829481 0.1972675 -0.13709962 -0.19232553 0.1230339 0.27090055 -0.059175104 -0.0019076335 0.22751178 0.053576227 0.07155331 0.09373242 -0.1627248 -0.021465015 -0.024717467 0.13966112 -0.15585332 -0.04489327 0.23568653 0.17235994 0.2880965 -0.15907048 0.13780816 0.10881199 -0.13766538 0.10933847 -0.11020458 -0.080689564 -0.10096017 -0.04516015 0.0671326 -0.19674239 -0.019676533 0.037962988 0.083906956 0.009459465 0.24209654 -0.09635679 -0.06766997 0.08456194 -0.14358129 -0.12571485 -0.036372878 0.05762157 -0.087232254 0.049193647 -0.056920283 0.08347166 0.009142925 0.14656192 -0.03206438 0.15302543 0.18311162 -0.134097 0.056451287 -0.1819795 0.00933518 -0.009248449 0.030080374 -0.10669213 -0.18020874 -0.09514955
5 -0.026740778 -0.03553095 0.15254936 0.19148323 -0.14681438 -0.20235445 0.15054365 0.25868928 -0.082338266 0.0054902537 0.25339985 0.0555163 0.02628238 0.098466806 -0.14392935 -0.016135119 0.0026183072 0.12106063 -0.17084913 -0.045863837 0.2428412 0.17238732 0.24726509 -0.122130975 0.13071172 0.05656873 -0.13335985 0.118890226 -0.11245694 -0.08566518 -0.11990851 -0.05216735 0.09169727 -0.17741553 -0.040502656 0.026865661 0.12691487 -0.029114075 0.22477776 -0.07027576 -0.06778136 0.09472032 -0.1175461 -0.13172485 -0.054375146 0.06672707 -0.09306379 0.072174355 -0.015300183 0.074559614 -0.0010514563 0.13724047 -0.035648238 0.11358918 0.20052943 -0.1135455 0.075010315 -0.19051649 0.0031950884 0.028104445 0.051514965 -0.09838944 -0.16773276 -0.08156267
6 -0.022837613 -0.033272993 0.17571943 0.21000607 -0.16382444 -0.19435167 0.15013315 0.26767376 -0.06823154 -0.004768921 0.2479395 0.04741908 0.033735953 0.08653802 -0.14712846 -0.011802325 0.006835196 0.11613411 -0.17615168 -0.035122395 0.236377 0.17912203 0.27052006 -0.13677904 0.14006013 0.08039702 -0.12330597 0.11645454 -0.11465103 -0.08173894 -0.10322031 -0.04140684 0.06032182 -0.1963157 -0.04296627 0.024701132 0.11291988 -0.0032864 0.23466934 -0.08346214 -0.06722964 0.09941056 -0.11707391 -0.12611748 -0.03900319 0.04839092 -0.09271919 0.077131964 -0.03333777 0.06583571 0.010803883 0.128574 -0.041618798 0.14531493 0.1863002 -0.12937438 0.06244786 -0.17728637 -0.008669831 0.02124874 0.037318144 -0.087373964 -0.15864626 -0.08411431
4 -0.027230281 -0.034784146 0.17252181 0.1962219 -0.14230247 -0.20450237 0.12634769 0.25746623 -0.06415291 -0.0030829469 0.25680795 0.058051318 0.06545902 0.06978398 -0.1546921 -0.030163616 -0.022072216 0.13117898 -0.16193569 -0.033237904 0.23142914 0.1828351 0.27307558 -0.14489777 0.12097395 0.10160812 -0.14160499 0.12247328 -0.11183005 -0.07252876 -0.104733296 -0.045777097 0.051241983 -0.17584224 -0.024354136 0.025390951 0.09918917 -0.0132945385 0.25394523 -0.06140316 -0.05402647 0.08847969 -0.11806804 -0.11582604 -0.058132723 0.05975889 -0.07340925 0.051100977 -0.043993343 0.055219606 0.03196316 0.12703182 -0.037354622 0.14692576 0.18244424 -0.12174432 0.06652158 -0.19275197 -0.004473426 0.007893085 0.058813043 -0.11018257 -0.16208872 -0.076333225
