7 64
902 -0.024603449 -0.018062126 0.12706019 0.22851469 -0.173775 -0.20636833 0.09169024 0.25607446 -0.11137964 -0.11220365 0.21846426 -0.00700695 0.04012221 0.12405898 -0.16770186 -0.115426525 -0.03758778 0.101692244 -0.17048495 -0.18599333 0.18526901 0.14743875 0.23084128 -0.052696828 0.1090998 0.053654574 -0.097362734 0.14118631 -0.1855668 -0.08353691 -0.15081787 -0.040763345 0.16966362 -0.17515938 0.021732034 -0.0023388767 0.098535 -0.12810497 0.118336685 -0.05527712 -0.18150494 0.06452245 -0.22871879 -0.05952543 -0.0663813 0.0053323614 -0.12414397 0.12582482 0.03733515 0.20802358 -0.106137216 0.15030672 -0.0439871 0.07972877 0.16462721 -0.094024226 0.103318766 -0.21365859 -0.04260157 0.13538963 0.023970874 -0.06562284 -0.14701699 -0.15164189
7 -0.031401183 0.01055643 0.17220736 0.21938021 -0.18590592 -0.19056875 0.15480284 0.27886024 -0.071558364 -0.07784965 0.25838926 0.03839407 0.061106987 0.07647683 -0.17564909 -0.08789337 -0.008458389 0.11881166 -0.13212143 -0.09063293 0.17369963 0.16400659 0.27014095 -0.11907491 0.1097042 0.078688666 -0.08346198 0.14770144 -0.10507704 -0.057779144 -0.08760881 0.008964893 0.05415505 -0.19283244 -0.031577952 0.009226528 0.090954155 -0.038164165 0.18553944 -0.065180205 -0.07810515 0.081386074 -0.16597281 -0.08988488 -0.0347125 0.010955104 -0.11516015 0.06587921 -0.024326336 0.15140504 -0.031783316 0.13655621 -0.05416307 0.1425436 0.17022689 -0.13111201 0.093961984 -0.20298208 -0.006003983 0.030085674 0.05379011 -0.059335187 -0.14860517 -0.10703395
9 -0.030657703 0.014992052 0.19168925 0.20032416 -0.17448357 -0.19232638 0.15349421 0.27163705 -0.046593037 -0.04421055 0.26204595 0.059345353 0.07581694 0.05579288 -0.18253839 -0.0654586 -0.012770307 0.13153775 -0.120624095 -0.070337966 0.1810173 0.16435328 0.2799229 -0.14522578 0.11156468 0.092080794 -0.0890536 0.14862832 -0.07864038 -0.04391174 -0.080834866 0.017049301 0.022501944 -0.1805271 -0.042275626 0.003051022 0.091476195 -0.00526162 0.2094374 -0.08222964 -0.050308034 0.09493858 -0.15207651 -0.11113157 -0.01737817 0.030045982 -0.10300903 0.045342185 -0.04962446 0.113987416 -0.0025844956 0.11805342 -0.070047446 0.15743583 0.1749477 -0.14549007 0.08164706 -0.1911496 -0.0056146774 -0.0040651048 0.051329177 -0.07384769 -0.14351712 -0.10070282
6 -0.025927544 -0.0010392028 0.18552274 0.22424732 -0.17911936 -0.18812312 0.13786207 0.28303742 -0.054483086 -0.06404793 0.24588425 0.0399498 0.08202419 0.06924977 -0.17977469 -0.07146668 -0.01999579 0.12777884 -0.13700932 -0.0718101 0.18504263 0.16776763 0.2897482 -0.14313655 0.118150346 0.11208727 -0.093625136 0.13401474 -0.104499735 -0.056929797 -0.07692732 0.0024233928 0.030924864 -0.20057964 -0.023115173 0.015874656 0.07014905 -0.0046781558 0.20977038 -0.08128444 -0.07129168 0.08119551 -0.16146624 -0.09188973 -0.024809612 0.012687567 -0.100953914 0.055023115 -0.05233408 0.124209434 -0.007424346 0.13125102 -0.05292606 0.17267288 0.1628781 -0.14525223 0.074524544 -0.19162028 -0.008746744 0.0071184193 0.03929105 -0.07132025 -0.15371089 -0.107434124
4 -0.033977948 0.0061281063 0.19565433 0.20726407 -0.17792974 -0.19233203 0.18318222 0.28475302 -0.05289932 -0.026937459 0.28438538 0.07112509 0.06623707 0.053765297 -0.17032973 -0.047649626 0.006121697 0.13207011 -0.12934034 -0.018572604 0.19715339 0.18160568 0.2869894 -0.15980427 0.11604061 0.0922151 -0.100558594 0.1414066 -0.0667319 -0.05314462 -0.06581667 0.009921523 -0.00022014344 -0.19450346 -0.06029087 0.02176608 0.098084 0.014185072 0.24645732 -0.067705974 -0.015516822 0.0952154 -0.10980887 -0.11917077 -0.029594362 0.03648995 -0.09521155 0.03257903 -0.057959713 0.082010336 0.02978882 0.12595864 -0.05267134 0.17140022 0.1839476 -0.1450239 0.08104962 -0.19619238 0.014339635 -0.028730886 0.07337427 -0.076819725 -0.1570395 -0.071110435
5 -0.027561655 0.0048693907 0.20132403 0.22544298 -0.19432765 -0.18971936 0.16159835 0.2804037 -0.05362748 -0.052771494 0.26177856 0.04429502 0.057410933 0.060905278 -0.1714695 -0.05539059 0.0036581547 0.11646076 -0.1462302 -0.058784626 0.18946648 0.17495961 0.285993 -0.13975205 0.12438003 0.09341343 -0.086245134 0.14142494 -0.097505346 -0.05532323 -0.07816895 0.008445721 0.019781675 -0.20081791 -0.04679285 0.006258405 0.0949714 -0.001678142 0.21338807 -0.08192239 -0.06147086 0.098141834 -0.14056511 -0.104736485 -0.019278962 0.014902597 -0.10542857 0.06823869 -0.043750007 0.10455066 -0.00018885218 0.11714974 -0.06454532 0.16966894 0.17025681 -0.14742067 0.075502336 -0.18403734 -0.017252563 0.014607119 0.042936347 -0.061460767 -0.13937888 -0.09776026
8 -0.03169333 0.004288159 0.19393155 0.22272342 -0.18489064 -0.19632457 0.14217119 0.27099067 -0.059778452 -0.06880524 0.267935 0.04189072 0.07408448 0.05123793 -0.17277281 -0.08129462 -0.015998969 0.118779995 -0.13970622 -0.06731171 0.17741103 0.17332965 0.27316785 -0.12702706 0.10296642 0.10100584 -0.09212015 0.14538652 -0.10497446 -0.049491968 -0.07994052 0.004804457 0.02110274 -0.18234526 -0.027689641 0.0040823547 0.083397955 -0.026645659 0.21069574 -0.05256908 -0.062469266 0.08349476 -0.14207374 -0.08161546 -0.040722832 0.011719674 -0.09200136 0.05828738 -0.037752 0.10720951 0.0047948607 0.11449262 -0.057848107 0.16250655 0.1603874 -0.1330684 0.08455579 -0.19958507 -0.020088954 0.02456782 0.06157164 -0.0700857 -0.13695236 -0.09393534
