7 64
902 -0.022286225 -0.015702153 0.11972758 0.18654193 -0.17692107 -0.17893289 0.19111519 0.24258254 -0.10940351 -0.012549848 0.22446488 0.02724606 -0.06565324 0.14177898 -0.11824293 -0.0041989186 0.06266624 0.07498591 -0.18077476 -0.10229203 0.22707826 0.15436812 0.20829894 -0.06567374 0.1547235 -0.03854748 -0.08634658 0.12641905 -0.1247197 -0.1033478 -0.14835319 -0.040897887 0.16727048 -0.19066875 -0.07756343 0.008858702 0.18536548 -0.07112622 0.13348165 -0.09765889 -0.121165514 0.115531266 -0.13949297 -0.15031736 -0.029379258 0.051429775 -0.15157525 0.14334317 0.053696577 0.14396021 -0.09414085 0.14577647 -0.05525738 0.05972737 0.23019162 -0.11065553 0.098449945 -0.18328461 -0.007963032 0.10058551 0.0214582 -0.047624394 -0.165851 -0.11839274
9 -0.02047323 -0.03925307 0.12797247 0.19967969 -0.15123838 -0.17740503 0.16280055 0.26833254 -0.09011604 -0.0058536087 0.22259785 0.03997615 0.0072409534 0.12598892 -0.13207021 -0.0074927486 0.021254826 0.10939583 -0.16974728 -0.04242848 0.23528506 0.16600566 0.2526922 -0.12170969 0.14748457 0.046939243 -0.11982118 0.101304695 -0.11556794 -0.102059305 -0.10832056 -0.052413773 0.10810976 -0.2083604 -0.045065552 0.045482535 0.11731845 -0.014669596 0.20389698 -0.08805476 -0.078833446 0.08571634 -0.12319216 -0.13051987 -0.041274775 0.050013218 -0.110841095 0.0811682 -0.012827911 0.104946636 -0.027393058 0.15990907 -0.017938875 0.11317845 0.19594447 -0.115698025 0.06916393 -0.17661226 0.02049065 0.023708206 0.030681917 -0.075631455 -0.17848758 -0.08547649
8 -0.025067788 -0.03144546 0.13821171 0.17456299 -0.13972707 -0.19636387 0.16647932 0.25846145 -0.08276772 0.025509875 0.24343447 0.06385033 0.009027176 0.116578825 -0.14270097 0.0018800305 0.015493039 0.12348891 -0.1625565 -0.051874213 0.2493883 0.16694681 0.24883553 -0.12840328 0.14471544 0.03358803 -0.13134436 0.11892018 -0.09938744 -0.09156678 -0.12855537 -0.050204206 0.11381653 -0.18278177 -0.056022987 0.030171743 0.1439081 -0.0213189 0.21465068 -0.0948411 -0.06794508 0.1041883 -0.12525968 -0.15850696 -0.03891933 0.081666015 -0.109606795 0.07359323 -0.0112968385 0.089224994 -0.020848393 0.14836025 -0.039786074 0.09632894 0.21892163 -0.11842932 0.07598058 -0.18446301 0.017865712 0.017682692 0.040594116 -0.096318424 -0.17550881 -0.08733158
5 -0.018550275 -0.044859823 0.123789884 0.17770316 -0.13511315 -0.18782228 0.14339866 0.24482474 -0.08805951 0.019330284 0.21425152 0.043690443 -0.0032987788 0.12855586 -0.12964906 0.0075884704 0.01388684 0.10939158 -0.17665361 -0.06636849 0.25010693 0.15923478 0.2336051 -0.109276265 0.14878795 0.029704936 -0.12965763 0.10349641 -0.12182658 -0.10057189 -0.13703108 -0.06686132 0.13738336 -0.181568 -0.04195007 0.030135421 0.13869302 -0.031823903 0.19242233 -0.09807304 -0.0965105 0.09807386 -0.13195662 -0.14664774 -0.040311173 0.073423944 -0.10818362 0.09447002 0.0017842771 0.09243708 -0.037144803 0.14640991 -0.03408204 0.0888493 0.21055725 -0.11136582 0.068665706 -0.17511456 0.004475172 0.04564336 0.020805243 -0.092408285 -0.1751369 -0.099424124
7 -0.025315877 -0.037071645 0.10551367 0.17505707 -0.1388893 -0.18201599 0.1816283 0.25582632 -0.10582743 0.014799554 0.23314655 0.052228227 -0.020461285 0.13861872 -0.121162 0.0007155403 0.03516653 0.107124455 -0.16582628 -0.045240242 0.24429794 0.16253091 0.22709903 -0.105854206 0.14452417 0.0043123853 -0.12553537 0.10768542 -0.10585077 -0.10813185 -0.12733568 -0.059880447 0.14069587 -0.19200289 -0.06053778 0.04535712 0.15019251 -0.038891304 0.19363977 -0.0784588 -0.07255062 0.09137523 -0.11238876 -0.14962415 -0.052521084 0.07354712 -0.119308606 0.083656214 0.012903874 0.10914958 -0.04118437 0.16723049 -0.01676979 0.07507374 0.22097786 -0.10100502 0.08540926 -0.18841694 0.03455193 0.032303263 0.047678664 -0.080868565 -0.18810295 -0.07915339
6 -0.02050218 -0.04677267 0.14599757 0.19515744 -0.14947893 -0.18797761 0.16101804 0.25888923 -0.08350242 0.020084023 0.23444785 0.048069432 0.0005170381 0.11302377 -0.12653954 0.014166519 0.024251448 0.108003505 -0.18412468 -0.027507002 0.25249976 0.17455456 0.25100476 -0.12567171 0.15095092 0.047749598 -0.1314002 0.102741435 -0.11572148 -0.09953555 -0.11709259 -0.062124025 0.09738839 -0.19638413 -0.052551102 0.036508296 0.13321744 -0.009378557 0.22420236 -0.08796902 -0.07093042 0.10021133 -0.10394796 -0.14328383 -0.043227404 0.06489822 -0.09871689 0.086227454 -0.01452927 0.06357149 -0.0037433594 0.14092092 -0.028052302 0.11375278 0.20139469 -0.11632561 0.061492905 -0.16966449 0.0061877174 0.027183162 0.032416485 -0.08737585 -0.16527387 -0.07536081
4 -0.025913855 -0.035681754 0.13303062 0.17412427 -0.13886711 -0.20063528 0.15147962 0.24071005 -0.09206508 0.016233217 0.24230741 0.052986532 -0.0016296974 0.11287354 -0.13244213 -0.006875116 0.012529773 0.11073874 -0.17235796 -0.06584005 0.24475986 0.16514105 0.22554 -0.102198064 0.13391209 0.022110628 -0.13125518 0.11996329 -0.11614349 -0.09149292 -0.14073032 -0.060167056 0.12851553 -0.16511968 -0.04674144 0.02036026 0.15103237 -0.051133666 0.19903803 -0.074581124 -0.08387558 0.10098891 -0.12246329 -0.14339411 -0.05439536 0.07818145 -0.10334746 0.089142874 0.0101749115 0.085264996 -0.026694011 0.13756165 -0.040992584 0.08111476 0.2155844 -0.10464487 0.0826027 -0.19091438 0.00089962204 0.05171185 0.046353094 -0.096947 -0.16664012 -0.08973591
