7 64
902 -0.0410403 -0.03253107 0.119698934 0.19489412 -0.16502513 -0.20457827 0.234365 0.27264932 -0.13561569 0.0046497877 0.30485353 0.06415894 -0.04365389 0.12361048 -0.108704194 -0.016366795 0.059790786 0.09314351 -0.17784362 -0.0077823075 0.2431504 0.18783496 0.21212791 -0.087315805 0.12506373 -0.020260144 -0.12989737 0.12803707 -0.10374932 -0.10967663 -0.12319551 -0.058491334 0.12092116 -0.18651551 -0.083361804 0.046104275 0.1814704 -0.07300769 0.2181232 -0.016526219 -0.039623123 0.091724984 -0.06277092 -0.13748167 -0.09417931 0.070569344 -0.11296788 0.08441573 0.038277935 0.08693954 -0.012567618 0.16520481 -0.0060108923 0.06666836 0.23049736 -0.08034079 0.11309442 -0.21936114 0.03903116 0.048711084 0.10737346 -0.07505846 -0.18145005 -0.039613422
9 -0.036971316 -0.04153256 0.10587382 0.1701558 -0.118338756 -0.15613376 0.22039075 0.2719528 -0.094668426 0.028766232 0.27406278 0.087562 0.022064835 0.08906452 -0.098851316 0.0018683816 0.042588808 0.120154165 -0.12839158 0.10674952 0.22301048 0.18393052 0.24457629 -0.15880746 0.11082355 0.057262205 -0.14248635 0.08505197 -0.04401554 -0.09860073 -0.040304426 -0.04675949 0.015799163 -0.20452993 -0.07641206 0.09855124 0.10030953 0.02927449 0.29496402 -0.009212964 0.05655954 0.05674707 -0.00522066 -0.12623252 -0.0882367 0.06831839 -0.070983045 -0.0096750315 -0.049333844 0.031100044 0.07495421 0.18000683 0.04528576 0.12827249 0.18386245 -0.08455516 0.073387265 -0.18737759 0.10218303 -0.08375439 0.12318638 -0.084988 -0.2015354 0.021866132
5 -0.03575717 -0.028360568 0.10152476 0.13372934 -0.09983687 -0.16170423 0.21547332 0.25672057 -0.08083666 0.060043443 0.26444796 0.10590099 0.020978639 0.09469883 -0.113337666 0.015962623 0.03684149 0.13587351 -0.111545525 0.07434229 0.23293392 0.17063898 0.24142966 -0.16652022 0.1179106 0.036344714 -0.14369085 0.09766615 -0.024296146 -0.08971956 -0.06406775 -0.039119456 0.041340973 -0.1845199 -0.086347476 0.082974076 0.123050556 0.030153565 0.27879557 -0.04412697 0.05101541 0.07582816 -0.031674184 -0.1627391 -0.06433901 0.099091046 -0.083554454 -0.013036406 -0.048205223 0.042246602 0.05324835 0.17505305 0.018203724 0.10364128 0.20851026 -0.09436284 0.075644374 -0.18357804 0.10391724 -0.092759475 0.108435 -0.0986001 -0.20316951 0.0006372038
7 -0.02957009 -0.050559156 0.09226704 0.15255749 -0.09816409 -0.15891579 0.19324625 0.2612841 -0.088606864 0.050156683 0.24210131 0.08595002 0.02275912 0.110047095 -0.105749406 0.01864144 0.028153207 0.13052325 -0.13198459 0.07148779 0.24257927 0.17172743 0.24399173 -0.1607632 0.1259174 0.052784957 -0.1528062 0.07847868 -0.053273972 -0.10464762 -0.06677026 -0.062038936 0.057963386 -0.19796142 -0.06501632 0.09454969 0.10518369 0.029068494 0.2777434 -0.04550966 0.025972653 0.063745424 -0.038657647 -0.14702201 -0.07253745 0.08838694 -0.07790161 0.00013736269 -0.047717556 0.043575246 0.048513126 0.18455079 0.034829922 0.11239393 0.19753295 -0.090874106 0.064713806 -0.1794224 0.09683702 -0.0761971 0.091279805 -0.10075181 -0.21156591 -0.0070149587
6 -0.03750484 -0.04608409 0.08783573 0.14660014 -0.1004603 -0.15271582 0.22355594 0.25468096 -0.09927946 0.053263992 0.2700384 0.096075855 0.0046657166 0.09499212 -0.08551393 0.018820394 0.05122651 0.11943319 -0.127647 0.1173489 0.23430273 0.18144195 0.22800069 -0.15410876 0.11147162 0.03469748 -0.15165389 0.08136857 -0.035482045 -0.10425355 -0.050132874 -0.05785702 0.032209422 -0.19331793 -0.08607207 0.102718495 0.11851967 0.024301 0.2967623 -0.005974415 0.06639576 0.060299434 0.010579029 -0.14212392 -0.09450065 0.08834075 -0.06993117 -0.012282449 -0.039116863 0.01857494 0.07602403 0.18263046 0.050212417 0.10562033 0.19802217 -0.07453709 0.07607715 -0.18759075 0.11380507 -0.08699444 0.13107263 -0.09274903 -0.20754704 0.032627527
8 -0.031321615 -0.042173736 0.10696079 0.15900387 -0.117701545 -0.15012582 0.22154915 0.2600586 -0.08704893 0.050601944 0.2561872 0.08631461 -0.00087631843 0.0965812 -0.092344865 0.03023153 0.057475675 0.11424934 -0.1372474 0.0994514 0.23616901 0.17984867 0.24255262 -0.15896772 0.1290373 0.03971558 -0.13851508 0.08224312 -0.042505506 -0.10251092 -0.052716605 -0.049730286 0.030209607 -0.20651917 -0.090767704 0.090850934 0.12023475 0.039767034 0.28625515 -0.038407587 0.04576591 0.075025454 -0.008149689 -0.15116735 -0.06873485 0.07921275 -0.08184156 0.008665453 -0.04423913 0.02438345 0.06294353 0.17391458 0.03126574 0.120205685 0.19728479 -0.093428805 0.0654521 -0.17134799 0.094459474 -0.07698596 0.100888416 -0.082212955 -0.19768682 0.011756444
4 -0.0372222 -0.041572653 0.11979251 0.16754542 -0.12687789 -0.18184155 0.20606843 0.25334355 -0.10088223 0.03583398 0.28227568 0.08149792 -0.0010516783 0.09051017 -0.1017911 0.0046810326 0.040629577 0.11143154 -0.15300873 0.0565244 0.23935482 0.18519752 0.22639018 -0.13014242 0.114941455 0.029695485 -0.14579415 0.10406874 -0.06984434 -0.09696832 -0.08492669 -0.058354165 0.056723274 -0.1793429 -0.075628415 0.06583493 0.13917598 -0.01310601 0.2697947 -0.01511693 0.015851151 0.079263404 -0.026198171 -0.1372217 -0.08987165 0.0819941 -0.0771019 0.030199783 -0.015515965 0.029043209 0.05086088 0.15675744 0.012728081 0.10011609 0.20426556 -0.08283932 0.0834825 -0.19556867 0.062040836 -0.024706947 0.11322732 -0.09428556 -0.18377379 -0.0046961284
