7 64
902 -0.028163394 -0.036543902 0.14603426 0.25590375 -0.19417277 -0.20946258 0.14456466 0.27816716 -0.12479467 -0.08479067 0.2553648 0.0023297777 0.004839023 0.121939845 -0.13850361 -0.074327335 0.005057341 0.08840974 -0.19899315 -0.10639295 0.21405943 0.1759117 0.23388903 -0.06443799 0.12362486 0.043008145 -0.10889385 0.12604134 -0.17532367 -0.100886405 -0.13178201 -0.056017183 0.13777925 -0.19743295 -0.012610848 0.019651124 0.11909895 -0.09880984 0.16524942 -0.037574954 -0.13804206 0.07269055 -0.14924705 -0.068225525 -0.07441737 0.008865615 -0.10881516 0.122885175 0.036465567 0.14199547 -0.061540075 0.14114489 -0.026496992 0.09606229 0.17518568 -0.09353596 0.096302494 -0.20607188 -0.028258525 0.11643387 0.043749385 -0.05943953 -0.15176481 -0.1093141
9 -0.037718523 -0.018874472 0.15032731 0.21907042 -0.1606856 -0.16561536 0.18250802 0.2846186 -0.08142862 -0.05687463 0.2805546 0.05602654 0.0720953 0.0544947 -0.13311486 -0.07015717 0.008181077 0.11754534 -0.12923709 0.054531947 0.1787939 0.18982637 0.2718546 -0.14906351 0.08984668 0.11201804 -0.11470604 0.11023366 -0.07785522 -0.073793985 -0.025480526 -0.0138658695 -0.023221087 -0.21269886 -0.040761806 0.070095025 0.057608988 0.0068824985 0.2765926 0.007608994 0.019590797 0.04515811 -0.057139404 -0.068041936 -0.08981072 0.0105834445 -0.07086918 0.0059624547 -0.059841603 0.072297156 0.068619184 0.1636815 0.021716446 0.18156438 0.15008955 -0.10542582 0.0841966 -0.21173574 0.05402325 -0.04553159 0.121972375 -0.06991811 -0.17852612 -0.013100056
6 -0.03874162 -0.014947513 0.1673859 0.21635823 -0.16688827 -0.18794687 0.17880821 0.2792091 -0.08110924 -0.04429038 0.2930354 0.060058177 0.061152603 0.05541674 -0.14316528 -0.06422095 0.005302779 0.11954224 -0.14071997 0.01729682 0.19254914 0.18894014 0.26528546 -0.13837437 0.095776126 0.09368161 -0.11725765 0.12681557 -0.08572602 -0.06830607 -0.056534484 -0.016028253 0.0023626464 -0.1929175 -0.044045605 0.04516521 0.08569162 -0.013494304 0.2611477 -0.008174987 -0.0038663845 0.06582787 -0.07416242 -0.08424701 -0.07912319 0.026442697 -0.0752606 0.025533466 -0.042735565 0.06912448 0.05091839 0.14191441 -0.0075218114 0.1580323 0.16316539 -0.106946856 0.086803675 -0.20786545 0.029060446 -0.017142644 0.108620435 -0.07692849 -0.16188797 -0.033111077
8 -0.033334404 -0.03732862 0.15283279 0.21553314 -0.1499175 -0.18220317 0.15966062 0.27590883 -0.082681976 -0.03170789 0.27181605 0.05422345 0.064903975 0.06646782 -0.13305253 -0.04849048 -0.002427061 0.12089261 -0.15245464 0.032730885 0.20977625 0.19092265 0.26851633 -0.14481471 0.10335898 0.10884396 -0.13492386 0.10643589 -0.098848544 -0.08179254 -0.05733536 -0.04031574 0.011380378 -0.20080881 -0.030616231 0.061513882 0.07275128 -0.0027127448 0.27590486 -0.010737553 -0.008576663 0.056896754 -0.069899544 -0.08385526 -0.0889531 0.032031357 -0.06607784 0.024778126 -0.051285136 0.05548287 0.061463986 0.15527965 0.011183252 0.16737205 0.16309339 -0.105285116 0.07543287 -0.20699018 0.03501378 -0.022216601 0.1014048 -0.090627626 -0.17964976 -0.030167727
7 -0.03884675 -0.03409949 0.14599758 0.21167338 -0.15317024 -0.18246022 0.1866463 0.27689987 -0.09512124 -0.027306993 0.29218212 0.062155586 0.046703395 0.06699148 -0.12255074 -0.047492843 0.015626574 0.11569399 -0.15200637 0.053512543 0.21034214 0.19718376 0.25830552 -0.13851699 0.09876661 0.08734043 -0.13528799 0.11111198 -0.08929696 -0.08595316 -0.054681435 -0.039517626 0.010115759 -0.20085207 -0.047369372 0.06736162 0.09025059 -0.011777278 0.2832321 0.009204526 0.010930365 0.057579227 -0.04526616 -0.08791013 -0.10199081 0.036404185 -0.0685758 0.0217117 -0.039038118 0.05030572 0.06748415 0.16046831 0.019681295 0.15481344 0.17199984 -0.09489533 0.08685907 -0.21550864 0.048579782 -0.024250196 0.124760315 -0.085392445 -0.1819537 -0.010419977
5 -0.031359892 -0.036287837 0.16364105 0.23286213 -0.17604743 -0.18252808 0.17496389 0.2755957 -0.09172523 -0.03972099 0.27363452 0.03892923 0.028102389 0.07356021 -0.1220856 -0.038374655 0.023069423 0.09839924 -0.17569534 0.019773409 0.21220784 0.1941817 0.2596408 -0.123356715 0.116228215 0.08340359 -0.119945295 0.11004167 -0.115106165 -0.0883422 -0.06834217 -0.040784616 0.025625985 -0.20886725 -0.044920005 0.04847787 0.09700972 -0.015746005 0.25374964 -0.017228624 -0.03165931 0.071174875 -0.06575674 -0.08429607 -0.08002038 0.019590033 -0.07847953 0.06179547 -0.026183857 0.056556866 0.041327093 0.1410586 -0.0012007946 0.15586318 0.16447803 -0.104654185 0.0758871 -0.19430935 0.012452918 0.016614618 0.08619243 -0.06886926 -0.16010177 -0.037680015
4 -0.03623419 -0.033099152 0.16381718 0.2288407 -0.16627581 -0.19139673 0.15939642 0.2732551 -0.09069156 -0.050977696 0.28587338 0.04488242 0.05671659 0.05904409 -0.1321141 -0.0640021 -0.00023551233 0.11020432 -0.16312955 0.017560525 0.20237985 0.19532153 0.25938544 -0.12522833 0.096026786 0.10132698 -0.1281773 0.117309295 -0.11328015 -0.078563176 -0.06465803 -0.038127463 0.01399557 -0.1938957 -0.028592551 0.048004508 0.081568256 -0.02794852 0.26424047 0.0061081545 -0.02177156 0.058946222 -0.069570966 -0.068214774 -0.09706995 0.020367775 -0.06519853 0.04120446 -0.033316195 0.057272088 0.055349775 0.1411506 0.0027867586 0.1602617 0.15767457 -0.09853268 0.083830364 -0.21236616 0.015222748 0.00906739 0.10749732 -0.08244892 -0.16274005 -0.033031557
