7 64
902 -0.027514072 -0.043117393 0.15157755 0.2058679 -0.17889062 -0.19103172 0.20030524 0.24412099 -0.109853975 0.012676831 0.26873928 0.038933747 -0.06091722 0.10381839 -0.09419717 0.018820578 0.070108384 0.07066741 -0.21335527 -0.0079369135 0.25267142 0.19178349 0.218809 -0.084723055 0.14625777 -0.0033650992 -0.120148696 0.11580246 -0.12769133 -0.10739084 -0.1261084 -0.0662222 0.100309856 -0.19139558 -0.084008574 0.024008527 0.18245229 -0.049141973 0.21686406 -0.044963397 -0.06628458 0.11424791 -0.056924593 -0.13840193 -0.07004051 0.056406755 -0.10512865 0.12521678 0.032570533 0.04171543 -0.00012870674 0.12607609 -0.029904976 0.09289524 0.21474127 -0.09745859 0.083317555 -0.1825587 -0.011253143 0.07988913 0.06464775 -0.06580006 -0.1485866 -0.052167162
9 -0.030135991 -0.033658773 0.17257713 0.22181898 -0.1545855 -0.19188505 0.1404167 0.2826726 -0.06761022 -0.034782078 0.26496708 0.05275582 0.086047366 0.06383014 -0.15433341 -0.052162144 -0.020839948 0.13279068 -0.15290514 0.0014009697 0.21307975 0.1880494 0.28767338 -0.15652122 0.11105905 0.12887612 -0.13365237 0.11350992 -0.10518543 -0.07331639 -0.06610966 -0.033546314 0.012357318 -0.20077394 -0.01959458 0.047837522 0.064381875 0.0053258515 0.2710795 -0.039027702 -0.02944222 0.065250985 -0.1014905 -0.08685517 -0.067195244 0.031172752 -0.067422114 0.028071754 -0.06340151 0.063546084 0.050989706 0.14261828 -0.010045749 0.1764565 0.15743531 -0.120079555 0.06587383 -0.19667684 0.016751839 -0.02041878 0.07557447 -0.095140785 -0.17052886 -0.055732083
6 -0.031018354 -0.022919027 0.17695948 0.19804041 -0.14741018 -0.1955687 0.14546008 0.26938325 -0.057673916 -0.011198758 0.26834545 0.067076735 0.07849879 0.05816421 -0.15857522 -0.03907816 -0.01708412 0.1364217 -0.14272521 -0.008785823 0.21562292 0.18140154 0.27976766 -0.15826777 0.11221981 0.1107979 -0.13086434 0.12353054 -0.08776108 -0.0637918 -0.077638954 -0.025339577 0.016393939 -0.18283583 -0.03348506 0.03335855 0.08491411 0.006591109 0.26423177 -0.05387043 -0.023545459 0.081605114 -0.1040698 -0.11033345 -0.05343349 0.05033924 -0.07208077 0.027351514 -0.06061618 0.056417923 0.047007486 0.13007379 -0.030431008 0.160987 0.17125437 -0.12428287 0.06732241 -0.19100367 0.013415981 -0.024388557 0.07234249 -0.10032834 -0.16217487 -0.06036788
8 -0.021976419 -0.04679365 0.16802318 0.20759304 -0.13518612 -0.19153234 0.111134544 0.26796293 -0.05656577 -0.009765178 0.23624736 0.05086902 0.088744864 0.07127072 -0.15368983 -0.028443994 -0.03373433 0.13525915 -0.15750606 -0.011943081 0.22622702 0.17655529 0.28163618 -0.15874606 0.120731965 0.13420203 -0.14319415 0.09941814 -0.1118667 -0.0751693 -0.080759756 -0.050107703 0.03076126 -0.189173 -0.0077341697 0.043692403 0.06108003 0.015375913 0.2635428 -0.06483227 -0.04740413 0.07005822 -0.113448784 -0.09858974 -0.054243207 0.046131082 -0.06052429 0.033916313 -0.06873423 0.049141053 0.046419416 0.13462412 -0.016766276 0.17051144 0.15825717 -0.1233286 0.048683584 -0.17925033 0.0059176916 -0.017328186 0.047117118 -0.10959018 -0.17024301 -0.07045109
7 -0.03258579 -0.048152905 0.13915329 0.18692125 -0.13663183 -0.20015605 0.16543078 0.25205663 -0.09704911 0.016598772 0.27252102 0.062798895 0.014769089 0.091120124 -0.11967016 -0.010064676 0.014197099 0.113671616 -0.17481919 0.0043434403 0.24685192 0.18636356 0.23587833 -0.11984175 0.11990855 0.050410096 -0.14985706 0.11164195 -0.10779636 -0.09459032 -0.11002504 -0.06778006 0.078304365 -0.17461164 -0.04788657 0.04484548 0.13291053 -0.03428008 0.25505462 -0.029251352 -0.034350436 0.08426839 -0.06907503 -0.12464743 -0.08674169 0.07358281 -0.07615756 0.05783289 -0.010148023 0.041069858 0.03247376 0.14325827 -0.008501548 0.10841661 0.20044635 -0.09268725 0.08031366 -0.20092985 0.02183222 0.01795119 0.08795839 -0.10424906 -0.17498803 -0.042278353
5 -0.022273378 -0.039326686 0.18517067 0.22224142 -0.17937334 -0.18292966 0.16823505 0.2590684 -0.072016 -0.0031797118 0.25590625 0.03880767 0.004294143 0.0715805 -0.11863631 0.0063609504 0.03633277 0.08993602 -0.19543922 0.008391965 0.23431079 0.19212316 0.26205456 -0.1276505 0.14196756 0.07299269 -0.11732903 0.10836984 -0.11800946 -0.08685485 -0.08833625 -0.045947734 0.031807505 -0.2043551 -0.060785625 0.026722196 0.12303989 0.0039807516 0.24753797 -0.06118675 -0.049853012 0.10330564 -0.069102526 -0.11691446 -0.048443567 0.034653373 -0.08347493 0.09152096 -0.0259194 0.025759542 0.03778002 0.11368634 -0.0328466 0.15480238 0.17582497 -0.12179286 0.056243453 -0.1642153 -0.017770726 0.032088794 0.047921922 -0.07033044 -0.1405458 -0.05480059
4 -0.027646402 -0.04547471 0.1676461 0.21085557 -0.16650441 -0.19907786 0.15529074 0.24178685 -0.09158764 -0.00406915 0.26662484 0.038385384 -0.0041448358 0.07630475 -0.112549186 -0.008750799 0.025725018 0.08812202 -0.2014487 -0.012818966 0.2391899 0.19119808 0.23306513 -0.09935379 0.12590635 0.05103959 -0.13089123 0.115986034 -0.13332383 -0.09004503 -0.11431549 -0.06376603 0.06782588 -0.17680678 -0.04880827 0.020218063 0.13995378 -0.043263074 0.23571864 -0.031775214 -0.06328385 0.09768655 -0.07051376 -0.10901611 -0.07748945 0.048036497 -0.07731476 0.09830738 0.003546021 0.029018933 0.027574144 0.11291844 -0.029982613 0.12062409 0.18644719 -0.09948674 0.073888235 -0.18679562 -0.023246292 0.06482068 0.068404496 -0.08481898 -0.14186299 -0.055081822
