7 64
902 -0.013429959 -0.06713294 0.13852072 0.23301895 -0.16605248 -0.20444858 0.10968594 0.2547324 -0.10899855 -0.029283622 0.2088307 0.00035082782 -0.007841275 0.14020416 -0.128683 -0.016246764 0.0016001083 0.090395756 -0.22840843 -0.10577478 0.2593944 0.17366077 0.23864073 -0.077401616 0.15574549 0.048973817 -0.13964342 0.10551563 -0.1923053 -0.11685759 -0.15790115 -0.093315296 0.16664533 -0.19839184 -0.0077200946 0.021059979 0.12908824 -0.072133616 0.17637135 -0.083961405 -0.16248855 0.0902589 -0.15862375 -0.10608869 -0.062003717 0.03921527 -0.10658174 0.14636932 0.0261853 0.10714797 -0.056794632 0.14356442 -0.03225376 0.10391042 0.19790913 -0.10952583 0.07018919 -0.18985038 -0.04232315 0.12185233 0.0036785917 -0.08776059 -0.1690391 -0.12753153
9 -0.025920091 -0.033256497 0.15653348 0.18421799 -0.11965409 -0.18578942 0.13331932 0.27856487 -0.048851278 0.007850029 0.24344437 0.076679565 0.103675745 0.07438321 -0.16666898 -0.027217884 -0.03380946 0.15840986 -0.1275548 0.0033683113 0.2267914 0.17377721 0.29688904 -0.18726757 0.1206172 0.13306038 -0.14404507 0.10356134 -0.07545911 -0.070571885 -0.06888991 -0.033736672 0.020757932 -0.19408333 -0.022104928 0.057220895 0.05980013 0.038394008 0.28032342 -0.07705564 -0.013768526 0.07036544 -0.115572825 -0.122865 -0.044706278 0.06439596 -0.06933339 -0.0009961955 -0.08885331 0.06296412 0.050649043 0.1545042 -0.012761052 0.17059751 0.17210811 -0.13091461 0.05355852 -0.18480143 0.042894863 -0.068852186 0.059483405 -0.116370775 -0.19050696 -0.062177245
6 -0.02405756 -0.024875363 0.1713655 0.18044303 -0.12862763 -0.19190677 0.13354531 0.2730618 -0.040745534 0.0154629415 0.24242935 0.077105924 0.093081646 0.07279933 -0.17373584 -0.018263785 -0.02908721 0.15580279 -0.13222906 -0.021706227 0.23075305 0.17092088 0.29741046 -0.18387188 0.12979895 0.12121265 -0.13702177 0.1152176 -0.076477446 -0.06465969 -0.08412082 -0.026611198 0.02965862 -0.18804793 -0.030874874 0.03771986 0.078164466 0.035843823 0.2657931 -0.099246696 -0.02975846 0.08913848 -0.13113798 -0.13838747 -0.026648471 0.06949385 -0.079478234 0.01720681 -0.08205529 0.06514544 0.03598445 0.13956092 -0.03833884 0.16452254 0.18151875 -0.14137298 0.052771643 -0.17725572 0.023617735 -0.052523 0.042671695 -0.11373002 -0.17739476 -0.08012567
7 -0.019775242 -0.047705576 0.14501329 0.172103 -0.10164729 -0.18332753 0.11210324 0.2662467 -0.045221448 0.028611481 0.2184257 0.07383585 0.10028066 0.08597309 -0.16117063 -0.006820135 -0.04093886 0.15948229 -0.13492715 -0.0038037756 0.24167043 0.16643098 0.29054928 -0.1869902 0.129723 0.13284117 -0.15386173 0.08916546 -0.08334928 -0.0772784 -0.081967905 -0.052062336 0.0424538 -0.18788695 -0.013175507 0.058919277 0.05942284 0.043339342 0.27506518 -0.094392434 -0.028504109 0.07184531 -0.121794954 -0.1324463 -0.03919305 0.07743058 -0.06493839 0.004907409 -0.089012645 0.052949697 0.04493799 0.15337832 -0.0118710445 0.1613291 0.17463443 -0.12952115 0.041195538 -0.1725274 0.038939927 -0.06481 0.038915727 -0.12747149 -0.19430499 -0.07088437
8 -0.027033547 -0.042890158 0.14064693 0.17159396 -0.10939831 -0.19070494 0.13684674 0.26545125 -0.06270527 0.026071241 0.24544957 0.07886521 0.079173535 0.085625276 -0.15195529 -0.0138249425 -0.025018882 0.1517557 -0.13823909 0.0040615397 0.24135098 0.17378059 0.27506003 -0.17094554 0.12151453 0.10581357 -0.154562 0.100924715 -0.08116866 -0.08028356 -0.08750058 -0.052069392 0.049480915 -0.1817879 -0.027196545 0.057850596 0.08304158 0.018567452 0.27544475 -0.06790341 -0.01793278 0.07375293 -0.1028539 -0.13266872 -0.05805066 0.080944 -0.06881568 0.009513175 -0.067173555 0.05293145 0.045033626 0.15578505 -0.008237005 0.14312151 0.1867131 -0.11666811 0.059294596 -0.18904214 0.044449937 -0.051120155 0.06630428 -0.12324574 -0.19365095 -0.056123592
5 -0.018713458 -0.040628176 0.16375774 0.20450997 -0.14965774 -0.18252312 0.14169066 0.2695144 -0.06133894 0.0032781546 0.22830957 0.04839828 0.045559514 0.0923013 -0.14559771 -0.0025653709 0.0007463684 0.122687794 -0.16858497 -0.021022186 0.23783089 0.17533742 0.2802302 -0.15266313 0.14516927 0.095980994 -0.12878425 0.10190434 -0.10868974 -0.08577501 -0.09233425 -0.04582451 0.055244215 -0.20558882 -0.03680618 0.03931522 0.094471045 0.019493768 0.24303867 -0.0946202 -0.06008335 0.09109397 -0.1168599 -0.127881 -0.032906573 0.05005878 -0.088584766 0.06265442 -0.050787106 0.064000934 0.01679413 0.13900737 -0.029035134 0.15510131 0.17971937 -0.13235927 0.05043818 -0.16707858 0.0058126613 -0.0036029292 0.02755274 -0.09095643 -0.16955712 -0.08100173
4 -0.022770308 -0.05006185 0.15833186 0.18893112 -0.12002463 -0.20061833 0.10486919 0.25699297 -0.059493676 0.010168627 0.2362909 0.059455153 0.083386816 0.07874493 -0.15547357 -0.021077143 -0.039194208 0.1430478 -0.16008383 -0.025983255 0.2426418 0.17543234 0.2742222 -0.15584779 0.12241442 0.12004735 -0.15532362 0.10366224 -0.11266366 -0.07762525 -0.10224127 -0.060983468 0.056821715 -0.17490953 -0.007611131 0.039400186 0.07836566 0.0019862182 0.2625036 -0.06980617 -0.053760055 0.07718434 -0.12130535 -0.11561419 -0.058520738 0.06848069 -0.06210882 0.036006805 -0.059447132 0.047682907 0.038907044 0.13593742 -0.02295783 0.15040252 0.17594345 -0.11960969 0.05353294 -0.18655314 0.0064631966 -0.010959093 0.048264053 -0.1254044 -0.17661926 -0.07685968
