7 64
902 -0.026546834 0.0056826677 0.22257277 0.2515057 -0.23298767 -0.21858047 0.13141805 0.24906509 -0.07698311 -0.09192572 0.26674283 0.0019599295 0.008084085 0.060961716 -0.16349293 -0.07748151 0.008009675 0.07477449 -0.19804324 -0.15131253 0.18670443 0.17513226 0.24322434 -0.061308324 0.12146718 0.04939614 -0.06847202 0.16790634 -0.16666465 -0.054851156 -0.1384705 -0.006133078 0.082509935 -0.16964279 -0.03291169 -0.050973486 0.14217159 -0.09376522 0.14360285 -0.066246 -0.15185465 0.11966196 -0.17507985 -0.07967957 -0.032524593 -0.0053580995 -0.117261946 0.15847488 0.03052125 0.12113228 -0.054467306 0.073682204 -0.107798025 0.12778148 0.1736957 -0.13279115 0.09571611 -0.19536471 -0.102909066 0.15223613 0.024521636 -0.046852432 -0.09142381 -0.14256872
9 -0.027198896 -0.047756333 0.15620907 0.25460836 -0.1662248 -0.1942773 0.09855952 0.27293143 -0.093929805 -0.0941379 0.24527916 0.008291617 0.08242186 0.07497721 -0.14459261 -0.09413951 -0.038775533 0.108513355 -0.17739081 -0.04369566 0.19360738 0.18315706 0.26062602 -0.10505245 0.09479283 0.13189289 -0.12693177 0.105824724 -0.16240859 -0.08299578 -0.07923358 -0.053801622 0.049617924 -0.1955883 0.022654863 0.041849624 0.043995127 -0.05269073 0.22670053 -0.0032421022 -0.087505154 0.038956292 -0.12537643 -0.029839467 -0.09760194 -0.00592568 -0.06230855 0.06408863 -0.027986461 0.096118376 0.019405434 0.14306778 0.003540349 0.16686146 0.13415463 -0.09906794 0.07629482 -0.21360254 -0.015137843 0.053065587 0.07110302 -0.08474652 -0.16240403 -0.07634404
7 -0.027598632 -0.051343735 0.16186216 0.24132165 -0.1561204 -0.20397857 0.10326312 0.2735246 -0.088078156 -0.06340204 0.254176 0.025130384 0.08410312 0.07623794 -0.15028903 -0.074772365 -0.04004569 0.12174696 -0.18017167 -0.035908587 0.21661349 0.18889661 0.27049205 -0.12199571 0.10408085 0.13155599 -0.14287809 0.1093107 -0.15358609 -0.08431473 -0.090040974 -0.060549848 0.052591667 -0.19246314 0.014106513 0.0422797 0.058295682 -0.04123295 0.24858363 -0.01736638 -0.07749836 0.05169036 -0.12262901 -0.055829037 -0.09399663 0.018413 -0.061051957 0.0573576 -0.036401685 0.07824736 0.030701749 0.14379345 -0.003111765 0.16557227 0.15173529 -0.10548264 0.07293124 -0.2143137 -0.009848644 0.03736282 0.07145461 -0.102077805 -0.17101097 -0.07484309
6 -0.02276366 -0.08715668 0.12958002 0.253735 -0.12974194 -0.19345851 0.06856596 0.2773993 -0.10109281 -0.07270854 0.22696856 0.009420892 0.10774495 0.092002355 -0.13529584 -0.07956348 -0.06391689 0.12573476 -0.19042246 -0.0065966295 0.22484168 0.19052736 0.27098697 -0.12526613 0.09826756 0.1682279 -0.16934617 0.073372625 -0.17788866 -0.10468574 -0.07613783 -0.096916966 0.059294987 -0.20529665 0.052061874 0.07910934 0.013259551 -0.035825063 0.26927054 0.0068023764 -0.07982182 0.014410426 -0.11124359 -0.023452356 -0.12488098 0.009921496 -0.036120214 0.039438266 -0.050061304 0.069466695 0.049507476 0.17046532 0.046026733 0.17965639 0.1293279 -0.08782216 0.059144244 -0.21787244 0.009822766 0.025117362 0.074304834 -0.11720313 -0.19818878 -0.059440315
5 -0.026959538 -0.06466506 0.1364859 0.2427392 -0.15092346 -0.19649409 0.1045769 0.26582214 -0.107733056 -0.06712561 0.24444985 0.0134113375 0.060664188 0.09188844 -0.12799008 -0.07147074 -0.029233119 0.1065076 -0.19054414 -0.027619464 0.21767083 0.18651785 0.24712332 -0.09972961 0.101778716 0.11196296 -0.14538862 0.09541847 -0.16635145 -0.09899494 -0.09337316 -0.07882413 0.0761094 -0.19285953 0.017143603 0.053796105 0.06247898 -0.05936131 0.23600452 0.0017012559 -0.084658615 0.040009428 -0.10670768 -0.044787638 -0.11190358 0.0147519745 -0.05978503 0.06800204 -0.01527792 0.07978582 0.021888142 0.15357073 0.0177568 0.14640833 0.1505498 -0.08667106 0.07659134 -0.21603939 -0.0031738244 0.056408543 0.07701484 -0.09622027 -0.17638591 -0.06465216
4 -0.023992995 -0.04715573 0.17776118 0.2608297 -0.1865667 -0.19734703 0.11219803 0.26679215 -0.090725586 -0.07964844 0.24877942 0.0034106818 0.048623495 0.07361936 -0.13633798 -0.067071676 -0.013800856 0.09190574 -0.20138052 -0.047390733 0.20737542 0.18947092 0.25907654 -0.097172394 0.11333722 0.11174825 -0.11872198 0.11096341 -0.17017797 -0.08546706 -0.09295725 -0.05490993 0.052906852 -0.19921635 0.0013204751 0.024344793 0.07506269 -0.050409753 0.2205547 -0.021646384 -0.100817144 0.06471883 -0.1172361 -0.04817524 -0.08256829 -0.00440349 -0.07163872 0.09803088 -0.014291921 0.07626809 0.0147922225 0.122882344 -0.018359477 0.16425371 0.1447175 -0.10791344 0.070900984 -0.19842751 -0.040767636 0.08010895 0.05402748 -0.074370295 -0.14382184 -0.08267433
8 -0.027735075 -0.050365586 0.17250288 0.25079677 -0.16935961 -0.20914498 0.091085605 0.25823894 -0.09233589 -0.07982454 0.256568 0.009869362 0.070841186 0.06518502 -0.14270118 -0.083939664 -0.03818971 0.10354203 -0.19505797 -0.054264132 0.20767133 0.18965818 0.25305495 -0.095324345 0.096566826 0.123103306 -0.13409251 0.11558709 -0.17336251 -0.079926476 -0.100303896 -0.06254029 0.05642869 -0.17897078 0.019306533 0.023176486 0.06706902 -0.06786885 0.22942644 -0.0018359545 -0.09797742 0.05522009 -0.121569954 -0.038279746 -0.101275474 0.0055872956 -0.057002928 0.08240686 -0.015552326 0.07164402 0.025159309 0.12201116 -0.014911049 0.15833959 0.14349629 -0.09827017 0.07723452 -0.21497014 -0.040265378 0.07954217 0.070957124 -0.094387256 -0.1481174 -0.08064303
