7 64
902 -0.00391969 -0.024181983 0.13630302 0.23590183 -0.19837776 -0.16022672 0.11488786 0.2558384 -0.09214961 -0.08184942 0.15595835 -0.03144284 -0.0281657 0.14503406 -0.13435207 -0.033511322 0.025259951 0.060551792 -0.19539933 -0.16528037 0.19505708 0.1363691 0.22978136 -0.054731816 0.1625859 0.02481063 -0.057556912 0.10423883 -0.18013914 -0.09914446 -0.1364879 -0.037433267 0.16514368 -0.21530628 -0.020013586 -0.0041772714 0.11561391 -0.06106788 0.08439352 -0.13291515 -0.20163569 0.09575697 -0.20891611 -0.093304105 0.0013360773 -0.012731362 -0.14993443 0.1781025 0.035884127 0.1853838 -0.12982178 0.13174833 -0.063931465 0.104411885 0.17367701 -0.13260897 0.06739361 -0.1528314 -0.06122254 0.14297546 -0.05176216 -0.023756102 -0.13565412 -0.17190202
9 -0.016333276 -0.03823026 0.13105226 0.25378126 -0.18553454 -0.15704234 0.15377484 0.29250342 -0.09743653 -0.08055708 0.20366298 -0.0003488036 0.022358157 0.12821543 -0.13242552 -0.04861087 0.019227196 0.09137991 -0.1756243 -0.048122708 0.19868736 0.16698946 0.26873687 -0.110618085 0.1428862 0.08116278 -0.09196698 0.08911576 -0.14406407 -0.106355414 -0.07330068 -0.03888069 0.0854876 -0.24693301 -0.021460436 0.057477966 0.06838461 -0.013526714 0.183736 -0.07347089 -0.103161 0.057255056 -0.13952449 -0.07426215 -0.043642294 -0.012706674 -0.11650566 0.0940726 -0.018430226 0.14749585 -0.04175986 0.17420982 0.002867861 0.15434358 0.15704902 -0.12110691 0.0676317 -0.17834803 0.012210333 0.04132239 0.019983705 -0.040762257 -0.17882603 -0.0961197
5 -0.01527462 -0.03759896 0.14554934 0.23824777 -0.1791681 -0.16925901 0.14393662 0.27932218 -0.086140774 -0.054411143 0.20702502 0.009365119 0.019761764 0.12002754 -0.13786253 -0.031513646 0.014670554 0.09599402 -0.18127023 -0.06146717 0.21371134 0.1669567 0.26704106 -0.11352946 0.14819072 0.07599862 -0.09938734 0.09758813 -0.1423082 -0.099351846 -0.093150795 -0.042435132 0.09120472 -0.22867328 -0.02623081 0.03957741 0.08766759 -0.013973884 0.18689913 -0.08960201 -0.108708 0.076368965 -0.14456828 -0.09500987 -0.034100454 0.0077054985 -0.11349564 0.10172373 -0.017497186 0.12609017 -0.037989605 0.15462346 -0.020312868 0.1460708 0.16881862 -0.12688164 0.063026905 -0.1721789 -0.0054447944 0.0487729 0.0107194455 -0.054827172 -0.16794273 -0.105239145
6 -0.011341612 -0.068105355 0.12785645 0.24970534 -0.16261464 -0.16383019 0.12934247 0.28542966 -0.09428353 -0.04793309 0.1927067 0.0028637291 0.030611062 0.1335772 -0.12492067 -0.020752355 0.0053857495 0.10027169 -0.1966064 -0.026370794 0.2319683 0.17439333 0.27443865 -0.124422275 0.15297785 0.102087855 -0.1242576 0.06985008 -0.15747 -0.118458636 -0.08329972 -0.07285937 0.09226121 -0.2447811 -0.0075766775 0.06988143 0.062342845 0.0008390904 0.21494159 -0.07785278 -0.1029401 0.055756636 -0.12602761 -0.082652494 -0.054369804 0.008033976 -0.09540866 0.08940878 -0.031286784 0.10618146 -0.015448852 0.17430031 0.016007094 0.1598578 0.1579767 -0.11693767 0.04887155 -0.17070815 0.011673718 0.032622006 0.012229861 -0.06793696 -0.19019058 -0.08793025
7 -0.016578725 -0.059649374 0.12227107 0.2404007 -0.16563372 -0.16495442 0.15216658 0.28105775 -0.103852056 -0.043581083 0.20928894 0.010318505 0.010640769 0.13233915 -0.11675736 -0.020995628 0.02166981 0.09362701 -0.19185911 -0.020096613 0.22836417 0.17541258 0.25917533 -0.11319545 0.14721812 0.07453547 -0.119455084 0.07877929 -0.14672272 -0.117920645 -0.08627485 -0.06763491 0.09651499 -0.23704508 -0.024380721 0.06704773 0.0840919 -0.0134068495 0.21043974 -0.06387102 -0.09060937 0.060554642 -0.11075663 -0.089386895 -0.061545875 0.0138968965 -0.10135904 0.09090219 -0.015052797 0.10675724 -0.018178497 0.17363983 0.014916261 0.14116019 0.16861036 -0.10817143 0.061752014 -0.17763059 0.018658625 0.037460938 0.030370627 -0.061912037 -0.18679635 -0.07630977
8 -0.011249881 -0.048850175 0.14973602 0.25871208 -0.19082196 -0.1566185 0.14383587 0.28023738 -0.0875245 -0.06517927 0.19711147 -0.006976932 0.009989958 0.117670126 -0.121660374 -0.023232264 0.026781593 0.07937937 -0.19801971 -0.03686825 0.21097118 0.17284444 0.26887372 -0.11005781 0.15366676 0.08705954 -0.094518766 0.08221247 -0.1550972 -0.10711421 -0.077481955 -0.049251623 0.07375483 -0.24562308 -0.025339821 0.047730427 0.075662166 -0.001761654 0.19184648 -0.08182039 -0.10925202 0.07028703 -0.12366972 -0.07807776 -0.036997393 -0.01277923 -0.10665595 0.11277389 -0.019874208 0.10895254 -0.02529106 0.15123333 -0.0069161137 0.16380857 0.15113585 -0.12506792 0.051472902 -0.15886462 -0.012399626 0.05575158 0.004371882 -0.04084385 -0.16093257 -0.09364476
4 -0.015473311 -0.057576638 0.14294624 0.24807617 -0.17173181 -0.17698659 0.12429898 0.27289975 -0.09468659 -0.056210026 0.2096691 0.002207943 0.02644281 0.11658645 -0.12805912 -0.034454383 0.0024524706 0.09372897 -0.19889979 -0.04775491 0.22357161 0.17551242 0.26088995 -0.10636015 0.14052273 0.09123262 -0.11820565 0.08773725 -0.16265826 -0.106368 -0.096145324 -0.06589193 0.09189055 -0.22253059 -0.008007735 0.046686698 0.07785274 -0.026031882 0.20325424 -0.06351534 -0.11103955 0.064410634 -0.12898473 -0.0763429 -0.06008244 0.0073166387 -0.09299823 0.10151839 -0.01509365 0.10178557 -0.01749829 0.15232015 -0.00391971 0.14874776 0.15885937 -0.11252492 0.05951069 -0.17864998 -0.011840707 0.060747094 0.021978315 -0.0679565 -0.1692923 -0.09284776
