7 64
902 -0.036362715 0.013677394 0.15492344 0.223576 -0.21716781 -0.19232893 0.20792495 0.26224703 -0.11493173 -0.08001383 0.28118813 0.02319921 -0.037140794 0.10167218 -0.13591565 -0.072521396 0.055696107 0.07184874 -0.16738181 -0.10202695 0.1813695 0.17006277 0.21781057 -0.055600088 0.118513495 -0.016777573 -0.06393181 0.1598303 -0.12380472 -0.079255015 -0.119881324 -0.0019278361 0.11069453 -0.19006987 -0.0733442 -0.0053800894 0.16700737 -0.09875575 0.13910303 -0.040203396 -0.10087668 0.10167507 -0.13400775 -0.10063173 -0.052277543 0.008996743 -0.14430203 0.12936878 0.05373558 0.16125585 -0.07422469 0.13207236 -0.059625376 0.083360784 0.20306306 -0.106818415 0.12415719 -0.21249214 -0.019980075 0.10924277 0.06932028 -0.02619772 -0.13308804 -0.099283405
9 -0.035929307 0.0031331999 0.15607737 0.25118607 -0.21506253 -0.16360374 0.21619663 0.29824448 -0.10259197 -0.10205193 0.27979153 0.024869327 0.014991951 0.08326303 -0.13327427 -0.08327928 0.047788993 0.085347235 -0.14915623 -0.01141229 0.16359352 0.18439622 0.26245308 -0.106448986 0.110758066 0.057426237 -0.06964329 0.13045017 -0.10293002 -0.08168576 -0.0461067 0.007685634 0.023792319 -0.2360593 -0.06256534 0.044697024 0.094654396 -0.030570777 0.20422243 -0.016817896 -0.039624065 0.06455589 -0.09379875 -0.06648975 -0.06272015 -0.02320798 -0.11908457 0.07108907 -0.009527878 0.1401604 -0.009622734 0.15981397 -0.0067764213 0.15539898 0.16006082 -0.11322123 0.10258067 -0.20570065 0.024835872 0.025267603 0.09056232 -0.019345036 -0.15635927 -0.053158812
7 -0.031536654 0.00038623257 0.20430532 0.24523632 -0.21134195 -0.16927893 0.20509593 0.293528 -0.06273523 -0.058065668 0.28100234 0.0437612 0.037994314 0.046767697 -0.14121088 -0.04416572 0.039939813 0.096348844 -0.1504653 0.02196956 0.17876585 0.1905596 0.2868516 -0.1461325 0.12066121 0.0954738 -0.079748794 0.12676205 -0.082115516 -0.06333688 -0.035473198 0.012265298 -0.033502046 -0.22569545 -0.07106054 0.031513765 0.0887352 0.024452345 0.24749255 -0.045506895 -0.011549874 0.08774815 -0.073408194 -0.08983402 -0.036129195 -0.005731587 -0.09518998 0.055808347 -0.051994458 0.06872095 0.043318827 0.12223699 -0.03061006 0.18975079 0.14965625 -0.1345202 0.069856755 -0.17211707 0.0056319227 -0.0119917 0.072442174 -0.03683023 -0.13413969 -0.04333161
5 -0.02377205 -0.022175502 0.19883695 0.26548636 -0.20969225 -0.16118513 0.18224008 0.29980376 -0.06453712 -0.06635561 0.25510275 0.02436968 0.044437576 0.05897699 -0.13414414 -0.036879104 0.03212601 0.09204589 -0.17010303 0.029266475 0.18816403 0.1928869 0.2970638 -0.14912707 0.13148923 0.12120665 -0.08796503 0.10376294 -0.107274316 -0.07740501 -0.030008314 -0.008218088 -0.029383635 -0.24497788 -0.050712246 0.046044555 0.06360044 0.037072144 0.25220487 -0.0515437 -0.030555505 0.07515546 -0.07631986 -0.07391948 -0.038878888 -0.01945667 -0.08695996 0.0644984 -0.061203543 0.063398086 0.046302926 0.13042529 -0.012435488 0.20851669 0.1339787 -0.13545677 0.05273676 -0.16178185 0.0006066506 -0.0064415573 0.051755022 -0.03762071 -0.14248724 -0.04775049
6 -0.032739647 -0.012172816 0.17442942 0.24649577 -0.20378153 -0.16082686 0.216771 0.29661396 -0.08433108 -0.061590943 0.2806251 0.039219093 0.02172492 0.06679011 -0.12411838 -0.04416685 0.05136622 0.090398975 -0.15667067 0.041844465 0.18420042 0.1937366 0.2759906 -0.13632442 0.120198004 0.08127719 -0.08738792 0.11436741 -0.08824097 -0.081449285 -0.03218888 -0.0037178323 -0.014847126 -0.23732777 -0.07142707 0.0539946 0.089308806 0.014139452 0.24931857 -0.025161793 -0.006376806 0.07257366 -0.055752352 -0.08282922 -0.057302512 -0.00705216 -0.096615516 0.054107428 -0.039222423 0.07670981 0.03973465 0.14623566 -0.0012266028 0.17764845 0.15353195 -0.118456595 0.07683617 -0.18190609 0.028455941 -0.01131692 0.087240346 -0.03355191 -0.15314415 -0.02728905
8 -0.03245129 0.0036147914 0.18955337 0.2552298 -0.23257707 -0.17234711 0.21956988 0.28652513 -0.091016114 -0.08036841 0.2841884 0.023161208 -0.010999042 0.07096065 -0.12842517 -0.053110067 0.06487153 0.07087375 -0.1726823 -0.017665777 0.17855783 0.1901846 0.2608527 -0.10144978 0.12665689 0.044961248 -0.06443957 0.1378317 -0.109785266 -0.07711773 -0.06314124 0.0065805167 0.019097565 -0.22885586 -0.080568105 0.018644473 0.12522846 -0.02584006 0.20241472 -0.037611473 -0.052364923 0.09506321 -0.08607207 -0.086367056 -0.044821125 -0.016687889 -0.120731354 0.10346203 -0.0009442095 0.10543749 -0.005055389 0.12665309 -0.037955087 0.15545483 0.16776006 -0.124149345 0.0923168 -0.18606478 -0.011239584 0.052438542 0.07062013 -0.016027395 -0.12898391 -0.06107032
4 -0.03296698 -0.0035466263 0.18571535 0.24579972 -0.21448214 -0.18693355 0.18201452 0.27118975 -0.090506926 -0.08060285 0.27840915 0.021850232 0.010296325 0.064974226 -0.13528171 -0.06756719 0.033506595 0.079461925 -0.17206237 -0.043342944 0.17982925 0.18448253 0.24869421 -0.09151884 0.111925825 0.056574963 -0.07899901 0.13950883 -0.123767346 -0.070899464 -0.08057165 -0.0068252855 0.03531578 -0.20088875 -0.053403728 0.009231542 0.1163863 -0.04944472 0.19716316 -0.026479919 -0.06860615 0.087492466 -0.10264599 -0.07432541 -0.05852943 -0.006902329 -0.10490732 0.09930525 0.0027200298 0.10144828 -0.004814968 0.1175592 -0.041950777 0.14439099 0.16364324 -0.1147524 0.09376873 -0.19619128 -0.025132164 0.06825951 0.07241548 -0.03804214 -0.12659484 -0.071950264
