7 64
902 -0.0119470935 -0.0548986 0.15312417 0.24683051 -0.20846935 -0.18157674 0.15447803 0.23760064 -0.11614444 -0.03746169 0.21180534 -0.0200792 -0.08286169 0.13014163 -0.08923442 0.010029054 0.06699758 0.036969677 -0.25144815 -0.083791375 0.24144424 0.17678012 0.20926383 -0.040944804 0.16616103 -0.0029692273 -0.09266888 0.101507485 -0.19265585 -0.119525604 -0.14803837 -0.075773425 0.14424676 -0.19691005 -0.050833892 0.0005928279 0.16327132 -0.07413348 0.13409111 -0.07262088 -0.15702552 0.10807 -0.105254956 -0.099219956 -0.045704395 0.009656922 -0.11716293 0.19157937 0.062740944 0.080200456 -0.06328619 0.105360426 -0.04457915 0.08679223 0.18261 -0.09899887 0.0666693 -0.15100075 -0.068634555 0.16352335 -0.0040632575 -0.032952297 -0.11737696 -0.10494659
9 -0.02460096 -0.04093184 0.12829794 0.2222902 -0.16569903 -0.18047026 0.1637481 0.27447098 -0.10551021 -0.039005525 0.2370749 0.026755426 0.00885809 0.12054377 -0.12669168 -0.034503244 0.020396756 0.099853754 -0.17801943 -0.03850885 0.22305927 0.17475139 0.24794765 -0.10545573 0.1339646 0.05259424 -0.117147155 0.10403025 -0.13242692 -0.10466464 -0.10046489 -0.054158624 0.10210733 -0.21442081 -0.035576988 0.049470212 0.109464824 -0.03783445 0.20661114 -0.05425678 -0.083076194 0.072375715 -0.116687 -0.10154259 -0.066111244 0.02920172 -0.1072868 0.087275445 -0.0018211128 0.11403967 -0.023580696 0.16589843 -0.0048145587 0.12169805 0.18715584 -0.106391564 0.081750214 -0.19672598 0.016255008 0.04422225 0.05179296 -0.06878129 -0.18119304 -0.07896591
6 -0.026339056 -0.03255011 0.1483563 0.21005686 -0.16065323 -0.19659275 0.15161492 0.2683562 -0.09063319 -0.02487721 0.24857786 0.04038749 0.025890227 0.10537021 -0.14476863 -0.035204716 0.004293011 0.11368704 -0.17227426 -0.057160024 0.22872102 0.17491753 0.25478876 -0.11512121 0.13104169 0.060275782 -0.123119995 0.11988742 -0.12562357 -0.090118505 -0.11387827 -0.04807098 0.09806033 -0.19791886 -0.03464622 0.031374726 0.11882057 -0.03906842 0.21577929 -0.06620547 -0.08415244 0.087140806 -0.13277662 -0.11608067 -0.05835072 0.045691993 -0.1041622 0.08309536 -0.009715737 0.104814485 -0.017360535 0.15079279 -0.029616743 0.12353679 0.19700758 -0.11685948 0.082786635 -0.20178436 0.002069671 0.042203628 0.050786056 -0.085975565 -0.17447618 -0.09143192
5 -0.016798714 -0.054334395 0.1285714 0.20675172 -0.14603822 -0.18806057 0.12336047 0.25337553 -0.09359809 -0.014194054 0.20893732 0.023206841 0.012745211 0.12603986 -0.13039997 -0.014356243 0.00037270618 0.10430339 -0.18936689 -0.07005655 0.24184069 0.16480675 0.2415872 -0.10274891 0.14341688 0.057172388 -0.12988758 0.096822396 -0.14807972 -0.10427981 -0.12830071 -0.07402279 0.13125165 -0.19585639 -0.018806256 0.03546393 0.1132737 -0.04009703 0.19545352 -0.08240678 -0.11460903 0.08257663 -0.14049105 -0.11469746 -0.05436454 0.048124436 -0.10067951 0.10200705 -0.00104196 0.10060804 -0.033972345 0.15094425 -0.021916175 0.110881515 0.1920217 -0.110530496 0.06702932 -0.18359493 -0.0075212806 0.06276978 0.020023322 -0.08920923 -0.17626959 -0.10411837
7 -0.02554005 -0.047822565 0.12198345 0.19880103 -0.1436074 -0.1860728 0.15768543 0.26088625 -0.102120064 -0.0075969766 0.23935801 0.041774232 0.009213255 0.11784811 -0.1227742 -0.017655585 0.014950991 0.1075292 -0.1748189 -0.02763662 0.23709038 0.17323193 0.23821066 -0.11052156 0.1313644 0.046966355 -0.13348499 0.10143512 -0.12227695 -0.10365088 -0.11035695 -0.066465944 0.10838517 -0.19751896 -0.037809297 0.050329067 0.1205914 -0.036317274 0.22161157 -0.053743735 -0.07043827 0.077375434 -0.1049959 -0.11820073 -0.07178277 0.054776277 -0.09721352 0.07639352 -0.0037929157 0.08938707 -0.009506889 0.16223994 -0.00502484 0.10882992 0.1980698 -0.10060889 0.07913653 -0.19672301 0.02215633 0.033207588 0.058561582 -0.088095956 -0.18541035 -0.07019353
8 -0.019503353 -0.047032572 0.15108311 0.22758377 -0.1738163 -0.18232715 0.15283503 0.2644053 -0.093406916 -0.026160587 0.23069835 0.020372728 -0.0012873741 0.10978347 -0.12182578 -0.012274084 0.025824724 0.08962373 -0.19806671 -0.038264066 0.23357673 0.1789552 0.25063515 -0.10517243 0.14541169 0.05799787 -0.11624822 0.10169183 -0.14309353 -0.10238832 -0.10757705 -0.059514094 0.092125535 -0.21118964 -0.03925486 0.03440265 0.11763438 -0.027281575 0.20836411 -0.06860164 -0.093904845 0.08815207 -0.10993213 -0.10697308 -0.053733815 0.028575504 -0.100838445 0.107744046 -0.0032215181 0.08233014 -0.0134325335 0.1404547 -0.021673799 0.13064519 0.18219441 -0.11400196 0.06660727 -0.17699115 -0.012192375 0.060888205 0.031885643 -0.06786004 -0.16071202 -0.08368663
4 -0.02440706 -0.045475386 0.15449007 0.2288475 -0.16910383 -0.19897468 0.13311248 0.2594288 -0.09764129 -0.04061793 0.2449617 0.021153959 0.019648444 0.09911691 -0.132348 -0.039922774 0.0018981294 0.09747595 -0.19480486 -0.057644416 0.22772744 0.18041202 0.24449709 -0.09573466 0.1265718 0.067770205 -0.12484517 0.11326737 -0.15295796 -0.094230555 -0.11704617 -0.061624017 0.095997065 -0.19088927 -0.020082941 0.025806863 0.11143208 -0.05478765 0.20784661 -0.045222394 -0.09985129 0.07970696 -0.12110073 -0.089628845 -0.072452314 0.029778274 -0.08967304 0.10063609 0.0019167956 0.08654383 -0.010166553 0.13502775 -0.024540456 0.12539768 0.17858881 -0.10533943 0.07765905 -0.19706464 -0.021370541 0.07428684 0.048903275 -0.081734635 -0.15811099 -0.087770864
