7 64
902 -0.029205296 -0.018442584 0.14740618 0.23862661 -0.20328121 -0.19963492 0.15549316 0.2582639 -0.119742915 -0.08706404 0.2558232 0.002426707 -0.016135693 0.11279269 -0.13619553 -0.07500333 0.023125118 0.07631279 -0.19638711 -0.11842854 0.20096852 0.17263828 0.22268602 -0.051051546 0.12201444 0.017962085 -0.088638045 0.14063689 -0.16681086 -0.0919045 -0.13509056 -0.03786458 0.13441795 -0.19037019 -0.031700753 0.0012054854 0.14104514 -0.10833431 0.14191896 -0.03886635 -0.13802457 0.08580507 -0.15230386 -0.07774293 -0.06780282 0.0049224235 -0.12508385 0.14025578 0.05036081 0.15246621 -0.07278621 0.13399903 -0.046219394 0.09367357 0.18966852 -0.10268777 0.11034761 -0.21607621 -0.039410327 0.13411167 0.050380692 -0.048456408 -0.14366005 -0.116049975
9 -0.03320177 -0.039190847 0.17763327 0.19097589 -0.13511764 -0.21523362 0.12625486 0.24828818 -0.06765163 0.006150885 0.28018638 0.06808676 0.06949844 0.0511624 -0.14719267 -0.032850698 -0.026015861 0.13175596 -0.16381907 -0.009000529 0.23514988 0.18956664 0.258159 -0.13971151 0.10359928 0.10290473 -0.15439045 0.12517293 -0.10752278 -0.06746846 -0.10317578 -0.05334357 0.0342639 -0.15549462 -0.02385759 0.024512831 0.10366557 -0.024253534 0.27714846 -0.02845928 -0.03133542 0.085706815 -0.08846525 -0.10891115 -0.08211188 0.069444634 -0.053416256 0.038918488 -0.04188864 0.020952392 0.06328844 0.1161261 -0.031163521 0.143293 0.18075794 -0.10751078 0.07153001 -0.2038939 -0.0050752605 0.006559892 0.08799486 -0.12365216 -0.15724792 -0.052935038
6 -0.033187903 -0.03210237 0.1973657 0.18367521 -0.13699256 -0.22417654 0.124781765 0.2441106 -0.05422203 0.020840205 0.2879482 0.07753714 0.07364504 0.03854236 -0.15636252 -0.024265615 -0.028736917 0.13726822 -0.16292492 -0.01637089 0.24050026 0.19070964 0.26438716 -0.14822453 0.106708124 0.104975946 -0.15455683 0.13557778 -0.09994221 -0.05726328 -0.11047699 -0.04607602 0.024744783 -0.14556755 -0.030801168 0.009493048 0.11423781 -0.017289313 0.28309056 -0.04250629 -0.029128263 0.101477295 -0.093182854 -0.12378863 -0.06979025 0.08000478 -0.052679766 0.04014363 -0.0481583 0.006904341 0.06989339 0.09998485 -0.05218545 0.14601791 0.186359 -0.11719537 0.06796305 -0.19826375 -0.01771548 0.003968037 0.08223461 -0.13003378 -0.14622563 -0.05907379
7 -0.028311761 -0.045703463 0.18373133 0.19613905 -0.13715516 -0.22028898 0.10779272 0.24385555 -0.06467679 0.0070762644 0.26718906 0.05832717 0.067495406 0.056189742 -0.14996605 -0.026836684 -0.03271749 0.12933569 -0.17826647 -0.03167709 0.24429359 0.18796942 0.2596806 -0.13434759 0.11240692 0.10654607 -0.15625353 0.123414785 -0.12534665 -0.06973434 -0.11796433 -0.06219482 0.050315503 -0.15418993 -0.014682842 0.015036965 0.105632 -0.028805427 0.26530993 -0.04365557 -0.057443663 0.09147635 -0.10519211 -0.10959501 -0.0747208 0.068878695 -0.054313924 0.057216264 -0.037419688 0.021098431 0.05157234 0.107868746 -0.0416676 0.14230807 0.18014234 -0.11200197 0.06459874 -0.19686487 -0.024654692 0.02774299 0.06698545 -0.12647411 -0.15135956 -0.07091077
8 -0.03475926 -0.046521135 0.16710658 0.17853253 -0.12374566 -0.22733055 0.12983933 0.24357061 -0.07817839 0.027334163 0.28810415 0.07673656 0.056739356 0.062756285 -0.14317848 -0.02234405 -0.02497502 0.13588107 -0.17038833 -0.0131453825 0.25104442 0.18780063 0.2427752 -0.1317547 0.10416471 0.08186012 -0.16716832 0.12514158 -0.107640184 -0.0737603 -0.12200519 -0.068044975 0.06174045 -0.1417487 -0.02664207 0.02507556 0.122954816 -0.038958296 0.27377397 -0.025831202 -0.032725543 0.08886887 -0.083838224 -0.122634314 -0.09063959 0.090428576 -0.05299334 0.040651932 -0.027616967 0.0153440945 0.05728367 0.11898912 -0.029459003 0.11666369 0.19530486 -0.09626053 0.075985946 -0.20733894 0.0007348959 0.013088202 0.092717275 -0.13470489 -0.16269471 -0.050274953
5 -0.02858678 -0.03789673 0.2004751 0.21199915 -0.16547672 -0.21420658 0.13233969 0.24540892 -0.067070864 -0.0032275552 0.27762967 0.04920713 0.03886335 0.04912761 -0.1389916 -0.020019608 -0.0037530633 0.108071595 -0.19159047 -0.022846308 0.23775758 0.19524473 0.25801128 -0.12353066 0.119541034 0.09065855 -0.13730332 0.12924725 -0.12783988 -0.069916055 -0.11173647 -0.05110903 0.035546314 -0.16604325 -0.035964247 0.005434222 0.12283351 -0.028260205 0.25751084 -0.04150632 -0.05768226 0.10378181 -0.08831287 -0.10814769 -0.067623965 0.05171784 -0.063814625 0.080905154 -0.025107509 0.014448482 0.050385017 0.09482226 -0.050950404 0.1475436 0.17790584 -0.115918726 0.066276416 -0.18794385 -0.039333288 0.047128342 0.0657396 -0.1023296 -0.13264477 -0.06533514
4 -0.03226845 -0.033496864 0.19782937 0.20299284 -0.15659308 -0.22374325 0.11394015 0.23247637 -0.06862508 -0.011811043 0.28366256 0.050572913 0.052064534 0.038902387 -0.1444241 -0.04093194 -0.02213015 0.11179576 -0.18343979 -0.04179034 0.22652358 0.18974532 0.2426911 -0.110375874 0.1005145 0.09074522 -0.13975747 0.1375693 -0.1304807 -0.05998262 -0.11986686 -0.050531596 0.04108702 -0.1411382 -0.021697126 -0.0049336306 0.119587526 -0.052934095 0.24716964 -0.022646997 -0.06169876 0.09698064 -0.09605101 -0.094667144 -0.079862475 0.05448681 -0.054480363 0.07444207 -0.01714753 0.017786544 0.04900341 0.08570061 -0.055645753 0.13450694 0.17350203 -0.10546656 0.07519907 -0.19959341 -0.047046226 0.05922291 0.07803027 -0.11144981 -0.12533103 -0.06832692
