7 64
902 -0.011428928 -0.029435283 0.0809995 0.21417871 -0.17927594 -0.1580454 0.15842749 0.25360537 -0.12724435 -0.06377464 0.16637534 -0.016009215 -0.063832246 0.18683276 -0.1164667 -0.02929594 0.048826672 0.063365325 -0.18559568 -0.15014295 0.20705147 0.13216305 0.2012477 -0.039958168 0.16103175 -0.03131197 -0.06964329 0.099060275 -0.16355056 -0.12242119 -0.14677021 -0.05269665 0.21768504 -0.21583469 -0.038377877 0.02515361 0.14367682 -0.08678198 0.07440656 -0.11153531 -0.18174003 0.08295907 -0.18868797 -0.11216759 -0.023721911 0.012777551 -0.16606267 0.16437094 0.06653143 0.21378821 -0.1537661 0.17381275 -0.030409079 0.051636778 0.20441055 -0.10459659 0.09204588 -0.17380519 -0.0074700364 0.13088757 -0.02013453 -0.02437979 -0.16983919 -0.14900732
9 -0.022232305 -0.03417449 0.15320759 0.25010228 -0.19488707 -0.17132002 0.16562045 0.27898452 -0.09846131 -0.06788837 0.23620416 0.008363388 0.0055716494 0.10400187 -0.1237142 -0.042086508 0.031328604 0.08154612 -0.18785985 -0.034353226 0.20400694 0.1795292 0.25597495 -0.09995027 0.13499072 0.06640934 -0.095279485 0.104733735 -0.14225043 -0.09843105 -0.0823211 -0.038878843 0.06926562 -0.2272363 -0.037680227 0.03952672 0.097428516 -0.029040309 0.19798808 -0.050671294 -0.088662334 0.073412225 -0.11006165 -0.078851156 -0.056330197 -0.0038192524 -0.10660788 0.10363249 -0.004777666 0.108928114 -0.017875189 0.14751057 -0.0119762365 0.14661092 0.16331269 -0.11390163 0.074577466 -0.18254378 -0.006768064 0.059444424 0.04229613 -0.044049263 -0.15686779 -0.078873195
6 -0.022985434 -0.029187394 0.17843059 0.24061717 -0.19180126 -0.18059798 0.15832235 0.27218112 -0.07898669 -0.049007073 0.24737856 0.022065239 0.0207587 0.080485374 -0.13335724 -0.03294038 0.022504225 0.09065231 -0.18463396 -0.028585387 0.2091746 0.1836267 0.2658047 -0.116033934 0.1333938 0.08136609 -0.10074522 0.11379121 -0.13068455 -0.08405025 -0.08328748 -0.032054633 0.043240152 -0.21336955 -0.041724432 0.02573719 0.1006519 -0.014346365 0.2177848 -0.05838817 -0.07483787 0.087136716 -0.105544224 -0.09039879 -0.04740671 0.008381055 -0.095478155 0.094559535 -0.021011459 0.07863099 0.0063192635 0.12604906 -0.03097877 0.15827928 0.1632656 -0.12349972 0.066941716 -0.1761609 -0.019426765 0.046353944 0.04253286 -0.056654528 -0.14399222 -0.07692108
7 -0.017260917 -0.048471905 0.15862201 0.25201064 -0.18401963 -0.17588098 0.14448652 0.2830572 -0.08884918 -0.05342597 0.2240968 0.009360604 0.023680644 0.107276 -0.13098834 -0.029237384 0.014935002 0.09378168 -0.19678338 -0.03282262 0.22287302 0.18253058 0.27345046 -0.118038215 0.14543073 0.092124574 -0.11184854 0.09525801 -0.15079722 -0.10234554 -0.08671874 -0.05276114 0.069793336 -0.23246934 -0.024545042 0.04474333 0.08478152 -0.011119209 0.21647301 -0.06866388 -0.0958885 0.07427464 -0.11995698 -0.085513435 -0.05171659 0.005044741 -0.09808698 0.099636674 -0.023137694 0.095098734 -0.007238796 0.14960705 -0.010872673 0.16214947 0.16279642 -0.12289678 0.059853725 -0.17695285 -0.010217204 0.048599057 0.026340248 -0.061270602 -0.16661054 -0.08701068
4 -0.022296123 -0.043037415 0.15143973 0.2432101 -0.18939072 -0.17785636 0.17282191 0.27616552 -0.10301754 -0.04442283 0.24214602 0.015399103 -0.009170556 0.11054125 -0.11686226 -0.022375403 0.039207336 0.08196569 -0.19956651 -0.02511406 0.22467095 0.18508399 0.25280407 -0.10105712 0.14338268 0.054155424 -0.10780602 0.103262894 -0.14333923 -0.10616141 -0.09493071 -0.052520476 0.08189857 -0.22501075 -0.04645012 0.04136419 0.1163519 -0.02970722 0.20933242 -0.053987823 -0.08621869 0.08256216 -0.09876854 -0.096226275 -0.06068341 0.013371893 -0.106133476 0.109364085 0.001253898 0.09165804 -0.012777379 0.14842744 -0.011798125 0.1368678 0.1783925 -0.111337535 0.073632695 -0.18295857 -0.005066931 0.061993994 0.04412338 -0.053418726 -0.16224605 -0.073667884
5 -0.018533807 -0.0403597 0.17912681 0.2550037 -0.20055728 -0.1678398 0.15806033 0.26900682 -0.08147678 -0.054020356 0.23466152 0.0064636157 0.0043601296 0.08065963 -0.11469875 -0.019889144 0.036937628 0.072220854 -0.20144908 -0.008334575 0.20846336 0.18688555 0.26175448 -0.108625375 0.13983424 0.08387443 -0.09554476 0.09840232 -0.14269765 -0.092348 -0.073041916 -0.04073759 0.03371576 -0.22573689 -0.043167025 0.0313517 0.09532313 -0.005490881 0.2173029 -0.05366099 -0.07832521 0.08405513 -0.08522258 -0.0784829 -0.048683587 -0.007453269 -0.090546 0.10930637 -0.018337118 0.06126278 0.014132925 0.12079798 -0.020376718 0.16786751 0.14944302 -0.120020024 0.055805244 -0.16090733 -0.027559502 0.057681706 0.033715136 -0.043282155 -0.13583913 -0.06725693
8 -0.023725655 -0.03806134 0.17083615 0.24874514 -0.19552681 -0.19070888 0.15121618 0.2674592 -0.09653295 -0.058026213 0.2502488 0.0107092885 0.0055943476 0.091493964 -0.12671843 -0.03993204 0.022198875 0.08183849 -0.2029682 -0.047451932 0.21674925 0.18652862 0.251098 -0.09249309 0.13205375 0.066790506 -0.106396325 0.11554571 -0.15502943 -0.09326987 -0.102808334 -0.048288558 0.073865466 -0.20785394 -0.03330624 0.02162239 0.11306473 -0.046572108 0.2046769 -0.04469601 -0.09899842 0.0852335 -0.11070397 -0.08185685 -0.06441715 0.007532329 -0.09696231 0.11577509 0.003583637 0.085893646 -0.008591671 0.12764776 -0.028720196 0.14149913 0.16983639 -0.11243165 0.07627237 -0.18872775 -0.031519853 0.08312301 0.045647323 -0.058938093 -0.14455158 -0.08392152
