7 64
902 -0.017894674 -0.071705624 0.15339236 0.27854276 -0.2148203 -0.20157814 0.13462847 0.24286301 -0.14085302 -0.07025547 0.24927133 -0.03266837 -0.06447537 0.121081576 -0.08721621 -0.025468884 0.046347324 0.031975377 -0.27421302 -0.07271599 0.24121505 0.19643354 0.20474905 -0.022706496 0.14234503 0.023871329 -0.11431023 0.10359274 -0.22957996 -0.12704208 -0.14965838 -0.10269296 0.14339302 -0.20653628 -0.02293142 0.010188982 0.15490128 -0.11476812 0.17671843 -0.016007196 -0.16842844 0.091072485 -0.0975873 -0.06143929 -0.10329063 -0.004237583 -0.097648576 0.1988863 0.07186386 0.07024991 -0.035250362 0.11798311 -0.021578474 0.109300435 0.1806283 -0.08615539 0.08388672 -0.19838236 -0.08152922 0.1958429 0.034408253 -0.0488747 -0.12874904 -0.09258088
9 -0.029356081 -0.08197506 0.15910317 0.19401373 -0.10703013 -0.21421935 0.102845244 0.245115 -0.077636994 0.029559078 0.26756975 0.06459406 0.07618 0.060140006 -0.12421735 -0.00984271 -0.037574995 0.13594645 -0.19087833 0.038890533 0.26876974 0.20259403 0.25883192 -0.14895388 0.10759795 0.12853938 -0.19410221 0.092892535 -0.1280713 -0.09001021 -0.10108414 -0.09979155 0.038156066 -0.16100392 -0.003047837 0.055770542 0.08431178 -0.012551827 0.3139348 -0.007225887 -0.02064622 0.06533919 -0.052929293 -0.09813288 -0.11239569 0.08091673 -0.022603652 0.026101915 -0.05236191 -0.025464693 0.09995454 0.12844108 0.009335626 0.14943889 0.17059639 -0.08887333 0.053152114 -0.20027906 0.008789607 -0.0054287715 0.09476258 -0.14838102 -0.1784808 -0.025907258
6 -0.027633958 -0.0802529 0.16866937 0.17243472 -0.09638634 -0.21867646 0.09262404 0.2251474 -0.063588254 0.05715921 0.26172522 0.073658764 0.07126385 0.049443316 -0.123683915 0.00987356 -0.03953193 0.13733993 -0.19056197 0.03136695 0.27718684 0.19767928 0.25053954 -0.15015082 0.11026956 0.12038659 -0.1971068 0.0966293 -0.120536394 -0.08143073 -0.11525921 -0.10121964 0.039844275 -0.13972253 -0.009132703 0.039372265 0.099845156 -0.008330916 0.31294674 -0.021822402 -0.019730236 0.08147351 -0.051243395 -0.116993845 -0.10054495 0.100297906 -0.017178398 0.028858148 -0.05280133 -0.05021175 0.10556098 0.1070849 -0.010750282 0.13871388 0.1773609 -0.0917153 0.045917563 -0.1878484 -0.0048824605 -0.0037714771 0.08545098 -0.1595908 -0.16533709 -0.030075386
7 -0.0163784 -0.08987603 0.14967676 0.22724095 -0.14434783 -0.20159061 0.08733498 0.22769912 -0.100353494 -0.008643628 0.22769976 0.00781474 0.01030361 0.09387563 -0.10086924 -0.0032513526 -0.00820074 0.08300353 -0.23872538 -0.025624571 0.2616958 0.19077009 0.22639589 -0.08473547 0.13034154 0.08655805 -0.16076434 0.08308698 -0.18907046 -0.11029818 -0.13238227 -0.1159122 0.101600684 -0.17549635 0.0023751333 0.031451304 0.1098399 -0.057073306 0.24113287 -0.02617752 -0.11168336 0.077114195 -0.08361787 -0.079917625 -0.10235084 0.04352538 -0.05117744 0.11841412 0.004786875 0.009832519 0.031650882 0.11727598 -0.006572759 0.13011596 0.1699842 -0.08834913 0.053520657 -0.18643634 -0.047649354 0.10170115 0.042783447 -0.109473705 -0.15329833 -0.06975389
5 -0.027603175 -0.08957589 0.14104536 0.18591134 -0.105815746 -0.21335903 0.11056616 0.23087603 -0.093772635 0.04260843 0.25945893 0.057595465 0.035423633 0.07965309 -0.10519968 0.008456292 -0.017754918 0.118619256 -0.20624354 0.028077908 0.279505 0.19777018 0.23167782 -0.122758545 0.1153085 0.088331565 -0.19245054 0.087983586 -0.13859697 -0.10271895 -0.12261636 -0.11567764 0.0775922 -0.1541098 -0.013081961 0.05189361 0.11353663 -0.03457398 0.28894097 -0.008630654 -0.039057016 0.072822824 -0.046076182 -0.10890703 -0.115639925 0.08968439 -0.03214371 0.053153526 -0.020764243 -0.024498578 0.076582134 0.12715316 0.008876253 0.11577311 0.18442373 -0.07634611 0.057501454 -0.19508153 0.0034750127 0.02661059 0.08700692 -0.14140436 -0.17432079 -0.028284468
8 -0.024104133 -0.09116467 0.17943993 0.20642179 -0.122902565 -0.20895714 0.106951796 0.23760632 -0.07212047 0.040116925 0.26301858 0.05337583 0.04970067 0.051728882 -0.106546946 0.019441487 -0.015459224 0.11473696 -0.21837568 0.057870388 0.27895403 0.2111789 0.25838795 -0.14435168 0.12257178 0.12616646 -0.18895684 0.08486506 -0.13990629 -0.09451561 -0.100390196 -0.10736441 0.023159055 -0.16929401 -0.016317626 0.04754728 0.098212846 0.0006852868 0.32207257 -0.014525185 -0.026453162 0.08141892 -0.029234638 -0.10223206 -0.1053112 0.07341915 -0.018985178 0.05435569 -0.048744127 -0.06292255 0.11474812 0.10774516 0.0015651279 0.16228448 0.1662673 -0.094310336 0.038502812 -0.17961808 -0.01603683 0.015142355 0.08076098 -0.13967475 -0.16155131 -0.020281825
4 -0.029579025 -0.0872968 0.17004529 0.198216 -0.112401724 -0.22309619 0.090732895 0.23002744 -0.08042151 0.028899256 0.2733448 0.056839418 0.06536824 0.04905386 -0.11582726 -0.008487491 -0.037546247 0.12367374 -0.20789638 0.03244349 0.27130714 0.20667471 0.24441354 -0.13078804 0.102626994 0.12339039 -0.19598849 0.096184716 -0.14446035 -0.0879227 -0.11347904 -0.10918255 0.040568784 -0.14585108 0.0006537962 0.041038424 0.09618595 -0.032122515 0.31112984 0.006779311 -0.032948446 0.071404934 -0.04430966 -0.089791484 -0.122946665 0.07970924 -0.01332683 0.04503316 -0.037445016 -0.046932466 0.10630886 0.10841659 0.00047861433 0.14362909 0.16801952 -0.08183084 0.053812597 -0.20091717 -0.016667653 0.026502289 0.09719625 -0.15096417 -0.16143605 -0.025538975
