7 64
902 -0.0064475723 -0.046593193 0.1310707 0.22306584 -0.16793069 -0.1851139 0.09379083 0.24592811 -0.09228861 -0.048278432 0.16717029 -0.012427869 -0.003489021 0.148212 -0.14174102 -0.026051005 -0.0037988857 0.0868605 -0.20336899 -0.15596156 0.22878794 0.14517367 0.23430985 -0.07051516 0.15890926 0.043033443 -0.10044016 0.10088141 -0.1843282 -0.10425015 -0.15535764 -0.06723648 0.17929985 -0.19677255 -0.0019495768 0.005962124 0.11420049 -0.065498866 0.12140544 -0.12274891 -0.19101056 0.09099408 -0.20433809 -0.1045635 -0.022447417 0.02307582 -0.12695178 0.15437415 0.024956226 0.15536118 -0.103025034 0.13836592 -0.053317823 0.09856446 0.1873028 -0.12396276 0.06518466 -0.16968407 -0.051029097 0.12620476 -0.03598981 -0.0675097 -0.15823518 -0.16498563
7 -0.014364807 -0.030948652 0.15487699 0.21319191 -0.14096832 -0.17469466 0.07998196 0.2676461 -0.049008578 -0.054701112 0.19117868 0.024497086 0.10405228 0.086712845 -0.1731651 -0.06004392 -0.05221716 0.13391453 -0.14166844 -0.08015274 0.19498938 0.15212478 0.2847796 -0.14539604 0.1217723 0.1413205 -0.11307619 0.10021741 -0.12778701 -0.069087125 -0.08337056 -0.030881846 0.058328174 -0.19765021 0.016579114 0.031783197 0.034214467 0.004783701 0.20357169 -0.096455224 -0.099099696 0.060622964 -0.18015294 -0.07952508 -0.02639098 0.016988805 -0.08359422 0.05101412 -0.06500417 0.1205014 -0.012315722 0.14062825 -0.031131752 0.17060974 0.14293253 -0.13620828 0.04909124 -0.17280585 -0.00877451 0.0057050837 0.006381894 -0.08931442 -0.16534318 -0.11894718
6 -0.015762448 -0.020191828 0.16285816 0.203729 -0.15063187 -0.18989745 0.09399092 0.26164848 -0.052059487 -0.040395945 0.20104137 0.030635636 0.07822389 0.09564814 -0.17965801 -0.050674383 -0.04014497 0.13169225 -0.14794196 -0.115515366 0.20657402 0.14987488 0.27609533 -0.13289 0.13188253 0.10557334 -0.10764722 0.11860819 -0.12606026 -0.06638538 -0.111557536 -0.025925662 0.08798723 -0.18473668 -0.00055233843 0.01011158 0.072573304 -0.014552514 0.1818082 -0.11529033 -0.116428316 0.08420641 -0.19646625 -0.10598805 -0.0137771685 0.033481788 -0.101864256 0.07369814 -0.042444173 0.13158819 -0.039209582 0.13118924 -0.05920078 0.14475001 0.16921696 -0.14166406 0.06005065 -0.17591736 -0.022659052 0.030858792 -0.0017180394 -0.08930819 -0.15668324 -0.13721478
9 -0.012197758 -0.042555664 0.16138577 0.20850192 -0.12480383 -0.18790601 0.056432355 0.26596805 -0.038692534 -0.035727963 0.18538904 0.032663763 0.12845056 0.08534732 -0.1842494 -0.0526777 -0.0760482 0.15161982 -0.14301346 -0.08338145 0.21234559 0.15296823 0.29639295 -0.16229701 0.1241475 0.16427913 -0.1334272 0.09570929 -0.12902626 -0.066798896 -0.090776645 -0.04298849 0.05879281 -0.18820815 0.03196728 0.03333818 0.022938125 0.015692571 0.22191674 -0.107027665 -0.099261835 0.060117394 -0.18931796 -0.086692005 -0.026111683 0.034059312 -0.06998344 0.037115086 -0.08258955 0.10367316 0.0018285797 0.13885117 -0.032566734 0.17717798 0.14344718 -0.1400247 0.03837822 -0.17155248 -0.009838265 -0.009362216 -0.0006151514 -0.11384533 -0.1734641 -0.12462205
5 -0.01594944 -0.04141003 0.15032597 0.20358932 -0.13307936 -0.19294237 0.083214566 0.26199538 -0.06031874 -0.028558046 0.20241314 0.03297208 0.08632594 0.09998385 -0.17027387 -0.0443215 -0.049657512 0.13749512 -0.15798071 -0.08900586 0.22362594 0.15786271 0.27582297 -0.1384115 0.12930723 0.11935335 -0.13212924 0.1047474 -0.13488665 -0.07786193 -0.111139074 -0.050608996 0.09041819 -0.18545823 0.011707786 0.028549433 0.062993556 -0.013249836 0.20899555 -0.09742838 -0.10656391 0.07178001 -0.17797695 -0.10044457 -0.0369532 0.043180056 -0.08462746 0.06139225 -0.04840814 0.10904861 -0.016403208 0.14230478 -0.03534804 0.14726622 0.16743669 -0.12980643 0.05519164 -0.18260261 -0.010584274 0.020958738 0.011077451 -0.10725985 -0.17411709 -0.12158644
8 -0.012410428 -0.033607643 0.1789152 0.21539605 -0.14464024 -0.18024233 0.07984092 0.26873732 -0.03377881 -0.035483632 0.19645071 0.031975072 0.109365724 0.074238606 -0.1773472 -0.04090019 -0.05142949 0.13841304 -0.1496111 -0.066238165 0.20838182 0.16000573 0.30095583 -0.16360514 0.1314921 0.15595339 -0.11891139 0.10086586 -0.121788055 -0.06389317 -0.080731384 -0.029906992 0.03479788 -0.19891845 0.009496457 0.02640227 0.036095854 0.028701138 0.22590604 -0.11018112 -0.08817697 0.07365365 -0.17063266 -0.092383504 -0.015308615 0.024321102 -0.07590154 0.048646666 -0.082097 0.089445755 0.010567341 0.12649134 -0.042242024 0.1880365 0.14225015 -0.14769916 0.036039636 -0.16040933 -0.01798901 -0.008004422 -0.0009349289 -0.096411414 -0.15829328 -0.115915716
4 -0.014146075 -0.03949105 0.16245702 0.21420741 -0.14214689 -0.19289656 0.06415761 0.2536224 -0.05517942 -0.04762914 0.1959646 0.01926102 0.0921704 0.08700009 -0.17087242 -0.056296434 -0.057558153 0.12835714 -0.16325615 -0.103608094 0.21038091 0.15593456 0.2719425 -0.12693486 0.12263086 0.13050088 -0.1230987 0.1063166 -0.14842194 -0.07022494 -0.10997976 -0.046943337 0.08117291 -0.17892459 0.023414142 0.015521568 0.053103674 -0.021887805 0.19660823 -0.09167249 -0.122011185 0.070018165 -0.18508536 -0.08088999 -0.036049064 0.02680156 -0.07850059 0.07298499 -0.045739178 0.106964506 -0.017088339 0.12543742 -0.04412717 0.15538113 0.15175453 -0.13045244 0.0522732 -0.17869297 -0.03415602 0.042594194 0.0036724652 -0.101284415 -0.15666558 -0.13008477
