7 64
902 -0.032546103 -0.02919034 0.10072847 0.18666224 -0.14486402 -0.1881204 0.19742991 0.27681303 -0.1176576 -0.009020308 0.26395884 0.05911009 -0.0020776305 0.13935058 -0.13526282 -0.03146661 0.029519726 0.12269578 -0.16112606 -0.036267933 0.23326145 0.17010249 0.235112 -0.109662496 0.12989573 0.013004218 -0.12729698 0.116646826 -0.10075333 -0.10708141 -0.11356141 -0.050503336 0.12918146 -0.19868192 -0.05655993 0.057337143 0.13880965 -0.048932444 0.20703241 -0.05157397 -0.05524559 0.07626736 -0.11073593 -0.1344667 -0.071764894 0.06563269 -0.11977889 0.06320456 0.009178406 0.12941279 -0.03451066 0.18639821 -0.0014960956 0.08326816 0.21270172 -0.09261025 0.098232925 -0.20594689 0.052564874 0.01833494 0.07378228 -0.07780423 -0.19547957 -0.06673347
7 -0.03877427 -0.015988437 0.14506136 0.20270678 -0.15487231 -0.17646778 0.1894527 0.27736443 -0.08630971 -0.035271395 0.28242755 0.06435253 0.051915716 0.0673637 -0.13328542 -0.05639879 0.013509559 0.118349545 -0.12803097 0.028663512 0.19167283 0.1824163 0.25742257 -0.13942699 0.09681969 0.07974047 -0.117033094 0.11844507 -0.0733707 -0.07478251 -0.051724583 -0.017763186 0.0123414 -0.19643652 -0.050697975 0.058506016 0.086883 -0.00833369 0.25723654 -0.009467883 0.0067387167 0.059966404 -0.06693481 -0.09141931 -0.07893632 0.032506753 -0.080349304 0.01598756 -0.040762473 0.07787818 0.0440295 0.15627271 0.005633001 0.14530611 0.17015702 -0.10189848 0.089279145 -0.20783399 0.051750153 -0.032584164 0.11259864 -0.074808545 -0.17551121 -0.025368044
9 -0.03421966 -0.011880605 0.1539269 0.18404321 -0.15208137 -0.18771392 0.18234523 0.2648748 -0.075803444 -0.0058189533 0.27328125 0.07033408 0.035307817 0.077773586 -0.14494742 -0.03206882 0.015174812 0.12324407 -0.13837627 -0.012736271 0.21343148 0.17614624 0.25701007 -0.13819745 0.11644117 0.057862744 -0.11786486 0.12989815 -0.07618214 -0.072609745 -0.08675893 -0.020114629 0.046385672 -0.1841251 -0.060623843 0.034563888 0.119578615 -0.012225585 0.23908156 -0.051972955 -0.021111045 0.089131854 -0.09537192 -0.12795374 -0.053269383 0.05716297 -0.09562385 0.040639862 -0.030263133 0.07995587 0.01799022 0.14233065 -0.029437536 0.12619804 0.19173293 -0.11409865 0.08427248 -0.19394067 0.029194137 -0.012221757 0.080697976 -0.082573555 -0.16469367 -0.055571
6 -0.032048855 -0.03028173 0.148941 0.19947964 -0.14717115 -0.1862076 0.1698913 0.27379358 -0.081038415 -0.01151363 0.26600093 0.06238333 0.048229974 0.081250034 -0.13828292 -0.03257112 0.005505139 0.123949565 -0.14674439 0.00766404 0.2192425 0.18139982 0.26344088 -0.14367247 0.11593621 0.08190349 -0.13077055 0.11282516 -0.089590386 -0.08214847 -0.07680574 -0.036979962 0.04028156 -0.1951299 -0.043951143 0.05201097 0.09676708 -0.004180257 0.25658014 -0.04069111 -0.0204638 0.07341607 -0.08629885 -0.11146297 -0.06744027 0.049638655 -0.081914276 0.03383742 -0.040830072 0.068732195 0.033986088 0.1521846 -0.0067575937 0.14150299 0.18118484 -0.11013194 0.076268785 -0.19700566 0.035499543 -0.01888864 0.083072364 -0.08991602 -0.17809147 -0.046710227
8 -0.03944252 -0.022254711 0.13171332 0.18262579 -0.14404494 -0.18877918 0.1994335 0.26729748 -0.09825274 -0.0025555387 0.28846836 0.074641265 0.022056943 0.0872539 -0.12792549 -0.033790432 0.024569621 0.1199621 -0.14093421 0.01535443 0.21815759 0.18161613 0.24007355 -0.12795866 0.1072858 0.041955244 -0.13002327 0.1226886 -0.07538886 -0.08507974 -0.084091954 -0.03539703 0.056174956 -0.18311587 -0.06356106 0.053371646 0.12578543 -0.027441526 0.2502925 -0.019228408 -0.0033826656 0.0757215 -0.06657613 -0.12184254 -0.082159355 0.063080065 -0.08962234 0.031494033 -0.017038677 0.0738082 0.027530374 0.15933935 -0.0022781477 0.11043466 0.1992379 -0.09428747 0.0958531 -0.21071959 0.052338 -0.014852003 0.11054147 -0.08660009 -0.18118927 -0.03034172
5 -0.031885367 -0.02596296 0.16969086 0.21762057 -0.17335667 -0.17896262 0.19381453 0.27905524 -0.07942425 -0.017773204 0.2755812 0.05555563 0.026787797 0.0700023 -0.12627809 -0.021514636 0.032363523 0.10493279 -0.15874319 0.030438825 0.21667635 0.1929634 0.27083358 -0.14350091 0.12472199 0.07774681 -0.11699759 0.11533665 -0.089450486 -0.08305419 -0.06367913 -0.027267324 0.013564618 -0.21226633 -0.064786606 0.048252925 0.107197344 0.008093588 0.26372257 -0.038709752 -0.011879009 0.0843539 -0.06335435 -0.11061536 -0.06122789 0.033092514 -0.0865919 0.05000683 -0.039160576 0.052658062 0.045465093 0.14139774 -0.011275822 0.15778567 0.17833978 -0.11765607 0.07404577 -0.18861896 0.025674611 -0.012309024 0.084605575 -0.070058905 -0.16484465 -0.03540724
4 -0.041013155 -0.018152924 0.16307247 0.1999305 -0.15808083 -0.1961342 0.1822213 0.26499856 -0.086396225 -0.022640575 0.30032474 0.068023175 0.0439097 0.05553697 -0.13387044 -0.051079456 0.010861739 0.11578576 -0.14319284 0.016933395 0.20526464 0.19008873 0.24941456 -0.12931173 0.094997115 0.071882606 -0.12629572 0.13134548 -0.0840545 -0.07010049 -0.073969804 -0.026099335 0.01853169 -0.17636871 -0.05248037 0.038867116 0.11025039 -0.027926737 0.26224425 -0.0030466125 -0.0018967644 0.07531825 -0.06348544 -0.0983285 -0.08657039 0.045549437 -0.07341281 0.031473126 -0.027984707 0.05387737 0.0519725 0.13567811 -0.013271907 0.13650368 0.1817734 -0.10044469 0.09372673 -0.21519564 0.027192634 -0.006223239 0.11852449 -0.08785812 -0.1627291 -0.028925
