7 64
902 -0.01933054 -0.0033399889 0.20408139 0.22679053 -0.22240317 -0.19416043 0.16846216 0.24304757 -0.07352148 -0.036189724 0.24363013 0.013297152 -0.04165782 0.084971555 -0.13638952 -0.010991809 0.05298951 0.06358559 -0.20339346 -0.11090318 0.21202838 0.17015661 0.23736538 -0.07449626 0.15410176 0.011843249 -0.06699681 0.14577216 -0.14138068 -0.07282642 -0.13673225 -0.0156346 0.09367904 -0.18718636 -0.073330164 -0.034992553 0.17240989 -0.052017044 0.14722344 -0.10479665 -0.13213338 0.13934064 -0.14166746 -0.12779418 -0.0060687866 0.018002111 -0.1321025 0.16629127 0.030593932 0.09605354 -0.056630585 0.081596695 -0.101382636 0.11193794 0.19413702 -0.13711798 0.07702944 -0.15801011 -0.07838287 0.12519187 0.001222746 -0.035446737 -0.09840065 -0.12562793
4 -0.029183935 -7.6659664e-05 0.21629946 0.21450107 -0.20088992 -0.20038012 0.16748147 0.24800336 -0.058508642 -0.026112933 0.27846685 0.043914706 0.011621112 0.044600826 -0.14529145 -0.027495721 0.027712964 0.09005872 -0.17363477 -0.052529875 0.20271516 0.18155518 0.25283128 -0.11026165 0.12429998 0.056299224 -0.08823944 0.14908497 -0.10710522 -0.054263495 -0.10305407 -0.005869706 0.026560742 -0.17238618 -0.0669347 -0.019345414 0.1417685 -0.026995461 0.20897059 -0.065599695 -0.064756736 0.1224367 -0.10494202 -0.1159572 -0.029217293 0.029032828 -0.09690441 0.10212437 -0.010840449 0.053738773 0.011744434 0.08008027 -0.08324589 0.14036031 0.1782414 -0.13139868 0.075930245 -0.17222326 -0.050771404 0.06012388 0.04931813 -0.060211357 -0.10503419 -0.08305781
9 -0.030672606 0.009281278 0.2415641 0.19274624 -0.19085738 -0.21133032 0.15605485 0.23245619 -0.034000233 0.00066343055 0.2897245 0.06369377 0.029407527 0.015631543 -0.15757725 -0.01738449 0.014948184 0.10225841 -0.16345829 -0.05211449 0.2062012 0.18177852 0.25755847 -0.12636924 0.11869521 0.0675052 -0.09395924 0.16234857 -0.08840505 -0.03374677 -0.10817257 0.004078083 0.00048609113 -0.14668898 -0.07218864 -0.039585788 0.14933361 -0.014219881 0.22641726 -0.075072676 -0.047551557 0.13986915 -0.1020542 -0.13287692 -0.017415255 0.04910942 -0.08382878 0.08871205 -0.0271379 0.019455854 0.036852315 0.0516537 -0.109602705 0.14505078 0.18025035 -0.14019568 0.06897835 -0.16460277 -0.06508124 0.04432506 0.05072597 -0.07739939 -0.08731148 -0.08194695
8 -0.032020785 -0.006450704 0.24954593 0.18430182 -0.16161752 -0.22254595 0.12119908 0.22937742 -0.018880473 0.017721206 0.29592016 0.07891031 0.08028998 -0.007308925 -0.1680346 -0.02076151 -0.02379858 0.12798971 -0.15801835 -0.024135107 0.2184642 0.19046548 0.2743584 -0.15526104 0.10449045 0.118618555 -0.12684089 0.15541565 -0.08510958 -0.025840953 -0.099589646 -0.010504036 -0.031118326 -0.1321617 -0.046465527 -0.029220602 0.11842967 0.0037112324 0.27635765 -0.058996525 -0.022046652 0.12709783 -0.0911301 -0.12413516 -0.035789777 0.06511934 -0.048360374 0.0498158 -0.062386952 -0.022197418 0.08741483 0.047965635 -0.097411826 0.16995339 0.16768487 -0.13837162 0.05621507 -0.1719465 -0.059434652 0.008327853 0.06702452 -0.11397357 -0.09704367 -0.06581341
5 -0.03518048 -0.006406736 0.22568877 0.18346955 -0.16908745 -0.21808101 0.15671034 0.23275474 -0.044986315 0.018368112 0.3039964 0.07691687 0.037815347 0.017536655 -0.15059343 -0.014562872 0.007360179 0.11381721 -0.16559924 -0.019845732 0.22392881 0.19205265 0.25553054 -0.13458322 0.110812664 0.07330882 -0.121718094 0.15601327 -0.0857984 -0.04272761 -0.108232796 -0.016374901 0.0013111746 -0.14186555 -0.06734849 -0.020060956 0.14835657 -0.017408693 0.26069885 -0.04914501 -0.023522554 0.1288325 -0.07752782 -0.13412957 -0.04628404 0.06779685 -0.067657396 0.06635973 -0.0314901 -0.0027684215 0.06383127 0.06669367 -0.085638896 0.14130695 0.18801203 -0.12609488 0.07286937 -0.18151434 -0.04292132 0.025527453 0.07911665 -0.09950011 -0.10795756 -0.05765184
7 -0.028400004 -0.0063630454 0.24385536 0.21121883 -0.19606444 -0.20577621 0.15547717 0.23895009 -0.03852694 -0.0033581562 0.28761587 0.053892136 0.026808256 0.0156596 -0.14567767 -0.009593673 0.020855576 0.0947246 -0.18183143 -0.023422796 0.2142759 0.19308984 0.2655179 -0.12991495 0.12407788 0.083322786 -0.10107117 0.14877069 -0.10171909 -0.04437304 -0.0968002 -0.009159524 -0.013355868 -0.16366787 -0.068743646 -0.02632454 0.1386497 -0.003278685 0.24596512 -0.06425542 -0.043744754 0.13298714 -0.08144224 -0.120861195 -0.028302914 0.037919406 -0.07431376 0.09272737 -0.03307199 -0.0005139554 0.05620898 0.055472836 -0.092100166 0.16368936 0.16997445 -0.13796288 0.05995774 -0.16083606 -0.06550663 0.044416334 0.052284513 -0.07483629 -0.090824604 -0.06801468
6 -0.03268241 -0.00015388012 0.24508049 0.20579197 -0.1943439 -0.21990333 0.14754832 0.23225464 -0.04330674 -0.009872491 0.30057594 0.056884084 0.032048706 0.010166431 -0.1516778 -0.027192319 0.008818856 0.097693674 -0.17632057 -0.046305947 0.20832208 0.189848 0.25265476 -0.1165562 0.11057148 0.07544469 -0.10266013 0.16111448 -0.10478732 -0.036974944 -0.10997981 -0.0077128857 -0.0010428815 -0.14296173 -0.061077375 -0.038200967 0.14520547 -0.02986284 0.23482071 -0.05102305 -0.05094414 0.13210167 -0.09217409 -0.11530723 -0.038020216 0.04329359 -0.0721381 0.09257937 -0.020759936 0.007854345 0.048548173 0.049138352 -0.100789025 0.14791746 0.17389762 -0.13059726 0.072019644 -0.17477934 -0.0732539 0.060341015 0.063395225 -0.08233472 -0.08577288 -0.07449917
