7 64
902 -0.017216666 -0.022547284 0.20712976 0.26717904 -0.24356276 -0.17478707 0.1836259 0.2598976 -0.085044645 -0.059971787 0.24399856 -0.008163288 -0.052698288 0.08172729 -0.10918895 -0.0061640698 0.075611554 0.0411803 -0.22795407 -0.050199926 0.20845895 0.1884946 0.24783814 -0.07572303 0.15850593 0.034257397 -0.06461176 0.12288467 -0.16063136 -0.092031695 -0.102663614 -0.027344145 0.055869095 -0.23110184 -0.07664504 -0.007493698 0.15221824 -0.030403797 0.18058974 -0.07768927 -0.117470466 0.124566354 -0.0974838 -0.09900292 -0.025440436 -0.01700642 -0.12205683 0.17408596 0.021847129 0.071066625 -0.02349432 0.093003064 -0.06539177 0.15184915 0.17110652 -0.13379352 0.066295445 -0.15288998 -0.073286965 0.12311566 0.011697917 -0.014638477 -0.10271697 -0.0935805
9 -0.018145412 -0.030754725 0.20923404 0.24297349 -0.19805793 -0.16102105 0.17631027 0.2765418 -0.04868501 -0.019916715 0.24587855 0.033260986 0.023970956 0.052813217 -0.12344914 0.008496554 0.043458976 0.087544695 -0.18536627 0.03976823 0.21372263 0.19448353 0.29323906 -0.15588067 0.14849201 0.110495165 -0.09689181 0.09898805 -0.10156029 -0.076666005 -0.045230202 -0.019915055 -0.028879229 -0.23131844 -0.066317506 0.033608798 0.08813529 0.054839514 0.26041347 -0.07566345 -0.028136317 0.09921531 -0.059284285 -0.10407292 -0.022863459 0.0047831647 -0.0808265 0.0773846 -0.062434655 0.017707024 0.059992693 0.10693655 -0.030673254 0.20151855 0.1452859 -0.141124 0.035864573 -0.13784792 -0.015501547 -0.004558334 0.03315213 -0.047644172 -0.12884077 -0.045925405
6 -0.018079437 -0.024075268 0.22240631 0.23678571 -0.2040441 -0.1721478 0.16878897 0.26248226 -0.044721525 -0.014951949 0.24912721 0.032052167 0.012709521 0.046506856 -0.12717184 0.010922529 0.043358736 0.082092345 -0.19235107 0.009786541 0.21575707 0.19161926 0.28284702 -0.14183694 0.14940037 0.095142946 -0.09175627 0.112717375 -0.109293364 -0.06965773 -0.06711144 -0.017803617 -0.015212246 -0.21509753 -0.070139885 0.009523356 0.110305846 0.037055094 0.24452735 -0.08476927 -0.047635954 0.11646478 -0.072374806 -0.11311217 -0.015332388 0.011338077 -0.08527626 0.09825969 -0.04712642 0.014998579 0.047207493 0.08651687 -0.056714304 0.18785948 0.15411818 -0.14413603 0.039639145 -0.13665798 -0.04135572 0.02455782 0.024256583 -0.049317133 -0.11148674 -0.06218572
7 -0.011396992 -0.041221954 0.19799174 0.25270572 -0.20912816 -0.16536027 0.15654789 0.26031888 -0.06617706 -0.03209981 0.21973446 0.0031098414 -0.015379563 0.07981406 -0.112086244 0.012953165 0.050638907 0.063094474 -0.21667692 -0.01720649 0.2215103 0.1851048 0.26621687 -0.11186297 0.16138253 0.0766256 -0.08819273 0.0970945 -0.1461601 -0.09199024 -0.08483362 -0.041050218 0.035168238 -0.22986466 -0.057563823 0.015167487 0.11399836 0.012814276 0.2114468 -0.09032256 -0.09426992 0.10933244 -0.089490905 -0.10187628 -0.02099302 -0.002210036 -0.09800897 0.13531867 -0.01886657 0.042430896 0.008653393 0.10069147 -0.04495774 0.1717068 0.15588161 -0.13603456 0.040181573 -0.13580649 -0.05150336 0.07003235 0.0012606595 -0.03819053 -0.11929173 -0.081627555
5 -0.017528705 -0.03941128 0.20043342 0.23888703 -0.19738644 -0.16875137 0.17400298 0.2630785 -0.0626074 -0.010825718 0.244404 0.026648773 -0.0046776384 0.065198116 -0.11114981 0.018787324 0.05186648 0.07541873 -0.20359664 0.022849811 0.22660424 0.19351341 0.27092674 -0.131447 0.1524922 0.08198671 -0.10150046 0.099581644 -0.11934221 -0.08636809 -0.071204975 -0.03778365 0.007145067 -0.22131178 -0.068673275 0.025426479 0.1147423 0.027503554 0.24487165 -0.07285349 -0.05040827 0.10737944 -0.058750525 -0.11089802 -0.031744465 0.014423397 -0.08497557 0.103500955 -0.03412165 0.014775103 0.04327752 0.10246988 -0.03526407 0.17496692 0.15934238 -0.13085175 0.04180828 -0.141136 -0.028843366 0.03218484 0.029866857 -0.050212406 -0.12552728 -0.052399866
8 -0.012153286 -0.041024383 0.21816838 0.25184876 -0.20713653 -0.15661682 0.16398323 0.2620423 -0.04681802 -0.017762108 0.23009539 0.01600273 0.002023119 0.050698318 -0.108050674 0.026647083 0.053603243 0.06670861 -0.20829614 0.036424708 0.21746556 0.19389665 0.2815818 -0.13951753 0.1569935 0.10525052 -0.09114818 0.08966937 -0.12096789 -0.08058325 -0.05289693 -0.03128933 -0.024726512 -0.23002928 -0.06609084 0.022540525 0.095623635 0.052636843 0.24757728 -0.08126335 -0.049317643 0.10750287 -0.05119457 -0.09913464 -0.017594876 -0.00396277 -0.0768408 0.10693898 -0.050520595 -0.0036417278 0.058066394 0.08671691 -0.03814661 0.20061664 0.13674735 -0.13970166 0.023920985 -0.11896891 -0.043264218 0.027419094 0.012766458 -0.03894229 -0.10913612 -0.050441466
4 -0.017545568 -0.04925496 0.22662386 0.2495114 -0.18602684 -0.17491394 0.14438744 0.27312964 -0.039347492 -0.01057111 0.25275582 0.03587273 0.055107318 0.032864492 -0.12699392 0.00971383 0.016297188 0.09849184 -0.19826508 0.058229525 0.22850296 0.20643432 0.30494082 -0.16996233 0.14136705 0.1514664 -0.12285643 0.09239783 -0.11364347 -0.07256948 -0.04401125 -0.03820645 -0.051771514 -0.21915448 -0.043392513 0.035005823 0.06774036 0.06211324 0.2958326 -0.06034402 -0.020922177 0.09261652 -0.047683667 -0.09080876 -0.03972034 0.011192801 -0.049829554 0.063432194 -0.08248755 -0.025334647 0.10041019 0.09381023 -0.024948794 0.22272201 0.13135354 -0.13842098 0.022591343 -0.13969377 -0.02813772 -0.011664326 0.03988809 -0.073624395 -0.1267854 -0.03595643
