7 64
902 -0.034035046 0.014479681 0.21981768 0.25943878 -0.23859619 -0.2069898 0.16703469 0.270848 -0.0817192 -0.100212455 0.28843698 0.016659208 0.020085324 0.05586967 -0.16207312 -0.089652285 0.018684529 0.084783524 -0.17763889 -0.10370931 0.17612897 0.18530063 0.26001853 -0.0773258 0.10648292 0.05367757 -0.06205857 0.16015299 -0.13139857 -0.052541856 -0.098741665 0.010822645 0.046071872 -0.18004748 -0.044432085 -0.023882814 0.121504605 -0.07176566 0.16140476 -0.040982805 -0.10008867 0.09891505 -0.14241646 -0.070188195 -0.04138024 -0.012780901 -0.11185784 0.11475989 0.013647183 0.12407598 -0.033315245 0.09266422 -0.076052725 0.13241306 0.15849304 -0.12104006 0.09838419 -0.19245923 -0.05645868 0.09800155 0.054043498 -0.0330383 -0.10109494 -0.10371437
6 -0.034729905 -0.001955222 0.22247855 0.23391318 -0.19986182 -0.20993868 0.14664876 0.26129448 -0.060983963 -0.06014322 0.29515144 0.04166396 0.058447063 0.027847549 -0.16046704 -0.070299186 -0.004848792 0.104784 -0.16545804 -0.046622112 0.18849315 0.19039531 0.2672957 -0.11676277 0.099371865 0.09840658 -0.09843331 0.15178186 -0.115291804 -0.046629895 -0.085526824 -0.003926487 0.0006358742 -0.17057858 -0.03694251 -0.00983647 0.10328776 -0.036124386 0.23023328 -0.029623207 -0.05467573 0.096346766 -0.10937165 -0.07844773 -0.055665836 0.013003582 -0.07669191 0.074240506 -0.027959507 0.059378766 0.034921765 0.0874621 -0.06529362 0.16388716 0.15591906 -0.124592826 0.08192896 -0.19538979 -0.04538815 0.047661275 0.07545942 -0.07140881 -0.11243266 -0.074379325
9 -0.030412728 -0.0027188165 0.2365302 0.21136354 -0.18824142 -0.21179578 0.13133937 0.23715669 -0.040580563 -0.026430784 0.2850446 0.04952516 0.053218815 0.012667393 -0.15782218 -0.041374344 -0.00594704 0.10338104 -0.1688314 -0.04899274 0.19868162 0.18565473 0.26094016 -0.12262506 0.106663704 0.09723032 -0.10220595 0.15340334 -0.10911554 -0.037008982 -0.09861838 -0.0066125235 -0.006160045 -0.15090951 -0.04427757 -0.02898679 0.1185884 -0.023364598 0.23398091 -0.050618585 -0.055071805 0.11744942 -0.10468928 -0.099498466 -0.038670864 0.031533334 -0.06855839 0.08178755 -0.03305418 0.022478713 0.047180884 0.058854163 -0.089883015 0.16098855 0.16017915 -0.1320685 0.067886755 -0.17567913 -0.06716671 0.050160598 0.058635965 -0.082187824 -0.09335832 -0.07901691
7 -0.0246618 -0.03110502 0.2165663 0.21842119 -0.16749988 -0.21291982 0.09978043 0.24272753 -0.047410693 -0.024892585 0.2625287 0.039162 0.07125 0.03164099 -0.15600838 -0.038483396 -0.028593909 0.11224795 -0.18306273 -0.046263915 0.21750711 0.18675321 0.26823056 -0.13109861 0.11482497 0.12609763 -0.12917508 0.13433862 -0.13702103 -0.054989327 -0.10560733 -0.03808133 0.014661523 -0.16494991 -0.015603629 -0.008616517 0.09602247 -0.020752927 0.2528201 -0.052761227 -0.07407432 0.10193548 -0.116646856 -0.09047652 -0.054219134 0.034431133 -0.058375172 0.08116555 -0.043665163 0.02170205 0.05221437 0.080531344 -0.06782553 0.1755738 0.1597275 -0.13178757 0.058425132 -0.18538414 -0.063411094 0.05088959 0.049452182 -0.10393 -0.12049683 -0.08682477
4 -0.030188039 -0.029204736 0.21963105 0.202184 -0.162691 -0.22206612 0.12256418 0.23680772 -0.05062126 0.0018672076 0.28925535 0.057903256 0.055559326 0.023020139 -0.148443 -0.023313288 -0.014358201 0.11205737 -0.18306936 -0.022663528 0.22868279 0.19392648 0.25785393 -0.13289155 0.11270494 0.10615801 -0.13840707 0.14291605 -0.121494465 -0.05392775 -0.111586235 -0.040386483 0.008740092 -0.15283501 -0.03659899 -0.010955127 0.12363725 -0.023480656 0.27220756 -0.040679835 -0.048450556 0.114169896 -0.08799943 -0.1097065 -0.06333212 0.055358656 -0.054916453 0.07622139 -0.037195865 -0.0062546814 0.07144624 0.07433449 -0.07148889 0.1632812 0.17704092 -0.12608318 0.06543171 -0.19134785 -0.057123855 0.044112273 0.07197006 -0.11220952 -0.11890313 -0.06681048
5 -0.027352102 -0.01414007 0.22913674 0.236406 -0.20232655 -0.20431557 0.1350771 0.24816571 -0.055111926 -0.046385076 0.27551886 0.029736944 0.038717464 0.028925845 -0.14670779 -0.04288665 0.0049865786 0.090028025 -0.18778719 -0.04527696 0.200627 0.19064711 0.26291728 -0.11200614 0.115485445 0.09724799 -0.09876594 0.14193694 -0.1311963 -0.052782957 -0.094566464 -0.017204482 0.004897224 -0.17419408 -0.039762832 -0.017449014 0.11245619 -0.027754823 0.22750878 -0.045909323 -0.072278485 0.10867891 -0.1029675 -0.08457213 -0.045765925 0.011978806 -0.07451297 0.100418895 -0.023770817 0.034753684 0.036563117 0.0719239 -0.07380034 0.16806638 0.1544007 -0.12947774 0.06680909 -0.17606653 -0.0684452 0.06879718 0.05168468 -0.06872877 -0.10013965 -0.0802897
8 -0.029929485 -0.021221466 0.23122004 0.22361094 -0.18367161 -0.22291361 0.10898643 0.23538898 -0.05323678 -0.034862425 0.28510273 0.03812889 0.05798683 0.01789238 -0.15349147 -0.049660385 -0.020416548 0.10151948 -0.18851249 -0.05463614 0.20973165 0.19193396 0.25532708 -0.11128447 0.10356745 0.10855777 -0.119864345 0.14839749 -0.13862005 -0.046928443 -0.11145126 -0.03062206 0.01109649 -0.14895707 -0.023089621 -0.025332607 0.113257274 -0.044922553 0.24139953 -0.0324835 -0.07412372 0.10795786 -0.10694051 -0.08281603 -0.062381066 0.029898547 -0.0571596 0.09188893 -0.024300592 0.016119335 0.051238228 0.062506385 -0.07886265 0.16155817 0.1582548 -0.12258883 0.069443986 -0.18971458 -0.07832383 0.07502952 0.063470185 -0.0955292 -0.10021104 -0.081557
