7 64
902 -0.033570606 -0.011547882 0.15158081 0.23186438 -0.18411934 -0.19339073 0.16757222 0.2853173 -0.10005977 -0.07657961 0.27126464 0.033306655 0.040354095 0.095748104 -0.15601365 -0.08309536 0.004011779 0.111610524 -0.1558933 -0.0634416 0.19431548 0.17809688 0.26097828 -0.1074979 0.11445208 0.070112325 -0.10569564 0.13949148 -0.1251895 -0.08258114 -0.09361342 -0.019681403 0.07414273 -0.21014275 -0.03218253 0.032399688 0.10216015 -0.054753702 0.21049248 -0.037471622 -0.075575344 0.07227799 -0.1414178 -0.085850164 -0.069318295 0.0146232555 -0.11217265 0.07255978 -0.008987517 0.14352491 -0.022527628 0.16091013 -0.024376854 0.13852596 0.18411516 -0.11674405 0.10364109 -0.2251963 0.009302753 0.04138195 0.07735088 -0.06656073 -0.17343177 -0.08834031
9 -0.036454402 -0.0027587058 0.17183772 0.20172681 -0.15272263 -0.18018053 0.16515854 0.2844081 -0.055188872 -0.040154878 0.27769628 0.07243077 0.10041469 0.045838337 -0.16534436 -0.069243066 -0.016598945 0.14142671 -0.10889883 0.012748286 0.18027905 0.17755365 0.28715414 -0.16922857 0.093820415 0.12354541 -0.1134506 0.12690832 -0.061025552 -0.05286008 -0.04029582 0.004178435 -0.021872858 -0.19325511 -0.036672555 0.046907242 0.057698052 0.019787699 0.26779643 -0.034176942 0.010210094 0.062815934 -0.09662164 -0.09073384 -0.054730855 0.02966225 -0.07376923 -0.0059340918 -0.07784531 0.07991514 0.056061905 0.14374807 -0.01521038 0.17756769 0.15387742 -0.123932734 0.07596809 -0.19816163 0.041418053 -0.061896432 0.09578586 -0.08378827 -0.16644001 -0.042859644
7 -0.037858788 0.0067353924 0.20278884 0.17156462 -0.1399551 -0.19867015 0.15430896 0.2644126 -0.027279314 0.0031736996 0.29199436 0.09879794 0.11249775 0.016703563 -0.17924921 -0.04757414 -0.028469127 0.15612632 -0.10169508 0.0067232572 0.19400285 0.17759006 0.28995928 -0.18656516 0.091607854 0.124873914 -0.121694654 0.14243919 -0.03879478 -0.030209504 -0.056496505 0.011474825 -0.03988313 -0.1565073 -0.046964668 0.018653218 0.078045174 0.031842344 0.28156582 -0.05310991 0.025237879 0.08987424 -0.09405049 -0.120915666 -0.036768083 0.06232129 -0.060824778 -0.015003895 -0.09023629 0.03590319 0.07892866 0.106645554 -0.052116908 0.17161357 0.1637608 -0.13345784 0.06690216 -0.1850087 0.021215469 -0.07378777 0.09121404 -0.106387645 -0.14367224 -0.0455034
6 -0.032623466 -0.013224553 0.17450711 0.18420438 -0.127367 -0.18722229 0.1315726 0.27234492 -0.038746957 -0.014902505 0.26309183 0.081033446 0.12537901 0.039633285 -0.17391269 -0.057015065 -0.043257046 0.15788944 -0.106620036 0.0070052496 0.19476685 0.17317732 0.2927237 -0.18467684 0.09269733 0.14394951 -0.13026822 0.11831268 -0.059447076 -0.04663607 -0.049236633 -0.008211348 -0.020467227 -0.17336228 -0.019393947 0.04332511 0.04541818 0.032016125 0.2766147 -0.04874677 0.007972797 0.06323408 -0.10533893 -0.09824422 -0.04886758 0.049198218 -0.05670193 -0.019128755 -0.094834365 0.05687301 0.06892097 0.13304582 -0.021000655 0.17836423 0.15031627 -0.12598886 0.06042409 -0.1879044 0.035233088 -0.07502374 0.08154356 -0.10839128 -0.16637738 -0.049782574
8 -0.036780704 -0.008564471 0.16722052 0.184971 -0.14509355 -0.1905642 0.16845198 0.26862043 -0.061916146 -0.012026936 0.28240937 0.07891724 0.073839396 0.053489674 -0.15653871 -0.048058033 -0.0071325623 0.13727167 -0.12253906 0.0037488597 0.2014988 0.17857412 0.27005923 -0.1567759 0.10049169 0.09355658 -0.12332469 0.1310252 -0.06497532 -0.058443744 -0.067466274 -0.010961377 0.0077783354 -0.17702383 -0.04741053 0.03711529 0.09156932 0.0026388117 0.26272386 -0.038539395 0.0015956952 0.07847872 -0.09062292 -0.11282804 -0.05814168 0.05317512 -0.0764453 0.010965491 -0.05667415 0.06479007 0.048454426 0.13584478 -0.025723862 0.14941035 0.17535034 -0.117114395 0.07983722 -0.1985279 0.03320102 -0.04067924 0.09484203 -0.09364003 -0.16366632 -0.044934224
5 -0.033757597 -0.002420203 0.20728375 0.19348575 -0.15882124 -0.19155835 0.16504656 0.2714791 -0.034746442 -0.003860865 0.2858271 0.08269746 0.08819065 0.026234359 -0.16574006 -0.034039248 -0.0076864944 0.13881952 -0.12564954 0.01652377 0.20123261 0.18519051 0.293583 -0.17938203 0.10782067 0.12093165 -0.11660398 0.13464114 -0.05651817 -0.043666117 -0.054699287 0.0037029393 -0.037548404 -0.18019699 -0.05470784 0.022951858 0.08446986 0.03651365 0.28152743 -0.05785558 0.012097131 0.09446941 -0.0849556 -0.118503705 -0.035299335 0.047498357 -0.06810058 0.010436729 -0.08240145 0.032229573 0.0751045 0.109024405 -0.047048762 0.18180752 0.16275987 -0.13714665 0.06159115 -0.1773418 0.012041354 -0.054991525 0.07975747 -0.09147359 -0.14215179 -0.045215283
4 -0.03669261 -0.0083420025 0.19084816 0.1901671 -0.14170884 -0.19635862 0.14045095 0.2658598 -0.04255792 -0.018938486 0.2849411 0.08040953 0.11209305 0.024345899 -0.16833578 -0.06038229 -0.033602566 0.14671303 -0.11664948 0.009571069 0.1921922 0.18133654 0.28322122 -0.17123023 0.08675699 0.13394307 -0.12725244 0.131119 -0.06418456 -0.041696656 -0.054387107 -0.005270521 -0.030329153 -0.164337 -0.028585298 0.029501226 0.06333422 0.015639953 0.27974546 -0.030583851 0.01076317 0.07244197 -0.09036447 -0.09419841 -0.058311794 0.04630437 -0.053464383 -0.00657157 -0.0814259 0.040346995 0.07856551 0.11611517 -0.031463515 0.17551564 0.15212852 -0.12180383 0.06828069 -0.19384062 0.018317476 -0.05369379 0.09606926 -0.104554035 -0.1498528 -0.04217521
