7 64
902 -0.034669973 -0.0136048505 0.12194472 0.20044234 -0.16477765 -0.22080503 0.13701345 0.24771486 -0.122887164 -0.06618697 0.25740853 0.026318442 0.00802321 0.12287428 -0.15391357 -0.0907242 -0.010315984 0.105074525 -0.1653081 -0.15205814 0.20576431 0.15716021 0.206036 -0.051058426 0.10435859 0.0057309717 -0.109333195 0.15088601 -0.15169308 -0.08502058 -0.16068533 -0.044128705 0.17477949 -0.15356293 -0.015551535 0.000197132 0.14585699 -0.13523522 0.13746653 -0.037675172 -0.13756993 0.080000855 -0.18199429 -0.09482603 -0.079670615 0.044030234 -0.123415835 0.11156668 0.05426763 0.17545469 -0.088291585 0.14881076 -0.048839375 0.05649157 0.2123967 -0.09098637 0.12589158 -0.23959234 -0.018288502 0.11955568 0.06490308 -0.0821918 -0.16430017 -0.12775801
9 -0.029286984 -0.026174111 0.16743498 0.17519455 -0.12725954 -0.21473448 0.11117425 0.24621898 -0.059576232 0.0034885649 0.25741085 0.06782543 0.07844335 0.06762921 -0.16843328 -0.04089275 -0.04081015 0.14366835 -0.14717864 -0.06398048 0.22903754 0.16978537 0.25920624 -0.13884021 0.10947266 0.094369546 -0.14360859 0.13265043 -0.10452231 -0.061078086 -0.12027994 -0.041671626 0.06773868 -0.14880005 -0.015838187 0.012079057 0.10318075 -0.029703803 0.23831788 -0.06506367 -0.060457967 0.09024731 -0.13886069 -0.1215598 -0.05542924 0.07522038 -0.072434016 0.042870168 -0.03947134 0.06605375 0.01943146 0.12002079 -0.0517336 0.12667567 0.18862297 -0.11864836 0.07366254 -0.20016399 -0.007800589 0.010661228 0.05943295 -0.1239016 -0.16001077 -0.09036214
7 -0.028325157 -0.019817919 0.19097818 0.16540311 -0.12939997 -0.22404575 0.103358395 0.23331362 -0.042955745 0.02108295 0.26108676 0.074917965 0.07855211 0.050793592 -0.17486441 -0.028090212 -0.043086436 0.14471379 -0.14955358 -0.07517996 0.23405889 0.16952398 0.26037833 -0.14254655 0.11243581 0.094247095 -0.1420569 0.14298159 -0.09957408 -0.048545662 -0.13126646 -0.035603482 0.058282174 -0.13269657 -0.022611063 -0.009576356 0.11715968 -0.024861136 0.23929289 -0.08042737 -0.06274038 0.109673254 -0.14223811 -0.13616762 -0.040717747 0.08604048 -0.06920965 0.050327975 -0.04254026 0.044191696 0.02634938 0.0943432 -0.078638315 0.1270725 0.192715 -0.12802424 0.0676794 -0.1899623 -0.030039072 0.016794315 0.049263984 -0.13019423 -0.1411324 -0.098659836
6 -0.022909947 -0.037257645 0.17300802 0.17760117 -0.12425243 -0.21701898 0.08819818 0.23915029 -0.052933738 0.011932727 0.23847704 0.058915883 0.07810079 0.07218929 -0.16894883 -0.027066793 -0.04869634 0.14200838 -0.16248888 -0.07963009 0.24178974 0.16774996 0.26194546 -0.13786285 0.1204645 0.10268367 -0.14877315 0.12528442 -0.12114008 -0.06421673 -0.13327973 -0.054389052 0.080435164 -0.1472318 -0.0055465302 0.00516017 0.101637214 -0.026172051 0.23261943 -0.08410315 -0.08408573 0.096300066 -0.15180194 -0.124914 -0.046489257 0.07778468 -0.069393836 0.058815077 -0.040456638 0.056837473 0.014037205 0.110870264 -0.060210906 0.12932761 0.18686031 -0.12421704 0.06097232 -0.18832965 -0.0267173 0.026140498 0.034707345 -0.13033418 -0.15536699 -0.106185146
4 -0.030276371 -0.029230826 0.15987793 0.16914964 -0.12963176 -0.22237013 0.11888169 0.23490931 -0.07344368 0.013239396 0.26131392 0.06533751 0.046942737 0.079232134 -0.15737638 -0.0311529 -0.026911229 0.13228439 -0.16118371 -0.0785924 0.23997247 0.16952026 0.23832697 -0.11633616 0.1135759 0.060316365 -0.14465235 0.13706923 -0.11433362 -0.06864062 -0.1433005 -0.052858435 0.10033991 -0.13868101 -0.024954848 0.0034264738 0.13355637 -0.05558307 0.22125897 -0.06230794 -0.07591859 0.1001824 -0.1359683 -0.13201065 -0.061713126 0.085540615 -0.080493286 0.066107005 -0.010842261 0.066654816 0.0016155608 0.116509736 -0.058088824 0.09828319 0.20542403 -0.10933896 0.0827709 -0.20412092 -0.01647471 0.042190142 0.060042 -0.12290256 -0.15633318 -0.09436782
5 -0.02359081 -0.027207246 0.17397952 0.19202434 -0.15231806 -0.20764719 0.11979533 0.24292989 -0.06509162 -0.005665701 0.24282135 0.046280637 0.03997781 0.07932162 -0.15524822 -0.025973331 -0.014594225 0.117914476 -0.17093736 -0.08050412 0.22983988 0.16873845 0.2513702 -0.11730345 0.1271564 0.0712097 -0.12425775 0.12944469 -0.12367116 -0.069712125 -0.12916891 -0.04280385 0.08482779 -0.16201101 -0.027579585 0.00050253875 0.12143629 -0.03603748 0.20827566 -0.08143037 -0.09117061 0.10332996 -0.14215024 -0.122725375 -0.04081601 0.0585355 -0.088936985 0.08543372 -0.017129367 0.07333756 -0.006701695 0.11015228 -0.063221104 0.12117086 0.18943562 -0.12318871 0.06997764 -0.18388121 -0.031616434 0.050728355 0.033532888 -0.09957295 -0.14410439 -0.10468017
8 -0.030191418 -0.032657348 0.19093509 0.17710885 -0.12634791 -0.23262662 0.09042214 0.23571396 -0.05187983 0.012982244 0.27088016 0.07050168 0.089530446 0.0473608 -0.17250195 -0.038824882 -0.055555712 0.14641404 -0.16170906 -0.066580184 0.24066296 0.17908198 0.26080865 -0.13913552 0.1046407 0.10998328 -0.1575697 0.14007889 -0.11646822 -0.053409375 -0.13289995 -0.05111394 0.057004284 -0.13081856 -0.0070007485 -0.0033389328 0.10792159 -0.037323654 0.25599796 -0.05667322 -0.063996896 0.0989436 -0.13441421 -0.119205564 -0.064153396 0.08363561 -0.054806747 0.047713455 -0.041969277 0.032042373 0.042250652 0.09702036 -0.06551472 0.13353802 0.18671894 -0.11883906 0.06933884 -0.20291567 -0.033286914 0.025092974 0.06335316 -0.14139113 -0.14621179 -0.09046171
