7 64
902 -0.026178595 0.02976047 0.1678286 0.199619 -0.24184524 -0.15409292 0.2901193 0.25731322 -0.09417588 -0.011049165 0.2603465 0.036537524 -0.13027586 0.115812 -0.10319258 0.027598344 0.14839262 0.038157336 -0.17352094 -0.057448644 0.19735555 0.16220853 0.21510129 -0.07085199 0.1729346 -0.0872189 -0.024063023 0.1477478 -0.07355261 -0.08682814 -0.109878875 0.021386905 0.0972204 -0.21877068 -0.1617082 -0.012905852 0.23137954 -0.027960539 0.12047576 -0.116786 -0.07419158 0.1566779 -0.08781725 -0.17829227 0.02063111 0.023681102 -0.18369277 0.16520669 0.058312178 0.12719133 -0.08799022 0.111992136 -0.08871717 0.06951488 0.22839904 -0.1321659 0.09752907 -0.13990575 -0.013101329 0.08575333 0.020330595 0.021358741 -0.10722483 -0.086272255
9 -0.028516313 -0.015830481 0.18140216 0.2281174 -0.1954368 -0.17913868 0.20038351 0.2809796 -0.078326106 -0.02908157 0.27197844 0.044275753 0.0074654953 0.07744653 -0.13271011 -0.020236233 0.045673177 0.095475465 -0.17180088 -0.00073482963 0.21263146 0.18950832 0.271068 -0.13090107 0.13668025 0.06165776 -0.09772608 0.123718716 -0.0994654 -0.08189803 -0.07437423 -0.017061181 0.027170585 -0.21866582 -0.07333015 0.030711485 0.12218829 0.00090435374 0.23520805 -0.059983164 -0.039223857 0.098980315 -0.0833506 -0.11583782 -0.041869126 0.022087708 -0.1051697 0.08010859 -0.024921892 0.07207777 0.017204054 0.1318336 -0.03275852 0.15452069 0.18034348 -0.12720746 0.07442713 -0.17785873 0.0035675527 0.016718809 0.061181992 -0.051923092 -0.14867891 -0.057606127
7 -0.028285872 0.0007528416 0.20178007 0.2133891 -0.2011667 -0.1811806 0.20615526 0.26993343 -0.060324118 -0.013126334 0.27501824 0.054134272 0.0009490299 0.062422637 -0.1396846 -0.0076754666 0.052706074 0.09457503 -0.16350035 -0.013863207 0.20853052 0.18390661 0.27017227 -0.13469094 0.14097832 0.050358325 -0.08502933 0.13762926 -0.08268402 -0.06666389 -0.080619134 0.0011484468 0.016137144 -0.20536944 -0.09061164 0.007936081 0.140592 0.009858578 0.22627574 -0.08202721 -0.036329463 0.12131134 -0.088468894 -0.13639009 -0.017360311 0.03086115 -0.11166898 0.08611428 -0.026545338 0.06263284 0.014578851 0.10853185 -0.063539 0.15067562 0.18721716 -0.13966353 0.071740076 -0.16434993 -0.011881958 0.016265597 0.049862046 -0.04831151 -0.12839001 -0.066682585
5 -0.024182664 -0.026475638 0.18171254 0.22214401 -0.18657748 -0.18220349 0.18232408 0.27043822 -0.07384353 -0.012928343 0.25779247 0.04154944 0.004126943 0.08129103 -0.12978375 -0.0040758443 0.039721143 0.09489925 -0.18247658 -0.010029615 0.22605194 0.18646015 0.26707572 -0.12915413 0.14421716 0.062620535 -0.10591001 0.11703817 -0.109187126 -0.08475614 -0.08833618 -0.030942498 0.041460566 -0.21104804 -0.066952735 0.02554361 0.12612918 0.0019306439 0.23217346 -0.073408954 -0.05395786 0.10482244 -0.08863907 -0.12341415 -0.037151184 0.0320714 -0.100400195 0.09005047 -0.023501286 0.058343545 0.015184033 0.12362795 -0.038785484 0.1489466 0.18288934 -0.12804957 0.06477588 -0.16852844 -0.008654366 0.027222043 0.044586014 -0.061619278 -0.14597127 -0.06664513
6 -0.027989846 -0.017568916 0.17682686 0.2137498 -0.19160233 -0.17555992 0.21002126 0.2655124 -0.07974592 -0.007411503 0.26969156 0.047846325 -0.019201504 0.07844284 -0.117216654 0.0019924452 0.06293385 0.08451529 -0.17665403 0.007460344 0.21903352 0.18675634 0.25322118 -0.12133895 0.14140552 0.036355037 -0.09654374 0.121494465 -0.09354597 -0.08450792 -0.08274318 -0.022480115 0.035579372 -0.20919801 -0.088985845 0.025742553 0.14477715 -0.0008858439 0.22932202 -0.06238184 -0.034965396 0.10990762 -0.06525255 -0.1306338 -0.039033987 0.033692993 -0.10657811 0.0904804 -0.01184748 0.0538766 0.01676739 0.12237273 -0.03753728 0.13606459 0.18906541 -0.12126305 0.07287674 -0.16738148 0.0010284536 0.024783118 0.059606843 -0.049194824 -0.1402563 -0.049831096
4 -0.022845788 -0.03436451 0.21531625 0.24567646 -0.18976076 -0.18034625 0.15631601 0.2796363 -0.050153423 -0.026764037 0.26268545 0.039326414 0.05461276 0.043079 -0.1378634 -0.014298602 0.015055111 0.10432159 -0.1837904 0.030382477 0.21796367 0.20107217 0.29995227 -0.16033046 0.13477232 0.13256118 -0.11511145 0.10914307 -0.11134363 -0.07224118 -0.053606674 -0.026515264 -0.02979035 -0.22142568 -0.046917457 0.032400068 0.07906135 0.03906705 0.2823894 -0.058802772 -0.029100168 0.0931659 -0.071574524 -0.09512649 -0.04283647 0.012000534 -0.068765596 0.063784614 -0.068890005 0.016349558 0.073448256 0.110025674 -0.030082488 0.20888104 0.14799213 -0.13955086 0.04412969 -0.16273586 -0.018474575 -0.0045834812 0.051440466 -0.07061507 -0.13823926 -0.048899926
8 -0.027970731 -0.03207055 0.2015262 0.2321777 -0.18360893 -0.1953301 0.15798113 0.2672934 -0.06734754 -0.023807986 0.27633733 0.043034915 0.038093455 0.05138101 -0.13564776 -0.023997253 0.014170879 0.10239414 -0.18558022 0.004941979 0.22214611 0.19827753 0.27431706 -0.13530837 0.12506986 0.10036215 -0.12072376 0.12163453 -0.1177957 -0.07388968 -0.079940364 -0.034913816 0.007178185 -0.19820364 -0.046837572 0.022396429 0.10519085 -0.0023039582 0.2634069 -0.042160463 -0.041007422 0.0952482 -0.07692945 -0.09857112 -0.059563413 0.026960123 -0.07275452 0.07351464 -0.038784977 0.027964642 0.054369897 0.109553754 -0.035319682 0.17222741 0.1653123 -0.12368659 0.06314182 -0.18116471 -0.021579465 0.024130678 0.06661391 -0.07850206 -0.13828562 -0.05349094
