7 64
902 -0.0064990437 -0.058784407 0.11533901 0.2309577 -0.16298284 -0.18560311 0.05618487 0.21663575 -0.11040228 -0.07932009 0.16238725 -0.03914198 -0.010077685 0.14238797 -0.12352844 -0.053240024 -0.017462796 0.06567033 -0.22413167 -0.17510939 0.21709667 0.14741758 0.20272082 -0.026744545 0.13783468 0.040997956 -0.106311195 0.09920193 -0.22737582 -0.109669015 -0.1714107 -0.09093001 0.20226596 -0.17787464 0.027217638 -0.0025375995 0.11071099 -0.120174766 0.10399316 -0.07665772 -0.22376756 0.07468371 -0.20238435 -0.06242943 -0.061064184 0.0060032564 -0.1111354 0.17975962 0.05791581 0.15391307 -0.10783328 0.12946394 -0.043637954 0.08442659 0.17432903 -0.09884916 0.077070385 -0.18982251 -0.08018339 0.1881309 -0.021029795 -0.07010206 -0.14579931 -0.16563661
6 -0.030492244 -0.042640734 0.1679697 0.22944652 -0.16877018 -0.21540682 0.124312155 0.25460717 -0.09786905 -0.045506533 0.26725593 0.027326277 0.034552064 0.0795388 -0.13838565 -0.05698669 -0.012404743 0.10247496 -0.19327804 -0.059936438 0.22423236 0.18640696 0.24024583 -0.09166239 0.10976358 0.07592395 -0.13219567 0.12575749 -0.15435521 -0.083571136 -0.12098046 -0.060562674 0.08420747 -0.17154346 -0.012418079 0.0156428 0.11222215 -0.072318465 0.21919511 -0.021541681 -0.09269226 0.078614354 -0.1167048 -0.07929821 -0.08875122 0.033481766 -0.0764411 0.09291349 0.0033611932 0.07282896 0.0067049917 0.12245679 -0.030388057 0.1251542 0.17595509 -0.09893366 0.08567328 -0.21139896 -0.031201713 0.08064557 0.06984992 -0.093425065 -0.14957632 -0.0815904
9 -0.03276604 -0.032252394 0.18629842 0.21136476 -0.16395065 -0.22309624 0.12719734 0.24678183 -0.081229225 -0.023175731 0.28012535 0.04576169 0.04274238 0.059452333 -0.1466494 -0.047363207 -0.015290497 0.111414924 -0.18231338 -0.05519587 0.22617231 0.18629317 0.2430828 -0.10496197 0.10644545 0.07725491 -0.13363802 0.13717143 -0.13337854 -0.068415545 -0.12247524 -0.048965633 0.063350245 -0.15400569 -0.023715926 0.0021250555 0.122422524 -0.060302574 0.23178689 -0.029320773 -0.073192455 0.09325986 -0.110387236 -0.09675822 -0.077857755 0.049991764 -0.070570886 0.08067848 -0.007850921 0.049573787 0.024157224 0.1038706 -0.049765237 0.12594293 0.18110272 -0.10578752 0.08285498 -0.20563215 -0.035836156 0.06362453 0.073999174 -0.10285759 -0.13773678 -0.07745779
4 -0.025725128 -0.055823162 0.15173839 0.207035 -0.1472088 -0.21077532 0.11975461 0.24603474 -0.09410239 -0.011333984 0.251411 0.035666198 0.028178107 0.089002155 -0.12866403 -0.02706101 -0.010770363 0.10662584 -0.19479524 -0.042701002 0.24276455 0.18185809 0.23513176 -0.101259395 0.11885894 0.071863756 -0.14579616 0.10984597 -0.14613526 -0.090797104 -0.12511499 -0.076279774 0.09272888 -0.16611758 -0.015325776 0.025557669 0.11479871 -0.05406898 0.227321 -0.03493385 -0.08313964 0.080241434 -0.103016175 -0.09744337 -0.08383451 0.053983506 -0.06930318 0.08459117 -0.003468083 0.04964104 0.0152007295 0.12411954 -0.02230166 0.11517994 0.18041855 -0.094977 0.07197061 -0.19544496 -0.019293161 0.06238748 0.05975136 -0.10468605 -0.15674138 -0.07316986
7 -0.029617107 -0.050357718 0.1492612 0.20927024 -0.15570723 -0.21540053 0.13408221 0.24340625 -0.10708216 -0.017432535 0.26536173 0.034144476 0.0077768383 0.09526131 -0.12510674 -0.033611596 0.0012198668 0.099158555 -0.20112534 -0.055383097 0.24344797 0.18483727 0.22395866 -0.084016465 0.11786313 0.046674933 -0.14195842 0.121289626 -0.15227117 -0.09461522 -0.13806194 -0.07620118 0.112298384 -0.1645872 -0.024494167 0.01918706 0.13766071 -0.07943352 0.21649723 -0.025673293 -0.09231856 0.08631258 -0.10466416 -0.10060057 -0.09247166 0.05488235 -0.08075284 0.100629255 0.019296896 0.063664265 -0.00053800497 0.12749113 -0.027328605 0.09917588 0.19549376 -0.090430714 0.087876074 -0.21011043 -0.023096949 0.08672765 0.07035658 -0.09979221 -0.15717217 -0.076710545
5 -0.023392834 -0.050466087 0.16466388 0.22658838 -0.17212246 -0.20490769 0.124951765 0.24366765 -0.09666784 -0.03175898 0.24808805 0.016977163 0.005533226 0.089322366 -0.122936845 -0.028984295 0.0062121837 0.0862496 -0.21118948 -0.058970794 0.23458795 0.18379539 0.23226269 -0.08303278 0.126542 0.06051095 -0.12692903 0.11466606 -0.16335842 -0.0925719 -0.12850143 -0.07027272 0.09649244 -0.17728402 -0.022073748 0.012193928 0.12569363 -0.064924985 0.20636508 -0.039555587 -0.107427426 0.08949227 -0.109215625 -0.0895933 -0.076201886 0.032977607 -0.081855275 0.11788472 0.013354483 0.06044889 -0.002609147 0.11446989 -0.03487192 0.11921222 0.1783494 -0.10094579 0.07447999 -0.1912485 -0.043593183 0.09853134 0.04679678 -0.08391545 -0.1420922 -0.08724425
8 -0.030597541 -0.05127749 0.17816389 0.22487451 -0.1626652 -0.22963127 0.109116286 0.24195598 -0.09640415 -0.029958302 0.2732053 0.03002288 0.033512827 0.07115404 -0.1364 -0.04848459 -0.020563504 0.102808096 -0.20662555 -0.0645554 0.23861909 0.19093166 0.23317164 -0.08649382 0.10815514 0.07649847 -0.14581536 0.12895772 -0.16452944 -0.081841454 -0.13823394 -0.07438079 0.09022019 -0.15389201 -0.007434238 0.0046440624 0.123929925 -0.08353878 0.22768596 -0.016883459 -0.09910676 0.086787574 -0.112237915 -0.08360463 -0.09700307 0.047122695 -0.06486345 0.10068798 0.008957172 0.046754375 0.01796395 0.10710801 -0.03973505 0.11885407 0.1811769 -0.09515334 0.083540685 -0.21344839 -0.048712302 0.09689847 0.07135973 -0.10929977 -0.14198612 -0.082443796
