7 64
902 -0.023604259 -0.070199475 0.09618942 0.22539312 -0.17071095 -0.20207317 0.1281892 0.21458045 -0.16102137 -0.05348096 0.22692886 -0.020620124 -0.07954397 0.14641327 -0.07675228 -0.036324665 0.036134776 0.040826943 -0.24479173 -0.10762279 0.23725563 0.16981234 0.15335475 0.007798921 0.12305946 -0.031605437 -0.12176943 0.10370296 -0.2146054 -0.12935723 -0.17770803 -0.113446414 0.21334583 -0.16190313 -0.016146235 0.013383504 0.17271993 -0.16207731 0.12587084 -0.0017262863 -0.17213999 0.07546347 -0.11023895 -0.07099793 -0.11726127 0.028688889 -0.10412733 0.1819947 0.10835671 0.108128995 -0.079623856 0.13428718 -0.011214137 0.031617295 0.19947569 -0.051867235 0.1062958 -0.21125767 -0.050375428 0.20293899 0.05092627 -0.064263165 -0.14664897 -0.0968946
6 -0.034295846 -0.033360552 0.15194933 0.22075811 -0.16781555 -0.20769213 0.14676695 0.257506 -0.10647122 -0.04944213 0.27527934 0.033467952 0.025635997 0.084405564 -0.13344744 -0.06390675 -0.00027568056 0.10115153 -0.17927365 -0.04926241 0.21404628 0.18408373 0.23247883 -0.08845938 0.103675164 0.05849901 -0.12576643 0.12859279 -0.13950396 -0.0851614 -0.11253233 -0.051617213 0.08460945 -0.17414226 -0.024013741 0.024276813 0.117212944 -0.07642392 0.21509223 -0.009982194 -0.07598116 0.07312582 -0.106740765 -0.08053042 -0.093333036 0.032778326 -0.08390403 0.082349844 0.009626835 0.08768737 0.0012322337 0.13451792 -0.020446436 0.11378933 0.17993243 -0.09167539 0.09645396 -0.21766277 -0.010294203 0.06899005 0.08597476 -0.08419656 -0.15595812 -0.06962522
9 -0.03341839 -0.02296515 0.15678266 0.19484635 -0.1561005 -0.20981078 0.13807902 0.23866698 -0.0912139 -0.028043801 0.26948115 0.044697646 0.02543814 0.076322496 -0.14044295 -0.053387865 -0.005012955 0.10617926 -0.16746967 -0.06909718 0.21371578 0.1734461 0.22426999 -0.089641586 0.10326855 0.04710004 -0.12235344 0.13738549 -0.12520692 -0.07239117 -0.12576991 -0.043491915 0.08962124 -0.15155387 -0.030141799 0.005928939 0.13106173 -0.075337775 0.2028946 -0.029052584 -0.07731247 0.088033855 -0.11764311 -0.099842854 -0.075815715 0.050370738 -0.08551961 0.08151132 0.00987902 0.08157521 -0.0052848742 0.11718093 -0.044585954 0.09940087 0.18844287 -0.09700169 0.094419315 -0.2085645 -0.019967798 0.0678357 0.07551027 -0.09142485 -0.14374955 -0.080938585
4 -0.031993497 -0.040144432 0.1562005 0.21244569 -0.15554011 -0.21162006 0.13694221 0.25725684 -0.0964106 -0.028506119 0.2711624 0.04240954 0.037583485 0.08370135 -0.13934973 -0.049601976 -0.009968241 0.113170035 -0.18017533 -0.043909352 0.22932053 0.18557945 0.24367502 -0.105514675 0.11048973 0.071814016 -0.1389137 0.124857165 -0.13572605 -0.08500099 -0.11655619 -0.05864075 0.08218993 -0.17262225 -0.021207673 0.026504409 0.114607744 -0.060242668 0.23226717 -0.024839072 -0.07179909 0.07809531 -0.109361865 -0.09428841 -0.088219315 0.047889616 -0.0782676 0.074249975 -0.0050966335 0.072600685 0.012885922 0.1350352 -0.023442179 0.12162951 0.18633142 -0.09930949 0.08761691 -0.21479641 -0.008659475 0.053391565 0.07916042 -0.10032284 -0.16371198 -0.07214889
7 -0.037101153 -0.028100986 0.16632824 0.21026586 -0.16733497 -0.20807505 0.16378506 0.25404027 -0.095936336 -0.027446497 0.29286405 0.05006436 0.023191411 0.06645039 -0.13017435 -0.04778069 0.01061078 0.10312752 -0.17449678 -0.019055692 0.21795836 0.19082129 0.23638701 -0.10277993 0.10320937 0.057738956 -0.12791489 0.13330638 -0.11813839 -0.0777397 -0.103677206 -0.043974597 0.05512629 -0.16922534 -0.04311614 0.022039728 0.12805647 -0.057763092 0.23882695 -0.00781609 -0.044869874 0.08437037 -0.07985182 -0.09522474 -0.09038395 0.0442104 -0.077693395 0.07062227 -0.0011945372 0.05599749 0.029087381 0.12391991 -0.026507266 0.1213508 0.18521746 -0.09577367 0.09371866 -0.21302576 -0.0060726996 0.0474194 0.099157974 -0.08763668 -0.14967753 -0.0505688
8 -0.03130806 -0.03074266 0.183824 0.23858353 -0.19458443 -0.20076512 0.16545439 0.26117316 -0.094518036 -0.045779563 0.2822009 0.028282057 0.007288931 0.06793945 -0.12465474 -0.041190248 0.025634883 0.084488206 -0.19623193 -0.023269808 0.21532106 0.19533144 0.245385 -0.09599817 0.11794197 0.06293472 -0.11212433 0.12828715 -0.1376336 -0.082496375 -0.098638706 -0.041679468 0.04762937 -0.19051804 -0.04607947 0.015688088 0.12607704 -0.049872562 0.22761858 -0.020427125 -0.066961855 0.09098267 -0.08249146 -0.08562818 -0.077593334 0.019128984 -0.08527402 0.10077806 0.0022416336 0.056579046 0.021116115 0.11473358 -0.033063207 0.13984674 0.17416525 -0.10624642 0.08417929 -0.19796517 -0.029234083 0.071929745 0.07621427 -0.066786036 -0.13577627 -0.060778376
5 -0.034832373 -0.02882674 0.18798447 0.22659029 -0.17957723 -0.2135195 0.14252119 0.25008872 -0.088328324 -0.043920543 0.29131567 0.037109453 0.03292777 0.051985193 -0.13556556 -0.057095315 -8.661027e-06 0.09733255 -0.18707243 -0.03456079 0.21289706 0.19431515 0.24162093 -0.09694258 0.10111926 0.07644134 -0.123684905 0.13727736 -0.13660052 -0.07062482 -0.10602845 -0.042816103 0.043590598 -0.16606714 -0.030477934 0.0069663534 0.11944835 -0.06330049 0.23529442 -0.006620009 -0.06334331 0.08706895 -0.08978328 -0.07886679 -0.08856379 0.029585678 -0.07029405 0.08519818 -0.0025494993 0.047977183 0.033233274 0.10504834 -0.0393865 0.13672277 0.17160687 -0.10128126 0.08836901 -0.20996104 -0.035385303 0.07021565 0.089189276 -0.08621933 -0.13242744 -0.062024716
