7 64
902 -0.042249557 0.042972904 0.17722216 0.1806586 -0.1806386 -0.21038406 0.17199835 0.2585758 -0.06877877 -0.061699092 0.28995198 0.06722006 0.054348435 0.06084763 -0.19355579 -0.102879494 -0.008356334 0.12993985 -0.10610627 -0.12713876 0.16571815 0.15742774 0.24871822 -0.10717096 0.09298212 0.03721926 -0.07775066 0.19102353 -0.07630837 -0.034587678 -0.11519219 0.035039447 0.067158155 -0.15274784 -0.05459676 -0.023552958 0.13754337 -0.07377428 0.17294239 -0.061083768 -0.06616506 0.107396394 -0.18210608 -0.12127931 -0.032734584 0.04262203 -0.13069181 0.06005998 -0.0040339325 0.16754009 -0.046376932 0.12206824 -0.09605748 0.10817912 0.20826493 -0.13434662 0.1274202 -0.23297317 -0.009872696 0.037098587 0.08401528 -0.07210005 -0.1395944 -0.11806618
9 -0.049482163 0.04978808 0.21207377 0.1759548 -0.165442 -0.2077985 0.16849262 0.26828372 -0.032844383 -0.051907934 0.32257083 0.09806018 0.12445868 -0.0008706281 -0.20331888 -0.11144379 -0.034723647 0.15569022 -0.069696724 -0.04357204 0.14543591 0.16934112 0.2795158 -0.16246435 0.062355917 0.1090501 -0.08951869 0.1833734 -0.02912567 -0.005326506 -0.05443209 0.056342483 -0.04530952 -0.14213799 -0.04838242 -0.0071055847 0.08234362 -0.012524228 0.24537748 -0.028651604 0.020012695 0.08699534 -0.12751961 -0.09768911 -0.039040998 0.03911435 -0.07978396 -0.017399384 -0.07080732 0.09640139 0.047670648 0.10154831 -0.075600654 0.1604055 0.16184948 -0.13317385 0.10318172 -0.21603021 0.013674335 -0.0529092 0.11843696 -0.08628404 -0.12707616 -0.061986964
5 -0.046162467 0.047544323 0.22155772 0.15624271 -0.15980296 -0.21225779 0.1676211 0.24827823 -0.02299725 -0.014808769 0.31853023 0.105893545 0.10117968 -0.0034908904 -0.19640934 -0.07684566 -0.023573574 0.15010014 -0.080415174 -0.04851863 0.1637754 0.16679294 0.2688755 -0.16011108 0.07491316 0.08825122 -0.09252698 0.1848676 -0.024945978 -0.0034010485 -0.07500515 0.04910549 -0.03432467 -0.12527922 -0.06372468 -0.023943437 0.11154074 -0.007782455 0.24022211 -0.050630417 0.015005812 0.110644504 -0.11959836 -0.12578799 -0.023656964 0.061178003 -0.079815395 -0.00052726123 -0.06267013 0.06636844 0.047771614 0.0792051 -0.09741261 0.14360957 0.17558703 -0.13632509 0.09383486 -0.19735593 -0.003464724 -0.041474324 0.10156712 -0.09246602 -0.111948125 -0.06630843
6 -0.04438202 0.027649827 0.21133295 0.16707613 -0.14728107 -0.21301463 0.15157272 0.2599144 -0.028396145 -0.016863612 0.31324625 0.10274133 0.122374326 0.005141686 -0.1960562 -0.07944158 -0.040438224 0.16059934 -0.087343864 -0.03061348 0.17590828 0.17302184 0.28158936 -0.17260268 0.075041845 0.11647294 -0.112641856 0.16806865 -0.0371657 -0.014767774 -0.06761694 0.029311774 -0.034247037 -0.13683458 -0.042973176 -0.0017545932 0.085731804 0.0012347522 0.2626674 -0.04194914 0.016829504 0.09187803 -0.11613705 -0.112822086 -0.039697543 0.06023421 -0.06587365 -0.015146353 -0.07763819 0.06008827 0.063259475 0.09713402 -0.0712073 0.15846275 0.1667156 -0.1316082 0.08548895 -0.20270814 0.009936608 -0.056541037 0.10403353 -0.1063532 -0.1325013 -0.05889218
7 -0.049401574 0.0324726 0.21203138 0.16107406 -0.15640523 -0.21906613 0.1816071 0.25492787 -0.040799875 -0.003970172 0.33635843 0.110307544 0.08851748 0.006108093 -0.18370242 -0.06843714 -0.014808478 0.14949782 -0.09559737 -0.02197816 0.18352205 0.17973155 0.2658265 -0.15868998 0.07669712 0.08042572 -0.11092007 0.17905939 -0.031551618 -0.018475125 -0.07874693 0.028857796 -0.024785632 -0.13127175 -0.06785545 -0.008132466 0.122433245 -0.015330173 0.2622528 -0.030666985 0.025891848 0.10603469 -0.09472312 -0.12853216 -0.047460906 0.07096603 -0.07434276 -0.0017112537 -0.054734316 0.0506021 0.06176357 0.093076326 -0.07722305 0.13769594 0.18629915 -0.1244926 0.09873466 -0.20965958 0.010205911 -0.04140469 0.12123945 -0.101063006 -0.12744841 -0.046983138
4 -0.04447726 0.036529943 0.22441529 0.18032573 -0.17576155 -0.21092527 0.17636754 0.2597746 -0.03451684 -0.025584653 0.32045603 0.092609964 0.086469665 0.005462089 -0.1865755 -0.07252633 -0.010570259 0.13879287 -0.10285841 -0.03682367 0.17234251 0.17762509 0.27474016 -0.15482983 0.08491447 0.089586176 -0.09349749 0.17803936 -0.043655083 -0.016864315 -0.072641544 0.038635705 -0.031957466 -0.14636831 -0.06538292 -0.015870053 0.11325504 -0.008819331 0.24680923 -0.045224417 0.0055915825 0.10930997 -0.11051837 -0.11826896 -0.031776793 0.0480935 -0.08292597 0.01704895 -0.056329146 0.06429942 0.04874953 0.08657012 -0.086714774 0.15436752 0.1746476 -0.13642633 0.09259478 -0.19909592 -0.007774867 -0.026056113 0.10001952 -0.083889596 -0.11624586 -0.06285071
8 -0.047639143 0.03785655 0.2173648 0.1714318 -0.16130607 -0.21746956 0.15220128 0.24857095 -0.034878384 -0.036225453 0.32142338 0.09353612 0.108990096 -0.004748477 -0.19254753 -0.09639412 -0.035131253 0.14608401 -0.09089449 -0.050418112 0.16046827 0.17214268 0.2635453 -0.14690118 0.06404684 0.09970615 -0.09952338 0.18210796 -0.046131544 -0.007728211 -0.07550132 0.03740732 -0.030572554 -0.12454508 -0.04520394 -0.020040417 0.0998169 -0.028702686 0.2433254 -0.024345046 0.0048710527 0.09657053 -0.11908118 -0.10044445 -0.046823736 0.04957352 -0.0698641 0.0027969163 -0.055445958 0.068122715 0.052280396 0.08260962 -0.0845702 0.14722802 0.16594426 -0.12567027 0.09925625 -0.21195418 -0.009999881 -0.022638766 0.11360794 -0.096124284 -0.114301145 -0.06365604
