7 64
902 -0.020109987 0.017501341 0.14354886 0.21503866 -0.21213278 -0.17912564 0.13121586 0.21903306 -0.100129366 -0.109751046 0.2009823 -0.021647494 -0.04157806 0.114118956 -0.14148802 -0.08398271 0.02812775 0.04907713 -0.17003456 -0.20991455 0.15171768 0.12771243 0.18296047 -0.0077262903 0.11972335 -0.025048768 -0.031139385 0.15061091 -0.16360028 -0.06765111 -0.15242697 -0.0025112156 0.16753088 -0.16057071 -0.032712232 -0.047154903 0.15181488 -0.13186206 0.039372448 -0.083274394 -0.19510087 0.10270651 -0.20944844 -0.077034645 -0.015498649 -0.014226719 -0.15482529 0.18178937 0.08120587 0.2069747 -0.14910017 0.09874537 -0.097568326 0.05637831 0.17892778 -0.1104576 0.110063784 -0.18132855 -0.08170608 0.18624046 -0.0056749396 -0.011566024 -0.09619394 -0.1703425
9 -0.023515634 -0.038213603 0.16216438 0.23175368 -0.16872951 -0.20760787 0.10371994 0.258259 -0.089186095 -0.060864452 0.23731588 0.015076987 0.04757677 0.092966594 -0.15261789 -0.06507813 -0.02592445 0.10684291 -0.1858192 -0.09702814 0.21503974 0.17223525 0.24926262 -0.09332632 0.11759209 0.08642809 -0.12083782 0.12177077 -0.1622909 -0.08214153 -0.12364434 -0.05351597 0.10052344 -0.17910111 0.0025694582 0.01204715 0.09375099 -0.06652294 0.19140773 -0.05154313 -0.12195018 0.075136326 -0.15713081 -0.07594461 -0.06670226 0.02275232 -0.08827016 0.09940706 -0.0028438799 0.10812837 -0.023840742 0.12782334 -0.038389515 0.12953977 0.16894194 -0.11086265 0.078964494 -0.20225118 -0.037067804 0.08421591 0.03833146 -0.08751404 -0.15191513 -0.111844555
6 -0.023152497 -0.026109964 0.18195614 0.22049727 -0.17542592 -0.21251976 0.11065167 0.24922946 -0.07551889 -0.043566376 0.24327561 0.023665387 0.037231363 0.081837654 -0.15814914 -0.0504642 -0.017356548 0.1055573 -0.18567361 -0.108676784 0.21853437 0.17124759 0.25023738 -0.09614532 0.124628544 0.0741997 -0.11295396 0.13506314 -0.15188201 -0.07156397 -0.13396752 -0.04164048 0.09507422 -0.16910587 -0.014366239 -0.008715652 0.11602105 -0.061149564 0.18679762 -0.07153961 -0.12249269 0.0981105 -0.16064806 -0.09728052 -0.047173046 0.032923754 -0.09479252 0.11003815 -0.0012966057 0.09689157 -0.025997788 0.10755602 -0.066762194 0.12593018 0.17974097 -0.12252641 0.077338606 -0.19267277 -0.05372228 0.08955592 0.02832846 -0.086499125 -0.13542527 -0.12093038
7 -0.018216569 -0.05219992 0.16539131 0.22121379 -0.15578961 -0.2083586 0.091641665 0.24841459 -0.079652086 -0.029100573 0.22438939 0.019118354 0.04286788 0.09465274 -0.14692523 -0.03426939 -0.026787532 0.109063156 -0.19853404 -0.08808529 0.23774451 0.17343904 0.252069 -0.10329773 0.13103645 0.09081226 -0.13464399 0.111524545 -0.16487111 -0.08676998 -0.13385136 -0.06990104 0.10493874 -0.17582254 0.0013915092 0.011591277 0.10040929 -0.049867015 0.20454864 -0.07061834 -0.124313444 0.08582065 -0.15055078 -0.09417611 -0.059004687 0.04003484 -0.080666736 0.10423044 -0.010313516 0.07819366 -0.0125680035 0.119925626 -0.04282544 0.13082391 0.1750099 -0.11541175 0.0632228 -0.18752602 -0.04412234 0.080555774 0.02172249 -0.10109704 -0.1521584 -0.112776294
4 -0.022361936 -0.048112985 0.16623975 0.22103974 -0.1677169 -0.20708646 0.12382601 0.24680515 -0.09067479 -0.022697002 0.24436656 0.023096487 0.011471744 0.0932244 -0.13149263 -0.024136439 0.0017428093 0.09498995 -0.20581862 -0.0672965 0.2397278 0.1811704 0.24015334 -0.09272608 0.13229412 0.06237765 -0.12912127 0.116981916 -0.15789516 -0.09112959 -0.13312759 -0.06780296 0.1016792 -0.17790537 -0.02317297 0.010975156 0.12704736 -0.057220332 0.20737651 -0.056096785 -0.10932644 0.09470969 -0.12173259 -0.10208348 -0.066236 0.041478008 -0.08660245 0.11421121 0.0066989474 0.06640654 -0.007950491 0.117447674 -0.041654997 0.11957528 0.18554656 -0.10863243 0.072455354 -0.1898601 -0.0406483 0.089132756 0.038694654 -0.08951057 -0.14660369 -0.09491153
5 -0.018009635 -0.03624177 0.1834741 0.23400375 -0.18653177 -0.19829047 0.11600767 0.2467326 -0.077500485 -0.04471442 0.22979029 0.008544237 0.014135058 0.084557354 -0.13844323 -0.031442046 0.0030894536 0.085417874 -0.2043906 -0.08824576 0.22045897 0.1747085 0.24719644 -0.089463554 0.1358993 0.071499445 -0.105627716 0.120062746 -0.16245888 -0.08124295 -0.12512138 -0.049292125 0.08735535 -0.18459417 -0.021532236 -0.004024535 0.11639044 -0.04926394 0.18484284 -0.0731055 -0.12685962 0.099564224 -0.13997124 -0.091452636 -0.04374798 0.018303534 -0.09409632 0.12909657 0.002797203 0.079963095 -0.021389186 0.102392666 -0.05906154 0.13467212 0.16988872 -0.1218567 0.065617055 -0.1746629 -0.062202938 0.10157879 0.015713416 -0.070478596 -0.12682034 -0.11260721
8 -0.020908117 -0.03039631 0.17761998 0.22343923 -0.17926262 -0.20877074 0.093035564 0.22725739 -0.082219355 -0.057336602 0.2306811 0.004319916 0.01894428 0.07842123 -0.1426641 -0.05471101 -0.014440268 0.08374483 -0.19907212 -0.12460514 0.208186 0.16587435 0.22405595 -0.06478303 0.11742816 0.06128492 -0.10414167 0.1313037 -0.17249137 -0.0718141 -0.14301386 -0.0499394 0.10789804 -0.15532617 -0.0057420377 -0.021632718 0.12053983 -0.08711451 0.1598826 -0.056555387 -0.14568943 0.09570359 -0.15717854 -0.07755112 -0.055086058 0.020133771 -0.08986657 0.1349692 0.022313723 0.09223856 -0.036784798 0.09024958 -0.0700721 0.111743994 0.1684401 -0.10983144 0.07811815 -0.18743804 -0.07862119 0.13146688 0.02264124 -0.077094875 -0.11543885 -0.12514412
