7 64
902 -0.0035088302 -0.04740816 0.15085407 0.21660693 -0.18910797 -0.1667422 0.15644833 0.23971243 -0.08596121 0.0040734243 0.17978589 -0.0011013935 -0.07373955 0.14218259 -0.10481552 0.04723259 0.06707355 0.05672321 -0.22807245 -0.088180505 0.25252873 0.16017115 0.23247768 -0.07971835 0.19205275 0.00090543745 -0.0891658 0.093894914 -0.1597129 -0.11527032 -0.14628898 -0.0656722 0.1504011 -0.2191306 -0.068110056 0.005539017 0.16864409 -0.022756368 0.14587337 -0.14372534 -0.15513109 0.13067672 -0.13588715 -0.15176523 0.00025485674 0.034860216 -0.13843735 0.18135045 0.031239675 0.09217494 -0.07632214 0.11925747 -0.06260784 0.099101394 0.2057786 -0.13228986 0.04946979 -0.13095826 -0.051173005 0.11700693 -0.042222194 -0.041508246 -0.13670602 -0.1278592
9 -0.02915604 -0.017656842 0.14949612 0.20800282 -0.16671112 -0.17037138 0.2032299 0.29331675 -0.078911625 -0.016545933 0.2589787 0.060517278 0.029995834 0.09759109 -0.14150359 -0.022023149 0.032460157 0.12035545 -0.14344919 0.008861586 0.21531653 0.17946775 0.27983707 -0.15410124 0.13615577 0.06841563 -0.10937966 0.113036945 -0.07655827 -0.08744165 -0.06444936 -0.017633544 0.038463052 -0.22559223 -0.06726306 0.057738926 0.10266177 0.019459978 0.24401654 -0.070514545 -0.019787295 0.08226927 -0.09414159 -0.12763731 -0.040263783 0.038204413 -0.108694196 0.042150684 -0.044496506 0.0970327 0.01205648 0.16607797 -0.010411141 0.14969468 0.18724754 -0.12639594 0.07464378 -0.18389681 0.04823324 -0.032426372 0.06531753 -0.06462289 -0.18283722 -0.054188386
6 -0.030995572 -0.006350857 0.16872807 0.18411729 -0.15687682 -0.18574493 0.19434689 0.28032428 -0.05991149 0.009867531 0.2697808 0.08038094 0.042481016 0.079657495 -0.1576454 -0.014421937 0.019423023 0.13425125 -0.13195251 -0.008122399 0.22082306 0.1756126 0.28056508 -0.16444713 0.13281058 0.06794727 -0.11413131 0.1297227 -0.060091402 -0.069319494 -0.07978432 -0.008375833 0.03235239 -0.19763844 -0.072187185 0.035308164 0.11731742 0.02190645 0.2483722 -0.086156696 -0.013429262 0.10111097 -0.10430084 -0.14986932 -0.026443563 0.062531285 -0.103938065 0.03395656 -0.0519517 0.07934907 0.01968788 0.14322098 -0.04028541 0.14223996 0.1978903 -0.13477474 0.073325604 -0.18079165 0.03524009 -0.040120512 0.062856585 -0.08208585 -0.1693088 -0.06306114
4 -0.020170938 -0.03336766 0.14336932 0.196548 -0.15273684 -0.17107464 0.17161416 0.27183843 -0.07364094 0.005272326 0.22620744 0.05007587 0.01695604 0.11003322 -0.13479322 0.0036500723 0.025593974 0.11408105 -0.1607023 -0.01774626 0.23271316 0.16895455 0.26665467 -0.14275806 0.14968449 0.061296377 -0.11635161 0.10065966 -0.09589128 -0.09344005 -0.090656675 -0.039744526 0.07278992 -0.2123576 -0.056102224 0.046638988 0.11083438 0.015358748 0.22347054 -0.09666555 -0.05431203 0.09158387 -0.10950819 -0.13855402 -0.028588384 0.0508616 -0.10630393 0.0665615 -0.034548447 0.08525854 -0.0048715663 0.15272346 -0.022169264 0.13342804 0.19065218 -0.12633066 0.05962944 -0.16520657 0.025250485 -0.00529278 0.030722436 -0.07458047 -0.17611562 -0.0758365
7 -0.020713408 -0.03895668 0.13454002 0.19661999 -0.16002834 -0.170022 0.18979205 0.2631144 -0.09017071 0.012942497 0.23125611 0.044405196 -0.023221292 0.12079161 -0.11398584 0.0189295 0.051330402 0.094767906 -0.17895514 -0.011921028 0.24187937 0.17265688 0.24635184 -0.12084491 0.1561219 0.026874984 -0.11460373 0.09917313 -0.10488588 -0.10559849 -0.10318761 -0.05158169 0.09442237 -0.21348774 -0.07231325 0.045330316 0.14067909 -0.0025947276 0.21401303 -0.0880207 -0.061122447 0.099914916 -0.09024524 -0.1459361 -0.037585337 0.0539765 -0.11399422 0.09151879 -0.0068338504 0.07797989 -0.014327344 0.15197136 -0.019713815 0.11229721 0.20376296 -0.115881994 0.06640682 -0.16543078 0.021014113 0.022699356 0.035050735 -0.06527859 -0.1721661 -0.06808673
5 -0.017754832 -0.032970965 0.1486875 0.21175295 -0.17542145 -0.15535717 0.19342844 0.26960626 -0.078338355 -0.0031785702 0.22348939 0.035516255 -0.01769274 0.10843714 -0.11299283 0.017829258 0.05865113 0.086674206 -0.17590757 0.0025725989 0.22503653 0.17296723 0.25884432 -0.12914948 0.15833104 0.04461073 -0.09758448 0.09407537 -0.10031432 -0.09976115 -0.07889352 -0.035908263 0.060091246 -0.22905344 -0.075683035 0.045861293 0.12224504 0.021242894 0.2146828 -0.09302068 -0.053941157 0.097900495 -0.08384641 -0.13340932 -0.023568157 0.0307431 -0.113369405 0.09080399 -0.022046318 0.07460409 -0.004931817 0.14438045 -0.019982558 0.13811998 0.1834169 -0.12552938 0.055808816 -0.14938484 0.016059572 0.01212456 0.025574604 -0.047113616 -0.16052447 -0.06436314
8 -0.015925467 -0.04255353 0.16399767 0.21867293 -0.17607588 -0.18254785 0.15555578 0.25910026 -0.07998279 -0.0055645313 0.22418398 0.025644757 -0.010525974 0.10822546 -0.12538035 0.009754753 0.033231918 0.08961701 -0.20033237 -0.046151105 0.2423208 0.17597139 0.25557208 -0.11280183 0.15904857 0.051098205 -0.11182591 0.10485957 -0.13581553 -0.09824324 -0.11597297 -0.05443557 0.09206791 -0.20848198 -0.051808327 0.022100143 0.13189112 -0.012391181 0.20403664 -0.09701465 -0.09805101 0.10688238 -0.11539194 -0.12926751 -0.031068092 0.038684353 -0.10728949 0.11743807 -0.0067507797 0.07215469 -0.017709374 0.12718932 -0.041944146 0.1295371 0.1902369 -0.12625086 0.057730895 -0.16066 -0.023040306 0.059744794 0.012045178 -0.06721629 -0.150582 -0.093653336
