7 64
902 -0.013496931 -0.033550642 0.14147125 0.2590682 -0.21891098 -0.15502696 0.17268787 0.2621693 -0.11211663 -0.08055242 0.20289283 -0.024608372 -0.058508746 0.1315292 -0.101603664 -0.024053685 0.06889292 0.042884145 -0.21845725 -0.07486466 0.20373838 0.17027907 0.23093328 -0.056443073 0.1582512 0.015586796 -0.06629992 0.100027874 -0.17173363 -0.114329696 -0.105538554 -0.04442995 0.11931865 -0.24087897 -0.052613582 0.022799753 0.13156217 -0.05459581 0.13787632 -0.074329175 -0.14395568 0.08926307 -0.12393439 -0.08225656 -0.037644885 -0.022898095 -0.13686273 0.16916335 0.04143563 0.1367015 -0.07521521 0.13978653 -0.02708463 0.11830089 0.17118056 -0.113132805 0.07610726 -0.16330822 -0.036683466 0.12761126 0.0035983594 -0.008695297 -0.13829313 -0.106173344
9 -0.032137934 -0.046041362 0.13920271 0.24531743 -0.17981863 -0.18162924 0.17838392 0.27971914 -0.118062094 -0.05985582 0.2706724 0.023344688 0.009691504 0.09650059 -0.10866915 -0.05074433 0.029235665 0.08666057 -0.18634024 0.010940867 0.21078709 0.1931483 0.24256817 -0.09918725 0.11603411 0.065313354 -0.120980054 0.10458227 -0.13812123 -0.106008045 -0.07690987 -0.056006838 0.06056309 -0.22059886 -0.037894964 0.05973452 0.102092534 -0.045780297 0.2379184 0.00037658538 -0.053208727 0.058695085 -0.06951102 -0.07003954 -0.100754924 0.0093124965 -0.0877765 0.07954902 -0.00043189427 0.08357218 0.017759468 0.16217233 0.017778577 0.14055791 0.17003612 -0.091093786 0.08908258 -0.21094349 0.017856294 0.04620598 0.092830904 -0.061323497 -0.17417932 -0.040456995
7 -0.032994054 -0.042245347 0.16031724 0.23587435 -0.17632292 -0.19912176 0.17079073 0.27799124 -0.104391895 -0.039351944 0.2826905 0.037838705 0.022826597 0.08555489 -0.12508646 -0.04295922 0.016619269 0.10061831 -0.18470874 -0.0017786828 0.22325584 0.19508103 0.25212905 -0.11164461 0.116079815 0.07259057 -0.12907895 0.11507929 -0.12851167 -0.09304586 -0.0890657 -0.052418575 0.0544468 -0.19851245 -0.037723333 0.043558706 0.10832839 -0.03904696 0.24478662 -0.014161857 -0.048854224 0.07276283 -0.07824373 -0.08706727 -0.089733526 0.028976915 -0.080796264 0.07187016 -0.011044587 0.06494687 0.02790012 0.1438195 -0.0043267957 0.13937017 0.17604859 -0.09901067 0.08389129 -0.2063385 0.006499724 0.037455313 0.0877153 -0.07885093 -0.16486065 -0.047957744
6 -0.022469783 -0.05530374 0.14274614 0.24610154 -0.17816173 -0.18534707 0.14904639 0.2721553 -0.110092886 -0.051152218 0.2386952 0.009776045 0.0046970597 0.11255923 -0.116890304 -0.034451943 0.019462183 0.08600854 -0.20508118 -0.032061737 0.22821529 0.18561465 0.24714296 -0.09406544 0.13445997 0.066670835 -0.12183731 0.098135315 -0.1598035 -0.10952868 -0.10196516 -0.068539135 0.09389367 -0.21513346 -0.0242047 0.045265205 0.10340373 -0.045603927 0.21118869 -0.03790676 -0.09619557 0.06982288 -0.104091376 -0.08054328 -0.079138 0.01438383 -0.09372976 0.10611079 0.003654466 0.090213574 -0.0092743365 0.15209274 -0.0012634035 0.13448958 0.17296478 -0.10165163 0.07484938 -0.19398513 -0.008166805 0.072175264 0.049728528 -0.066383116 -0.1687321 -0.07519486
5 -0.026148027 -0.05195866 0.14018144 0.24400802 -0.18960024 -0.18847692 0.17559676 0.26542863 -0.12521426 -0.045313563 0.25589016 0.010253894 -0.03330145 0.11685658 -0.10174762 -0.02556718 0.046379924 0.06971033 -0.21668126 -0.028398441 0.23275337 0.19047062 0.2275057 -0.073115855 0.1358156 0.028586823 -0.1163401 0.10581563 -0.1602661 -0.11519753 -0.113219135 -0.07085477 0.10822655 -0.20996666 -0.045566447 0.03855123 0.13717882 -0.066252105 0.20114323 -0.025086844 -0.09450958 0.079889186 -0.08296645 -0.08850788 -0.086362526 0.018785901 -0.1015675 0.12448295 0.03145326 0.083892815 -0.016955186 0.14544152 -0.0048542977 0.10942347 0.18545265 -0.09030549 0.08606571 -0.19540274 -0.011317768 0.09530574 0.061633218 -0.05619831 -0.15859471 -0.06457892
8 -0.021895919 -0.051428497 0.16315493 0.25980788 -0.19923817 -0.18294121 0.16148639 0.27205294 -0.106747285 -0.05617597 0.2472069 0.0031973848 -0.011443223 0.10064044 -0.1101191 -0.026679767 0.03746868 0.0709669 -0.21783316 -0.02175905 0.224951 0.19297844 0.24905509 -0.0892319 0.13843082 0.06341361 -0.109676726 0.10099839 -0.16190712 -0.10644501 -0.09538798 -0.061253216 0.07339772 -0.21923593 -0.037115917 0.035437338 0.1114439 -0.039606284 0.2105763 -0.036031615 -0.09341422 0.07922622 -0.087052196 -0.07691917 -0.072310545 0.0018999507 -0.093113706 0.12062786 0.0068880226 0.0719989 -0.00030992055 0.13371405 -0.010326593 0.14318523 0.16476177 -0.104755715 0.07013614 -0.18117474 -0.024522813 0.08357667 0.046473134 -0.05190131 -0.14817242 -0.06834956
4 -0.026707156 -0.04884273 0.15958644 0.24554817 -0.18378739 -0.19815283 0.14198823 0.26052257 -0.108051695 -0.056128252 0.25747633 0.011519025 0.007665566 0.0911969 -0.11898354 -0.046150487 0.013347528 0.08223696 -0.20681192 -0.040133175 0.22110376 0.18904494 0.23682137 -0.08231321 0.119687274 0.06570568 -0.12068492 0.11185473 -0.16239047 -0.097051285 -0.108447604 -0.06412468 0.0826156 -0.1936225 -0.022230893 0.0271456 0.111769654 -0.064747825 0.21146518 -0.018888326 -0.094948545 0.07465725 -0.098248065 -0.07136151 -0.08824632 0.014621239 -0.083454 0.10918005 0.011687632 0.07418792 0.0018137314 0.13001747 -0.015284992 0.13020253 0.16915698 -0.09617948 0.081411436 -0.20059855 -0.027819179 0.08979974 0.06367658 -0.071849026 -0.14938293 -0.07220583
