7 64
902 0.0022166157 -0.04508582 0.20204076 0.25384262 -0.22558594 -0.15643145 0.15037523 0.24752402 -0.06160258 -0.020663768 0.18037128 -0.021881506 -0.06482019 0.104112044 -0.10253075 0.052118722 0.076745115 0.03551134 -0.2446504 -0.06230779 0.2351574 0.17550065 0.26064488 -0.09162798 0.19933875 0.046191897 -0.06903281 0.090283096 -0.17266902 -0.10299465 -0.11456115 -0.049335156 0.078464314 -0.24191988 -0.06980866 -0.007906975 0.14496164 0.013934062 0.16677359 -0.14718108 -0.15401933 0.13986109 -0.11690027 -0.12596056 0.01726747 -0.007429066 -0.1251125 0.2011195 0.0053271204 0.051555615 -0.03831509 0.08492505 -0.07619889 0.16257355 0.15652764 -0.14210817 0.021979889 -0.09274835 -0.08884431 0.119303025 -0.060487505 -0.01666565 -0.09066675 -0.11672281
9 -0.013366552 -0.041441087 0.19050398 0.27640933 -0.21479508 -0.132532 0.17848538 0.28601736 -0.06420807 -0.06284906 0.21999902 0.00013721369 0.01108709 0.0661757 -0.10058264 -0.0035333887 0.05889564 0.062025823 -0.19548452 0.05926568 0.191068 0.1922244 0.28735194 -0.13840789 0.14830607 0.117447376 -0.078113094 0.0739414 -0.12221779 -0.09301341 -0.016709773 -0.02385433 -0.035257734 -0.26478064 -0.056882434 0.055970695 0.05849493 0.05798505 0.24319825 -0.057432417 -0.038727555 0.07318923 -0.04624855 -0.06461946 -0.031451687 -0.038889553 -0.083076775 0.08960127 -0.05641347 0.037370052 0.05063077 0.12323994 0.003125808 0.21559246 0.11820609 -0.13394655 0.031110734 -0.13080245 -0.00959781 0.009021468 0.02667133 -0.015551321 -0.13301699 -0.037160166
7 -0.01181675 -0.03737239 0.20430122 0.2575706 -0.2115591 -0.14731874 0.17619957 0.27397656 -0.054399855 -0.031219376 0.22301733 0.011365276 -0.0020817472 0.06633201 -0.10870195 0.019219177 0.06068919 0.0660345 -0.20043257 0.032695204 0.20952389 0.18863997 0.2826974 -0.1380506 0.15944594 0.098128356 -0.081941225 0.086290754 -0.11864177 -0.086919084 -0.045860477 -0.025466468 -0.0150601035 -0.245678 -0.06826973 0.03310675 0.09024253 0.054043714 0.2360407 -0.08590572 -0.052263968 0.10018392 -0.060267266 -0.09719745 -0.013946632 -0.012785724 -0.08985386 0.10545011 -0.048358265 0.025393283 0.03995716 0.10473361 -0.028437452 0.19794577 0.13581677 -0.13876377 0.028257394 -0.119717866 -0.027381599 0.020961838 0.010135315 -0.027192624 -0.118814185 -0.053350568
6 -0.009595517 -0.06292527 0.18726029 0.27580774 -0.20166147 -0.14406069 0.15722473 0.28210622 -0.0677025 -0.04373354 0.2122597 -0.0018610134 0.0117435055 0.077055074 -0.09840272 0.012380228 0.046949558 0.067171 -0.2162954 0.054671668 0.21845873 0.1966833 0.2884093 -0.13933097 0.15762593 0.12466747 -0.10131629 0.0648903 -0.14229204 -0.10403122 -0.03693686 -0.051716 -0.011623792 -0.26092356 -0.04353877 0.0587818 0.062098607 0.05365644 0.25519186 -0.0642792 -0.055960033 0.075474784 -0.050658565 -0.072087966 -0.04015094 -0.02290844 -0.07419892 0.09869502 -0.054972656 0.019867094 0.05454826 0.12494201 0.006254467 0.21328236 0.1273459 -0.13253404 0.023252422 -0.13298665 -0.018199826 0.02121208 0.01670751 -0.036846597 -0.1435114 -0.044331655
4 -0.016139366 -0.061173122 0.178048 0.26672947 -0.20247927 -0.14650676 0.18535899 0.27458394 -0.0835788 -0.03238699 0.23478435 0.0073264996 -0.016734289 0.07690508 -0.08107508 0.01823204 0.068723045 0.05743931 -0.21813732 0.07538009 0.22089276 0.20105322 0.265211 -0.12410852 0.14996897 0.090574935 -0.10277032 0.06997728 -0.13181266 -0.10804617 -0.040508408 -0.05492325 -0.0059592184 -0.24993485 -0.06330026 0.06075993 0.08918867 0.035671256 0.25663835 -0.038230564 -0.035467733 0.07811435 -0.018561486 -0.07859046 -0.05750501 -0.012268875 -0.0746336 0.09865964 -0.03336514 0.0073364433 0.06009885 0.12481337 0.01333627 0.18847182 0.13997532 -0.11568136 0.037188888 -0.14157142 -0.0068673887 0.027025444 0.044202786 -0.033269543 -0.14177908 -0.02088694
8 -0.011488706 -0.04976551 0.19957006 0.27011162 -0.21210885 -0.13272978 0.17484078 0.26916462 -0.059005935 -0.041597955 0.21951368 0.00091304875 -0.0041351696 0.054710656 -0.08553712 0.019891465 0.06759493 0.051574025 -0.20990096 0.076613896 0.2005381 0.19539519 0.27657926 -0.13417433 0.15104939 0.11211596 -0.082949184 0.068635404 -0.12368429 -0.09266083 -0.021178175 -0.034193594 -0.043974157 -0.25356594 -0.064383104 0.048766952 0.07113553 0.06269458 0.2517999 -0.05474136 -0.03315657 0.08339908 -0.02153622 -0.07080201 -0.03238404 -0.031038793 -0.07148585 0.099098206 -0.052921336 -0.002184109 0.06921351 0.103195585 -0.002089268 0.21347876 0.119199075 -0.13212658 0.02193661 -0.1191687 -0.024479503 0.018676545 0.024473932 -0.019080708 -0.12012119 -0.026666762
5 -0.013077865 -0.047668424 0.20767656 0.27248305 -0.21237886 -0.15409182 0.15814161 0.27370414 -0.06051708 -0.04824026 0.22898965 0.001929795 0.011661791 0.05763219 -0.10627125 0.0029996452 0.0464499 0.064543284 -0.21343273 0.03802831 0.20974782 0.1980924 0.2851908 -0.1325358 0.15027945 0.118955895 -0.09223086 0.08422759 -0.13910715 -0.08933605 -0.043870945 -0.037037443 -0.022606922 -0.24582204 -0.050154567 0.03620763 0.07609804 0.04128197 0.24982873 -0.061148357 -0.057613507 0.088774994 -0.055251494 -0.073209725 -0.035827722 -0.023628158 -0.07536953 0.106584884 -0.048685905 0.015430473 0.055576686 0.103842854 -0.017739153 0.21191637 0.12896013 -0.13643998 0.030433787 -0.13623267 -0.03840663 0.036166728 0.022174599 -0.03474112 -0.12330106 -0.050011564
