7 64
902 -0.018012775 0.006869134 0.2342726 0.21324882 -0.21076441 -0.21693641 0.09465436 0.20641914 -0.04547595 -0.04888509 0.23404528 0.007412591 0.003488403 0.045526765 -0.16287766 -0.0413834 -0.0018044774 0.07223077 -0.19553596 -0.17780963 0.19305179 0.15620343 0.2258507 -0.059875265 0.12793618 0.04267049 -0.06645359 0.16548683 -0.15872154 -0.038053203 -0.16125302 -0.008537917 0.08845971 -0.1317919 -0.03328571 -0.08253733 0.15622233 -0.08160306 0.123062655 -0.10467032 -0.16705137 0.14437795 -0.1852859 -0.104937255 -8.847246e-05 0.019189548 -0.107895575 0.1705145 0.027778173 0.08499807 -0.056528058 0.031082429 -0.14565694 0.11098255 0.17354193 -0.14033341 0.07292744 -0.15823722 -0.13612555 0.16157487 -0.014084987 -0.058968086 -0.059358995 -0.16130783
6 -0.009194343 -0.053124037 0.15181267 0.23285341 -0.16173348 -0.16936195 0.11513687 0.27318504 -0.06988121 -0.03328962 0.18872224 0.011292965 0.039995812 0.11468814 -0.14033322 -0.012922799 -0.0036074885 0.1058282 -0.18704148 -0.05205111 0.22882092 0.16675267 0.27878442 -0.1320579 0.15497115 0.10533998 -0.115708284 0.083734535 -0.14641087 -0.09900188 -0.093536235 -0.056765225 0.08178803 -0.22591001 -0.01200638 0.042728625 0.07097505 0.0099879885 0.20669737 -0.10567915 -0.109501965 0.076720655 -0.14548667 -0.099584706 -0.027757384 0.017859163 -0.09673521 0.09336957 -0.04003423 0.09708339 -0.017573895 0.14699742 -0.019783562 0.16187936 0.16062842 -0.13315575 0.04195351 -0.15753464 -0.011932224 0.03338719 -0.0067084925 -0.07308574 -0.16935737 -0.107255004
9 -0.012152211 -0.038539115 0.18230703 0.22123235 -0.16691904 -0.19157757 0.106297895 0.26007652 -0.055177893 -0.020980105 0.20822382 0.023083325 0.04552184 0.09262525 -0.1575515 -0.014437729 -0.013651761 0.11220362 -0.18696627 -0.082899466 0.23249567 0.16812783 0.2785086 -0.13065991 0.15112533 0.10091727 -0.11518026 0.10958556 -0.14314294 -0.07977012 -0.11593026 -0.045513406 0.07857554 -0.19838901 -0.017050564 0.009456561 0.0941293 -0.003391382 0.20419201 -0.11547399 -0.11699787 0.100696124 -0.16094835 -0.114857696 -0.01745283 0.033290975 -0.095698625 0.102263995 -0.035952087 0.08370892 -0.01616543 0.11672137 -0.058862098 0.1553872 0.17220674 -0.14270528 0.04692772 -0.16089444 -0.041792694 0.050374392 -0.00797622 -0.08525236 -0.14727554 -0.12340208
7 -0.004886675 -0.061043825 0.15032448 0.22818841 -0.1543056 -0.17416945 0.09496497 0.26429322 -0.06720267 -0.023909647 0.17355156 0.006432569 0.038613606 0.12208178 -0.14216484 -0.0039371317 -0.012698675 0.10670838 -0.19654618 -0.0733944 0.24010092 0.16222517 0.27553707 -0.12747973 0.16193256 0.105032355 -0.12187273 0.080365375 -0.15939091 -0.10156726 -0.11096829 -0.06864754 0.10340631 -0.21868323 -0.0025194834 0.03551529 0.07457767 0.0045611467 0.19697209 -0.12091802 -0.13190275 0.08186294 -0.16143478 -0.10556908 -0.02247819 0.025856044 -0.096286654 0.10599098 -0.035596732 0.09577285 -0.028771205 0.14175667 -0.028290618 0.1545618 0.16488329 -0.13516921 0.035984267 -0.1526185 -0.025539966 0.049211536 -0.024928039 -0.082133256 -0.16834411 -0.12364525
4 -0.010803858 -0.0498948 0.15345152 0.21543732 -0.1614075 -0.18058035 0.115736276 0.24774191 -0.07525224 -0.015642721 0.19569919 0.013165596 0.008343469 0.11259524 -0.1307656 -0.0009025381 0.007280952 0.09288401 -0.19794135 -0.07489152 0.2362311 0.16343063 0.24971692 -0.10547826 0.1538058 0.06713367 -0.114259675 0.09572934 -0.15153909 -0.09618272 -0.123169884 -0.06319698 0.1088871 -0.19800366 -0.023567574 0.018891783 0.10982198 -0.020557195 0.18515778 -0.103383444 -0.124122985 0.09534602 -0.1416713 -0.1137902 -0.029520188 0.034372296 -0.10009896 0.11870749 -0.008822135 0.08449291 -0.031288635 0.12506075 -0.041765276 0.12737119 0.17732301 -0.12394214 0.050612386 -0.15718687 -0.034177862 0.07163201 -0.0064642755 -0.07548154 -0.15057078 -0.11326279
8 -0.008441999 -0.03926485 0.1840496 0.22764581 -0.18160607 -0.17952192 0.10831502 0.243027 -0.058702454 -0.028568609 0.1951302 0.004277048 0.011395625 0.09037674 -0.13608836 -0.0032112824 0.0088683525 0.082961515 -0.20229468 -0.084775716 0.22247441 0.16412137 0.25649646 -0.10418524 0.1543428 0.079406254 -0.096788354 0.10351744 -0.15496996 -0.082038656 -0.11702461 -0.046744313 0.08131079 -0.1964253 -0.025798809 -0.00216716 0.10647647 -0.012720891 0.17743362 -0.11183966 -0.13212648 0.10656596 -0.14595215 -0.10530607 -0.012596855 0.016964441 -0.0984785 0.13290413 -0.01421575 0.07372625 -0.026260043 0.09758819 -0.064467534 0.145645 0.16218194 -0.13601439 0.04274728 -0.1426434 -0.06387393 0.08523373 -0.020485694 -0.0627923 -0.12271789 -0.122054
5 -0.009971471 -0.056022346 0.16886808 0.23071887 -0.16161373 -0.18603653 0.08943773 0.25212428 -0.066392094 -0.03126275 0.1962826 0.007285201 0.041196875 0.09626966 -0.14043845 -0.016799867 -0.01686449 0.10027271 -0.20095804 -0.07194351 0.231955 0.16927412 0.26484925 -0.1152089 0.14534065 0.10674711 -0.12185348 0.09338353 -0.16338551 -0.08965784 -0.113385506 -0.06526584 0.084721476 -0.19824772 -0.0011059495 0.01911084 0.08145243 -0.014605926 0.20270185 -0.093349904 -0.12551479 0.085013025 -0.14685929 -0.09157803 -0.03708783 0.022712372 -0.08250644 0.10871459 -0.027693475 0.07290637 -0.009887008 0.11847986 -0.03846891 0.1542047 0.15793274 -0.12741725 0.04276292 -0.16049579 -0.04559366 0.06734332 -0.0052126697 -0.08492678 -0.147593 -0.113943666
