7 64
902 -0.020138388 0.031653263 0.17128025 0.16836247 -0.1804214 -0.19042653 0.14965956 0.23778974 -0.050926905 -0.026398687 0.21426323 0.041976143 0.0043115793 0.10138263 -0.18238282 -0.036922213 0.012728339 0.111228675 -0.1340145 -0.18376592 0.19351566 0.13333093 0.24653262 -0.09946866 0.14647304 0.0059250966 -0.05872721 0.16686149 -0.096451364 -0.04954146 -0.15070833 0.019825324 0.12960291 -0.16373688 -0.06332623 -0.04372563 0.16319363 -0.047760673 0.11300765 -0.15942799 -0.1376967 0.14129218 -0.22507048 -0.16420987 0.033558793 0.05042693 -0.1604656 0.12360509 0.010303192 0.17739686 -0.11038159 0.10553119 -0.12989572 0.08668036 0.21947958 -0.15793747 0.09115071 -0.17086288 -0.045617785 0.076229006 -0.016044706 -0.05524615 -0.12430416 -0.17355202
9 -0.03241243 0.004127621 0.21627752 0.18997079 -0.1707105 -0.1953862 0.1775925 0.26627162 -0.034233313 0.007243856 0.28818104 0.082611464 0.061701998 0.03143304 -0.16445395 -0.018349929 0.009484632 0.12771676 -0.13316645 -0.00034801575 0.205198 0.1811973 0.2833389 -0.16764124 0.118831374 0.09450149 -0.10646109 0.14144145 -0.057030704 -0.043619227 -0.069988124 0.0069427746 -0.021823656 -0.17642513 -0.070974015 0.00772711 0.1104869 0.030400716 0.26165688 -0.0746559 -0.0013019856 0.11226814 -0.08853144 -0.13513559 -0.020863172 0.052552737 -0.08069984 0.033417176 -0.06605443 0.032855876 0.0571173 0.0970119 -0.06583285 0.16595088 0.17436503 -0.1408667 0.062545784 -0.16736698 -0.0019798623 -0.03423512 0.0658759 -0.08270496 -0.12952529 -0.055778585
6 -0.030978145 0.017727558 0.22423163 0.16130692 -0.15653095 -0.21113242 0.1457948 0.24241075 -0.017154714 0.021214034 0.2777102 0.09042507 0.073879324 0.024905177 -0.18645321 -0.02237736 -0.015639847 0.14186202 -0.12272086 -0.062675186 0.2078953 0.16680282 0.27709594 -0.16293782 0.11660739 0.086670816 -0.10603705 0.1625025 -0.05600351 -0.025145616 -0.1042663 0.014745915 0.0050316085 -0.14155874 -0.061526857 -0.0259076 0.12418974 0.011860713 0.23221496 -0.101477 -0.028083222 0.12944396 -0.13091682 -0.15207519 -0.0007772837 0.074127465 -0.08406602 0.040097028 -0.05966497 0.043428853 0.032429907 0.07287751 -0.10597595 0.14258647 0.1856357 -0.14847653 0.06473029 -0.16545896 -0.028226027 -0.015862301 0.04562314 -0.0997055 -0.11340575 -0.09100111
8 -0.024467235 -0.0003757949 0.19843936 0.17807928 -0.15707348 -0.19915763 0.13979495 0.25174868 -0.03414489 0.0071922345 0.24929275 0.06857622 0.05987015 0.057902 -0.17554729 -0.018988157 -0.0105098635 0.1320344 -0.13845389 -0.06858603 0.21402511 0.16300127 0.27480984 -0.15159197 0.129944 0.08354562 -0.106669135 0.14083421 -0.08057953 -0.04768031 -0.105866775 -0.0049170298 0.038382325 -0.16537926 -0.049582418 -0.007103786 0.11519655 0.00795621 0.21857263 -0.11067958 -0.057575695 0.11745997 -0.14458156 -0.14423196 -0.0046251863 0.061559997 -0.09550952 0.058938373 -0.049946632 0.07070724 0.006371772 0.09919678 -0.084602855 0.14202477 0.18622795 -0.14641003 0.061557174 -0.16567373 -0.021270664 0.00064928184 0.02693339 -0.09183823 -0.13387029 -0.10299348
4 -0.02939139 0.0023605563 0.18906868 0.17491053 -0.16420057 -0.19128352 0.18134713 0.2541123 -0.048279434 0.016553095 0.26830116 0.07613744 0.027318034 0.060941868 -0.15497978 -0.006368935 0.02284519 0.119169235 -0.13898237 -0.03194261 0.21486324 0.17009415 0.26276085 -0.14591533 0.13067423 0.05320859 -0.102364734 0.14060675 -0.06497182 -0.05583146 -0.09635669 -0.0029391698 0.03210001 -0.1730667 -0.07804458 0.0037464409 0.13808216 0.008158472 0.2270547 -0.09257263 -0.029738812 0.12051505 -0.10635171 -0.15358293 -0.0144883245 0.06423634 -0.1018698 0.058454927 -0.036758732 0.060311954 0.014766991 0.10687577 -0.07154729 0.13012864 0.19658254 -0.1361889 0.070804 -0.16749524 -0.0014543992 -0.006538319 0.050105475 -0.078260325 -0.13640572 -0.07470545
7 -0.024689108 0.011094027 0.21252146 0.189482 -0.18607767 -0.187122 0.18137191 0.25827107 -0.035169527 0.0061103012 0.2598001 0.06570907 0.023220062 0.055182073 -0.1623826 -0.0018023568 0.030451586 0.111139506 -0.14621106 -0.04762038 0.20804359 0.16913871 0.2757822 -0.1480905 0.14293252 0.05936148 -0.08396358 0.14484698 -0.07004484 -0.04978014 -0.09348962 0.011472151 0.01977555 -0.1845646 -0.08387334 -0.011170225 0.13790277 0.021447947 0.21420802 -0.11697953 -0.04612672 0.13375984 -0.12061748 -0.15490434 0.010165244 0.04814146 -0.11174653 0.07833571 -0.04118597 0.064877495 0.0050831474 0.09197519 -0.09206781 0.14686997 0.18969147 -0.15366365 0.062139295 -0.15132147 -0.023915106 0.0051512034 0.025156438 -0.062412567 -0.11932699 -0.091748916
5 -0.030749308 0.004036403 0.23022196 0.17888984 -0.16193858 -0.21955015 0.12874824 0.239211 -0.025745412 0.008556393 0.2818976 0.07700646 0.07461051 0.020330725 -0.17986025 -0.029919563 -0.02303369 0.13273828 -0.14350572 -0.06183625 0.2116025 0.17476064 0.27109924 -0.1487323 0.111101314 0.09753903 -0.1145145 0.15806592 -0.08186815 -0.02998429 -0.10927474 -0.0018826418 0.0066680764 -0.13833721 -0.046449255 -0.027770303 0.121711805 -0.005754669 0.2415779 -0.08265692 -0.043683175 0.1254066 -0.12759005 -0.13414992 -0.020575672 0.065751754 -0.073372275 0.0547475 -0.051801473 0.03090546 0.041743357 0.06821689 -0.10106373 0.15044707 0.18019472 -0.14274247 0.06555386 -0.17570834 -0.046545748 0.011476516 0.051023185 -0.10571132 -0.110849254 -0.090873525
