7 64
902 -0.0153312795 -0.027842248 0.24652964 0.30137026 -0.27299285 -0.1779133 0.14891857 0.23443493 -0.07977749 -0.09869649 0.24839187 -0.041840553 -0.055993915 0.036043428 -0.08784944 -0.024247013 0.06960205 0.0036733202 -0.24970563 -0.05059363 0.17575005 0.19017805 0.2211962 -0.037449647 0.1340366 0.054021027 -0.047526687 0.11981346 -0.19074494 -0.07339411 -0.09149275 -0.027540216 0.015833082 -0.2004212 -0.054362494 -0.037702627 0.13333756 -0.055652052 0.15829594 -0.03243545 -0.13378285 0.116183184 -0.07025555 -0.039822605 -0.040932998 -0.057112396 -0.088957414 0.2013142 0.036738675 0.02573576 0.0022368024 0.036633186 -0.07551772 0.16433528 0.12168997 -0.11687701 0.05613884 -0.13564636 -0.13318111 0.18059914 0.012474043 0.0027187464 -0.044638023 -0.083659805
6 -0.018178085 -0.047462046 0.23312606 0.2660967 -0.21150202 -0.18293616 0.13464028 0.25041062 -0.057673216 -0.04053366 0.25594935 0.007059988 0.016701898 0.029774655 -0.111081935 -0.005313978 0.029238062 0.063909344 -0.22741234 0.017885882 0.21701571 0.2065594 0.26944196 -0.11553793 0.13381605 0.1183809 -0.10518738 0.10456213 -0.15314955 -0.074646346 -0.07058764 -0.04511681 -0.02313768 -0.20606469 -0.041294083 0.0057767015 0.09641912 0.0066310735 0.2555203 -0.03807219 -0.06597932 0.101595104 -0.052252427 -0.0685798 -0.053595126 -0.009389797 -0.05616747 0.1177798 -0.03371961 -0.018871278 0.07299282 0.06883089 -0.042971466 0.19986494 0.1301601 -0.12549353 0.037431467 -0.14688829 -0.07479066 0.07095435 0.03802095 -0.055499222 -0.09625042 -0.05115775
7 -0.017728115 -0.0370306 0.23669198 0.24358116 -0.20334896 -0.18901287 0.13606204 0.24360646 -0.04633528 -0.01726551 0.25350332 0.021478716 0.015433889 0.031709995 -0.12388695 0.006808043 0.027756615 0.07471295 -0.21888922 -0.0035633831 0.22614816 0.20053647 0.27248874 -0.12394688 0.14191122 0.105694845 -0.10515141 0.11620858 -0.13962972 -0.06752561 -0.08696733 -0.03745131 -0.010537139 -0.19512147 -0.051829543 -0.0076591764 0.1150706 0.010737753 0.24905924 -0.065684214 -0.06910526 0.11958256 -0.07017447 -0.09714231 -0.034220237 0.011499647 -0.06630484 0.11823301 -0.034842644 -0.014453982 0.060569763 0.06255992 -0.06610991 0.18762265 0.14832787 -0.13624327 0.038045302 -0.14301276 -0.077386096 0.06508334 0.026410826 -0.06381697 -0.09479597 -0.06662004
9 -0.01151893 -0.05218149 0.22030878 0.25838685 -0.2063616 -0.17799705 0.11886705 0.23763011 -0.058324102 -0.035549615 0.22584133 -0.004941851 -1.5063279e-05 0.047583397 -0.10679657 0.0063313157 0.029936355 0.055826325 -0.23375732 -0.013805991 0.22046831 0.19286788 0.25617462 -0.10036998 0.1444917 0.10183611 -0.099638835 0.09753312 -0.16607417 -0.08031319 -0.08919904 -0.0539536 0.0123779 -0.20187782 -0.036208298 -0.0021881561 0.1042205 -0.002097855 0.2236319 -0.061446797 -0.09858282 0.10693484 -0.07364533 -0.07556569 -0.040047552 -0.006774974 -0.06616174 0.1406027 -0.019121949 -0.0041740756 0.041919664 0.06627981 -0.05203733 0.18167338 0.1347826 -0.1262069 0.032328896 -0.13486606 -0.08741796 0.09570211 0.009299726 -0.052339867 -0.09306593 -0.07393917
8 -0.019246543 -0.046651453 0.22486576 0.25278825 -0.2091845 -0.19128986 0.14410648 0.24182092 -0.0670872 -0.02407625 0.2593452 0.011616709 -0.008786323 0.0429102 -0.107269526 0.005947991 0.039880842 0.06053754 -0.23422338 -0.000351464 0.23020983 0.20434397 0.25462973 -0.10175876 0.14032067 0.0855225 -0.10785902 0.1122314 -0.1553625 -0.07998673 -0.09502046 -0.052239466 0.010397278 -0.19580391 -0.05265429 -0.0028880122 0.12768751 -0.013197826 0.24112806 -0.045090787 -0.07815286 0.11469498 -0.056624807 -0.08832384 -0.053483814 0.008016388 -0.06742688 0.1340754 -0.011146219 -0.013481272 0.053182386 0.06846101 -0.05342302 0.17137295 0.15241066 -0.12113123 0.046566136 -0.15134938 -0.0778582 0.09111546 0.036644533 -0.058814254 -0.09717474 -0.059022635
4 -0.013489375 -0.05198134 0.23299618 0.25144193 -0.20267494 -0.17834184 0.13197681 0.23926125 -0.048214894 -0.013222418 0.24118847 0.011172147 0.0043194364 0.033722103 -0.10655473 0.02327734 0.036927067 0.062550694 -0.23441523 0.020317022 0.23216876 0.20425427 0.2693417 -0.12167176 0.14804941 0.11103826 -0.10813446 0.09874579 -0.14930984 -0.07706788 -0.07925074 -0.05148532 -0.017009577 -0.20459194 -0.05074944 0.0018017617 0.1090125 0.021829737 0.25658914 -0.061647225 -0.06875434 0.11554708 -0.049104538 -0.08986998 -0.03831347 0.0043559526 -0.057620008 0.12546925 -0.036091242 -0.036475345 0.07295364 0.060734447 -0.05213153 0.1950271 0.13765512 -0.13128889 0.02563104 -0.12951061 -0.07960085 0.06811662 0.019705169 -0.059024554 -0.0926229 -0.054699197
5 -0.016677639 -0.051205836 0.2330839 0.24210034 -0.19110109 -0.19112743 0.11235066 0.22936964 -0.047663216 -0.014275049 0.24806179 0.016046789 0.021489274 0.024285939 -0.11450833 0.007689322 0.01582553 0.07127988 -0.22896369 0.0048218598 0.2304135 0.20265602 0.26195994 -0.11652464 0.13347626 0.11707602 -0.11766452 0.10693202 -0.15267883 -0.06897229 -0.08977313 -0.054806594 -0.0119061265 -0.18247747 -0.036281135 -0.006489298 0.10642931 0.0028217568 0.25714818 -0.04788782 -0.07141554 0.111518644 -0.057799414 -0.08273546 -0.050454155 0.012949119 -0.047085993 0.11722226 -0.033736624 -0.038802464 0.07709378 0.053926967 -0.057216786 0.18699592 0.13763037 -0.12463914 0.032093227 -0.14249979 -0.086353935 0.07479475 0.030904548 -0.07489502 -0.090405695 -0.058307912
