7 64
902 -0.01830028 -0.02204968 0.20120542 0.25880426 -0.22093536 -0.19704421 0.14991125 0.2723275 -0.07906416 -0.062377803 0.23989013 0.0030293223 -0.00068096083 0.08883451 -0.14447835 -0.03297714 0.026492411 0.077880375 -0.20889156 -0.091390416 0.21568663 0.18193705 0.26667175 -0.09422502 0.15073177 0.06456845 -0.08554491 0.13051654 -0.16073604 -0.08288415 -0.116498336 -0.029175546 0.077443264 -0.21306768 -0.04176767 -0.007232168 0.12611987 -0.039178338 0.1797301 -0.08916506 -0.13137296 0.1125003 -0.14900292 -0.09936024 -0.027558235 0.00090624555 -0.11800027 0.14599077 0.0030558205 0.10318016 -0.03499995 0.10929598 -0.06955447 0.15316609 0.17841457 -0.1409838 0.07169833 -0.17690219 -0.06403635 0.104394846 0.010310494 -0.049220618 -0.12879232 -0.12211285
9 -0.030329749 -0.022008372 0.1578384 0.23058817 -0.17028576 -0.1789314 0.16301244 0.2913204 -0.080496706 -0.05908189 0.26049787 0.04196626 0.065775424 0.07978911 -0.1504926 -0.064256795 -0.0014972244 0.120446846 -0.14694828 -0.009028633 0.19567594 0.18184826 0.2805606 -0.14159809 0.11307131 0.1058773 -0.11208624 0.11483255 -0.10428597 -0.079036966 -0.05911569 -0.02072434 0.02556451 -0.21651416 -0.029378535 0.052194368 0.06809384 -0.0044763526 0.24257284 -0.038629305 -0.037795655 0.060714517 -0.10929731 -0.081236266 -0.06284855 0.013253203 -0.08902653 0.039742947 -0.047606606 0.102828406 0.021301815 0.15820642 -0.0046219095 0.16835563 0.15970331 -0.11927223 0.07772407 -0.20046692 0.026687633 -0.0100001665 0.074851446 -0.07054713 -0.17459014 -0.060940407
6 -0.0431039 -0.012997441 0.16570516 0.18998377 -0.14141217 -0.19884473 0.17390469 0.27649218 -0.07163625 -0.017256998 0.30686125 0.08661659 0.08713699 0.04735527 -0.15705207 -0.06289286 -0.013985962 0.14538063 -0.12210362 0.025675885 0.20433667 0.19035257 0.2737129 -0.16138037 0.088280074 0.10417656 -0.13783883 0.13444997 -0.06449653 -0.060482908 -0.060738266 -0.016337235 -0.003865086 -0.17703949 -0.042760506 0.048835192 0.08601059 -0.0053462028 0.28929815 -0.008617935 0.021577703 0.06701117 -0.074017085 -0.10182486 -0.08328979 0.055230737 -0.06501368 -0.006972634 -0.060179885 0.056193236 0.07038537 0.14548066 -0.00912826 0.15434662 0.17462094 -0.10729072 0.0885933 -0.21783952 0.0465593 -0.05176967 0.12451649 -0.103464596 -0.1739551 -0.025637403
7 -0.03599956 -0.030811772 0.14880554 0.19956695 -0.13511753 -0.19452089 0.15294203 0.279551 -0.078940265 -0.022373356 0.27732083 0.0696183 0.085347705 0.071145974 -0.15275586 -0.057642773 -0.022077302 0.14280565 -0.13562049 0.010047221 0.21392153 0.18439926 0.27316365 -0.15498881 0.09932116 0.11015354 -0.14376774 0.11642562 -0.08798693 -0.075277336 -0.069312625 -0.036388874 0.026689649 -0.18789479 -0.02393993 0.058709554 0.073060885 -0.007437304 0.2752618 -0.022086529 -0.008780605 0.057616457 -0.09249646 -0.095459886 -0.08301947 0.05048782 -0.06739926 0.0066770134 -0.056626458 0.07105651 0.050840322 0.15893301 0.002787323 0.15278657 0.17146605 -0.10614331 0.07978691 -0.21290603 0.044332113 -0.037171196 0.100727275 -0.105690815 -0.18656613 -0.041837055
4 -0.038173594 -0.027967902 0.14461342 0.20366366 -0.14613554 -0.19155952 0.17442256 0.28026697 -0.090265505 -0.026032597 0.28531635 0.06659062 0.060758375 0.07518821 -0.14039433 -0.05478941 -0.0017174623 0.12952161 -0.14031246 0.017595207 0.2107636 0.18650262 0.26153025 -0.14176863 0.10003984 0.087531224 -0.13568144 0.118023805 -0.087278545 -0.08027566 -0.06871396 -0.03488957 0.031406086 -0.19153601 -0.03790261 0.059223995 0.08856423 -0.01699923 0.2669433 -0.012071121 -0.0058434717 0.060306214 -0.07799321 -0.0960675 -0.08780619 0.04595472 -0.07502241 0.017760731 -0.040560078 0.07348409 0.04481275 0.16054627 0.0059980555 0.14254558 0.17666996 -0.100016184 0.08748672 -0.21459857 0.046861973 -0.025356643 0.1092025 -0.09309344 -0.18377222 -0.03344002
8 -0.03604236 -0.025888951 0.16824873 0.21259777 -0.15389578 -0.18635648 0.17179583 0.2848806 -0.072371274 -0.025968494 0.28734604 0.06799303 0.07666431 0.05677209 -0.1463271 -0.04935342 -0.0029989965 0.13225135 -0.14140037 0.037115317 0.20831491 0.19347683 0.2828758 -0.16189629 0.103865884 0.11514088 -0.13260658 0.116979346 -0.0812816 -0.07239376 -0.0510928 -0.024869483 -0.0076671676 -0.20175838 -0.040444687 0.057746746 0.07433744 0.011698765 0.2881007 -0.019776411 0.007720635 0.06438446 -0.06949508 -0.09332407 -0.076181754 0.036593597 -0.06675241 0.010519113 -0.064145744 0.05199773 0.069262736 0.14847858 0.00073255703 0.17240837 0.16235039 -0.112715416 0.07382088 -0.20124242 0.03937481 -0.043790292 0.102850035 -0.089679435 -0.1730643 -0.027356893
5 -0.03591741 -0.024871022 0.17060332 0.21777174 -0.1612991 -0.19936146 0.15248032 0.27257884 -0.08046144 -0.041908428 0.2865261 0.054070145 0.06812782 0.05857124 -0.14875829 -0.06439841 -0.011481906 0.12306121 -0.15408118 -0.0061871423 0.205934 0.1901596 0.26665476 -0.13387719 0.09888018 0.10254256 -0.12898953 0.12748069 -0.10635037 -0.07043775 -0.07595773 -0.030633602 0.021550981 -0.18533753 -0.027803037 0.03717244 0.08619592 -0.026124941 0.25958773 -0.014387063 -0.028399406 0.06846347 -0.09225548 -0.08284675 -0.08257835 0.03242667 -0.07030025 0.037500303 -0.038824752 0.06639903 0.045327313 0.13635954 -0.015203053 0.15581362 0.16596937 -0.10796857 0.08381718 -0.21167275 0.011021081 0.00368104 0.09722472 -0.091096684 -0.16175868 -0.04968153
