7 64
902 -0.01922156 -0.0087658735 0.17866382 0.2530893 -0.22690144 -0.18771498 0.1407721 0.24834414 -0.09523426 -0.09705166 0.22586064 -0.018372769 -0.025906177 0.09857649 -0.13576935 -0.06103257 0.032031544 0.054830622 -0.20281683 -0.14035653 0.18360251 0.16219129 0.22513635 -0.044942487 0.13481107 0.025082888 -0.058379166 0.1371425 -0.17431262 -0.07964157 -0.1298014 -0.021206042 0.115122996 -0.19349188 -0.0349315 -0.02478113 0.13558264 -0.08886886 0.11435748 -0.07310232 -0.16508992 0.10323428 -0.16692945 -0.074396186 -0.03037564 -0.018571753 -0.13096404 0.17178768 0.04596699 0.14557359 -0.08415671 0.1006022 -0.07624907 0.1113034 0.16894092 -0.120701924 0.08886627 -0.17744169 -0.07986346 0.1566449 0.005288233 -0.023547806 -0.10579852 -0.13792199
9 -0.018129531 -0.048312616 0.17255397 0.24785088 -0.18776634 -0.19504376 0.11670386 0.25332433 -0.09097596 -0.05628548 0.22944877 -0.00067520246 0.011152859 0.09263276 -0.12820105 -0.03644245 0.0052821925 0.079978816 -0.21462096 -0.07294791 0.222672 0.18061568 0.24559629 -0.083756745 0.13438475 0.07621149 -0.111729 0.10972827 -0.17532536 -0.09280252 -0.1187843 -0.061879504 0.090668075 -0.19612752 -0.014093636 0.010829965 0.10731566 -0.054815263 0.19182822 -0.055165246 -0.12755972 0.08630422 -0.12862441 -0.07623878 -0.061221905 0.008846497 -0.08959775 0.13027713 0.0067191003 0.0802152 -0.016545065 0.115130566 -0.03771139 0.1386619 0.16391298 -0.11268004 0.066762805 -0.18132979 -0.054712 0.10626897 0.02431734 -0.068324685 -0.13669823 -0.102361076
4 -0.015753323 -0.028890887 0.18933226 0.23289368 -0.19267769 -0.1937894 0.10870905 0.23680975 -0.07088798 -0.051952608 0.21957663 0.0010057135 0.008977385 0.07897615 -0.13855441 -0.032970235 0.0048347716 0.076713085 -0.2027499 -0.105347104 0.2087071 0.16731644 0.24007317 -0.07976328 0.13512017 0.06653264 -0.09176092 0.122666456 -0.16424884 -0.07414971 -0.1268252 -0.04076096 0.086739674 -0.17828095 -0.021683546 -0.017510243 0.1176031 -0.052669004 0.1643526 -0.080670856 -0.1390665 0.104479566 -0.14856054 -0.08750974 -0.031987093 0.0100486595 -0.09749342 0.14085403 0.008259524 0.08430177 -0.03250059 0.08817759 -0.072397456 0.13164978 0.16291708 -0.124534935 0.063293844 -0.16452545 -0.07781963 0.11605621 0.003060139 -0.060725942 -0.1107077 -0.1228526
8 -0.0054043126 -0.09048421 0.17153452 0.23428908 -0.14599022 -0.19307034 0.05923583 0.23462832 -0.0686187 -0.0066580507 0.18912771 -3.209532e-05 0.03733395 0.09033486 -0.11907075 0.009806075 -0.0251192 0.092809215 -0.23537348 -0.043961663 0.26102144 0.18125103 0.2566891 -0.111430176 0.14852439 0.124140255 -0.15164043 0.07292401 -0.1900457 -0.10164252 -0.1241616 -0.10566838 0.08511513 -0.18870693 0.014611983 0.024414167 0.07987344 -0.0143823195 0.2316751 -0.077421114 -0.12991713 0.08304729 -0.116434306 -0.084561184 -0.060111642 0.033683285 -0.052344125 0.11858891 -0.027958317 0.013028957 0.025391385 0.10460125 -0.02475517 0.15938072 0.15078837 -0.11481276 0.024732023 -0.15284602 -0.06363644 0.083907865 -0.0065681264 -0.107098036 -0.14465389 -0.09809308
6 -0.013435122 -0.07179751 0.16150649 0.22362152 -0.15534227 -0.1975259 0.09526073 0.23475234 -0.08483765 -0.009861484 0.21342099 0.009553847 0.010178439 0.09716262 -0.116839714 -0.000392538 -0.0037094916 0.0872888 -0.22453624 -0.05487169 0.25265104 0.1794727 0.23820631 -0.09353708 0.14212376 0.07965761 -0.13957158 0.09214383 -0.17561977 -0.10059151 -0.13330221 -0.091724485 0.10382174 -0.18109907 -0.008614165 0.017868541 0.11244023 -0.041692596 0.21250306 -0.06511649 -0.12240051 0.09034451 -0.11304841 -0.09618069 -0.06511301 0.04009184 -0.07164312 0.123590976 -0.00071235123 0.037975084 0.0032980298 0.11087654 -0.03134167 0.12860273 0.1717419 -0.10648033 0.049762864 -0.16899721 -0.051967435 0.094934046 0.015462732 -0.09545028 -0.14448136 -0.094252065
5 -0.012384827 -0.048650913 0.1791787 0.2442942 -0.19342354 -0.18304111 0.11825944 0.24068514 -0.08139119 -0.04390156 0.21190757 -0.0074776164 -0.011148405 0.09048441 -0.116050124 -0.011110482 0.022745239 0.06430088 -0.22270595 -0.06955628 0.22270977 0.17553198 0.23883437 -0.07928758 0.14634727 0.06523254 -0.09950114 0.10224922 -0.17398058 -0.09247678 -0.11853877 -0.060471926 0.08642151 -0.19723527 -0.026666986 0.001853564 0.11704844 -0.040494066 0.1789793 -0.07385724 -0.13350561 0.09910346 -0.11937493 -0.08536374 -0.041985083 0.0057177264 -0.09278738 0.14856833 0.009927922 0.06353798 -0.019662408 0.098103866 -0.048826676 0.13749373 0.1598617 -0.117624134 0.053666376 -0.15566577 -0.06918937 0.11547659 0.0021516455 -0.055436358 -0.11917425 -0.10430648
7 -0.011257869 -0.08370484 0.17966367 0.23419248 -0.15426818 -0.20434263 0.06857356 0.22860748 -0.075987644 -0.010777036 0.2131205 0.0034099685 0.027666079 0.07920908 -0.11674053 6.0162798e-05 -0.019902589 0.08710727 -0.23882495 -0.046847537 0.25788295 0.18722178 0.24472979 -0.097366974 0.13815583 0.10933589 -0.1505708 0.08743122 -0.19111009 -0.0965345 -0.1319049 -0.102533 0.08393858 -0.17498 0.007735344 0.01285893 0.09786789 -0.03745552 0.2310613 -0.05611914 -0.12579137 0.088399604 -0.10621917 -0.08133524 -0.0731262 0.035567302 -0.050710935 0.12469566 -0.012069339 0.0063218153 0.029410325 0.094009794 -0.03252319 0.14828534 0.1565091 -0.107063055 0.037927322 -0.1652738 -0.07274495 0.101886295 0.013326545 -0.10681191 -0.13408527 -0.091342166
