7 64
902 -0.024723168 6.806014e-07 0.19062431 0.19046094 -0.19012092 -0.22855532 0.123029485 0.21064052 -0.07854497 -0.024791207 0.2466804 0.024577234 -0.024101507 0.085123315 -0.15531015 -0.03607536 0.0091416575 0.08223338 -0.19221982 -0.18218698 0.21762347 0.15480298 0.2045855 -0.047986798 0.13021532 -0.0066246367 -0.08528895 0.1651984 -0.15052931 -0.05855232 -0.18602328 -0.028971352 0.14988518 -0.12455802 -0.04397964 -0.06289722 0.1884338 -0.11216373 0.11633446 -0.094167225 -0.16185893 0.13921182 -0.18167664 -0.13032065 -0.022746276 0.053200383 -0.12277088 0.16344306 0.05696643 0.1108086 -0.08273186 0.067601874 -0.12462684 0.059956167 0.21152388 -0.118984915 0.09606217 -0.1835488 -0.09609619 0.15967727 0.0094643505 -0.072864786 -0.09504792 -0.15393217
9 -0.035094887 -0.002370046 0.17882136 0.20084143 -0.17489508 -0.21083942 0.15836748 0.25582552 -0.078493774 -0.035703193 0.28243205 0.0527783 0.03460636 0.067449436 -0.1592242 -0.05976454 0.00069050747 0.113679536 -0.15490098 -0.07518434 0.20443965 0.1756116 0.24698338 -0.10703567 0.1087366 0.05301752 -0.106783584 0.15305015 -0.108167514 -0.060842905 -0.115310475 -0.015667457 0.06653741 -0.1634367 -0.04484419 -0.0024718693 0.13208058 -0.057588372 0.20514184 -0.04800581 -0.068341695 0.0995688 -0.13078089 -0.11017645 -0.054336254 0.043831665 -0.099519074 0.07696437 -0.003999433 0.09693546 -0.008226509 0.11505115 -0.06266021 0.11687557 0.19165486 -0.116730444 0.09693001 -0.20728813 -0.019595124 0.050641198 0.07192239 -0.081112236 -0.13940449 -0.08938233
8 -0.033822626 0.0037401116 0.20031741 0.1816602 -0.16926602 -0.21872386 0.15144822 0.24081446 -0.057438433 -0.0052754004 0.28505793 0.06707985 0.03649217 0.049974274 -0.16570888 -0.0384728 -0.0018981759 0.11909637 -0.15230028 -0.07946978 0.21320738 0.17359121 0.24873191 -0.1180472 0.11323297 0.052685637 -0.10861823 0.16111857 -0.09399816 -0.046975996 -0.12510535 -0.009902898 0.054197572 -0.14357075 -0.054865364 -0.022119774 0.14667243 -0.04369649 0.2108559 -0.06859386 -0.061881363 0.12098441 -0.12984143 -0.13330232 -0.035730414 0.0632114 -0.094198644 0.076728076 -0.0127841635 0.06739164 0.0039853174 0.088964194 -0.08970934 0.11546506 0.19799875 -0.12678866 0.08724687 -0.19228081 -0.035876848 0.044249594 0.060904507 -0.09178349 -0.12215532 -0.093880005
6 -0.032048162 -0.02266001 0.17051214 0.19005223 -0.14613612 -0.21021344 0.14140427 0.25945774 -0.06956985 -0.0061814603 0.27275774 0.06562157 0.060357742 0.07012329 -0.16011412 -0.04059666 -0.017590297 0.13378587 -0.15320504 -0.04366267 0.22663625 0.17908822 0.26292256 -0.13685162 0.11357815 0.083287224 -0.1360175 0.13600942 -0.10298378 -0.06800698 -0.11022326 -0.035565097 0.05832981 -0.16840301 -0.033272814 0.019047014 0.11337263 -0.02814547 0.24538596 -0.055789147 -0.050307587 0.09275779 -0.1224668 -0.12162099 -0.05991424 0.064351656 -0.082301155 0.050009195 -0.0332691 0.07003758 0.021520203 0.12860423 -0.04471535 0.1331877 0.19318178 -0.11963283 0.081027046 -0.20538865 -0.00022738917 0.0116113555 0.07142075 -0.10833656 -0.16265373 -0.07821152
7 -0.03658538 -0.017101265 0.18005261 0.19074333 -0.16110244 -0.21365936 0.16872418 0.2529859 -0.07746262 0.0004340006 0.29600585 0.06920916 0.029500883 0.061309453 -0.14549944 -0.031150628 0.008693708 0.11788648 -0.16279498 -0.02773727 0.22756533 0.18734999 0.24867271 -0.123168126 0.11252053 0.055925995 -0.1294995 0.14491852 -0.09772818 -0.067774855 -0.11237784 -0.032260947 0.05117736 -0.16295324 -0.056847364 0.010656591 0.14221705 -0.039015528 0.24638581 -0.03943606 -0.03730407 0.104843006 -0.09302809 -0.12752604 -0.06655249 0.065686785 -0.084645994 0.06324459 -0.014687077 0.050653324 0.029275335 0.11581327 -0.05042167 0.121275134 0.20089968 -0.11234789 0.08928135 -0.20532703 -0.0062554805 0.026741436 0.08784158 -0.097487226 -0.14803688 -0.061196174
4 -0.033072863 -0.016069002 0.18695647 0.20436174 -0.1681836 -0.19613802 0.17020354 0.26493442 -0.06587692 -0.012937746 0.2848977 0.06296506 0.044366553 0.053768627 -0.1461755 -0.03182697 0.010521166 0.11685862 -0.15682906 -0.004389147 0.21479532 0.18841144 0.2677772 -0.1406093 0.11566921 0.082985766 -0.11998247 0.13447711 -0.09172214 -0.065869614 -0.08388187 -0.021035876 0.016502446 -0.18488124 -0.0556938 0.02160397 0.114953205 -0.00740695 0.25765765 -0.045408525 -0.025005484 0.096875966 -0.0870001 -0.115588844 -0.05550742 0.045215108 -0.08166192 0.052442927 -0.038569402 0.048572376 0.043486636 0.11876405 -0.040962 0.15255968 0.18054742 -0.12244147 0.07631146 -0.19183987 -0.0001525218 0.0023665656 0.07977076 -0.08475232 -0.14718467 -0.054156326
5 -0.034042705 -0.010510791 0.20439683 0.20174101 -0.17368455 -0.22165799 0.13978732 0.24379061 -0.06527096 -0.020005437 0.2903856 0.055551425 0.043093644 0.043616645 -0.15738611 -0.046923205 -0.008110016 0.112900004 -0.16893256 -0.06305209 0.21503955 0.18425402 0.24991019 -0.11264263 0.1070607 0.0717371 -0.118224144 0.15377969 -0.11458337 -0.05309561 -0.11941076 -0.024117034 0.043772884 -0.14923637 -0.040708404 -0.014962845 0.13333982 -0.050656594 0.22718242 -0.043889362 -0.0641476 0.10970091 -0.11607379 -0.11010386 -0.057329506 0.050629117 -0.07942069 0.0800214 -0.013272707 0.05125645 0.022989206 0.088865675 -0.07449837 0.13037919 0.18524553 -0.119282156 0.085131325 -0.19978033 -0.043673012 0.056184623 0.0713599 -0.09499427 -0.122617245 -0.08321824
