7 64
902 -0.00020420489 -0.06737474 0.0691418 0.20654918 -0.12452556 -0.16955031 0.044106457 0.23299982 -0.10695826 -0.062630594 0.11296356 -0.02982334 0.016796619 0.18522376 -0.13849907 -0.04547962 -0.039289914 0.09573339 -0.19141148 -0.186955 0.22357446 0.12095528 0.21324445 -0.05426809 0.14892153 0.049951307 -0.11431083 0.0724002 -0.20577163 -0.12017003 -0.16459607 -0.09599074 0.23709911 -0.18982455 0.044527758 0.03033312 0.0766381 -0.08756186 0.088622674 -0.1186359 -0.22554804 0.05323984 -0.2412218 -0.08168214 -0.040026456 0.024379637 -0.12337969 0.14462912 0.03221748 0.20104507 -0.13915296 0.17396867 -0.019319104 0.07421974 0.17879383 -0.10387129 0.06466202 -0.17952058 -0.030174308 0.13505486 -0.050188027 -0.0843803 -0.19163868 -0.18534444
9 -0.01530522 -0.060606845 0.13039808 0.20733827 -0.13661812 -0.20253998 0.06976315 0.23096006 -0.0931697 -0.03376181 0.19700252 0.007054777 0.032979317 0.11654021 -0.13792603 -0.040287975 -0.035437945 0.103273295 -0.19735667 -0.116264686 0.23445319 0.15755965 0.22456935 -0.077843964 0.12580895 0.07169947 -0.13625324 0.100825325 -0.17929205 -0.09543497 -0.150345 -0.08619829 0.15026098 -0.16267383 0.018724496 0.014328954 0.099077135 -0.077582434 0.17062435 -0.06686241 -0.15145747 0.07308039 -0.16708592 -0.085529245 -0.067674145 0.043032393 -0.08346939 0.11373328 0.011861729 0.102370985 -0.04364479 0.12973164 -0.033175614 0.10007823 0.17642137 -0.099493526 0.06817139 -0.1910232 -0.042377144 0.10534848 0.01297306 -0.10384543 -0.15966626 -0.12617074
7 -0.021992262 -0.063312784 0.18350695 0.19612199 -0.137501 -0.23555924 0.076215684 0.2181019 -0.07444677 0.017177891 0.24975652 0.038373522 0.03602805 0.0702644 -0.13940203 -0.010211034 -0.0347504 0.11169442 -0.21536425 -0.07855638 0.26509422 0.1831278 0.23234074 -0.097938895 0.12294449 0.08153591 -0.16226195 0.121713534 -0.16540799 -0.07847734 -0.16313858 -0.09137132 0.10454384 -0.13265137 -0.002892817 -0.009734687 0.13406526 -0.06667051 0.23119023 -0.05476881 -0.11269831 0.10633028 -0.12201741 -0.11281786 -0.076052904 0.07777754 -0.054673824 0.10648448 -0.0009917296 0.011724271 0.022908457 0.08520075 -0.06180666 0.11115001 0.18974824 -0.10399861 0.06156691 -0.18993486 -0.06807501 0.09523503 0.038894065 -0.1328964 -0.13317496 -0.097694956
5 -0.01214476 -0.0838142 0.13855354 0.19747981 -0.11719603 -0.21504866 0.05431122 0.22403225 -0.08568849 0.009490768 0.1977756 0.018927049 0.036971167 0.114202164 -0.13353544 -0.0061179735 -0.044143688 0.11365573 -0.21677364 -0.09426915 0.2715622 0.16777502 0.23230906 -0.09552604 0.13745472 0.08603859 -0.16751178 0.09100035 -0.18453579 -0.102267236 -0.16487049 -0.11396565 0.15117745 -0.15552111 0.021378381 0.018118532 0.107195236 -0.06126717 0.2076794 -0.07692875 -0.14500171 0.083669506 -0.15100728 -0.10670748 -0.07302247 0.07189225 -0.06499126 0.11050018 -0.001113722 0.052667946 -0.013096306 0.12256077 -0.032569844 0.10513557 0.18692257 -0.10114823 0.05184193 -0.1844969 -0.047230385 0.095016524 0.008057764 -0.13318454 -0.16638374 -0.11809831
6 -0.02276923 -0.07413857 0.14353369 0.19421275 -0.13173057 -0.22386387 0.09261671 0.21526861 -0.103694014 0.012239635 0.24088326 0.02836604 0.0020594392 0.099468336 -0.11473254 -0.008294644 -0.01480413 0.09629873 -0.22182529 -0.07084434 0.26720956 0.17962553 0.20631097 -0.07267598 0.123453766 0.04667113 -0.1630217 0.10807963 -0.1746746 -0.10019576 -0.16747761 -0.109193526 0.1428156 -0.14037749 -0.006534558 0.009749637 0.14512932 -0.089924335 0.21235491 -0.035634473 -0.11846304 0.09206933 -0.10721319 -0.10708555 -0.09609152 0.075833574 -0.063959315 0.11682169 0.02796868 0.031161526 0.0009632823 0.10987536 -0.03349491 0.081650734 0.19763233 -0.0821566 0.07291434 -0.1977115 -0.04676255 0.112176865 0.049116604 -0.12238099 -0.14986156 -0.08669711
4 -0.014512694 -0.07899645 0.16525055 0.21432708 -0.14393067 -0.2141205 0.07273931 0.21922044 -0.08517016 0.0015440367 0.21871209 0.012400352 0.015069123 0.09004477 -0.11826145 -0.0008410157 -0.019924197 0.09080948 -0.23263894 -0.06985909 0.26329792 0.18037519 0.22668804 -0.084341854 0.13479385 0.07974804 -0.15432067 0.09726067 -0.18686458 -0.09697747 -0.15409285 -0.10576399 0.11741677 -0.15665728 0.0032022935 0.005706403 0.121123895 -0.062006537 0.21459731 -0.056505654 -0.1319532 0.09376177 -0.11555245 -0.095890544 -0.076572984 0.054861654 -0.058785737 0.12711181 0.0074959756 0.019993622 0.009148012 0.09654308 -0.040168546 0.11547629 0.17557427 -0.0986325 0.05114248 -0.17526864 -0.068134695 0.11264597 0.01946266 -0.11387292 -0.13720588 -0.09788639
8 -0.020352041 -0.08406787 0.16999686 0.2035512 -0.13130192 -0.23520324 0.060785674 0.2073619 -0.089338884 0.014211529 0.24218759 0.024152106 0.024223415 0.07626242 -0.119748615 -0.007279419 -0.03554297 0.09876833 -0.23637347 -0.06948526 0.27391106 0.1875584 0.21584764 -0.07901757 0.11986631 0.08027197 -0.17455819 0.107500896 -0.19024609 -0.091707274 -0.1699073 -0.117916584 0.12024369 -0.129698 0.010808479 -0.0020536066 0.13206136 -0.08485671 0.23197551 -0.031717893 -0.124653734 0.09508923 -0.105998136 -0.095338926 -0.10002854 0.074059255 -0.041885838 0.119270615 0.013967939 -0.0042499676 0.028599959 0.08633248 -0.04337843 0.103732646 0.18337764 -0.08689275 0.059642438 -0.19314045 -0.07502451 0.12076832 0.043521777 -0.13737802 -0.13504715 -0.08886059
