7 64
902 -0.029152244 -0.027472103 0.106905304 0.19743817 -0.15315932 -0.2008271 0.1747163 0.28129107 -0.117933355 -0.025766695 0.24652365 0.0450828 0.00460291 0.15158932 -0.14943817 -0.044092346 0.012035438 0.12136848 -0.16076927 -0.09416489 0.23508634 0.16241154 0.24042107 -0.09972696 0.13756318 0.014458917 -0.12240603 0.12506701 -0.12351107 -0.10628734 -0.13748519 -0.050734054 0.1640081 -0.19830081 -0.03957909 0.041447498 0.1390264 -0.06831668 0.17766489 -0.07691947 -0.1023179 0.08179512 -0.16183193 -0.13422541 -0.059222586 0.06094166 -0.13412848 0.086545266 0.018686656 0.16661672 -0.07278157 0.18656674 -0.021598443 0.07840768 0.22686042 -0.10772452 0.10525691 -0.2201493 0.032149024 0.049473427 0.051081304 -0.0837036 -0.20338579 -0.10930396
9 -0.040069748 -0.012961851 0.15301771 0.20855702 -0.14468744 -0.18119298 0.16687414 0.29462934 -0.07189407 -0.051055487 0.2852011 0.07186107 0.10917534 0.055288177 -0.15909101 -0.083482504 -0.022916138 0.14504646 -0.10624944 0.028858174 0.1785545 0.18016064 0.28190118 -0.16580492 0.083141916 0.12824199 -0.12403924 0.11800146 -0.065262035 -0.061910927 -0.032358233 -0.0071238102 -0.016545463 -0.19690657 -0.025064718 0.06666204 0.043753617 0.009892793 0.27681574 -0.007841562 0.019252956 0.04214923 -0.08628724 -0.07428758 -0.07887091 0.026682127 -0.066267155 -0.02068458 -0.07611575 0.08668715 0.062153116 0.16369657 0.012141641 0.17474875 0.14947565 -0.109253116 0.08261087 -0.21305344 0.06186838 -0.06926504 0.11601682 -0.08881592 -0.18456669 -0.028651053
6 -0.03523144 -0.016416026 0.16115546 0.1855932 -0.12832783 -0.1911271 0.13462773 0.2675073 -0.05613992 -0.02330001 0.26920977 0.07522262 0.10987876 0.04873304 -0.16654478 -0.06620848 -0.038797457 0.15069112 -0.11511523 -0.0015027826 0.19708143 0.17560726 0.27821732 -0.16540289 0.08961358 0.12767594 -0.1353431 0.123806156 -0.07309194 -0.05520326 -0.061824694 -0.017689733 0.0025750126 -0.17271785 -0.018237744 0.044737436 0.058870424 0.0042387424 0.2716301 -0.031315904 -0.0021347583 0.060340844 -0.105415374 -0.09343672 -0.067369066 0.049704213 -0.061086368 -0.008145613 -0.07399452 0.06841284 0.05791074 0.14171706 -0.01477501 0.16315249 0.16024747 -0.115472816 0.07447121 -0.20542519 0.03555112 -0.052268893 0.09500385 -0.10898309 -0.17258875 -0.049441166
7 -0.029728673 -0.037066486 0.13785245 0.1964258 -0.12197139 -0.18283425 0.12729162 0.2752983 -0.06989647 -0.025886677 0.24604271 0.061067555 0.101763606 0.07693863 -0.15677242 -0.057964154 -0.037691366 0.14799519 -0.13038883 0.0017971247 0.21080077 0.17529677 0.279742 -0.1623414 0.10223008 0.13001552 -0.14470585 0.10295623 -0.09295743 -0.076446265 -0.06415837 -0.040419903 0.029931678 -0.19274609 -0.0064272415 0.06543095 0.048467144 0.0057946863 0.26896963 -0.036852404 -0.020362196 0.04787111 -0.109803654 -0.08845042 -0.074234165 0.04533803 -0.064147554 0.0007780381 -0.07030723 0.080390304 0.04499125 0.16463937 0.008801552 0.16229828 0.15962344 -0.11055741 0.06780854 -0.20345679 0.046009257 -0.046390936 0.081164 -0.10861316 -0.19239962 -0.05298781
5 -0.037529506 -0.02810501 0.13693836 0.19122449 -0.13100278 -0.18998155 0.16325048 0.27678064 -0.084088795 -0.018963251 0.27760628 0.07289977 0.07610049 0.07572943 -0.14607802 -0.056043584 -0.014362029 0.13979343 -0.1283139 0.015190153 0.20986192 0.18040408 0.26287666 -0.15003063 0.09641704 0.09551763 -0.14082709 0.11521884 -0.07953073 -0.07685191 -0.06770156 -0.034891885 0.03220049 -0.18503207 -0.030605124 0.06255418 0.078722164 -0.0108679645 0.26880854 -0.017124044 -0.0012186216 0.055647045 -0.08524436 -0.098689765 -0.08518931 0.053797662 -0.07087095 0.003029417 -0.050197758 0.075719714 0.046293877 0.16382752 0.007849943 0.14126553 0.17537755 -0.10022009 0.08452598 -0.21386889 0.05508581 -0.04104062 0.107562445 -0.10221112 -0.18972626 -0.035436988
8 -0.032084454 -0.0254781 0.17210543 0.21026117 -0.14249541 -0.17834155 0.14370601 0.28259158 -0.05323882 -0.032338247 0.26645172 0.06581235 0.11092552 0.044222176 -0.15673658 -0.057077654 -0.026806504 0.1423643 -0.12675153 0.036296688 0.19650464 0.1862445 0.29617327 -0.17862272 0.09812635 0.1507138 -0.13226318 0.1091818 -0.07686311 -0.06202357 -0.035952576 -0.018360283 -0.030499889 -0.20041393 -0.021441191 0.05971308 0.040382806 0.033082683 0.2931233 -0.028685698 0.010346231 0.054529604 -0.08292468 -0.081321895 -0.06628762 0.029287715 -0.055038422 -0.008658443 -0.09102354 0.05046816 0.08077819 0.14458203 0.0013579022 0.19515154 0.14257994 -0.12112077 0.060368408 -0.19242996 0.038446184 -0.066373535 0.09152934 -0.09616592 -0.17253682 -0.033360183
4 -0.035023447 -0.028003866 0.15532286 0.20377311 -0.14172834 -0.20127238 0.13811937 0.2712473 -0.07902475 -0.033795126 0.27397016 0.05992198 0.08346829 0.06827751 -0.15695305 -0.06722966 -0.02872304 0.1373577 -0.1428129 -0.018454751 0.21026799 0.1821691 0.26705447 -0.14042953 0.09702445 0.10746593 -0.13886978 0.123899974 -0.10297322 -0.07115952 -0.08254153 -0.036287315 0.03855669 -0.1786532 -0.015739158 0.043104522 0.07750399 -0.026388103 0.25773975 -0.02280477 -0.031960376 0.061945386 -0.10942185 -0.08842167 -0.08236756 0.045203187 -0.06944562 0.023793029 -0.04503002 0.079035915 0.037445106 0.14772364 -0.0111360755 0.14822786 0.17092592 -0.107178144 0.08356998 -0.21654159 0.022748519 -0.009025868 0.093447804 -0.10526581 -0.1760772 -0.058168355
