7 64
902 -0.050659917 0.03413833 0.19234972 0.20172751 -0.18970318 -0.22072832 0.1802392 0.26569307 -0.079798475 -0.0765106 0.33261603 0.06857115 0.06500005 0.032928318 -0.17957856 -0.11907867 -0.009212106 0.1237449 -0.116467215 -0.07624543 0.161059 0.17897807 0.24670446 -0.105162546 0.07001294 0.058004756 -0.090234645 0.18828152 -0.08114306 -0.033535074 -0.0929925 0.026627688 0.023616914 -0.14897354 -0.049280882 -0.0124181695 0.12423637 -0.080656104 0.21254246 -0.0021999408 -0.031688083 0.08971333 -0.13008448 -0.08641048 -0.07193296 0.029033454 -0.099185266 0.043429222 -0.007359782 0.12250501 0.0055031553 0.11316339 -0.0695175 0.124488056 0.18514872 -0.11322192 0.12923843 -0.2434097 -0.008022425 0.033381354 0.12628433 -0.074024186 -0.13102739 -0.07424934
7 -0.04632399 0.030346889 0.20263675 0.19320758 -0.17380022 -0.18024349 0.19432957 0.27050298 -0.042777635 -0.04794131 0.31570756 0.08611858 0.092699066 -8.076888e-05 -0.16317597 -0.082414605 0.0026032631 0.12852041 -0.088762835 0.029734876 0.1470034 0.18066369 0.27368137 -0.16167462 0.07065393 0.10758337 -0.08715759 0.1538579 -0.029223846 -0.024138998 -0.022126537 0.042550895 -0.07599652 -0.17019469 -0.065437615 0.020672446 0.075613275 0.015256645 0.2663929 -0.0064936443 0.048625518 0.07645386 -0.06415197 -0.08524892 -0.051122073 0.02032658 -0.06935197 -0.013769891 -0.07299622 0.056740567 0.07977129 0.10711146 -0.039399248 0.17679451 0.14418063 -0.12132864 0.08824769 -0.1951264 0.02888523 -0.06441954 0.12656017 -0.06407752 -0.1263497 -0.01885451
9 -0.046652053 0.037952602 0.21656314 0.17601313 -0.17242768 -0.19165204 0.19534458 0.25813103 -0.033515953 -0.024047574 0.32345054 0.097633965 0.0828742 -0.0063906866 -0.16959071 -0.06747173 0.005193194 0.13132408 -0.09046272 0.011735586 0.15803488 0.17928472 0.26973122 -0.16150554 0.07628887 0.09128996 -0.08795764 0.1677957 -0.02234369 -0.015933312 -0.04271601 0.04613017 -0.06742773 -0.1527583 -0.078011796 2.438604e-05 0.10276539 0.011218116 0.26257148 -0.024206692 0.044119064 0.099049404 -0.0710795 -0.11022635 -0.03813661 0.040231347 -0.073987424 -0.0037245045 -0.06666944 0.044802733 0.07540905 0.089078605 -0.06673392 0.16331376 0.16118202 -0.12832205 0.08931914 -0.19115275 0.013535316 -0.05528868 0.1195167 -0.07229022 -0.11460723 -0.029571999
6 -0.040031996 0.012911797 0.21082482 0.18525007 -0.1592782 -0.18617934 0.1706957 0.259734 -0.030890554 -0.016608512 0.30227607 0.08880323 0.096174285 -0.000107883636 -0.16254652 -0.053336386 -0.0072519737 0.13424495 -0.10563496 0.03171263 0.17380197 0.18322171 0.28057495 -0.17342345 0.08431812 0.1210389 -0.10572103 0.1440693 -0.03849868 -0.02764215 -0.036840655 0.022280684 -0.070191875 -0.16417867 -0.05899803 0.017172806 0.07857519 0.03048261 0.2822594 -0.027818253 0.0392206 0.08747394 -0.06461492 -0.101472296 -0.044156652 0.038747016 -0.05783728 -0.007525407 -0.08338497 0.023452353 0.093109824 0.09578032 -0.046879817 0.18176733 0.1484415 -0.12765881 0.06985305 -0.18121897 0.01476329 -0.06426601 0.10607726 -0.08391094 -0.12591891 -0.025332985
8 -0.04546253 0.021061331 0.20292695 0.16760671 -0.15507862 -0.18145958 0.20097168 0.25506052 -0.035289716 0.0014516244 0.31740266 0.10469652 0.07719302 -0.0030219124 -0.15085582 -0.042517655 0.013297789 0.13107444 -0.09338189 0.05757102 0.17158133 0.1830864 0.2668455 -0.17302543 0.07951397 0.0942268 -0.10302297 0.14721781 -0.013156901 -0.026681814 -0.03080358 0.028802043 -0.076708205 -0.1568082 -0.08253292 0.02169518 0.097638674 0.032560065 0.28581074 -0.01633958 0.069619976 0.09118285 -0.03555222 -0.115398474 -0.04732229 0.05102611 -0.060021188 -0.0192348 -0.07631224 0.012397704 0.1010205 0.09677519 -0.04194662 0.16371234 0.15778871 -0.1180829 0.07701571 -0.17977343 0.034504898 -0.080789894 0.12572092 -0.0786261 -0.12487174 -0.0021704307
5 -0.04298528 0.025207544 0.2277619 0.20623466 -0.19429672 -0.19649163 0.18921976 0.26229993 -0.044467546 -0.041597288 0.32192323 0.07493825 0.06559159 9.894164e-05 -0.16142756 -0.06627989 0.013020758 0.114246435 -0.124192804 0.0026182525 0.16742916 0.18980561 0.27159745 -0.14483722 0.08690126 0.09300166 -0.08691778 0.16427955 -0.056878176 -0.027505778 -0.052101944 0.03184974 -0.05610852 -0.16682205 -0.07222132 -0.0046369536 0.108121365 -0.0026875152 0.25840166 -0.020966029 0.013932367 0.10246073 -0.07324146 -0.096962385 -0.045547944 0.022821259 -0.076273255 0.030894376 -0.05184458 0.04216509 0.06886343 0.08480849 -0.06727774 0.17271566 0.15829197 -0.12962316 0.08747077 -0.1924457 -0.012120381 -0.0146365585 0.10855936 -0.06421656 -0.10855441 -0.038909983
4 -0.04514911 0.018673366 0.22462039 0.18353657 -0.16235806 -0.19340849 0.16950504 0.2489722 -0.028557653 -0.019789979 0.32205686 0.09320294 0.09999389 -0.024423586 -0.15955445 -0.06306073 -0.009566875 0.12994897 -0.10371273 0.0412607 0.164255 0.18823598 0.27075133 -0.1663464 0.06780261 0.122434504 -0.10518949 0.15351121 -0.03453381 -0.016059771 -0.03348398 0.027486267 -0.09218271 -0.14543106 -0.060379803 0.0062473672 0.08244712 0.019211767 0.29046696 -0.002206998 0.05388266 0.08841989 -0.04624036 -0.09045993 -0.05649386 0.03749039 -0.0443844 -0.012516416 -0.08027036 0.0010031416 0.114083804 0.07700829 -0.052531946 0.1817983 0.14119722 -0.11992768 0.07505552 -0.18648575 0.003976859 -0.058328997 0.12668675 -0.0860529 -0.10912564 -0.011216609
