7 64
902 -0.022291172 -0.038542364 0.17129117 0.25473937 -0.2119694 -0.19100662 0.17264771 0.2703027 -0.10902733 -0.053838372 0.25543737 0.003436707 -0.03346481 0.107319035 -0.11739149 -0.023702731 0.049333125 0.06652098 -0.22611232 -0.05659165 0.2313746 0.1928371 0.24628168 -0.07762425 0.14391245 0.032331705 -0.09561291 0.1162122 -0.16145623 -0.09844604 -0.11342409 -0.04976313 0.096644476 -0.20444475 -0.049806274 0.013573361 0.13840166 -0.058079526 0.17505373 -0.051783137 -0.11177656 0.09537875 -0.103677586 -0.09125715 -0.055988416 0.007573875 -0.11011439 0.14143108 0.029272921 0.08973024 -0.032461792 0.11799018 -0.035022777 0.11295078 0.17335966 -0.103916965 0.076928325 -0.1718451 -0.038093362 0.107206374 0.033010624 -0.040344983 -0.12950738 -0.085428156
9 -0.02262029 -0.05052331 0.1710582 0.24079368 -0.17715691 -0.1823413 0.144315 0.263215 -0.08496423 -0.037146907 0.24692348 0.020745886 0.022842348 0.076623075 -0.117271006 -0.023390722 0.016305719 0.08818016 -0.19763404 0.00039752747 0.22150537 0.19050269 0.2572209 -0.114384495 0.12808555 0.09284001 -0.12130438 0.098906696 -0.14111252 -0.09296897 -0.08265726 -0.057020545 0.03932961 -0.20866968 -0.030991083 0.037963312 0.09402182 -0.015223949 0.24219352 -0.03589435 -0.06576456 0.07746298 -0.07891614 -0.08066016 -0.070805155 0.014603041 -0.07387321 0.08875625 -0.02305169 0.043982916 0.03399763 0.12603785 -0.011086413 0.16113284 0.15719463 -0.10990792 0.059899528 -0.17812195 -0.017644927 0.04600297 0.054553103 -0.07112564 -0.1489409 -0.05687184
6 -0.023573859 -0.043718226 0.18854566 0.23350945 -0.17955865 -0.19435214 0.14310248 0.25821814 -0.075541615 -0.024124281 0.2569012 0.02954006 0.024023969 0.06725033 -0.12726821 -0.017795976 0.013446109 0.093514845 -0.19937702 -0.013296928 0.22911382 0.19273055 0.26136693 -0.118509375 0.13084346 0.09004673 -0.12289864 0.11216006 -0.13746333 -0.08424569 -0.0955663 -0.051866755 0.038209353 -0.19739231 -0.03731043 0.02153357 0.10953747 -0.016781026 0.24507193 -0.04755769 -0.068415694 0.093737826 -0.08686185 -0.09585275 -0.062123448 0.026643254 -0.07540393 0.09401827 -0.02332832 0.034667503 0.03551984 0.11148816 -0.03294401 0.15902205 0.16729572 -0.11805749 0.060664054 -0.17806222 -0.031680387 0.050891 0.05112537 -0.078953505 -0.1397594 -0.06585357
8 -0.017968467 -0.06574835 0.170318 0.22851332 -0.15776168 -0.18930745 0.11692428 0.2508721 -0.07724392 -0.01137289 0.23243664 0.02353163 0.029738799 0.07935672 -0.11811943 -0.0044984357 0.0008468634 0.09595184 -0.20797937 -0.0059296708 0.24290031 0.18905489 0.25737643 -0.120319515 0.13727184 0.10390159 -0.14189813 0.092408 -0.15261719 -0.09787466 -0.1015901 -0.07825741 0.054158453 -0.20163949 -0.020019876 0.035678547 0.09696953 -0.010925918 0.256147 -0.051387202 -0.07890479 0.08472699 -0.086720094 -0.09399875 -0.070769966 0.033740666 -0.064477615 0.09349682 -0.029194448 0.022400336 0.04172855 0.12255824 -0.01654168 0.16327883 0.16699734 -0.11476791 0.049227156 -0.17668766 -0.028892782 0.050573494 0.04094925 -0.094862945 -0.15591143 -0.06705266
7 -0.023504283 -0.059432138 0.17832404 0.23540537 -0.17473425 -0.19619448 0.14607674 0.25495067 -0.08808236 -0.01309666 0.25811708 0.027154973 0.0077470993 0.075432844 -0.11071997 -0.004957824 0.021245562 0.08637561 -0.21429725 0.004148712 0.24304868 0.19802226 0.25021675 -0.11028204 0.13451564 0.08132171 -0.13611044 0.10307269 -0.14838035 -0.0976376 -0.10205298 -0.07246883 0.050722286 -0.19962424 -0.038406186 0.031140769 0.11904314 -0.023914518 0.25572026 -0.035016973 -0.067934036 0.09161326 -0.06741281 -0.09682486 -0.07867635 0.03316825 -0.06977531 0.101237245 -0.013105347 0.017678443 0.043480437 0.117785454 -0.018803608 0.15205947 0.17404743 -0.107919455 0.060660012 -0.18216008 -0.028476728 0.060777355 0.05870931 -0.08468835 -0.14780132 -0.053937417
4 -0.018332181 -0.05473212 0.1954958 0.25112158 -0.19082832 -0.1846253 0.14231871 0.26117125 -0.07467983 -0.02715153 0.24547723 0.015548867 0.012242597 0.068421185 -0.11473984 -0.002693955 0.02566254 0.07973043 -0.21811423 0.0039056519 0.23349747 0.19821005 0.26693004 -0.118382886 0.14405982 0.09951532 -0.12077554 0.099780224 -0.15195274 -0.09351082 -0.08761438 -0.059991892 0.027688915 -0.21666506 -0.039205488 0.026535684 0.10467471 -0.0020061068 0.25182667 -0.052436963 -0.07526974 0.09532693 -0.07418877 -0.0897799 -0.05894327 0.012230629 -0.0734027 0.11046686 -0.026451174 0.018803645 0.0440071 0.109363064 -0.026935892 0.17820385 0.15929796 -0.123422965 0.048504658 -0.16594096 -0.0421667 0.060005892 0.038097575 -0.06938939 -0.13650227 -0.062592104
5 -0.022753254 -0.056938913 0.19036114 0.24444991 -0.17905623 -0.19945195 0.12319988 0.2517604 -0.081910945 -0.033028502 0.2570121 0.017918041 0.026396798 0.062328372 -0.11973875 -0.023274088 0.00446981 0.08651955 -0.21643564 -0.012041717 0.23271812 0.19850229 0.25475433 -0.10657548 0.12544023 0.101330996 -0.13230076 0.10697533 -0.15999864 -0.08802161 -0.100189924 -0.067999884 0.039919272 -0.19205679 -0.021596845 0.020626113 0.10286704 -0.031242883 0.24948412 -0.028524995 -0.07983382 0.08652115 -0.08003756 -0.07691873 -0.07986393 0.020011943 -0.0614663 0.10322123 -0.017027617 0.019150784 0.04560607 0.10428789 -0.025875168 0.16204068 0.15707612 -0.108707756 0.058298104 -0.18194434 -0.04670415 0.07254845 0.054711662 -0.08459074 -0.13454822 -0.06267842
