7 64
902 -0.010881016 -0.008241698 0.17658754 0.20842424 -0.19418947 -0.20228852 0.09561441 0.21570303 -0.07070788 -0.052735135 0.19533058 -0.007600977 -0.018734276 0.102107674 -0.15376018 -0.03580628 0.0044032806 0.070476234 -0.20074926 -0.20210849 0.20572178 0.14293624 0.21870838 -0.048301104 0.14786312 0.017852105 -0.07102105 0.14724602 -0.17769425 -0.068501204 -0.17778148 -0.030529844 0.15910321 -0.15802705 -0.0247865 -0.057179376 0.15800746 -0.09507246 0.09364676 -0.12624851 -0.20340575 0.13136528 -0.2164051 -0.113639414 -0.0010593045 0.021672904 -0.13433217 0.18618277 0.04750578 0.14221932 -0.110118434 0.07735212 -0.12110287 0.08599166 0.19484304 -0.13696316 0.07995053 -0.16832285 -0.11057697 0.17458771 -0.03472937 -0.05596921 -0.09929578 -0.18482667
9 -0.036690123 -0.012265238 0.18643299 0.21367247 -0.17961301 -0.21610692 0.14730129 0.24872245 -0.08492443 -0.045119435 0.29095852 0.04385529 0.033712044 0.055721935 -0.148463 -0.06596753 -0.0022900084 0.10373989 -0.16959803 -0.06359297 0.20359373 0.1835674 0.23754129 -0.09408852 0.09877317 0.060713854 -0.11264333 0.14963658 -0.12404566 -0.06191208 -0.11404409 -0.027138604 0.057156805 -0.15639818 -0.035425592 -0.003984712 0.12808697 -0.07120305 0.2130782 -0.02067178 -0.06914642 0.093145885 -0.11253575 -0.089817226 -0.07446772 0.035471126 -0.08361081 0.08311598 0.0028667005 0.07443786 0.009479341 0.104300715 -0.055041872 0.12067316 0.17928305 -0.1049058 0.09631627 -0.210633 -0.0328897 0.06906659 0.083792426 -0.08273524 -0.12936704 -0.07695307
6 -0.030528514 0.013241752 0.22261895 0.20391828 -0.19222888 -0.21734092 0.12967528 0.23705378 -0.04843163 -0.042255323 0.27504364 0.04424087 0.044818833 0.035041705 -0.17382474 -0.060373925 -0.010323784 0.10585184 -0.15813087 -0.11200147 0.18965758 0.16962178 0.25094077 -0.10316497 0.108558565 0.068414554 -0.08712099 0.168539 -0.11450928 -0.035272487 -0.12302556 0.004315886 0.042333405 -0.14401756 -0.041051913 -0.043975975 0.13278322 -0.054045476 0.18581617 -0.071285374 -0.09188033 0.12204739 -0.15349896 -0.10705438 -0.024906866 0.032707483 -0.09577641 0.0992715 -0.009604761 0.08114331 -0.008799408 0.06764768 -0.10902769 0.1320788 0.17689522 -0.13579755 0.08494904 -0.18665186 -0.07200264 0.07736487 0.043059234 -0.0757404 -0.09673899 -0.11610538
7 -0.03134117 -0.0065127644 0.21473794 0.21321507 -0.18099701 -0.22072102 0.120532274 0.24538541 -0.05706657 -0.040361527 0.27859122 0.04442078 0.059643652 0.038993176 -0.16867843 -0.06173247 -0.021981724 0.11364441 -0.16667211 -0.0852791 0.20283908 0.17936692 0.2572033 -0.11145454 0.10470193 0.08969343 -0.108964965 0.15442258 -0.12370138 -0.045996834 -0.11605095 -0.016327757 0.03832543 -0.15017928 -0.025930798 -0.022794388 0.11484616 -0.04996444 0.21361762 -0.05168635 -0.08117025 0.1053181 -0.13777418 -0.095101476 -0.047964595 0.03522534 -0.07906409 0.08378833 -0.019832088 0.06504734 0.01432164 0.082243964 -0.08216486 0.14249377 0.17023794 -0.12589525 0.08022643 -0.19487207 -0.057701714 0.06363615 0.056443192 -0.09015396 -0.114176154 -0.09918484
8 -0.034656253 -0.018948795 0.1856288 0.20321341 -0.1722082 -0.22579204 0.14002542 0.23940076 -0.08540558 -0.024030296 0.28797895 0.0469038 0.022330135 0.062997006 -0.14773908 -0.04962283 -0.0031114765 0.10495304 -0.18158855 -0.07820289 0.22291139 0.18355544 0.2323769 -0.09022808 0.10793706 0.048698112 -0.12299685 0.15200478 -0.1320529 -0.06597779 -0.13728043 -0.04025171 0.081272095 -0.14685066 -0.03695014 -0.012429113 0.14758925 -0.07951937 0.21081752 -0.033827133 -0.08375851 0.10577321 -0.11955247 -0.10739064 -0.072233446 0.053380378 -0.08553155 0.09664703 0.012389704 0.06543 0.0020452333 0.098649204 -0.06623909 0.10627201 0.19490923 -0.105845466 0.09501866 -0.20988375 -0.04351598 0.08433931 0.074032776 -0.09472686 -0.12969646 -0.08749754
5 -0.03193969 -0.005955804 0.22242767 0.22465925 -0.19848812 -0.21476969 0.14355604 0.248046 -0.0625214 -0.042242263 0.28761423 0.039645202 0.035050824 0.036470912 -0.1545734 -0.051238943 0.0031738868 0.097656146 -0.17870006 -0.064725794 0.20255697 0.18718635 0.25454962 -0.10526757 0.11060097 0.07673882 -0.10010997 0.15359463 -0.12404227 -0.05085959 -0.10860908 -0.01400357 0.026721193 -0.16165143 -0.04373253 -0.022202855 0.12790792 -0.0464265 0.21629882 -0.04476083 -0.07366785 0.11166659 -0.114177115 -0.095281616 -0.048657373 0.02560801 -0.08307687 0.097432286 -0.011396137 0.05278916 0.0203794 0.07767819 -0.07999995 0.14575206 0.16963552 -0.12466211 0.080361694 -0.18833989 -0.060713895 0.07190433 0.060728673 -0.07397072 -0.1055008 -0.08591585
4 -0.039558057 -0.0037490448 0.22970153 0.22151297 -0.19061838 -0.23105064 0.13415813 0.24622767 -0.06387256 -0.04714467 0.313854 0.051060513 0.060850453 0.017276313 -0.16354237 -0.074444294 -0.017823128 0.110290214 -0.16989866 -0.059599858 0.19832641 0.1936733 0.25262612 -0.10697482 0.088330336 0.09133485 -0.11341201 0.1646033 -0.12040411 -0.040403523 -0.10767916 -0.013711486 0.011679626 -0.14180414 -0.031835746 -0.024405226 0.12072209 -0.062080625 0.2360041 -0.013885863 -0.056500122 0.10301887 -0.10760516 -0.08225641 -0.0714964 0.03230759 -0.06584183 0.07570869 -0.01618328 0.041199956 0.043624647 0.073521495 -0.0773359 0.1474778 0.16641493 -0.11539313 0.090491034 -0.20936011 -0.05883935 0.06485767 0.09103431 -0.09161647 -0.105822444 -0.07388014
