7 64
902 -0.02340307 -0.007887597 0.21155526 0.2990282 -0.25086656 -0.17825638 0.14530258 0.2803703 -0.08538843 -0.14440623 0.25408942 -0.025030887 0.023998234 0.058190305 -0.14217857 -0.095732376 0.022114705 0.058354575 -0.20084825 -0.07600589 0.15836926 0.18831503 0.26785892 -0.07591459 0.11717848 0.09858174 -0.05611393 0.13374 -0.17367981 -0.070756614 -0.06985402 -0.0024668318 0.020051228 -0.2290199 -0.022774205 -0.0035642188 0.07920292 -0.053756867 0.17421089 -0.030555928 -0.122067794 0.07825718 -0.1346542 -0.024720868 -0.050574776 -0.06445968 -0.1051646 0.13856693 0.0003246872 0.12198846 -0.019049015 0.10344543 -0.048813462 0.18827611 0.12549134 -0.12947848 0.081429325 -0.18721682 -0.07338935 0.11698 0.03822077 -0.013144785 -0.10498259 -0.10211678
7 -0.03188559 -0.021543663 0.16803451 0.2444565 -0.17919736 -0.17910765 0.1447151 0.28062874 -0.081686325 -0.08684229 0.26474357 0.02751508 0.07396724 0.059047572 -0.1452099 -0.08663445 -0.010175564 0.10781968 -0.15205678 -0.010363916 0.17604473 0.18399118 0.26955938 -0.12390444 0.094903134 0.119124934 -0.10514068 0.11631258 -0.119022496 -0.07070765 -0.05122627 -0.018931407 0.0064463085 -0.20590834 -0.014548823 0.04287433 0.05383316 -0.022096252 0.23713696 -0.008484474 -0.042708743 0.050219662 -0.10087974 -0.047334436 -0.07789748 -0.00844039 -0.07388693 0.045039374 -0.041765045 0.09283387 0.033098895 0.1404983 -0.0034290962 0.17651078 0.13646793 -0.10958546 0.07952115 -0.2035797 0.005771623 0.01304332 0.085214324 -0.06414737 -0.15466349 -0.054993298
6 -0.03621919 -0.023405245 0.15204433 0.19061019 -0.13181953 -0.19449931 0.15890667 0.28287524 -0.06927047 -0.011620243 0.27589667 0.07962136 0.09173795 0.06907519 -0.16018492 -0.05235671 -0.023086667 0.1510926 -0.122556485 0.009657989 0.21299694 0.18038867 0.28001785 -0.16757755 0.10184424 0.11062084 -0.14142142 0.11953726 -0.0720742 -0.06928384 -0.066460915 -0.026679857 0.020589001 -0.1859801 -0.030443246 0.057301737 0.073397845 0.0062546073 0.27669165 -0.0365542 0.0006731875 0.063043475 -0.09795037 -0.1088553 -0.07012817 0.058612727 -0.071280345 -0.0039844317 -0.066871814 0.0736205 0.05072826 0.15918453 -0.0044943206 0.15434398 0.1763263 -0.11397284 0.07777973 -0.2086768 0.051682215 -0.056136355 0.09703886 -0.10803601 -0.18878219 -0.044743218
9 -0.028071104 -0.040183708 0.14347412 0.20646782 -0.13362473 -0.1904767 0.12786074 0.2769531 -0.0763888 -0.028814688 0.24661048 0.0522697 0.085865654 0.08523575 -0.15411687 -0.053219978 -0.031219656 0.13886735 -0.14600833 -0.016479298 0.21737067 0.17612603 0.27456212 -0.1489822 0.11019981 0.11783871 -0.14156401 0.105269544 -0.108441725 -0.081085294 -0.078654945 -0.046268236 0.04871932 -0.19314563 -0.0075943493 0.05608724 0.06198746 -0.007022034 0.25416514 -0.04394469 -0.042567328 0.055914283 -0.11799239 -0.09091041 -0.07154513 0.043202616 -0.07129474 0.024503427 -0.055182915 0.08456572 0.029496437 0.15929283 -0.00028915258 0.154629 0.1657851 -0.11173947 0.069122374 -0.2021652 0.03002674 -0.018888967 0.06997579 -0.104705244 -0.18725246 -0.06574102
4 -0.03335814 -0.034968995 0.14450432 0.21962993 -0.15554897 -0.18522348 0.1674875 0.28385398 -0.09272815 -0.03869863 0.27068877 0.05028019 0.054483607 0.08418115 -0.13679677 -0.05301027 0.001972021 0.12065622 -0.15451023 0.011515956 0.21204406 0.18725474 0.2663042 -0.13665292 0.109437145 0.093302816 -0.13099933 0.10992992 -0.10464973 -0.08813626 -0.06788534 -0.040469535 0.037659194 -0.20680225 -0.03206911 0.061603308 0.081623204 -0.014975082 0.25878063 -0.019682297 -0.025110677 0.058203794 -0.08531052 -0.087519415 -0.08411888 0.03148238 -0.07932314 0.034549333 -0.038193323 0.080944546 0.03513584 0.16342369 0.009409871 0.15186477 0.1702852 -0.10395308 0.08154531 -0.20869689 0.037670005 -0.010401476 0.09337587 -0.084211566 -0.18378611 -0.04254407
5 -0.03053306 -0.027610265 0.17730762 0.23949294 -0.17723748 -0.183414 0.15831447 0.28615892 -0.07547741 -0.056059398 0.2696393 0.03980121 0.065661006 0.06145904 -0.14368962 -0.05767219 2.376934e-05 0.11334963 -0.15999179 0.008676218 0.19881706 0.19118814 0.28157833 -0.14181247 0.110793374 0.11768878 -0.11618997 0.11447088 -0.110379405 -0.07549086 -0.055257324 -0.025045775 0.0026022398 -0.21222301 -0.029947316 0.046211775 0.0684353 -0.00031438703 0.25901425 -0.026929872 -0.03075148 0.06488783 -0.088942945 -0.073973 -0.068896264 0.009571811 -0.07473842 0.044190552 -0.05122347 0.06926274 0.0463618 0.14011276 -0.0074636727 0.18062909 0.15037946 -0.118061185 0.070670284 -0.19472268 0.010721905 -0.0035267828 0.0794991 -0.07218325 -0.15993702 -0.049508717
8 -0.03689939 -0.037707537 0.16244462 0.21210718 -0.13965861 -0.20738174 0.13183525 0.27333125 -0.07982963 -0.0331528 0.28417078 0.06113043 0.09473031 0.057250988 -0.1525801 -0.06893307 -0.036089655 0.13894689 -0.14885189 0.0031584746 0.21411298 0.19071259 0.2695086 -0.14481182 0.09000445 0.12451245 -0.15053521 0.11922242 -0.10715278 -0.0711123 -0.07546493 -0.04516144 0.02140382 -0.17532684 -0.008026707 0.04884211 0.06744743 -0.023949146 0.2789471 -0.00380123 -0.019674866 0.054776452 -0.091416255 -0.0770252 -0.09753711 0.044656612 -0.052611914 0.014280622 -0.052622203 0.054783348 0.06296893 0.14401823 -0.00055741594 0.15863833 0.16182508 -0.100887045 0.07963558 -0.21956399 0.022336049 -0.014657338 0.106273584 -0.11377092 -0.17568165 -0.043149594
