7 64
902 -0.02078076 0.00056885666 0.16457978 0.25893632 -0.24240108 -0.18070836 0.1726087 0.26310202 -0.107305564 -0.10711947 0.22015497 -0.021601366 -0.050346825 0.11859782 -0.1284667 -0.061650462 0.054421764 0.0455854 -0.18980981 -0.14579673 0.16995856 0.15112646 0.21379083 -0.034439977 0.13921542 -0.0062685004 -0.038913757 0.13509567 -0.1624175 -0.086164504 -0.12440435 -0.009458783 0.13332364 -0.20545731 -0.05063505 -0.017462516 0.14437556 -0.09150423 0.085989855 -0.08077457 -0.16605546 0.10160265 -0.17180349 -0.08109979 -0.020488985 -0.025570985 -0.154184 0.1777446 0.0601907 0.18188958 -0.1152468 0.118147954 -0.0707201 0.094597325 0.17689107 -0.11928231 0.09831784 -0.1755848 -0.061886806 0.15721536 0.0020011384 -0.002704364 -0.11519911 -0.14285439
6 -0.01645697 -0.028977036 0.19674835 0.23270151 -0.1749771 -0.19384694 0.091534115 0.25605205 -0.052536108 -0.05453732 0.22503746 0.01621279 0.06953715 0.06573047 -0.16557233 -0.049824618 -0.029193196 0.1103306 -0.18345402 -0.08601127 0.2095839 0.17443559 0.2807095 -0.12369531 0.12902102 0.124245666 -0.1089259 0.121552736 -0.15079485 -0.06523313 -0.10333145 -0.03295002 0.047902964 -0.18975444 -0.0024068912 -0.0004583352 0.07546596 -0.018684508 0.20828053 -0.08370709 -0.11315772 0.08974402 -0.15939558 -0.08107297 -0.032409783 0.011500946 -0.08181444 0.09532907 -0.039212063 0.08173052 0.00039745343 0.10243032 -0.060980756 0.17215814 0.15045802 -0.13851354 0.054174364 -0.17348658 -0.056945328 0.059699815 0.01170837 -0.08147826 -0.13010973 -0.117205836
9 -0.015586525 -0.018724892 0.2003622 0.22367756 -0.18006758 -0.20115678 0.08791012 0.24623032 -0.050353993 -0.052606847 0.21920691 0.014146085 0.056034874 0.069653474 -0.17071743 -0.049022604 -0.02791633 0.10563287 -0.18097655 -0.12563905 0.2056497 0.16297549 0.26674503 -0.10781575 0.13135025 0.10069431 -0.09734965 0.13242511 -0.15259977 -0.058855165 -0.12368084 -0.026292372 0.07258963 -0.17330188 -0.0059387246 -0.021671161 0.094111055 -0.035865165 0.17549978 -0.10081028 -0.13603346 0.10304147 -0.182164 -0.09201118 -0.01748648 0.017436808 -0.094093606 0.11386358 -0.021946961 0.09776698 -0.028425043 0.08956553 -0.085220024 0.1501023 0.16005097 -0.14127283 0.059128713 -0.16919214 -0.07430585 0.08481525 -0.0039825235 -0.0782235 -0.11761582 -0.14006498
5 -0.010817752 -0.038965173 0.17960192 0.22613455 -0.16764536 -0.1928811 0.074847825 0.24136625 -0.05910232 -0.047270175 0.19618477 0.0035453157 0.04842136 0.08625019 -0.15511653 -0.03697903 -0.028530726 0.09985609 -0.19202994 -0.11494305 0.21514706 0.16008586 0.2580353 -0.10195868 0.13641457 0.10195563 -0.10744803 0.11078088 -0.16621861 -0.074025795 -0.124843076 -0.04916515 0.090866014 -0.17958747 0.005363714 -0.005728548 0.08475943 -0.03465592 0.1743413 -0.09861161 -0.14532126 0.09120173 -0.1747738 -0.085639276 -0.026674448 0.017460238 -0.08804857 0.11795321 -0.018542027 0.09255456 -0.030195678 0.10103282 -0.06404293 0.14528756 0.15536416 -0.13143209 0.050376743 -0.16312152 -0.06747766 0.089115016 -0.0125951385 -0.081318386 -0.12897564 -0.13597882
7 -0.018201549 -0.041368652 0.19793823 0.2260769 -0.16838998 -0.20451763 0.09877972 0.2497708 -0.058861688 -0.026486823 0.2392004 0.026100887 0.054534376 0.066478446 -0.15511277 -0.028743029 -0.021442205 0.11044676 -0.19950086 -0.06608001 0.23450612 0.18530151 0.27553165 -0.12452749 0.13395113 0.11357058 -0.12796177 0.12076913 -0.15276012 -0.07319926 -0.11733101 -0.051484082 0.055985928 -0.18492429 -0.012041438 0.0018422058 0.09846906 -0.022900863 0.2311745 -0.07667446 -0.10460344 0.09944731 -0.13748093 -0.09737513 -0.045894902 0.031959113 -0.07534369 0.099860154 -0.03209222 0.051480573 0.016988033 0.10083394 -0.058475703 0.1633537 0.16692774 -0.13261394 0.05483515 -0.17851989 -0.056473363 0.063592106 0.023159895 -0.09572023 -0.13510133 -0.10407757
4 -0.01519533 -0.030679855 0.2045851 0.24585655 -0.19776282 -0.19233641 0.11138183 0.25258678 -0.061406333 -0.054324508 0.22696717 0.004885208 0.029689355 0.069557324 -0.14698005 -0.03306013 0.0004581028 0.086233705 -0.2039559 -0.08169995 0.21259135 0.17848212 0.26757973 -0.104434654 0.1394681 0.09714768 -0.09691625 0.120728254 -0.16042644 -0.07289762 -0.10911337 -0.03599717 0.054974757 -0.19632426 -0.02089311 -0.008155678 0.100296065 -0.02644262 0.19466679 -0.08344398 -0.12322069 0.102435365 -0.1425051 -0.084934235 -0.029753886 0.003393538 -0.09110151 0.12682517 -0.017030118 0.07242253 -0.008194344 0.09220166 -0.066702716 0.16344933 0.15502273 -0.13611357 0.05484875 -0.1636119 -0.07220468 0.09011662 0.005524653 -0.063157976 -0.11630758 -0.11461847
8 -0.019151554 -0.02149071 0.19055337 0.24309549 -0.20029725 -0.20092905 0.10605022 0.24603754 -0.07571707 -0.07622285 0.22724205 -0.0024045617 0.02324008 0.07677161 -0.1481798 -0.05973604 -0.0064220377 0.08059569 -0.19349344 -0.12112728 0.19423969 0.16536316 0.2405623 -0.07423829 0.12354523 0.072390296 -0.086767815 0.13045056 -0.16742766 -0.06916522 -0.12379324 -0.032191932 0.08694545 -0.17601274 -0.011052842 -0.019110378 0.10659932 -0.067194656 0.15569742 -0.06863292 -0.1437927 0.09491259 -0.16326812 -0.07186215 -0.038743425 -0.00014339811 -0.09917671 0.13526294 0.010101969 0.10724349 -0.04074399 0.0932449 -0.071351394 0.13299076 0.15759215 -0.12260745 0.07338208 -0.17827938 -0.07710892 0.120490834 0.0121031245 -0.05895268 -0.1128195 -0.12933882
