7 64
902 -0.0247749 -0.04781869 0.11775681 0.2303204 -0.15672812 -0.18785322 0.1571292 0.2973181 -0.1117924 -0.045965407 0.23882379 0.030612808 0.035934083 0.13724872 -0.14243971 -0.048737712 -0.00018600459 0.12056321 -0.17352243 -0.04544113 0.23257433 0.17689796 0.26712576 -0.12089447 0.13581236 0.07324575 -0.13253736 0.10071695 -0.1383449 -0.112506874 -0.1014133 -0.06171076 0.1148746 -0.22754806 -0.018123727 0.066815734 0.0902986 -0.03488938 0.22096373 -0.058316756 -0.08704966 0.05916715 -0.13869296 -0.09989707 -0.07397206 0.0333329 -0.10866731 0.07042834 -0.015846292 0.1375429 -0.027348233 0.19342971 0.010057653 0.13257517 0.19393449 -0.11173988 0.086004995 -0.21900783 0.036164995 0.02462083 0.056583755 -0.086473286 -0.21516302 -0.0882058
9 -0.03052396 -0.043267403 0.16983557 0.21127969 -0.1448489 -0.17527024 0.1588434 0.2705236 -0.0643113 -0.007654212 0.2708882 0.062405117 0.07059259 0.047127526 -0.12574212 -0.022263896 0.0017961004 0.12113269 -0.1548832 0.07193735 0.21655716 0.1963194 0.27819225 -0.16571245 0.108059704 0.12817094 -0.14051947 0.09616892 -0.08522724 -0.07676545 -0.04124959 -0.041203886 -0.027193468 -0.20074163 -0.038749266 0.06403025 0.06565615 0.032882743 0.30426246 -0.016418707 0.017563257 0.06342254 -0.038605176 -0.089676976 -0.078474015 0.036597513 -0.047612354 0.011804222 -0.07398516 0.0066488367 0.09822589 0.13559118 0.011190273 0.18463017 0.14853536 -0.10867705 0.0535539 -0.18028542 0.03267192 -0.048787296 0.09554638 -0.09274022 -0.16515869 -0.009662441
7 -0.0344211 -0.030684762 0.21129249 0.17514002 -0.13236423 -0.18504298 0.15761074 0.23875792 -0.027938927 0.04423328 0.2960577 0.09541316 0.07918926 -0.007763786 -0.12631711 0.008315518 0.0017125058 0.12724198 -0.14332297 0.105943836 0.22121345 0.20197582 0.2755747 -0.18767 0.09777642 0.13506624 -0.1472495 0.11200309 -0.047395866 -0.046289872 -0.038798388 -0.026869338 -0.086181074 -0.15994638 -0.062694006 0.035855938 0.086915724 0.059682142 0.34082103 -0.016247012 0.06587391 0.0926984 0.0018541233 -0.11603735 -0.06537478 0.06686783 -0.02038175 -0.009175426 -0.09538383 -0.07473895 0.15611815 0.08254288 -0.023155866 0.18958253 0.14696033 -0.11381948 0.039214745 -0.15672705 0.012742015 -0.07615279 0.10789152 -0.109695286 -0.12516446 0.016346825
6 -0.022970468 -0.059071552 0.15991938 0.21324252 -0.137664 -0.17588863 0.13905767 0.26879945 -0.06687085 0.0012481326 0.24306452 0.050921924 0.06353556 0.06941444 -0.12382013 -0.0067316247 -0.0042453697 0.120007545 -0.17015627 0.049404338 0.23338664 0.18973148 0.27694944 -0.16085508 0.123916894 0.12689276 -0.14755876 0.08299516 -0.10541682 -0.088877566 -0.05998518 -0.061161 0.008140035 -0.20635357 -0.026631126 0.06572191 0.0660019 0.03182615 0.2907113 -0.041237008 -0.015131788 0.065314256 -0.059977416 -0.097091034 -0.070792206 0.042192373 -0.052497115 0.030633053 -0.06871281 0.01455652 0.07697305 0.14154862 0.010893589 0.17759494 0.15411118 -0.11184015 0.043691996 -0.17232274 0.024084305 -0.031567905 0.066414885 -0.09943007 -0.17409234 -0.031041684
5 -0.033041097 -0.046613745 0.1675487 0.18429995 -0.12571546 -0.17581666 0.16409358 0.25104582 -0.058861464 0.02841928 0.2811807 0.08102429 0.062453542 0.033975236 -0.11334386 0.000571001 0.008043257 0.12243544 -0.15088578 0.10204177 0.22689588 0.19822112 0.26456136 -0.17086811 0.102902345 0.11721393 -0.15298328 0.09454026 -0.066044025 -0.073063865 -0.042754628 -0.04812028 -0.038878668 -0.18023367 -0.052221064 0.06379088 0.081619956 0.040105 0.32393664 -0.0065431986 0.04724177 0.07089711 -0.0052715275 -0.106256224 -0.08482619 0.060766786 -0.03339982 -0.0021424126 -0.07578885 -0.03491157 0.12560323 0.12329443 0.01158074 0.17187056 0.15504748 -0.09911381 0.049552284 -0.17272969 0.039558202 -0.06502315 0.110387914 -0.10490024 -0.15860355 0.014474654
4 -0.025907476 -0.04818682 0.18556665 0.21894746 -0.15888995 -0.18091159 0.15751322 0.2643634 -0.06303026 0.0021361904 0.26625326 0.05311104 0.04569827 0.050314147 -0.120311685 -0.0011890064 0.014679915 0.10782054 -0.17989942 0.056777157 0.23137356 0.19968742 0.2759773 -0.15542236 0.12473382 0.115376145 -0.13713868 0.09786026 -0.10202145 -0.08091069 -0.06039826 -0.04924012 -0.013083032 -0.20293634 -0.047106393 0.048120994 0.08850685 0.029119385 0.2951005 -0.03533828 -0.007228538 0.08303416 -0.042234264 -0.10158133 -0.066926 0.037800845 -0.05414147 0.045640808 -0.060407333 -0.0061075417 0.08799853 0.118869446 -0.0077553694 0.18079343 0.15651591 -0.11583136 0.047319826 -0.16876662 0.005087502 -0.016895408 0.07399902 -0.08857896 -0.15162411 -0.023714086
8 -0.034887716 -0.04340326 0.20260923 0.18828388 -0.13220772 -0.19205897 0.14406063 0.2396581 -0.04307278 0.02924376 0.29614326 0.08327992 0.07953884 8.597861e-06 -0.120965496 -0.0047343313 -0.00723229 0.12281796 -0.15706782 0.09781625 0.22417912 0.20512635 0.26690215 -0.17162217 0.09196445 0.13775049 -0.155983 0.10729582 -0.070894666 -0.054983616 -0.046532657 -0.04350138 -0.06809197 -0.1577645 -0.045199264 0.040070325 0.080969624 0.03625998 0.33631313 0.003328377 0.048937347 0.08065651 -0.00073690887 -0.09722581 -0.08630806 0.060495943 -0.014260965 -0.0003795252 -0.08264927 -0.06961863 0.1517631 0.08876402 -0.010604959 0.1847131 0.14340758 -0.102311626 0.044414856 -0.16984503 0.0072573693 -0.052746225 0.11418262 -0.11467357 -0.13124672 0.014624884
