7 64
902 -0.010529363 -0.01605499 0.14486463 0.15495652 -0.17088914 -0.1822116 0.15733567 0.18910469 -0.080710866 0.03679394 0.19053754 0.022075517 -0.10341272 0.12989894 -0.10847523 0.049933106 0.07118266 0.053866003 -0.20375626 -0.14510195 0.24293521 0.13770206 0.17889501 -0.044361036 0.17526959 -0.068539366 -0.08142794 0.13320675 -0.1382222 -0.09332032 -0.19675249 -0.05175798 0.19381864 -0.155494 -0.09209339 -0.042396206 0.23467687 -0.07381256 0.102303565 -0.15078424 -0.16674553 0.17031817 -0.15589629 -0.19669713 0.0082884235 0.080216624 -0.15698756 0.20259164 0.07528417 0.098359965 -0.1102941 0.0896254 -0.11769638 0.034233585 0.25281146 -0.12789273 0.07866405 -0.14681605 -0.074652314 0.15809256 -0.030786598 -0.058239743 -0.11890788 -0.15275446
9 -0.026911218 -0.04067297 0.17766182 0.21841653 -0.17868438 -0.20004527 0.17291835 0.25814396 -0.088251665 -0.00068631413 0.2711073 0.0422038 -0.007919097 0.083256654 -0.1205437 -0.0006446564 0.03536522 0.091852 -0.20186359 -0.013960832 0.24491078 0.19383778 0.24950588 -0.11184229 0.13917232 0.049755353 -0.12448106 0.11869806 -0.1261618 -0.09106 -0.1112581 -0.054513913 0.0648098 -0.19147165 -0.06037534 0.020885019 0.14450736 -0.027698942 0.23688914 -0.052108187 -0.06209351 0.10486795 -0.076867454 -0.1210235 -0.06105987 0.04661751 -0.08837952 0.099471174 -0.003417905 0.038058855 0.02073399 0.11676932 -0.035897784 0.12745342 0.19076608 -0.11088818 0.070777476 -0.17948225 -0.0186481 0.053378783 0.057582017 -0.076766774 -0.14330336 -0.06022932
6 -0.029957665 -0.026601015 0.19753589 0.19627196 -0.17405866 -0.2101999 0.18104413 0.2506104 -0.070507705 0.027439719 0.28820747 0.06530204 -0.0028749586 0.064641826 -0.13202526 0.011801006 0.034827154 0.103215314 -0.18911317 -0.014194769 0.24977256 0.19375436 0.2537703 -0.12694578 0.13832897 0.044727527 -0.12475686 0.1341537 -0.10036226 -0.07425775 -0.11657697 -0.039849423 0.04771291 -0.17167908 -0.07656341 0.0041226926 0.16167293 -0.016013581 0.24712701 -0.065266035 -0.041487273 0.123537265 -0.07312162 -0.14534737 -0.04554664 0.06790295 -0.08585786 0.08672293 -0.013274418 0.017138004 0.034132678 0.09672454 -0.060506508 0.12287951 0.20036103 -0.1190644 0.0693837 -0.17260005 -0.022207458 0.03437413 0.060558267 -0.08595037 -0.12949564 -0.05761747
7 -0.01932293 -0.045657344 0.16553259 0.19042501 -0.15762214 -0.20202832 0.14099962 0.22925742 -0.08023258 0.025374068 0.236924 0.038753726 -0.020474155 0.097022444 -0.12073579 0.020575177 0.025260737 0.09064916 -0.20586473 -0.05933591 0.25717455 0.17497656 0.22901405 -0.09735938 0.14927775 0.029599981 -0.12826204 0.116090916 -0.13672106 -0.091465816 -0.14702946 -0.06901178 0.11179694 -0.16799808 -0.05279443 0.0019303549 0.16248402 -0.040183112 0.20438407 -0.086219124 -0.1001082 0.12158434 -0.10770695 -0.1450079 -0.043705165 0.070031844 -0.09554291 0.123817146 0.012127637 0.041531235 -0.010553187 0.10491116 -0.059922293 0.09860911 0.20784664 -0.11415117 0.064277895 -0.16796805 -0.040317893 0.082208626 0.023673149 -0.091218874 -0.13942464 -0.09286671
5 -0.028871536 -0.04677016 0.1632544 0.17615226 -0.15184557 -0.20695375 0.1771154 0.22496293 -0.090959884 0.051916838 0.27533552 0.0617959 -0.03899373 0.08354676 -0.10179339 0.033878423 0.046715096 0.08834434 -0.20365985 -0.0058831223 0.26595902 0.18868834 0.21496011 -0.09947866 0.13789247 0.008301355 -0.13959594 0.1188399 -0.11151706 -0.09188219 -0.13770793 -0.072343975 0.08990135 -0.1550499 -0.07778747 0.011801984 0.18497927 -0.04118451 0.23588464 -0.048870195 -0.048751675 0.12076083 -0.04947541 -0.15189947 -0.0671824 0.08725932 -0.08064685 0.10096341 0.017283523 -2.328844e-05 0.02699072 0.1010209 -0.043837715 0.083277434 0.21336946 -0.09359353 0.072276965 -0.17268534 -0.016996028 0.059256617 0.06649481 -0.09400325 -0.13605559 -0.045597345
4 -0.022052104 -0.03835798 0.18359777 0.20395064 -0.18007043 -0.18794146 0.17491576 0.23393668 -0.07702172 0.020383988 0.25505355 0.03910726 -0.0375897 0.07548769 -0.10352843 0.02972576 0.056301236 0.07250672 -0.20760322 -0.009743212 0.24337472 0.18613264 0.2315642 -0.10157707 0.14749388 0.02821059 -0.11143651 0.11388838 -0.1197675 -0.08721567 -0.11534604 -0.05272907 0.06101381 -0.18107533 -0.0782476 0.0056572664 0.1638798 -0.018066965 0.22059713 -0.06742094 -0.063743085 0.12249729 -0.060118914 -0.13470449 -0.042147428 0.049919322 -0.08940327 0.11909401 0.005685561 0.011609425 0.019849466 0.090984665 -0.052479357 0.11644334 0.18936737 -0.11184839 0.05901333 -0.15136045 -0.03663439 0.06661576 0.038924363 -0.0650557 -0.118747205 -0.05859989
8 -0.028893333 -0.04073687 0.18898511 0.19793683 -0.16923867 -0.21653372 0.16179821 0.23383549 -0.082974866 0.02580338 0.2827029 0.052721817 -0.016588436 0.06879264 -0.1187014 0.011926635 0.031106532 0.09124562 -0.2088132 -0.025215043 0.25718686 0.194536 0.23229946 -0.10206318 0.13423319 0.034950215 -0.13433833 0.12999648 -0.1259757 -0.08217412 -0.1355694 -0.062255006 0.07285107 -0.15884729 -0.06428848 -0.0010119902 0.17056775 -0.044691652 0.23762059 -0.048597112 -0.06370989 0.12194998 -0.069951385 -0.13559236 -0.06471612 0.0701785 -0.078540176 0.107879914 0.009049796 0.006925972 0.029527863 0.090654284 -0.05766214 0.107219584 0.20274316 -0.10546194 0.07257813 -0.1795317 -0.03983036 0.072354145 0.06211865 -0.09342641 -0.12626721 -0.060763706
