7 64
902 -0.03226672 -0.014583779 0.22477147 0.22771908 -0.2012257 -0.22290854 0.15248534 0.2499653 -0.06954953 -0.028855495 0.29867664 0.042023942 0.020507647 0.0407867 -0.14818197 -0.037420385 0.0123563865 0.095411666 -0.19609603 -0.05538498 0.2217352 0.19770049 0.25630912 -0.10499769 0.11946651 0.069230005 -0.11122565 0.1552402 -0.13238262 -0.05955049 -0.119629435 -0.026504375 0.03502083 -0.16601478 -0.051580254 -0.021319607 0.14596082 -0.05054019 0.23073763 -0.043303825 -0.07495453 0.12069018 -0.10365888 -0.10628933 -0.056527782 0.034940228 -0.08353966 0.10880257 -0.0044137 0.03779344 0.02707021 0.07901846 -0.07978183 0.14409006 0.18397142 -0.12468309 0.08215244 -0.19422041 -0.06431797 0.08174711 0.06543972 -0.08056233 -0.11040801 -0.08188375
9 -0.029598977 -0.018257279 0.19461353 0.23659393 -0.177821 -0.17995276 0.14688894 0.28117985 -0.056275837 -0.059071027 0.26730913 0.042583086 0.085586675 0.039963562 -0.15266338 -0.06201742 -0.009801025 0.11682706 -0.1485116 0.009623457 0.18524 0.18799314 0.28957826 -0.15260462 0.10454033 0.13755652 -0.10805675 0.11775951 -0.099920176 -0.059867237 -0.043164864 -0.009857167 -0.027935553 -0.20563726 -0.027033685 0.036303304 0.0541053 0.015551929 0.26277333 -0.03223668 -0.021993665 0.06717394 -0.09136183 -0.068555355 -0.05631047 0.0032453886 -0.06670661 0.033939064 -0.06878738 0.058372553 0.060300693 0.12319835 -0.019657752 0.19754688 0.13582015 -0.12700142 0.062509716 -0.18469694 0.0007369358 -0.01658447 0.07457427 -0.07138391 -0.14533328 -0.050488252
7 -0.029478438 -0.013563256 0.20355766 0.21892099 -0.1683265 -0.18320563 0.14824381 0.27634326 -0.041873235 -0.033438265 0.26975226 0.05860352 0.091568075 0.032156136 -0.15964864 -0.046445932 -0.012155992 0.127458 -0.14011323 0.013645034 0.19378912 0.18677172 0.2963814 -0.16908598 0.10878269 0.13906431 -0.11297414 0.12246693 -0.082631625 -0.05222634 -0.04644838 -0.0048033036 -0.036851767 -0.19700938 -0.03618666 0.030523324 0.061946284 0.0321021 0.2741585 -0.049124874 -0.008746332 0.0795397 -0.09065759 -0.09013155 -0.043175887 0.021444911 -0.064923055 0.023256347 -0.08099665 0.042559486 0.070185274 0.11471991 -0.032678682 0.1973681 0.14383915 -0.13514596 0.056612607 -0.17696786 0.0026226065 -0.036464885 0.07055233 -0.08163391 -0.14314438 -0.050388236
5 -0.02359668 -0.034519214 0.18634765 0.2310209 -0.16333695 -0.18322957 0.12801208 0.27861246 -0.054837454 -0.03919428 0.24708448 0.040695004 0.08580397 0.057215523 -0.15356779 -0.042944204 -0.019251915 0.1236763 -0.16055477 -0.0016668551 0.20818779 0.18532474 0.2936477 -0.15799285 0.119083464 0.14179833 -0.12336173 0.10654027 -0.112460814 -0.07009654 -0.060136326 -0.030300217 -0.0010512855 -0.20707572 -0.016951418 0.04028312 0.05473259 0.02097991 0.26367983 -0.054955788 -0.041433226 0.070347875 -0.10577345 -0.0821797 -0.051116526 0.018005384 -0.0661542 0.041324157 -0.07115597 0.054677572 0.051937267 0.12883762 -0.01906203 0.19286995 0.14432117 -0.13009694 0.051490966 -0.17787363 -0.0019628461 -0.013080242 0.05260981 -0.08616772 -0.15659216 -0.06453894
6 -0.029275725 -0.027495427 0.18140773 0.22334234 -0.16341653 -0.17484196 0.15702803 0.27877828 -0.05895031 -0.03383735 0.26512843 0.05243432 0.07588008 0.047644142 -0.14136772 -0.040731065 -0.00093443395 0.11914861 -0.14841853 0.035871655 0.19902112 0.18920083 0.28596586 -0.16071865 0.10996476 0.12936643 -0.11938382 0.10734894 -0.08936345 -0.068338096 -0.04171871 -0.021077123 -0.024699984 -0.20742613 -0.03622774 0.050002053 0.060899585 0.028061641 0.27828538 -0.033282083 -0.004612122 0.067431785 -0.07119887 -0.083588675 -0.06005575 0.018962849 -0.06354899 0.024283487 -0.07194094 0.04137795 0.0713709 0.1319372 -0.0068804743 0.19052604 0.14407782 -0.12162529 0.057862766 -0.17978097 0.018934086 -0.035175715 0.07927336 -0.07800589 -0.15649088 -0.03483524
8 -0.023497518 -0.02506797 0.20740858 0.24697325 -0.1881975 -0.17364681 0.14655188 0.28192917 -0.048558366 -0.05167715 0.2548709 0.03395476 0.07336827 0.04084634 -0.14642183 -0.039828297 0.0018559508 0.10758903 -0.16522737 0.016673697 0.19439669 0.19147739 0.29879856 -0.15740636 0.12150248 0.14271142 -0.10403713 0.10943573 -0.107968554 -0.0645106 -0.04176641 -0.01374193 -0.03498878 -0.21921541 -0.033397667 0.03369811 0.056432534 0.0345616 0.26536208 -0.051899116 -0.03119605 0.07773633 -0.08697537 -0.07505005 -0.041708104 -0.0027952413 -0.06860571 0.05159039 -0.07362104 0.042368848 0.063333526 0.11420801 -0.025678858 0.21134289 0.13240257 -0.13689026 0.047659863 -0.1653194 -0.013297325 -0.010251918 0.052405618 -0.06368248 -0.13688178 -0.054474495
4 -0.028123192 -0.029130997 0.20662172 0.2379395 -0.17731178 -0.19071037 0.13371675 0.27040765 -0.055089332 -0.045747653 0.27037576 0.04029445 0.078944705 0.03366819 -0.14742997 -0.04910559 -0.012326183 0.112408325 -0.16845582 0.0085074175 0.20114407 0.1946976 0.28546247 -0.14706299 0.10809111 0.13907567 -0.119230315 0.11774303 -0.11456506 -0.06135096 -0.058164384 -0.02501052 -0.023636887 -0.19536479 -0.023907747 0.02653459 0.06549103 0.008540971 0.27137342 -0.030633362 -0.03193642 0.0765681 -0.084516674 -0.0717036 -0.062252834 0.011399882 -0.056868773 0.048442375 -0.06291612 0.030477561 0.07113681 0.10748281 -0.027762748 0.196109 0.13867784 -0.124990165 0.05698889 -0.18188445 -0.019849803 0.0034387705 0.07065582 -0.08193058 -0.13597615 -0.051360745
