7 64
902 -0.022586508 -0.0030399864 0.19544822 0.24431238 -0.25679782 -0.18072121 0.22122236 0.23375167 -0.10662564 -0.046297744 0.25815487 -0.0059577352 -0.12499791 0.09678572 -0.09133808 0.0061151753 0.11757674 0.013872373 -0.23747188 -0.08929508 0.20956899 0.18080223 0.2016784 -0.02837406 0.16223508 -0.053715963 -0.044302005 0.14616793 -0.15469605 -0.092481494 -0.14010115 -0.020637488 0.110450596 -0.20127381 -0.11259934 -0.037082996 0.2219106 -0.08304047 0.12229745 -0.075520955 -0.13593234 0.15036634 -0.09378054 -0.12474935 -0.021486627 -0.00091989455 -0.15127255 0.21573621 0.08428508 0.09073445 -0.07313418 0.07785909 -0.09330462 0.08369918 0.20518498 -0.11787298 0.09438893 -0.1572554 -0.08672618 0.17999057 0.017296959 0.0048476416 -0.081985004 -0.10275786
9 -0.027682684 -0.03434569 0.19784956 0.25917736 -0.19405685 -0.19747227 0.13498779 0.27720165 -0.07790742 -0.070677154 0.26985142 0.020392712 0.057768572 0.05564482 -0.14400648 -0.06270452 -0.005926472 0.09995707 -0.18831229 -0.0218129 0.20378996 0.196373 0.27580374 -0.11969928 0.113004744 0.12018743 -0.1146991 0.12021485 -0.14465691 -0.07486077 -0.07593998 -0.035607707 0.01519216 -0.20416777 -0.017032646 0.02396133 0.07666911 -0.025550686 0.24456348 -0.024614867 -0.06849947 0.073566034 -0.10214843 -0.060063887 -0.072927795 -0.0013977904 -0.071029395 0.07974605 -0.033577275 0.061325613 0.038126223 0.11769981 -0.02529308 0.18165043 0.14574063 -0.11877522 0.069406636 -0.19557162 -0.031458993 0.047918223 0.065583944 -0.072100244 -0.13984722 -0.06832155
8 -0.026327297 -0.018937964 0.20792206 0.23654722 -0.1979095 -0.19858666 0.14738043 0.26106733 -0.06625661 -0.045501318 0.26784074 0.029604698 0.031781547 0.053171687 -0.14520131 -0.039734066 0.011269833 0.093956605 -0.18641368 -0.043614574 0.20794448 0.18872947 0.26667786 -0.115140766 0.124330096 0.088062316 -0.101538494 0.1338948 -0.13038161 -0.06617832 -0.09431437 -0.023045912 0.026416361 -0.1904029 -0.041762248 -0.00028649592 0.112072356 -0.024869675 0.22457777 -0.05412302 -0.07504037 0.1022873 -0.109488435 -0.09216271 -0.04629388 0.014679978 -0.08665422 0.098178975 -0.021557398 0.05802828 0.020370768 0.09753915 -0.058637608 0.161892 0.1643761 -0.12885606 0.06999676 -0.18176742 -0.046616938 0.059410322 0.048958994 -0.066649705 -0.12208087 -0.08236269
6 -0.022432074 -0.0483221 0.1916209 0.25158793 -0.17991926 -0.20184313 0.11418729 0.27146494 -0.07503315 -0.05245878 0.2522575 0.01893412 0.059702482 0.06747865 -0.14521068 -0.046663735 -0.01692562 0.1058504 -0.19876578 -0.033927497 0.22306544 0.19321336 0.27705225 -0.12297278 0.12352411 0.12487187 -0.12859268 0.111191876 -0.15616739 -0.081628226 -0.09241212 -0.05380751 0.037818853 -0.200796 -0.006412849 0.024434133 0.07728858 -0.022795843 0.24492465 -0.043216676 -0.08629816 0.07698845 -0.11502145 -0.07093797 -0.06890904 0.01255242 -0.06804933 0.086341016 -0.035463866 0.05469461 0.03260603 0.11874797 -0.027238747 0.17691988 0.15206815 -0.12108818 0.05937128 -0.18847093 -0.03731903 0.052954905 0.04660302 -0.08708894 -0.14690371 -0.08115393
7 -0.02743221 -0.032170616 0.18748961 0.24213421 -0.2009049 -0.19958965 0.1618969 0.25801292 -0.09307473 -0.04425518 0.27108577 0.020276593 -0.005377958 0.07472903 -0.12332473 -0.031736765 0.031450227 0.077525124 -0.20766708 -0.039295204 0.22085874 0.19342978 0.24498533 -0.089732066 0.12892649 0.05550651 -0.10707872 0.12758557 -0.14795324 -0.085863814 -0.10889589 -0.044466 0.061407402 -0.19433291 -0.048147812 0.007944685 0.13499525 -0.051633235 0.2144405 -0.036744718 -0.086792566 0.099961914 -0.09320693 -0.09167399 -0.066711225 0.016912118 -0.092872806 0.12031758 0.009717617 0.060478844 0.006389652 0.10923059 -0.043060977 0.13671984 0.17728263 -0.11157118 0.08003951 -0.19010387 -0.042850256 0.08970041 0.057777263 -0.06141631 -0.12989014 -0.07436492
5 -0.023107545 -0.04667969 0.20624587 0.26184687 -0.19888122 -0.19865079 0.12440049 0.26051977 -0.07761664 -0.0591354 0.26202524 0.0091063725 0.034763444 0.051707115 -0.12767343 -0.040841475 0.0039348807 0.082187355 -0.21371539 -0.01974801 0.21577702 0.20010965 0.26356703 -0.10501713 0.121110395 0.11245731 -0.11672174 0.11355939 -0.16297175 -0.0795633 -0.08847349 -0.051615708 0.020652344 -0.1979211 -0.0191817 0.01279509 0.09124154 -0.030617971 0.24047063 -0.02565677 -0.08404124 0.08450232 -0.08753244 -0.06048081 -0.073445745 -0.0013193585 -0.063792735 0.10699442 -0.020471463 0.030175518 0.04341559 0.09671716 -0.03289089 0.17730802 0.14322916 -0.11499318 0.05929929 -0.17775185 -0.057871338 0.07850628 0.052412916 -0.0706215 -0.12212449 -0.067911066
4 -0.030721955 -0.04094981 0.20167033 0.257909 -0.18863171 -0.21558706 0.11112018 0.2618277 -0.0845841 -0.07481501 0.28167334 0.017146792 0.06345507 0.04460736 -0.14342278 -0.076683424 -0.02346332 0.098641224 -0.19863212 -0.03749463 0.20694624 0.19998124 0.2595845 -0.10096874 0.097852625 0.12153316 -0.12720703 0.12762882 -0.16346212 -0.070843145 -0.094314165 -0.04949041 0.02611973 -0.17862344 -0.00022916018 0.010972513 0.081617735 -0.058458917 0.24339265 0.0008222318 -0.08086345 0.070874736 -0.10214453 -0.04532371 -0.09533656 0.003944468 -0.05546112 0.08641767 -0.018750122 0.046837144 0.044790868 0.10283778 -0.029974068 0.16936615 0.143983 -0.10522174 0.076412275 -0.20830522 -0.05179809 0.0775547 0.078732215 -0.08736707 -0.12989277 -0.069393985
