7 64
902 -0.019314345 -0.041124985 0.1550362 0.25668347 -0.20342256 -0.19645461 0.12371152 0.25641602 -0.114185944 -0.08698465 0.22885148 -0.018314742 -0.013407253 0.11446798 -0.1269534 -0.058420364 0.014891947 0.06616685 -0.22237119 -0.11419227 0.2132528 0.17568561 0.22888428 -0.050644927 0.13397929 0.044584937 -0.09662117 0.12068017 -0.19735248 -0.101969816 -0.13717462 -0.06127783 0.13372453 -0.20161033 -0.0129834395 0.0038110649 0.124295324 -0.09624878 0.15291879 -0.049475405 -0.16325448 0.08482538 -0.15362632 -0.06727037 -0.068116575 -0.004642857 -0.1126354 0.16053262 0.04202497 0.12797838 -0.061733946 0.12350395 -0.039330527 0.111715466 0.16886584 -0.10298449 0.084697746 -0.19122498 -0.061454657 0.14935102 0.020811358 -0.04883993 -0.13333271 -0.12024022
9 -0.03264008 -0.009323792 0.21590866 0.18524566 -0.16214469 -0.19549489 0.18772027 0.2621637 -0.036057115 0.034701776 0.2927257 0.09121443 0.04982817 0.030527188 -0.14940277 0.0069788313 0.02037005 0.12831688 -0.14483234 0.033937614 0.22695468 0.19190687 0.28540057 -0.17784272 0.12633845 0.092202164 -0.12291879 0.13323225 -0.05149773 -0.051408622 -0.06939876 -0.0073182103 -0.028791828 -0.17807914 -0.08199723 0.017437628 0.12216614 0.04364192 0.28959468 -0.0710251 0.018151678 0.11805019 -0.0592901 -0.14955568 -0.028557017 0.06801361 -0.07231158 0.029123163 -0.07032913 -0.001060993 0.081250764 0.100110866 -0.057796348 0.16963565 0.1868453 -0.13991602 0.058481015 -0.16928625 0.005663849 -0.04567062 0.0760781 -0.09473777 -0.13989072 -0.038033128
7 -0.03154415 -0.010036355 0.21276 0.18873714 -0.16880807 -0.21193959 0.15511265 0.24114054 -0.04967862 0.011702732 0.28854224 0.06945382 0.03576209 0.037377812 -0.15250064 -0.014535954 0.0072555337 0.11499004 -0.16599222 -0.03237342 0.22574523 0.18641676 0.25996035 -0.1346354 0.12020314 0.07193853 -0.11930619 0.14806814 -0.09237168 -0.0516188 -0.10980745 -0.019699585 0.021196216 -0.15555122 -0.062041003 -0.011544826 0.14143464 -0.014835118 0.24755907 -0.06419113 -0.039251078 0.1235954 -0.09507177 -0.13515766 -0.03934739 0.0632273 -0.07839513 0.071351044 -0.030536199 0.022106057 0.04271707 0.08292598 -0.079101674 0.14012446 0.19053277 -0.12977135 0.071554884 -0.18069565 -0.03548504 0.026482575 0.06434266 -0.09540447 -0.12112787 -0.07070581
6 -0.025367402 -0.034266457 0.18131943 0.1946455 -0.15327391 -0.20588629 0.13289574 0.24223708 -0.06523792 0.0077245133 0.25630456 0.05234912 0.032853518 0.06835039 -0.1422379 -0.011349554 -0.002539791 0.11313183 -0.17871894 -0.04133347 0.23736002 0.17979151 0.2522543 -0.12433532 0.1272372 0.07447787 -0.13205709 0.12433612 -0.11746483 -0.072414234 -0.11846426 -0.048554365 0.061198562 -0.16517939 -0.038679507 0.007953984 0.12583461 -0.023411334 0.23509589 -0.06671062 -0.06642673 0.10512427 -0.10732015 -0.12442221 -0.050513767 0.06153942 -0.077466205 0.07926768 -0.022827966 0.03872998 0.023390105 0.10614605 -0.05392672 0.13087802 0.18844913 -0.11955063 0.06559718 -0.1812841 -0.026937902 0.039146155 0.048569083 -0.10139649 -0.14269143 -0.07995221
8 -0.028746957 -0.029320024 0.17843728 0.19806166 -0.16555478 -0.20274754 0.16509439 0.24986002 -0.076274 0.008061403 0.27071214 0.05515404 0.009031486 0.073215865 -0.13212569 -0.0062558497 0.021972084 0.10399099 -0.18085459 -0.024724264 0.2370334 0.18515606 0.24752091 -0.11921562 0.13024953 0.051835693 -0.12470665 0.12715834 -0.10908619 -0.077892765 -0.113166854 -0.043524846 0.060050637 -0.17396803 -0.058926564 0.0128690945 0.14258371 -0.025549985 0.23451796 -0.058226753 -0.053548764 0.10867085 -0.08832779 -0.13050681 -0.053655572 0.059285726 -0.08708604 0.08391892 -0.011412817 0.04085909 0.021369072 0.11151673 -0.04817477 0.12245586 0.19512986 -0.11468815 0.073374726 -0.18215904 -0.015928678 0.03894759 0.060499717 -0.08734976 -0.1427597 -0.066031024
5 -0.023092948 -0.028303599 0.20045342 0.21002501 -0.17746669 -0.19005759 0.16473192 0.25406525 -0.056747656 0.008865755 0.25754857 0.049684923 0.013882481 0.06041662 -0.13148394 0.009416801 0.029079903 0.09841642 -0.1834815 -0.006803957 0.23197792 0.18646 0.2655445 -0.13610566 0.14144923 0.07389454 -0.11365199 0.11894575 -0.104234025 -0.07298457 -0.09384833 -0.03316681 0.024935005 -0.19019271 -0.065036595 0.011373898 0.12852387 0.010675921 0.24401191 -0.078162715 -0.04748482 0.11541012 -0.08136863 -0.13053285 -0.03163476 0.045143034 -0.0845483 0.08617295 -0.033423472 0.02247367 0.0368631 0.099594004 -0.054947253 0.15346164 0.18056706 -0.13165323 0.054635365 -0.15951666 -0.026140584 0.024660228 0.040780947 -0.076544985 -0.1314879 -0.065538555
4 -0.028475529 -0.03367762 0.19936523 0.21603057 -0.17573619 -0.21814175 0.13311492 0.24144526 -0.07496412 -0.013836009 0.27737352 0.040258598 0.022717444 0.05695904 -0.13905841 -0.026072498 0.0018854929 0.09925174 -0.19951755 -0.04995376 0.23477097 0.19178134 0.2471263 -0.10437071 0.12119173 0.071623206 -0.128148 0.13628486 -0.13966522 -0.071389705 -0.12603776 -0.050255697 0.058032826 -0.1625603 -0.037023325 -0.0060836743 0.13681906 -0.050084393 0.23298325 -0.04380922 -0.080287516 0.109088495 -0.10214068 -0.10687918 -0.0658603 0.046998464 -0.0747437 0.10215697 -0.00478518 0.03225117 0.02623075 0.09136816 -0.06130477 0.13308091 0.18414722 -0.114475176 0.07444873 -0.19145338 -0.052543372 0.076839365 0.05930665 -0.09445102 -0.12589943 -0.07966366
