7 64
902 0.0025793752 -0.05166926 0.14250004 0.24711521 -0.21683766 -0.14593036 0.14903063 0.23016346 -0.10188595 -0.041809503 0.15130104 -0.044860583 -0.10928054 0.15173422 -0.07954797 0.036778912 0.08812141 0.015149037 -0.24997741 -0.10602048 0.22657289 0.15259816 0.20622395 -0.034669954 0.19231954 -0.015759937 -0.05736601 0.07882992 -0.19245334 -0.12340677 -0.13919495 -0.067622654 0.16267288 -0.22755307 -0.05863414 -0.001325371 0.15734796 -0.0459688 0.08965832 -0.12718175 -0.19123079 0.11629626 -0.13104127 -0.10866062 -0.0001733507 -0.011096438 -0.14266431 0.2215544 0.062722795 0.10954343 -0.10593248 0.10595744 -0.054271247 0.09041007 0.17363152 -0.117023736 0.046324454 -0.1111694 -0.077671394 0.17253387 -0.062221732 -0.001064921 -0.10906493 -0.13361771
9 -0.020689532 -0.057958335 0.15199648 0.22855799 -0.15290937 -0.18296836 0.13211781 0.27352756 -0.08251615 -0.02453856 0.23297034 0.0309502 0.047807835 0.094330646 -0.13072988 -0.0229702 -0.0045297076 0.1122335 -0.1844598 -0.004138691 0.2333829 0.18453197 0.2709545 -0.13530742 0.13189127 0.10799208 -0.13823222 0.09075218 -0.13519919 -0.09820853 -0.08461542 -0.065013625 0.056244776 -0.21287306 -0.01735136 0.055129945 0.077838704 -0.0023701533 0.2520694 -0.05351904 -0.065395184 0.067931525 -0.10057492 -0.092339054 -0.06836212 0.030921116 -0.07514894 0.066439494 -0.040515643 0.061748784 0.027907683 0.15078256 0.00062586524 0.16177475 0.16535787 -0.11431116 0.05614492 -0.18410046 0.0065826294 0.016246716 0.04773073 -0.09013304 -0.17751664 -0.065987185
6 -0.013721407 -0.0476867 0.1614273 0.22571367 -0.17330773 -0.17875317 0.13836019 0.25921348 -0.078449406 -0.018149782 0.21289712 0.016753105 0.0026648797 0.107244365 -0.12644643 0.00082728406 0.021606028 0.08982048 -0.2007999 -0.048911974 0.23641977 0.17390749 0.2580747 -0.11231826 0.15527107 0.067865275 -0.11232638 0.09761372 -0.14471477 -0.09818544 -0.109984465 -0.057677146 0.08843069 -0.21073973 -0.036544334 0.025769379 0.11251808 -0.011202158 0.20191015 -0.093014814 -0.104842655 0.09613323 -0.12122501 -0.11332814 -0.034010552 0.02858797 -0.10033712 0.114214584 -0.012925424 0.075207934 -0.01596365 0.1281367 -0.034870967 0.13845293 0.17670466 -0.124782264 0.052699238 -0.15911646 -0.025937844 0.060477193 0.0073187607 -0.067883275 -0.1513348 -0.09667872
7 -0.011140419 -0.07691392 0.14393494 0.23210968 -0.14846383 -0.17477417 0.11567477 0.26709276 -0.08242875 -0.0118558 0.20098816 0.015733326 0.030693574 0.11325836 -0.11912679 0.0041964403 0.0003280477 0.102495976 -0.20660332 -0.010186524 0.2514615 0.18095121 0.2694797 -0.13088726 0.1523697 0.10659813 -0.14201123 0.0709106 -0.15451571 -0.11222137 -0.095348775 -0.08598529 0.07976557 -0.22190882 -0.011204691 0.05833595 0.07744783 0.006850775 0.24041024 -0.076925755 -0.09133701 0.07094486 -0.10504687 -0.09791211 -0.057970606 0.03152106 -0.07605649 0.08846434 -0.03666981 0.05356765 0.015932549 0.14989313 0.0035666765 0.15910089 0.16362858 -0.11602529 0.038827468 -0.1635812 -0.004339593 0.032180823 0.015394404 -0.08927153 -0.17822331 -0.07761755
8 -0.018278148 -0.06509575 0.13668577 0.21419805 -0.1442409 -0.18281753 0.13429959 0.26080343 -0.0906114 -0.0035164494 0.22247098 0.030463947 0.019651478 0.11185273 -0.11922066 -0.0019171075 0.007100568 0.105042085 -0.19465189 -0.014458674 0.24905314 0.17964034 0.25376847 -0.12193871 0.14230508 0.07856144 -0.14198567 0.08603591 -0.13957447 -0.10779522 -0.10508769 -0.079432756 0.09058983 -0.20516911 -0.02481233 0.052551426 0.10115203 -0.013423535 0.23593777 -0.063807495 -0.07844261 0.07634655 -0.09928578 -0.10961852 -0.06630692 0.04666822 -0.08209785 0.08291403 -0.021030303 0.05986341 0.010248592 0.15095474 -0.0021295599 0.13439064 0.18079433 -0.10749846 0.056464206 -0.17815681 0.005263183 0.0334778 0.037612524 -0.09226156 -0.17894623 -0.07093664
5 -0.0071405442 -0.07408963 0.15436481 0.24146162 -0.17170157 -0.16021742 0.1332321 0.25619015 -0.08219029 -0.0133350985 0.1929264 0.00048804202 -0.011022982 0.109805524 -0.09710951 0.025895316 0.035251666 0.071557336 -0.2237555 -0.0013657742 0.24468872 0.18089746 0.25579554 -0.11243246 0.1637916 0.082320035 -0.11923497 0.06653605 -0.15920028 -0.11494971 -0.09154564 -0.08104735 0.07222174 -0.22973874 -0.03344135 0.04689678 0.096989065 0.01089243 0.22059016 -0.082710795 -0.098912224 0.08533365 -0.08347578 -0.09875927 -0.04416104 0.014922775 -0.08461918 0.12178972 -0.019275753 0.038504608 0.009647391 0.13004175 -0.0062371227 0.15669754 0.15787263 -0.116994575 0.032117426 -0.13961451 -0.024830073 0.059454694 0.00012773873 -0.060755216 -0.15243025 -0.07321546
4 -0.02101259 -0.06251833 0.16491339 0.22375634 -0.14955203 -0.19949014 0.1092158 0.25573766 -0.07988944 -0.016792212 0.23901726 0.029681215 0.048300307 0.082279325 -0.13213466 -0.022357082 -0.017033221 0.11040046 -0.19824906 -0.023274511 0.24267654 0.18735111 0.26071763 -0.123019606 0.12690575 0.10795515 -0.14730477 0.09856986 -0.14972265 -0.09170641 -0.105872974 -0.075553 0.06451955 -0.18809302 -0.007922553 0.035522025 0.089633115 -0.023152132 0.25032717 -0.047062177 -0.080619104 0.0767793 -0.1040494 -0.09076856 -0.07586958 0.040659394 -0.063510165 0.07943727 -0.030041765 0.040414564 0.033228323 0.1281785 -0.015984023 0.15255167 0.16740865 -0.109965615 0.05633992 -0.18719421 -0.020928426 0.04423163 0.047245964 -0.104490414 -0.16221413 -0.07365065
