7 64
902 -0.026928974 -0.0491845 0.17143594 0.20567618 -0.15998586 -0.20662285 0.1443561 0.2390883 -0.09081599 0.00745398 0.2779704 0.044790592 0.0032821647 0.07667718 -0.12212752 -0.0050138705 0.015484592 0.09924611 -0.21257785 -0.02164241 0.2593133 0.1996406 0.24374431 -0.10690791 0.13127255 0.057935845 -0.14638717 0.12325875 -0.14147086 -0.09105712 -0.13016678 -0.072910056 0.07648431 -0.1729255 -0.04491665 0.015230206 0.14867437 -0.047604017 0.2505137 -0.03787499 -0.07017438 0.106103756 -0.07954216 -0.12002699 -0.08116416 0.062185932 -0.074627355 0.10100258 0.0011869491 0.020074397 0.033302717 0.112110384 -0.03870724 0.1237166 0.20086089 -0.10552957 0.07520825 -0.1987058 -0.031097671 0.06937636 0.06985409 -0.1040904 -0.14976335 -0.063436605
6 -0.03491205 -0.043789 0.17694002 0.17047577 -0.12106658 -0.21861929 0.13229407 0.23481674 -0.06462098 0.03819698 0.28994825 0.08352302 0.060624793 0.043126035 -0.13750206 -0.011323598 -0.019989775 0.13371848 -0.16479146 0.013967724 0.24852034 0.1924232 0.24857907 -0.14442545 0.10250637 0.09260394 -0.16652216 0.12422294 -0.09402713 -0.066398315 -0.10799745 -0.061348908 0.028844984 -0.14057808 -0.03585328 0.024211336 0.120165996 -0.01842686 0.29298708 -0.023248242 -0.009447762 0.09355681 -0.062085684 -0.12520243 -0.086350404 0.090919726 -0.043022882 0.030170692 -0.042047087 -0.013297766 0.08377591 0.10635335 -0.03176903 0.13147408 0.18845153 -0.10059836 0.068210006 -0.19832101 -4.3642114e-05 -0.005023327 0.0985069 -0.1348168 -0.15379061 -0.034932572
9 -0.035921324 -0.038973216 0.17646381 0.1472184 -0.10740034 -0.22367467 0.12505646 0.21722002 -0.057333916 0.058137532 0.28833914 0.09396135 0.058403216 0.03674596 -0.13868397 -0.0036762054 -0.024848925 0.13702112 -0.15589565 0.0019730264 0.24958947 0.18418321 0.23426348 -0.14055108 0.09751807 0.079301246 -0.1685485 0.1301349 -0.08340033 -0.057697527 -0.12116263 -0.060435664 0.03708393 -0.116325654 -0.039057657 0.011421018 0.13361374 -0.02490476 0.2848046 -0.02858283 -0.0074390564 0.102419935 -0.06406722 -0.1385541 -0.08110926 0.109062366 -0.040096212 0.027296172 -0.03712689 -0.023080515 0.08180328 0.092876375 -0.046181027 0.11255273 0.19592606 -0.09752748 0.069004744 -0.1944297 -0.0051671406 -0.0037584323 0.09755149 -0.14431484 -0.14501645 -0.038120445
7 -0.032134745 -0.05543339 0.16062716 0.15391198 -0.09876259 -0.22082476 0.11681829 0.22656345 -0.06438122 0.05952417 0.2728917 0.08791523 0.06271343 0.056102917 -0.13583273 0.0018891753 -0.030495316 0.14170295 -0.16361368 0.007804689 0.26224646 0.1848432 0.24166843 -0.14661416 0.106261775 0.08978292 -0.18054138 0.11433579 -0.09490498 -0.07219613 -0.120782 -0.0774637 0.052854758 -0.13141255 -0.027260976 0.029802818 0.12025624 -0.01774851 0.29136744 -0.03440298 -0.015908603 0.091498755 -0.06909758 -0.13661826 -0.08633504 0.109494895 -0.0393813 0.025276603 -0.042603895 -0.016107412 0.07807039 0.11257663 -0.02706731 0.117020234 0.19547634 -0.096143804 0.06235397 -0.19464272 0.007098148 -0.010190107 0.08874989 -0.150066 -0.16469708 -0.040140614
4 -0.037065536 -0.057365675 0.15246458 0.13748875 -0.08697915 -0.22200705 0.13300687 0.218732 -0.06922082 0.0804403 0.28646898 0.10239247 0.05210894 0.050566543 -0.12270199 0.012465712 -0.020679114 0.14064442 -0.15677042 0.03661684 0.26527447 0.18651816 0.22614846 -0.14574693 0.097968616 0.07396277 -0.18865187 0.11307082 -0.077988446 -0.072805956 -0.11819516 -0.08206561 0.046883885 -0.11922298 -0.040058594 0.036349718 0.13338293 -0.018757924 0.30561337 -0.015658995 0.012469635 0.09121343 -0.037964005 -0.14501196 -0.099228896 0.12515223 -0.031258166 0.011122084 -0.03847928 -0.039032448 0.09628867 0.11208908 -0.017538266 0.10221598 0.20161931 -0.082983896 0.06647655 -0.19632083 0.022933222 -0.0243063 0.11111161 -0.15523839 -0.16580485 -0.014910499
8 -0.03029911 -0.05504812 0.18198474 0.170386 -0.12283533 -0.21542598 0.1328131 0.22578335 -0.06268957 0.058005743 0.2811784 0.07896467 0.03790278 0.045441173 -0.123035416 0.017735317 -0.0053677526 0.121606044 -0.18451928 0.025114266 0.26399422 0.19551653 0.2436693 -0.14108038 0.116301715 0.08369224 -0.16864938 0.11456344 -0.10114356 -0.07339163 -0.11489576 -0.07417109 0.032460764 -0.1422066 -0.04481192 0.021083586 0.1340376 -0.009827721 0.29458013 -0.03390385 -0.015336312 0.105073154 -0.046402764 -0.13596149 -0.08040152 0.09570465 -0.040765375 0.0488501 -0.03661656 -0.0402598 0.08899519 0.0948608 -0.035348404 0.1292339 0.19086352 -0.10111103 0.056353867 -0.1811187 -0.012524027 0.0073091765 0.08391202 -0.13281469 -0.14510445 -0.03185505
5 -0.03555505 -0.057561845 0.17867914 0.15554687 -0.10309316 -0.23189121 0.11075327 0.21207055 -0.06362688 0.06255765 0.2906804 0.0879963 0.057854813 0.03282445 -0.12741086 0.0015323954 -0.030706832 0.13193472 -0.17507847 0.016196273 0.26188752 0.19269563 0.22824043 -0.1340223 0.09458572 0.08891952 -0.18413195 0.1210308 -0.10124348 -0.0644451 -0.12598756 -0.08210287 0.037423547 -0.11105616 -0.027608253 0.01508239 0.13097484 -0.032994397 0.30004644 -0.009919527 -0.010378301 0.09717404 -0.047141008 -0.12715529 -0.10083568 0.1106042 -0.023011984 0.03249955 -0.03359147 -0.050864805 0.10059218 0.08738458 -0.035366133 0.11488527 0.18998413 -0.08708404 0.06393625 -0.1965039 -0.014710702 0.0099913385 0.10379311 -0.15482013 -0.1436717 -0.027658159
