7 64
902 -0.028204592 0.016014632 0.101715446 0.19681558 -0.14497674 -0.1673625 0.14150092 0.30365816 -0.07935482 -0.09854135 0.20923959 0.042258553 0.10444337 0.13015711 -0.20176794 -0.12190654 -0.042529196 0.15553482 -0.076085806 -0.12720887 0.1540176 0.12769261 0.27607977 -0.1360327 0.104695566 0.085884914 -0.08106479 0.12772578 -0.08345266 -0.067155965 -0.07424229 0.01703074 0.10416886 -0.2091796 -0.0005260498 0.04992118 0.039496098 -0.028274508 0.14898561 -0.093525626 -0.08670775 0.03920764 -0.22862907 -0.08705481 -0.021671697 0.013400342 -0.13773124 0.017023595 -0.04340059 0.25249273 -0.089746356 0.2037178 -0.018632112 0.123992205 0.17033732 -0.12984559 0.10045537 -0.21390073 0.06190607 -0.025853138 0.037456024 -0.0630827 -0.2051128 -0.13383959
9 -0.02662755 -0.028012559 0.174992 0.24552837 -0.16773045 -0.17663969 0.11497705 0.2824148 -0.06375265 -0.085766286 0.24519208 0.025801303 0.10693923 0.052638557 -0.15737213 -0.08651193 -0.034892052 0.12097007 -0.14705619 -0.012748167 0.17655921 0.18078648 0.28895882 -0.14428033 0.096946605 0.1571114 -0.1123622 0.10723982 -0.12164162 -0.06536806 -0.043483518 -0.020514509 -0.008499353 -0.2084474 0.005435976 0.04576244 0.024010474 0.0011673337 0.24834423 -0.025007097 -0.04676189 0.0441888 -0.11726237 -0.041765746 -0.06751094 -0.010437839 -0.0624602 0.031400394 -0.06914116 0.08671173 0.044502057 0.13831408 -0.0037500062 0.20064345 0.122076645 -0.120758235 0.06278507 -0.19421393 0.0016984203 -0.006197992 0.067530386 -0.07585894 -0.1576693 -0.065064505
6 -0.027071552 -0.021470565 0.1994675 0.2220339 -0.16296308 -0.19120532 0.122132055 0.27099475 -0.04518653 -0.040710285 0.25928575 0.049059823 0.099415496 0.039059754 -0.16501985 -0.05510542 -0.029760703 0.12994926 -0.14879873 -0.014071941 0.19856872 0.1844877 0.29435778 -0.16006458 0.108419344 0.14618073 -0.12042791 0.12188227 -0.10380991 -0.05483968 -0.06262458 -0.016966326 -0.013845169 -0.1905065 -0.016341517 0.02523258 0.056800112 0.014690142 0.26411292 -0.051315904 -0.036010057 0.07599954 -0.11336308 -0.082143895 -0.048742414 0.021669902 -0.062685914 0.033837926 -0.0746789 0.05278759 0.0574367 0.115091234 -0.035784233 0.1945478 0.14463991 -0.134101 0.057281397 -0.18458708 -0.011174064 -0.01441606 0.060981534 -0.09192618 -0.14621024 -0.06865384
7 -0.019416252 -0.04144452 0.17125614 0.23443423 -0.15649374 -0.18325347 0.10104479 0.27547032 -0.05997946 -0.054058097 0.22299625 0.025747053 0.09263944 0.073042825 -0.15768972 -0.05497575 -0.03620797 0.124107935 -0.16316678 -0.035252493 0.20565854 0.17513928 0.28775364 -0.1453804 0.118976615 0.14565504 -0.12392896 0.09987135 -0.13269402 -0.07502659 -0.0719819 -0.040233597 0.02957477 -0.20501578 0.005963727 0.039940163 0.041786496 0.004857049 0.23938312 -0.061874412 -0.07392324 0.060058475 -0.13543884 -0.06993584 -0.05180235 0.012103054 -0.06907664 0.051226154 -0.06349367 0.081200905 0.025977107 0.13636692 -0.016454613 0.1851262 0.14009239 -0.12756409 0.051290005 -0.18112765 -0.0090393415 0.0070366156 0.03563583 -0.089190416 -0.16292283 -0.086973906
5 -0.02728194 -0.043377463 0.18196489 0.24884012 -0.1722147 -0.18886186 0.1295843 0.2801606 -0.07452081 -0.059110064 0.26166177 0.029396288 0.07711595 0.057438616 -0.14182475 -0.058445044 -0.016267462 0.112550974 -0.17667843 0.00629514 0.20732947 0.19612905 0.2839311 -0.13918452 0.10982248 0.13916393 -0.12868974 0.10641674 -0.13283727 -0.07859275 -0.06105836 -0.042565774 0.0036421744 -0.20913224 -0.009626895 0.04545068 0.055770036 -0.005111523 0.26770988 -0.020309424 -0.04598498 0.059429865 -0.09119201 -0.059543546 -0.079726145 0.006081675 -0.059742164 0.050957296 -0.054344848 0.052568536 0.057593524 0.13347502 -0.003582164 0.19163379 0.14069611 -0.11585146 0.062371176 -0.19576332 -0.006005952 0.011581672 0.073705226 -0.08404875 -0.1586015 -0.053303808
8 -0.02014613 -0.033865646 0.20339757 0.25198498 -0.18675357 -0.1832141 0.12610939 0.27949002 -0.054518133 -0.05539694 0.24275923 0.02309078 0.07123354 0.05528107 -0.15083446 -0.042136956 -0.009379353 0.10743318 -0.17940214 -0.016426206 0.20516793 0.18858162 0.29540914 -0.14532143 0.1275892 0.14048405 -0.11008755 0.10880455 -0.1315359 -0.07096778 -0.06392013 -0.027974576 -0.0013332698 -0.21588871 -0.018347375 0.027170928 0.059896518 0.015700595 0.24897337 -0.061944015 -0.06511901 0.07882539 -0.11217572 -0.07388609 -0.04287057 -0.00036234752 -0.07247406 0.070740476 -0.06120157 0.05626692 0.041433174 0.11554483 -0.03149123 0.2013174 0.13818502 -0.13695149 0.04832393 -0.17008266 -0.028399106 0.018082263 0.036312412 -0.07119065 -0.14051077 -0.07715392
4 -0.024277484 -0.036982235 0.19688791 0.2448994 -0.17294672 -0.19450794 0.10313332 0.2666629 -0.059948456 -0.06275338 0.24964993 0.023952615 0.08758459 0.04554449 -0.1523877 -0.06333102 -0.031805836 0.112200424 -0.17488514 -0.026999498 0.19938165 0.18721108 0.28054452 -0.13298729 0.106741495 0.14636607 -0.1213076 0.11327584 -0.13932674 -0.06505316 -0.07210127 -0.03619042 0.0048736767 -0.19135544 0.0013971978 0.02283113 0.052923378 -0.011190024 0.24864355 -0.03413845 -0.06694892 0.06714259 -0.114105545 -0.056269042 -0.06553517 0.0043352162 -0.056906026 0.061037958 -0.054382496 0.052648894 0.048332117 0.110675946 -0.027657054 0.19076072 0.13328022 -0.12240586 0.0571009 -0.18713939 -0.03321954 0.029339839 0.05498809 -0.08681002 -0.13923909 -0.07465298
