7 64
902 -0.009526615 -0.032094963 0.21360324 0.24992795 -0.22634447 -0.20136485 0.13259146 0.23801123 -0.077056386 -0.03924877 0.23135877 -0.011689224 -0.046736594 0.090348184 -0.12890974 0.0024421087 0.04400036 0.051781785 -0.24828616 -0.11963391 0.23624672 0.18210825 0.24295188 -0.06388108 0.16879115 0.0335921 -0.082975514 0.1317278 -0.18949471 -0.08708675 -0.154587 -0.049075674 0.10848127 -0.19532019 -0.05098325 -0.039504386 0.16818453 -0.05963894 0.15429272 -0.10812715 -0.17269267 0.14192349 -0.14586005 -0.11384682 -0.015896473 0.009165607 -0.11925573 0.20236757 0.036557302 0.06975912 -0.05079683 0.07013567 -0.100992694 0.1277701 0.18658394 -0.13876449 0.061033335 -0.15230751 -0.11588124 0.16902964 -0.022739597 -0.04481225 -0.09306558 -0.1394529
6 -0.035622455 -0.036217175 0.19620393 0.22120883 -0.17316933 -0.19689803 0.17927995 0.26299694 -0.07525978 -0.006052523 0.30252123 0.06057146 0.033458557 0.03680017 -0.11864053 -0.01830097 0.023993572 0.1020951 -0.1795541 0.055749573 0.22458504 0.20781471 0.2615205 -0.13861679 0.10940364 0.09316609 -0.1338231 0.11933456 -0.09803659 -0.073998876 -0.06662218 -0.040436607 -0.016522596 -0.18706714 -0.05951897 0.03579404 0.11225794 -0.0011865312 0.29461774 -0.0045093168 0.004260751 0.088517554 -0.027936406 -0.098116666 -0.085112974 0.039717034 -0.05518719 0.048805617 -0.039913863 -0.008176023 0.092269845 0.11031993 -0.015476118 0.16594075 0.16608694 -0.105474636 0.06871289 -0.18892458 0.00044346874 0.0007110282 0.10604335 -0.08594947 -0.14112583 -0.012038563
9 -0.040097594 -0.012149062 0.20861788 0.18119098 -0.15788276 -0.20449673 0.18027128 0.24516732 -0.051255945 0.02465043 0.31487215 0.08968743 0.044892624 0.017614746 -0.13807116 -0.011844144 0.016210956 0.120420486 -0.15299314 0.03801717 0.22362112 0.19848457 0.26085722 -0.15336306 0.10389001 0.08199927 -0.13101561 0.14212461 -0.06317073 -0.050202936 -0.07804795 -0.01768046 -0.02570826 -0.15660039 -0.07531534 0.012332952 0.13221018 0.005859575 0.29390663 -0.025749046 0.022635572 0.11052191 -0.03975562 -0.13038668 -0.06267094 0.06894957 -0.058063935 0.030685276 -0.049122218 -0.015422425 0.09428559 0.09000321 -0.050015047 0.15170671 0.18209828 -0.116110645 0.07224004 -0.18526633 -0.0010807656 -0.021794379 0.1075913 -0.09937552 -0.12855884 -0.01967932
4 -0.030776687 -0.048654906 0.18735372 0.21459709 -0.16088092 -0.19538166 0.161258 0.2540732 -0.07378364 0.0077783973 0.2807255 0.05553269 0.029422544 0.047815368 -0.11397551 -0.0029226632 0.018288838 0.10144005 -0.1875234 0.046548534 0.23605317 0.20236115 0.2568206 -0.13636516 0.11797501 0.09284382 -0.14176923 0.1081434 -0.10833995 -0.08070877 -0.07865583 -0.056232214 0.003972214 -0.18358506 -0.05096235 0.03661412 0.111951314 0.00052368134 0.28780645 -0.01901316 -0.012209981 0.08953931 -0.035490043 -0.10422046 -0.080836944 0.048118692 -0.0527992 0.05714953 -0.03806956 -0.013585803 0.084616065 0.10978726 -0.014922308 0.15848993 0.16786222 -0.10451931 0.05896432 -0.17936648 -0.004980839 0.008481465 0.08749724 -0.09380586 -0.14407629 -0.021469414
5 -0.03236092 -0.03804391 0.1881156 0.20548569 -0.1686555 -0.20247374 0.1705391 0.24243335 -0.07985589 0.009943743 0.2905887 0.055738207 0.0043069795 0.051131606 -0.113463625 -0.0025310207 0.030490689 0.0925499 -0.19178413 0.019328432 0.23605865 0.19951738 0.24033593 -0.11606654 0.11910104 0.059709463 -0.13265306 0.123518266 -0.110788174 -0.07818356 -0.09968206 -0.051648337 0.02737103 -0.17052564 -0.06362883 0.01761138 0.14296144 -0.025018621 0.26398224 -0.021955516 -0.027369136 0.10471623 -0.0434652 -0.11559736 -0.07723879 0.054460213 -0.066153675 0.07911667 -0.012247344 -0.003185225 0.061904613 0.09940961 -0.03485406 0.1335594 0.18381083 -0.10241954 0.07158063 -0.18374296 -0.019179618 0.0385509 0.087010555 -0.08804188 -0.13243142 -0.03295465
7 -0.03294693 -0.034279138 0.20647857 0.21934365 -0.18015 -0.18945943 0.18516287 0.25567466 -0.0663161 0.004975657 0.29508063 0.058461834 0.017218674 0.031882394 -0.111188 0.0016615562 0.039163217 0.091746 -0.18600503 0.06185119 0.22607444 0.20745872 0.2611842 -0.13930146 0.119630136 0.086056374 -0.12501112 0.117275976 -0.09448648 -0.07252931 -0.065483905 -0.03664827 -0.025456872 -0.18996948 -0.07317212 0.027963588 0.122700684 0.012432446 0.29121342 -0.019187266 0.004080537 0.10164047 -0.018875891 -0.108340666 -0.069807336 0.038397968 -0.058330715 0.061719317 -0.039844006 -0.023855902 0.09423057 0.09650312 -0.026496619 0.16890502 0.16543424 -0.112089284 0.05964575 -0.17100996 -0.010603334 0.0045362343 0.09214503 -0.07657338 -0.12757814 -0.011822075
8 -0.031369284 -0.036334038 0.21042484 0.21672566 -0.17606193 -0.20634256 0.15147315 0.24007142 -0.06728456 -0.0024835856 0.2936455 0.05017806 0.02402407 0.03039953 -0.12154487 -0.012482375 0.01702312 0.09319618 -0.19666213 0.016140448 0.22989802 0.20227069 0.24862644 -0.119443126 0.11240383 0.08573817 -0.12974411 0.12650613 -0.11769251 -0.06670863 -0.09305636 -0.04580453 0.0016678245 -0.1658651 -0.052095573 0.0066246213 0.12739268 -0.02040927 0.27042094 -0.01810194 -0.030524025 0.104567826 -0.046919417 -0.09985238 -0.07518216 0.042410027 -0.0540234 0.07915148 -0.024064068 -0.017206801 0.07750416 0.08128151 -0.04449753 0.15436251 0.16694817 -0.10846273 0.06444849 -0.17984377 -0.039852265 0.04315059 0.08339358 -0.08945439 -0.116912104 -0.036424924
