7 64
902 -0.016353024 -0.0033928684 0.19990711 0.22394826 -0.21854153 -0.19097793 0.13878761 0.22903772 -0.071969576 -0.051390197 0.22870472 -0.00063933333 -0.037791718 0.08181541 -0.13757437 -0.023952996 0.04010605 0.058060847 -0.20862395 -0.14069058 0.20415781 0.16432251 0.22909118 -0.058483712 0.14883606 0.015260456 -0.062616706 0.1482808 -0.15933561 -0.0676966 -0.14563572 -0.017762773 0.10509376 -0.17428161 -0.056563172 -0.048133045 0.16636615 -0.07065796 0.12522864 -0.103327274 -0.15810841 0.13841128 -0.1619798 -0.114838585 -0.008306805 0.0100595765 -0.13164064 0.18097736 0.040031776 0.10799186 -0.07003336 0.07473327 -0.11199375 0.11135512 0.19209874 -0.13841875 0.0810177 -0.16573057 -0.09978287 0.15399103 -0.0061529824 -0.0376903 -0.091969326 -0.1443405
4 -0.03378877 -0.0060108486 0.18247561 0.22021857 -0.18731992 -0.20193072 0.15988968 0.26231438 -0.08096272 -0.05458816 0.27964184 0.04013947 0.033852704 0.063840695 -0.15148704 -0.064951204 0.0069025443 0.103189096 -0.16169108 -0.05965647 0.19500707 0.17990233 0.2511467 -0.10470398 0.10818938 0.06472473 -0.09975681 0.14527296 -0.1164297 -0.0640955 -0.09882524 -0.014537257 0.04923345 -0.17788522 -0.041922107 0.004379521 0.11761303 -0.051189873 0.20756505 -0.037398715 -0.06732113 0.09123479 -0.12001508 -0.09171072 -0.05844577 0.023033243 -0.09635235 0.08105236 -0.0072791674 0.09463018 -0.00051861076 0.11611545 -0.051516335 0.13363534 0.17616434 -0.11604898 0.09277083 -0.20326996 -0.021945098 0.05344116 0.07232857 -0.068199046 -0.13569836 -0.08144608
9 -0.03944971 0.0020749662 0.19725244 0.19437906 -0.16954507 -0.2204292 0.16685888 0.2626957 -0.06502186 -0.017197002 0.304197 0.074949756 0.057343077 0.048687615 -0.16997616 -0.05533531 -0.0069408403 0.13092822 -0.14210108 -0.048805133 0.20951809 0.18305019 0.26313862 -0.13394201 0.10395439 0.07181346 -0.11777462 0.1593247 -0.08561282 -0.050969075 -0.10491101 -0.0076965545 0.0338249 -0.15965895 -0.05177713 0.00030245507 0.12817413 -0.035229113 0.24070285 -0.046424087 -0.03474392 0.10357122 -0.11657785 -0.12140214 -0.053200223 0.057877313 -0.08766086 0.048693888 -0.028559258 0.07105012 0.024461208 0.109847695 -0.06474718 0.13144471 0.19159406 -0.122393444 0.09228092 -0.2071439 -0.008393406 0.012995701 0.086538404 -0.09477282 -0.14071266 -0.073260546
7 -0.028386824 -0.022340313 0.1788193 0.21114665 -0.17247733 -0.21003631 0.15076484 0.2630885 -0.0778264 -0.020500118 0.2656716 0.046535935 0.030416558 0.08315509 -0.15423211 -0.034985304 0.0019302868 0.11429819 -0.17462043 -0.065619305 0.22792652 0.17980987 0.25952342 -0.11773392 0.12870824 0.0645627 -0.11943893 0.13596366 -0.12241096 -0.07575815 -0.119850144 -0.035801128 0.077253655 -0.18104051 -0.040438946 0.008874983 0.12800525 -0.03884592 0.217568 -0.06850206 -0.08066061 0.101787016 -0.13128689 -0.119480535 -0.04900572 0.048058897 -0.09812701 0.086831525 -0.012426781 0.084129944 -0.0055990648 0.12253355 -0.054280017 0.12741703 0.19350852 -0.122972004 0.080495715 -0.19499852 -0.020577567 0.048738465 0.049966488 -0.08734911 -0.15059033 -0.09394096
5 -0.040679708 -0.0040966743 0.17918284 0.18987122 -0.16809323 -0.22120693 0.17712833 0.25598782 -0.08357082 -0.01244441 0.30695394 0.071279764 0.028438358 0.06370474 -0.15497345 -0.04933093 0.0076483767 0.119970776 -0.15396614 -0.05119796 0.21829736 0.18410386 0.24355762 -0.11362749 0.1059723 0.041787975 -0.1209905 0.15832293 -0.094724566 -0.06269345 -0.119242616 -0.021132713 0.06317802 -0.15619199 -0.058623936 0.002480372 0.15029898 -0.058379136 0.22926036 -0.03542688 -0.04326568 0.10516553 -0.10759314 -0.12604764 -0.06677452 0.06437849 -0.09446213 0.06476784 -0.0028580115 0.07531433 0.010784061 0.11724074 -0.058396917 0.10747822 0.20629919 -0.11011815 0.10288557 -0.21592075 -0.005897199 0.036276553 0.09452398 -0.0929193 -0.14602119 -0.06986257
6 -0.027514014 -0.018101241 0.1892896 0.21712457 -0.18811505 -0.20008059 0.16709657 0.2575212 -0.07549715 -0.021070302 0.2677321 0.040974848 0.0076453383 0.07335285 -0.13990492 -0.022549342 0.025476076 0.095739625 -0.18190771 -0.0481701 0.22072023 0.18268678 0.2532102 -0.110675305 0.13233446 0.05315257 -0.10488484 0.1346938 -0.11871228 -0.07443375 -0.11022521 -0.028460888 0.0585627 -0.18588409 -0.057924896 0.003098926 0.13822705 -0.031223444 0.2137697 -0.06557043 -0.0730084 0.109954454 -0.10806338 -0.11827057 -0.042252146 0.03667154 -0.099600635 0.10021793 -0.006506125 0.06682454 0.0014005011 0.10777324 -0.058626987 0.1308335 0.18660043 -0.12301481 0.076230824 -0.17985444 -0.030054457 0.056804616 0.048166774 -0.06864203 -0.13210157 -0.08236346
8 -0.04293765 -0.005799457 0.19724673 0.20218903 -0.17110899 -0.23307505 0.15759045 0.25645798 -0.078277886 -0.026696054 0.31895608 0.069199055 0.05484552 0.043629352 -0.16394138 -0.06819511 -0.01313787 0.125391 -0.15645202 -0.051470447 0.21304578 0.19115728 0.25093636 -0.116364986 0.09283441 0.07012183 -0.12781844 0.16356027 -0.104294494 -0.053585485 -0.11529151 -0.02117258 0.041854937 -0.1480711 -0.041400373 -0.0034319418 0.13361496 -0.06400238 0.24449353 -0.017420493 -0.04210797 0.0984711 -0.10854432 -0.10562399 -0.07872315 0.05666681 -0.077375755 0.056982018 -0.012827232 0.061504744 0.03143921 0.10534318 -0.059946824 0.12434976 0.19133298 -0.10910924 0.10158735 -0.22366704 -0.019945493 0.039352965 0.104363 -0.10234447 -0.13774627 -0.06772818
