7 64
902 -0.007625387 -0.041965775 0.14841875 0.25277677 -0.1979494 -0.18933813 0.111306995 0.2664125 -0.09970332 -0.07316438 0.18337055 -0.023116773 -0.011235594 0.14923318 -0.14606296 -0.036892615 0.008676882 0.079312086 -0.2189503 -0.15938377 0.2285802 0.15871063 0.25424525 -0.0699275 0.16811724 0.047326747 -0.08969211 0.10886985 -0.19678648 -0.107669964 -0.1502498 -0.05903477 0.171209 -0.2177487 -0.008319379 0.0035216403 0.11732868 -0.06941636 0.12124708 -0.119554326 -0.20032318 0.09506068 -0.2080951 -0.09614795 -0.023104725 0.0026575557 -0.13819543 0.17191814 0.029565329 0.16875271 -0.1078214 0.14185455 -0.056389935 0.11521694 0.18650134 -0.1320852 0.07201867 -0.17860681 -0.060571857 0.14183573 -0.03347589 -0.052255247 -0.15587857 -0.16880593
9 -0.029783096 -0.010239518 0.18523176 0.23402207 -0.17419556 -0.18362683 0.13334161 0.28404805 -0.057789043 -0.07618923 0.25872082 0.03926224 0.1005491 0.049522858 -0.16866225 -0.08469121 -0.027179413 0.12635972 -0.1357671 -0.027917463 0.17533995 0.17785062 0.2902497 -0.1477794 0.09947179 0.13869177 -0.10319426 0.124467246 -0.10377425 -0.055778142 -0.05124782 -0.0030222046 -0.0067490754 -0.20067225 -0.012401447 0.031860203 0.04496129 0.00024821147 0.24005994 -0.03966268 -0.041508652 0.060431495 -0.12639326 -0.06281719 -0.052188482 0.0006283949 -0.0756643 0.031641275 -0.065429255 0.096202366 0.033382047 0.13193832 -0.025211217 0.18939216 0.13725637 -0.12892759 0.07081676 -0.19496034 0.0014675326 -0.0103320265 0.06790341 -0.07335952 -0.1516452 -0.07280923
4 -0.033705775 0.008618156 0.22062588 0.22073294 -0.17882732 -0.19683893 0.13760205 0.2780133 -0.034181222 -0.05875488 0.2830062 0.060068373 0.11505893 0.017507518 -0.1855943 -0.08115954 -0.03188843 0.13700873 -0.12407535 -0.02897544 0.17328908 0.18173198 0.30013138 -0.16420536 0.09432823 0.145516 -0.10056838 0.14718439 -0.08171534 -0.03263558 -0.05282209 0.018574305 -0.04039268 -0.18219423 -0.026733646 0.007844656 0.058229566 0.012393472 0.25681275 -0.049336717 -0.021667771 0.08253874 -0.12520002 -0.080742486 -0.03660498 0.014073296 -0.07071887 0.021709593 -0.07999465 0.07105891 0.054867063 0.10355773 -0.05767055 0.19861932 0.14204079 -0.1430039 0.06967423 -0.19062081 -0.013875506 -0.024672747 0.073195264 -0.08156755 -0.1305158 -0.072615735
7 -0.022270624 -0.030551905 0.1872211 0.2267585 -0.15459988 -0.18792997 0.09458309 0.26950657 -0.046218105 -0.0532879 0.23412518 0.035439096 0.111840025 0.05040924 -0.16794269 -0.06383475 -0.04741118 0.13148843 -0.15018003 -0.034985766 0.19535352 0.17457734 0.29039723 -0.15305373 0.107236594 0.15799047 -0.1222743 0.110791765 -0.1204449 -0.0589652 -0.06669421 -0.026741024 0.004670396 -0.19113912 0.0067352457 0.02877945 0.03689157 0.009292606 0.24822874 -0.057695244 -0.06007605 0.063458644 -0.13509199 -0.0680582 -0.048309553 0.014387824 -0.060235713 0.037296925 -0.07508581 0.069419704 0.04178127 0.12083506 -0.029133094 0.19282657 0.13372372 -0.1313918 0.050965816 -0.180824 -0.015619509 -0.0043789186 0.043367807 -0.094484776 -0.1503258 -0.08401738
6 -0.031154243 -0.016943432 0.19833975 0.22320023 -0.16903976 -0.19280061 0.14342038 0.27730954 -0.05278585 -0.040762473 0.27508813 0.054883745 0.08968802 0.039709058 -0.1616229 -0.05680513 -0.017834568 0.12814926 -0.14660119 -0.0023564107 0.1975588 0.1879678 0.28927594 -0.15716112 0.1054067 0.13241704 -0.118680574 0.12708396 -0.09609771 -0.05665267 -0.059669305 -0.012839555 -0.016214902 -0.19336553 -0.028517066 0.028667271 0.06771835 0.010577517 0.26869154 -0.041239064 -0.023114227 0.07709669 -0.10063191 -0.085790634 -0.05456784 0.023214934 -0.06696541 0.031230452 -0.06831561 0.053951554 0.059379898 0.11974271 -0.03178339 0.18749791 0.15056756 -0.12943701 0.06509022 -0.18950112 -0.0013693086 -0.017931383 0.07503546 -0.086540975 -0.14737594 -0.057194207
8 -0.024029395 -0.007569571 0.21993484 0.2335248 -0.19109622 -0.18370496 0.13485563 0.26754707 -0.03794342 -0.052190304 0.25414827 0.036505956 0.074453995 0.032258 -0.16131617 -0.048199806 -0.0069456575 0.108998954 -0.15604931 -0.02882976 0.18496718 0.18033722 0.2890906 -0.14616439 0.117147766 0.12928608 -0.09219512 0.12884003 -0.105603755 -0.048352674 -0.061497744 0.0010613637 -0.022116993 -0.19596358 -0.03365976 0.0046349405 0.0713757 0.017065108 0.2370989 -0.067861155 -0.050771296 0.092809044 -0.115795836 -0.08356782 -0.024882846 0.0034319875 -0.07689025 0.0632739 -0.06304714 0.05648904 0.040779386 0.093158804 -0.05899407 0.19493255 0.13871482 -0.14354484 0.053756293 -0.1638987 -0.03631586 0.010520395 0.040224392 -0.06442368 -0.11764834 -0.07943027
5 -0.032784898 -0.0061140424 0.20978165 0.23441477 -0.17514905 -0.20005833 0.110177495 0.27242208 -0.04711823 -0.08114679 0.27473402 0.04186135 0.12219349 0.021180373 -0.17915764 -0.09981376 -0.048136298 0.13058648 -0.13728346 -0.0392966 0.17024885 0.1824781 0.28915372 -0.14506106 0.08368649 0.15689042 -0.10821858 0.13819857 -0.1099947 -0.039159212 -0.05750253 0.00020194502 -0.025866289 -0.17695262 0.00012386228 0.011649457 0.041669372 -0.012646603 0.24877259 -0.024810284 -0.042631272 0.064293206 -0.12914217 -0.050542608 -0.059794288 0.0014043042 -0.05842542 0.029508563 -0.069018304 0.07463616 0.05251901 0.106075086 -0.0425553 0.19680582 0.12834723 -0.12869623 0.071649946 -0.20114905 -0.02432934 0.0023960106 0.076950796 -0.08616582 -0.13207786 -0.075059846
