7 64
902 -0.022000913 -0.014156533 0.1755449 0.19231617 -0.17714503 -0.20096697 0.168782 0.25370702 -0.07142044 0.008708801 0.25029972 0.049249016 -0.010559757 0.10506091 -0.153745 0.0024759187 0.030391317 0.106955975 -0.18327914 -0.09226615 0.24591589 0.17188062 0.2586362 -0.11595512 0.1597384 0.024336599 -0.106061764 0.14107 -0.11615288 -0.081445396 -0.14364077 -0.031031635 0.110812984 -0.18789794 -0.06986033 -0.0062475046 0.1683026 -0.029674295 0.19043422 -0.12068215 -0.102779 0.13408594 -0.14917307 -0.16426046 -0.012496502 0.06427942 -0.12861067 0.119231686 0.0026815215 0.096898936 -0.042607177 0.11864194 -0.083166964 0.10717293 0.22284037 -0.1402737 0.07707853 -0.17558196 -0.029563714 0.06317143 0.0146264285 -0.07652134 -0.14661457 -0.11899466
9 -0.028161943 -0.015616971 0.2205675 0.20713077 -0.16288133 -0.20982197 0.11391654 0.2529404 -0.035396297 -0.01871743 0.2702016 0.058112975 0.09162609 0.024366314 -0.17031518 -0.043867737 -0.03287786 0.12986335 -0.155238 -0.036554165 0.20861757 0.18346614 0.28288323 -0.15198825 0.10764192 0.13177575 -0.12303556 0.13783799 -0.10323438 -0.042720888 -0.08784475 -0.016787259 -0.0070167664 -0.16170242 -0.023214739 -0.0031020658 0.08472621 0.0010507005 0.25853536 -0.06006817 -0.04450532 0.09875605 -0.11741309 -0.09987368 -0.041361604 0.041190587 -0.059451535 0.04778906 -0.06382321 0.030017793 0.058223523 0.08559277 -0.06729453 0.17741716 0.15657969 -0.13611783 0.058037616 -0.18046427 -0.038528003 0.006978657 0.056137484 -0.10335266 -0.12454044 -0.07875574
6 -0.032476723 0.009284867 0.23591694 0.16815655 -0.151278 -0.20140408 0.14488229 0.24493916 -0.0060257595 0.024066806 0.28570697 0.09606998 0.09649895 -0.0031323605 -0.1760556 -0.018624708 -0.01871235 0.14314613 -0.11842606 -0.0013000768 0.20130797 0.17827885 0.2889963 -0.18499091 0.10534336 0.123782635 -0.114752 0.14910898 -0.04297869 -0.020110035 -0.06884598 0.014780204 -0.054424133 -0.14725517 -0.06002416 -0.00963333 0.098767966 0.04403648 0.28080988 -0.078081 0.013628559 0.11911358 -0.091058776 -0.13760807 -0.013481454 0.06642587 -0.058560856 0.011670421 -0.090711266 -0.0007677089 0.08768247 0.068867445 -0.0865079 0.17930214 0.16458102 -0.14821821 0.051953774 -0.16111337 -0.017800434 -0.05337358 0.06673879 -0.1045412 -0.112874106 -0.056124665
7 -0.02660075 -0.021076893 0.21499419 0.18382819 -0.13736695 -0.213131 0.09212259 0.23846297 -0.024453912 0.005850407 0.26041442 0.069468655 0.1070875 0.020373203 -0.17453119 -0.03375467 -0.051028147 0.14278024 -0.14678296 -0.038922615 0.21743648 0.17680393 0.2794611 -0.16145054 0.10442527 0.13983898 -0.13730569 0.13386317 -0.09557895 -0.037562568 -0.09624745 -0.025177406 -0.0028381846 -0.14265499 -0.014180059 -0.0047876714 0.080948904 0.0074487766 0.26611346 -0.06835697 -0.039824203 0.09963972 -0.12121308 -0.110564716 -0.03916447 0.06220016 -0.047647357 0.032929234 -0.0742261 0.013665858 0.06749937 0.07987965 -0.07095244 0.17060114 0.1589231 -0.1347665 0.05024391 -0.17590751 -0.03668599 -0.007392481 0.05180683 -0.12401318 -0.12705168 -0.08044976
8 -0.038469322 -0.0279192 0.20030062 0.18131876 -0.13534851 -0.22327363 0.1294789 0.24008687 -0.054443575 0.014613103 0.3052129 0.083726585 0.0830546 0.018641341 -0.15157963 -0.036622025 -0.030264562 0.13661343 -0.15362857 0.007906104 0.22719584 0.19491763 0.25829452 -0.14817904 0.08871897 0.11167031 -0.15482679 0.1386963 -0.08889723 -0.049036678 -0.09494866 -0.039480306 -0.0034294834 -0.13609806 -0.031651348 0.011919184 0.10683752 -0.019020014 0.2951257 -0.01248819 -0.0021844152 0.09216787 -0.06830289 -0.10835176 -0.08417866 0.075113826 -0.03846529 0.021597095 -0.05230424 -0.009850847 0.094267204 0.0928583 -0.043695524 0.14986727 0.17421283 -0.10714196 0.072510436 -0.20380169 -0.0114908805 -0.007984265 0.10808337 -0.12935485 -0.13885361 -0.036157615
5 -0.025870288 -0.02237259 0.23534818 0.20147406 -0.159703 -0.2075406 0.10966823 0.2394004 -0.023306463 0.003530843 0.2688017 0.061566733 0.085612044 0.007063586 -0.15854298 -0.019577548 -0.026589746 0.1228157 -0.16395442 -0.0111427745 0.21576306 0.18748897 0.2798748 -0.1574451 0.11021207 0.13751614 -0.12729329 0.13118356 -0.098668 -0.038825773 -0.083942965 -0.022401338 -0.030169224 -0.15359154 -0.030659959 -0.008362167 0.08925893 0.018196564 0.27486625 -0.06040815 -0.030756125 0.10813283 -0.0907179 -0.10560199 -0.03783994 0.047283083 -0.044640694 0.04910166 -0.0715518 -0.014630337 0.0856921 0.06414884 -0.07221619 0.18481271 0.14984395 -0.13614932 0.04356221 -0.16238838 -0.0503263 0.0026162805 0.052833002 -0.10673564 -0.108803354 -0.06427967
4 -0.033618778 -0.018789923 0.23092268 0.1915972 -0.1456897 -0.22738567 0.09176992 0.23219551 -0.030264763 -0.005515243 0.28998852 0.07075887 0.11057616 -0.0037991016 -0.17072299 -0.0515555 -0.05472382 0.1371013 -0.15257522 -0.029259136 0.21038829 0.187968 0.26926148 -0.14882752 0.08498848 0.14265421 -0.14134464 0.14627233 -0.10121798 -0.029146198 -0.09583876 -0.024903148 -0.022166966 -0.12562943 -0.0116797155 -0.014692382 0.086120166 -0.0154862 0.27880535 -0.02997827 -0.028362105 0.09757286 -0.100630514 -0.09198423 -0.06346353 0.057798695 -0.032119136 0.0317403 -0.06526694 -0.008463095 0.090841725 0.06355642 -0.07246068 0.17135058 0.15243864 -0.12291835 0.060871705 -0.19113834 -0.05017554 0.008787165 0.08141411 -0.12788187 -0.11229478 -0.064067386
