7 64
902 -0.018964587 -0.050191198 0.14888589 0.20253773 -0.1581316 -0.21243717 0.09590182 0.21524592 -0.10181249 -0.022442026 0.22421847 0.008118469 -0.015794061 0.10945086 -0.12595512 -0.025021564 -0.0026711572 0.08131287 -0.21952945 -0.12825666 0.24481776 0.16799127 0.20723058 -0.05253506 0.13358854 0.025751984 -0.12667225 0.12433446 -0.18581505 -0.094660684 -0.17676805 -0.083133124 0.16392514 -0.15443943 -0.013517855 -0.0142925605 0.1578326 -0.10703932 0.16144626 -0.06522432 -0.16325673 0.10650735 -0.15499568 -0.10731807 -0.06774781 0.051388152 -0.098975204 0.15572305 0.048195053 0.0882673 -0.053978253 0.106681876 -0.064028464 0.07846086 0.20355344 -0.10053283 0.08378514 -0.19648533 -0.07185562 0.15296854 0.019932037 -0.09401841 -0.1372423 -0.12939198
9 -0.029857246 0.0033667085 0.22763106 0.24638876 -0.21742427 -0.20328498 0.16843988 0.28096196 -0.05634081 -0.059336077 0.28328863 0.038183272 0.045875803 0.044690408 -0.16586138 -0.055190634 0.0127989985 0.10351287 -0.16755243 -0.051717903 0.19186114 0.18755229 0.2845165 -0.12951685 0.1228836 0.09376237 -0.08486566 0.14937742 -0.11074169 -0.052902292 -0.08096267 0.006688267 0.004029472 -0.19756274 -0.052149963 -0.0064819236 0.10686525 -0.011895441 0.221498 -0.06520884 -0.06292507 0.10687972 -0.12312122 -0.09585615 -0.028409012 0.0061640004 -0.098388545 0.08609069 -0.034605235 0.079514645 0.015708206 0.0974508 -0.07200913 0.17470239 0.16291168 -0.14326599 0.075232804 -0.18134908 -0.040783923 0.03888573 0.050441176 -0.05537221 -0.11747511 -0.08771113
6 -0.0252446 -0.0006638528 0.20757951 0.20038421 -0.18767166 -0.20518538 0.15182996 0.2449494 -0.05304908 -0.012759986 0.26059693 0.047151893 0.017412107 0.060245514 -0.15872067 -0.021238226 0.014544206 0.102459624 -0.1699093 -0.08559763 0.2138256 0.1713032 0.2557238 -0.11451309 0.13375291 0.052772626 -0.09313452 0.1499361 -0.1088115 -0.05489479 -0.1224933 -0.010061073 0.05686471 -0.16634516 -0.05959269 -0.024721388 0.14529608 -0.027756577 0.19442053 -0.09512821 -0.085750066 0.12863705 -0.13694371 -0.13353474 -0.014305735 0.044666834 -0.105644025 0.1051353 -0.011483756 0.071881 -0.011733021 0.08451505 -0.09520882 0.12809505 0.19049299 -0.13887179 0.07303912 -0.16976048 -0.052185122 0.06103093 0.027549477 -0.07180453 -0.11332885 -0.10787963
5 -0.021321226 -0.031297434 0.18678293 0.21924616 -0.17791985 -0.20747644 0.1232759 0.24730824 -0.0733184 -0.026006568 0.24350654 0.026083834 0.020261358 0.0814033 -0.14702931 -0.026964214 -0.00050726574 0.098627426 -0.1957397 -0.08667039 0.22952732 0.17653884 0.25153977 -0.101066604 0.13527095 0.06772968 -0.114319965 0.12930992 -0.14793822 -0.07664368 -0.13164258 -0.046271272 0.08722118 -0.17581277 -0.028980486 -0.00611163 0.12730524 -0.046301864 0.19774014 -0.077804364 -0.113104194 0.10731248 -0.14035904 -0.10948324 -0.04241888 0.03740924 -0.09434817 0.116286345 -0.0025561596 0.07428813 -0.0147426 0.10299238 -0.06614871 0.12886308 0.183449 -0.12464571 0.06959634 -0.18095891 -0.05376137 0.08536284 0.024651561 -0.08312403 -0.1324608 -0.110446356
7 -0.02710846 -0.027742233 0.17238611 0.21159892 -0.17583042 -0.20972256 0.14442618 0.24747247 -0.08857084 -0.024419094 0.26043567 0.033489194 0.005481175 0.087114945 -0.13954332 -0.032085035 0.010881323 0.09665236 -0.19131921 -0.07827286 0.22946279 0.17914571 0.23850274 -0.09149322 0.1284696 0.04405701 -0.116360724 0.13530284 -0.14065766 -0.08106033 -0.13441944 -0.046936084 0.09810311 -0.17232344 -0.03989808 -0.00050520146 0.14388327 -0.06365837 0.1981804 -0.058702476 -0.10080642 0.105160385 -0.12713626 -0.113224044 -0.057626244 0.044581104 -0.09941393 0.11250822 0.012839896 0.08123347 -0.017947318 0.113613375 -0.057606235 0.11039555 0.19609326 -0.113093674 0.085098244 -0.1958258 -0.03827344 0.086615935 0.04778048 -0.08197262 -0.1403642 -0.09780915
8 -0.022307865 -0.015827062 0.20781752 0.2257074 -0.20164691 -0.19887398 0.15352392 0.25062945 -0.06461874 -0.026723187 0.25444493 0.027948897 0.0012609917 0.0668713 -0.14159136 -0.016254408 0.027246606 0.08502855 -0.19397031 -0.069030404 0.21783075 0.18002407 0.25514477 -0.10391799 0.14071637 0.05647901 -0.09261345 0.13639991 -0.13124506 -0.068985455 -0.11612015 -0.024133801 0.056219075 -0.18472171 -0.056476045 -0.015143281 0.14003995 -0.028810892 0.196562 -0.08348727 -0.096053034 0.12185055 -0.120853215 -0.116550416 -0.025084615 0.025858369 -0.10279599 0.123893976 -0.0039163018 0.063289724 -0.0076297154 0.087891534 -0.079026036 0.13867082 0.18007098 -0.13367547 0.06754228 -0.16568746 -0.059342094 0.0804453 0.02407728 -0.06011698 -0.11288547 -0.1002998
4 -0.028390339 -0.012536251 0.2128405 0.21327846 -0.18884705 -0.21998455 0.13043056 0.23581211 -0.06474682 -0.027618797 0.2742173 0.037158437 0.022930661 0.049008083 -0.15269947 -0.038953792 0.00023702667 0.09621219 -0.18787289 -0.08840903 0.21572818 0.18083663 0.2435292 -0.09520337 0.118318334 0.062136676 -0.10610867 0.15236153 -0.1348309 -0.05574837 -0.13200323 -0.027235115 0.059416063 -0.1514053 -0.040101185 -0.030103235 0.1425676 -0.059079908 0.20128123 -0.05928508 -0.09637334 0.11959038 -0.12838541 -0.10761335 -0.044907153 0.03920576 -0.0872564 0.11338126 0.0018568868 0.055009767 0.002334593 0.074608415 -0.0891923 0.12668693 0.18226238 -0.12365377 0.07952237 -0.18632132 -0.07125882 0.09235312 0.045667563 -0.08254697 -0.10621592 -0.10192167
