7 64
902 -0.013322968 -0.039581887 0.15901679 0.23091012 -0.17917672 -0.19317824 0.11510469 0.2577822 -0.08331825 -0.04332989 0.20100418 0.0038330758 0.009156583 0.11767597 -0.14298849 -0.027885072 0.00085955387 0.09265234 -0.19969527 -0.11522505 0.22755444 0.1638559 0.25226697 -0.09116704 0.1514643 0.061260913 -0.105652474 0.11227422 -0.16770631 -0.094508536 -0.13646594 -0.055249933 0.12947026 -0.19988482 -0.016054256 0.006976789 0.11468235 -0.04880767 0.16366643 -0.10278938 -0.15184784 0.096375994 -0.1738044 -0.104743175 -0.03136287 0.023251826 -0.11449047 0.13491367 0.006509302 0.12210883 -0.059519913 0.12924902 -0.053639434 0.12275109 0.18330622 -0.12769723 0.06638985 -0.17470841 -0.04663074 0.09971832 -0.007121666 -0.06989332 -0.14989679 -0.13591236
9 -0.019348035 -0.037056334 0.17321193 0.24867508 -0.18105596 -0.18200168 0.11791874 0.27304086 -0.07477623 -0.070274904 0.22721018 0.009730528 0.0554021 0.081704415 -0.14608663 -0.05545545 -0.0112592885 0.10086976 -0.18182173 -0.05163497 0.20222665 0.17739442 0.27389562 -0.117789395 0.12571251 0.11504479 -0.10736222 0.10645342 -0.14924107 -0.08192752 -0.082765624 -0.038928 0.04857841 -0.21159422 -0.0068641305 0.028575003 0.066142425 -0.018952189 0.21274208 -0.05827216 -0.09662085 0.06932821 -0.1347681 -0.06661777 -0.052095696 -0.0022475668 -0.08540244 0.08750378 -0.033099502 0.0950143 0.001519346 0.13124157 -0.024721181 0.17174132 0.14640915 -0.12460654 0.06124325 -0.18177903 -0.026538927 0.04951978 0.031276137 -0.06764803 -0.15037517 -0.09432685
5 -0.024852455 -0.03274861 0.19973019 0.24073745 -0.17682211 -0.19497229 0.13017933 0.27992126 -0.05960944 -0.044924438 0.26180395 0.037108503 0.07783973 0.056023456 -0.15820765 -0.04659469 -0.016362416 0.12005292 -0.1753681 -0.016863516 0.21538405 0.19264327 0.29535508 -0.1497129 0.12232339 0.1360028 -0.123042025 0.11781463 -0.1252994 -0.070125036 -0.07321293 -0.03119694 0.0062847137 -0.20635852 -0.019401388 0.028311055 0.06957054 0.005866445 0.26191294 -0.054030437 -0.055511184 0.08014301 -0.11224252 -0.08300757 -0.05327625 0.016599482 -0.07020167 0.058647007 -0.05962175 0.054932605 0.04628444 0.120774 -0.031337854 0.19070657 0.1510316 -0.13249128 0.057170846 -0.18371016 -0.01862529 0.010077034 0.052719783 -0.085227594 -0.14873956 -0.07235717
7 -0.011610651 -0.052571382 0.17069812 0.24258846 -0.17065258 -0.18090214 0.09827687 0.26199782 -0.06861603 -0.04752898 0.20121725 0.0038100888 0.045794714 0.09207858 -0.13936503 -0.02795093 -0.013373237 0.09780046 -0.19737928 -0.05982496 0.22120109 0.1728055 0.27075154 -0.11740422 0.14112799 0.11463854 -0.11576372 0.09291573 -0.1615607 -0.08939041 -0.09820031 -0.05774129 0.06858799 -0.209091 -0.0015844182 0.02581494 0.07063358 -0.01054321 0.20723811 -0.08236378 -0.1167186 0.07724142 -0.14041366 -0.07948397 -0.04141971 0.008791414 -0.08287637 0.10341689 -0.03245299 0.079210356 -0.004168296 0.124502964 -0.02984869 0.16680843 0.14980276 -0.12786162 0.04539858 -0.16438627 -0.039446108 0.060606517 0.0034222128 -0.07605418 -0.14925398 -0.106367156
6 -0.022711003 -0.051574342 0.1613472 0.23473185 -0.16054945 -0.18713634 0.1276 0.2730505 -0.08162399 -0.03923679 0.24150217 0.027725425 0.054872487 0.08461177 -0.13641764 -0.03780483 -0.009789928 0.11090384 -0.18358919 -0.01351381 0.22433941 0.18625878 0.2714883 -0.1302298 0.12457307 0.113242574 -0.13268363 0.09852867 -0.13837181 -0.09083358 -0.08303893 -0.057470117 0.04764235 -0.2073192 -0.012569777 0.046641413 0.07341284 -0.011442227 0.24681082 -0.043791316 -0.067396894 0.066167615 -0.10444218 -0.08011634 -0.07070228 0.02242406 -0.07188659 0.066241734 -0.0388498 0.0644469 0.029088486 0.14170143 -0.005278271 0.16425107 0.15728295 -0.11305139 0.060189046 -0.18840495 -0.002895989 0.024369327 0.052983385 -0.08729992 -0.1679354 -0.06817171
4 -0.0169688 -0.04781856 0.18714893 0.2547169 -0.18608518 -0.17756473 0.1247049 0.26944655 -0.06968998 -0.053265683 0.23081264 0.00943424 0.04260856 0.071657084 -0.13127133 -0.029254524 0.004075871 0.09061201 -0.19892938 -0.016200608 0.21409035 0.1875011 0.2761949 -0.12410138 0.13396215 0.12009573 -0.111395754 0.09640475 -0.14907086 -0.08552838 -0.074328914 -0.04721145 0.025040409 -0.21734029 -0.018364629 0.031069059 0.071135916 0.0013361988 0.23392221 -0.05650008 -0.08188246 0.07690841 -0.10163316 -0.070747785 -0.051611993 -0.002182095 -0.0742156 0.0930149 -0.0396375 0.052568845 0.029412536 0.117830716 -0.021460034 0.18449733 0.14045008 -0.12504973 0.0471325 -0.16620377 -0.033800274 0.04599589 0.029547494 -0.065693386 -0.1412253 -0.076212816
8 -0.019309277 -0.045226913 0.19647145 0.25411686 -0.18293305 -0.19359446 0.10287062 0.26433846 -0.0669678 -0.061480276 0.23911007 0.010385027 0.06264705 0.061460417 -0.14524592 -0.048449364 -0.01891025 0.09952046 -0.1978194 -0.041467197 0.21239659 0.18773988 0.27636003 -0.11999186 0.12285548 0.13172394 -0.118047886 0.10840946 -0.15858442 -0.076207615 -0.08683046 -0.04746495 0.029233426 -0.20023733 -0.0020225323 0.017948907 0.06763021 -0.017729944 0.2331655 -0.049189348 -0.09395508 0.076428086 -0.12060311 -0.06253851 -0.059360467 0.0011160704 -0.06728398 0.091879345 -0.038720306 0.056047384 0.029435566 0.109286755 -0.033244047 0.18428603 0.14037725 -0.12521392 0.053184427 -0.17882566 -0.048694443 0.058683526 0.0345341 -0.07922873 -0.13580169 -0.087784015
