7 64
902 -0.022628315 0.0074308147 0.1715224 0.24313018 -0.24755363 -0.16524349 0.2102841 0.24426201 -0.10482332 -0.082719974 0.24263364 -0.011044174 -0.08803355 0.10065883 -0.105239384 -0.031832952 0.09633598 0.027027613 -0.20205972 -0.09621522 0.1766672 0.16706409 0.20958596 -0.03577561 0.14637466 -0.0305264 -0.033779807 0.1409356 -0.14574237 -0.08735044 -0.114890434 -0.0038692246 0.10167888 -0.21117303 -0.091544144 -0.02045393 0.17895819 -0.07788523 0.109806746 -0.06893809 -0.13241978 0.12273799 -0.11832048 -0.09970422 -0.02217819 -0.021115419 -0.1551005 0.18777443 0.06761237 0.13747841 -0.08568372 0.103104085 -0.07482843 0.09693606 0.18751688 -0.118639685 0.09933015 -0.1668107 -0.061701994 0.15292561 0.021513434 0.0118329935 -0.09810564 -0.10797529
9 -0.027595852 -0.023910195 0.15589741 0.22231972 -0.18306622 -0.18892917 0.16532433 0.26227018 -0.09686121 -0.046084326 0.255644 0.026763178 0.0018638833 0.09567878 -0.13146298 -0.041857667 0.02557036 0.09000214 -0.18084475 -0.05477531 0.21153122 0.17782624 0.24185826 -0.09342902 0.12687129 0.044125363 -0.103172995 0.12531273 -0.1322139 -0.08810801 -0.10746163 -0.03715829 0.08522569 -0.19657663 -0.045540355 0.020267379 0.12717845 -0.051943198 0.19576675 -0.04851885 -0.08625342 0.0892318 -0.11561712 -0.0994169 -0.059870258 0.023662005 -0.10742192 0.102885775 0.008738322 0.102474645 -0.020945303 0.13487819 -0.034141157 0.12044427 0.18563397 -0.110451154 0.08799744 -0.19569574 -0.013758163 0.06879986 0.05576121 -0.06111925 -0.15093601 -0.08375259
6 -0.02624349 -0.035045415 0.16834742 0.20329386 -0.15954286 -0.20795012 0.14043604 0.25168735 -0.08086017 -0.0055847224 0.2553015 0.045210313 0.022421535 0.087706126 -0.14253289 -0.021279747 0.0014032933 0.110761024 -0.18264028 -0.058357954 0.23840523 0.17826714 0.24785595 -0.112406194 0.12980065 0.059976164 -0.12904873 0.12520818 -0.12742625 -0.081647106 -0.12616369 -0.05192657 0.08801491 -0.17276677 -0.036330637 0.01273023 0.13037261 -0.040744632 0.21859284 -0.065259606 -0.08186658 0.09943512 -0.12006626 -0.12101802 -0.055482924 0.057021644 -0.089377075 0.08853129 -0.007893209 0.06730524 -0.0006617172 0.12058678 -0.04701411 0.11741664 0.19375588 -0.1142043 0.07475409 -0.18951567 -0.020630585 0.053028636 0.04763637 -0.094793186 -0.15168568 -0.0880867
8 -0.023033438 -0.05621039 0.14911532 0.20857327 -0.14742555 -0.2109602 0.12564698 0.25566298 -0.094018914 -0.0023336506 0.2419814 0.03729795 0.0220791 0.10989933 -0.13735473 -0.016819004 -0.007590299 0.11378856 -0.1969561 -0.06056999 0.25613177 0.17939636 0.24641417 -0.10882685 0.13613665 0.06419918 -0.1469025 0.11048702 -0.14781094 -0.09860942 -0.13709444 -0.07818101 0.11794974 -0.17988436 -0.01994729 0.027817355 0.12420974 -0.048582148 0.22186941 -0.06452883 -0.099124216 0.088885725 -0.12634607 -0.117958464 -0.069432735 0.062503226 -0.08639465 0.09343789 -0.0032297967 0.07193915 -0.007540483 0.13874163 -0.028587975 0.11224203 0.1982945 -0.10712124 0.07195531 -0.19619788 -0.014362495 0.061587345 0.041898385 -0.106909394 -0.17173274 -0.09257973
4 -0.027969161 -0.04177466 0.14069712 0.19256723 -0.15369774 -0.20352761 0.16191953 0.2467922 -0.103117615 0.0057648355 0.25854662 0.04549799 -0.013834715 0.1082651 -0.121651135 -0.008745504 0.024215534 0.09889643 -0.18999322 -0.047855165 0.24744762 0.1779899 0.2245343 -0.09366668 0.13305771 0.021574767 -0.13269962 0.11980846 -0.12868232 -0.09774544 -0.13668801 -0.06667773 0.11941211 -0.17386606 -0.050570335 0.022955645 0.15621349 -0.059327967 0.21007709 -0.053261593 -0.08131165 0.09979198 -0.10178647 -0.13147993 -0.070274234 0.06725704 -0.09910924 0.10010809 0.018716913 0.07112395 -0.013875729 0.13495852 -0.032702893 0.088175684 0.21142642 -0.09845823 0.08568234 -0.1961485 -0.00575746 0.06696533 0.059300963 -0.09022419 -0.16240609 -0.076311275
7 -0.023681222 -0.033085983 0.16987833 0.22869784 -0.19009751 -0.18997578 0.17115872 0.26186204 -0.09126986 -0.025620528 0.25102755 0.026309868 -0.013632876 0.097077206 -0.12402562 -0.013282723 0.038479447 0.08404025 -0.19772932 -0.04234314 0.22895758 0.1829776 0.24731913 -0.099829696 0.14333162 0.04241456 -0.10600969 0.11842896 -0.13482018 -0.093351595 -0.11115535 -0.0449607 0.0815422 -0.20279 -0.056170788 0.018284919 0.13783494 -0.034375887 0.20417045 -0.06549116 -0.08679769 0.10181994 -0.102931395 -0.113598004 -0.04847886 0.029075846 -0.10583705 0.11515879 0.005518854 0.07678449 -0.012546295 0.124895215 -0.039609585 0.12531088 0.18808915 -0.11650585 0.074334875 -0.17761503 -0.022734167 0.069791436 0.039954685 -0.06018738 -0.14446536 -0.08152059
5 -0.026666433 -0.05391074 0.15557894 0.20303427 -0.14692149 -0.2154652 0.123990506 0.24260898 -0.09492887 -0.0010912686 0.25651136 0.039962668 0.018263629 0.09227705 -0.12998429 -0.020494338 -0.006628586 0.10700065 -0.19864912 -0.052650776 0.25100634 0.18288189 0.23247696 -0.09827742 0.12351983 0.059081294 -0.14784242 0.11668162 -0.1466787 -0.09151325 -0.13829055 -0.07824855 0.10621602 -0.16255389 -0.022227382 0.018570585 0.13236485 -0.061739866 0.2259877 -0.042335905 -0.089428045 0.09073852 -0.10811556 -0.11067356 -0.08160805 0.064062595 -0.07537118 0.09300941 0.0046219174 0.050206687 0.007860331 0.12188143 -0.032291163 0.10577636 0.19356619 -0.09715087 0.07603435 -0.1986536 -0.02424743 0.07167869 0.058128145 -0.10851407 -0.15656705 -0.07964149
