7 64
902 -0.0034082728 -0.017384851 0.15212451 0.24329178 -0.20792335 -0.17206131 0.08865646 0.23621182 -0.08486683 -0.106295645 0.15395813 -0.045696586 -0.018573495 0.12895967 -0.14330204 -0.05633262 0.008883436 0.053200327 -0.20139824 -0.20298621 0.17815831 0.13189058 0.22013357 -0.0343783 0.15037867 0.03267109 -0.047124505 0.11524654 -0.19813436 -0.0846993 -0.14622182 -0.030892078 0.16404197 -0.19479032 -0.0026609837 -0.030205078 0.10958571 -0.085960664 0.058314275 -0.12398177 -0.22682297 0.09608905 -0.2270874 -0.06979328 0.0019362618 -0.027588837 -0.14263429 0.19384481 0.046595417 0.18824424 -0.13846421 0.10428877 -0.0846788 0.10223719 0.15650938 -0.13017459 0.069173425 -0.15137817 -0.097279586 0.1795629 -0.059423808 -0.022099307 -0.11035736 -0.19226749
9 -0.027052693 -0.0350818 0.15942314 0.21402994 -0.15092318 -0.21507557 0.09386102 0.25150105 -0.08368936 -0.049515914 0.24521026 0.030104723 0.0676439 0.084801696 -0.1622016 -0.072577044 -0.04366451 0.12296176 -0.1716078 -0.09927157 0.21672677 0.17049982 0.2490016 -0.10194546 0.106592275 0.09318927 -0.13263735 0.12857628 -0.15107763 -0.074080065 -0.1279058 -0.05285453 0.09859656 -0.16222863 0.008937775 0.010874956 0.091410354 -0.07005191 0.2031389 -0.045777377 -0.109618805 0.07307209 -0.16136637 -0.0809777 -0.07310285 0.039221782 -0.07991008 0.0784927 -0.010779144 0.10424167 -0.014017933 0.12821719 -0.040795278 0.12472429 0.1744387 -0.1086827 0.0835018 -0.21335675 -0.029506413 0.0684974 0.051480614 -0.10536372 -0.15714753 -0.10918455
4 -0.022145694 -0.025746811 0.15766048 0.19032715 -0.14460275 -0.21243434 0.089862876 0.2373619 -0.07126213 -0.028814886 0.22539474 0.033758212 0.053725425 0.09196958 -0.16716017 -0.053291414 -0.039209254 0.12253308 -0.16549233 -0.13017923 0.21979342 0.15570712 0.24182563 -0.099723384 0.11872853 0.07202942 -0.122422606 0.13254939 -0.14231922 -0.068481624 -0.14564021 -0.046090264 0.120168336 -0.15084481 -0.0009583864 -0.006483834 0.10973813 -0.06580409 0.17588139 -0.08284822 -0.12655556 0.0917853 -0.18293679 -0.10699328 -0.04409512 0.05328645 -0.09386223 0.09214355 -0.0048023183 0.11291487 -0.040230762 0.11652125 -0.0667074 0.106338635 0.18690881 -0.11876478 0.07836741 -0.19614172 -0.040295124 0.07564641 0.023084473 -0.104370944 -0.14839879 -0.1328992
7 -0.023061743 -0.05400626 0.15156224 0.19304633 -0.11785995 -0.22275688 0.0682024 0.24645776 -0.073090136 -0.009830776 0.2319758 0.045279868 0.089258775 0.0924094 -0.16925208 -0.049075175 -0.06727965 0.14605841 -0.17221579 -0.092908755 0.2463941 0.16901241 0.2588394 -0.12594695 0.11459524 0.11252073 -0.1633511 0.116234094 -0.148223 -0.07857159 -0.14069778 -0.075773545 0.110765666 -0.15306889 0.02229988 0.020734252 0.0844775 -0.05107974 0.22927718 -0.065601915 -0.105889015 0.073992185 -0.16723473 -0.10252237 -0.072143935 0.07135975 -0.065734364 0.059643958 -0.03150007 0.08065437 0.0016476493 0.13438146 -0.036426287 0.12505054 0.18442607 -0.11183674 0.06837826 -0.20950608 -0.019758709 0.042245705 0.0407957 -0.13889524 -0.17567359 -0.111496635
6 -0.02790196 -0.046323616 0.15353076 0.20263547 -0.13914937 -0.22512749 0.0933372 0.2429018 -0.09050865 -0.02458388 0.2514649 0.03780482 0.055383608 0.090673305 -0.15472314 -0.056254346 -0.042134214 0.12491654 -0.18336566 -0.09461529 0.23873298 0.17513196 0.23986533 -0.098551124 0.11025911 0.08003777 -0.15018329 0.1277037 -0.15534732 -0.081447415 -0.14610818 -0.07153981 0.11786578 -0.15175337 0.005783028 0.01139848 0.11094853 -0.07975942 0.21361573 -0.04274105 -0.10956053 0.079829596 -0.15112367 -0.09582975 -0.08408824 0.06072152 -0.07525001 0.082955435 -0.0010210486 0.085235566 -0.008616977 0.12817727 -0.039832417 0.10876976 0.19053319 -0.10150243 0.08500493 -0.21846692 -0.029343199 0.07599148 0.057253066 -0.120872445 -0.16306823 -0.10420365
5 -0.020594697 -0.035220243 0.17337498 0.22752367 -0.1716697 -0.20362501 0.099924 0.24871652 -0.077741206 -0.05235099 0.23023652 0.014085421 0.041881464 0.08487465 -0.15126799 -0.05262375 -0.021163484 0.10149175 -0.18856785 -0.09924291 0.21460447 0.16997445 0.24911301 -0.09440643 0.122854896 0.08573024 -0.11430357 0.12221193 -0.15984869 -0.07668261 -0.1247929 -0.0490872 0.092014566 -0.17565304 -0.0035046213 0.0012672984 0.09908016 -0.057182726 0.1874193 -0.0646352 -0.12490261 0.085957564 -0.15602912 -0.082590684 -0.053074107 0.022819875 -0.0881253 0.10797604 -0.0051481314 0.09550013 -0.021960367 0.11259338 -0.052143715 0.13306823 0.16696627 -0.1177516 0.071185336 -0.18882942 -0.05092227 0.08858436 0.02544671 -0.08371549 -0.13818781 -0.11597804
8 -0.022928057 -0.038785294 0.1694815 0.22109878 -0.15988196 -0.22097538 0.070691675 0.23473084 -0.083564065 -0.05856059 0.232717 0.011588075 0.054242156 0.08117286 -0.15744442 -0.07213696 -0.046180204 0.106567316 -0.19099504 -0.13087106 0.21534994 0.16687402 0.23427013 -0.07723772 0.10801801 0.08671915 -0.12560147 0.13039108 -0.1767442 -0.07195145 -0.1466516 -0.060294773 0.11494959 -0.14932247 0.018638032 -0.011082032 0.09986658 -0.0918128 0.17704502 -0.048830483 -0.14479047 0.08093727 -0.173635 -0.070696935 -0.07015488 0.030594198 -0.078456044 0.11126403 0.008378005 0.09978518 -0.029086044 0.10531748 -0.058660008 0.116671555 0.1688158 -0.107206404 0.08049562 -0.20601033 -0.06654835 0.11518488 0.032548916 -0.10179315 -0.13586576 -0.12885602
