7 64
902 -0.017979905 -0.043874223 0.12551722 0.22162528 -0.17125878 -0.1898849 0.13904421 0.26780966 -0.11002799 -0.047094245 0.22086927 0.009504947 -0.0023052162 0.13758175 -0.13543358 -0.036217332 0.01205574 0.094674595 -0.1999582 -0.09505839 0.23496653 0.17064899 0.24457076 -0.08539528 0.14664716 0.04252039 -0.11584794 0.11031563 -0.16526777 -0.109815866 -0.13444537 -0.06507115 0.14673135 -0.20939913 -0.022174159 0.029501775 0.122774035 -0.064643286 0.17362548 -0.07642113 -0.13620444 0.08307781 -0.1564843 -0.10365967 -0.057421327 0.028432032 -0.11944916 0.1247721 0.019703206 0.13633274 -0.06134237 0.15848577 -0.026197659 0.10769167 0.19656326 -0.1119628 0.083176665 -0.19781266 -0.015702697 0.09327678 0.02229736 -0.070905544 -0.17508644 -0.11720117
9 -0.03443161 -0.009325859 0.16462608 0.22179152 -0.17506605 -0.1841445 0.17761596 0.28994265 -0.07869045 -0.054995798 0.27518868 0.05181297 0.060821008 0.07188169 -0.15368585 -0.06665868 0.004906191 0.12122454 -0.13730621 -0.011350801 0.18962361 0.18076214 0.2754798 -0.14021935 0.10803938 0.09214807 -0.105665445 0.12694754 -0.09002216 -0.07078778 -0.06033018 -0.008199465 0.019930528 -0.20699112 -0.04195768 0.043380678 0.0815989 -0.008915675 0.23949938 -0.03631126 -0.026715843 0.06840062 -0.1056216 -0.08946662 -0.059242763 0.018895458 -0.09329694 0.036176473 -0.043150414 0.1033456 0.020707384 0.15123634 -0.01544678 0.15946944 0.16619006 -0.11934206 0.08539814 -0.20286626 0.02779652 -0.012947982 0.08436998 -0.067709245 -0.16712524 -0.057690755
6 -0.03690803 -0.0041494216 0.1950191 0.20427836 -0.16271703 -0.19562875 0.16922511 0.2773205 -0.052425332 -0.021205086 0.29137528 0.076480016 0.08270002 0.039936826 -0.1651956 -0.05123077 -0.0075907004 0.13712029 -0.1286939 0.0045570033 0.199287 0.18619129 0.28683016 -0.16541761 0.10386479 0.11070927 -0.11787531 0.13801445 -0.06808997 -0.051714048 -0.060947437 -0.0010280847 -0.015766833 -0.18494137 -0.04919131 0.028699894 0.08716512 0.01306415 0.27253193 -0.043744832 0.0010983566 0.08570884 -0.09331494 -0.10919247 -0.050344728 0.042445946 -0.075501755 0.015826339 -0.06720582 0.057285182 0.0589539 0.12491387 -0.037211698 0.171732 0.16888246 -0.1294024 0.07553728 -0.1956208 0.018504433 -0.039874688 0.09057851 -0.08942204 -0.15360494 -0.048694577
7 -0.027642164 -0.030624965 0.16905433 0.21322004 -0.15487458 -0.18957584 0.14838831 0.2760923 -0.06772888 -0.020549348 0.25612414 0.05348773 0.06410888 0.07495293 -0.15125269 -0.035598893 -0.007994067 0.12719955 -0.15506734 -0.011867162 0.21876831 0.18106705 0.2784841 -0.14970222 0.121640995 0.104856834 -0.12738127 0.114016466 -0.101992965 -0.076105036 -0.078620374 -0.03362335 0.032706704 -0.19824107 -0.031692117 0.040926196 0.083832614 0.0039582984 0.25319612 -0.058121715 -0.03975005 0.07774107 -0.10760468 -0.10569254 -0.053896323 0.04023867 -0.080062464 0.042869076 -0.051933385 0.069402225 0.032082856 0.140751 -0.021038046 0.16032368 0.1708016 -0.12323376 0.06579199 -0.18842512 0.013708189 -0.010596941 0.061542 -0.0907726 -0.16837135 -0.06559254
5 -0.028770436 -0.035481535 0.14833367 0.19788797 -0.14819016 -0.18998142 0.16062795 0.2619017 -0.08438494 -0.004728045 0.257248 0.054354943 0.029212432 0.09011662 -0.13386576 -0.021747306 0.009518547 0.11571336 -0.16395554 -0.014438058 0.22961193 0.17900789 0.25251952 -0.12823534 0.12433561 0.0658822 -0.1310053 0.11331747 -0.10535397 -0.0869489 -0.09772342 -0.047708485 0.06658916 -0.18829276 -0.0435979 0.04035252 0.113869816 -0.018996382 0.23892036 -0.05093852 -0.045551676 0.08334522 -0.0951836 -0.118144825 -0.06389405 0.054573342 -0.08686419 0.058648158 -0.02339835 0.067933716 0.01708888 0.14362532 -0.018169671 0.12667464 0.18863358 -0.10870706 0.07508525 -0.1917797 0.016973699 0.011331811 0.06755307 -0.09019649 -0.17034262 -0.060773943
8 -0.02679821 -0.03178628 0.17864068 0.21596137 -0.16934484 -0.18842617 0.16985431 0.2707945 -0.071408965 -0.0066824406 0.26382047 0.051740665 0.028887277 0.07528832 -0.13646048 -0.011656706 0.020228794 0.11036857 -0.17407478 -0.0003122036 0.23049454 0.18906286 0.272719 -0.14141548 0.13487057 0.08125167 -0.12256614 0.11631875 -0.10481715 -0.082248226 -0.086024046 -0.036933236 0.0343601 -0.20342977 -0.0547916 0.03354422 0.11316061 0.0041928953 0.25350022 -0.062594794 -0.04040104 0.09582717 -0.08721515 -0.12050095 -0.04957213 0.042574175 -0.08717493 0.06723378 -0.036999293 0.04969323 0.033184007 0.12980615 -0.029858572 0.1542891 0.18164106 -0.12448845 0.0648376 -0.17914039 0.002201796 0.0075857597 0.05831045 -0.08025104 -0.15709107 -0.05920847
4 -0.031299617 -0.029086208 0.186125 0.2176784 -0.16344571 -0.20045064 0.14839244 0.26712838 -0.06864558 -0.021635363 0.27580965 0.05422806 0.0591281 0.05734535 -0.14796373 -0.039216835 -0.006013759 0.12042854 -0.16528992 -0.008731271 0.21985841 0.19068389 0.27283317 -0.14071506 0.11432658 0.10268532 -0.12973769 0.12509732 -0.10878098 -0.07072386 -0.08512783 -0.034706943 0.022334265 -0.1865274 -0.035025343 0.027916836 0.097083926 -0.010997161 0.26180527 -0.04008151 -0.037517577 0.08537918 -0.09457365 -0.10084011 -0.06539753 0.040438663 -0.07212424 0.051851872 -0.0430133 0.04824386 0.046557296 0.12359426 -0.03059353 0.16041377 0.17162728 -0.11934825 0.0712034 -0.1954478 -0.004121484 0.008088618 0.075543225 -0.09364145 -0.15405859 -0.058827218
