7 64
902 -0.012890107 -0.0197634 0.14653508 0.2538192 -0.20881839 -0.18749538 0.111345746 0.2526005 -0.09907261 -0.101811744 0.18094793 -0.026457738 -0.0073013227 0.13660032 -0.1472635 -0.06863825 0.006615498 0.071226165 -0.18832965 -0.17793562 0.18545663 0.1408129 0.22711548 -0.0479377 0.14188515 0.031509668 -0.064430155 0.11979653 -0.18250147 -0.09113071 -0.13920996 -0.0330432 0.16460115 -0.20033514 -0.0067797196 -0.007656725 0.10963631 -0.08933504 0.0857722 -0.10179518 -0.1962964 0.0838552 -0.21457249 -0.07477532 -0.020530863 -0.013781735 -0.14212015 0.16326888 0.041602112 0.19729789 -0.12622797 0.13276313 -0.061563347 0.09749656 0.17055883 -0.12105701 0.08454895 -0.17754945 -0.059144713 0.14749265 -0.023666494 -0.032541 -0.13600932 -0.16826048
9 -0.022209076 -0.029758912 0.17912774 0.2560202 -0.1894863 -0.1897191 0.117699414 0.27834913 -0.078589015 -0.087003194 0.23896644 0.007636296 0.06199683 0.07845738 -0.15517679 -0.07432441 -0.01719467 0.10273212 -0.18067198 -0.067668 0.1954433 0.17955512 0.27511454 -0.11171791 0.11905338 0.116053656 -0.10343509 0.117168 -0.15418048 -0.077296615 -0.085770704 -0.03210721 0.049998045 -0.20842293 -0.002320392 0.021721032 0.06585463 -0.033782225 0.20629767 -0.05010105 -0.10303424 0.06774421 -0.14574651 -0.057738338 -0.056452043 -0.008570114 -0.087862164 0.0893445 -0.027774343 0.10882393 -0.005081803 0.12980938 -0.030215668 0.17109475 0.14559473 -0.124357365 0.070242666 -0.19257937 -0.032447923 0.05998598 0.038017552 -0.06596577 -0.1471277 -0.10063101
6 -0.023710925 -0.029566688 0.18038224 0.23382147 -0.17605993 -0.20297648 0.105766065 0.25788257 -0.074809335 -0.063617885 0.2418799 0.017809717 0.05718888 0.07344545 -0.15655756 -0.06558277 -0.024696318 0.10635344 -0.18001533 -0.08572425 0.20497282 0.1747191 0.25933018 -0.10391034 0.115177445 0.10056299 -0.11242884 0.12612133 -0.15232511 -0.07110169 -0.10950041 -0.03878592 0.06784759 -0.18096761 -0.0030280885 0.00557999 0.08686138 -0.04988449 0.20122278 -0.05360304 -0.109012224 0.08016439 -0.15066896 -0.07341852 -0.057232615 0.014706153 -0.08406024 0.09367717 -0.017042028 0.09559085 -0.0076625855 0.11521951 -0.04759003 0.14894125 0.15964131 -0.12045853 0.073744245 -0.19541767 -0.044383775 0.073023885 0.038569607 -0.08241559 -0.14011078 -0.107775904
7 -0.016740993 -0.04246303 0.16996829 0.25010028 -0.1766318 -0.1896634 0.09408221 0.26777133 -0.07613167 -0.07545922 0.21417525 0.0013759661 0.061387505 0.089740045 -0.15253013 -0.06208883 -0.027114587 0.10320619 -0.18730873 -0.082783416 0.20555316 0.17146437 0.26892248 -0.10799011 0.12575968 0.11732072 -0.11099924 0.105949804 -0.16597916 -0.08281762 -0.09917247 -0.047845002 0.07311156 -0.2029294 0.010208297 0.021285258 0.06277806 -0.034357935 0.19615097 -0.0655691 -0.12362342 0.06750718 -0.1590419 -0.061895724 -0.051956806 -0.00072066044 -0.08541465 0.09774912 -0.026034236 0.10746071 -0.015714698 0.12944996 -0.030777583 0.16341154 0.14656927 -0.12383948 0.060889445 -0.18441008 -0.039586246 0.06981839 0.017648581 -0.07524466 -0.15055211 -0.11416373
5 -0.025042536 -0.048013728 0.16048808 0.24051312 -0.17395777 -0.20027632 0.12289523 0.26053917 -0.09846339 -0.056989376 0.24847457 0.013605285 0.030376201 0.08946108 -0.1321062 -0.05324517 -0.0059163356 0.09474178 -0.19916296 -0.054230973 0.22068958 0.18486866 0.2467362 -0.0925061 0.11877074 0.08353984 -0.12535146 0.11273976 -0.16299869 -0.09203076 -0.11026609 -0.062534355 0.083009526 -0.19146478 -0.009211243 0.02565343 0.09832739 -0.05983349 0.21344826 -0.0298403 -0.10168741 0.072019026 -0.118509956 -0.07081624 -0.08254141 0.017369641 -0.08097051 0.10042124 -0.0006796656 0.08223985 -8.699509e-05 0.1313979 -0.019857984 0.13759601 0.16648388 -0.10288451 0.0776845 -0.20221406 -0.029314449 0.08122035 0.055287942 -0.08130714 -0.15397042 -0.08465831
8 -0.024698345 -0.053511374 0.20427474 0.26099342 -0.18814038 -0.20055714 0.13038331 0.27877313 -0.07885756 -0.0506474 0.27524984 0.020027895 0.051800236 0.055083435 -0.13570018 -0.03938958 -0.0035181015 0.09876366 -0.21693994 -0.00053253805 0.23299812 0.21226779 0.28612065 -0.12779348 0.12580706 0.13181797 -0.13515513 0.11279685 -0.1606346 -0.08570239 -0.08411825 -0.058410823 0.012856379 -0.21153072 -0.01709916 0.028298061 0.08443523 -0.017046543 0.27458268 -0.025213268 -0.06970422 0.08146153 -0.08499402 -0.067819744 -0.08221981 0.0078641735 -0.05992868 0.09013223 -0.03777505 0.024718545 0.061434057 0.11389464 -0.021222148 0.19387017 0.15135802 -0.120614834 0.058894143 -0.19311507 -0.04143663 0.053743485 0.0635174 -0.085759155 -0.1437959 -0.060675077
4 -0.024815824 -0.048362963 0.18704957 0.251798 -0.1808318 -0.20829546 0.1028427 0.25879022 -0.086103015 -0.066622 0.2567872 0.009628763 0.051610094 0.06550409 -0.1408106 -0.062385518 -0.021506501 0.09629963 -0.20710725 -0.05588585 0.21775858 0.19265373 0.2582306 -0.09759054 0.11262552 0.11256097 -0.12785701 0.118770614 -0.1733844 -0.0808528 -0.10716593 -0.0598009 0.055912137 -0.18553175 0.0026766874 0.012930737 0.08605859 -0.05725873 0.22761732 -0.023497635 -0.104673445 0.07458449 -0.12029042 -0.056502786 -0.084399365 0.008361104 -0.06622265 0.101704724 -0.012808757 0.06120081 0.021388523 0.11118626 -0.031379007 0.16084874 0.15238504 -0.10956448 0.07114332 -0.20197745 -0.05367104 0.08831428 0.05503966 -0.08759921 -0.13853393 -0.087231554
