7 64
902 -0.011936582 -0.05470122 0.15123253 0.25202334 -0.20309898 -0.19284254 0.093267396 0.21350148 -0.11892929 -0.08178514 0.19645649 -0.045162603 -0.055509984 0.11772757 -0.09940967 -0.038557854 0.02430196 0.03180778 -0.25055918 -0.14511319 0.21380703 0.16295686 0.18455525 -0.0038528894 0.13663484 0.013135223 -0.087986425 0.10808049 -0.22775353 -0.10538624 -0.16479163 -0.08314562 0.17003654 -0.1732217 -0.0053020893 -0.021230398 0.14472544 -0.12849988 0.10413597 -0.04940975 -0.20782374 0.093091846 -0.1498844 -0.05684462 -0.06662647 -0.008924466 -0.10726285 0.20894799 0.081437565 0.108576976 -0.085641064 0.093168214 -0.055208776 0.081341594 0.16663702 -0.08968967 0.07901552 -0.17502792 -0.106591344 0.21947786 -0.0053586233 -0.042916518 -0.10541977 -0.1370122
9 -0.028748596 -0.024782447 0.16894436 0.2255266 -0.19809484 -0.19806837 0.1718674 0.24499364 -0.10431301 -0.04023555 0.2670201 0.020050742 -0.03290225 0.08871412 -0.11605542 -0.030320788 0.044160556 0.06854242 -0.20306742 -0.062551975 0.21756345 0.18288954 0.21975084 -0.0667685 0.1282832 0.015462588 -0.0981601 0.13344967 -0.14564708 -0.0885093 -0.12637381 -0.04386752 0.09601031 -0.18167412 -0.058062203 -0.0001757906 0.15944256 -0.07641756 0.18171541 -0.038193762 -0.09894039 0.105102345 -0.09928911 -0.101469055 -0.06491462 0.024932858 -0.107190974 0.13429382 0.03740006 0.0805941 -0.024068616 0.1100481 -0.049816057 0.101118855 0.19130267 -0.10181798 0.092316866 -0.1910882 -0.04144994 0.11103417 0.056853227 -0.053915016 -0.12669541 -0.08178576
4 -0.03446926 -0.012250828 0.18219365 0.19101597 -0.17733593 -0.20872138 0.2030849 0.25934225 -0.08149236 0.016309312 0.2968639 0.07062866 -0.009440118 0.07747829 -0.13790481 -0.0038854463 0.04262157 0.10680425 -0.17355713 -0.026575027 0.23994632 0.18910885 0.24957098 -0.12159839 0.13532598 0.022961121 -0.11750677 0.14645775 -0.09095623 -0.07667233 -0.1193812 -0.027947154 0.06520801 -0.17814158 -0.08686055 0.007872647 0.17309661 -0.02979885 0.23490709 -0.06440204 -0.040657423 0.12472714 -0.08706939 -0.15509373 -0.04728077 0.07037733 -0.10672472 0.08554214 -0.0017322775 0.054887943 0.010835101 0.11754584 -0.060451496 0.1102036 0.21942686 -0.1204672 0.089038506 -0.19210891 -0.0046319887 0.033225846 0.07342172 -0.0809183 -0.14628501 -0.064474985
6 -0.024302071 -0.03639956 0.17337316 0.22075659 -0.18144266 -0.19382499 0.17075625 0.2620136 -0.08587466 -0.0095381355 0.25842878 0.03668269 -0.005950818 0.091097936 -0.12580565 -0.0043215794 0.034606166 0.092209645 -0.19701006 -0.027595729 0.23848078 0.18739581 0.25354692 -0.112461984 0.14388461 0.050555304 -0.116880566 0.1180698 -0.1276376 -0.091943406 -0.11044261 -0.048801538 0.07183075 -0.20018338 -0.05846021 0.021123927 0.13894941 -0.023851918 0.22450233 -0.06632164 -0.073603645 0.105589285 -0.09452722 -0.1231351 -0.050679334 0.040964935 -0.09892806 0.10467667 -0.00489023 0.058479764 0.0048106355 0.12371932 -0.03920875 0.13089189 0.19228438 -0.11864186 0.07052381 -0.1781571 -0.018306227 0.054521557 0.045491237 -0.07167049 -0.14847444 -0.07388285
5 -0.028412744 -0.03606215 0.15836532 0.2065986 -0.17644125 -0.20107421 0.17838514 0.24556534 -0.10291868 -0.0019762495 0.267665 0.03850216 -0.033663288 0.09812115 -0.11315584 -0.0039392095 0.044707563 0.08221593 -0.20161785 -0.03988141 0.24209735 0.18484117 0.22338359 -0.085375704 0.13698167 0.012486845 -0.11901862 0.12523553 -0.1316367 -0.09606897 -0.13180332 -0.058221016 0.10341773 -0.18009418 -0.06575803 0.013337512 0.16860309 -0.059086032 0.20679827 -0.04910662 -0.08037043 0.10977606 -0.08658844 -0.12837484 -0.06596492 0.05375827 -0.10299468 0.1183869 0.02706972 0.060511123 -0.010141752 0.121179566 -0.041562773 0.0946941 0.2083767 -0.10156767 0.08625182 -0.1894645 -0.02082037 0.083324656 0.05966527 -0.07325767 -0.14521731 -0.071027145
7 -0.018444972 -0.03662892 0.19134174 0.25558197 -0.2233581 -0.18877876 0.15550688 0.23970267 -0.0970974 -0.053156227 0.2421605 -0.010575569 -0.052490354 0.08557182 -0.10303961 -0.012073456 0.05685887 0.041718014 -0.23721278 -0.06776924 0.2186792 0.18590802 0.22319847 -0.054433636 0.14619765 0.026541121 -0.083897635 0.11995707 -0.17662245 -0.09368887 -0.12543947 -0.05143463 0.0879343 -0.19747593 -0.05445686 -0.012491042 0.1551451 -0.06608746 0.16753964 -0.05485716 -0.13246016 0.114397794 -0.09823743 -0.087639496 -0.04943866 -0.0022377225 -0.106115736 0.1762322 0.041563228 0.061889496 -0.027020982 0.08683263 -0.06006611 0.12220817 0.17189568 -0.11154393 0.07149477 -0.16322067 -0.081889525 0.14939854 0.020071462 -0.034477893 -0.10166736 -0.09478895
8 -0.024257375 -0.034527957 0.18420415 0.22985472 -0.19666733 -0.20013942 0.14619073 0.23259018 -0.092734545 -0.035206836 0.2564273 0.012128813 -0.026133806 0.074711844 -0.11281901 -0.020641085 0.03431211 0.06337296 -0.21590386 -0.061447557 0.2207707 0.18369451 0.21933772 -0.06636025 0.12864678 0.03417682 -0.1022349 0.12641254 -0.15773128 -0.08382232 -0.1281176 -0.052584864 0.08305074 -0.17268236 -0.04697534 -0.009743146 0.15111089 -0.06972672 0.1870526 -0.04081001 -0.10779744 0.1084415 -0.09518196 -0.093691364 -0.06238426 0.02217758 -0.09151383 0.14243731 0.03044964 0.05107213 -0.008151184 0.08875557 -0.05725182 0.1128989 0.17779869 -0.1038238 0.07745245 -0.17753959 -0.065346725 0.122135684 0.043518428 -0.06003593 -0.11101875 -0.08411133
