7 64
902 -0.014934717 -0.040880695 0.1646591 0.2104593 -0.16970682 -0.20165157 0.11656953 0.23849429 -0.081070885 -0.0140001485 0.21464662 0.01643617 -0.0047474355 0.109860726 -0.13857901 -0.008138323 0.0068250755 0.09131234 -0.20638782 -0.110554755 0.2425016 0.16561978 0.23804407 -0.08707007 0.15111376 0.043424595 -0.11422179 0.11841305 -0.16059934 -0.09042762 -0.15243159 -0.062068544 0.13282306 -0.17781806 -0.028368955 -0.0056086215 0.14115198 -0.0546128 0.17005199 -0.10144731 -0.14307283 0.11193975 -0.15657258 -0.12343987 -0.03287513 0.04573305 -0.10772687 0.13914077 0.015439173 0.090384245 -0.04795215 0.11076431 -0.067129634 0.105171405 0.1958585 -0.12263852 0.06606562 -0.17128488 -0.056126524 0.10677158 -0.0014852774 -0.08130734 -0.1390815 -0.12885474
6 -0.016970668 -0.049929786 0.15027586 0.1922683 -0.14058627 -0.1918056 0.12744738 0.2493413 -0.07288084 0.015925456 0.2193993 0.042037133 0.021571765 0.10574911 -0.13571261 0.0068363077 0.00074110867 0.11357434 -0.18365166 -0.04938402 0.250767 0.16908741 0.25345936 -0.12606737 0.14714167 0.067689374 -0.13544536 0.10148873 -0.12681356 -0.092765965 -0.12390371 -0.06592738 0.09975987 -0.18522578 -0.0320196 0.027624454 0.118312106 -0.012074886 0.21914254 -0.09521295 -0.0884431 0.097695105 -0.12460737 -0.13469703 -0.04005465 0.064534314 -0.09054259 0.0872104 -0.021698005 0.06343413 -0.0052244593 0.13191979 -0.036728527 0.121649556 0.19328608 -0.12041336 0.055151433 -0.16907018 -0.010056347 0.035379197 0.019249637 -0.0989458 -0.16537252 -0.0938093
9 -0.01513409 -0.036374185 0.18452503 0.1824347 -0.14578065 -0.19422309 0.1293532 0.24548243 -0.04319052 0.038381483 0.22340754 0.05704305 0.031514365 0.08324619 -0.15080053 0.02628356 0.0016487389 0.12218727 -0.1784355 -0.047860786 0.25565252 0.17139323 0.2742817 -0.15118596 0.1573512 0.08041033 -0.13014929 0.11338033 -0.10748212 -0.07576071 -0.12220063 -0.047314715 0.06760934 -0.18151173 -0.04811048 0.008678706 0.12654214 0.019311445 0.23388012 -0.12615134 -0.076029494 0.122665256 -0.12745203 -0.1591493 -0.010171377 0.07447859 -0.09035024 0.08392519 -0.04411214 0.038299035 0.011598624 0.10693696 -0.06807233 0.1402907 0.19601664 -0.14319378 0.04222604 -0.1507121 -0.025532145 0.01571069 0.0041163564 -0.102222055 -0.14757353 -0.10003444
4 -0.010393319 -0.056068502 0.15738814 0.1873001 -0.13406411 -0.18609607 0.11989983 0.2497098 -0.05680777 0.038045164 0.20054273 0.045131095 0.025377197 0.10902288 -0.13901035 0.032740545 -3.1643587e-05 0.11942913 -0.18688843 -0.04463732 0.26459524 0.16682589 0.2685655 -0.14557016 0.16430861 0.07998005 -0.13921502 0.091887385 -0.122410566 -0.09410693 -0.12377533 -0.069158174 0.09519045 -0.19341542 -0.034690507 0.028912917 0.11451821 0.018212793 0.22769144 -0.12756611 -0.09032741 0.10746125 -0.12991129 -0.15296859 -0.018720012 0.072957 -0.09072915 0.08735968 -0.039634053 0.04965431 -0.000788053 0.1286247 -0.04352254 0.13382933 0.19442104 -0.13454899 0.036874186 -0.14928474 -0.012174294 0.018796125 -0.006109113 -0.10400289 -0.167052 -0.1014461
8 -0.015361709 -0.05660383 0.13939536 0.17124858 -0.123163566 -0.184538 0.14674912 0.2503012 -0.06826429 0.05773975 0.21496677 0.060954444 0.009914101 0.116880134 -0.12817246 0.042753518 0.01498946 0.12192501 -0.17889474 -0.018763844 0.2720151 0.16896294 0.25796437 -0.14729623 0.16205119 0.056553356 -0.14710909 0.09113295 -0.10389315 -0.10096208 -0.12245186 -0.07308605 0.10151335 -0.19134186 -0.051748257 0.04251311 0.13119973 0.017062243 0.23937418 -0.115060344 -0.06385934 0.106490724 -0.105646804 -0.16819806 -0.030198025 0.09021649 -0.093074486 0.07329608 -0.033077065 0.044204414 0.0056393333 0.14277607 -0.02948825 0.1156744 0.2099587 -0.1235717 0.04591652 -0.15688777 0.0152505385 0.00045705083 0.01626849 -0.1072552 -0.18067102 -0.07981315
7 -0.012843829 -0.04869438 0.1636218 0.19312693 -0.1488135 -0.17933749 0.1448368 0.2523365 -0.05958704 0.03376874 0.21270601 0.045488726 0.008230679 0.10257802 -0.12987621 0.036094386 0.021713804 0.10802585 -0.18805502 -0.025113687 0.2573835 0.1722386 0.26651862 -0.14261176 0.16471788 0.06803528 -0.12789395 0.095253825 -0.113976106 -0.09378893 -0.1123255 -0.059079923 0.07799048 -0.20140469 -0.05310866 0.029050758 0.124553844 0.022369822 0.23002528 -0.118562885 -0.07536108 0.1119203 -0.108766474 -0.15281178 -0.018251082 0.06411478 -0.095316716 0.09145216 -0.03483644 0.043234225 0.005805954 0.12505536 -0.04264564 0.13666654 0.19334139 -0.13377932 0.0404389 -0.14593786 -0.009670598 0.017917093 0.0038549893 -0.08814149 -0.15884474 -0.0870698
5 -0.014075192 -0.067517765 0.15631944 0.18577641 -0.12902315 -0.198667 0.11369987 0.23631936 -0.0690523 0.044855796 0.21690021 0.044960342 0.015293421 0.10142425 -0.12538603 0.03290545 -0.0012506708 0.11203798 -0.2019293 -0.03526508 0.27359742 0.1747481 0.2490295 -0.12828565 0.15345566 0.07127824 -0.15370964 0.092984915 -0.13508865 -0.09732287 -0.1361282 -0.08765029 0.10197652 -0.17504017 -0.030510586 0.025550019 0.12774038 -0.00699567 0.23724994 -0.09719485 -0.08855235 0.10604186 -0.107814275 -0.1449922 -0.0453938 0.08138507 -0.075639956 0.09354007 -0.022862507 0.022680277 0.014905044 0.119149186 -0.03800966 0.12006999 0.19713429 -0.11719624 0.043029156 -0.16032468 -0.021703472 0.041021675 0.0142350355 -0.11537746 -0.16167118 -0.08702006
