7 64
902 -0.023452034 0.016073016 0.198601 0.23551168 -0.24306606 -0.21529615 0.16232273 0.24508913 -0.08714672 -0.0669308 0.23693043 0.001442123 -0.05730628 0.0979338 -0.14677003 -0.04663393 0.048235744 0.054799143 -0.19143818 -0.18860789 0.18992174 0.15263058 0.21252233 -0.03447912 0.14457247 -0.028688906 -0.04612612 0.17155509 -0.15662672 -0.06704249 -0.16835882 -0.0021356533 0.1476549 -0.16904217 -0.067301 -0.062473655 0.19576657 -0.110985465 0.084465005 -0.10627864 -0.17891961 0.14380385 -0.19221698 -0.1221166 -0.0034003535 0.011620398 -0.15963134 0.19555311 0.07286609 0.16172038 -0.12062208 0.08138258 -0.12734285 0.0722058 0.20994651 -0.13286933 0.10648626 -0.17999019 -0.09722168 0.18026286 -0.0032653804 -0.023892008 -0.09008592 -0.16529386
7 -0.014627943 -0.05379428 0.17283405 0.26478374 -0.1822952 -0.16538225 0.13198893 0.2909816 -0.07298819 -0.06291592 0.22016343 0.0073819906 0.057880446 0.08950961 -0.13644306 -0.033031706 0.00086038676 0.10165677 -0.19310516 -0.001649105 0.21541527 0.18842067 0.29734895 -0.14341168 0.1418572 0.1394922 -0.11451127 0.08268048 -0.14639927 -0.096281625 -0.056352776 -0.048001118 0.022720927 -0.24561174 -0.011676071 0.056794725 0.045959614 0.023648148 0.24502823 -0.06549884 -0.07628898 0.061554264 -0.109246284 -0.06718012 -0.049423635 -0.010544148 -0.07956558 0.07660688 -0.058326382 0.07444874 0.027115006 0.14731489 0.0016089178 0.20236741 0.13591576 -0.13096513 0.042113565 -0.16638075 -0.006684076 0.015849823 0.024823096 -0.06269171 -0.16573654 -0.074188665
9 -0.014120308 -0.044884797 0.17387486 0.2427089 -0.17214327 -0.17003061 0.12680362 0.28086683 -0.062112387 -0.043481696 0.21423227 0.018750329 0.058215544 0.0880198 -0.14477375 -0.024516826 -0.0040121 0.10906447 -0.18046734 -0.022066044 0.21714091 0.17816286 0.29201218 -0.14614229 0.14326659 0.12750107 -0.11302844 0.09061235 -0.13322492 -0.087263286 -0.069871984 -0.04150356 0.03370816 -0.2282611 -0.016926592 0.043630186 0.05850308 0.024261208 0.23381674 -0.08536937 -0.07868801 0.07379017 -0.12354906 -0.08728395 -0.033815883 0.0073689646 -0.084334716 0.07432111 -0.058035947 0.07631345 0.016513105 0.13785239 -0.017657336 0.1870191 0.14660482 -0.13583735 0.0417413 -0.16044156 -0.009956775 0.011771945 0.015020075 -0.0702327 -0.16041699 -0.08627054
6 -0.0076179723 -0.07030707 0.14950335 0.24555746 -0.15221652 -0.15859096 0.10498049 0.2833743 -0.06939117 -0.040679276 0.18811627 0.00756696 0.065567784 0.107548 -0.13494122 -0.014720065 -0.014586019 0.11138619 -0.19286743 -0.007924594 0.23160125 0.177867 0.295695 -0.15103473 0.15079297 0.14683834 -0.13066864 0.06419489 -0.15129103 -0.105374224 -0.06696235 -0.06878724 0.048676994 -0.24283521 0.0037009611 0.06752454 0.035490256 0.03451801 0.24396154 -0.08689845 -0.08885013 0.056379713 -0.122528724 -0.07799431 -0.044315938 0.0062546106 -0.07484466 0.07124666 -0.06660087 0.072703496 0.0202281 0.157613 0.010284818 0.19504374 0.13901572 -0.13032943 0.028338002 -0.1567608 0.0013102698 0.005757644 0.0033701877 -0.07994308 -0.18164298 -0.084379934
8 -0.015679529 -0.052095305 0.15984745 0.23995666 -0.17203636 -0.17101027 0.13889149 0.2752015 -0.08002801 -0.03718775 0.2214912 0.015813744 0.029091533 0.100118846 -0.12876709 -0.016100561 0.012525287 0.097384386 -0.19556735 -0.01729008 0.22837202 0.18295324 0.27559993 -0.12839612 0.14639889 0.10067705 -0.118147664 0.08968266 -0.14315826 -0.09989878 -0.08274498 -0.055985056 0.05715504 -0.22809413 -0.025792804 0.04665693 0.08140762 0.004240869 0.23002757 -0.07244461 -0.083794534 0.076468974 -0.108825944 -0.09166231 -0.04869247 0.013095983 -0.088801816 0.090598494 -0.034569923 0.073046826 0.009545442 0.1433815 -0.010308273 0.16755912 0.1599197 -0.12408538 0.05046231 -0.16796003 -0.008606948 0.033637643 0.024538042 -0.0683364 -0.16443077 -0.07891097
4 -0.010654902 -0.04601279 0.18219773 0.25939378 -0.19528778 -0.15989216 0.13957092 0.27726388 -0.06689221 -0.053049225 0.21141689 0.000997976 0.025112825 0.08986181 -0.12887096 -0.012154295 0.023327185 0.08378806 -0.20387937 -0.017920239 0.21677856 0.18427011 0.28855804 -0.1305245 0.15618135 0.11305253 -0.097830676 0.08804154 -0.14887328 -0.09488665 -0.06910069 -0.041981757 0.03210985 -0.2442457 -0.03082865 0.037023265 0.072975285 0.022676153 0.22185254 -0.08769601 -0.093337886 0.08381452 -0.11096743 -0.08312269 -0.028170664 -0.011545679 -0.09331965 0.10788804 -0.042113233 0.07013277 0.009287096 0.12783201 -0.02238157 0.19160931 0.14337948 -0.13841435 0.038586 -0.1482605 -0.029387353 0.042126846 0.0031780927 -0.04726339 -0.1448721 -0.08644893
5 -0.017285453 -0.047874525 0.19018285 0.25770265 -0.18820035 -0.18467692 0.12142671 0.2711743 -0.07178766 -0.056494277 0.23442952 0.008279291 0.045259442 0.074834764 -0.13765664 -0.034386717 -0.0013634651 0.094186395 -0.20377278 -0.030167917 0.21880881 0.18971123 0.2800706 -0.12265745 0.1356839 0.121529154 -0.11470219 0.10180084 -0.15710437 -0.08643427 -0.08341514 -0.049414035 0.03500817 -0.21759297 -0.014107943 0.027215673 0.07442156 -0.0069936914 0.23287906 -0.05958582 -0.09305267 0.079436764 -0.11415959 -0.07190406 -0.05299042 -0.0005510183 -0.07724452 0.09867628 -0.036457103 0.060310993 0.022603612 0.11940974 -0.026456952 0.18383318 0.14583406 -0.12770358 0.050610572 -0.17205988 -0.039101407 0.05450666 0.027653616 -0.06963405 -0.14294375 -0.08484573
