7 64
902 -0.019508984 0.004065126 0.20663281 0.22449425 -0.2287973 -0.20174806 0.15748033 0.23058656 -0.07652863 -0.046521965 0.24117436 0.0046850718 -0.052157022 0.08568144 -0.1400047 -0.021196136 0.05010509 0.055668965 -0.20777644 -0.1506444 0.20574537 0.16337888 0.222078 -0.051691774 0.15079018 -0.00554734 -0.057478767 0.15705189 -0.15391657 -0.06742283 -0.1567622 -0.013014703 0.11696365 -0.17118244 -0.069122024 -0.05604997 0.18647511 -0.080418825 0.116482556 -0.107101135 -0.15980299 0.14661883 -0.16229428 -0.12459962 -0.00287829 0.015818944 -0.1394274 0.18658869 0.05197153 0.11066021 -0.08143375 0.06714869 -0.11988902 0.092166066 0.19598441 -0.1336648 0.08455677 -0.15939693 -0.10062293 0.16050664 -0.007393636 -0.031233717 -0.08262054 -0.14470886
9 -0.02238418 -0.028114684 0.16731091 0.23343784 -0.18520118 -0.17945667 0.15880267 0.27357167 -0.08096845 -0.04550321 0.24023412 0.024511775 0.02054193 0.09178956 -0.136829 -0.032679606 0.020460777 0.09576559 -0.17817628 -0.03889839 0.21086137 0.17777495 0.26463836 -0.11690491 0.13606772 0.07449456 -0.101209484 0.11278941 -0.12723272 -0.08655559 -0.0879747 -0.032375425 0.058848977 -0.21351919 -0.040880125 0.02899495 0.101604775 -0.01554902 0.20929529 -0.06758273 -0.079273164 0.085776076 -0.11687586 -0.0974398 -0.04319678 0.014334283 -0.10222263 0.09203648 -0.019384192 0.09420023 -0.0073037157 0.13549273 -0.03005154 0.14943543 0.17011695 -0.1240086 0.069158375 -0.17784378 -0.010704677 0.041988883 0.037732463 -0.058533583 -0.15242228 -0.08392363
7 -0.02298277 -0.022562992 0.18024954 0.2135378 -0.18172571 -0.1891844 0.16412535 0.25978628 -0.07166041 -0.014776006 0.24942996 0.038525235 0.006720847 0.08380285 -0.13816799 -0.011067783 0.027439896 0.09697882 -0.18086302 -0.04551295 0.22440498 0.1779172 0.25872785 -0.118285455 0.14211072 0.05628216 -0.10405721 0.12400735 -0.11682721 -0.07950968 -0.106243365 -0.031107096 0.06314039 -0.19565582 -0.05753296 0.010900718 0.13118213 -0.015490542 0.21097782 -0.08258653 -0.076350234 0.109039925 -0.11318357 -0.12488599 -0.031895444 0.037040453 -0.10400525 0.09960182 -0.013863509 0.07199323 -0.004484532 0.116069056 -0.054070234 0.13502309 0.18674067 -0.1284657 0.06807281 -0.17053609 -0.02298436 0.046621107 0.033595033 -0.06694778 -0.13990414 -0.08692792
6 -0.019242115 -0.054213822 0.15114486 0.223361 -0.1550978 -0.18176919 0.14254886 0.27610102 -0.0811057 -0.01434767 0.22954679 0.034357056 0.036430564 0.10403631 -0.13309711 -0.0113810785 0.004734306 0.11308439 -0.18451792 -0.011995087 0.24043651 0.18230368 0.27427435 -0.13853614 0.14330554 0.09516663 -0.13416134 0.09277049 -0.12952325 -0.10035095 -0.09082188 -0.06168745 0.06729161 -0.21720009 -0.027780036 0.052785493 0.08921977 0.0034097838 0.24403168 -0.0718387 -0.068716615 0.07699625 -0.10721587 -0.10861529 -0.055196255 0.037628025 -0.086115405 0.072322235 -0.038111962 0.06972705 0.015118726 0.15321329 -0.0073319445 0.15507874 0.1761721 -0.12069907 0.055776533 -0.17866811 0.009154346 0.014256266 0.03739056 -0.0869912 -0.17951721 -0.07355943
5 -0.023177277 -0.04433531 0.15775055 0.21162404 -0.16780019 -0.18747318 0.1672228 0.25608355 -0.08933653 -0.00023334901 0.24829563 0.03763847 -0.0090108095 0.09761925 -0.11657094 0.0031789104 0.034629554 0.0917719 -0.19495328 -0.016620398 0.24178241 0.1837965 0.24517441 -0.111404456 0.14294255 0.047068752 -0.12332286 0.10777253 -0.12588349 -0.097845554 -0.10945921 -0.05868239 0.07931254 -0.19836915 -0.05597816 0.03094914 0.13613679 -0.021890169 0.22627 -0.062681586 -0.06883565 0.099069566 -0.08576873 -0.12394404 -0.056322422 0.046923917 -0.0946434 0.09890472 -0.004280016 0.053572744 0.0070516784 0.13072503 -0.027102936 0.123681635 0.19249526 -0.111303754 0.06780441 -0.17603002 -0.007741887 0.048122376 0.046970885 -0.075749554 -0.156131 -0.06664011
4 -0.018916443 -0.044367082 0.1749704 0.23064812 -0.18075351 -0.17943229 0.15984134 0.26525915 -0.07697265 -0.014792536 0.23849547 0.027458992 0.0044539785 0.08862824 -0.121106476 0.0019882743 0.032223295 0.08925476 -0.19839013 -0.009938342 0.23389918 0.18632114 0.2641964 -0.1231516 0.14848477 0.074263334 -0.1145223 0.10188674 -0.13050821 -0.09434991 -0.092188 -0.05047949 0.05224449 -0.21487185 -0.05069567 0.031466212 0.11452447 0.00079307 0.23188649 -0.07286586 -0.07138974 0.09722332 -0.08931661 -0.1121388 -0.04387255 0.027092336 -0.09178679 0.100968204 -0.022486072 0.05025869 0.016008293 0.12539127 -0.028716203 0.15390696 0.1750568 -0.124363236 0.05503417 -0.1638923 -0.017649353 0.041498106 0.032126285 -0.06634945 -0.14926563 -0.07068698
8 -0.023823878 -0.042306714 0.17484847 0.22406277 -0.17104083 -0.19308433 0.14372152 0.2585826 -0.07944652 -0.021161193 0.2522593 0.032756943 0.023435995 0.07783118 -0.12954918 -0.019587658 0.011195575 0.098378584 -0.1919178 -0.02241678 0.22977474 0.1869725 0.25731057 -0.11735693 0.13064732 0.08118591 -0.12397966 0.11172786 -0.1333588 -0.08597694 -0.099938825 -0.05230431 0.054213773 -0.19380443 -0.036025528 0.02497444 0.11063557 -0.021383436 0.2350926 -0.051755615 -0.07047841 0.09042644 -0.09547761 -0.1008573 -0.060851898 0.03319887 -0.080598585 0.088892736 -0.019661024 0.049552508 0.02262084 0.12030525 -0.03014118 0.14620905 0.17285442 -0.11492329 0.064426415 -0.1805523 -0.021236187 0.046613365 0.050153825 -0.08101517 -0.14759824 -0.07010672
