7 64
902 -0.014669055 -0.03874821 0.17490146 0.29777566 -0.24518071 -0.1679894 0.1557457 0.2724161 -0.112097986 -0.1160344 0.22084287 -0.042539112 -0.039514493 0.10801923 -0.10593701 -0.04796539 0.05564324 0.03428585 -0.23750512 -0.073266044 0.1933494 0.18449439 0.24197263 -0.050543956 0.1482182 0.05116881 -0.065201975 0.10474519 -0.1992074 -0.107719265 -0.09621642 -0.04433717 0.087434985 -0.24324962 -0.03339852 0.012800009 0.110408746 -0.063092984 0.14958076 -0.04891761 -0.15406944 0.08305678 -0.12105962 -0.046372723 -0.053085808 -0.05145067 -0.12036534 0.18080936 0.036109 0.12046282 -0.052258365 0.12217595 -0.029302387 0.15165567 0.14731726 -0.11562459 0.07369757 -0.17108619 -0.0683815 0.15266433 0.0105502065 -0.0062633096 -0.12098313 -0.105675034
9 -0.02643131 -0.06156192 0.14977174 0.23580334 -0.15748174 -0.1945904 0.12826045 0.26381508 -0.10057453 -0.040432844 0.25234503 0.023874987 0.03850453 0.08777074 -0.12105209 -0.042086385 -0.0059825573 0.10133996 -0.1960449 -0.008630903 0.22957332 0.19130822 0.24976979 -0.10837773 0.11530434 0.09621543 -0.14236188 0.09784561 -0.15166755 -0.09890608 -0.09410844 -0.07459519 0.06529638 -0.19604847 -0.009498695 0.04878157 0.08636312 -0.040869426 0.24606678 -0.013811893 -0.0699199 0.060142882 -0.08716222 -0.070519045 -0.09758235 0.026168192 -0.06517283 0.074821 -0.016307142 0.055730373 0.031363457 0.1431696 0.006177286 0.14550728 0.16224575 -0.0941528 0.07084949 -0.20177849 -0.0043253554 0.04829417 0.072736874 -0.09160915 -0.16868415 -0.055986326
4 -0.024426537 -0.053472392 0.1639305 0.22765723 -0.16266635 -0.20098986 0.12650183 0.2566257 -0.09079047 -0.028580321 0.25012287 0.026545176 0.029535512 0.08648953 -0.12944804 -0.03125874 -0.003120885 0.10117655 -0.19986391 -0.03448627 0.23593962 0.18806078 0.2509827 -0.10708948 0.12507191 0.084793545 -0.13647208 0.10893089 -0.15146683 -0.09272721 -0.11126795 -0.068437226 0.075672545 -0.18847333 -0.018039534 0.029123018 0.10557565 -0.04230972 0.23332447 -0.038443502 -0.08533957 0.07997495 -0.10405425 -0.08930247 -0.07882764 0.034989744 -0.07495154 0.09145724 -0.01093262 0.056684937 0.017289646 0.12850504 -0.020496957 0.13870403 0.17392391 -0.105483726 0.069580525 -0.19462144 -0.022856414 0.06237966 0.055391073 -0.09228589 -0.15731739 -0.07498211
8 -0.019100893 -0.07947543 0.14466207 0.21609642 -0.13056019 -0.20686105 0.08859022 0.24754138 -0.09127892 -0.0065365555 0.22672437 0.026335742 0.046155203 0.100436755 -0.12792292 -0.018599229 -0.030167406 0.114244476 -0.20750242 -0.038738687 0.25898427 0.18322831 0.24792962 -0.112407 0.12780932 0.10174634 -0.16508652 0.08989074 -0.16640507 -0.10281782 -0.12699336 -0.10056752 0.1028191 -0.17791517 0.008727672 0.040591072 0.09142366 -0.04171282 0.243003 -0.045156915 -0.09923539 0.06974896 -0.113537125 -0.09143726 -0.08873492 0.055197176 -0.05844981 0.08323184 -0.018386371 0.042999808 0.021720313 0.13655974 -0.0068344194 0.13174815 0.17465118 -0.09808577 0.056687556 -0.19331175 -0.019459397 0.058528133 0.042922318 -0.121082 -0.17444107 -0.08105787
6 -0.026617594 -0.073500164 0.14262149 0.21771929 -0.14127366 -0.20829244 0.12364633 0.25047478 -0.10641031 -0.0073196124 0.2564691 0.03367337 0.023481937 0.096179016 -0.11495818 -0.020774925 -0.0063607013 0.10479424 -0.2092168 -0.012498405 0.25688174 0.19377546 0.23717768 -0.10318337 0.12101277 0.077636644 -0.1627032 0.09843211 -0.15679595 -0.10607981 -0.121371545 -0.09656474 0.09443619 -0.1792364 -0.012679603 0.044901855 0.11270453 -0.054164547 0.2528201 -0.016803639 -0.07530848 0.07147146 -0.08175679 -0.09240996 -0.10617722 0.0553742 -0.061417837 0.08268745 -0.0031050541 0.035266068 0.032176614 0.14012648 0.0015337106 0.121973 0.18374392 -0.08697929 0.07205334 -0.20581725 -0.007648575 0.060209956 0.07417063 -0.11190715 -0.1738337 -0.05616613
5 -0.01885111 -0.06919041 0.16109255 0.23830785 -0.16676004 -0.19228633 0.12034824 0.24935247 -0.09468775 -0.025808392 0.23513088 0.0111017525 0.009956338 0.08926965 -0.10832957 -0.012138349 0.008815775 0.08257458 -0.22023185 -0.01848895 0.24121308 0.18950662 0.2413226 -0.09639754 0.13268246 0.08359165 -0.13613276 0.091297634 -0.166887 -0.10265737 -0.108993225 -0.08445141 0.075952396 -0.19437115 -0.016979503 0.032842502 0.10448669 -0.037337724 0.23064014 -0.035978645 -0.094140545 0.07869811 -0.0845732 -0.08098761 -0.08110225 0.025972106 -0.06761507 0.10939167 -0.004521051 0.03380568 0.023406258 0.12055116 -0.011269228 0.14087702 0.16290143 -0.099287756 0.05659857 -0.17748272 -0.034201078 0.07885465 0.042697262 -0.08399621 -0.14804688 -0.06717353
7 -0.02585617 -0.07506092 0.15949073 0.2186637 -0.13635348 -0.21931867 0.095713295 0.24580152 -0.09370815 -0.008918135 0.25671378 0.03436381 0.050400086 0.08075825 -0.12862673 -0.029593972 -0.031039324 0.11489287 -0.20990095 -0.026035344 0.25792357 0.1950552 0.24628769 -0.11031295 0.11493901 0.103903696 -0.17062466 0.10325233 -0.16418746 -0.09555556 -0.12610081 -0.09745794 0.08360358 -0.16693786 0.0047007953 0.034009714 0.0997202 -0.054127526 0.26161057 -0.018478867 -0.08242828 0.07204614 -0.09574824 -0.08512687 -0.10587449 0.05721382 -0.048233256 0.07740275 -0.015704868 0.02378177 0.044180505 0.12614688 -0.009873626 0.13463084 0.17548092 -0.09245446 0.06619514 -0.20746991 -0.024926761 0.06177797 0.0698196 -0.1268745 -0.16666706 -0.06603701
