7 64
902 -0.021452 -0.020653917 0.13199517 0.22039142 -0.18575701 -0.19178455 0.13358156 0.24343644 -0.111930065 -0.07298088 0.2180315 -0.0028727716 -0.02131089 0.12869944 -0.13604282 -0.060524125 0.015987469 0.07470834 -0.18793651 -0.14765188 0.2003591 0.15152198 0.20837314 -0.044151045 0.12936397 0.0071070255 -0.08415147 0.1292012 -0.1676471 -0.09257648 -0.14880086 -0.04375276 0.16474597 -0.17922507 -0.023548678 -0.004420188 0.13951558 -0.10616466 0.11339124 -0.06928991 -0.16253105 0.08952978 -0.17674063 -0.08975473 -0.048497267 0.014769905 -0.13139053 0.14909942 0.053997487 0.1651058 -0.09975767 0.13213605 -0.054602426 0.074992664 0.19101924 -0.10344175 0.09909843 -0.19586477 -0.04394065 0.14006487 0.01748044 -0.049693372 -0.1409169 -0.13729249
9 -0.030706655 -0.02651634 0.13971552 0.22194485 -0.17964375 -0.19436736 0.16959718 0.26384753 -0.11267616 -0.051662486 0.26028648 0.026151014 -0.0044666217 0.10855852 -0.12874293 -0.05219254 0.02466719 0.090507485 -0.18012704 -0.06353683 0.21266206 0.17632161 0.2301555 -0.081019126 0.121464334 0.029395254 -0.10752128 0.12639602 -0.1372117 -0.09474551 -0.11592933 -0.04428625 0.10893109 -0.19253871 -0.041467186 0.025800217 0.13264076 -0.07336341 0.18665525 -0.035516024 -0.09136656 0.081131265 -0.118742876 -0.09559924 -0.073798895 0.027310466 -0.11091704 0.10271991 0.023539945 0.119122 -0.034157794 0.14742808 -0.024439437 0.10227315 0.1928009 -0.09907739 0.0995313 -0.20931178 -0.0040472946 0.078157514 0.06664488 -0.0634221 -0.16104178 -0.08344187
6 -0.03187376 -0.025809094 0.17116414 0.21804409 -0.17857817 -0.20926785 0.1627378 0.26163995 -0.09349292 -0.029492488 0.2776566 0.041581333 0.01374597 0.083389744 -0.13943082 -0.040448673 0.014314551 0.10263042 -0.18361786 -0.051550485 0.22611894 0.18676288 0.2468919 -0.102359146 0.12237586 0.051100414 -0.11974026 0.13575882 -0.12908246 -0.08232848 -0.11785174 -0.041914262 0.07924874 -0.18181266 -0.044890136 0.013866093 0.13634612 -0.05603338 0.21867834 -0.041853573 -0.07548565 0.096037485 -0.11088202 -0.108654946 -0.068737224 0.0418996 -0.09652201 0.09319411 0.0035910753 0.08039536 -0.0013738121 0.12647995 -0.042140923 0.12026244 0.1945718 -0.110306405 0.09051789 -0.20583972 -0.017818911 0.06334948 0.06950718 -0.08120572 -0.15100725 -0.07901719
7 -0.0231276 -0.046167795 0.1448264 0.2161401 -0.1606903 -0.20282708 0.123845935 0.24850264 -0.10003073 -0.032446496 0.2357432 0.02073747 0.011668029 0.107965454 -0.13235249 -0.03633907 -0.0016963435 0.09743344 -0.19534646 -0.0803769 0.23243648 0.1727534 0.23221245 -0.085200764 0.1280017 0.052613992 -0.12647708 0.11471823 -0.15722556 -0.0952518 -0.13452882 -0.067703806 0.12238054 -0.1784581 -0.017108003 0.01844322 0.12234868 -0.06891982 0.19087711 -0.05360895 -0.115813754 0.08396519 -0.13442345 -0.09776121 -0.06996533 0.04032722 -0.094274975 0.10968835 0.014291465 0.094806984 -0.027976282 0.13335004 -0.032258835 0.10591995 0.18790467 -0.102235876 0.08044549 -0.19756037 -0.026685858 0.08908049 0.040541917 -0.08708929 -0.15803488 -0.100270934
8 -0.028764922 -0.035633784 0.13189846 0.20777763 -0.16764693 -0.20045593 0.1596581 0.24816595 -0.11613377 -0.030286003 0.2531102 0.02729395 -0.019789426 0.11659485 -0.12152929 -0.03557502 0.024710447 0.087703064 -0.19054088 -0.0746731 0.2284321 0.17288974 0.21455488 -0.07028481 0.12601797 0.012386991 -0.117339164 0.12375109 -0.14472891 -0.09967768 -0.1377468 -0.060848847 0.13579026 -0.17753886 -0.041057363 0.01943796 0.15061888 -0.08568921 0.17906106 -0.041289926 -0.10419177 0.08903716 -0.11880258 -0.108339444 -0.07595212 0.04490538 -0.10914372 0.11510952 0.037509378 0.107237734 -0.04142352 0.14099148 -0.030107783 0.08081288 0.2043558 -0.09259276 0.09789608 -0.20605771 -0.012371374 0.09550104 0.059224512 -0.07404537 -0.15944159 -0.088671744
5 -0.02958156 -0.027523626 0.1684499 0.23293364 -0.1952838 -0.19337456 0.18105127 0.26509997 -0.10086214 -0.04106537 0.2714643 0.027743457 -0.011935225 0.08893436 -0.12205731 -0.032283325 0.039977506 0.081976905 -0.19389375 -0.033978526 0.21867998 0.18869144 0.24190277 -0.09222653 0.12961258 0.039581567 -0.104873314 0.1263063 -0.13350892 -0.09097946 -0.10480315 -0.040208988 0.072650604 -0.20029321 -0.057112593 0.020097686 0.13854788 -0.050050434 0.20943178 -0.038088404 -0.07567886 0.09492343 -0.09232068 -0.10063486 -0.066224866 0.0225496 -0.10345561 0.10918157 0.012389941 0.08030598 -0.005220487 0.12788707 -0.032581188 0.124392025 0.18640253 -0.10799527 0.08741285 -0.19386344 -0.017869473 0.07307313 0.06485192 -0.057316326 -0.14446197 -0.069336146
4 -0.029158467 -0.035255548 0.16371976 0.22693813 -0.1797541 -0.21052867 0.14042094 0.25128996 -0.103229746 -0.04591522 0.26469493 0.0225202 0.0069174613 0.0897879 -0.13251112 -0.049588904 0.0074786465 0.0904721 -0.19816388 -0.07320112 0.22319189 0.18314154 0.23134167 -0.07841745 0.11862847 0.048404906 -0.11913836 0.13043031 -0.1555052 -0.08749403 -0.12969618 -0.05555251 0.101251684 -0.17550942 -0.027574372 0.008268439 0.13304323 -0.08076056 0.19766349 -0.03198509 -0.1046371 0.089225285 -0.120240256 -0.08942223 -0.07903908 0.03127337 -0.09316411 0.11358026 0.021369087 0.08699658 -0.015986038 0.12174236 -0.039840363 0.111023694 0.18666741 -0.10073138 0.091430135 -0.20765883 -0.0362246 0.09948346 0.061465632 -0.07918315 -0.14443547 -0.08978996
