7 64
902 -0.02518362 -0.0071639265 0.13931955 0.17926465 -0.16036016 -0.19580264 0.15125036 0.24233334 -0.086014085 -0.020159336 0.23240681 0.04058108 -0.0014083821 0.114562444 -0.15136828 -0.035417985 0.01202708 0.10955802 -0.1621253 -0.12549846 0.22254066 0.156189 0.23429708 -0.09120203 0.13661571 0.010020781 -0.09787951 0.13962117 -0.11721213 -0.0781554 -0.14506802 -0.028542213 0.1404262 -0.16668198 -0.04730421 -0.0027839546 0.15266457 -0.06762706 0.15175404 -0.09554939 -0.11493845 0.10783248 -0.16952667 -0.13785475 -0.029125752 0.057076782 -0.1301353 0.107572645 0.02178993 0.14179668 -0.07302345 0.13267468 -0.06923403 0.076969735 0.21459796 -0.11867391 0.09493321 -0.19266711 -0.01603389 0.07526313 0.027477164 -0.07407153 -0.15282607 -0.125854
9 -0.03780328 -0.0019422391 0.18391399 0.17434944 -0.1542851 -0.21446761 0.16698709 0.25095093 -0.06390651 0.0053861863 0.2950712 0.08136236 0.045681834 0.05360221 -0.16104555 -0.037154786 -0.0011670665 0.12908506 -0.13846266 -0.04080318 0.21494235 0.17629455 0.2501259 -0.13247359 0.106001124 0.05767219 -0.12150688 0.15210906 -0.07657043 -0.052996635 -0.108962275 -0.014523404 0.042731646 -0.1497936 -0.05800995 0.002445681 0.1369037 -0.030474726 0.237328 -0.052098315 -0.028327942 0.10723991 -0.10653934 -0.13502361 -0.050522324 0.072273545 -0.08650086 0.0464362 -0.025424778 0.059912495 0.02487735 0.10947846 -0.06351116 0.11766133 0.19928719 -0.11884859 0.089460425 -0.20108373 -0.0018770193 0.00761011 0.08437023 -0.09997367 -0.14351383 -0.06860309
7 -0.039829735 -0.0077925534 0.20419596 0.15677468 -0.14043985 -0.232946 0.1535782 0.23322177 -0.051600665 0.04069566 0.31275824 0.09905414 0.05293556 0.03107073 -0.1624112 -0.019003857 -0.011988157 0.13675144 -0.14446044 -0.029832795 0.2329439 0.18278688 0.24574362 -0.14038427 0.101394825 0.06445347 -0.1429385 0.1607925 -0.07239461 -0.043775525 -0.1249943 -0.025150008 0.03070167 -0.12359567 -0.060355145 -0.011972269 0.15358217 -0.029272618 0.26603684 -0.04874327 -0.014764714 0.123409696 -0.09063234 -0.1517161 -0.056470685 0.09982109 -0.06679861 0.040781107 -0.031762697 0.010155935 0.057292502 0.08485917 -0.07988921 0.115949266 0.20830292 -0.11820165 0.08359706 -0.20032085 -0.017524043 0.0050587594 0.09336799 -0.12617627 -0.13216314 -0.059714917
6 -0.028883472 -0.027337585 0.16749534 0.1757448 -0.14233741 -0.21592447 0.13409854 0.23694669 -0.07242693 0.015023232 0.26225087 0.06205022 0.029834779 0.07834168 -0.14976299 -0.018888999 -0.008557913 0.1221603 -0.16907924 -0.06782724 0.24101068 0.1733698 0.24081913 -0.115906835 0.12242197 0.05231715 -0.13565357 0.13578194 -0.11250018 -0.07095534 -0.1380772 -0.048554823 0.091665134 -0.1488842 -0.03920952 0.0018902555 0.14246243 -0.04614197 0.22054192 -0.06824309 -0.0733031 0.108242914 -0.1244338 -0.13703899 -0.053582698 0.07915993 -0.08628019 0.07743426 -0.008411613 0.05943048 0.0026507035 0.11171171 -0.061272915 0.10298014 0.20553389 -0.11360442 0.07920961 -0.19396679 -0.020449314 0.045394965 0.054614644 -0.110188134 -0.14899139 -0.0900184
4 -0.032288037 -0.020669037 0.16668767 0.17458084 -0.15226404 -0.21561156 0.15438998 0.23239584 -0.08123626 0.013626163 0.2741708 0.062174994 0.0059346575 0.07717531 -0.13933891 -0.017873205 0.010319931 0.1094272 -0.17055495 -0.06410882 0.23520921 0.17414929 0.22512755 -0.10079585 0.11952379 0.026909297 -0.12733209 0.14309487 -0.109118655 -0.071687505 -0.14094982 -0.04408327 0.095140964 -0.14550772 -0.054884408 -0.003478906 0.1629428 -0.06005726 0.21166673 -0.056557164 -0.06874933 0.114199325 -0.110286795 -0.13952412 -0.0581866 0.07798845 -0.09295965 0.08792059 0.009629952 0.059221193 -0.002414482 0.10749061 -0.064281434 0.08878187 0.21233417 -0.1066336 0.08908609 -0.1965213 -0.02155654 0.059264 0.06592588 -0.09907002 -0.14074922 -0.08173467
5 -0.027591396 -0.026965953 0.20730375 0.1862908 -0.16062272 -0.21377029 0.14110506 0.22923923 -0.05378233 0.027034493 0.27520025 0.06256646 0.022017483 0.04379684 -0.1389847 0.004154069 0.008060477 0.10584357 -0.18248343 -0.029619606 0.23871529 0.1846963 0.24557577 -0.1239419 0.12494062 0.06680018 -0.12965445 0.1363429 -0.10742957 -0.060448904 -0.122671925 -0.04160433 0.0380464 -0.14901105 -0.056416493 -0.011550237 0.14766762 -0.019650359 0.24571565 -0.06473835 -0.051843464 0.1251487 -0.08596828 -0.13667183 -0.04503179 0.07069303 -0.070178226 0.08536915 -0.021482373 0.00095778774 0.04480565 0.07594131 -0.07510936 0.12993899 0.19018583 -0.121718965 0.062425155 -0.17096181 -0.04582054 0.043760035 0.053927004 -0.10190031 -0.1177134 -0.06956391
8 -0.034154806 -0.027587254 0.21156813 0.18446636 -0.15353866 -0.23378766 0.12521029 0.22350352 -0.059661385 0.019603653 0.29749402 0.06816727 0.04147881 0.029662218 -0.14641605 -0.020101316 -0.014258252 0.113801986 -0.18047446 -0.0384076 0.23664734 0.18943548 0.23705767 -0.11547865 0.103800006 0.0753643 -0.1438847 0.14869675 -0.11501179 -0.052900583 -0.13263996 -0.047241647 0.038508475 -0.12619737 -0.04029133 -0.01853049 0.14600141 -0.047776923 0.2555971 -0.03456224 -0.04970228 0.11798656 -0.08714863 -0.12213419 -0.07011955 0.07737238 -0.05502703 0.0751252 -0.016200444 -0.005747228 0.05761395 0.06994538 -0.07561433 0.123842 0.18984063 -0.11005553 0.07452238 -0.19381182 -0.05253904 0.054173544 0.07922866 -0.120080985 -0.11613744 -0.06562198
