7 64
902 -0.019197343 -0.027768442 0.17949405 0.28017068 -0.23916832 -0.1841146 0.1500388 0.25858665 -0.11270315 -0.10472423 0.22517267 -0.030165952 -0.040880498 0.108025536 -0.11593977 -0.05476331 0.044541255 0.042198114 -0.22182375 -0.11171143 0.19101933 0.17163554 0.22148862 -0.037627462 0.13826051 0.025651032 -0.06516311 0.121408306 -0.18961065 -0.09636158 -0.12170079 -0.038053017 0.11436209 -0.19911322 -0.032116592 -0.007796109 0.12725149 -0.08867305 0.11536215 -0.05131751 -0.15857556 0.08825557 -0.13613589 -0.057724368 -0.04670157 -0.028233597 -0.120588616 0.17409074 0.05342267 0.12926163 -0.07385172 0.106021896 -0.049184527 0.10790192 0.15574172 -0.10364832 0.08288769 -0.16959912 -0.07149092 0.1609907 0.010937678 -0.015431537 -0.107450716 -0.1162945
7 -0.022718763 -0.027888587 0.191792 0.24987523 -0.1897896 -0.17957087 0.13683128 0.27671698 -0.063736215 -0.06643993 0.2499295 0.020090085 0.059816774 0.056568075 -0.14489937 -0.05172781 -0.00017390984 0.099593006 -0.17746441 -0.016590727 0.19587915 0.18838853 0.284805 -0.13256262 0.121426396 0.12577234 -0.1026053 0.11268818 -0.13114224 -0.071968086 -0.06199151 -0.024283677 0.0030608256 -0.22020747 -0.024067903 0.027634675 0.0680113 0.001048549 0.24355778 -0.048514567 -0.06546393 0.07721291 -0.108734764 -0.068213426 -0.05158807 -0.0074866647 -0.07934247 0.07691267 -0.048684508 0.06859657 0.034430113 0.121027105 -0.028335337 0.19599931 0.14193583 -0.13238387 0.05975258 -0.1806204 -0.026033156 0.029213382 0.04846232 -0.06261831 -0.14129643 -0.07376545
9 -0.021725869 -0.020541994 0.20957436 0.25143775 -0.20447849 -0.18956983 0.14004311 0.2721908 -0.060707018 -0.06162164 0.25357416 0.018205727 0.042795103 0.056796025 -0.1504747 -0.04411633 0.007686001 0.09381639 -0.18829426 -0.045262918 0.20216745 0.18806349 0.28274608 -0.123268135 0.13120684 0.10837769 -0.09462649 0.12605639 -0.137753 -0.06823219 -0.08203256 -0.01929478 0.01743184 -0.21173081 -0.033711012 0.0057277153 0.091808915 -0.009407373 0.2245056 -0.06647743 -0.085358776 0.09685338 -0.12257136 -0.08224739 -0.03684038 -0.0029701728 -0.09029046 0.10111613 -0.03445971 0.07086356 0.016552994 0.10427472 -0.054629173 0.18450846 0.15292084 -0.13972531 0.061690323 -0.17483339 -0.048827384 0.05510479 0.033378467 -0.058448624 -0.12575884 -0.09169852
6 -0.015806329 -0.041856017 0.18345878 0.25609148 -0.19175163 -0.18346396 0.114990234 0.26647702 -0.074681334 -0.06742089 0.22163117 -0.0006171566 0.036270928 0.08281442 -0.13874553 -0.041916434 -0.0011477326 0.087512426 -0.20080334 -0.05991476 0.20899215 0.17915739 0.26846224 -0.106518686 0.13532421 0.10632483 -0.10283833 0.104876466 -0.16319029 -0.08506947 -0.093014725 -0.04521545 0.056230865 -0.21220186 -0.010944539 0.01769654 0.07900642 -0.02292901 0.20268293 -0.0668071 -0.114449084 0.08029135 -0.13334835 -0.069009446 -0.04586923 -0.0059377383 -0.087666385 0.112614095 -0.021847807 0.0839625 -0.004562762 0.11741385 -0.03524489 0.16915603 0.1467644 -0.12659268 0.05563646 -0.17092247 -0.04771614 0.075338185 0.016130162 -0.06133866 -0.13717541 -0.1016179
4 -0.024931995 -0.029562391 0.18726204 0.24683632 -0.20153838 -0.18928303 0.15943882 0.26630902 -0.08498152 -0.05293094 0.25961745 0.01773248 0.008634173 0.07427729 -0.12860657 -0.03529935 0.02755465 0.081464015 -0.19773485 -0.033965297 0.2115512 0.18975936 0.25739196 -0.10191363 0.13072616 0.07217547 -0.10057063 0.1212827 -0.1419069 -0.0836639 -0.093028724 -0.035950296 0.04682055 -0.20789644 -0.044340827 0.015225328 0.115502186 -0.03259681 0.21682732 -0.046431433 -0.083104335 0.09379356 -0.10015236 -0.086523786 -0.05669918 0.006332092 -0.09442004 0.110846385 -0.0065255417 0.07005664 0.0075747976 0.1156757 -0.03837978 0.1539117 0.16699553 -0.119784944 0.07320376 -0.18294762 -0.035789404 0.07160498 0.049441244 -0.055667233 -0.13396296 -0.07665618
8 -0.017945327 -0.03191251 0.19791286 0.26239803 -0.20936151 -0.17334685 0.1443151 0.26985678 -0.069767006 -0.06766471 0.23668191 0.0028459798 0.021761082 0.066730686 -0.12910439 -0.03315597 0.024362704 0.075559735 -0.19983435 -0.026963228 0.1996632 0.1871028 0.27256998 -0.11185956 0.13668388 0.101331174 -0.08881929 0.10805037 -0.1472775 -0.080659576 -0.07246348 -0.029447496 0.020231208 -0.22533444 -0.035502385 0.017462932 0.08736482 -0.005447472 0.21675064 -0.060291 -0.089221284 0.08890752 -0.10430154 -0.07129097 -0.04066517 -0.017072741 -0.09020443 0.11340432 -0.02646209 0.06628379 0.014480844 0.10917268 -0.03702848 0.18448423 0.14283036 -0.13176946 0.054920353 -0.16295482 -0.046274394 0.0645322 0.026816422 -0.043348487 -0.12507087 -0.08158842
5 -0.021515772 -0.033236474 0.19652231 0.2628477 -0.20980869 -0.19055331 0.12871478 0.25741786 -0.083062194 -0.078118145 0.24482404 -0.0030572591 0.016868116 0.06715142 -0.12949808 -0.051127363 0.012807068 0.07147508 -0.20751184 -0.059337348 0.19921501 0.18550774 0.2511192 -0.08478314 0.124118365 0.086510375 -0.09364136 0.11905402 -0.16629583 -0.07912627 -0.096797 -0.038818892 0.048696093 -0.19895948 -0.022148702 0.0024540466 0.099256665 -0.047858793 0.1952626 -0.040424395 -0.110828094 0.08664694 -0.11493045 -0.05968291 -0.058069818 -0.0127821965 -0.086280204 0.12657656 -0.00033572453 0.07331827 -0.00040245344 0.09967422 -0.044274323 0.15821199 0.14666423 -0.11678166 0.068398274 -0.17802863 -0.06340404 0.10242923 0.035625532 -0.051111978 -0.11667998 -0.09114894
