7 64
902 -0.017015142 -0.01589708 0.12567672 0.2410625 -0.20485123 -0.17561175 0.15481597 0.26822165 -0.11564393 -0.09310276 0.20199175 -0.014761234 -0.03006013 0.15047368 -0.1379511 -0.05924408 0.032830354 0.06840621 -0.18359208 -0.1484759 0.19000758 0.14553297 0.22098121 -0.04537713 0.141091 0.0012220776 -0.061466184 0.114924066 -0.16055633 -0.09909393 -0.12950127 -0.03143916 0.16589263 -0.20721026 -0.030781442 0.008421748 0.12646471 -0.08572613 0.09140307 -0.09061397 -0.16845995 0.08174772 -0.18311018 -0.087125584 -0.026781913 -0.0050614625 -0.14832929 0.15263599 0.05058421 0.19454344 -0.123532586 0.14641522 -0.04470211 0.079176635 0.1807503 -0.10936213 0.091822214 -0.17683719 -0.029477859 0.128964 -0.0047044903 -0.023155646 -0.1448442 -0.14259246
6 -0.03042084 -0.0024520257 0.16311859 0.257961 -0.20023072 -0.17089415 0.15481438 0.29602945 -0.08528315 -0.12240843 0.25120994 0.013216869 0.06959879 0.07629469 -0.15891647 -0.109658755 -0.004568988 0.10375085 -0.14047039 -0.052630913 0.15329152 0.1719267 0.27510187 -0.11476965 0.10204422 0.10852636 -0.07780693 0.12676315 -0.12382119 -0.07042928 -0.050426327 0.0042718593 0.025811547 -0.22537053 -0.015397424 0.03729343 0.04984199 -0.031082597 0.19667482 -0.029726483 -0.07124747 0.04919694 -0.14279494 -0.04199813 -0.05739835 -0.031738974 -0.10419638 0.0606831 -0.032362744 0.15648498 -0.014898929 0.15466754 -0.013714504 0.17559144 0.13758709 -0.12212496 0.09051997 -0.20716849 0.005262596 0.027234867 0.06662929 -0.039154198 -0.15700243 -0.08545942
9 -0.027345352 0.0009528559 0.16398036 0.22403228 -0.18194692 -0.17047735 0.16164704 0.28474164 -0.06770078 -0.0725191 0.24214181 0.035390805 0.06017086 0.079867356 -0.16227515 -0.07216561 0.0022419787 0.11563601 -0.1324398 -0.052950267 0.17517257 0.1662216 0.28015143 -0.13556992 0.118081816 0.09275481 -0.083630264 0.12766452 -0.098421775 -0.06667096 -0.06376051 0.0055113025 0.033622727 -0.21459064 -0.035498645 0.030612793 0.07276083 -0.0061656693 0.2015223 -0.06845064 -0.060216952 0.07286177 -0.1454127 -0.087265745 -0.031403475 0.0018394109 -0.111475065 0.05567857 -0.041967046 0.13999338 -0.015592923 0.14865825 -0.03314153 0.16355239 0.16031545 -0.13463445 0.080786444 -0.19051069 0.011605941 0.0034010794 0.049559463 -0.0518389 -0.15930234 -0.09118774
7 -0.018923517 -0.018315217 0.1506645 0.23588938 -0.18117245 -0.16847645 0.1347285 0.2781651 -0.07757385 -0.08002091 0.21055412 0.01041422 0.045727853 0.1035051 -0.15359591 -0.064299524 -0.0020676858 0.10254962 -0.15635034 -0.080518164 0.18454078 0.15871763 0.2678289 -0.11301843 0.12930918 0.088135704 -0.08535414 0.11042455 -0.13222757 -0.081299104 -0.08214248 -0.018773552 0.07378433 -0.21783972 -0.016326606 0.029931018 0.069581166 -0.021176556 0.17384727 -0.080669805 -0.1049776 0.06800204 -0.16291822 -0.07742705 -0.030826118 -0.0051962594 -0.11303105 0.08613328 -0.024526969 0.14889053 -0.042446744 0.14895576 -0.028911425 0.15145162 0.15513735 -0.12880458 0.07128508 -0.17972235 -0.007136607 0.042055342 0.01895484 -0.049951885 -0.15863596 -0.11202786
5 -0.029380133 -0.013626975 0.15040372 0.23811744 -0.18437658 -0.1739091 0.1668005 0.29014394 -0.089932404 -0.08205575 0.25039083 0.026639177 0.047531553 0.09195453 -0.1486703 -0.077074036 0.0078772595 0.1076121 -0.1493109 -0.04021206 0.18302143 0.17478602 0.2706145 -0.12069604 0.11574505 0.08591746 -0.09403826 0.120564684 -0.11662509 -0.08208416 -0.06677651 -0.013534127 0.049141817 -0.22183573 -0.030150393 0.044054445 0.07545979 -0.02549264 0.20729919 -0.04269903 -0.0642846 0.06124468 -0.12997638 -0.0737648 -0.057473626 -0.0025821696 -0.107606746 0.063077256 -0.026360324 0.13902584 -0.013862727 0.16210733 -0.01125096 0.15667298 0.16182978 -0.11949606 0.08802393 -0.20399892 0.017604435 0.020116836 0.06493689 -0.05224132 -0.17021127 -0.0792296
8 -0.022031842 -0.009908819 0.16818143 0.24741037 -0.19946986 -0.16241907 0.15824343 0.28432998 -0.074167155 -0.08737228 0.2287697 0.012156054 0.0394658 0.085346274 -0.14706627 -0.06398501 0.016152967 0.093431726 -0.15668431 -0.050245922 0.17407158 0.16862124 0.27440947 -0.118930526 0.1278882 0.091900334 -0.075122856 0.11606207 -0.12257301 -0.07689967 -0.062099785 -0.004208868 0.036556326 -0.22939415 -0.03353292 0.030115316 0.071453266 -0.00825113 0.18998858 -0.06774658 -0.0815826 0.072077036 -0.13735145 -0.07227063 -0.031169834 -0.019080913 -0.11200018 0.084150024 -0.030617846 0.13365528 -0.021200478 0.14197391 -0.02854164 0.17040433 0.1481216 -0.13287069 0.072289586 -0.17750706 -0.0071334154 0.032996166 0.033403732 -0.035221104 -0.14825334 -0.09319385
4 -0.027283132 -0.0128879035 0.1716658 0.2489171 -0.1929068 -0.18293178 0.13470356 0.2774889 -0.08099351 -0.09963869 0.24628496 0.0125786355 0.059961542 0.073661655 -0.15535562 -0.09023934 -0.0099325 0.10009473 -0.15804371 -0.06704671 0.17187682 0.17183791 0.26419052 -0.10571798 0.10641595 0.10159607 -0.08830813 0.12544113 -0.13592076 -0.069466025 -0.07443052 -0.0127920555 0.042127393 -0.20394537 -0.011446228 0.021163698 0.06651448 -0.040319253 0.19286488 -0.0382758 -0.08805558 0.06254057 -0.1423145 -0.052618586 -0.0558377 -0.014880972 -0.094760425 0.07784261 -0.022637175 0.12746833 -0.012611994 0.1323867 -0.029312441 0.16119483 0.14293477 -0.118954964 0.08204245 -0.19704029 -0.019368596 0.05100796 0.052923005 -0.05311277 -0.14320622 -0.09328548
