7 64
902 -0.026415484 -0.021868149 0.1775532 0.22066127 -0.18501332 -0.23002058 0.08386217 0.21479642 -0.09636235 -0.072596684 0.24686131 2.3971908e-05 0.009792517 0.07871532 -0.14940166 -0.0798506 -0.023357581 0.0807162 -0.20728831 -0.17375517 0.20659462 0.1658148 0.20413442 -0.03345612 0.10543362 0.037033733 -0.10390354 0.1552068 -0.1922468 -0.067256 -0.17542581 -0.05184231 0.14358869 -0.13070817 0.0018136663 -0.04557756 0.14543428 -0.14110886 0.1338475 -0.039939296 -0.17518894 0.10173048 -0.18042006 -0.071387894 -0.07045226 0.024348563 -0.096501105 0.15698752 0.056099758 0.1137623 -0.06298757 0.080941156 -0.089339666 0.08296374 0.18288416 -0.10040172 0.101648934 -0.21302347 -0.10186989 0.18080434 0.03426701 -0.08285387 -0.10632578 -0.14474374
9 -0.031570192 -0.04314677 0.20724246 0.2530199 -0.19451691 -0.21693107 0.11327331 0.23695579 -0.08979142 -0.06608355 0.28693217 0.011121463 0.030525833 0.03371336 -0.12205577 -0.063279346 -0.0056631695 0.07528458 -0.21660931 -0.034547575 0.2081025 0.20243996 0.23249255 -0.07486835 0.09426168 0.095210016 -0.12264378 0.13007651 -0.17137533 -0.07000749 -0.10611746 -0.057026103 0.029545467 -0.16015235 -0.011558017 -0.005219032 0.1082229 -0.07857816 0.23273708 0.017084543 -0.085058 0.08234463 -0.07696935 -0.044144325 -0.10340512 0.005357969 -0.049950268 0.11073961 0.0064959438 0.018026043 0.049296197 0.07809413 -0.039593354 0.15086196 0.14519455 -0.0929852 0.07874642 -0.2024484 -0.0746542 0.112601854 0.08397545 -0.08095337 -0.1061615 -0.059831575
6 -0.032003716 -0.04110186 0.22237521 0.23587053 -0.18232486 -0.22883025 0.10183223 0.22804585 -0.07377051 -0.04065857 0.29428518 0.02736495 0.045567296 0.018736001 -0.13288379 -0.052725174 -0.019038608 0.08879015 -0.21147095 -0.03642182 0.21809185 0.20256154 0.23742837 -0.08951607 0.09330507 0.10473546 -0.13398744 0.13785525 -0.1607883 -0.05880607 -0.115446396 -0.056463387 0.01966446 -0.14207861 -0.012151814 -0.016803136 0.11442834 -0.0695821 0.24928208 0.0063047376 -0.07548969 0.09449462 -0.07873082 -0.06081627 -0.096201256 0.026258212 -0.040071204 0.099814296 -0.0062870965 -0.00643867 0.06606745 0.062365226 -0.056645304 0.15219083 0.15140924 -0.09955875 0.07293549 -0.19932109 -0.08233341 0.09972712 0.082938485 -0.10015045 -0.100260064 -0.06188722
8 -0.027537957 -0.06529136 0.2001697 0.2363468 -0.16620176 -0.2203684 0.092473686 0.22660121 -0.0830669 -0.0281954 0.27464628 0.020703666 0.03879851 0.03657938 -0.115975104 -0.034966197 -0.0184017 0.08592336 -0.22407068 -0.0146536045 0.2347753 0.20341028 0.23313467 -0.08985324 0.10107077 0.10851084 -0.15013301 0.11407285 -0.17253888 -0.07696683 -0.11520263 -0.08319367 0.035697144 -0.15145472 -0.002854943 0.0045021544 0.10550708 -0.06249987 0.25849622 0.008554451 -0.07868674 0.08318222 -0.065683946 -0.059167482 -0.108273104 0.03109469 -0.03226105 0.09990055 -0.0069385646 -0.018335244 0.07148166 0.07802055 -0.03110618 0.1503775 0.15009286 -0.090183206 0.06280317 -0.19471486 -0.07011 0.09658014 0.077446565 -0.10772532 -0.11746977 -0.05287539
5 -0.035076387 -0.057497066 0.21410848 0.2296695 -0.17202662 -0.23376085 0.10799528 0.21663173 -0.08698347 -0.020020427 0.30840135 0.032569256 0.0274115 0.016370332 -0.11081711 -0.037057742 -0.009381633 0.08121288 -0.2269616 -0.0032203298 0.23496222 0.21292849 0.21988617 -0.080419086 0.088420935 0.0920607 -0.15243845 0.13032082 -0.16414794 -0.068405144 -0.12055725 -0.079201125 0.022108013 -0.13145165 -0.017583938 -0.008364474 0.12983209 -0.079874374 0.26982635 0.034644134 -0.058866452 0.09296131 -0.039765622 -0.062059004 -0.12265973 0.04044026 -0.024659367 0.099486195 0.0056395256 -0.04416145 0.09059029 0.060312636 -0.040557127 0.13902044 0.1573003 -0.08085504 0.07435409 -0.20409426 -0.07731794 0.105263 0.10543402 -0.11070886 -0.102260746 -0.034385093
7 -0.026666649 -0.056473665 0.22421964 0.26141417 -0.20100085 -0.20918086 0.11698726 0.23245901 -0.080743276 -0.04693549 0.28309035 0.007335979 0.015698086 0.022645775 -0.10444186 -0.0302691 0.011670643 0.061223865 -0.23568101 0.004338636 0.218901 0.21055959 0.23578888 -0.08292159 0.10662919 0.10398402 -0.124770135 0.11520281 -0.1729072 -0.07424948 -0.09530796 -0.06643353 0.002186933 -0.16914631 -0.023078343 -0.0029315767 0.11031387 -0.05046024 0.2537156 0.012426807 -0.07290445 0.09143058 -0.042547945 -0.04847456 -0.09742079 0.002601604 -0.03783558 0.12001574 -0.0033408315 -0.029917505 0.07871674 0.061346497 -0.037127398 0.16859859 0.13529572 -0.09629033 0.058305774 -0.17773041 -0.08570806 0.10866328 0.07375447 -0.076053336 -0.092939556 -0.042063892
4 -0.032613553 -0.060810663 0.22783451 0.23633742 -0.17238691 -0.23436275 0.081419125 0.20689438 -0.07639898 -0.029603753 0.30087632 0.023604888 0.043630455 -0.0011672447 -0.112204805 -0.04369527 -0.02451619 0.078183465 -0.23177953 -0.0070502586 0.2276951 0.21319118 0.22120747 -0.07856262 0.0812599 0.115330696 -0.1522768 0.12799649 -0.17535436 -0.060033202 -0.1169243 -0.08044175 0.0045960094 -0.12295476 -0.001800558 -0.017589571 0.11330847 -0.079067156 0.2715511 0.040545996 -0.066411376 0.08971498 -0.04155961 -0.044055145 -0.12383803 0.030013826 -0.009770693 0.10159722 -0.002125617 -0.060522728 0.10397229 0.042388804 -0.04601037 0.15355757 0.13893408 -0.081739925 0.065394014 -0.1979825 -0.09830885 0.114791475 0.099364065 -0.1138165 -0.08722527 -0.037444204
