7 64
902 -0.03429825 -0.01125438 0.110206254 0.20007196 -0.17573512 -0.2022711 0.21340297 0.2786335 -0.12811589 -0.030749772 0.26224786 0.045904737 -0.030857615 0.14656849 -0.13035312 -0.0382169 0.04363283 0.09670051 -0.15087026 -0.09672765 0.21254939 0.1510704 0.20927812 -0.07378624 0.13254412 -0.030696688 -0.094299376 0.13117138 -0.10739347 -0.10036491 -0.13537313 -0.03317266 0.16636027 -0.18681383 -0.06565759 0.02788884 0.1646341 -0.081025295 0.14198013 -0.07127425 -0.09667781 0.09084672 -0.14458752 -0.1377083 -0.049110133 0.054293755 -0.14737834 0.10179089 0.04506099 0.17252882 -0.09076604 0.1688354 -0.03215943 0.048826873 0.22414681 -0.09665544 0.11241062 -0.20334627 0.02831934 0.06656384 0.05244682 -0.054613885 -0.17624587 -0.1002139
9 -0.040299866 -0.018503059 0.11455037 0.2012749 -0.117549814 -0.16882715 0.13253723 0.29201618 -0.081898615 -0.08116885 0.26428717 0.06219243 0.14184754 0.06932838 -0.17243989 -0.12689228 -0.056223486 0.16290985 -0.09409405 0.017059734 0.17016082 0.17888401 0.28785646 -0.165838 0.06524694 0.15354969 -0.13868156 0.11333088 -0.0791505 -0.06869922 -0.026683155 -0.016275033 0.000107759406 -0.20230833 0.010493319 0.089383446 0.007484676 -0.010675954 0.27997285 0.018295413 0.012525146 0.0077656065 -0.109843604 -0.043705724 -0.107356876 0.017749632 -0.060197502 -0.045716878 -0.08155864 0.12652226 0.054043833 0.19919166 0.042424243 0.17922014 0.14279713 -0.09860855 0.09626121 -0.24648787 0.08567129 -0.07807482 0.13527772 -0.1024468 -0.21611828 -0.032791104
6 -0.034264952 -0.0068003056 0.13771687 0.18551566 -0.14112182 -0.19208021 0.15805542 0.2768884 -0.07768655 -0.032477286 0.25949362 0.066677466 0.072207205 0.09101639 -0.16861378 -0.06770107 -0.018502919 0.14312413 -0.116821416 -0.053155445 0.19914427 0.16259044 0.26434615 -0.14048132 0.10622814 0.076251365 -0.11808519 0.13177171 -0.08138962 -0.06893139 -0.08870168 -0.01453162 0.06794119 -0.18276253 -0.030773913 0.03968998 0.08972718 -0.02455339 0.21961264 -0.058001474 -0.04156451 0.06937331 -0.14277439 -0.11260586 -0.05288822 0.051327966 -0.10098077 0.024197653 -0.03777436 0.13139214 -0.009601496 0.16320068 -0.024686806 0.12527794 0.18841185 -0.1171623 0.0926093 -0.21229856 0.040406764 -0.018872768 0.07544332 -0.09155599 -0.18468 -0.08173662
7 -0.0322226 -0.03464497 0.095235385 0.196349 -0.1279859 -0.18504275 0.15259619 0.2821372 -0.108801536 -0.042007606 0.24166064 0.049762156 0.057800032 0.12672989 -0.14807029 -0.06979579 -0.017509378 0.13610907 -0.13350879 -0.0427038 0.21151285 0.16335747 0.24969344 -0.12287918 0.108110934 0.068364754 -0.13471492 0.106868625 -0.10765113 -0.097971044 -0.09268242 -0.048970595 0.10934 -0.19784361 -0.012782158 0.07063513 0.07965598 -0.044063717 0.21549085 -0.036533747 -0.05693003 0.043311264 -0.13540606 -0.09528693 -0.083304495 0.04724948 -0.09939715 0.02965365 -0.020185469 0.14751905 -0.022858744 0.19733274 0.017448178 0.11016481 0.18870375 -0.095056094 0.09614085 -0.22457035 0.061936796 -0.004860467 0.081052 -0.09394896 -0.21389976 -0.07358075
5 -0.038638998 -0.02738744 0.09075243 0.17847568 -0.12047556 -0.17892538 0.17525403 0.27427468 -0.11016079 -0.028482636 0.2632668 0.0665693 0.050387055 0.11172147 -0.13769338 -0.066871405 -0.003610173 0.13500655 -0.12089584 -0.004490858 0.20594746 0.16871376 0.23954628 -0.12636486 0.09538585 0.05612899 -0.13645115 0.11127306 -0.08248614 -0.092977114 -0.07898028 -0.04186923 0.084321834 -0.18863346 -0.031631626 0.07649231 0.0901776 -0.04054387 0.2353096 -0.010694607 -0.015821137 0.042838108 -0.097409785 -0.09956852 -0.09589326 0.05606846 -0.09140038 0.009040968 -0.020865278 0.123933665 0.003452511 0.1956542 0.025989566 0.10450662 0.19204152 -0.084695615 0.10392343 -0.22982432 0.080565386 -0.027199063 0.113506526 -0.09365433 -0.21216005 -0.041581113
4 -0.03077889 -0.0288869 0.13049921 0.2084608 -0.13929167 -0.17621668 0.14433958 0.28429842 -0.083296485 -0.04981482 0.2481972 0.04969054 0.08321052 0.09106935 -0.15632859 -0.07263492 -0.022149852 0.13859788 -0.13511117 -0.011013587 0.20296511 0.17774422 0.2791287 -0.14837684 0.10543783 0.112431265 -0.13085377 0.11002193 -0.10126412 -0.08337773 -0.06431536 -0.032695588 0.04390467 -0.2089265 -0.01379204 0.06660019 0.057061605 -0.010656669 0.25108066 -0.032209676 -0.032965478 0.046472922 -0.118260816 -0.082133025 -0.07658366 0.02935209 -0.08279965 0.016947 -0.05303384 0.1131943 0.020654164 0.17860493 0.011028836 0.15856239 0.1667844 -0.111359775 0.08255172 -0.21604988 0.048621185 -0.02758615 0.085519835 -0.091126494 -0.19833054 -0.060331095
8 -0.03891601 -0.022739578 0.11394462 0.19436198 -0.13206495 -0.19367702 0.15064059 0.2756189 -0.10282517 -0.051361788 0.26900187 0.057928275 0.073792264 0.09655283 -0.1547562 -0.09024902 -0.025968099 0.13867174 -0.12559989 -0.034860972 0.19800405 0.17092356 0.24855758 -0.12253008 0.08777808 0.07900328 -0.1340741 0.123518415 -0.099813245 -0.081237525 -0.085438944 -0.035894793 0.07719827 -0.18051638 -0.012623401 0.058434717 0.07848889 -0.05406627 0.23023002 -0.008684216 -0.03699086 0.043488905 -0.12243344 -0.08204255 -0.0958866 0.04413746 -0.08578411 0.016759824 -0.023875954 0.1300286 0.0023290627 0.17954533 0.00894667 0.118053965 0.18071331 -0.09143148 0.10473991 -0.23647195 0.052717533 -0.006561987 0.10789292 -0.098077804 -0.1983301 -0.060364258
