7 64
902 -0.008177264 -0.03869021 0.11339032 0.21902731 -0.17361893 -0.17868719 0.11170771 0.25218925 -0.105404645 -0.061421316 0.1717107 -0.015706347 -0.01826743 0.16037315 -0.13880312 -0.035551786 0.008574348 0.08115977 -0.20014203 -0.16264567 0.22158806 0.1433589 0.22735505 -0.05919048 0.15879162 0.022901494 -0.091167495 0.10496128 -0.18389963 -0.109621674 -0.155666 -0.06191246 0.19414257 -0.20405419 -0.009502507 0.009639228 0.12274351 -0.07908031 0.105727874 -0.11701493 -0.19443022 0.08790265 -0.20699814 -0.1029763 -0.025682619 0.016870625 -0.14096262 0.16053912 0.039797723 0.18099084 -0.12237631 0.15087667 -0.0483069 0.0855506 0.19309844 -0.11877866 0.07717829 -0.17704925 -0.04124889 0.13425702 -0.02932781 -0.05445065 -0.16180915 -0.1642298
6 -0.024650395 -0.030566402 0.16802365 0.21139996 -0.15366076 -0.1871711 0.14527552 0.277925 -0.06323977 -0.01688117 0.2451419 0.052689895 0.065198414 0.08174359 -0.15561661 -0.029933605 -0.009178386 0.13015525 -0.15386885 -0.02055989 0.22192486 0.17744493 0.28458545 -0.15502262 0.12930363 0.10629973 -0.12575999 0.11184284 -0.101739846 -0.07738453 -0.081159465 -0.03272668 0.039426263 -0.20322908 -0.03132868 0.040868368 0.08231985 0.011770413 0.24816948 -0.07505354 -0.047458682 0.08084601 -0.11956902 -0.11304812 -0.042926475 0.041848622 -0.0857694 0.045375906 -0.05592969 0.077344835 0.022892104 0.1436072 -0.025014924 0.1617291 0.1732439 -0.12990889 0.061385155 -0.18272382 0.013871753 -0.013791875 0.048147213 -0.09049508 -0.17146677 -0.075444564
9 -0.01909182 -0.026354855 0.15871234 0.20039028 -0.1542739 -0.18869433 0.13652882 0.26981172 -0.06459527 -0.012714008 0.22387755 0.044149917 0.045285173 0.10408037 -0.16181424 -0.02191389 -0.006970338 0.12623969 -0.16055739 -0.07250221 0.22919774 0.1645626 0.27584392 -0.13917607 0.14478976 0.08021614 -0.11703198 0.116864756 -0.11450884 -0.08106563 -0.110668905 -0.034926686 0.086827315 -0.19887002 -0.031696234 0.024317607 0.10277091 -0.004718097 0.20842583 -0.10920223 -0.08915283 0.09530457 -0.15731555 -0.13067845 -0.022527922 0.048942573 -0.107427076 0.075451024 -0.03546839 0.10780634 -0.023051597 0.14209399 -0.047316708 0.13779444 0.19021712 -0.13732369 0.063634194 -0.17718019 -0.002599149 0.018245416 0.016463919 -0.08733877 -0.16925924 -0.11125906
4 -0.013517366 -0.049091283 0.14250101 0.2135119 -0.14412734 -0.18200114 0.11291597 0.27260754 -0.07106348 -0.019691946 0.19871952 0.028745357 0.05407441 0.11866297 -0.15319096 -0.020180479 -0.018856214 0.12501116 -0.17203389 -0.06458716 0.23573132 0.1634285 0.27761248 -0.13878673 0.1480851 0.10071764 -0.12888908 0.09354293 -0.1351738 -0.0954671 -0.10626791 -0.05751536 0.097886465 -0.21124893 -0.008710212 0.043205503 0.077245936 0.0001266534 0.2123491 -0.106232494 -0.102938585 0.07673068 -0.15889828 -0.11345031 -0.03320347 0.04052203 -0.097500615 0.075372055 -0.041437797 0.10756951 -0.021382725 0.15652137 -0.022658885 0.14696565 0.17698574 -0.13112332 0.05202181 -0.17387378 0.0020773255 0.019564884 0.00541168 -0.09250102 -0.18354999 -0.11144836
7 -0.023340072 -0.04450541 0.15576883 0.20521109 -0.14639574 -0.19577125 0.14302868 0.26954618 -0.07616067 0.0014979955 0.24203627 0.051120486 0.04248423 0.09887695 -0.14510286 -0.013298554 -0.0037203166 0.12559798 -0.17210315 -0.02843233 0.24410956 0.17881835 0.27041006 -0.14161307 0.13778456 0.084605284 -0.13890266 0.107610025 -0.11594862 -0.09031622 -0.10502392 -0.055430286 0.07529984 -0.19661544 -0.032215096 0.040887218 0.104237184 -0.005630674 0.2431025 -0.076705 -0.0633772 0.08671487 -0.11726955 -0.12545386 -0.05202125 0.05820649 -0.087644175 0.06276512 -0.036165774 0.070504494 0.012142844 0.14656527 -0.023229606 0.13882628 0.18981528 -0.121108696 0.06341297 -0.18561794 0.010025516 0.008780624 0.044360533 -0.099955216 -0.17779182 -0.078940004
8 -0.015244226 -0.04162091 0.16189119 0.21959242 -0.16384666 -0.1775333 0.13533413 0.26673463 -0.067976125 -0.017812653 0.21362182 0.028060015 0.030574886 0.100720994 -0.13962807 -0.008434507 0.0070647937 0.10660389 -0.17992376 -0.042013038 0.22910967 0.1707956 0.27160394 -0.13249436 0.14885868 0.08769261 -0.115064256 0.09862708 -0.12787078 -0.09029334 -0.09663438 -0.046959933 0.07050924 -0.21158887 -0.031516746 0.033034947 0.0940472 0.0056427917 0.21547312 -0.09688642 -0.08754978 0.089331806 -0.12833202 -0.11418408 -0.029508974 0.031624462 -0.09674998 0.08754284 -0.03483093 0.081314206 -0.0059109316 0.13594557 -0.03149848 0.151234 0.17250118 -0.13104638 0.05089812 -0.16214482 -0.010189617 0.027713282 0.012389705 -0.075245775 -0.1606628 -0.09458719
5 -0.024602784 -0.039158534 0.18055299 0.21124439 -0.14986743 -0.20249425 0.12507784 0.2660982 -0.06082314 -0.0074746283 0.2505645 0.05246895 0.06909799 0.07190687 -0.15621586 -0.026489804 -0.021342117 0.13081588 -0.16793865 -0.02885981 0.23393595 0.18236707 0.2800056 -0.14958614 0.12647404 0.11267124 -0.1385879 0.11537126 -0.11558483 -0.074455835 -0.09715093 -0.045754045 0.0433391 -0.18633464 -0.021801367 0.028890654 0.088902295 -0.0005259351 0.25565124 -0.06923663 -0.057342656 0.08688977 -0.11903608 -0.11196948 -0.051616415 0.05118649 -0.07288558 0.053537436 -0.05186376 0.05359782 0.034009095 0.1272528 -0.03462041 0.1593257 0.17446432 -0.12689601 0.058739595 -0.18547177 -0.006884003 0.004757348 0.048390344 -0.10596304 -0.1626176 -0.078827485
