7 64
902 -0.012460511 -0.022075707 0.15077491 0.22623087 -0.20472464 -0.18510039 0.14365403 0.24078877 -0.100905456 -0.053450108 0.19732784 -0.012273597 -0.05674741 0.13885273 -0.12915851 -0.020221852 0.04322216 0.058863413 -0.21052124 -0.15894619 0.21666886 0.15044333 0.21549112 -0.044606585 0.16205448 -0.010327369 -0.07000178 0.124978356 -0.1740807 -0.098628774 -0.16087148 -0.043460142 0.17528823 -0.19471507 -0.04531678 -0.018668253 0.16419204 -0.08536868 0.097066544 -0.11837756 -0.19015238 0.12076747 -0.18645576 -0.12058023 -0.014470551 0.014243656 -0.15357806 0.19216645 0.059878327 0.15947935 -0.119370066 0.121360116 -0.08000531 0.0819004 0.20645094 -0.12677146 0.082470834 -0.16429871 -0.06731535 0.15919922 -0.025075022 -0.03398352 -0.12533544 -0.15624435
9 -0.018995235 -0.03204816 0.19075567 0.27868208 -0.22963174 -0.1495825 0.19595617 0.2873468 -0.08253068 -0.0715765 0.24358387 -0.0002828019 -0.012832718 0.075270206 -0.10347238 -0.015995748 0.069583036 0.055795915 -0.20369339 0.028472567 0.1941935 0.19595864 0.27420726 -0.1147402 0.14717822 0.08314283 -0.07410567 0.0949769 -0.13255802 -0.09546436 -0.04159394 -0.022397596 -0.0032152901 -0.25733322 -0.06674872 0.04137174 0.092209384 0.018641995 0.22490755 -0.048544113 -0.056590423 0.08385691 -0.05750683 -0.07083044 -0.040615257 -0.034314845 -0.099103935 0.11221603 -0.024441399 0.05935766 0.024781503 0.123524934 -0.01074619 0.19088343 0.13725668 -0.12617542 0.053662296 -0.15049148 -0.019014262 0.045092348 0.03851981 -0.0120063005 -0.12959802 -0.04788387
6 -0.018591335 -0.028493132 0.19470447 0.25729036 -0.21557821 -0.16647792 0.18143725 0.27879465 -0.07364148 -0.047600254 0.24331619 0.013193987 -0.005011795 0.07841032 -0.120511755 -0.009036983 0.0533464 0.07211845 -0.1996382 -0.0053184316 0.20999683 0.19008309 0.2750355 -0.11992041 0.15162268 0.076775305 -0.08468297 0.10713221 -0.12957983 -0.08882958 -0.06922627 -0.024973774 0.021558601 -0.23718977 -0.06400006 0.02549856 0.108528376 0.0111068785 0.21992698 -0.0729907 -0.07099575 0.099734955 -0.08555175 -0.096473165 -0.029679507 -0.00723279 -0.103602715 0.11392151 -0.023485688 0.06298122 0.011788325 0.11741276 -0.034515496 0.17479168 0.15724032 -0.13378377 0.054855086 -0.15316471 -0.027619516 0.04783178 0.026957214 -0.033003718 -0.13064684 -0.069647215
7 -0.014342119 -0.046988357 0.17950508 0.272069 -0.2127016 -0.15653783 0.16984503 0.28185484 -0.08373739 -0.058655623 0.22504696 -0.0034655782 -0.007282954 0.09114281 -0.10702112 -0.0076445774 0.052527156 0.063885264 -0.21311988 0.007426842 0.21275772 0.19134514 0.27318782 -0.11402144 0.15471542 0.08765279 -0.09016772 0.08682455 -0.14858511 -0.10334143 -0.062012002 -0.043141272 0.02877456 -0.25161126 -0.049575042 0.042637814 0.090376705 0.0125286 0.22066374 -0.06404186 -0.080952205 0.08340476 -0.07835852 -0.078043364 -0.041459884 -0.020367345 -0.097120844 0.11900266 -0.022790655 0.062425356 0.012878483 0.12956357 -0.010537556 0.18222044 0.14501286 -0.12610202 0.04727655 -0.15033172 -0.023795694 0.054689366 0.021237288 -0.029780697 -0.14035402 -0.064745955
5 -0.019823883 -0.04434148 0.18095244 0.26431718 -0.21184234 -0.15481931 0.19762418 0.28222346 -0.08612687 -0.042673495 0.24835312 0.012078753 -0.01713544 0.07972048 -0.09575487 0.0026367991 0.069620945 0.062404145 -0.20818089 0.048337758 0.21477596 0.20019832 0.2696802 -0.12138398 0.1495809 0.07806547 -0.094132334 0.08881999 -0.12785923 -0.1026146 -0.04953663 -0.039771307 0.0049743345 -0.25033486 -0.07009199 0.05049498 0.10242881 0.021853058 0.24528037 -0.04448887 -0.041022576 0.08405313 -0.038109455 -0.08442542 -0.050933372 -0.0115923025 -0.08853504 0.10078698 -0.025847444 0.033968903 0.04090441 0.1265541 -0.0008798115 0.17918548 0.14659601 -0.11710846 0.050482854 -0.15111136 -0.006701217 0.032132674 0.047659144 -0.028896935 -0.13961108 -0.033307582
8 -0.014836769 -0.039215844 0.19749072 0.27683133 -0.2285571 -0.14345242 0.18944974 0.27606016 -0.07454031 -0.05817197 0.2328741 -0.0041444986 -0.022361182 0.068415195 -0.09228171 0.004515201 0.076375104 0.046348237 -0.21364468 0.04157749 0.19902226 0.19610988 0.27039883 -0.11480481 0.15319718 0.08531039 -0.073882736 0.08577148 -0.13461727 -0.09574743 -0.04001018 -0.028733706 -0.013171543 -0.255231 -0.07041716 0.03779236 0.09414573 0.031377543 0.2281996 -0.05500433 -0.056275114 0.090578206 -0.042828407 -0.07392089 -0.03429291 -0.034070518 -0.09184822 0.12112801 -0.027161976 0.032240167 0.03657407 0.10930197 -0.013867986 0.19551942 0.1308651 -0.12716983 0.040131465 -0.13195068 -0.030484593 0.048232306 0.026835391 -0.010094244 -0.11705514 -0.042262085
4 -0.019103002 -0.041252635 0.1915688 0.27130055 -0.21749069 -0.16098699 0.16968071 0.26916996 -0.08273599 -0.064470686 0.24334419 -0.0017776302 -0.0074953875 0.066585384 -0.1005424 -0.017343415 0.053349752 0.05551145 -0.21213412 0.018475885 0.2004071 0.19573024 0.2600306 -0.10322581 0.13770103 0.08671947 -0.08706948 0.09518299 -0.14570796 -0.09233776 -0.05716263 -0.03765236 0.0059613623 -0.23376684 -0.05178891 0.031602185 0.09433335 -8.490314e-05 0.22556013 -0.03555649 -0.06635371 0.083082795 -0.056373578 -0.06375283 -0.054240335 -0.024863442 -0.08330698 0.11607901 -0.016966293 0.039228447 0.033120926 0.10905474 -0.0147567745 0.18016261 0.1343876 -0.11574059 0.052356113 -0.15354845 -0.035610452 0.063825175 0.041785974 -0.028111417 -0.120782346 -0.04879316
