7 64
902 -0.041379947 0.040411126 0.14755745 0.14648135 -0.18154539 -0.19106536 0.24597758 0.23836514 -0.0910329 -0.0005469243 0.29152682 0.07787171 -0.05337399 0.09109953 -0.13785641 -0.027956963 0.07364474 0.09124617 -0.12145463 -0.08602747 0.18873668 0.15295565 0.2011871 -0.08062761 0.11987156 -0.065202035 -0.06459285 0.17589918 -0.04980918 -0.05967262 -0.12983544 0.020802673 0.1076237 -0.15243949 -0.12200301 -0.017101672 0.21525866 -0.07183133 0.14673059 -0.07339466 -0.045885965 0.13500203 -0.11567957 -0.17325412 -0.020785434 0.07076471 -0.15427853 0.09427269 0.045754526 0.13690887 -0.06744116 0.1192984 -0.08861458 0.04137532 0.24085078 -0.11136455 0.12637429 -0.19560283 0.012131567 0.051032003 0.07851361 -0.04155666 -0.12989977 -0.08389777
9 -0.038540695 -0.020552248 0.118470445 0.20093028 -0.14641653 -0.19267187 0.17562672 0.28474894 -0.10658967 -0.04304631 0.27438834 0.059501156 0.05133039 0.10667635 -0.15079853 -0.073654674 -0.003939821 0.13237974 -0.13313076 -0.030495165 0.20726825 0.17386459 0.2519504 -0.12368544 0.10266117 0.061138842 -0.12748802 0.124550045 -0.096085936 -0.0877652 -0.08785213 -0.033082098 0.08272693 -0.19329932 -0.031802334 0.058517613 0.096068226 -0.045905996 0.22655383 -0.02341851 -0.03735886 0.055352908 -0.11703904 -0.09838758 -0.08459178 0.04550557 -0.09936736 0.030008342 -0.017805828 0.13186611 -0.0065888306 0.18274522 0.004165273 0.11536794 0.19268234 -0.09809741 0.10470005 -0.23007104 0.05493569 -0.0044620046 0.10046795 -0.087711066 -0.19944465 -0.06121931
6 -0.043973316 0.031046186 0.1599809 0.14368077 -0.15551506 -0.20132804 0.21475194 0.24933055 -0.0703849 0.01013417 0.30120465 0.098615296 0.015753206 0.06866355 -0.1619965 -0.040213477 0.028200341 0.12875664 -0.10363255 -0.057168014 0.19521675 0.15939294 0.23194459 -0.12410158 0.10493679 0.0002673262 -0.0943786 0.16961329 -0.036477644 -0.0473853 -0.10964482 0.017158436 0.0637442 -0.14589673 -0.09382868 -0.0013146398 0.16887584 -0.03936336 0.20110007 -0.06486943 -0.0124397855 0.11730566 -0.114245586 -0.16346923 -0.03121476 0.08278326 -0.12101763 0.040287804 -0.0053001596 0.10771317 -0.015604626 0.123688 -0.07467785 0.07913144 0.22426853 -0.11705546 0.111727975 -0.20266178 0.028187474 -0.006743845 0.09308413 -0.07735939 -0.14578782 -0.07002528
7 -0.034755692 -0.0026015672 0.13089015 0.17677748 -0.15852532 -0.19440976 0.19379428 0.26144215 -0.09783628 -0.014606683 0.26727593 0.062194716 0.00025321386 0.110339515 -0.14567402 -0.04023046 0.027097808 0.114280395 -0.14036001 -0.069553964 0.21261619 0.16255653 0.231569 -0.10398117 0.12226078 0.005563353 -0.10487105 0.14175999 -0.0880523 -0.08116987 -0.1201271 -0.020797664 0.11282124 -0.17713371 -0.06648853 0.022006823 0.15295048 -0.05615543 0.18592678 -0.06453197 -0.061595675 0.09691154 -0.1298485 -0.14031972 -0.048924673 0.06256514 -0.12648574 0.072493106 0.012381176 0.13341881 -0.04392438 0.15344773 -0.04258732 0.08018877 0.21910836 -0.108795695 0.106944844 -0.20799407 0.025792772 0.031955037 0.070760466 -0.07287162 -0.17066397 -0.08580563
5 -0.04191087 -0.0036964545 0.11960116 0.16094415 -0.1407805 -0.19586146 0.20509289 0.25934005 -0.10201634 -0.00017220469 0.28735355 0.08170338 0.010381249 0.10104534 -0.14049706 -0.042931594 0.02436892 0.1245614 -0.12472396 -0.03389586 0.21324967 0.16681099 0.22498596 -0.11329863 0.106354125 0.006159039 -0.11932531 0.14105721 -0.066888206 -0.07914497 -0.108842924 -0.023178637 0.09602923 -0.16561109 -0.07053353 0.036377117 0.15028463 -0.05359499 0.21240257 -0.036337588 -0.022206336 0.08645005 -0.099906966 -0.14063829 -0.06928347 0.07734809 -0.11178381 0.039962783 0.004680143 0.113696516 -0.015228774 0.16142164 -0.02452911 0.07507957 0.22139162 -0.095240384 0.11307012 -0.21959797 0.052361026 0.0009214418 0.10461871 -0.08568742 -0.18118964 -0.055680245
8 -0.038156252 0.0021657078 0.14297046 0.18237695 -0.16760138 -0.19096062 0.21225207 0.26669964 -0.09465107 -0.014531007 0.28441346 0.06855278 6.748679e-05 0.09528548 -0.14128482 -0.03842876 0.038520098 0.111407906 -0.13749309 -0.038740948 0.20725895 0.17082883 0.23724288 -0.11264347 0.118438 0.010712931 -0.10139279 0.14374624 -0.07519901 -0.07699706 -0.10237942 -0.011440978 0.08040699 -0.18263362 -0.079261385 0.02561051 0.15185098 -0.042377222 0.20471936 -0.051575724 -0.035159472 0.09771867 -0.10412518 -0.13766521 -0.05166611 0.05693303 -0.12081139 0.062439375 0.0035098616 0.11445403 -0.020133866 0.14876379 -0.03851287 0.09390582 0.21323887 -0.10939187 0.10618554 -0.20580614 0.03150761 0.015661921 0.08613832 -0.06622312 -0.16486482 -0.06527157
4 -0.040323876 -0.01033533 0.13922226 0.18616283 -0.15221012 -0.20540887 0.178065 0.26378042 -0.098964676 -0.024719318 0.28875497 0.06672151 0.032034278 0.08937347 -0.14952382 -0.061396968 0.0046173716 0.12410539 -0.13979669 -0.046694025 0.2113772 0.17483546 0.23777252 -0.11134398 0.10221156 0.03796247 -0.1229776 0.14292133 -0.09287821 -0.07585236 -0.10896941 -0.027706344 0.08457139 -0.16825797 -0.047823247 0.02912886 0.13083695 -0.061022986 0.21854538 -0.027609393 -0.04171267 0.08072298 -0.1129583 -0.11571046 -0.07726259 0.059740204 -0.1004365 0.048912495 -0.0015078068 0.10960668 -0.006394373 0.15176181 -0.027758854 0.09837379 0.20522499 -0.09959777 0.10895417 -0.22565815 0.027577402 0.020627914 0.10017821 -0.090033926 -0.17363892 -0.06627322
