7 64
902 -0.011894829 -0.072482444 0.029242193 0.21596539 -0.12173169 -0.16024916 0.107370414 0.27318156 -0.14492415 -0.07090596 0.15174064 -0.01219013 0.010334613 0.2103043 -0.12333832 -0.059213698 -0.014206563 0.10507604 -0.17463139 -0.116010524 0.22459924 0.13637401 0.21952848 -0.06889336 0.14090139 0.036866453 -0.12710288 0.06295206 -0.18009697 -0.14419451 -0.13017401 -0.09837874 0.22951049 -0.22549021 0.025538309 0.086110175 0.07060933 -0.08146155 0.12755045 -0.073605135 -0.16582865 0.022447938 -0.19341138 -0.076450065 -0.07744789 0.023321966 -0.12869473 0.09974118 0.028920116 0.2207366 -0.12071411 0.23273098 0.042342223 0.07160812 0.18759601 -0.0823163 0.08618186 -0.2085482 0.047368217 0.07719686 0.007878676 -0.0737307 -0.23614585 -0.12996948
9 -0.026625615 -0.041511726 0.08690144 0.16853796 -0.088106446 -0.14917855 0.15480736 0.29273212 -0.07032304 0.0015270493 0.21570006 0.079697855 0.10492034 0.110462524 -0.14748086 -0.03373661 -0.025521783 0.16434807 -0.0931249 0.046561956 0.21075799 0.15831855 0.28549704 -0.19442679 0.11281519 0.123553455 -0.14762007 0.072289035 -0.0498738 -0.091785654 -0.033999696 -0.039254785 0.034273136 -0.21796417 -0.019208452 0.11261061 0.02692171 0.055022534 0.27737674 -0.059652973 0.019899484 0.028139006 -0.096866354 -0.11243126 -0.059936132 0.06046796 -0.074966855 -0.044653226 -0.09669418 0.102183 0.04052692 0.21247762 0.04913324 0.15699238 0.16517268 -0.1093448 0.057762492 -0.18876186 0.11741184 -0.12392117 0.077766225 -0.10589218 -0.23575005 -0.03263422
6 -0.024982903 -0.034680013 0.09964535 0.15902044 -0.09312877 -0.1581774 0.15416223 0.28046265 -0.06312225 0.016762823 0.21464637 0.08218519 0.089246385 0.10979565 -0.15189555 -0.020105263 -0.020227589 0.16085331 -0.09882526 0.019055365 0.21809107 0.1539274 0.2793094 -0.18720944 0.121628284 0.104485735 -0.14187005 0.08347589 -0.050565325 -0.08604146 -0.055577546 -0.035806265 0.050086755 -0.20493157 -0.029300699 0.09038751 0.052207947 0.047858037 0.26043963 -0.08179902 0.0027826866 0.04962704 -0.11050404 -0.13238904 -0.04296313 0.07210188 -0.08413441 -0.024347046 -0.085044995 0.09963955 0.024672722 0.19440597 0.021170905 0.14251791 0.17856197 -0.11689182 0.057580814 -0.18067211 0.09644626 -0.103452854 0.061152484 -0.106551975 -0.22105242 -0.05047748
7 -0.019369695 -0.055632167 0.07458324 0.16326906 -0.078644894 -0.15217857 0.1292996 0.27782974 -0.07395797 0.012103409 0.18686602 0.06638891 0.08976569 0.13155077 -0.14270546 -0.018649193 -0.03141537 0.15821652 -0.109956875 0.0117743295 0.22579378 0.1481271 0.2715601 -0.17749068 0.12512468 0.11062437 -0.15260017 0.06276212 -0.073285446 -0.101420276 -0.061956573 -0.060459033 0.07958291 -0.20984696 -0.006621222 0.104683965 0.036036775 0.040286746 0.25030777 -0.08128949 -0.020438287 0.033220842 -0.11962595 -0.119454354 -0.05326908 0.06898931 -0.079513036 -0.01781663 -0.07969015 0.108921066 0.012028634 0.2093164 0.041598886 0.13647968 0.17236237 -0.10729512 0.05082824 -0.17970665 0.099473014 -0.09090246 0.04760056 -0.11231266 -0.23537089 -0.05771316
4 -0.02333545 -0.052995224 0.070335194 0.16865396 -0.092674255 -0.15638031 0.15583879 0.28050405 -0.092433356 0.008950306 0.20517963 0.064989224 0.059070233 0.1410632 -0.13273092 -0.018022405 -0.008793278 0.14637241 -0.121503666 0.012186375 0.23065083 0.15502304 0.2601375 -0.16029766 0.1280121 0.07958123 -0.14877501 0.07098518 -0.07812078 -0.11015957 -0.07145526 -0.06256198 0.09672403 -0.21412833 -0.023243342 0.103462406 0.06338891 0.018997276 0.24325313 -0.0689858 -0.02292456 0.039680798 -0.108494416 -0.12471013 -0.06370848 0.0691224 -0.09176941 -0.00022500208 -0.05483581 0.1164239 0.00026777672 0.214588 0.04258247 0.11950096 0.18764602 -0.10000745 0.06561403 -0.19063218 0.10080728 -0.06920373 0.06096335 -0.102416806 -0.23617554 -0.052146867
8 -0.018658316 -0.05318469 0.08824232 0.19273248 -0.11647625 -0.15036006 0.1583985 0.28849787 -0.08833411 -0.0063685374 0.19776908 0.04860514 0.049544677 0.13997202 -0.1308135 -0.013091894 0.003024962 0.13294883 -0.13767618 0.009811557 0.2277674 0.15947504 0.2718222 -0.15871722 0.14070036 0.08732348 -0.13488385 0.068206996 -0.0917574 -0.112381995 -0.06494875 -0.057517435 0.08547502 -0.23340711 -0.026691072 0.09789827 0.06008016 0.029669391 0.23675208 -0.08170986 -0.038673393 0.046109412 -0.11164566 -0.117808424 -0.050455984 0.047744002 -0.0982727 0.022202058 -0.055970915 0.11678503 -0.0042182324 0.20651549 0.035527922 0.13886851 0.17788023 -0.1115053 0.05693882 -0.17758252 0.08214049 -0.053501535 0.041659776 -0.084921174 -0.2243732 -0.0607805
5 -0.023846686 -0.051303063 0.09862034 0.18041085 -0.1018535 -0.17175606 0.13598686 0.2794631 -0.08200251 -3.756757e-05 0.21604183 0.06211797 0.07855706 0.120806076 -0.14570116 -0.029433845 -0.026202103 0.15008105 -0.12982723 -0.0022372913 0.23031646 0.16187146 0.27052173 -0.16241948 0.12278053 0.102704845 -0.1516726 0.0821505 -0.09040101 -0.098553956 -0.07681318 -0.059633415 0.080257684 -0.20473088 -0.01132562 0.08616962 0.05775433 0.013782219 0.25170982 -0.06626015 -0.032780636 0.04558583 -0.11903706 -0.114685476 -0.06440406 0.06420607 -0.0810026 0.004852736 -0.061765306 0.102416776 0.0132873 0.1941371 0.025164662 0.13588363 0.17955433 -0.107353106 0.062951095 -0.19415307 0.0736986 -0.05558535 0.059310902 -0.11085752 -0.22094768 -0.061694358
