7 64
902 -0.02148657 -0.041415006 0.17719626 0.2348953 -0.19601509 -0.20594117 0.14482187 0.24482559 -0.099037476 -0.032022275 0.2490891 0.009787048 -0.027992606 0.09764788 -0.120912276 -0.016299514 0.031095905 0.0714466 -0.22529414 -0.08054048 0.2385383 0.18464372 0.230671 -0.071449146 0.1446869 0.032658987 -0.11154125 0.12585813 -0.1709353 -0.09640794 -0.14398578 -0.063347034 0.1142285 -0.18740036 -0.042720772 -0.003736454 0.15653081 -0.07238568 0.18592091 -0.06146168 -0.12949947 0.11171347 -0.119823195 -0.10692855 -0.059055615 0.029568877 -0.10467083 0.15261349 0.03293989 0.0732427 -0.028754575 0.10756422 -0.056723326 0.11096281 0.19447024 -0.111749545 0.07909531 -0.18562159 -0.061382618 0.12788957 0.029972225 -0.067417376 -0.13094744 -0.103070416
9 -0.027285157 -0.054947473 0.10294241 0.19720557 -0.12011131 -0.19002245 0.12788285 0.2673837 -0.10504631 -0.02383338 0.23269162 0.04322175 0.053525157 0.121287145 -0.13685064 -0.048451696 -0.023066672 0.12967947 -0.15825833 -0.03467043 0.23106216 0.16904092 0.2451643 -0.11948345 0.11392691 0.078919455 -0.15036376 0.09544453 -0.12684809 -0.10288746 -0.10433526 -0.073052175 0.11115564 -0.189215 -0.0033021038 0.06616745 0.08187247 -0.042459026 0.22774716 -0.036438722 -0.06788561 0.048397955 -0.12258319 -0.094517715 -0.08960784 0.05447828 -0.08190684 0.04349588 -0.01980129 0.10758772 -0.004745032 0.18056715 0.01641226 0.113568835 0.18423814 -0.09152898 0.08118546 -0.21359259 0.040413156 0.012387789 0.0700501 -0.10716189 -0.20523843 -0.0713481
6 -0.024467595 -0.053520095 0.12197991 0.18812647 -0.11863367 -0.19313253 0.12005488 0.25669664 -0.08773506 -0.0028774927 0.22988808 0.049276054 0.05401904 0.1077794 -0.13963266 -0.029245866 -0.023745716 0.13082665 -0.16190122 -0.0352204 0.23899318 0.16911338 0.24966545 -0.12855302 0.12071166 0.08383564 -0.15140256 0.09830086 -0.12152729 -0.094515875 -0.11015401 -0.07099056 0.098961115 -0.17989087 -0.009587662 0.05209813 0.0901158 -0.027829975 0.23439322 -0.05452068 -0.06670173 0.064805835 -0.12097934 -0.1094909 -0.0741848 0.06462166 -0.076970465 0.047910128 -0.028457174 0.08170155 0.0064936806 0.15972595 -0.0030782134 0.11900746 0.18571308 -0.10132457 0.0698466 -0.19876029 0.023943454 0.010304426 0.056688484 -0.11329096 -0.19106317 -0.07560112
5 -0.022172322 -0.068800524 0.08710643 0.18618679 -0.0972029 -0.1877114 0.10162795 0.2611477 -0.10119978 -0.010537793 0.20775531 0.0422117 0.06646275 0.1332777 -0.13823481 -0.039736297 -0.04110878 0.13913889 -0.15707625 -0.042043142 0.24143098 0.1606439 0.24481635 -0.12538373 0.11751528 0.090530895 -0.1635688 0.08078883 -0.13232227 -0.10800243 -0.1112693 -0.08910642 0.12912261 -0.18460827 0.014289429 0.074123695 0.067724176 -0.035672214 0.2266515 -0.049893487 -0.078643 0.040896665 -0.13545562 -0.097350575 -0.08759734 0.065435275 -0.074977264 0.036427643 -0.028240299 0.10704817 -0.008588326 0.18759906 0.023988135 0.109880805 0.18254724 -0.090097405 0.07022404 -0.20747986 0.045193184 0.0045749764 0.054199003 -0.12230964 -0.21689172 -0.080170184
7 -0.027783895 -0.073031045 0.06579083 0.16905381 -0.07686681 -0.18898225 0.114758454 0.26236662 -0.11125657 0.0056379526 0.22113362 0.059647355 0.06989084 0.1380595 -0.13260882 -0.039454136 -0.04195013 0.15066333 -0.14466876 -0.0154520245 0.2485382 0.16316427 0.23832673 -0.13245483 0.10812339 0.0830349 -0.18001239 0.07791488 -0.11570308 -0.11318915 -0.1074506 -0.096909 0.13211977 -0.1788239 0.010506689 0.09262717 0.0701425 -0.03741339 0.24696097 -0.030014956 -0.049526185 0.03072467 -0.11540887 -0.10422595 -0.10699929 0.08394343 -0.0685241 0.009589559 -0.030179933 0.10126926 0.005762444 0.20579004 0.044772584 0.09712556 0.19269878 -0.07673806 0.07859773 -0.22161904 0.07672084 -0.022184368 0.082052425 -0.1356281 -0.23677504 -0.057489257
8 -0.022140171 -0.06934559 0.107158996 0.20699218 -0.12136916 -0.18452014 0.124310546 0.27078933 -0.10200938 -0.014262268 0.22156863 0.036985435 0.04867737 0.12517715 -0.12843484 -0.028198192 -0.017480988 0.1250165 -0.17430934 -0.01597986 0.24431352 0.17446615 0.25428006 -0.1276966 0.12709501 0.09072398 -0.15634799 0.08113366 -0.13550808 -0.111830235 -0.09988554 -0.0853666 0.10480737 -0.20323955 -0.0031484708 0.07417342 0.076532684 -0.023214724 0.24104802 -0.046159245 -0.06988863 0.05003873 -0.1115913 -0.0967488 -0.086085714 0.05200987 -0.076852 0.05060211 -0.028510358 0.08752706 0.006914755 0.18038207 0.02364098 0.12795939 0.17943873 -0.09586 0.06636243 -0.20023592 0.036957946 0.009527051 0.05656426 -0.10716338 -0.20718455 -0.0672194
4 -0.02654686 -0.07377741 0.09420757 0.18632744 -0.08747186 -0.19703671 0.087655835 0.25852516 -0.09873149 -0.012093052 0.22432686 0.049418136 0.09247387 0.113000825 -0.14085467 -0.053303353 -0.0602547 0.14877297 -0.1542479 -0.023286374 0.24075978 0.16917129 0.24784186 -0.1325526 0.100208856 0.11509628 -0.1790516 0.08256369 -0.13181059 -0.10105685 -0.10375196 -0.09402952 0.10534918 -0.1721562 0.027762856 0.07747094 0.05282675 -0.03839628 0.25421855 -0.022021309 -0.059553795 0.03053398 -0.12088283 -0.08199537 -0.10871515 0.06833253 -0.052585863 0.0149563 -0.04048073 0.083169766 0.023902098 0.18246473 0.032760344 0.1215865 0.17250311 -0.08251503 0.07099307 -0.21970013 0.046301708 -0.0074613406 0.077959076 -0.1388986 -0.21712103 -0.063647866
