7 64
902 -0.02946793 0.023519227 0.20269084 0.24712953 -0.22769299 -0.16338526 0.19499817 0.27972043 -0.06541333 -0.09351537 0.2648587 0.02302652 0.019140178 0.054524746 -0.15111044 -0.07017649 0.044602476 0.08078921 -0.14657585 -0.047843136 0.15324667 0.17686844 0.2746202 -0.11378128 0.12067106 0.0668764 -0.04634666 0.14812301 -0.096779525 -0.054983523 -0.054043718 0.0349897 -0.0014611693 -0.22163923 -0.07125454 0.0019383978 0.10351249 -0.011853411 0.18682116 -0.060667407 -0.058069307 0.09758073 -0.12046097 -0.08226634 -0.017506229 -0.02707108 -0.12561068 0.09301247 -0.0221612 0.1281372 -0.014027938 0.115396574 -0.06262514 0.17490771 0.15667023 -0.14491545 0.08907749 -0.1808867 -0.022351673 0.03828524 0.054340083 -0.012448991 -0.1177848 -0.084945306
9 -0.040628247 0.044764135 0.21086362 0.22521661 -0.21415785 -0.16034152 0.21176451 0.28626218 -0.04410767 -0.09029045 0.2971156 0.057825223 0.07103759 0.011675962 -0.16273235 -0.091447026 0.02776348 0.10526677 -0.09473947 0.007165777 0.122653864 0.1750378 0.28263828 -0.14865723 0.08599118 0.09929301 -0.047520544 0.15336555 -0.040903646 -0.027095431 -0.007822113 0.06588098 -0.07743508 -0.20395026 -0.07514413 0.014586599 0.07016009 0.021246737 0.22671172 -0.028468942 0.019593336 0.079448625 -0.08528973 -0.07172403 -0.024025971 -0.021572903 -0.097191446 0.018971015 -0.0637095 0.099560685 0.041951917 0.10859248 -0.04765457 0.1907171 0.13048111 -0.13595322 0.08674782 -0.17860226 0.0149011845 -0.040330756 0.09662572 -0.020704871 -0.11266655 -0.04002101
7 -0.040574763 0.045835983 0.22221005 0.20975749 -0.20394531 -0.16878535 0.20128758 0.2738686 -0.03205922 -0.068535514 0.30047897 0.06874642 0.076658875 -0.00037611468 -0.16776252 -0.08036051 0.019792324 0.11172876 -0.09323433 0.0033098129 0.13084511 0.17423691 0.28137934 -0.1548023 0.085238844 0.10117822 -0.05496879 0.15911369 -0.034220416 -0.01830903 -0.018227264 0.064779036 -0.0816877 -0.18594287 -0.07677071 0.0023171587 0.0792642 0.024653671 0.23458166 -0.03651693 0.023703724 0.0911567 -0.08504326 -0.0853148 -0.018482124 -0.0046736766 -0.0899692 0.016022326 -0.06888888 0.078141004 0.052929413 0.09275246 -0.06360043 0.18774524 0.13672121 -0.14045238 0.08282618 -0.17547461 0.004507038 -0.04338955 0.09471738 -0.034730747 -0.10500941 -0.042724494
6 -0.041350562 0.032159895 0.20573798 0.20997076 -0.18743901 -0.16626218 0.19593398 0.28617552 -0.035209298 -0.06740922 0.29908097 0.07432393 0.102463394 0.003799191 -0.16690409 -0.08499485 0.004555386 0.1260556 -0.08563114 0.033355303 0.1337441 0.17504126 0.28732294 -0.17054957 0.07764604 0.12613194 -0.072407216 0.1411374 -0.029438853 -0.024873333 -0.0011349064 0.052201267 -0.09168917 -0.1916388 -0.06063668 0.028888565 0.049920075 0.039693717 0.25816974 -0.021933801 0.044029143 0.068034306 -0.072247796 -0.07350954 -0.034282677 -0.0018021252 -0.073225446 -0.015003204 -0.088157535 0.06981602 0.074081376 0.11139356 -0.032318685 0.19637209 0.12393667 -0.12977085 0.07483595 -0.17692819 0.03143975 -0.07641261 0.10534651 -0.047434896 -0.12471082 -0.024011457
8 -0.042783123 0.03403926 0.2083692 0.2184099 -0.20541371 -0.17218807 0.21585354 0.28407916 -0.051448155 -0.06857121 0.3105075 0.067306764 0.063461564 0.015192363 -0.15746062 -0.078520924 0.02905822 0.109472945 -0.10602424 0.018839536 0.1443346 0.18335955 0.2791688 -0.1498932 0.08856554 0.09175177 -0.066364266 0.15380663 -0.043630604 -0.03423667 -0.02113319 0.049167495 -0.06613352 -0.19760041 -0.07893043 0.018151632 0.086582914 0.014600492 0.24523501 -0.021272415 0.02581888 0.08455305 -0.071800336 -0.08449745 -0.037815746 -0.0021654533 -0.091347024 0.018753735 -0.058251943 0.079387024 0.05368534 0.111002795 -0.0437037 0.18111849 0.14533193 -0.12972042 0.089156345 -0.18684685 0.018469788 -0.0389112 0.107988395 -0.036469728 -0.12099555 -0.030918267
5 -0.03513399 0.033607855 0.22490266 0.24152784 -0.22926848 -0.16284883 0.21315734 0.2866793 -0.046725806 -0.08237896 0.29157886 0.045298256 0.0441841 0.020425318 -0.15461193 -0.067956574 0.04428368 0.0913 -0.12683782 0.0022545038 0.14318559 0.18415126 0.2881338 -0.14250384 0.10790441 0.0915926 -0.047998026 0.15068354 -0.06297759 -0.0383889 -0.022616182 0.053035673 -0.0644687 -0.21761832 -0.0834569 0.0070415973 0.08954988 0.022331413 0.22610655 -0.045993585 -0.004388375 0.096644394 -0.08488437 -0.08243537 -0.016718747 -0.024074705 -0.10505994 0.054388024 -0.05318832 0.08728724 0.03566487 0.101456136 -0.05836732 0.19692062 0.14023979 -0.14527917 0.07961905 -0.17003016 -0.008054192 -0.010943876 0.07646863 -0.015494493 -0.10704541 -0.050840843
4 -0.041684967 0.035213627 0.22834384 0.23052949 -0.21268675 -0.17812634 0.19338627 0.28066978 -0.04222721 -0.084431715 0.31107807 0.058717385 0.08102029 -0.0021412468 -0.16600408 -0.09206869 0.01370315 0.10850985 -0.11148384 0.006036548 0.13577098 0.18517509 0.28379047 -0.14730242 0.08153583 0.11379938 -0.063566305 0.15787424 -0.056039035 -0.024129113 -0.02006944 0.052555747 -0.08195956 -0.19030994 -0.06413839 0.005013282 0.07301214 0.01079953 0.24454753 -0.016840357 0.014452856 0.08370606 -0.08096197 -0.066916294 -0.037604548 -0.014480684 -0.081432514 0.024008125 -0.064237945 0.07201489 0.061820153 0.09399406 -0.054744836 0.1973904 0.13080993 -0.13463727 0.08499718 -0.18657193 -0.0053200517 -0.025270017 0.103192315 -0.038317535 -0.106242135 -0.039694116
