7 64
902 -0.019500133 -0.017811656 0.21434805 0.21718879 -0.17261826 -0.21411812 0.0873 0.24943528 -0.040781833 -0.036094278 0.23720264 0.032371048 0.07713907 0.054415945 -0.18095902 -0.047897603 -0.040326443 0.12229522 -0.17341796 -0.11069358 0.21399587 0.16916907 0.2771946 -0.12711622 0.12497138 0.11649676 -0.11143218 0.13887776 -0.1381294 -0.050377652 -0.12146616 -0.024462625 0.052525412 -0.16410801 -0.006589813 -0.021473002 0.09251242 -0.025209552 0.20411135 -0.09645129 -0.11298147 0.10618424 -0.1742737 -0.100796245 -0.021740206 0.032988288 -0.082339145 0.0918985 -0.038947638 0.07651418 -0.002320738 0.08555567 -0.08824178 0.15893593 0.16385354 -0.14436759 0.05806934 -0.17541069 -0.0683319 0.06036013 0.010567195 -0.09524192 -0.1203016 -0.12944871
9 -0.03814451 -0.0010178018 0.1905882 0.14176379 -0.09760152 -0.21192768 0.09570363 0.23755755 -0.016135368 0.0137061495 0.27920064 0.10755888 0.1576796 0.0037405621 -0.19322506 -0.065370575 -0.08047199 0.1787876 -0.08457413 -0.019057976 0.19304296 0.16486925 0.27709234 -0.18699957 0.06841454 0.15211305 -0.14733963 0.14346343 -0.043091457 -0.016885275 -0.07334007 -0.0028869226 -0.02856413 -0.11615593 -0.008421326 0.01170551 0.05628554 0.014258132 0.2877682 -0.04250682 0.018983291 0.07677916 -0.11725763 -0.11088598 -0.05220568 0.08481946 -0.034358636 -0.041776884 -0.101573676 0.026876263 0.09009353 0.09857411 -0.055032197 0.1620529 0.15797113 -0.12384664 0.06551507 -0.19860305 0.01532284 -0.07915884 0.09722259 -0.14627795 -0.14828254 -0.056457188
6 -0.039632883 0.019339543 0.21297666 0.1381088 -0.112669885 -0.21978605 0.09651265 0.22926372 -0.005189447 0.007779858 0.28770667 0.108836174 0.15400514 -0.011051921 -0.20556463 -0.0729583 -0.07910395 0.17527245 -0.07955113 -0.05141409 0.18121286 0.16047347 0.2742922 -0.1787395 0.06607966 0.14092067 -0.13001409 0.16463558 -0.038849197 -0.00020478637 -0.08388346 0.017872041 -0.032175243 -0.10153549 -0.017014477 -0.016973449 0.0724719 0.003336988 0.2666997 -0.054071404 0.0074012238 0.09450587 -0.13495074 -0.11685127 -0.034922797 0.08260064 -0.04356474 -0.027563091 -0.09325132 0.0346076 0.07618585 0.07502293 -0.088093944 0.1565103 0.16129498 -0.1334581 0.07153655 -0.19580118 -0.009264297 -0.060008194 0.08966597 -0.13847302 -0.1243979 -0.07388922
4 -0.028821459 -0.01676973 0.17967905 0.14922246 -0.09489165 -0.21145865 0.072362766 0.23811132 -0.019891212 0.014826228 0.24577604 0.08957645 0.14895219 0.032594338 -0.19453226 -0.052863594 -0.08689805 0.1765701 -0.10451071 -0.05371698 0.21060209 0.15786211 0.27969077 -0.17959921 0.08902455 0.15123628 -0.1514134 0.13073248 -0.071331315 -0.03169477 -0.095023125 -0.022644274 0.015150122 -0.12669107 0.0069336775 0.011732385 0.055072885 0.010173112 0.26487383 -0.073964715 -0.026579076 0.078809455 -0.1499045 -0.11624323 -0.04063633 0.08487204 -0.04486871 -0.014482105 -0.09317601 0.04666994 0.05733792 0.106941484 -0.05748724 0.1559574 0.16347599 -0.13006048 0.055612266 -0.18992794 0.002055346 -0.052835274 0.05932761 -0.14851157 -0.15696001 -0.08709476
7 -0.040700957 -0.012094444 0.16807349 0.1202954 -0.07350162 -0.22161187 0.09453967 0.2294675 -0.028270954 0.039864775 0.2835267 0.1203555 0.15097608 0.01811763 -0.18793757 -0.055783447 -0.085416734 0.18818542 -0.08527119 -0.017692612 0.21350317 0.16422446 0.26278654 -0.18355152 0.06668084 0.13435149 -0.16943163 0.14126576 -0.041589007 -0.02607162 -0.09292063 -0.02348536 0.0031452875 -0.1013517 -0.00704982 0.019803587 0.072372444 -0.0013556124 0.2957787 -0.035736416 0.022593543 0.07573323 -0.112659805 -0.1270229 -0.068903215 0.11354289 -0.031095985 -0.049355425 -0.09086927 0.021488914 0.088860214 0.11099948 -0.045820482 0.13558781 0.178641 -0.11103411 0.07274709 -0.2118677 0.030751515 -0.081141174 0.109992385 -0.16777791 -0.16624272 -0.05100462
8 -0.021804852 -0.023178956 0.20219734 0.18475026 -0.13834508 -0.20798044 0.08762252 0.23902868 -0.029131928 0.0020846943 0.23926324 0.05876195 0.09452761 0.04216626 -0.17500119 -0.029495513 -0.047842287 0.13868636 -0.15153965 -0.06532825 0.22042224 0.1679715 0.27631557 -0.15248075 0.11632924 0.12709473 -0.13090633 0.12889759 -0.106365316 -0.04580925 -0.10786444 -0.029377053 0.028487254 -0.15025187 -0.0112080015 -0.0053860736 0.08460026 0.0019258901 0.23975766 -0.08924444 -0.06689532 0.10095818 -0.1437802 -0.11567342 -0.027589558 0.059675913 -0.06237866 0.050334685 -0.063362636 0.03979349 0.035852544 0.088293314 -0.073614165 0.15916757 0.16446012 -0.13777547 0.049183186 -0.17028037 -0.03930558 0.008611026 0.029094465 -0.11688748 -0.13177757 -0.100533016
5 -0.029223017 -0.016695032 0.20304447 0.17242338 -0.1234969 -0.22026338 0.07217165 0.23034644 -0.02703677 -0.003985969 0.25872537 0.07116711 0.12500077 0.020483652 -0.18482076 -0.057114426 -0.07358194 0.15230075 -0.13278432 -0.06591097 0.20783174 0.16780242 0.26896834 -0.1525475 0.088794254 0.14086126 -0.14083482 0.14038867 -0.09752593 -0.030783543 -0.10573962 -0.02470552 0.013614105 -0.12338085 0.0036135002 -0.00967407 0.07317357 -0.015253846 0.25234863 -0.058575235 -0.04888597 0.0897534 -0.14204913 -0.10076997 -0.0479743 0.06692015 -0.044412006 0.022909477 -0.069020085 0.033454448 0.05544796 0.08234458 -0.0725728 0.15635686 0.15838781 -0.12714368 0.060081873 -0.19026569 -0.035848215 -0.0016940205 0.058937702 -0.13462046 -0.12997988 -0.090650804
