7 64
902 -0.029346239 0.019901022 0.25329262 0.16413012 -0.18497351 -0.2541828 0.06664475 0.1545655 -0.036716055 -0.015518981 0.27613327 0.03533015 0.009729708 -0.0008003959 -0.16906984 -0.050936744 -0.028204806 0.07914666 -0.19653443 -0.21041521 0.20535801 0.16290186 0.19322385 -0.03484713 0.09160226 0.020271143 -0.08416519 0.20170274 -0.14977743 -0.0057533258 -0.20295668 -0.010689054 0.09054766 -0.047790263 -0.030869557 -0.13132213 0.19770962 -0.13543062 0.124219626 -0.06868518 -0.15715587 0.16591139 -0.17424071 -0.1137743 -0.022849543 0.061509915 -0.0792383 0.16591443 0.052240573 0.033277985 -0.031840663 -0.0241841 -0.18823029 0.06750528 0.18810067 -0.11932513 0.090488516 -0.17568855 -0.17375287 0.19378099 0.021654814 -0.09563717 -0.02046303 -0.15555096
9 -0.03050579 -0.019959921 0.19998464 0.19691841 -0.16737884 -0.22483942 0.12939407 0.23547767 -0.06662311 -0.006294101 0.27836487 0.052199993 0.032538384 0.053776544 -0.15337445 -0.03236948 -0.008586718 0.110747725 -0.17715101 -0.072847664 0.22519052 0.17879067 0.23992483 -0.10616283 0.11468688 0.06347573 -0.1242134 0.14753899 -0.123890065 -0.059069373 -0.13433923 -0.03777916 0.06551359 -0.14402898 -0.037649546 -0.017678643 0.1417313 -0.054829303 0.21923359 -0.055094074 -0.0795509 0.114345655 -0.12083568 -0.11840045 -0.05464389 0.05996257 -0.079595804 0.092111446 -0.0055770213 0.045880154 0.013944166 0.086222515 -0.07738156 0.118711874 0.19114216 -0.11765861 0.080071375 -0.19380894 -0.051184546 0.069634266 0.057655137 -0.101186685 -0.12325427 -0.09174347
6 -0.027704911 -0.023381963 0.19737363 0.1803699 -0.15258625 -0.22128442 0.12169796 0.22574914 -0.05613531 0.016472587 0.26646414 0.059805293 0.03477735 0.052532025 -0.15177453 -0.014502702 -0.011574619 0.11552121 -0.17338705 -0.06733853 0.23341502 0.17435598 0.23996842 -0.1163249 0.11976758 0.06542324 -0.13071582 0.14238057 -0.11522234 -0.05757084 -0.13753232 -0.04196004 0.0650609 -0.13769756 -0.039805293 -0.017856693 0.14350379 -0.04039666 0.22561172 -0.0695801 -0.0739431 0.12015587 -0.11864895 -0.13296434 -0.04563554 0.074209586 -0.07536148 0.08586329 -0.014482678 0.030563245 0.020557905 0.08167828 -0.08140352 0.11677235 0.19456428 -0.1208364 0.07064901 -0.18307209 -0.0491164 0.056192912 0.048592392 -0.11029975 -0.1237646 -0.09148407
7 -0.024570618 -0.033606485 0.19097203 0.18957861 -0.15236554 -0.22405986 0.10354774 0.22397693 -0.0634963 0.006202582 0.25420064 0.045891296 0.03342678 0.063325465 -0.15037718 -0.019330768 -0.019798676 0.11143252 -0.18756416 -0.086537816 0.2389849 0.1737438 0.23688589 -0.10415842 0.122283995 0.068188615 -0.13444681 0.13676968 -0.1377765 -0.06481497 -0.14862211 -0.05536258 0.08681145 -0.13878338 -0.024290953 -0.01848162 0.13879058 -0.05491729 0.21353957 -0.06974187 -0.099883184 0.11485888 -0.13271746 -0.12243638 -0.051471278 0.06854385 -0.07502325 0.10080795 -0.005082566 0.039932612 0.0070493645 0.08433764 -0.07831144 0.113320924 0.19195506 -0.11729923 0.06952526 -0.18556519 -0.060190417 0.0796964 0.037735432 -0.112356625 -0.12600745 -0.10427169
8 -0.02837411 -0.041780896 0.17762089 0.19113402 -0.1510888 -0.21946509 0.1357943 0.23513088 -0.07837659 0.018626591 0.26962933 0.054915845 0.016521756 0.072713256 -0.13410155 -0.0065214965 0.0015297353 0.10945341 -0.18946046 -0.041614108 0.24857023 0.18311037 0.23472957 -0.110647045 0.12568022 0.055893958 -0.14432073 0.12893979 -0.12736048 -0.079224996 -0.13744642 -0.06421026 0.08232155 -0.15418412 -0.041413307 0.0049673785 0.14809418 -0.046646055 0.23851815 -0.052669283 -0.07094134 0.10994043 -0.097861454 -0.13035716 -0.06782813 0.07521875 -0.075286925 0.089895695 -0.0038206999 0.027849361 0.023666162 0.10443222 -0.05305276 0.111285485 0.20172787 -0.10827221 0.074130505 -0.19241685 -0.03125919 0.05955764 0.060914572 -0.110816434 -0.14408983 -0.07521313
5 -0.024810033 -0.032496504 0.20774445 0.20547862 -0.17292668 -0.21842305 0.12638679 0.23089714 -0.06295735 0.0042957976 0.26586592 0.042689554 0.016635131 0.054245677 -0.13969454 -0.007773665 0.0035448857 0.098004475 -0.2000293 -0.058794513 0.23940809 0.18539135 0.24430375 -0.10732334 0.13000108 0.067078404 -0.12637477 0.13664469 -0.13623251 -0.067128725 -0.135355 -0.049771596 0.061120458 -0.15489796 -0.04252781 -0.017700605 0.14661726 -0.041052002 0.22689328 -0.065519534 -0.08706082 0.122894436 -0.107452966 -0.12258269 -0.049148683 0.05666272 -0.07640101 0.110704504 -0.0064489716 0.020691568 0.023007378 0.077336065 -0.077911414 0.1292105 0.18829767 -0.12183706 0.06573825 -0.17718469 -0.06488445 0.07985802 0.041467175 -0.09715267 -0.11626047 -0.08932271
4 -0.02972071 -0.012356361 0.22007032 0.18256897 -0.16587776 -0.23516509 0.091028266 0.19468543 -0.053066686 -0.007790532 0.27461076 0.043803137 0.030739939 0.023003677 -0.15240414 -0.039058127 -0.023695383 0.09637556 -0.18750753 -0.11338903 0.21684402 0.17406191 0.21628906 -0.077045664 0.09815899 0.057832327 -0.11561437 0.1616621 -0.13752803 -0.03700366 -0.15671699 -0.035447914 0.06482131 -0.098451674 -0.02613643 -0.0596647 0.15398017 -0.085808314 0.1913406 -0.046443433 -0.10364336 0.12766784 -0.12831388 -0.1056347 -0.05233616 0.060031664 -0.06439829 0.11485776 0.013013308 0.020769406 0.013274 0.036325727 -0.11318494 0.102475524 0.17942253 -0.110891245 0.0786588 -0.18428971 -0.10219865 0.11701936 0.04917351 -0.10504823 -0.07886636 -0.106218874
