7 64
902 -0.012725294 -0.046954755 0.16788146 0.26684165 -0.21182413 -0.1810325 0.12876832 0.25665063 -0.10174089 -0.0774343 0.21223141 -0.024979511 -0.023407359 0.10724423 -0.11404954 -0.031660385 0.030707123 0.053958032 -0.22578336 -0.08933516 0.2103177 0.17261492 0.23306863 -0.059889883 0.14621927 0.05141535 -0.08592189 0.10287014 -0.18863188 -0.10135598 -0.11851841 -0.057466038 0.108648255 -0.21172412 -0.022844603 0.006377595 0.11511543 -0.06172095 0.15186259 -0.067322105 -0.15516281 0.089322634 -0.13497648 -0.06934466 -0.047317486 -0.014535671 -0.1088751 0.16479513 0.028638896 0.10466786 -0.050428238 0.11538258 -0.03991599 0.13089038 0.1596915 -0.113711424 0.0662772 -0.16681148 -0.06634985 0.13864467 0.0012515272 -0.037669048 -0.12630601 -0.11507984
6 0.009849579 -0.0804423 0.14136842 0.2638345 -0.16791816 -0.11259427 0.1174796 0.2933277 -0.052870817 -0.034527168 0.120602556 -0.01760601 0.033138655 0.13741502 -0.11372695 0.034427285 0.023905667 0.08755975 -0.20503968 0.016768401 0.23213784 0.16739836 0.31571436 -0.16688305 0.19434364 0.14963306 -0.10333554 0.02505233 -0.15156361 -0.12542567 -0.03853278 -0.06674636 0.041060466 -0.2981355 -0.013912874 0.08814416 0.017861655 0.09902841 0.22519138 -0.14492549 -0.10172897 0.0598045 -0.11753769 -0.089268535 0.004219845 -0.021859415 -0.09605824 0.094867565 -0.08425587 0.07875955 0.0007985836 0.16761981 0.022061914 0.22125703 0.120817184 -0.15164416 -0.008468454 -0.099924915 0.007888203 -0.011428832 -0.059081424 -0.039723996 -0.1813168 -0.0913652
7 -0.007908487 -0.04353672 0.17032789 0.24798062 -0.19609776 -0.16606149 0.12930048 0.25807843 -0.07584727 -0.049541228 0.19257168 -0.009580719 -0.0067519797 0.10499445 -0.12184904 -0.007025731 0.02886267 0.06887869 -0.20800908 -0.06855986 0.21467662 0.16643137 0.254342 -0.09515565 0.15854 0.07016524 -0.086586006 0.092917405 -0.16116802 -0.0958953 -0.10221318 -0.047622383 0.084237814 -0.22095475 -0.03135598 0.014924553 0.10128842 -0.012874302 0.16974075 -0.10139817 -0.13247749 0.09504847 -0.13431974 -0.09185482 -0.019253558 -0.0032783824 -0.10771374 0.14045614 -0.0053144046 0.091405 -0.03593193 0.11613835 -0.04261227 0.14826609 0.15650676 -0.13010602 0.04635375 -0.14309981 -0.049852367 0.08912201 -0.01700227 -0.041832183 -0.1312842 -0.11232233
9 0.005596562 -0.07308193 0.13412945 0.24218018 -0.163389 -0.1316622 0.11028893 0.26541275 -0.06609522 -0.027507478 0.13151547 -0.016353915 0.0067878882 0.1379574 -0.110010415 0.02793934 0.023464588 0.07818462 -0.20739253 -0.030267129 0.2317956 0.15740485 0.2748951 -0.12772918 0.182537 0.10302944 -0.101701505 0.04457692 -0.16007581 -0.11946389 -0.0785754 -0.07223503 0.087199375 -0.25685635 -0.015954046 0.059116516 0.05790854 0.0447456 0.18788382 -0.13468441 -0.1277371 0.07344353 -0.13066652 -0.097443424 -0.0052906345 -0.0029068764 -0.102226935 0.119954 -0.041485555 0.08738602 -0.029089488 0.14980944 -0.0022823547 0.17149776 0.14206547 -0.13613772 0.012066636 -0.113734536 -0.014643722 0.039421175 -0.052299898 -0.046677575 -0.1656155 -0.1071648
8 -0.00542042 -0.06501633 0.14119042 0.24970819 -0.18376458 -0.15578151 0.13931623 0.26581645 -0.09275145 -0.037168417 0.18017289 -0.012463426 -0.022486513 0.13268188 -0.10374969 0.011148179 0.04050092 0.06686178 -0.22000533 -0.039548155 0.23399474 0.17048861 0.25285506 -0.09767259 0.17022479 0.06373727 -0.10193009 0.07064327 -0.1678805 -0.120202094 -0.09936809 -0.07237333 0.10463992 -0.24124521 -0.032000653 0.04446957 0.09952406 -0.005182068 0.1827546 -0.09783236 -0.12806909 0.08320746 -0.1163372 -0.096717894 -0.03317393 0.0022728338 -0.10900988 0.13916594 -0.0028319207 0.08995665 -0.035096563 0.14493157 -0.01038784 0.14409308 0.163916 -0.1208708 0.042392325 -0.14422388 -0.02385004 0.079227164 -0.015373176 -0.04442047 -0.15847485 -0.09825128
5 0.0028919827 -0.064091735 0.15775415 0.2576966 -0.19119976 -0.13880622 0.12579714 0.26356286 -0.070046626 -0.039943818 0.1530412 -0.02348397 -0.015063071 0.123070665 -0.10455517 0.024945155 0.0417084 0.06019906 -0.22139959 -0.034910258 0.22513387 0.1654979 0.26781553 -0.11049011 0.18127741 0.08748453 -0.087358736 0.058991008 -0.16722259 -0.11395427 -0.08241006 -0.06260316 0.076725036 -0.25382537 -0.030451532 0.039895363 0.07913056 0.029161442 0.17921071 -0.123938784 -0.13326451 0.08736674 -0.12000285 -0.09266716 -0.0059081907 -0.01498766 -0.10670291 0.14460494 -0.023803197 0.078448236 -0.029077094 0.1294525 -0.019213308 0.17109536 0.14253297 -0.13686223 0.0195541 -0.11428159 -0.039034504 0.07034498 -0.046477307 -0.03147072 -0.14246018 -0.10584048
4 0.0056718965 -0.07985871 0.15120125 0.25478396 -0.1664013 -0.13385078 0.099121474 0.26740143 -0.058364585 -0.0318489 0.13789266 -0.018361377 0.024200158 0.12035218 -0.11021654 0.02570369 0.014692196 0.07936698 -0.2157183 -0.008985468 0.2329866 0.16804704 0.2874636 -0.13806173 0.17809956 0.1322936 -0.1089439 0.04091436 -0.16589637 -0.115765266 -0.06613262 -0.07536726 0.0563429 -0.2597291 -0.007428769 0.061125625 0.041454364 0.056659058 0.21279964 -0.12187669 -0.11694799 0.068935424 -0.11608365 -0.083359785 -0.013191966 -0.011117667 -0.08502142 0.11262624 -0.057584796 0.060297005 0.0011622607 0.14026201 0.0024166065 0.19653621 0.12675728 -0.13803333 0.0030607458 -0.11198984 -0.023244083 0.032249633 -0.046229877 -0.05198067 -0.15965171 -0.09579169
