7 64
902 -0.02269528 -0.03930599 0.08313838 0.21995158 -0.18156753 -0.16125707 0.21314152 0.27706447 -0.14338088 -0.04338305 0.2236191 0.010599509 -0.069056064 0.1733721 -0.097660735 -0.016938163 0.07535448 0.06941823 -0.19270037 -0.052041695 0.21908316 0.16032265 0.20782673 -0.06288957 0.15104279 -0.027044466 -0.09126096 0.09297148 -0.13557862 -0.13144743 -0.11255667 -0.059242707 0.16435012 -0.22982351 -0.06574662 0.05914042 0.1482132 -0.06340266 0.14353228 -0.05944682 -0.10373334 0.07280932 -0.10601401 -0.1126916 -0.060138226 0.021722615 -0.14390169 0.1255371 0.05130838 0.1572333 -0.08495106 0.18715109 0.009575788 0.06501509 0.20161435 -0.085377105 0.094375364 -0.18152589 0.034159925 0.08011083 0.038732167 -0.027336726 -0.18170848 -0.078359164
9 -0.028452551 -0.027649328 0.1484186 0.20885125 -0.15342532 -0.1893377 0.15262835 0.27723143 -0.08153052 -0.030397724 0.25122645 0.049191225 0.05368395 0.09405414 -0.15202309 -0.046506967 -0.006166875 0.12607387 -0.1516474 -0.03464131 0.21773583 0.17588556 0.2699455 -0.1361813 0.12217895 0.084935345 -0.124630414 0.117675096 -0.10829121 -0.08342191 -0.090397194 -0.035548877 0.06558191 -0.20014481 -0.029946156 0.043357782 0.09197048 -0.017522022 0.23254013 -0.058460362 -0.056071725 0.07387453 -0.12533769 -0.10686885 -0.05814157 0.040970128 -0.09459172 0.05078129 -0.034456503 0.10298907 0.0030505985 0.1568379 -0.017858125 0.14168344 0.18309468 -0.11875405 0.079116754 -0.20174764 0.021537764 0.003771582 0.062478654 -0.087756 -0.18053086 -0.07754495
5 -0.029259311 -0.019320106 0.16347624 0.19304688 -0.1495161 -0.20004554 0.1477474 0.2671093 -0.068651125 -0.01195005 0.25859618 0.061402775 0.0574852 0.08196497 -0.16190648 -0.038974598 -0.011874868 0.13312641 -0.14712122 -0.04867283 0.22442053 0.17507371 0.27169296 -0.14194566 0.12320426 0.08159443 -0.12705886 0.13104165 -0.099797405 -0.07220877 -0.10409194 -0.029480139 0.064133115 -0.18339086 -0.03611318 0.025689578 0.10748619 -0.017387124 0.23505995 -0.07213271 -0.055743903 0.09073692 -0.13380125 -0.12501422 -0.047352444 0.057519287 -0.09444066 0.051391486 -0.036716834 0.09148202 0.005609727 0.1404897 -0.041550975 0.13642114 0.19357124 -0.12647812 0.07890223 -0.19985154 0.009009159 0.0039346125 0.058738563 -0.098479964 -0.1704939 -0.08632064
6 -0.022336153 -0.039742626 0.14898211 0.19833627 -0.1392186 -0.19714908 0.121524476 0.26362354 -0.0734698 -0.011304072 0.23131447 0.046200637 0.057438284 0.09924054 -0.15531957 -0.030776408 -0.022290368 0.13037975 -0.1631717 -0.057984874 0.23685652 0.1715618 0.26931944 -0.13606326 0.13171534 0.09094112 -0.13767579 0.11277082 -0.12376722 -0.085383885 -0.11351325 -0.053128682 0.089081876 -0.18855785 -0.016315598 0.03390866 0.095662594 -0.019606424 0.22869496 -0.08038555 -0.08195557 0.08231778 -0.14479968 -0.11792284 -0.051194396 0.05614897 -0.08990672 0.06345344 -0.03441377 0.0925984 -0.003881436 0.14794534 -0.0300776 0.13606448 0.18927561 -0.12328504 0.06828408 -0.19473764 0.003135275 0.018900327 0.038752668 -0.10564039 -0.17979003 -0.097553045
7 -0.027096856 -0.04205474 0.12962207 0.20229171 -0.1465696 -0.1882311 0.15875922 0.2664881 -0.09762735 -0.013283662 0.24545413 0.045193825 0.02097172 0.11130563 -0.13066685 -0.02600215 0.009850687 0.113223426 -0.16826442 -0.028354682 0.230931 0.17364833 0.24513069 -0.11699201 0.12747318 0.055764165 -0.13106914 0.10610619 -0.11668484 -0.097703956 -0.104385145 -0.056957424 0.09486529 -0.19422975 -0.03614386 0.048256814 0.11219047 -0.03137155 0.22262226 -0.052420888 -0.06307777 0.075177684 -0.107224666 -0.11413436 -0.06838688 0.05162615 -0.09497715 0.066841856 -0.011664087 0.091304444 -0.004914764 0.15919897 -0.007816288 0.11545721 0.19323358 -0.1037657 0.07955822 -0.19758634 0.023514047 0.023536265 0.061675686 -0.08779371 -0.1831504 -0.069867946
4 -0.022340152 -0.03827047 0.14719503 0.21745887 -0.16639912 -0.18178615 0.15646796 0.26539445 -0.0896497 -0.024993008 0.23470646 0.030488266 0.010548119 0.106393136 -0.12925823 -0.020583803 0.019815378 0.0990735 -0.17973422 -0.03875383 0.22470342 0.17354281 0.25044382 -0.11178593 0.13744085 0.058291096 -0.11450253 0.1061809 -0.12697482 -0.09523105 -0.10201437 -0.049095042 0.08606406 -0.20401561 -0.04008488 0.03579397 0.11275731 -0.024359405 0.20840442 -0.06744701 -0.08051766 0.08462819 -0.11344689 -0.10967165 -0.051446628 0.033795636 -0.1013363 0.0899813 -0.009928813 0.09104203 -0.012940219 0.14430039 -0.021916809 0.1273857 0.1831016 -0.11391135 0.07098619 -0.18099368 0.00040633246 0.042396806 0.03998307 -0.07069784 -0.1644554 -0.081351146
8 -0.025782846 -0.039750993 0.16424653 0.20484643 -0.14560178 -0.20715024 0.112826385 0.25052667 -0.07523529 -0.018230127 0.24627925 0.042436864 0.054839607 0.07999423 -0.15003072 -0.03969819 -0.025195036 0.12081717 -0.17199264 -0.059981845 0.23208746 0.17725068 0.25660458 -0.12029629 0.1191526 0.09000005 -0.13831322 0.12138588 -0.13380764 -0.07808985 -0.11944525 -0.055272378 0.08001311 -0.17088303 -0.012684826 0.01917188 0.103059255 -0.04030386 0.22993468 -0.056826584 -0.08388043 0.08500877 -0.13327722 -0.10440239 -0.06542026 0.05251697 -0.07825191 0.07259074 -0.022954611 0.072780795 0.008703516 0.12770852 -0.038112648 0.1335532 0.18402909 -0.11530581 0.073586605 -0.20135303 -0.01810895 0.04333444 0.052304205 -0.107985444 -0.16233356 -0.091996424
