7 64
902 -0.020564731 0.007984834 0.13095266 0.1602185 -0.14482123 -0.20634907 0.10206655 0.23047917 -0.07313221 -0.03497178 0.1983272 0.03448601 0.029134009 0.12675051 -0.18652333 -0.06364167 -0.030975726 0.1238859 -0.1324616 -0.21714118 0.19957733 0.12056103 0.2211385 -0.077247344 0.12730692 0.012548572 -0.08762861 0.15225227 -0.12574372 -0.061649304 -0.17507826 -0.017029885 0.18780218 -0.1393781 -0.014374188 -0.029309355 0.1384236 -0.09212503 0.0935869 -0.13301562 -0.16755977 0.10665755 -0.25017628 -0.137073 -0.0025679015 0.062102474 -0.14318891 0.11196953 0.026159022 0.20123628 -0.13027848 0.12726665 -0.1013023 0.05424418 0.21512288 -0.1285295 0.09861261 -0.19435135 -0.03575683 0.096187 -0.009984327 -0.08493154 -0.14900504 -0.18507363
8 -0.031750347 0.022653313 0.1699207 0.19405861 -0.17217365 -0.19648845 0.13865167 0.26060006 -0.06150158 -0.06800933 0.25058743 0.04662619 0.067924745 0.0721724 -0.18690574 -0.09227406 -0.022689927 0.12626977 -0.114775546 -0.12490105 0.16616563 0.14824189 0.25491536 -0.11231926 0.10117747 0.06663547 -0.07889103 0.15734465 -0.09424494 -0.043568086 -0.10313623 0.017253004 0.0692435 -0.1637064 -0.027499171 -0.009315495 0.09794767 -0.050055545 0.16150345 -0.07718386 -0.086516075 0.087888 -0.18671349 -0.09907712 -0.022503478 0.025615454 -0.11616577 0.061954625 -0.018962469 0.16000406 -0.0482001 0.122239865 -0.07548761 0.120894924 0.17575133 -0.13116127 0.09742755 -0.20084782 -0.014108595 0.034509767 0.046005268 -0.06771574 -0.13866317 -0.12379792
9 -0.036972884 0.029614847 0.20651618 0.19920991 -0.18311399 -0.20476179 0.15260832 0.2645882 -0.04604847 -0.05811228 0.28536126 0.062783994 0.08190544 0.035423085 -0.1904757 -0.08805986 -0.019155346 0.13055614 -0.1147285 -0.086108424 0.16711576 0.16618301 0.27255556 -0.13381709 0.0948166 0.088378824 -0.083118916 0.16945976 -0.07760088 -0.029183088 -0.086002156 0.030252045 0.012494319 -0.1613297 -0.042069696 -0.015924009 0.09989116 -0.028894832 0.20451084 -0.06259568 -0.04861926 0.099014804 -0.15514457 -0.10150071 -0.025490163 0.02714004 -0.099961154 0.046018407 -0.04029992 0.114834554 0.00039289286 0.10157272 -0.08468074 0.14928953 0.17018496 -0.13916422 0.09356564 -0.20066391 -0.020588797 0.011470345 0.06850778 -0.07269738 -0.12400356 -0.09926783
7 -0.03797421 0.008167237 0.20301957 0.2207849 -0.17818193 -0.2040976 0.1506772 0.28513983 -0.05404221 -0.06450125 0.2942829 0.061740972 0.10453968 0.035362 -0.18524049 -0.09243017 -0.028410802 0.13923176 -0.1249513 -0.03917936 0.17839374 0.18333538 0.29275152 -0.15314293 0.092428096 0.1255585 -0.10565146 0.15269953 -0.08643023 -0.042097703 -0.064151846 0.012501607 -0.011374457 -0.18359186 -0.027812056 0.014776495 0.07085548 -0.011878508 0.24998783 -0.037621886 -0.027150689 0.077664845 -0.13107951 -0.08275318 -0.05185859 0.019777372 -0.08099118 0.024014125 -0.062282033 0.09545504 0.037373465 0.12291693 -0.048612956 0.17977217 0.15801115 -0.13414581 0.08686236 -0.2118139 -0.00030577072 -0.01477491 0.088132605 -0.08384151 -0.14707819 -0.07402498
6 -0.036339246 0.0144018745 0.1716651 0.19266044 -0.1726419 -0.20704429 0.15523991 0.25761908 -0.07368974 -0.05109295 0.27555475 0.054813612 0.049164023 0.069317564 -0.17381813 -0.080571756 -0.009535806 0.12159895 -0.13002668 -0.101402655 0.18394147 0.16214067 0.24666178 -0.10703079 0.10068826 0.051449183 -0.09325296 0.16106987 -0.09639312 -0.05083412 -0.111847796 0.0034726341 0.07119741 -0.1588477 -0.040004738 -0.0069148294 0.12190574 -0.06163147 0.182874 -0.05639802 -0.07249639 0.094456404 -0.15757217 -0.10739588 -0.04277969 0.03918817 -0.11008567 0.06625194 -0.006592637 0.13276948 -0.02995963 0.12080333 -0.06998126 0.111479454 0.18969941 -0.12103086 0.10450715 -0.21144672 -0.012305388 0.042208347 0.06856078 -0.07576822 -0.1407993 -0.104123406
5 -0.035220817 0.021180227 0.21569383 0.22903804 -0.20634003 -0.19385861 0.16937281 0.2764118 -0.053438522 -0.074217685 0.2886929 0.0471123 0.064947195 0.033885688 -0.17361432 -0.08172912 0.003325556 0.11149573 -0.13567576 -0.053410944 0.16547485 0.17904127 0.27934358 -0.13085456 0.10243726 0.09477282 -0.07559218 0.15848866 -0.08980657 -0.039756224 -0.06676631 0.027136225 -0.0098661315 -0.18783596 -0.050079796 -0.005343195 0.09454024 -0.017349062 0.21559466 -0.049895834 -0.044044536 0.09533664 -0.12776744 -0.0856477 -0.031556223 0.002354362 -0.098539196 0.06038625 -0.039856575 0.100404255 0.014798953 0.10256912 -0.06937806 0.17102443 0.15663531 -0.13879484 0.08718628 -0.19268295 -0.02429693 0.019028611 0.07005538 -0.052664362 -0.119092286 -0.082474194
4 -0.040381134 0.018429792 0.21017948 0.2124924 -0.18387057 -0.20974639 0.1428746 0.2609488 -0.05458932 -0.07092054 0.29970688 0.05660942 0.08949396 0.020245044 -0.17964788 -0.10086416 -0.025991937 0.12420892 -0.12609045 -0.06340976 0.1650584 0.17797245 0.26675442 -0.12557608 0.079692036 0.10407896 -0.094032586 0.16603094 -0.09149273 -0.030501878 -0.07832057 0.018213354 -0.005155028 -0.15612295 -0.029693253 -0.0107324375 0.089067146 -0.04192348 0.22397773 -0.023868581 -0.03925103 0.085869126 -0.1305011 -0.07508248 -0.0545619 0.017716285 -0.079121545 0.041756816 -0.038447067 0.09029631 0.028225835 0.0963853 -0.06858896 0.15860808 0.15594365 -0.12491157 0.09567098 -0.21180692 -0.02630477 0.020965839 0.09222933 -0.078047186 -0.11997187 -0.0788927
