7 64
902 0.002040492 -0.045998026 0.1294765 0.2327762 -0.18302059 -0.16550675 0.08436389 0.23705141 -0.08844696 -0.06633453 0.13476175 -0.038481984 -0.024270467 0.1536105 -0.130232 -0.018790577 0.009981866 0.06256579 -0.21362202 -0.17245337 0.21374659 0.13456182 0.2256637 -0.05257328 0.1691014 0.03637856 -0.07558222 0.089297496 -0.19565815 -0.10421494 -0.14999376 -0.06267766 0.18321137 -0.20313312 -0.00071139674 -0.0034264151 0.107489705 -0.062295772 0.08168393 -0.13781168 -0.21812294 0.091375254 -0.21013848 -0.09043753 -0.0023796223 -0.0026960163 -0.13433701 0.18303955 0.035970718 0.16421795 -0.12700844 0.12538986 -0.059955496 0.09844331 0.16866548 -0.12626062 0.05331023 -0.14272495 -0.07288475 0.15467493 -0.06881118 -0.03987697 -0.13570619 -0.17816561
6 -0.016036715 -0.036871385 0.16172166 0.24462678 -0.17369716 -0.16965182 0.13308468 0.2922545 -0.068888694 -0.057670686 0.21245168 0.01874966 0.062100127 0.101218894 -0.15359057 -0.041421566 -0.0066499286 0.11492201 -0.16759275 -0.04020467 0.20870017 0.17226371 0.29414016 -0.14423594 0.14163592 0.12015921 -0.107145384 0.09604091 -0.13237323 -0.09014928 -0.07133178 -0.033568915 0.05055386 -0.23693195 -0.015066315 0.04839379 0.0564244 0.0151198795 0.22111833 -0.089646816 -0.08625753 0.06827272 -0.14533792 -0.087396346 -0.03243872 0.0039739143 -0.09911093 0.071138725 -0.054025322 0.11427059 -0.0062503736 0.15610589 -0.0149706025 0.18105501 0.15358204 -0.13780986 0.05306478 -0.17283611 0.0031491374 0.009203067 0.016892916 -0.065925844 -0.17358825 -0.09730042
7 -0.020295268 -0.008830362 0.17575309 0.21957795 -0.18165228 -0.18282238 0.14651942 0.27549094 -0.061255883 -0.045279223 0.22840045 0.0323901 0.04308251 0.09154194 -0.1654784 -0.041419927 0.0024626083 0.11345529 -0.15554723 -0.0823008 0.20221995 0.16335458 0.27821037 -0.13015881 0.13937776 0.0808214 -0.09042171 0.12655112 -0.114085555 -0.070880376 -0.09591397 -0.010579367 0.065213874 -0.20628196 -0.03699897 0.012608745 0.09685454 -0.007322181 0.18960477 -0.10476245 -0.09326806 0.09576802 -0.16226812 -0.11286168 -0.012671055 0.020757752 -0.11584718 0.08547285 -0.03215584 0.12497475 -0.03174171 0.1313047 -0.05771714 0.14961527 0.17517772 -0.14320506 0.06828913 -0.17342842 -0.015798818 0.030428458 0.014941298 -0.062171284 -0.15001339 -0.115828075
9 -0.0031030755 -0.052148666 0.14756854 0.2288185 -0.15918902 -0.16738774 0.088620216 0.26100314 -0.06440382 -0.040174928 0.16062038 -0.0023679747 0.039218515 0.12353844 -0.14607699 -0.014923961 -0.014548134 0.10180019 -0.1885165 -0.094941825 0.22344042 0.15195668 0.2703511 -0.11843314 0.15922004 0.10164616 -0.106490284 0.08181383 -0.16029187 -0.09621056 -0.10918394 -0.05783366 0.10801734 -0.21699144 0.001839011 0.028250774 0.0678999 -0.0005550892 0.17165875 -0.12761691 -0.14537472 0.07929163 -0.17804393 -0.09715498 -0.011968684 0.013906179 -0.10350444 0.11197344 -0.031203475 0.11721974 -0.048063528 0.13849752 -0.035138827 0.15114535 0.15714806 -0.13715795 0.037172563 -0.14757833 -0.031947747 0.05865612 -0.036280885 -0.070664994 -0.16037902 -0.13663189
4 -0.02005645 -0.033326365 0.16386475 0.22625926 -0.17139861 -0.17900454 0.15539555 0.2819943 -0.07310601 -0.027678823 0.23214403 0.034728143 0.035404947 0.099735424 -0.1454713 -0.021158574 0.011502435 0.11211568 -0.171912 -0.032655783 0.22408538 0.17673288 0.2806494 -0.13923936 0.14501855 0.087832235 -0.11273866 0.106656 -0.12014745 -0.09051405 -0.087573305 -0.036595017 0.06053745 -0.22234818 -0.038863134 0.039748166 0.094063304 0.0062225694 0.22630331 -0.088090785 -0.07332527 0.08667461 -0.12597443 -0.11373813 -0.03473818 0.027867572 -0.10284109 0.07723339 -0.038373854 0.09403868 -0.002409653 0.14724675 -0.026122518 0.15732697 0.17620313 -0.13262698 0.060656544 -0.17447685 0.003989347 0.014117537 0.029202338 -0.07120835 -0.16870347 -0.08687808
5 -0.014741091 -0.029922536 0.1802858 0.24184044 -0.18966728 -0.1712036 0.14441541 0.2777252 -0.06391725 -0.045536682 0.21706523 0.016301693 0.030384224 0.091893844 -0.14427167 -0.021300597 0.015863122 0.09675605 -0.18159853 -0.046520017 0.21158221 0.17366742 0.28260764 -0.130665 0.15026434 0.09542743 -0.09441872 0.10467992 -0.13245678 -0.085186034 -0.08275288 -0.02842589 0.049229976 -0.22758815 -0.035972454 0.025908168 0.086748086 0.010839462 0.2071005 -0.0990504 -0.0934545 0.091438636 -0.13398775 -0.100674115 -0.019014422 0.005496292 -0.10498203 0.09895407 -0.037239276 0.09409499 -0.01027421 0.12917344 -0.039340463 0.17067945 0.15975302 -0.14109427 0.05109007 -0.15752476 -0.022553924 0.035914678 0.006526796 -0.054029904 -0.14730693 -0.09988798
8 -0.009838255 -0.046453595 0.15620683 0.2310392 -0.16654907 -0.1790191 0.09490954 0.25561163 -0.07205603 -0.048702512 0.18722887 0.00073921395 0.035980348 0.1083965 -0.14384003 -0.03007769 -0.013440382 0.09723581 -0.19079113 -0.093330294 0.21815635 0.15997691 0.26010874 -0.10567468 0.14475569 0.093869664 -0.10753756 0.09608536 -0.1622517 -0.090078786 -0.113008745 -0.054981984 0.10054112 -0.20308837 -0.001030704 0.018845266 0.079882234 -0.02415511 0.17636445 -0.09890783 -0.13760455 0.080379784 -0.16519801 -0.08757303 -0.03019121 0.0131245265 -0.09747359 0.11332325 -0.018351723 0.108265884 -0.037708238 0.12860265 -0.039081223 0.14473069 0.15889877 -0.12785701 0.050881602 -0.16338325 -0.040051427 0.074079424 -0.010962306 -0.07210833 -0.15065853 -0.12628807
