7 64
902 -0.019904798 -0.044713035 0.21098362 0.2791647 -0.23120396 -0.20934056 0.14578438 0.26421326 -0.09421144 -0.061084427 0.24928817 -0.010407764 -0.024469098 0.08120882 -0.117224075 -0.024595387 0.035292115 0.05570015 -0.24203454 -0.07043888 0.22607565 0.1940885 0.24260975 -0.06759073 0.14434683 0.056938164 -0.09750583 0.12306993 -0.189176 -0.09364631 -0.12597457 -0.057214767 0.080052435 -0.20434849 -0.03731636 -0.008777379 0.13896301 -0.06368776 0.19103427 -0.052562844 -0.13685645 0.10946839 -0.11164647 -0.07952308 -0.057961278 -0.003416194 -0.09748523 0.16787943 0.026033862 0.060595565 -0.013882018 0.09222731 -0.057518855 0.1436051 0.16904598 -0.11836617 0.06972208 -0.17616774 -0.08557741 0.14360215 0.023258384 -0.049873985 -0.11179582 -0.10063424
9 -0.030865312 -0.022422655 0.18759964 0.23755603 -0.17695269 -0.17846861 0.15736789 0.2840491 -0.06429586 -0.055600673 0.2728188 0.044276044 0.07704471 0.046079636 -0.14618894 -0.05800123 -0.0019152006 0.11539823 -0.15233818 0.0223273 0.19104888 0.19232969 0.28821823 -0.15213436 0.10647099 0.1308615 -0.112491876 0.11457194 -0.099069856 -0.06654683 -0.04182844 -0.015186953 -0.02420283 -0.21047924 -0.03211495 0.044475056 0.058989424 0.014523095 0.2684936 -0.025363026 -0.015356164 0.064954475 -0.08016705 -0.07079083 -0.06356413 0.005601499 -0.0675817 0.032890745 -0.06472416 0.056153674 0.062738985 0.13097247 -0.010085088 0.19348817 0.14014806 -0.12185032 0.06502368 -0.1875771 0.010134027 -0.019073695 0.08208736 -0.07051404 -0.15188184 -0.04144332
7 -0.029065948 -0.021161802 0.20006843 0.22344634 -0.17160778 -0.18758087 0.14869224 0.27330562 -0.052050225 -0.032331076 0.2720807 0.05266633 0.07620284 0.039554555 -0.15201348 -0.041777045 -0.006098777 0.1201501 -0.15535872 0.010157931 0.20314516 0.19075365 0.28867948 -0.15706734 0.11258432 0.1280093 -0.117356285 0.12154068 -0.09664111 -0.06036588 -0.057911746 -0.016824512 -0.020470204 -0.19745216 -0.036540467 0.029432481 0.074011385 0.018337453 0.27174497 -0.044050027 -0.020607816 0.08227367 -0.08725944 -0.090474345 -0.052002896 0.02289899 -0.06651722 0.039128575 -0.067057885 0.039409008 0.06530868 0.11556568 -0.03115346 0.18995374 0.15099889 -0.13027112 0.05976247 -0.18147506 -0.004615055 -0.015571264 0.071109734 -0.08255934 -0.14412427 -0.051626407
6 -0.021198304 -0.042496685 0.18285783 0.2319721 -0.16259718 -0.18340681 0.11893382 0.26942813 -0.0590021 -0.037158243 0.239153 0.032409206 0.0742358 0.06090802 -0.14482301 -0.036241416 -0.017185187 0.11491394 -0.17295177 -0.006724238 0.21334045 0.18476424 0.28371298 -0.14615409 0.121555455 0.13565987 -0.1253928 0.10156826 -0.12548606 -0.075009815 -0.06908161 -0.04157513 0.011343383 -0.20333631 -0.013205439 0.037045244 0.06008674 0.011913421 0.25646904 -0.053339154 -0.054765422 0.07161164 -0.10348732 -0.079189874 -0.05504998 0.017667005 -0.06378145 0.055646952 -0.060871385 0.047455188 0.048077144 0.12369394 -0.019052155 0.18636663 0.14407015 -0.12550229 0.04901971 -0.17474236 -0.012863965 0.006185089 0.04630194 -0.08653904 -0.15231292 -0.06729583
5 -0.032425202 -0.030072022 0.17400567 0.22363552 -0.1667007 -0.18025894 0.1714831 0.27826324 -0.07429831 -0.03148497 0.28003266 0.05358314 0.056665074 0.055689026 -0.13372798 -0.039479066 0.010927082 0.113997236 -0.15852429 0.03860711 0.20803578 0.1958255 0.27709565 -0.14936604 0.110845625 0.10919024 -0.124120064 0.110714346 -0.093543746 -0.07580819 -0.051015835 -0.028524602 -0.00866165 -0.20555525 -0.04434695 0.05146729 0.079563394 0.010333284 0.2758819 -0.020349773 -0.0047683846 0.06926569 -0.060386166 -0.0871496 -0.07266842 0.0241872 -0.067676134 0.033195883 -0.053915773 0.041828215 0.06639819 0.1368008 -0.0023974483 0.17457998 0.15582049 -0.11234479 0.06809125 -0.18940626 0.02222073 -0.020886239 0.09180539 -0.07702015 -0.15995201 -0.028210457
8 -0.024879472 -0.032751907 0.19307503 0.23590967 -0.1761564 -0.1705725 0.15189336 0.273483 -0.056940716 -0.03801393 0.25937217 0.039054587 0.062428948 0.044611078 -0.13388936 -0.0300748 0.008715755 0.10515928 -0.16841781 0.03624254 0.20278479 0.194205 0.28804168 -0.15421197 0.11956697 0.13192596 -0.11361816 0.101892285 -0.10322018 -0.07049718 -0.042145945 -0.024889123 -0.02959045 -0.21262337 -0.03788621 0.04233385 0.06344803 0.03130964 0.2709911 -0.038501665 -0.018332997 0.073757954 -0.06512005 -0.07794839 -0.053626407 0.007057478 -0.062281586 0.046227645 -0.06695709 0.027439028 0.071924545 0.117643006 -0.012914641 0.19784784 0.13574965 -0.12449198 0.048567887 -0.16553022 -0.0019003764 -0.014315496 0.0639262 -0.06765723 -0.14131588 -0.03795257
4 -0.028701426 -0.033184856 0.20021035 0.2288003 -0.16565698 -0.19469963 0.12213923 0.26070276 -0.057192646 -0.039742533 0.27105525 0.04279745 0.0823298 0.03355918 -0.14726886 -0.05029234 -0.020899389 0.115876876 -0.16915876 0.0035487341 0.20593232 0.19384295 0.27872333 -0.14329529 0.10347197 0.13820185 -0.1278062 0.11899795 -0.11898636 -0.061815158 -0.06738636 -0.033289816 -0.014322774 -0.18574399 -0.017426303 0.025210774 0.0681879 -0.0013398934 0.27415112 -0.024929281 -0.034716785 0.075409144 -0.08612199 -0.072121195 -0.0706538 0.020153567 -0.051538236 0.046845753 -0.059632983 0.025803983 0.07333728 0.107077 -0.027516069 0.18932125 0.14304447 -0.12041491 0.05941535 -0.18880846 -0.02163121 0.008314849 0.07553126 -0.09297914 -0.1390173 -0.052250966
