7 64
902 -0.0012652681 -0.04798848 0.16494043 0.17114319 -0.13862623 -0.20508455 0.06947597 0.20787542 -0.051391628 0.038278464 0.16481087 0.021292785 -0.0040587415 0.12329407 -0.15167958 0.035566777 -0.014072669 0.103615426 -0.2081329 -0.16554219 0.26924202 0.14167883 0.23483106 -0.09536896 0.1764161 0.038579293 -0.12489928 0.11367937 -0.16460921 -0.08633493 -0.19592716 -0.076693974 0.17827302 -0.15353565 -0.019647544 -0.030603323 0.15626259 -0.03927818 0.14516738 -0.17486495 -0.18576203 0.14048386 -0.20481627 -0.16886857 0.010236795 0.08545554 -0.115208544 0.15854144 0.008685331 0.084936745 -0.077368736 0.09317804 -0.10791985 0.087583385 0.21877098 -0.14475088 0.04321942 -0.14493209 -0.08275024 0.115948774 -0.061768126 -0.11081823 -0.13874334 -0.17929593
9 -0.02916068 -0.021404477 0.14345504 0.17878565 -0.13201551 -0.20377606 0.13147828 0.26054624 -0.07359678 -0.010654133 0.24727435 0.062494837 0.06507011 0.094236694 -0.16694814 -0.047902588 -0.027829148 0.14152849 -0.13832091 -0.07246082 0.22177865 0.16240925 0.25766098 -0.13338906 0.11575001 0.07514524 -0.13237162 0.1286871 -0.101323806 -0.072341144 -0.1160948 -0.036234684 0.09173463 -0.1682284 -0.02164809 0.02635658 0.10314379 -0.033175807 0.21736863 -0.07267208 -0.06736412 0.08190839 -0.1517409 -0.12354032 -0.051187992 0.067445435 -0.094156116 0.04495776 -0.030005408 0.10951385 -0.01188044 0.14762442 -0.03878891 0.11600611 0.1964052 -0.11799273 0.0831396 -0.20550351 0.015059553 0.0073476764 0.05617521 -0.108732924 -0.17838085 -0.09701533
5 -0.03413531 -0.017654233 0.14420457 0.15955521 -0.11599723 -0.20885436 0.13537951 0.2555057 -0.067279264 0.008411191 0.26384956 0.08328656 0.07949904 0.07997685 -0.17031214 -0.04673919 -0.03517493 0.15485594 -0.12273033 -0.05223821 0.22364418 0.16450559 0.2573004 -0.14710581 0.104410976 0.0793326 -0.14288752 0.13323288 -0.07912174 -0.063334346 -0.11062919 -0.03267781 0.07356974 -0.15227322 -0.026145548 0.02885398 0.10379638 -0.026187994 0.23926038 -0.06096882 -0.036335606 0.08138668 -0.13518383 -0.1316434 -0.057895612 0.08457605 -0.08158102 0.017628701 -0.04145328 0.088592365 0.012436139 0.14362949 -0.036879085 0.11281809 0.1983785 -0.112851635 0.08458545 -0.20912082 0.02898573 -0.020656371 0.0764425 -0.12203869 -0.17890887 -0.07856403
7 -0.027365994 -0.036256887 0.12835866 0.16613601 -0.108004846 -0.20407666 0.11551536 0.2549925 -0.07364362 0.008324041 0.23679273 0.06839103 0.07559534 0.1011027 -0.16385287 -0.03778498 -0.041104432 0.15172662 -0.13780539 -0.061933853 0.23575528 0.16059726 0.2560452 -0.14164862 0.11548257 0.08429218 -0.15096688 0.11561648 -0.10108915 -0.07810464 -0.11940103 -0.05402346 0.10096585 -0.16175312 -0.010206087 0.03852739 0.09422903 -0.027096028 0.23028359 -0.07231417 -0.062293705 0.07388699 -0.14733312 -0.12746434 -0.05909115 0.08244817 -0.08166623 0.030673016 -0.03791681 0.095544234 -0.0017066473 0.15449475 -0.025081309 0.11083963 0.19612974 -0.11066742 0.07513067 -0.20328945 0.026515499 -0.007237375 0.055322874 -0.12548108 -0.18990345 -0.09045937
6 -0.03532564 -0.027214065 0.1333625 0.17051214 -0.120307885 -0.20912018 0.14349176 0.26011243 -0.08438628 0.0009688213 0.26857635 0.075753435 0.06512427 0.09090164 -0.1585662 -0.04857367 -0.0263036 0.14664982 -0.13577 -0.04294728 0.22915022 0.17075203 0.2504289 -0.13552094 0.10495541 0.07029718 -0.14759114 0.12790169 -0.091928385 -0.07584984 -0.11228401 -0.04521622 0.08626548 -0.16062808 -0.025628654 0.03890725 0.10831752 -0.039564606 0.24070263 -0.044336326 -0.040249445 0.07449225 -0.12401725 -0.123667374 -0.074898556 0.07980688 -0.082478665 0.026330536 -0.028143283 0.09100351 0.0102670435 0.15490589 -0.021261131 0.10735308 0.20111054 -0.102921836 0.09050153 -0.2180656 0.03396499 -0.0070543378 0.086121425 -0.11872783 -0.18705513 -0.07047647
4 -0.028080385 -0.0305825 0.15440996 0.18910578 -0.13661686 -0.20466629 0.13831694 0.26920784 -0.07148586 -0.001032125 0.25380924 0.06440086 0.06445976 0.09132024 -0.16295885 -0.033558946 -0.021612229 0.14196612 -0.15104228 -0.0470862 0.23554926 0.17390795 0.27151456 -0.14653456 0.12442306 0.08734767 -0.14007646 0.1224057 -0.10271677 -0.07749051 -0.10888076 -0.04283633 0.07532915 -0.18030143 -0.026785579 0.033790246 0.101800956 -0.015562154 0.24118981 -0.073547296 -0.05684641 0.08511304 -0.13482301 -0.12748775 -0.052600756 0.06734347 -0.08753527 0.04400436 -0.040478256 0.08583604 0.008625089 0.14658944 -0.032467104 0.13167642 0.19391382 -0.12151305 0.07383061 -0.19889206 0.01581534 -0.0028135825 0.055991024 -0.10981685 -0.17919376 -0.08492856
8 -0.036637507 -0.025319818 0.14984506 0.17639492 -0.11999696 -0.21777765 0.12239377 0.25901067 -0.07464418 -0.01028046 0.27542287 0.075783744 0.09336979 0.071633235 -0.17070107 -0.06574526 -0.048158854 0.15463386 -0.13270292 -0.04871618 0.22217596 0.17384359 0.2591848 -0.14135519 0.09337912 0.09757038 -0.15144041 0.13388889 -0.09631516 -0.0640172 -0.108296715 -0.040898357 0.065724224 -0.1508091 -0.009648833 0.031018998 0.09101692 -0.04080345 0.25084248 -0.034844503 -0.039554857 0.07007296 -0.13125747 -0.10830432 -0.07951186 0.074217044 -0.06848429 0.01650018 -0.040766552 0.082147434 0.026276367 0.14286034 -0.027297344 0.12324863 0.18779008 -0.10550881 0.08826805 -0.22304055 0.020885726 -0.008356909 0.09067526 -0.12791015 -0.178731 -0.07320608
