7 64
902 -0.037609156 -0.024410203 0.09108919 0.23092908 -0.19574888 -0.18707755 0.18375072 0.23899171 -0.1684758 -0.10466027 0.2621478 -0.009448582 -0.0697303 0.13282111 -0.089058094 -0.090684436 0.053936653 0.042070586 -0.19280872 -0.09632784 0.17951144 0.16481104 0.15495919 0.0073950496 0.0948357 -0.0463827 -0.08249028 0.12853926 -0.1706798 -0.11091876 -0.13422413 -0.056615192 0.1736909 -0.17773019 -0.040476814 0.021677542 0.16540597 -0.16870567 0.11913241 0.02985854 -0.12974824 0.06146775 -0.10885746 -0.053652305 -0.120855734 -0.00087721925 -0.12901798 0.1502002 0.10686189 0.16939044 -0.08929925 0.16001968 -0.003912042 0.041800614 0.198821 -0.055002064 0.14304408 -0.2434394 -0.011554012 0.1698995 0.09970366 -0.03077331 -0.1542924 -0.08071432
9 -0.038251437 -0.013719724 0.1806249 0.23216689 -0.18361172 -0.19667089 0.17956339 0.28700134 -0.08406336 -0.05564613 0.29911497 0.052174803 0.05639585 0.05788616 -0.14932309 -0.06899716 0.006868325 0.11586982 -0.1536077 -0.0004979661 0.1972381 0.19488487 0.2735366 -0.1337696 0.10271825 0.09416427 -0.11399237 0.1347845 -0.10062704 -0.06995007 -0.06569515 -0.015008367 0.008990787 -0.19902845 -0.04307998 0.03593394 0.09133029 -0.021514814 0.2536673 -0.014258854 -0.021748543 0.07233432 -0.08656967 -0.08207732 -0.07532665 0.019073484 -0.08156434 0.042843476 -0.036023315 0.0768426 0.04053106 0.13658921 -0.017886113 0.16100827 0.16436471 -0.112491444 0.088288486 -0.20895998 0.013275112 0.0028807747 0.09991114 -0.07213903 -0.15570906 -0.045643426
6 -0.039712034 -0.006121833 0.18761948 0.21188457 -0.17764372 -0.20720507 0.1756607 0.26954067 -0.077686176 -0.036422513 0.30504987 0.06220617 0.048597988 0.05011432 -0.15289354 -0.06118419 0.005428908 0.11721977 -0.15098396 -0.01989565 0.20183718 0.19026195 0.26077968 -0.12688094 0.1005175 0.07610523 -0.11460925 0.14749023 -0.094087146 -0.06044182 -0.0854092 -0.012683993 0.019968355 -0.1748026 -0.050480656 0.016053384 0.11486804 -0.033990268 0.24493425 -0.021668833 -0.025752353 0.08864085 -0.09189409 -0.09921136 -0.06910546 0.03757401 -0.08260931 0.049560882 -0.02570451 0.067356326 0.03548681 0.11913134 -0.040937178 0.14237115 0.1785683 -0.11325154 0.09294613 -0.20947067 -0.00044394075 0.01523006 0.09918194 -0.08129835 -0.14404042 -0.05387685
7 -0.034054577 -0.032987196 0.14255294 0.22151227 -0.1669376 -0.20394634 0.14702721 0.25898626 -0.11117119 -0.05676204 0.27033764 0.029796725 0.024105258 0.09182439 -0.13283564 -0.069506496 -4.275277e-05 0.10028849 -0.17701478 -0.054983065 0.2103953 0.18112773 0.22993708 -0.08407467 0.103072025 0.054572344 -0.12316207 0.12685968 -0.14176823 -0.08827641 -0.112236366 -0.051735807 0.093756154 -0.17780247 -0.02144737 0.02817417 0.11475121 -0.08168456 0.2073391 -0.008979826 -0.08121933 0.06823648 -0.11270548 -0.07695068 -0.09546704 0.029293798 -0.0889664 0.08382483 0.013789214 0.102428675 -0.008653685 0.1438774 -0.015860785 0.11139103 0.18218124 -0.09063696 0.100904256 -0.22329406 -0.0054327548 0.07219276 0.08656093 -0.081658125 -0.16263942 -0.07316438
4 -0.035962105 -0.024186768 0.1577753 0.22604467 -0.18066283 -0.18763395 0.19020025 0.2748566 -0.100651614 -0.044877138 0.28662777 0.04353901 0.016614577 0.07755835 -0.12462407 -0.049317423 0.030035915 0.09710163 -0.16805483 0.003989531 0.20589545 0.19147389 0.24865802 -0.11124745 0.11075939 0.059170358 -0.11291448 0.123431854 -0.109336674 -0.08601141 -0.0770225 -0.032014124 0.040405355 -0.20050815 -0.05362087 0.041494757 0.113383934 -0.03583533 0.23660769 -0.010865414 -0.03231266 0.07413438 -0.0708753 -0.08856082 -0.082066625 0.023073455 -0.08924489 0.064703174 -0.009466856 0.07577442 0.024106838 0.14267623 -0.007715692 0.13498487 0.17419258 -0.09889424 0.09056465 -0.2033343 0.016232705 0.02615507 0.096240304 -0.06315156 -0.15763077 -0.040151764
8 -0.03317212 -0.01677176 0.18843311 0.24166332 -0.19853748 -0.19168657 0.17934681 0.2800355 -0.08430559 -0.057573862 0.28664848 0.036877666 0.030805426 0.061823465 -0.13879581 -0.054314367 0.023122624 0.09739466 -0.17373177 -0.010831524 0.20064281 0.19517662 0.26806438 -0.11947899 0.11572436 0.08159769 -0.10320559 0.1318703 -0.11642612 -0.075102456 -0.07389203 -0.018845731 0.018578442 -0.20607622 -0.05003101 0.025487766 0.10514354 -0.02488786 0.23750845 -0.026450789 -0.04453772 0.08404419 -0.087418936 -0.083754905 -0.06559444 0.009283937 -0.08968121 0.07474148 -0.021892896 0.07334656 0.027429635 0.12553963 -0.028468836 0.160225 0.16497515 -0.116871536 0.08322298 -0.19662914 -0.00879541 0.033311043 0.08044668 -0.058737714 -0.1424409 -0.056124777
5 -0.03910579 -0.024942644 0.1773601 0.22745058 -0.17987685 -0.21319692 0.16170084 0.26348868 -0.09818473 -0.049296506 0.30348933 0.04394578 0.03425215 0.059566353 -0.13731706 -0.06672744 0.00449367 0.10338165 -0.17782429 -0.024165006 0.2108144 0.19714014 0.24513862 -0.101429224 0.09784629 0.07104909 -0.12509748 0.1399504 -0.12736578 -0.07483256 -0.09879696 -0.038446773 0.044561766 -0.1741861 -0.035571914 0.019454906 0.118305534 -0.06458645 0.24054682 0.0032120824 -0.04889366 0.07931768 -0.08536571 -0.079211615 -0.09608747 0.030091837 -0.07557893 0.071404055 -0.002803702 0.06304738 0.03166932 0.12202897 -0.026555894 0.13307492 0.1763475 -0.09708562 0.09766542 -0.22086965 -0.013321191 0.05451396 0.10496661 -0.083757535 -0.14595923 -0.05244049
