7 64
902 -0.0033926687 -0.044188786 0.14083818 0.2670368 -0.18356195 -0.17940028 0.029909639 0.25242794 -0.08610445 -0.13726892 0.1425485 -0.054420393 0.057269625 0.12838678 -0.1630477 -0.09939172 -0.054318335 0.08318645 -0.19536726 -0.19922566 0.17666228 0.13565879 0.24375334 -0.054141976 0.12899347 0.10801091 -0.08026315 0.09742023 -0.22480956 -0.088888384 -0.13103412 -0.05368424 0.1544716 -0.20231107 0.05992762 -0.00015139664 0.038913444 -0.08509036 0.09530646 -0.09706769 -0.23247668 0.05173457 -0.25209203 -0.023931168 -0.032858033 -0.039491452 -0.11132876 0.15372957 0.010112134 0.19954792 -0.112365685 0.13359831 -0.04579355 0.14103757 0.12929358 -0.12524907 0.062952235 -0.18027812 -0.08231502 0.15382507 -0.046403583 -0.054315228 -0.14250195 -0.19131324
9 -0.017922455 -0.028445238 0.14065257 0.2734271 -0.18177526 -0.13106282 0.13175394 0.31087247 -0.072767586 -0.13025413 0.19748276 -0.0038680467 0.10037041 0.08762736 -0.14628026 -0.09560654 -0.014585783 0.106465146 -0.13498046 -3.5365694e-05 0.1470801 0.16631174 0.3011342 -0.14657627 0.11087177 0.16437797 -0.08084887 0.07525151 -0.12212373 -0.084105715 -0.0008531342 -0.00790238 -0.008884249 -0.26354295 0.008860144 0.082182154 -0.019954557 0.032246992 0.21670878 -0.041395977 -0.055477493 0.014121323 -0.12738127 -0.016264958 -0.048644405 -0.0573743 -0.08579544 0.030811239 -0.07903127 0.14621758 0.010033889 0.17890072 0.03438491 0.22019252 0.09497728 -0.12523013 0.052853595 -0.17407218 0.03529207 -0.02709181 0.040315133 -0.0314432 -0.17737779 -0.06793061
6 -0.021035712 -0.015458119 0.16242859 0.25706148 -0.18811135 -0.15197209 0.14895871 0.30677658 -0.065704644 -0.10009458 0.22098424 0.015618181 0.08432351 0.08362106 -0.15897074 -0.07811912 -0.005331214 0.113786176 -0.13936824 -0.022263069 0.16705956 0.17088667 0.30418393 -0.15052453 0.122219205 0.13880488 -0.0831953 0.1003891 -0.112115525 -0.07664892 -0.02936058 -0.0004566727 0.004565195 -0.24988312 -0.014836314 0.057753004 0.023547335 0.025429498 0.21872708 -0.0651682 -0.05874233 0.047280565 -0.13821684 -0.0554717 -0.033523735 -0.029793622 -0.09943407 0.044846054 -0.06935815 0.13885626 0.0019985847 0.16384467 -0.001525689 0.2046068 0.12705973 -0.13816142 0.060932506 -0.17803597 0.020983608 -0.017361354 0.037694994 -0.041591477 -0.16965339 -0.08204679
4 -0.009366436 -0.04714719 0.13993695 0.27465603 -0.17304052 -0.14402772 0.08758149 0.29615816 -0.072360866 -0.12220112 0.16911136 -0.020457108 0.09737333 0.10372935 -0.15001737 -0.084587805 -0.034832153 0.1048665 -0.16050069 -0.04810705 0.16864528 0.15934014 0.29371166 -0.13094497 0.123467036 0.16608556 -0.09303171 0.06883158 -0.15872084 -0.09141913 -0.037736863 -0.034888368 0.037963897 -0.25118548 0.033465657 0.06685795 -0.014902878 0.01295554 0.19457841 -0.06599547 -0.10915445 0.021585159 -0.16243635 -0.01959045 -0.043653127 -0.047986593 -0.08436916 0.06281679 -0.06542904 0.14727147 -0.015101018 0.16845813 0.019061528 0.20715933 0.10047378 -0.12732424 0.04280862 -0.16820595 0.0019776225 0.016463801 0.0042981855 -0.047962554 -0.1742524 -0.103426315
5 -0.020227887 -0.0412146 0.13892259 0.2750574 -0.18013026 -0.15195537 0.13723844 0.3136439 -0.08927569 -0.11266404 0.21518518 0.0013442015 0.08380258 0.101669915 -0.1432835 -0.08503911 -0.011989741 0.10914069 -0.15618801 -0.005792547 0.17648862 0.17652155 0.29545292 -0.13872796 0.11812638 0.1464813 -0.10155151 0.080186315 -0.13646694 -0.09642924 -0.028322957 -0.030368403 0.023786599 -0.2574833 0.0060036294 0.081429355 0.007825528 0.010191194 0.22585222 -0.03675731 -0.06580409 0.023083447 -0.12454397 -0.032102372 -0.06511145 -0.035751708 -0.08698354 0.044502575 -0.060528886 0.13677226 0.006903293 0.18396726 0.034041528 0.2007373 0.119117975 -0.118103415 0.061119776 -0.1889714 0.032451726 -0.0066084424 0.048442043 -0.048062094 -0.18784396 -0.0689406
7 -0.01262223 -0.03633011 0.15909892 0.28347322 -0.19788498 -0.14163187 0.1274677 0.30429375 -0.07289031 -0.11836368 0.19310535 -0.015206819 0.07145491 0.09441266 -0.14221524 -0.07172983 -0.00215418 0.092684194 -0.16782612 -0.023489363 0.16899002 0.17149097 0.29949564 -0.1335605 0.13176449 0.14916931 -0.08033796 0.078780316 -0.14672604 -0.09087464 -0.028277865 -0.020539159 0.014475723 -0.26488551 0.0017094533 0.06253356 0.008616103 0.023342753 0.20524025 -0.064497866 -0.09000529 0.0381294 -0.13660768 -0.031719975 -0.037238233 -0.05356781 -0.09436771 0.07337976 -0.06110062 0.13357505 -0.0046382295 0.16117975 0.011120379 0.2146864 0.10799031 -0.1340059 0.046776008 -0.16373977 0.0008192201 0.0151642775 0.014151769 -0.029937627 -0.16352917 -0.088298835
8 -0.020157162 -0.032955155 0.1613108 0.2748321 -0.18596181 -0.1542299 0.12294156 0.30161843 -0.07402997 -0.11830742 0.21836142 -0.000426301 0.0949805 0.07581265 -0.14788964 -0.09091549 -0.019662252 0.1054015 -0.15460661 -0.010845929 0.16417576 0.17658953 0.29569963 -0.13770013 0.10952526 0.16027062 -0.09378302 0.088023104 -0.13582286 -0.08045452 -0.02425849 -0.01923359 -0.002543827 -0.24348265 0.009297186 0.0630808 0.0026005025 0.011793525 0.22504157 -0.03302082 -0.064555414 0.028838674 -0.12304072 -0.022105867 -0.058998957 -0.043458924 -0.07640021 0.04603668 -0.06659838 0.11843699 0.020750023 0.15731797 0.016713789 0.21167542 0.10486401 -0.122161284 0.056062568 -0.1810833 0.009357252 0.00028793394 0.046570413 -0.046552304 -0.1639915 -0.07041317
