7 64
902 -0.00217726 -0.06938441 0.13967091 0.19328278 -0.14192007 -0.20160234 0.06960392 0.21143505 -0.082523406 0.014961021 0.16314775 0.00010625122 -0.022422984 0.14086212 -0.12729234 0.024430122 -0.0065739476 0.0858816 -0.22998601 -0.14975794 0.27072206 0.14886895 0.2165599 -0.06667292 0.16818924 0.029821007 -0.12850194 0.09397919 -0.19011208 -0.105599806 -0.19022112 -0.10076404 0.1967966 -0.16079685 -0.005904784 -0.010830989 0.1473177 -0.06622119 0.13675115 -0.13416621 -0.1942128 0.11502388 -0.18113387 -0.13543367 -0.023717998 0.0653888 -0.10527258 0.16852632 0.03296309 0.08592365 -0.079776414 0.105676495 -0.07070437 0.07388619 0.2019093 -0.115608335 0.047598217 -0.14958352 -0.076117106 0.14257213 -0.048031025 -0.09733111 -0.14055979 -0.15815558
9 -0.0146045275 -0.059170745 0.14335153 0.22012168 -0.1406965 -0.1762233 0.118682146 0.27889964 -0.0716021 -0.01600953 0.20668694 0.031922046 0.061506215 0.10994104 -0.14340338 -0.014725783 -0.016138198 0.1254405 -0.17539786 -0.021878613 0.23930445 0.17395177 0.28536707 -0.15144274 0.14473633 0.11847016 -0.13844413 0.08168281 -0.12936717 -0.09913292 -0.08459957 -0.06348925 0.06752547 -0.22044373 -0.009083127 0.060918175 0.062002555 0.018914567 0.24351212 -0.08662354 -0.07363661 0.06539408 -0.12583794 -0.102939494 -0.04676505 0.036113955 -0.081008375 0.056319285 -0.057399523 0.07953696 0.013163858 0.16053195 -0.00050667406 0.16517484 0.16401185 -0.12514783 0.044459395 -0.17152354 0.0165282 -0.00536751 0.022069657 -0.09427843 -0.18853316 -0.0830994
7 -0.0070938147 -0.055272877 0.15953554 0.19005087 -0.14334224 -0.19436218 0.09613268 0.22888356 -0.062655024 0.024460698 0.18667181 0.024795037 0.0049298215 0.11435139 -0.13715634 0.026143538 -0.0029900363 0.102279805 -0.20440005 -0.09856406 0.2613243 0.15798613 0.24507512 -0.108355336 0.16373964 0.057617653 -0.12781411 0.099059954 -0.1508005 -0.09211279 -0.15370479 -0.07534798 0.13291106 -0.17362025 -0.024060724 0.0012157246 0.13161281 -0.020724494 0.18212268 -0.13222183 -0.1396249 0.11691598 -0.15683168 -0.14521275 -0.015465783 0.06697876 -0.09833411 0.12843019 -0.006489528 0.06457954 -0.03675334 0.10835649 -0.06700876 0.10923652 0.19660506 -0.13015269 0.042287722 -0.1478144 -0.05121518 0.0803186 -0.027137224 -0.0984457 -0.14566775 -0.13155217
6 -0.0077839554 -0.07672916 0.13719037 0.21536744 -0.1268836 -0.173736 0.09344545 0.2664025 -0.06766183 -9.8757846e-05 0.18208572 0.024250649 0.058993325 0.117199 -0.13552018 0.004889873 -0.02364059 0.12273975 -0.18913774 -0.024979614 0.25369713 0.16983859 0.28048 -0.15009971 0.15399042 0.12533833 -0.1496447 0.066950366 -0.14544117 -0.1067923 -0.097475745 -0.08489588 0.08500015 -0.21677002 0.0027433275 0.06098573 0.059741512 0.02291521 0.24155816 -0.10076634 -0.093494035 0.067571744 -0.13044299 -0.107308894 -0.04404593 0.04416035 -0.073775716 0.06889803 -0.0572343 0.06338065 0.011761472 0.15571019 -7.279401e-05 0.16265433 0.16337222 -0.12479438 0.030052515 -0.1592878 0.0042394446 0.006900506 9.46674e-05 -0.10509682 -0.18930852 -0.092360005
4 -0.01522897 -0.07078243 0.13308468 0.2105366 -0.1270973 -0.1632491 0.13351867 0.27464962 -0.071926534 0.007525393 0.20855978 0.04178037 0.05373151 0.104348704 -0.12164543 0.008519572 -0.0016795337 0.121782385 -0.17380652 0.035426352 0.24539295 0.17934519 0.28039387 -0.16466996 0.14499158 0.12074016 -0.15016513 0.06595998 -0.11509144 -0.10702444 -0.06790794 -0.074579835 0.046106644 -0.22603819 -0.021347443 0.080850735 0.061444834 0.041540425 0.27424714 -0.07269528 -0.04000362 0.061971076 -0.08330202 -0.10990722 -0.057656758 0.04543085 -0.06844908 0.04097069 -0.067358084 0.04277626 0.045812137 0.16619006 0.021307576 0.17071259 0.16340129 -0.11730306 0.035931583 -0.1643075 0.036909327 -0.032351166 0.03695884 -0.09815892 -0.19672579 -0.05039587
8 -0.011163998 -0.06521726 0.16138165 0.22444065 -0.15119842 -0.16215897 0.13715291 0.27266786 -0.060648765 0.005343748 0.20645064 0.03203438 0.038137212 0.0941713 -0.12105412 0.021965994 0.0131193595 0.10739691 -0.18957587 0.02726042 0.24492344 0.18284637 0.287291 -0.16151066 0.15779416 0.119263 -0.13416108 0.070948064 -0.12200957 -0.10179747 -0.069394946 -0.065059975 0.032372504 -0.23229216 -0.033336703 0.06187301 0.072621725 0.05102282 0.26526588 -0.091357864 -0.053293284 0.080634534 -0.08396959 -0.1139682 -0.037125867 0.03316686 -0.074445546 0.067294694 -0.06536007 0.030452423 0.043629747 0.14272507 -0.00152953 0.18281834 0.15870109 -0.13084325 0.026833996 -0.14555581 0.008075478 -0.012484292 0.015928838 -0.08267825 -0.17244868 -0.06037068
5 -0.013343552 -0.06626896 0.15163024 0.2115796 -0.1362569 -0.18692905 0.09764315 0.25316933 -0.07026924 -0.0030908247 0.20582454 0.027337588 0.04862107 0.099221215 -0.13434307 -0.0044413405 -0.01977507 0.114693716 -0.19253363 -0.03539178 0.24766712 0.17391919 0.26485142 -0.13276666 0.14221102 0.10924319 -0.14557375 0.0855702 -0.14695515 -0.09649188 -0.10919089 -0.07884495 0.08171054 -0.19557433 -0.0045575886 0.04014918 0.08160989 -0.0030757724 0.23618993 -0.08162953 -0.09255861 0.07771221 -0.1221601 -0.10433252 -0.05313579 0.04638269 -0.07066437 0.07913542 -0.039447412 0.051741 0.015677424 0.13444465 -0.01724375 0.14976014 0.16752192 -0.11816236 0.042391818 -0.16786736 -0.014879558 0.031658355 0.016881589 -0.104323916 -0.1687425 -0.08888114
