7 64
902 -0.0142419115 -0.0682785 0.14762929 0.22293578 -0.16191834 -0.19778877 0.11836114 0.24285181 -0.09776481 -0.006446879 0.20769723 0.009751656 -0.015199045 0.121268936 -0.11257351 0.0066095837 0.0140102375 0.08865719 -0.22885528 -0.06507407 0.2653873 0.18150297 0.24169157 -0.09152315 0.1583173 0.05404745 -0.13999294 0.09860356 -0.17666893 -0.11508953 -0.14602071 -0.09333566 0.13571636 -0.20121062 -0.024404638 0.025753302 0.13589793 -0.049042843 0.20878072 -0.079517804 -0.13146237 0.09854397 -0.1255676 -0.11794796 -0.06301982 0.04800786 -0.096560426 0.13557827 0.012727665 0.06842571 -0.022839114 0.13588406 -0.029891154 0.116792284 0.19922644 -0.11194303 0.062641166 -0.18237197 -0.036503095 0.09896632 0.015321551 -0.09138868 -0.16575162 -0.10362788
9 -0.045024186 -0.02321993 0.15676993 0.17252523 -0.10623378 -0.20370056 0.14281379 0.27170378 -0.06213786 -0.0062353276 0.31119052 0.101987384 0.1352358 0.031871684 -0.16710538 -0.07485212 -0.05200584 0.1655625 -0.09979605 0.04338016 0.19896814 0.1838467 0.27003247 -0.17665863 0.063584045 0.13798454 -0.15822434 0.1224564 -0.05170103 -0.048858155 -0.04896006 -0.02510035 -0.024060449 -0.14996856 -0.014942582 0.05890022 0.051163707 0.0033301672 0.3108335 0.011587469 0.04603813 0.045685858 -0.066242136 -0.08697183 -0.09913424 0.06874643 -0.032984328 -0.050219942 -0.08573115 0.031782296 0.103794515 0.14319085 0.006739609 0.15977344 0.1568006 -0.095703565 0.07990942 -0.22091204 0.06026992 -0.086547084 0.14009754 -0.13186009 -0.18067944 -0.010353261
6 -0.03720938 -0.020928945 0.17693475 0.17360291 -0.12617503 -0.21074735 0.13962068 0.25617525 -0.05533627 0.010660932 0.2907947 0.08879395 0.09265686 0.04249888 -0.16385187 -0.04253357 -0.03238561 0.15055916 -0.13144884 -0.0022193198 0.22189073 0.18346499 0.2689766 -0.16164126 0.09479237 0.10870307 -0.14814307 0.13346052 -0.07332308 -0.05343733 -0.08685605 -0.028778983 0.01193627 -0.15045315 -0.031534825 0.027570564 0.09322455 -0.0051334305 0.27987576 -0.034391224 -0.0012446891 0.08248564 -0.091581225 -0.117139205 -0.06869201 0.0755655 -0.055708874 0.0050523146 -0.061558556 0.032770418 0.06815184 0.120260194 -0.0340502 0.14527573 0.17852373 -0.11305688 0.07415802 -0.20262279 0.018386519 -0.036191974 0.09729146 -0.12340514 -0.16044869 -0.046814524
8 -0.0283978 -0.04666921 0.15342881 0.18571866 -0.119763255 -0.2025878 0.11872681 0.255581 -0.06867661 0.007696302 0.25438267 0.065395825 0.078192905 0.072922975 -0.14907755 -0.029425923 -0.033146307 0.14013764 -0.15491056 -0.011684338 0.23656255 0.17880908 0.2626609 -0.1484798 0.11038033 0.108888015 -0.15651664 0.108642094 -0.1051156 -0.07632823 -0.09778159 -0.059093878 0.051018603 -0.16765529 -0.0137581965 0.042340018 0.08495428 -0.009982655 0.26750404 -0.045325473 -0.03673574 0.07252728 -0.102765225 -0.11024568 -0.07389275 0.069832906 -0.058363352 0.027925808 -0.051344275 0.043003004 0.047796458 0.13729896 -0.01522537 0.1414657 0.17731488 -0.10825497 0.06401142 -0.19684541 0.015552667 -0.012534568 0.0720593 -0.1241359 -0.17618985 -0.06001692
7 -0.0304051 -0.055484686 0.14511159 0.18556175 -0.123610295 -0.20428865 0.14047718 0.25156525 -0.085325725 0.021621795 0.26578593 0.065956876 0.04390823 0.08233681 -0.12854032 -0.011719923 -0.008693918 0.1251714 -0.17014816 0.008178638 0.24840453 0.1846559 0.24501188 -0.13382031 0.11506813 0.07975837 -0.16079298 0.104405284 -0.108317114 -0.0889174 -0.10502363 -0.073043235 0.064775534 -0.16814432 -0.030133877 0.04742334 0.110463664 -0.0210851 0.2695271 -0.03160675 -0.031006087 0.07740538 -0.07404648 -0.11829398 -0.08702323 0.077101946 -0.060279537 0.04182601 -0.03040986 0.026730713 0.04989156 0.13926697 -0.0059352294 0.123148344 0.18910247 -0.09556118 0.06893053 -0.19741644 0.019803897 0.0020624031 0.0832522 -0.11961378 -0.17689994 -0.043170765
5 -0.031422928 -0.027110653 0.18639812 0.19976272 -0.15102543 -0.19720295 0.1519092 0.265462 -0.0572756 -0.0016063501 0.28003418 0.06931058 0.06979862 0.04779651 -0.14995666 -0.027818158 -0.008197463 0.13051322 -0.15447922 0.012562051 0.22361593 0.19114086 0.28081173 -0.15993582 0.11363642 0.111433886 -0.13665314 0.12370362 -0.089238204 -0.06501331 -0.07634677 -0.030558798 0.001865453 -0.18088797 -0.04133833 0.031869866 0.09329983 0.010149789 0.27974278 -0.043752696 -0.012420181 0.08742076 -0.08090724 -0.11170253 -0.060057674 0.052460425 -0.0637115 0.031079346 -0.060014214 0.027943576 0.06706689 0.11981978 -0.03000536 0.16564623 0.17058982 -0.12162525 0.06402745 -0.18772306 0.007108331 -0.021819666 0.080238655 -0.10131876 -0.15444143 -0.04605561
4 -0.027812352 -0.055580325 0.16363575 0.20158131 -0.1365171 -0.21129645 0.118049785 0.24766843 -0.08013303 0.0031029559 0.26060015 0.050920907 0.0509748 0.07281899 -0.1349177 -0.022814853 -0.020073794 0.12038426 -0.18442424 -0.017002068 0.24563092 0.18761611 0.24988973 -0.12509994 0.11515188 0.094719626 -0.1567091 0.11046486 -0.13056861 -0.08382863 -0.11298791 -0.072878495 0.06344009 -0.16598734 -0.01634758 0.03128865 0.10483321 -0.03209012 0.26056325 -0.03384782 -0.057067454 0.08093467 -0.09204524 -0.103691466 -0.08475926 0.06331066 -0.057469744 0.060726658 -0.027615735 0.027800975 0.04522604 0.12370232 -0.02055474 0.13460472 0.1796436 -0.10178774 0.06629865 -0.19750372 -0.010209275 0.030499939 0.070669785 -0.11842835 -0.16238567 -0.06087862
