7 64
902 -0.013692943 -0.0046285153 0.17038831 0.2485668 -0.23049358 -0.16284068 0.18687575 0.27675784 -0.08541001 -0.07178196 0.21336341 -0.005319428 -0.04033756 0.12223552 -0.13581035 -0.02304826 0.06533136 0.062161114 -0.19246784 -0.10289887 0.19084175 0.15794854 0.2502743 -0.08082892 0.16537932 0.017732931 -0.04637184 0.11975485 -0.139249 -0.09117139 -0.103358135 -0.0070995605 0.101171516 -0.23489474 -0.06855111 0.0013801513 0.13488391 -0.027303472 0.12502305 -0.119161285 -0.13730745 0.11130549 -0.15573348 -0.11071828 0.0063172136 -0.015030476 -0.15385361 0.15837611 0.020324908 0.15470034 -0.0883293 0.12646154 -0.06512298 0.12653114 0.17865278 -0.14124869 0.072739005 -0.14957026 -0.040162493 0.099914454 -0.017064027 -0.0046045026 -0.12663008 -0.12944663
9 -0.029632654 0.001906051 0.17425916 0.21443886 -0.17979933 -0.17838939 0.16959818 0.27857247 -0.064068094 -0.052065022 0.25732222 0.047455784 0.053830788 0.07015994 -0.16041389 -0.058360856 0.007470802 0.11628881 -0.13395615 -0.041157562 0.18490726 0.17113993 0.27681646 -0.13797966 0.11789023 0.08466505 -0.08990627 0.13354482 -0.08888002 -0.0624326 -0.06985423 0.004278872 0.026225267 -0.20335495 -0.047515623 0.023704957 0.09029469 -0.00416004 0.21504393 -0.06701345 -0.0466808 0.08441242 -0.12858988 -0.101450175 -0.03174515 0.017441109 -0.10538849 0.05339441 -0.041058067 0.113419965 -0.0003496395 0.13553387 -0.04197399 0.15672252 0.16821061 -0.13304372 0.079863556 -0.18726245 0.008159827 -0.00033694552 0.05709661 -0.05940128 -0.15143685 -0.08118049
7 -0.029728463 0.0071629854 0.19472425 0.20555207 -0.17580378 -0.18749513 0.16288652 0.2768687 -0.045795873 -0.03438458 0.26400608 0.061266262 0.07141748 0.054387547 -0.17392963 -0.05064501 -0.0033449328 0.1293625 -0.12780945 -0.041464582 0.19064768 0.17243762 0.28947905 -0.15644392 0.118953034 0.09930451 -0.0952159 0.14125054 -0.076700404 -0.050217044 -0.07166072 0.011433082 0.007881862 -0.19318856 -0.04960861 0.013369542 0.09063483 0.012048002 0.23079365 -0.08138396 -0.0365043 0.09607143 -0.13275982 -0.115435354 -0.019612143 0.030501649 -0.09874612 0.042367842 -0.058665775 0.09467264 0.015645484 0.121508285 -0.059128825 0.16695525 0.17052963 -0.14448027 0.0726416 -0.18178712 0.0011613151 -0.017413905 0.05303713 -0.07221079 -0.14496613 -0.084423706
6 -0.024424529 -0.013001132 0.17934503 0.21079275 -0.16638231 -0.1863349 0.1415814 0.272227 -0.054452185 -0.03263384 0.24209024 0.047631938 0.06635877 0.0720065 -0.16477387 -0.042720053 -0.010274001 0.12509781 -0.14469078 -0.04845873 0.20274751 0.1691922 0.28141254 -0.1464051 0.12495223 0.101851776 -0.10620358 0.12411708 -0.099273995 -0.06391593 -0.08237468 -0.013144989 0.035082333 -0.19530064 -0.032542005 0.021528648 0.08366262 0.00463582 0.22352473 -0.083527796 -0.059618257 0.087531514 -0.13820954 -0.10849979 -0.027588658 0.031007571 -0.09392324 0.05454843 -0.051364433 0.09399075 0.0066150953 0.12863323 -0.04623747 0.16041876 0.16781135 -0.13692518 0.06500261 -0.17840137 -0.0030514942 -0.00013379332 0.038604945 -0.07878398 -0.15336947 -0.09144921
5 -0.032583814 -0.005028277 0.17839463 0.19937883 -0.16412067 -0.18868072 0.16953546 0.27257094 -0.061011687 -0.023332402 0.27213395 0.06481788 0.058867957 0.060961302 -0.15871969 -0.044467043 0.0023198875 0.12629502 -0.13510758 -0.020980446 0.20231007 0.1777976 0.27552557 -0.14868225 0.114586666 0.08708246 -0.10980637 0.13491212 -0.079535924 -0.060686085 -0.07606299 -0.006366825 0.019501725 -0.18869938 -0.051088456 0.025138155 0.10001663 -2.5514999e-05 0.24251005 -0.05941202 -0.026187299 0.08977743 -0.10982964 -0.1153914 -0.04198285 0.041117605 -0.09137134 0.039058376 -0.04763949 0.080298245 0.02575839 0.13005131 -0.041283745 0.15259394 0.17728294 -0.12831895 0.07778904 -0.1907679 0.013341442 -0.015353836 0.07179128 -0.080112 -0.15464875 -0.06599427
8 -0.02589436 -0.005721694 0.19669543 0.22203223 -0.18309873 -0.18110365 0.1587283 0.27826157 -0.04935196 -0.03978835 0.25479707 0.04750476 0.06253446 0.0568025 -0.16144449 -0.041769873 0.0037396748 0.117409706 -0.14585602 -0.027091188 0.19473253 0.17751774 0.29033238 -0.15218219 0.12541069 0.10709129 -0.09588874 0.12821361 -0.09214555 -0.059157304 -0.0658869 -1.4847949e-05 0.0032648367 -0.20544615 -0.045919683 0.01962064 0.08377776 0.017860845 0.23478301 -0.07756483 -0.043531865 0.09226674 -0.1202498 -0.104446836 -0.02381301 0.018173926 -0.09343392 0.054942 -0.057979792 0.081181444 0.022837816 0.12013664 -0.048801437 0.17796125 0.16016576 -0.14251415 0.06329382 -0.17301446 -0.0064974744 -0.0066433414 0.045362275 -0.065640636 -0.14226942 -0.07903148
4 -0.029397968 -0.002097103 0.19339599 0.21941334 -0.18571329 -0.19305487 0.15676796 0.271763 -0.061396956 -0.048555613 0.2668711 0.04459354 0.052717004 0.05963738 -0.16319133 -0.055863507 0.0015986044 0.113577984 -0.15170193 -0.05367921 0.1950187 0.1779933 0.2762593 -0.13144854 0.11879755 0.08853213 -0.09611008 0.14135388 -0.10431818 -0.05882841 -0.085438356 -0.0029955145 0.027509667 -0.19245814 -0.04337601 0.007409792 0.10134709 -0.01607356 0.21924193 -0.06562571 -0.060682267 0.09555581 -0.13108082 -0.10143571 -0.035278272 0.020990565 -0.098616175 0.06965389 -0.034859836 0.09436809 0.0062753935 0.1169714 -0.057590708 0.1583076 0.1705027 -0.13497813 0.078519784 -0.18906346 -0.01806982 0.024086898 0.054111537 -0.06789702 -0.13847007 -0.08847122
