7 64
902 -0.03394789 -0.03661756 0.11596105 0.21567775 -0.17522658 -0.20507182 0.17864025 0.25345394 -0.14054036 -0.04463413 0.26767126 0.022636017 -0.039924424 0.1299876 -0.11165798 -0.04851239 0.037453365 0.07904804 -0.19663948 -0.07470806 0.22723931 0.17733522 0.20017199 -0.050260283 0.12072765 -0.01182726 -0.116912514 0.12743266 -0.15311687 -0.110506736 -0.14288944 -0.066614546 0.15706572 -0.1814106 -0.045472357 0.026694851 0.16414884 -0.11392239 0.17000152 -0.016869664 -0.10708326 0.082090355 -0.1111726 -0.10098483 -0.09755087 0.040945098 -0.11768821 0.123833686 0.061749544 0.12570983 -0.05437694 0.15690304 -0.016372077 0.06349861 0.21452926 -0.0787733 0.11642113 -0.2260108 -0.0022796562 0.114453286 0.08014282 -0.06724889 -0.16929215 -0.08122472
9 -0.04824321 -0.01414135 0.1321189 0.19179149 -0.14717177 -0.20814066 0.18851615 0.27211675 -0.11096956 -0.03573289 0.31378067 0.074109375 0.04681099 0.07828413 -0.14292236 -0.080997355 0.0001988993 0.12900709 -0.13256834 -0.008956879 0.20385808 0.18570971 0.23629555 -0.11472855 0.08207158 0.050217193 -0.13463037 0.14169133 -0.086200975 -0.07701824 -0.089664906 -0.03052686 0.061163276 -0.16854362 -0.043258917 0.04781483 0.11714977 -0.06682295 0.24765074 0.01616686 -0.008788743 0.060897354 -0.08356297 -0.09550164 -0.10908091 0.055922702 -0.08435723 0.021460535 -0.00731077 0.09844837 0.023984216 0.16389206 -0.000392859 0.105626985 0.19637462 -0.08362349 0.11850767 -0.24507436 0.049811326 0.0006355533 0.14016812 -0.09541326 -0.18421653 -0.034430973
6 -0.046536047 -0.01945282 0.1382599 0.15649137 -0.11409403 -0.21786992 0.15728123 0.24688952 -0.08919324 0.006407807 0.3082366 0.09397295 0.067867085 0.060630653 -0.14968613 -0.061491266 -0.024716726 0.1461002 -0.12441727 -0.010401353 0.21901953 0.17990415 0.23169576 -0.12927455 0.07687865 0.06270937 -0.1555508 0.14187363 -0.07370832 -0.063737094 -0.10468836 -0.040304195 0.056564018 -0.13370849 -0.035013676 0.03555924 0.1194091 -0.056682147 0.26465142 0.0046466785 0.0015013847 0.0709183 -0.082796164 -0.11461763 -0.10383045 0.089486696 -0.062891416 0.003413386 -0.023007074 0.058009446 0.047447905 0.1415997 -0.01644391 0.09831121 0.20019104 -0.08413395 0.10549258 -0.23552893 0.041027036 -0.016093303 0.13521478 -0.12744828 -0.17685673 -0.034887165
7 -0.041503884 -0.04353257 0.11829635 0.16804314 -0.10634398 -0.21432456 0.13774014 0.24549204 -0.10383803 0.0012394531 0.28707924 0.07598526 0.06097162 0.08106364 -0.13612273 -0.057090636 -0.02968128 0.13874625 -0.14510296 -0.010916639 0.23135097 0.1802517 0.22436431 -0.11682927 0.08253143 0.06698654 -0.16788252 0.121761315 -0.101912536 -0.08230842 -0.11206622 -0.06864891 0.08399231 -0.14228085 -0.01588943 0.04977404 0.109055646 -0.066806175 0.26063415 0.010671352 -0.021785662 0.05718333 -0.08375164 -0.10089619 -0.11933414 0.08450902 -0.05752753 0.016860995 -0.013639899 0.05944576 0.03991128 0.15491663 0.005050147 0.094786346 0.19566652 -0.07361239 0.09967417 -0.23650777 0.039927524 0.003840263 0.1255538 -0.1317849 -0.18968005 -0.03776943
5 -0.045745805 -0.035299186 0.112199165 0.16768368 -0.11920148 -0.21178037 0.1693699 0.24481378 -0.11791562 -0.0012309464 0.30175546 0.07665962 0.028998086 0.08604832 -0.12328355 -0.0552436 -0.0025234197 0.12438517 -0.14672309 -0.0039714864 0.22642902 0.18230385 0.2087989 -0.1005272 0.08219718 0.032688566 -0.15649496 0.1286097 -0.09558766 -0.08662725 -0.11299572 -0.06263738 0.09137343 -0.1443197 -0.03775855 0.04857721 0.13388912 -0.081237294 0.24904668 0.02297359 -0.014606644 0.06273526 -0.06648189 -0.10599853 -0.124236465 0.082327984 -0.07003939 0.028419008 0.008508349 0.06626987 0.029681936 0.15727954 0.0060214046 0.07679865 0.20624529 -0.06569264 0.1131324 -0.24083571 0.04596988 0.016462054 0.13962865 -0.11557169 -0.1856701 -0.02694919
8 -0.043521155 -0.024447512 0.13720825 0.18200172 -0.1389819 -0.2027884 0.1740318 0.25033107 -0.10156477 -0.014245796 0.30004647 0.07101605 0.03481795 0.06819127 -0.12749854 -0.055360913 0.0045764935 0.11764375 -0.14429468 0.0036518974 0.21097504 0.18389606 0.22392839 -0.11027204 0.085546136 0.049343303 -0.137928 0.13078234 -0.08933824 -0.07597243 -0.093361326 -0.042307958 0.054298796 -0.15591876 -0.04493786 0.040417477 0.1224953 -0.058040995 0.24983446 0.012685001 -0.0089139 0.06863377 -0.06402339 -0.09910622 -0.10501712 0.06202874 -0.07093181 0.03117735 -0.006708667 0.05976739 0.039259423 0.14187132 -0.005522563 0.10316767 0.18936738 -0.07998562 0.10319323 -0.22431019 0.033145566 0.009185783 0.12827727 -0.09840366 -0.16737595 -0.027449783
4 -0.047919508 -0.02868577 0.13485888 0.16802758 -0.11754394 -0.22082645 0.14792728 0.24039969 -0.10183344 -0.00860855 0.31277302 0.081795625 0.062176142 0.05748752 -0.1380925 -0.07235329 -0.026358692 0.13455519 -0.13826478 -0.007365737 0.21625422 0.18501207 0.218117 -0.11015205 0.0671996 0.06265772 -0.159406 0.13866712 -0.092873104 -0.068375036 -0.10697695 -0.052754257 0.060421377 -0.12864184 -0.024289645 0.035995647 0.11725518 -0.07881489 0.26324368 0.03252701 -0.0063886745 0.061404444 -0.07106828 -0.09269398 -0.12585568 0.07944714 -0.052954245 0.013236341 -0.00876994 0.050132204 0.052792206 0.13811083 -0.005994167 0.0948687 0.19171348 -0.07020947 0.11013994 -0.24408405 0.031015504 0.008914034 0.14712292 -0.12665592 -0.1719508 -0.027227456
