7 64
902 -0.01737892 -0.012567725 0.14735386 0.24028872 -0.21120559 -0.16631229 0.16759892 0.2625246 -0.098868206 -0.07884864 0.21104755 -0.0071892147 -0.031311512 0.12405824 -0.12861247 -0.04249068 0.04731097 0.06375789 -0.18534526 -0.10708269 0.18909077 0.15718712 0.234511 -0.06707911 0.14846967 0.018642679 -0.06185729 0.11998635 -0.15075837 -0.09523972 -0.11160547 -0.021858864 0.11975794 -0.2212439 -0.04927257 0.008803491 0.12925145 -0.0571167 0.1282087 -0.08908201 -0.14063239 0.09462005 -0.15762994 -0.0943354 -0.023469355 -0.01035439 -0.14428921 0.14935265 0.031128684 0.16284233 -0.08777463 0.13841377 -0.04889189 0.11306968 0.18012403 -0.12395164 0.08573971 -0.17394827 -0.032514963 0.10980607 0.0055433763 -0.019345537 -0.13953318 -0.12472884
9 -0.038951367 -0.010292454 0.16899341 0.27210933 -0.21166055 -0.17094256 0.19210786 0.30505174 -0.10180858 -0.12101956 0.29139194 0.020725785 0.05295106 0.0587566 -0.13347311 -0.10520612 0.021380743 0.090900354 -0.15214355 0.017747097 0.1563869 0.19530682 0.2696455 -0.11379115 0.08904033 0.1037399 -0.08561319 0.12194327 -0.11354067 -0.07616281 -0.025739728 -0.0018435203 -0.014695881 -0.23025057 -0.034884878 0.05463864 0.05686854 -0.028109666 0.23603725 0.022433147 -0.021955116 0.041272506 -0.0734631 -0.029027786 -0.09058413 -0.03628632 -0.08514982 0.046917535 -0.029782727 0.10907101 0.0343912 0.15303059 0.014120517 0.18267985 0.12991692 -0.10214051 0.09530515 -0.21320786 0.021731537 0.013566302 0.11260246 -0.032880437 -0.15335315 -0.031148013
5 -0.02968834 -0.010974281 0.17308986 0.25359425 -0.20671774 -0.17213836 0.17768678 0.28569812 -0.0879014 -0.08930871 0.26214975 0.018416736 0.029971069 0.07384116 -0.13691433 -0.0705278 0.026349703 0.08748083 -0.16343123 -0.023844114 0.17554939 0.18225183 0.2647041 -0.10945991 0.114379525 0.081667766 -0.08124466 0.12207553 -0.119844414 -0.077158034 -0.05819432 -0.00781142 0.022965744 -0.22151366 -0.042536497 0.032442685 0.08408616 -0.024032824 0.20759483 -0.030681433 -0.05901069 0.06933448 -0.103256755 -0.064014755 -0.056477502 -0.01728727 -0.10137669 0.07926737 -0.019496627 0.11082185 0.0017170374 0.13743915 -0.018812673 0.16395816 0.14918606 -0.11745626 0.083319776 -0.19045119 -0.0032247999 0.03739097 0.06680622 -0.03601442 -0.14349085 -0.0661064
7 -0.019156005 -0.032056846 0.15068044 0.2610781 -0.20193647 -0.16420262 0.15653296 0.28050944 -0.09799618 -0.08835925 0.22095454 -0.0052440222 0.00936967 0.109307185 -0.12661693 -0.05334356 0.027671456 0.07682099 -0.18676628 -0.05074691 0.19186234 0.1736751 0.25809988 -0.09402904 0.13600722 0.072611056 -0.08429425 0.101324305 -0.1518404 -0.098856084 -0.07808249 -0.034161728 0.07359038 -0.23560986 -0.028199539 0.038934004 0.08410038 -0.030991772 0.1804845 -0.05665018 -0.10614136 0.06703523 -0.12724197 -0.06576333 -0.05000718 -0.020598909 -0.112690024 0.111648016 -0.003950821 0.13078053 -0.034141727 0.150894 -0.011498488 0.15266453 0.15380846 -0.11764077 0.07340315 -0.1801843 -0.012399129 0.06933018 0.029479245 -0.03355651 -0.15557498 -0.09190747
6 -0.031976186 -0.01992197 0.14732984 0.24805334 -0.1995531 -0.17058113 0.19075511 0.28242576 -0.109337665 -0.08411313 0.26439726 0.017439246 0.0058723283 0.09178712 -0.11991502 -0.06631974 0.039171148 0.0798181 -0.16943328 -0.015094417 0.18293507 0.18273911 0.24481635 -0.09294177 0.11323402 0.054676726 -0.08818575 0.11588566 -0.12428381 -0.0917094 -0.06624828 -0.023472317 0.050519332 -0.22086787 -0.047351588 0.04457457 0.0990386 -0.04352532 0.2022408 -0.013496091 -0.058271535 0.062760375 -0.08822369 -0.065534234 -0.07520079 -0.010021204 -0.10497807 0.084222324 0.0019708164 0.11575618 -0.0074248505 0.15284304 -0.0008118082 0.13959368 0.16060023 -0.10037663 0.09341983 -0.20008224 0.011959473 0.048264675 0.08071335 -0.035517003 -0.15599577 -0.05467413
4 -0.027573453 -0.02091383 0.16766667 0.27018562 -0.21956289 -0.16080785 0.19163494 0.2900552 -0.10048957 -0.09735759 0.25877687 0.0040874793 0.003955735 0.08222363 -0.116539195 -0.060226817 0.049208872 0.068013296 -0.18222733 -0.0020910776 0.17763309 0.18897468 0.25955933 -0.09837578 0.12235604 0.07244898 -0.0761204 0.11004381 -0.13203724 -0.09105836 -0.05009466 -0.01689361 0.022511039 -0.2399731 -0.05049306 0.04258706 0.08776009 -0.022936571 0.20682915 -0.020833012 -0.06124333 0.066139035 -0.080815256 -0.055107564 -0.06358409 -0.032502767 -0.103862286 0.096716024 -0.008558735 0.10374455 0.0029553976 0.14213292 -0.0035305598 0.16742657 0.14392598 -0.1114276 0.080483265 -0.18382956 -0.0033397647 0.051528763 0.06630416 -0.019426748 -0.14263357 -0.05378066
8 -0.031853396 -0.027002962 0.16948467 0.27044898 -0.20707348 -0.1756965 0.16763067 0.28577742 -0.102351956 -0.10451599 0.2718827 0.0078443345 0.033101164 0.06881887 -0.12408552 -0.08235982 0.021055475 0.07998845 -0.17999344 -0.0033458495 0.1773025 0.19379693 0.25833568 -0.0982711 0.10290258 0.094532505 -0.09354072 0.113810495 -0.13993423 -0.084900714 -0.052866448 -0.025809797 0.016551217 -0.22179835 -0.027604569 0.042628627 0.07244236 -0.039492898 0.22282425 0.006330703 -0.056793194 0.053071894 -0.08145023 -0.036617376 -0.087353915 -0.028049182 -0.083395444 0.07943628 -0.013805879 0.093063205 0.022245 0.13932084 0.0031183376 0.17036118 0.13615361 -0.101280585 0.085159734 -0.20186053 -0.0061436845 0.051329385 0.08665015 -0.040259045 -0.14534184 -0.048302673
