7 64
902 -0.011085768 -0.052402068 0.19527632 0.2596965 -0.20017916 -0.18016258 0.12386208 0.25947908 -0.07145889 -0.043926265 0.21696281 -0.004129309 0.006996308 0.083013415 -0.12160141 -0.0058305226 0.021454273 0.072640985 -0.2251811 -0.04166133 0.22826132 0.18661 0.26771834 -0.10600888 0.15402868 0.09582501 -0.10420306 0.09789765 -0.17062683 -0.094533436 -0.10089031 -0.057745073 0.05477096 -0.2233106 -0.028239409 0.014050861 0.10100463 -0.009273983 0.2148043 -0.08132558 -0.118731014 0.099407 -0.11347411 -0.08641779 -0.03838222 -0.0013660688 -0.08950046 0.13832292 -0.016903235 0.05034214 0.005528169 0.10625997 -0.04285014 0.1759505 0.15628915 -0.13411427 0.044040408 -0.15595472 -0.06377493 0.08935513 0.0021508585 -0.05842416 -0.12978895 -0.09794733
9 -0.018172463 -0.040207066 0.17511113 0.26567096 -0.19331948 -0.17103119 0.12829396 0.2816238 -0.07782237 -0.08332819 0.2252268 0.00038064204 0.04922564 0.080912 -0.13673086 -0.054603018 0.0012030624 0.09014551 -0.18676539 -0.030093204 0.19467518 0.18141153 0.2773412 -0.117718175 0.12783746 0.12080628 -0.09926722 0.096735984 -0.15056957 -0.086331055 -0.06479881 -0.036647655 0.0316281 -0.22721913 -0.010418043 0.037894048 0.05552952 -0.007760962 0.21461761 -0.05055276 -0.08944512 0.062176734 -0.1183524 -0.05357541 -0.052842677 -0.020142013 -0.08435232 0.089347556 -0.035642575 0.090642825 0.009217449 0.13573147 -0.0127697075 0.18785304 0.13597406 -0.12553781 0.057359017 -0.17699967 -0.023871813 0.047586426 0.032321513 -0.05351769 -0.1500242 -0.083938316
8 -0.028891914 -0.034467407 0.20855673 0.24545991 -0.1876436 -0.19484806 0.1484836 0.2713013 -0.06617715 -0.041218594 0.2805815 0.03699503 0.0546392 0.039440293 -0.13616815 -0.038581524 0.0047315876 0.10186743 -0.18663901 0.015305343 0.21301821 0.20343934 0.2803074 -0.13715142 0.11544555 0.1222438 -0.121367276 0.11858194 -0.1231552 -0.06987211 -0.066407405 -0.033565108 -0.013875578 -0.20070885 -0.035218332 0.025622403 0.085886605 -0.0012441904 0.2728072 -0.024960209 -0.03619572 0.08420702 -0.07097868 -0.077029526 -0.06935536 0.012670441 -0.061031196 0.0662625 -0.047584623 0.022144021 0.0697275 0.10619236 -0.026764218 0.18780282 0.14740966 -0.120320834 0.060658213 -0.18314394 -0.024831679 0.021635653 0.07447729 -0.07701926 -0.1337361 -0.045612585
6 -0.017964924 -0.056741368 0.18255453 0.24436447 -0.17374268 -0.17839171 0.12218351 0.25829944 -0.07058102 -0.03560875 0.23319845 0.015381359 0.03829631 0.06537257 -0.118556336 -0.01736644 0.004951544 0.08901313 -0.20242736 0.005167403 0.2219128 0.19081542 0.26675618 -0.12376958 0.12976904 0.11829143 -0.1234299 0.09105473 -0.14697488 -0.08793128 -0.076017946 -0.05959495 0.021080242 -0.20918433 -0.019965516 0.035353422 0.07675941 0.0014169447 0.25091544 -0.043744233 -0.06909649 0.076855175 -0.08002623 -0.073561765 -0.06398427 0.008992133 -0.06212406 0.08774467 -0.039223492 0.025577659 0.04875535 0.1142182 -0.014091588 0.18050468 0.14249186 -0.11661456 0.04466227 -0.1654476 -0.030780498 0.04175812 0.040716372 -0.07526181 -0.14100574 -0.059689242
5 -0.032969613 -0.04736516 0.18581916 0.24738543 -0.17818111 -0.19547719 0.14899439 0.2678636 -0.08788509 -0.048490472 0.2883342 0.033197932 0.04824247 0.045776512 -0.121459045 -0.049538556 0.0047458387 0.09618734 -0.19176286 0.033410393 0.2134151 0.20758063 0.26137108 -0.1209101 0.10184615 0.11461975 -0.13357121 0.11021258 -0.13258713 -0.0809237 -0.06524674 -0.051597547 -0.00236614 -0.1947391 -0.026223341 0.041146353 0.0828914 -0.024015134 0.27738184 0.013215585 -0.0282649 0.06518402 -0.048581798 -0.058386356 -0.101932034 0.0121031385 -0.049779214 0.059629634 -0.03299173 0.018024076 0.07719751 0.117857374 0.0009813175 0.17188531 0.1430162 -0.095647365 0.06972489 -0.19705443 -0.010452222 0.028822917 0.100138515 -0.08056411 -0.14286855 -0.024293695
7 -0.018704835 -0.050848797 0.20381638 0.2611167 -0.19765133 -0.17610353 0.13457629 0.25796196 -0.06905048 -0.048419353 0.24504502 0.006890784 0.023975797 0.049629588 -0.11090618 -0.017146962 0.021975394 0.071901135 -0.21363054 0.015560277 0.2125384 0.19857173 0.26624042 -0.11552546 0.12976179 0.11607068 -0.109220624 0.096501574 -0.15128613 -0.08372823 -0.06730005 -0.05006833 -0.0027112768 -0.21408944 -0.031556062 0.024903962 0.08340904 0.0017734473 0.25000814 -0.034140404 -0.066431895 0.08428022 -0.06289924 -0.06379434 -0.062124982 -0.00861791 -0.061679803 0.1034763 -0.033771213 0.011182543 0.057989933 0.095740385 -0.02180781 0.19014916 0.13160658 -0.117635034 0.043555047 -0.15686025 -0.048251133 0.057136398 0.043007866 -0.057380922 -0.118911155 -0.05133934
4 -0.033797897 -0.04447645 0.20301673 0.25868806 -0.1828806 -0.20439732 0.12506828 0.26745003 -0.080031976 -0.06887712 0.29300627 0.027366286 0.07531787 0.02793692 -0.13545385 -0.07258923 -0.01759049 0.10096034 -0.19127475 0.018721802 0.2028513 0.20988855 0.26916277 -0.121108525 0.090056725 0.1415597 -0.13368969 0.11739547 -0.14330916 -0.069172986 -0.062686354 -0.046216346 -0.018888941 -0.18650833 -0.007134243 0.030479996 0.06452931 -0.03125147 0.28003767 0.022966506 -0.0365318 0.05986005 -0.062233683 -0.037652228 -0.10643514 0.00052013237 -0.03837428 0.056287102 -0.04178827 0.017422313 0.086367026 0.10589294 -0.0067939484 0.1886538 0.12824555 -0.09903344 0.06942055 -0.20410904 -0.028680705 0.036977775 0.10220208 -0.08627974 -0.13307326 -0.032562654
