7 64
902 -0.02465243 -0.059028964 0.14486146 0.2598871 -0.1961059 -0.19758269 0.16154702 0.27195498 -0.1279237 -0.056894608 0.24665962 -0.0010704524 -0.028792232 0.121310405 -0.10399204 -0.033910993 0.036156762 0.06718314 -0.22504391 -0.046302583 0.23254941 0.18861996 0.2258169 -0.064390205 0.13595213 0.035439253 -0.117534176 0.1032107 -0.17819105 -0.11773187 -0.120565794 -0.07756456 0.12083561 -0.21008761 -0.031006994 0.035480745 0.13018003 -0.077757254 0.1905369 -0.0253341 -0.11624453 0.075434275 -0.097590744 -0.077310964 -0.08953554 0.011660044 -0.10054263 0.13548264 0.03677952 0.092562914 -0.026395084 0.14695619 -0.005466744 0.11290228 0.1830395 -0.09127208 0.08617141 -0.20084612 -0.023563517 0.114763476 0.053438272 -0.05884695 -0.16039446 -0.07802892
6 -0.028965125 -0.032778416 0.19416054 0.245537 -0.17569162 -0.19308993 0.12735339 0.27727324 -0.06640684 -0.062427253 0.27010188 0.034028035 0.08644301 0.04487153 -0.1515031 -0.06627232 -0.021601753 0.11638167 -0.16961429 -0.0028780876 0.20025535 0.19530435 0.28684258 -0.14169236 0.10449337 0.14316867 -0.123503596 0.11709974 -0.126549 -0.067531005 -0.060903758 -0.030547028 -0.008077382 -0.19998576 -0.010867073 0.034002505 0.056396067 -0.0058095786 0.26597142 -0.021705039 -0.04300652 0.0645179 -0.09716981 -0.059626017 -0.07356698 0.005733627 -0.05894713 0.047475357 -0.0579151 0.05233202 0.060021847 0.12278678 -0.017052323 0.19453046 0.13905627 -0.12066112 0.06452472 -0.19642551 -0.014061387 0.0105983 0.075488545 -0.08438139 -0.14875434 -0.057445496
9 -0.030105565 -0.026430376 0.20542641 0.22398327 -0.16370128 -0.20822848 0.1172809 0.26759678 -0.05348763 -0.037805203 0.27714267 0.050918255 0.09687587 0.036850434 -0.16663499 -0.0591128 -0.03518888 0.1314662 -0.16264576 -0.022827026 0.21152745 0.19238922 0.28888646 -0.15071814 0.104738735 0.14129002 -0.13242173 0.13070494 -0.11666055 -0.05626372 -0.080021046 -0.028291307 -0.001532256 -0.17944331 -0.0127237355 0.017687986 0.07155312 -0.007173723 0.27186 -0.038763236 -0.04401849 0.081292115 -0.113360696 -0.08307994 -0.0645206 0.030844286 -0.058279432 0.043146152 -0.062767595 0.043623947 0.06112703 0.110212624 -0.040898886 0.18574204 0.15454665 -0.12848221 0.06510677 -0.19875538 -0.02284788 0.006264782 0.071890384 -0.10410406 -0.1453088 -0.06995135
5 -0.023846524 -0.053872116 0.17346959 0.2311399 -0.15720643 -0.2041313 0.1086907 0.26199055 -0.07848482 -0.03335887 0.24927174 0.029605836 0.061568078 0.07373896 -0.14196008 -0.041176952 -0.024417939 0.11431531 -0.19191597 -0.03130088 0.23216224 0.18923408 0.26690012 -0.12389933 0.119056426 0.1169182 -0.14263366 0.10807332 -0.1493495 -0.084487736 -0.10125191 -0.064975634 0.054106936 -0.18872416 -0.0033947914 0.03098598 0.082024306 -0.028645406 0.25015023 -0.039079733 -0.07880843 0.0734812 -0.1121339 -0.08058477 -0.07808264 0.032406636 -0.06331032 0.0737359 -0.033467002 0.050491396 0.03398969 0.12551412 -0.019792333 0.15859745 0.16083446 -0.11129648 0.061924927 -0.19420934 -0.023316564 0.04305891 0.054741025 -0.10206478 -0.15779307 -0.07568839
7 -0.03127979 -0.039553598 0.18173611 0.21949594 -0.15840372 -0.20424339 0.13334496 0.25993583 -0.07514656 -0.026234824 0.27810562 0.04798007 0.062231883 0.053099237 -0.14084543 -0.04430866 -0.014130897 0.116732925 -0.17612477 -0.0036145756 0.22263171 0.19491631 0.2647787 -0.13144419 0.10657501 0.110162385 -0.13942613 0.12024714 -0.122623295 -0.07332346 -0.087460615 -0.048946336 0.022853248 -0.1823065 -0.0228408 0.030021826 0.09255397 -0.023624351 0.2719375 -0.020329624 -0.041544285 0.07858595 -0.08650727 -0.0867279 -0.08446681 0.03819437 -0.05977998 0.054846697 -0.038908254 0.034623012 0.057839897 0.11952463 -0.021615535 0.15995449 0.16398013 -0.108678706 0.07081194 -0.20070952 -0.011258071 0.020955117 0.08397848 -0.100483894 -0.15190768 -0.051745098
8 -0.024138793 -0.034057453 0.21067013 0.25626796 -0.1947016 -0.185594 0.13430391 0.270247 -0.061762456 -0.05964027 0.2632079 0.021782922 0.05882967 0.040522993 -0.13851589 -0.044796184 0.0011816428 0.09532056 -0.18971364 0.0016842152 0.2026208 0.19859174 0.28449905 -0.13313591 0.11849441 0.13348669 -0.11019549 0.113768354 -0.1353205 -0.06961064 -0.061382808 -0.029428305 -0.016070547 -0.20604014 -0.025069352 0.022199592 0.06964672 0.002703962 0.2545377 -0.033440683 -0.053226255 0.07893969 -0.08365753 -0.062377404 -0.05872408 -0.005447079 -0.06251733 0.075505316 -0.049497925 0.033003192 0.059479933 0.103579566 -0.02941782 0.20028672 0.1348237 -0.12690674 0.05428493 -0.1755142 -0.037179217 0.03260203 0.056944057 -0.067178294 -0.12794746 -0.058790833
4 -0.02965017 -0.03255671 0.21584979 0.23733808 -0.17201045 -0.2069539 0.10749167 0.25996518 -0.054477192 -0.050019868 0.280042 0.039275523 0.09499063 0.022509338 -0.15630211 -0.062803864 -0.034294173 0.11839745 -0.17620096 -0.011278056 0.20589736 0.19883761 0.28359333 -0.14051577 0.0982914 0.1515591 -0.13101223 0.12702781 -0.13042468 -0.05503308 -0.073726445 -0.0330119 -0.018761223 -0.17589092 -0.0063616484 0.013399389 0.06435674 -0.012440321 0.27383184 -0.018779628 -0.0450043 0.07660609 -0.09562921 -0.061899725 -0.0747737 0.016233074 -0.044621583 0.05145058 -0.0592512 0.02179841 0.07729833 0.095367275 -0.037513416 0.19542643 0.13814515 -0.122027904 0.060805786 -0.19491042 -0.039771423 0.023134114 0.07641209 -0.0989235 -0.13005364 -0.06022336
