7 64
902 -0.007993377 -0.013347437 0.14312872 0.20019601 -0.19117786 -0.16356963 0.16677068 0.24548507 -0.079576984 -0.01750999 0.18050759 0.008017353 -0.058058254 0.14373627 -0.13024428 0.0148005765 0.059209097 0.069581464 -0.18628873 -0.13015474 0.21986082 0.14102064 0.23107348 -0.07918985 0.17940567 -0.012759505 -0.06347372 0.11458524 -0.13300778 -0.096421994 -0.14204334 -0.027999988 0.1558761 -0.20844403 -0.070837855 -0.0061175693 0.16325913 -0.031580664 0.10809553 -0.15618068 -0.15473011 0.12794553 -0.17409319 -0.15343882 0.021262486 0.03023708 -0.159518 0.16414943 0.031536132 0.14979225 -0.112434655 0.1250575 -0.08002562 0.08426582 0.20760939 -0.1391053 0.06623223 -0.13770303 -0.037939943 0.10243144 -0.04213507 -0.02905927 -0.13486733 -0.14844844
9 -0.025995633 -0.031659998 0.17048123 0.22391139 -0.18112913 -0.1988716 0.14982624 0.25548726 -0.08970969 -0.03475715 0.256324 0.027248984 0.007408119 0.08663328 -0.13286735 -0.032874096 0.016714707 0.09168845 -0.19211206 -0.05631549 0.22274487 0.18180805 0.2441229 -0.09609434 0.12874573 0.055227917 -0.11254233 0.12494032 -0.14034182 -0.0852258 -0.116010964 -0.046028465 0.0810621 -0.1871511 -0.039365537 0.011898331 0.12848003 -0.050077118 0.2055268 -0.05166986 -0.09130294 0.09552825 -0.11395888 -0.101207234 -0.059975117 0.030423593 -0.096111566 0.10726879 0.004467564 0.0783571 -0.008012627 0.11995697 -0.042563457 0.12513573 0.1833603 -0.11229309 0.07944984 -0.18998791 -0.030048708 0.07555964 0.049362864 -0.07224648 -0.14232671 -0.085929446
4 -0.029818434 -0.021897422 0.18373598 0.200661 -0.1701868 -0.20600238 0.15938906 0.24983673 -0.07411602 -0.004387993 0.27380538 0.05308242 0.017081289 0.06857623 -0.14080532 -0.020197647 0.014922071 0.105819754 -0.1765114 -0.041192524 0.22856842 0.18324816 0.24890897 -0.11589459 0.1252791 0.055239026 -0.11932275 0.13574417 -0.111799635 -0.07186706 -0.115358196 -0.035643987 0.05944635 -0.17089124 -0.05435667 0.0049855253 0.14022905 -0.03377496 0.22745645 -0.057750836 -0.060890764 0.10904726 -0.101933025 -0.12482602 -0.052077617 0.05406551 -0.08981348 0.085648954 -0.010318601 0.05302631 0.014689906 0.108199544 -0.056454103 0.12439423 0.19344345 -0.1177501 0.07836814 -0.1880999 -0.023209328 0.046033014 0.06088132 -0.08631474 -0.13876873 -0.07531404
7 -0.023365777 -0.051340435 0.16333604 0.21400905 -0.15727536 -0.20716707 0.12726939 0.25069505 -0.08771079 -0.009338338 0.247831 0.033859715 0.020756014 0.0926381 -0.1331253 -0.017969355 -0.0016142839 0.10507203 -0.19995087 -0.04998769 0.24700052 0.18380052 0.24741386 -0.10732444 0.13261396 0.07000351 -0.13909887 0.113849744 -0.14737548 -0.09210435 -0.12794088 -0.07031544 0.09386766 -0.17970705 -0.024902565 0.020516839 0.12326839 -0.04439088 0.22625628 -0.056558505 -0.09272335 0.092856884 -0.114014484 -0.110036634 -0.06859806 0.05175481 -0.08176421 0.09788203 -0.0054324963 0.05698368 0.0058852783 0.124569066 -0.03436469 0.12420234 0.18892714 -0.10937342 0.069867484 -0.19172497 -0.026460744 0.06634171 0.04572438 -0.09906647 -0.15715902 -0.085739926
5 -0.027741084 -0.04855324 0.15308543 0.20383373 -0.15715457 -0.20441186 0.14943227 0.2414416 -0.099224724 -0.0011992527 0.26093778 0.039197065 -0.0049854713 0.09202787 -0.116385214 -0.01194215 0.018430902 0.09367432 -0.19899118 -0.033088144 0.24463345 0.18481624 0.22611798 -0.09309986 0.1265395 0.040649813 -0.13629767 0.11595835 -0.13778627 -0.09479202 -0.12846898 -0.07116321 0.09716227 -0.17127994 -0.041904673 0.021688752 0.14413227 -0.057038933 0.22305095 -0.03704106 -0.076816924 0.094790466 -0.08707555 -0.114097424 -0.07974808 0.057475742 -0.08298958 0.09969783 0.0125481635 0.047477152 0.008525203 0.12309553 -0.028720982 0.10356801 0.1962735 -0.0954515 0.07938729 -0.19404145 -0.017891146 0.07156122 0.064774975 -0.092048444 -0.15264148 -0.066509075
6 -0.023229554 -0.046614192 0.17686918 0.22269015 -0.17434141 -0.1995795 0.14544083 0.25049546 -0.08501203 -0.011130865 0.25416535 0.030314077 0.0031402896 0.08234762 -0.12254951 -0.007981824 0.019778369 0.090268105 -0.20635495 -0.030992037 0.24098763 0.1888042 0.24673663 -0.10495265 0.13645935 0.06339869 -0.12632568 0.114159495 -0.14274333 -0.09042809 -0.116607375 -0.06164039 0.07191674 -0.1874573 -0.04187299 0.016412314 0.13133124 -0.034367505 0.22803618 -0.053941 -0.08274512 0.10077349 -0.0927273 -0.10946414 -0.06250684 0.040556837 -0.08352565 0.10790782 -0.003486017 0.04133791 0.015466066 0.112811185 -0.03820539 0.13244165 0.18325217 -0.11194828 0.066393375 -0.1798634 -0.033618785 0.0693947 0.046111066 -0.08213296 -0.14177418 -0.07401148
8 -0.024560414 -0.036780808 0.18345438 0.20502345 -0.16986781 -0.2117437 0.13509989 0.23369329 -0.07915615 -0.00094745355 0.25756744 0.03670313 0.00030816538 0.07611683 -0.1312027 -0.009237927 0.01230513 0.092828706 -0.20214199 -0.063936815 0.24135032 0.18165773 0.23418425 -0.09456736 0.13217862 0.04753617 -0.1244368 0.12940449 -0.14080828 -0.07924658 -0.13878228 -0.05709952 0.08816181 -0.16150512 -0.04287035 -0.006602614 0.15041235 -0.053147674 0.21029863 -0.062196843 -0.09548508 0.11446627 -0.10941586 -0.121162966 -0.05531141 0.055056654 -0.08632846 0.11629389 0.008696606 0.042967293 0.0019962494 0.09516682 -0.06366671 0.11195677 0.19401464 -0.11247197 0.07253435 -0.18164408 -0.050944835 0.087718666 0.041783687 -0.090314075 -0.12871562 -0.09007581
