7 64
902 -0.006871601 -0.010156405 0.10685515 0.22439316 -0.21650733 -0.13894668 0.1771653 0.23747788 -0.11657487 -0.07884719 0.15848102 -0.03641926 -0.10848986 0.1700953 -0.09989406 -0.014541745 0.0892404 0.02405618 -0.19785967 -0.15749356 0.18321374 0.12823057 0.18787014 -0.015907196 0.17283417 -0.057611097 -0.027623614 0.10670638 -0.16635604 -0.11380189 -0.14057878 -0.028227236 0.19713432 -0.22337855 -0.06764361 -0.004014569 0.16707176 -0.08299105 0.03891824 -0.12601535 -0.19688639 0.10741561 -0.17745705 -0.11038166 0.005895329 -0.017025568 -0.1826519 0.2095459 0.08588373 0.20689592 -0.16880219 0.1379089 -0.060707215 0.055547565 0.19327924 -0.11526877 0.08659365 -0.14324112 -0.04601331 0.17025246 -0.04391875 0.018464088 -0.12552316 -0.15595338
9 -0.018350624 -0.034095813 0.15525152 0.24791904 -0.19019596 -0.17074098 0.15958863 0.28837895 -0.087965 -0.059567317 0.22320251 0.012337333 0.01909413 0.112687774 -0.13731119 -0.03495413 0.022572432 0.09470392 -0.18248211 -0.045155987 0.21159056 0.17534402 0.27383286 -0.11807374 0.1463716 0.07857653 -0.0973013 0.101997286 -0.13765348 -0.098259136 -0.08350348 -0.03613718 0.0734727 -0.23574974 -0.034406696 0.042047508 0.08906809 -0.009913949 0.1995469 -0.0794432 -0.094865 0.07703826 -0.1314856 -0.09230603 -0.038544018 0.0022011783 -0.11287454 0.09802616 -0.02056482 0.11999356 -0.025743233 0.15465668 -0.017595764 0.15541975 0.16728769 -0.12771872 0.06616155 -0.17587668 -0.002044469 0.04227752 0.02311385 -0.049735412 -0.16628845 -0.093846686
8 -0.020632606 -0.019244878 0.18029818 0.21537863 -0.16999196 -0.18887675 0.13757025 0.27364495 -0.056629367 -0.028739402 0.23391588 0.040757164 0.05572087 0.083729886 -0.16506003 -0.03268353 -0.007301192 0.12207315 -0.15948066 -0.063242845 0.2154065 0.17011721 0.28430772 -0.1427193 0.1378917 0.09682184 -0.10766783 0.12211386 -0.11293035 -0.07109306 -0.095502295 -0.02166281 0.05407028 -0.20144065 -0.032004878 0.017880887 0.0922059 0.0021805167 0.21589245 -0.09941843 -0.08038248 0.09499527 -0.14979427 -0.11608749 -0.021231323 0.0325828 -0.1009549 0.07310892 -0.04459858 0.097991176 -0.006927403 0.12895128 -0.052316267 0.15787162 0.17495196 -0.14194217 0.06150342 -0.17449751 -0.0134805925 0.01650848 0.021946289 -0.0788721 -0.15465388 -0.10516951
5 -0.011523098 -0.03431768 0.14245157 0.22023359 -0.17162567 -0.16791604 0.12622985 0.25510126 -0.0794341 -0.044276427 0.18792106 0.0048565743 0.0068289097 0.12019645 -0.13497826 -0.022154277 0.0130630145 0.08792568 -0.1810073 -0.09132413 0.21059711 0.15303633 0.2468138 -0.09688182 0.14934501 0.05801984 -0.09185968 0.099081874 -0.14578693 -0.09354111 -0.11161305 -0.043633904 0.11220481 -0.20777442 -0.024954397 0.020366676 0.1006351 -0.025950968 0.15715468 -0.10467662 -0.13002689 0.08661188 -0.15794344 -0.10223869 -0.020869398 0.014857016 -0.11628321 0.1187242 -0.003225867 0.12595211 -0.057640336 0.13582648 -0.039862636 0.12438602 0.17070292 -0.12517522 0.05971756 -0.1589839 -0.025230506 0.072281145 -0.008900436 -0.054259155 -0.15082775 -0.121839345
6 -0.01776936 -0.042482007 0.14169206 0.23689039 -0.18242475 -0.17073858 0.16365731 0.27578813 -0.09762232 -0.042189647 0.21955241 0.012463457 -0.0057636555 0.12305978 -0.12221353 -0.018177876 0.034074526 0.08609516 -0.1923138 -0.04240007 0.22336338 0.17386243 0.255045 -0.10457432 0.15048441 0.054216906 -0.103268355 0.09696748 -0.14166264 -0.10726475 -0.097488865 -0.05106178 0.09652463 -0.228088 -0.041357964 0.04269454 0.10899195 -0.021525389 0.19312489 -0.076714024 -0.09907289 0.08156336 -0.11912803 -0.10243648 -0.045106295 0.014628923 -0.11387564 0.10972655 -0.0029232043 0.10985896 -0.031623323 0.15439913 -0.014386613 0.13328019 0.17843616 -0.11734337 0.06776319 -0.17372225 -0.0015581569 0.056779202 0.023576893 -0.052143946 -0.16720147 -0.08904572
7 -0.015287733 -0.050228216 0.17229015 0.25615928 -0.1896731 -0.169614 0.14668919 0.27979478 -0.07925001 -0.046538055 0.22204222 0.008567236 0.020580256 0.09424957 -0.12351089 -0.015469559 0.022989593 0.08667197 -0.20087378 -0.011817997 0.22129168 0.18540831 0.27627698 -0.124130405 0.14710625 0.09951815 -0.10725485 0.0889505 -0.14487077 -0.098230705 -0.07466358 -0.04989911 0.04420345 -0.23321381 -0.03131967 0.042787425 0.081276916 0.007302102 0.22502664 -0.06956909 -0.08365537 0.0783304 -0.10026244 -0.08434354 -0.044873264 0.0001527938 -0.08969081 0.099412225 -0.032168243 0.06851568 0.011584688 0.13512927 -0.012570103 0.17403845 0.1515638 -0.12523258 0.04814973 -0.16035526 -0.0168807 0.041210935 0.022001648 -0.055296745 -0.15287061 -0.07539686
4 -0.017445542 -0.03180753 0.16458979 0.22786562 -0.17840901 -0.18316652 0.12626953 0.25647414 -0.077207886 -0.048095595 0.21768264 0.012411128 0.021485137 0.095961444 -0.14012292 -0.034558587 0.0049353465 0.09223187 -0.18420774 -0.078408815 0.21036637 0.16636318 0.25234944 -0.10081592 0.1363537 0.07292812 -0.09988333 0.111655846 -0.14566323 -0.08390196 -0.108433954 -0.040595993 0.08534284 -0.19752768 -0.023405485 0.013143475 0.10105597 -0.032668997 0.1819474 -0.08031821 -0.11386295 0.08815305 -0.14349112 -0.093009785 -0.036578763 0.015255535 -0.10161789 0.10991098 -0.008549864 0.10217936 -0.028839666 0.12276018 -0.04424586 0.13657035 0.16696483 -0.123194754 0.06497752 -0.1718919 -0.034548927 0.07178575 0.01494631 -0.06367923 -0.14216304 -0.108795315
