7 64
902 -0.025117138 -0.023994105 0.15695691 0.20023008 -0.17906155 -0.20776448 0.16048498 0.24016042 -0.09844784 -0.012363631 0.24913995 0.030930346 -0.03237848 0.10967322 -0.13033338 -0.016168796 0.031774044 0.08497339 -0.19481933 -0.101554535 0.23424777 0.16818714 0.2169821 -0.07137507 0.13987337 -7.821084e-05 -0.10627274 0.13675304 -0.14090838 -0.08945827 -0.15543224 -0.049865935 0.13946125 -0.16881923 -0.05583101 -0.0075422474 0.1747349 -0.07929659 0.16519897 -0.07786718 -0.121295124 0.119164646 -0.13840543 -0.13737117 -0.04728599 0.055533964 -0.122990966 0.13976005 0.041179873 0.099596955 -0.05482399 0.11405009 -0.065067366 0.073015936 0.21077996 -0.10608107 0.09027488 -0.1856858 -0.03803307 0.1092492 0.0327055 -0.06986329 -0.13610266 -0.10848509
9 -0.016971799 -0.038104855 0.19816568 0.23258246 -0.18840635 -0.17306744 0.16980678 0.2721429 -0.05744505 -0.003331749 0.24143569 0.03542695 0.011855217 0.073534295 -0.12675957 0.018106332 0.039631087 0.092807725 -0.1951933 0.011269659 0.23515567 0.19152616 0.2864033 -0.14791436 0.15840375 0.09120288 -0.10864224 0.10286908 -0.11461536 -0.086649165 -0.076802246 -0.036407907 0.016353806 -0.22654912 -0.06478914 0.029110836 0.11101313 0.03624303 0.25159514 -0.090954274 -0.052119706 0.108104944 -0.07865838 -0.12233786 -0.02299364 0.02483785 -0.08928756 0.091231026 -0.04645671 0.029959772 0.036613304 0.11525953 -0.039632265 0.1799588 0.17132245 -0.14225969 0.042045627 -0.14794406 -0.019591635 0.015488719 0.023456896 -0.062377293 -0.14178964 -0.06575812
6 -0.018382033 -0.031895064 0.20062312 0.20994268 -0.1779162 -0.1861426 0.15886684 0.25235 -0.05285808 0.014056366 0.24523394 0.04445562 0.0075403536 0.06728576 -0.13152425 0.021246338 0.03190273 0.095801115 -0.19157615 -0.015231689 0.23927636 0.1848072 0.2699175 -0.1374208 0.1530023 0.07357734 -0.11191985 0.115144275 -0.11097672 -0.07673315 -0.09986907 -0.036860287 0.033440325 -0.19661139 -0.06579597 0.008584135 0.13151382 0.017521475 0.23805282 -0.09555576 -0.060448654 0.121269904 -0.089044616 -0.13673928 -0.02019852 0.044933837 -0.088685185 0.09727573 -0.033726837 0.023006164 0.028420672 0.09667498 -0.060816575 0.15462716 0.18138579 -0.13774692 0.04668236 -0.14805831 -0.033692952 0.030577123 0.022235028 -0.07379172 -0.1286151 -0.07535337
5 -0.012484717 -0.051007397 0.19246663 0.22932902 -0.17750709 -0.1805692 0.14066511 0.26067895 -0.05855004 0.002965509 0.22436498 0.026986808 0.012630774 0.083021745 -0.12728608 0.023033269 0.02455262 0.09345563 -0.20861231 -0.014295642 0.24811614 0.18702902 0.27911615 -0.13803898 0.16261214 0.093020365 -0.11958725 0.096954554 -0.13521922 -0.09121219 -0.097820185 -0.05520134 0.04465313 -0.21562873 -0.047198985 0.022878122 0.111218646 0.022932682 0.24020022 -0.100904465 -0.08148395 0.109818235 -0.097631834 -0.12355962 -0.025280396 0.033080336 -0.08596824 0.106647775 -0.038733836 0.028766664 0.024803499 0.11143943 -0.044228952 0.17049772 0.17424981 -0.14011939 0.036825903 -0.14718343 -0.035701655 0.038749017 0.0064210678 -0.07568163 -0.14285882 -0.08346274
7 -0.02116457 -0.041406367 0.16305993 0.20284739 -0.1666041 -0.19339983 0.15920483 0.24678971 -0.083622396 0.009772562 0.24331537 0.038276695 -0.015324876 0.09876873 -0.12130336 0.01092166 0.03278654 0.091648586 -0.19870433 -0.03976991 0.24793227 0.17948243 0.24137887 -0.106760964 0.14854328 0.037650693 -0.12177998 0.113569126 -0.12888119 -0.09416537 -0.12599713 -0.059003323 0.09397946 -0.18771823 -0.057460718 0.016358295 0.14942715 -0.027930968 0.21331671 -0.07949653 -0.08493481 0.11213771 -0.10087772 -0.13712406 -0.045669086 0.056141905 -0.10025531 0.11253791 0.0026828707 0.053623114 -0.0055308314 0.11911655 -0.044747073 0.11264505 0.19953772 -0.11524959 0.06623874 -0.17023355 -0.022282936 0.062436376 0.032981593 -0.07902795 -0.14733142 -0.081453666
8 -0.012435704 -0.04445158 0.20702119 0.2374982 -0.19717288 -0.167583 0.1706584 0.26381642 -0.054101977 0.0059076645 0.23110785 0.026613882 -0.009758996 0.071915895 -0.1132034 0.040161308 0.054982845 0.07703717 -0.21185452 0.018255359 0.24034044 0.19220479 0.28017986 -0.14087209 0.16890204 0.08376302 -0.10304318 0.0946681 -0.121258885 -0.089724876 -0.07823111 -0.04205049 0.013169286 -0.22843984 -0.07299549 0.022765707 0.12002967 0.044214964 0.24623966 -0.09936448 -0.05910029 0.117662914 -0.064668566 -0.1254569 -0.014018027 0.020610642 -0.08786058 0.1109398 -0.04084722 0.008247104 0.039262753 0.10000368 -0.04543633 0.1808564 0.16700435 -0.14356916 0.03069822 -0.12859985 -0.035767514 0.030573985 0.0077598104 -0.05319383 -0.12688397 -0.06408313
4 -0.020148002 -0.037846208 0.1908028 0.22259404 -0.185041 -0.1919132 0.15303569 0.2492259 -0.07208225 -0.00695087 0.24739072 0.029446097 -0.0047402373 0.07583867 -0.123232976 0.004627168 0.03158674 0.08405105 -0.20468642 -0.031245185 0.23558566 0.18574736 0.2522734 -0.11026825 0.14540842 0.061134666 -0.111830056 0.115639724 -0.13406293 -0.0843027 -0.11079466 -0.048304725 0.057494834 -0.19242816 -0.054788824 0.007099801 0.1356126 -0.01661503 0.22086856 -0.074014336 -0.08202158 0.11270417 -0.09285264 -0.11836521 -0.040546387 0.035165306 -0.09012339 0.11573558 -0.008866067 0.036504712 0.013163351 0.099668436 -0.052483454 0.13928337 0.17900863 -0.122700185 0.057784263 -0.16094033 -0.042550713 0.06625443 0.029837355 -0.06946233 -0.12740462 -0.07840579
