7 64
902 -0.03318666 0.006948608 0.23407613 0.20663737 -0.19685085 -0.23429132 0.12962 0.23645937 -0.062437247 -0.03630271 0.281528 0.040802985 0.025160931 0.05205879 -0.17493105 -0.056218244 -0.007697075 0.103914656 -0.1786136 -0.14069346 0.2103291 0.17367801 0.24400367 -0.08736111 0.11796134 0.046547018 -0.09562363 0.17661934 -0.13471967 -0.04506372 -0.1539249 -0.010825732 0.08316116 -0.13983019 -0.041358158 -0.053035967 0.15958136 -0.08158339 0.17455223 -0.07710852 -0.11990618 0.13309294 -0.16878738 -0.11915386 -0.0310576 0.044653878 -0.10594505 0.12490907 0.01432158 0.09076242 -0.03099887 0.06993487 -0.11875957 0.11148273 0.19840081 -0.1336334 0.094317354 -0.19846955 -0.08480424 0.11166664 0.03809474 -0.07531206 -0.0927406 -0.12735511
4 -0.036976706 -0.009641351 0.18841273 0.15623869 -0.12617569 -0.22577633 0.13113026 0.2401816 -0.046779413 0.026046043 0.291602 0.09494241 0.08396077 0.038876295 -0.17437185 -0.036484037 -0.036343683 0.15269607 -0.13109165 -0.043236505 0.22730318 0.17606871 0.26021764 -0.1527549 0.098620705 0.08927745 -0.14529969 0.15192448 -0.07325217 -0.04308361 -0.115890585 -0.023953304 0.034242496 -0.12911536 -0.03740145 -6.36157e-06 0.12127234 -0.021706626 0.2623942 -0.05587262 -0.02162006 0.10540271 -0.11629915 -0.13936539 -0.05409827 0.09368466 -0.065139376 0.022163864 -0.04863266 0.036537252 0.048811346 0.10183355 -0.0683876 0.12614083 0.19747145 -0.12110137 0.079463415 -0.20309506 -0.004430544 -0.013575876 0.084706016 -0.13210149 -0.14761728 -0.071222074
9 -0.038049858 0.0035968993 0.20656154 0.13672024 -0.12322683 -0.22829711 0.13044326 0.2246441 -0.028437927 0.04455354 0.29689524 0.10800461 0.0855152 0.017897094 -0.17962971 -0.026639389 -0.036037646 0.15474714 -0.12026844 -0.04643103 0.22290489 0.1718936 0.25665593 -0.15824623 0.09520771 0.08471414 -0.13939038 0.16342694 -0.05464412 -0.026184632 -0.118928745 -0.0098621175 0.016415916 -0.10902592 -0.0493564 -0.01941346 0.13372847 -0.013621133 0.26249537 -0.066057764 -0.00963903 0.12193828 -0.11273218 -0.15428144 -0.038647108 0.105479024 -0.06173141 0.018120565 -0.05400582 0.016277393 0.058657154 0.077134505 -0.092771575 0.122885354 0.1996057 -0.12752509 0.07629682 -0.19268264 -0.016532056 -0.020400114 0.08280746 -0.13531154 -0.12802283 -0.071463734
6 -0.031366266 -0.03270196 0.15678126 0.1241622 -0.074991815 -0.22131592 0.09421372 0.22626522 -0.035339758 0.064904675 0.26319122 0.10958763 0.11527495 0.044661988 -0.1731371 -0.016758056 -0.06771549 0.176298 -0.11820291 -0.023348007 0.24596256 0.16643272 0.2598544 -0.17637402 0.09579687 0.11532563 -0.17772092 0.12696114 -0.06341095 -0.046980336 -0.11634188 -0.05007279 0.04069099 -0.11377663 -0.014197687 0.021077039 0.095690094 0.0018026762 0.28741008 -0.06378564 -0.006344273 0.09041836 -0.1126784 -0.14870305 -0.05975872 0.12398921 -0.04040786 -0.014303043 -0.07555793 0.010141081 0.07180026 0.11257297 -0.047487583 0.12371682 0.19419768 -0.113763936 0.060348652 -0.19539909 0.018867731 -0.05505956 0.0793155 -0.17084503 -0.17372987 -0.06488661
8 -0.037407413 -0.022477193 0.1640187 0.12548427 -0.09207206 -0.22790559 0.12692498 0.22711442 -0.04684872 0.066191696 0.29063857 0.11512634 0.08656929 0.042194534 -0.16601 -0.015319543 -0.042951796 0.16554277 -0.12413855 -0.018547535 0.24687375 0.17452028 0.2496827 -0.16339701 0.09548267 0.08403423 -0.17039077 0.14229682 -0.057983562 -0.047554463 -0.12274462 -0.042863213 0.042937107 -0.11196216 -0.038362127 0.01278448 0.12774049 -0.015085433 0.2850148 -0.050878692 0.00214637 0.10321506 -0.095796846 -0.15826252 -0.065834016 0.12652797 -0.050984886 -0.0011872995 -0.05451695 0.008402288 0.0686883 0.10811971 -0.055447087 0.1091682 0.20954 -0.10944527 0.0756905 -0.20424226 0.01723466 -0.039534 0.097595714 -0.16046481 -0.16620381 -0.0552158
7 -0.031637605 -0.01728734 0.19164678 0.15142089 -0.1252798 -0.21690328 0.12825264 0.22565146 -0.039222553 0.044591334 0.27747646 0.09078817 0.06530329 0.034725837 -0.15928322 -0.008725238 -0.023090769 0.13964835 -0.14369299 -0.02925377 0.23469476 0.1755038 0.25316283 -0.15050729 0.1083353 0.08378329 -0.14342764 0.14141665 -0.07455325 -0.04524717 -0.116614215 -0.03152489 0.028226601 -0.12729783 -0.04617182 -0.0045293705 0.12967643 -0.008153744 0.2623041 -0.06577184 -0.021988833 0.11536075 -0.09802918 -0.14705917 -0.04474565 0.095940895 -0.0599912 0.03557824 -0.047513798 0.0066649388 0.057782765 0.08565338 -0.072959505 0.12610485 0.19361678 -0.121595904 0.06541492 -0.18173942 -0.016846167 -0.0071648667 0.07008389 -0.12931582 -0.13559404 -0.06660197
5 -0.03572447 -0.015945422 0.19147311 0.14680888 -0.11554922 -0.23081127 0.103285894 0.21653327 -0.04230664 0.031792197 0.28462335 0.0907764 0.08639923 0.026132053 -0.1691484 -0.03539627 -0.04922752 0.14759713 -0.13780978 -0.053235 0.22748178 0.17282756 0.24351531 -0.1393979 0.08918331 0.09193629 -0.15131493 0.15077023 -0.08394797 -0.036805466 -0.12764487 -0.034633446 0.03723496 -0.10437069 -0.024698304 -0.013464462 0.122050144 -0.036287043 0.2567574 -0.045771137 -0.03139291 0.10612092 -0.11315643 -0.13051765 -0.061440248 0.098604865 -0.04934299 0.028565353 -0.041617796 0.013850412 0.056575045 0.08059957 -0.07612992 0.117220595 0.18986867 -0.11229339 0.07543308 -0.19988051 -0.025744712 0.0068253917 0.08315249 -0.14339812 -0.13287424 -0.07340492
