7 64
902 -0.024158789 -0.01763883 0.12814808 0.17705618 -0.15147975 -0.20821501 0.14777629 0.251656 -0.096854694 -0.00796545 0.23146917 0.043677863 -0.003090861 0.13842665 -0.1588161 -0.029906716 0.004411742 0.117258914 -0.16647847 -0.14100659 0.23876809 0.15195978 0.23075806 -0.089335635 0.13966049 0.0021917457 -0.11040701 0.13603465 -0.12523872 -0.08079935 -0.15420559 -0.03863969 0.165521 -0.15270032 -0.03789063 -0.0010661191 0.14935668 -0.07359084 0.12984756 -0.1013681 -0.12532349 0.101460434 -0.17643586 -0.13967793 -0.027013125 0.06636665 -0.128421 0.10657959 0.029162874 0.14756513 -0.08838267 0.13465153 -0.06460127 0.055103302 0.21393727 -0.10934325 0.091109686 -0.18481751 -0.01163828 0.078901544 0.016030146 -0.07907976 -0.15584092 -0.13205491
9 -0.022592466 -0.06708315 0.09273339 0.19148771 -0.11871183 -0.18058111 0.14111756 0.25901172 -0.11083511 0.0012281813 0.21931462 0.039761234 0.016250081 0.13691701 -0.11511495 -0.012613284 0.0028534234 0.11464369 -0.17563543 -0.019180298 0.24869508 0.16890813 0.23351783 -0.11273023 0.13190468 0.05359339 -0.15135694 0.08175552 -0.12940988 -0.1186098 -0.113680325 -0.08928182 0.1300755 -0.19827333 -0.020611944 0.07150826 0.10496727 -0.03500992 0.22571385 -0.050298937 -0.07238001 0.059825987 -0.10415996 -0.11448513 -0.08434289 0.06407934 -0.088826776 0.06396973 -0.007139801 0.09098981 -0.010017154 0.18217015 0.02025596 0.10080261 0.19681482 -0.089323744 0.0734301 -0.19837233 0.04138521 0.022092398 0.056715287 -0.10174108 -0.2071188 -0.06593684
6 -0.025121382 -0.05117945 0.11357615 0.17551143 -0.11833881 -0.19265676 0.13814192 0.24986295 -0.09473487 0.01423186 0.23246472 0.054329365 0.025338473 0.11839598 -0.13057362 -0.012877738 -0.0047806613 0.123629525 -0.16497251 -0.037577707 0.24703276 0.16661596 0.23556185 -0.118822694 0.1274725 0.05129871 -0.1484241 0.10102987 -0.11532996 -0.10026004 -0.123619065 -0.07379957 0.120003745 -0.17665923 -0.02770607 0.048620705 0.11828871 -0.035767924 0.22428879 -0.061517105 -0.06857612 0.07744227 -0.11556227 -0.13041532 -0.07116126 0.07810405 -0.08928209 0.060893748 -0.010994134 0.08325429 -0.007233764 0.1617047 -0.008946543 0.0972461 0.20537303 -0.09885583 0.07627298 -0.19840233 0.027252998 0.020179123 0.056555916 -0.110468335 -0.19264488 -0.07571707
7 -0.01833426 -0.08309987 0.08410961 0.17191361 -0.08554953 -0.18211645 0.1068204 0.24757728 -0.09727759 0.028196998 0.19889529 0.048546225 0.04346345 0.13544454 -0.11872678 0.00106798 -0.024652075 0.13211958 -0.16983904 -0.012784091 0.26281786 0.16278537 0.23689643 -0.13053073 0.13398035 0.07993551 -0.17784043 0.06896931 -0.1297385 -0.12092714 -0.121677354 -0.10959441 0.13545468 -0.19020925 -0.001560755 0.08084316 0.08994975 -0.01915712 0.25131074 -0.062730186 -0.06971113 0.055461638 -0.11083095 -0.12420738 -0.08662991 0.087142915 -0.071425974 0.043934397 -0.02916593 0.06979515 0.007959092 0.18618372 0.02653576 0.106818296 0.19823623 -0.09115646 0.058896728 -0.19612758 0.047685515 -0.0013307572 0.04863929 -0.13252528 -0.22237276 -0.06809978
5 -0.024614124 -0.074197315 0.08965346 0.17683445 -0.105577014 -0.19015208 0.13785793 0.24621293 -0.11357567 0.023731004 0.2273779 0.049265575 0.009809298 0.13390222 -0.10858402 -0.0012240735 0.0011024247 0.116577625 -0.18049668 -0.012681246 0.2624035 0.17135923 0.22117881 -0.10900195 0.12912759 0.043689713 -0.16660944 0.08328706 -0.1288517 -0.12089497 -0.12884437 -0.10343771 0.14072658 -0.18305723 -0.023015888 0.06933813 0.12192409 -0.04499735 0.23850992 -0.042434078 -0.066017605 0.06522342 -0.091192275 -0.1251619 -0.09576065 0.08423067 -0.07996182 0.062353127 -0.00026064765 0.06812207 0.0011671 0.17636503 0.019197213 0.086126864 0.2077819 -0.080848105 0.0752697 -0.20294042 0.04042006 0.025691867 0.06709576 -0.117324494 -0.20764266 -0.057670172
8 -0.017997665 -0.06967775 0.10532386 0.1959563 -0.12755156 -0.17804284 0.14245574 0.25704026 -0.103355646 0.011285102 0.21087489 0.035040352 0.0027553577 0.1370974 -0.11146474 0.007526138 0.013738015 0.10688837 -0.18861662 -0.019530952 0.2571562 0.17036529 0.2383943 -0.114796355 0.1470958 0.05167949 -0.14748187 0.0791075 -0.1344635 -0.120331295 -0.11735604 -0.09063533 0.12809764 -0.2046027 -0.029101469 0.06431243 0.11379144 -0.022419855 0.22359422 -0.06977387 -0.081561886 0.07310069 -0.10284176 -0.12502801 -0.069383636 0.0631811 -0.092655495 0.08115644 -0.0076981597 0.07814535 -0.011217411 0.1712833 0.009145757 0.10657203 0.19806074 -0.098434426 0.06291178 -0.18240641 0.027129056 0.030452326 0.037471484 -0.096110396 -0.19767748 -0.07215761
4 -0.02388571 -0.068052106 0.11304888 0.19075017 -0.118929885 -0.19916198 0.12190727 0.24877305 -0.10417497 0.0065141614 0.23113611 0.042302072 0.026155448 0.12065238 -0.1233123 -0.015916526 -0.012292063 0.11838827 -0.18505636 -0.035187524 0.2561252 0.17399667 0.23300038 -0.10947717 0.1270704 0.062419802 -0.16110402 0.09380637 -0.14037772 -0.10980052 -0.1303926 -0.09406265 0.12858273 -0.17944203 -0.012391479 0.053024814 0.11296619 -0.048653197 0.23322853 -0.04665184 -0.08194728 0.06957091 -0.11065313 -0.11433966 -0.089285426 0.072572 -0.07814528 0.070892625 -0.0052622375 0.07171097 0.00031117367 0.16187997 0.001998285 0.10161658 0.19910124 -0.09099892 0.07385527 -0.20430727 0.016581638 0.04012096 0.058497313 -0.11711329 -0.19456175 -0.07383569
