7 64
902 -0.021976149 -0.0005642723 0.18042493 0.27105108 -0.25605983 -0.1697679 0.1977196 0.2657409 -0.10790984 -0.10731602 0.24451064 -0.021602191 -0.064169265 0.10040511 -0.114163704 -0.050368216 0.08051085 0.032217134 -0.21036173 -0.09452601 0.17655046 0.1755184 0.22873348 -0.043384135 0.14431155 0.0021134699 -0.038806207 0.13574252 -0.16225034 -0.09019141 -0.103553005 -0.007241457 0.089757755 -0.22671333 -0.0717094 -0.0111007085 0.15145487 -0.07448041 0.12197322 -0.06019803 -0.13856271 0.10717441 -0.12610385 -0.07539058 -0.030556453 -0.039569303 -0.14644808 0.18173333 0.054309253 0.14371005 -0.07723014 0.110077076 -0.062029548 0.12132643 0.17028575 -0.12089554 0.09501864 -0.17255422 -0.06353578 0.15032026 0.020830423 0.011261858 -0.10365351 -0.10966223
9 -0.03273779 -0.024350839 0.14925994 0.21195187 -0.16779387 -0.19482462 0.17655264 0.27398285 -0.09699432 -0.030926127 0.27111736 0.04811032 0.021705436 0.09603044 -0.13944304 -0.043844957 0.016628237 0.111129075 -0.16376774 -0.032513745 0.21879268 0.18125986 0.25201148 -0.11549887 0.121218376 0.05307402 -0.1189849 0.12623838 -0.11142821 -0.08768789 -0.09953027 -0.036674235 0.076086566 -0.19601858 -0.047201995 0.036471985 0.12085615 -0.03973258 0.22358142 -0.042152017 -0.055840205 0.08207609 -0.107476294 -0.109759815 -0.06829137 0.04117581 -0.1015537 0.06915913 -0.008389189 0.09925296 -0.0029948 0.15194766 -0.02083807 0.12243504 0.19360891 -0.108709246 0.09160253 -0.20743832 0.016173903 0.028852062 0.07638775 -0.07730928 -0.17149514 -0.068493545
7 -0.035500415 -0.030370917 0.13359836 0.14201094 -0.10219751 -0.21403103 0.15127605 0.2474645 -0.07557234 0.048577797 0.272597 0.09805847 0.054549772 0.089736775 -0.15492712 -0.015102235 -0.019935628 0.15508455 -0.13256043 -0.028334828 0.25044346 0.16948342 0.24474768 -0.14800242 0.11279385 0.05467734 -0.16183451 0.1285719 -0.07217295 -0.07496167 -0.12544669 -0.052607473 0.090716295 -0.14532593 -0.043003336 0.036099732 0.13274512 -0.025759898 0.25670886 -0.06018969 -0.0217911 0.091964975 -0.108736016 -0.15898108 -0.067131676 0.114176616 -0.07949734 0.018445186 -0.032064598 0.060302325 0.023339117 0.14778337 -0.030879473 0.09217049 0.22112283 -0.10418218 0.08457614 -0.20906276 0.04121676 -0.025657939 0.08616542 -0.13618968 -0.18950081 -0.062411737
6 -0.022737682 -0.037464608 0.14715236 0.20286478 -0.15570146 -0.19487606 0.14033797 0.25447828 -0.08718849 -0.014278844 0.23552743 0.03607769 0.015945327 0.10597173 -0.13796148 -0.022118758 0.0054580877 0.1070191 -0.17918263 -0.064264454 0.23310748 0.17013891 0.24475971 -0.107560754 0.13489817 0.053651087 -0.12310342 0.114922926 -0.13109054 -0.09060291 -0.12307753 -0.05437217 0.10547206 -0.18501326 -0.032924265 0.023366328 0.122875504 -0.03991387 0.2021065 -0.07308128 -0.09319594 0.091258824 -0.13018137 -0.1183012 -0.051868122 0.049738985 -0.09973373 0.09269137 -0.0036816841 0.091643006 -0.020860497 0.13700245 -0.035982445 0.11297434 0.19336663 -0.11328317 0.074706234 -0.18741095 -0.009909834 0.05397975 0.037020735 -0.085996106 -0.16252175 -0.0948266
8 -0.03146852 -0.04401643 0.12923282 0.18970974 -0.13987985 -0.20417449 0.16862948 0.26402363 -0.10454416 0.008878004 0.26574627 0.060006917 0.01226709 0.11449065 -0.13206796 -0.017812604 0.011789446 0.120933026 -0.17324038 -0.028539835 0.25143397 0.18109591 0.24180587 -0.11753798 0.12927967 0.039423447 -0.14684156 0.11682274 -0.11416128 -0.10095203 -0.123772696 -0.06617701 0.11161794 -0.18392554 -0.045259006 0.045327406 0.13813743 -0.04462956 0.23559073 -0.04883172 -0.05758235 0.08588019 -0.10226031 -0.13410316 -0.07855549 0.07561555 -0.096024655 0.06691137 -0.002036875 0.08142436 -0.0015586067 0.16141315 -0.013056034 0.098637894 0.21548082 -0.09961557 0.0887097 -0.21049194 0.027099976 0.026637895 0.07628013 -0.1036159 -0.19093671 -0.06656895
5 -0.030986156 -0.027011229 0.16025364 0.20031239 -0.16313247 -0.19491266 0.1785421 0.26309946 -0.08571468 -0.0034623349 0.27204093 0.056996536 0.013520363 0.08549218 -0.1331407 -0.018381823 0.02414976 0.10931124 -0.16856611 -0.015966704 0.22996381 0.18365963 0.25109705 -0.12352776 0.12747405 0.0506421 -0.12350233 0.12443398 -0.1021389 -0.08437525 -0.10188111 -0.0396113 0.0634959 -0.18831867 -0.05933753 0.0303282 0.13324293 -0.024038417 0.23667176 -0.05149071 -0.04376737 0.095905066 -0.08973816 -0.12644891 -0.06006175 0.05456411 -0.09463566 0.070044056 -0.014149261 0.065463014 0.014767982 0.13557029 -0.03024908 0.12290781 0.19655985 -0.111719914 0.08098608 -0.19235006 0.009438247 0.021415146 0.071554795 -0.08247101 -0.16102238 -0.05994388
4 -0.029387372 -0.0381582 0.14804888 0.19451773 -0.15012197 -0.20478615 0.14422289 0.24312423 -0.09432374 -0.0075134677 0.25908595 0.045203313 0.012703942 0.091428585 -0.1298378 -0.027209468 0.005337104 0.10517178 -0.17959888 -0.048942566 0.23367532 0.17675081 0.2287367 -0.09807462 0.11882347 0.04487267 -0.13261238 0.121993884 -0.12717073 -0.08651483 -0.12649778 -0.059593383 0.09832671 -0.1647907 -0.035747282 0.020114597 0.1346271 -0.058283128 0.21491845 -0.041368954 -0.07501892 0.08992596 -0.10539553 -0.1134891 -0.07431639 0.059392463 -0.086221226 0.084970005 0.0061006537 0.06819213 -0.00063110364 0.12791541 -0.032636844 0.10092513 0.19581714 -0.098102264 0.084274404 -0.19959927 -0.009847648 0.05885474 0.066119425 -0.09514025 -0.15685193 -0.07494067
