7 64
902 -0.012231066 0.0028505684 0.12818782 0.24704628 -0.2218941 -0.13568205 0.17540632 0.274182 -0.09987756 -0.11450042 0.18291903 -0.023940893 -0.03506249 0.14547615 -0.13569842 -0.058144197 0.05906027 0.057552584 -0.169811 -0.12855463 0.16306223 0.14271234 0.24394868 -0.06542758 0.15652834 0.013147487 -0.029309083 0.114034764 -0.14573458 -0.097460665 -0.09263153 0.0019898855 0.12648134 -0.24956852 -0.05136153 0.016162375 0.10947422 -0.045246094 0.08764166 -0.112610236 -0.15641868 0.08445605 -0.18598457 -0.0846444 0.0028610718 -0.040018674 -0.1706943 0.15448587 0.029996486 0.22085926 -0.12910827 0.1568862 -0.04503655 0.11799709 0.16815244 -0.13407011 0.085854895 -0.16172144 -0.019897446 0.10427064 -0.019062426 0.013672462 -0.14325538 -0.14365943
9 -0.0282431 -0.0013938416 0.16692065 0.22598663 -0.19253406 -0.18541612 0.16707537 0.2762175 -0.081548214 -0.06725908 0.25171313 0.029861724 0.028585738 0.08902518 -0.15563194 -0.06440515 0.014170575 0.10215917 -0.15273821 -0.07709384 0.18668196 0.16722657 0.25896835 -0.10753595 0.122394875 0.059140544 -0.083230555 0.13589889 -0.114631094 -0.07179255 -0.0924059 -0.0057153916 0.067452975 -0.20142369 -0.042875066 0.01393159 0.106979735 -0.037904847 0.18131377 -0.067049265 -0.08452836 0.086743206 -0.14609414 -0.095765434 -0.036139153 0.010656898 -0.118350744 0.08689578 -0.0094925035 0.13720846 -0.035163164 0.13626404 -0.047417063 0.13445158 0.17583044 -0.12625414 0.089314476 -0.19295889 -0.009073115 0.046809454 0.046128027 -0.050827164 -0.1477164 -0.10048184
6 -0.036900423 0.009296314 0.20157585 0.19943674 -0.18185183 -0.21718828 0.16720201 0.26201606 -0.06259316 -0.026890943 0.2936914 0.06514882 0.04614112 0.05074556 -0.16994962 -0.05613981 -0.00048097747 0.12144992 -0.14388469 -0.07019523 0.20093514 0.17666306 0.2590393 -0.12343937 0.108637504 0.061863035 -0.10257056 0.1626841 -0.090569384 -0.047955744 -0.10868948 0.00052066386 0.041075606 -0.15968296 -0.054480195 -0.011327167 0.13302933 -0.039893024 0.21628761 -0.05891112 -0.052495066 0.11043648 -0.13034134 -0.12133369 -0.040156025 0.048659787 -0.098528504 0.066173926 -0.019571643 0.08589589 0.0049370904 0.10323737 -0.07813472 0.12859215 0.19182731 -0.12843573 0.09329836 -0.20137276 -0.022107026 0.031378865 0.07190237 -0.08277175 -0.13072968 -0.08833648
5 -0.026002834 -0.013782571 0.16442797 0.21777111 -0.17723276 -0.19598342 0.14544323 0.2686661 -0.07972224 -0.050089233 0.24445756 0.03235891 0.035869416 0.09327491 -0.1581908 -0.05548033 -0.0016280084 0.110329635 -0.16077112 -0.08741 0.20415129 0.1665141 0.25729707 -0.109208 0.12506162 0.0653056 -0.10066334 0.13198844 -0.12463337 -0.074643955 -0.10961089 -0.023337355 0.08517951 -0.18973784 -0.030326286 0.0119495 0.10833827 -0.042491503 0.18690927 -0.07371155 -0.096072316 0.08859779 -0.15457055 -0.10274197 -0.040216696 0.027134083 -0.10980396 0.08788135 -0.010393272 0.1251166 -0.033043064 0.13379513 -0.049755134 0.1279219 0.18186453 -0.124511376 0.083809614 -0.19403431 -0.01576061 0.05224763 0.03863846 -0.07070534 -0.15283805 -0.10841603
7 -0.036622096 -0.0115231415 0.17518725 0.20247447 -0.16937608 -0.21870995 0.16659681 0.26671022 -0.08353166 -0.021969426 0.28927967 0.060893208 0.036801033 0.0741057 -0.15696888 -0.051468477 -0.00039173834 0.12150358 -0.15687461 -0.058740385 0.21843047 0.18048193 0.25113723 -0.11646034 0.11162938 0.05533346 -0.12132896 0.1480332 -0.10548686 -0.06822593 -0.11624584 -0.026486048 0.07043782 -0.16712375 -0.04551161 0.009812359 0.13326553 -0.05191744 0.22368948 -0.045590196 -0.057852346 0.097273044 -0.1221319 -0.118667364 -0.06289983 0.05600534 -0.09591259 0.06704188 -0.009158658 0.0884933 0.0019732872 0.12684871 -0.05129529 0.11674702 0.19987562 -0.11426636 0.096342824 -0.21294928 -0.005361982 0.03642271 0.079767704 -0.09228719 -0.15430091 -0.08042096
8 -0.019928033 -0.0011556275 0.17372368 0.23811036 -0.21471304 -0.1656318 0.17414455 0.2675797 -0.078303546 -0.073171854 0.2274121 0.00747788 -0.009361932 0.09458413 -0.13811158 -0.041492958 0.044614248 0.0725834 -0.17198654 -0.08104802 0.18107952 0.16299321 0.25213292 -0.09162355 0.14145567 0.04158954 -0.057951998 0.1262703 -0.12616864 -0.07741405 -0.0899642 -0.0020350844 0.06852189 -0.21723534 -0.058138784 0.0037343765 0.11780782 -0.027912097 0.15239556 -0.088427976 -0.1067239 0.099676155 -0.14054847 -0.096055776 -0.01271448 -0.010698846 -0.13157411 0.12536635 0.0040134806 0.13446473 -0.053488243 0.1205229 -0.058130138 0.13657025 0.16713025 -0.1332492 0.07672455 -0.16299163 -0.032211598 0.07584263 0.013807302 -0.02030017 -0.12517144 -0.109055094
4 -0.029726863 -0.004005425 0.18163985 0.22887543 -0.19734669 -0.2001732 0.15684445 0.2667509 -0.08219555 -0.064822786 0.2635186 0.028255925 0.0252254 0.078107916 -0.15548083 -0.0654157 0.009400844 0.0981609 -0.16671832 -0.0877004 0.19351797 0.17322001 0.25223407 -0.09677311 0.11855265 0.057486795 -0.08913462 0.14466818 -0.12756537 -0.06790721 -0.107584015 -0.012622431 0.07034772 -0.18640001 -0.03945028 -0.0013345092 0.1195834 -0.055687908 0.1831125 -0.05769501 -0.09446264 0.09498232 -0.1443757 -0.09335746 -0.04459052 0.014999918 -0.110781364 0.100146964 0.0008606367 0.11969736 -0.028848814 0.11889596 -0.059993077 0.1299773 0.17845207 -0.12318371 0.09195824 -0.1980799 -0.031430703 0.0715613 0.050137557 -0.05879187 -0.13499409 -0.103501424
