7 64
902 -0.012364392 -0.004347184 0.17988224 0.24873637 -0.22079039 -0.17254573 0.15122265 0.2743655 -0.07276541 -0.07915208 0.2032647 -0.0058078947 -0.0041536917 0.113445505 -0.15541227 -0.04006297 0.030899584 0.07803526 -0.18399085 -0.13116938 0.1948596 0.15873122 0.27038577 -0.09365074 0.16186526 0.050652076 -0.05725717 0.1286896 -0.15049143 -0.08207745 -0.11261964 -0.0066131684 0.10166974 -0.2286056 -0.043766744 -0.007150004 0.11645335 -0.03006236 0.13240457 -0.12926397 -0.15417573 0.1094617 -0.19124106 -0.10507511 0.008262622 -0.012176551 -0.14828144 0.1508591 0.0035647424 0.16627897 -0.087567195 0.12629172 -0.07848295 0.1461889 0.17960629 -0.15577321 0.07242579 -0.16493317 -0.053265877 0.098506846 -0.023756174 -0.026495777 -0.13431403 -0.15416008
9 -0.029447773 -0.016181663 0.18212499 0.21675803 -0.15218283 -0.18912725 0.11864427 0.2789736 -0.048838623 -0.053634174 0.25578564 0.052826084 0.11943196 0.04667265 -0.17528456 -0.07670191 -0.04442479 0.1426805 -0.12789194 -0.022946171 0.18596041 0.17509456 0.29313964 -0.16259675 0.09703437 0.15081985 -0.1198757 0.12113324 -0.09494144 -0.052637532 -0.055639546 -0.010736346 -0.0071406374 -0.18880114 -0.0048377253 0.03539493 0.03922222 0.010369559 0.25670674 -0.045933694 -0.031466853 0.059842676 -0.12819922 -0.07378625 -0.052710164 0.020647345 -0.06449004 0.012527316 -0.079780646 0.08096154 0.04685799 0.13180557 -0.02415181 0.18745524 0.13999994 -0.12839447 0.06392981 -0.19341828 0.009267467 -0.031648275 0.06813341 -0.09391094 -0.15888289 -0.07042461
6 -0.02838257 -0.007589741 0.20310749 0.19758663 -0.14975178 -0.2008278 0.116596185 0.26715946 -0.031015407 -0.023034422 0.26036626 0.06744823 0.115665905 0.036351494 -0.18598896 -0.055836953 -0.04478188 0.14933635 -0.1275696 -0.040253192 0.19918886 0.17313549 0.29610872 -0.1711674 0.10609639 0.14197707 -0.121121526 0.13491848 -0.0839119 -0.040995833 -0.07485904 -0.004483927 -0.005902932 -0.17120197 -0.018054001 0.0123169655 0.06368669 0.017448042 0.25694147 -0.07397129 -0.033986393 0.086521864 -0.13776945 -0.104215845 -0.031257667 0.043306638 -0.06765628 0.019667577 -0.08217796 0.0628912 0.046879925 0.10923351 -0.057110984 0.18029152 0.15590015 -0.14153104 0.059050776 -0.18300445 -0.008541594 -0.030491807 0.054015644 -0.104638904 -0.14483745 -0.08379884
4 -0.023664134 -0.030623414 0.17878266 0.20935956 -0.13867675 -0.19015883 0.10081945 0.27190074 -0.04332425 -0.03150845 0.23736726 0.052072946 0.118588954 0.05551924 -0.17300543 -0.054675292 -0.05093086 0.1461257 -0.1389449 -0.026287671 0.20537005 0.17283468 0.2949931 -0.16829798 0.10918746 0.15594482 -0.13252585 0.10993818 -0.10322496 -0.059118796 -0.06804933 -0.02809609 0.008120776 -0.18661016 0.0017408308 0.036574453 0.040015798 0.019988019 0.26015994 -0.06529052 -0.043700267 0.06477383 -0.1332855 -0.08613046 -0.04629412 0.03401197 -0.05988015 0.01857252 -0.084206365 0.06619769 0.046944737 0.12977155 -0.025623677 0.18542606 0.14421396 -0.13131526 0.050586674 -0.18231525 0.003540189 -0.030430561 0.0484429 -0.10663243 -0.16326529 -0.07863933
7 -0.028984705 -0.021512812 0.18174684 0.21004117 -0.15194921 -0.19676825 0.12716962 0.27349672 -0.054614358 -0.03250965 0.26016337 0.056593806 0.09600886 0.055971913 -0.16885498 -0.056870416 -0.0324816 0.13868473 -0.14231203 -0.027174212 0.20586902 0.17872111 0.28636223 -0.15648772 0.10821442 0.12895957 -0.12687044 0.12387328 -0.099672645 -0.060042664 -0.07534002 -0.022143828 0.014804701 -0.18512075 -0.016507544 0.030038524 0.06653486 0.0024119082 0.2561276 -0.05463562 -0.039337747 0.07428564 -0.12411587 -0.09387751 -0.05239563 0.036669597 -0.07056447 0.029209109 -0.06543529 0.07119235 0.040281255 0.12936309 -0.032126375 0.17183279 0.15919456 -0.12787591 0.06586858 -0.19341277 0.0035300034 -0.016409736 0.06433345 -0.099150866 -0.15990804 -0.07348986
5 -0.028027365 -0.022726892 0.1995457 0.22275631 -0.15802416 -0.19187628 0.11996034 0.27737245 -0.04253398 -0.041238435 0.26195818 0.053675614 0.114492476 0.03590767 -0.16966057 -0.059882242 -0.03787815 0.13815121 -0.14242879 -0.0042621642 0.19680096 0.18433052 0.29917684 -0.16891488 0.103489935 0.15853429 -0.12482058 0.118814036 -0.09779592 -0.052807637 -0.05417237 -0.016079133 -0.024506241 -0.19123392 -0.011347371 0.032090154 0.044817396 0.022777122 0.2751135 -0.047295813 -0.025163513 0.06928991 -0.11078511 -0.078524694 -0.051676407 0.022359619 -0.05612613 0.01884467 -0.08556463 0.049233135 0.067646444 0.11840958 -0.028147975 0.19893155 0.13738674 -0.13175403 0.054188903 -0.18362667 -0.0022377647 -0.030792395 0.06572585 -0.09576064 -0.14944871 -0.061567936
8 -0.025891665 -0.020153645 0.1907547 0.21676771 -0.15794 -0.1992921 0.10496364 0.2653468 -0.049409196 -0.04662057 0.2487354 0.04365299 0.10064586 0.05109561 -0.17377509 -0.06564324 -0.042851843 0.133049 -0.14835921 -0.055072524 0.19910151 0.17441913 0.28429395 -0.14564942 0.10707307 0.13604683 -0.11988381 0.12684084 -0.11572012 -0.054466434 -0.083385244 -0.020912662 0.020175314 -0.17848255 -0.003764905 0.015069188 0.061173562 -0.008284837 0.23769994 -0.060422383 -0.06446564 0.07610643 -0.14340559 -0.082408085 -0.046344306 0.026251804 -0.07008053 0.045141403 -0.06059603 0.07792114 0.028550925 0.11597816 -0.04584521 0.17483763 0.15106545 -0.13197942 0.06334659 -0.19030632 -0.020781405 0.008308559 0.04901306 -0.09694211 -0.1468762 -0.09224293
