7 64
902 -0.041143928 0.038312964 0.15027909 0.17516875 -0.20012775 -0.20539494 0.22680174 0.24610148 -0.10498931 -0.036323175 0.2938832 0.056851566 -0.04898475 0.1013043 -0.14938393 -0.05685794 0.059594087 0.08966587 -0.14367393 -0.13019562 0.19251448 0.15939747 0.20673262 -0.061257433 0.120409794 -0.058307238 -0.06541022 0.18596393 -0.08887822 -0.06564179 -0.14903308 0.012975707 0.13568433 -0.15841849 -0.09991305 -0.027788568 0.20939156 -0.10611852 0.123292275 -0.06536098 -0.08779717 0.1284049 -0.14635131 -0.1486643 -0.031140719 0.053078298 -0.16054869 0.12078118 0.06362074 0.16752888 -0.09274512 0.12311706 -0.09404758 0.04321902 0.24063432 -0.11203798 0.13765824 -0.21577099 -0.012151108 0.09674905 0.07261203 -0.041038193 -0.1309399 -0.11076344
9 -0.02714449 -0.032722026 0.13435102 0.20101358 -0.148479 -0.19180605 0.1471621 0.26525941 -0.091830716 -0.025424127 0.24294521 0.04333316 0.03421111 0.10707612 -0.14366804 -0.041292384 -0.0025323094 0.11831668 -0.16047312 -0.053352628 0.22258717 0.1694186 0.24948943 -0.116071105 0.12344664 0.061995294 -0.12548041 0.115443006 -0.11891894 -0.08955344 -0.10886128 -0.047540523 0.09753219 -0.18947999 -0.028145013 0.038170673 0.107032135 -0.038679916 0.21110916 -0.05835741 -0.074789196 0.07571921 -0.12976724 -0.10971457 -0.06210663 0.047594387 -0.09865489 0.06731547 -0.012910901 0.10865757 -0.016309682 0.15551975 -0.01969878 0.116543494 0.1904616 -0.10888372 0.08290915 -0.20124541 0.014795959 0.029251872 0.05627177 -0.08816739 -0.17817807 -0.08507206
7 -0.022657366 -0.047636934 0.15107353 0.1981927 -0.13554488 -0.19919044 0.12370211 0.263136 -0.07475851 0.00014971088 0.23626281 0.049897097 0.05470747 0.09815149 -0.14990032 -0.020635355 -0.019591134 0.13038854 -0.16946042 -0.041642267 0.24304062 0.17419681 0.2658969 -0.13839926 0.13163452 0.09201315 -0.14462721 0.10678983 -0.12178296 -0.08762949 -0.11171744 -0.060858585 0.08343023 -0.18588723 -0.018218057 0.038302638 0.097441405 -0.014150846 0.24064973 -0.07515725 -0.07259413 0.08235754 -0.129126 -0.12037082 -0.0565311 0.061800268 -0.08160652 0.059710246 -0.036754597 0.072739124 0.0100180255 0.14493753 -0.024276115 0.13547757 0.18736793 -0.118410125 0.063111514 -0.18966599 0.0053334553 0.013491074 0.042417224 -0.10984197 -0.17887911 -0.08620183
6 -0.016763618 -0.074026704 0.12129843 0.21075356 -0.12753658 -0.19334313 0.1091145 0.26562953 -0.095948145 -0.0058292113 0.2102666 0.029285278 0.0401781 0.13078403 -0.13392214 -0.014318975 -0.019961534 0.12190695 -0.19218552 -0.045454446 0.25868484 0.17311905 0.25727648 -0.12309413 0.14213005 0.08840926 -0.15682647 0.08347816 -0.15290406 -0.11307405 -0.1218193 -0.09282047 0.12470376 -0.2008273 -0.00019459147 0.057845753 0.08939124 -0.02672583 0.22930972 -0.07281884 -0.10141154 0.06642472 -0.13337886 -0.108863845 -0.071642585 0.056765825 -0.08267041 0.077084996 -0.022089053 0.08536845 -0.008611652 0.16744299 0.002509874 0.12580438 0.18693832 -0.10635071 0.058888797 -0.19117807 0.010472368 0.03582547 0.029158425 -0.11110725 -0.19863927 -0.09180871
4 -0.017966632 -0.09191808 0.123622164 0.20929529 -0.10930208 -0.19555512 0.10263659 0.2712519 -0.0912415 0.013849459 0.21876119 0.042111784 0.06386976 0.12069378 -0.13054517 -0.0038359324 -0.032069735 0.13519652 -0.19226275 0.001658733 0.2727497 0.18377979 0.26973316 -0.14785853 0.13772756 0.11932278 -0.1819264 0.06966369 -0.14526725 -0.1160631 -0.106055975 -0.107592255 0.09611797 -0.20229477 0.007316093 0.07850073 0.07102157 -0.0024455506 0.27755213 -0.058254432 -0.06968013 0.056322984 -0.105485 -0.10777341 -0.088364646 0.0681106 -0.058003906 0.04715476 -0.048557222 0.04576773 0.03640202 0.1730934 0.024779808 0.14589325 0.17924047 -0.10209877 0.04680769 -0.19171241 0.027841613 -0.0010584794 0.04564958 -0.13165143 -0.21197905 -0.06468535
8 -0.024761468 -0.03128186 0.1580556 0.21333028 -0.17163429 -0.1950266 0.15747297 0.2615331 -0.089022614 -0.021538353 0.24857733 0.035339545 0.007248446 0.10095579 -0.13679007 -0.023690412 0.018282766 0.10124383 -0.18356359 -0.05682479 0.23035601 0.1771648 0.2498434 -0.107202426 0.13711384 0.049451325 -0.11577998 0.121603444 -0.1296603 -0.0900116 -0.11758792 -0.04603483 0.09360105 -0.19365363 -0.044393253 0.020877196 0.13053879 -0.038975433 0.20607683 -0.06912856 -0.08788732 0.09672722 -0.12236818 -0.11816437 -0.05115689 0.04178548 -0.10501359 0.09891952 -0.0010589097 0.09102578 -0.017782448 0.13468379 -0.039308805 0.11967162 0.194384 -0.116739206 0.07868497 -0.18895052 -0.012608546 0.057309233 0.04316077 -0.07597131 -0.1575784 -0.0900967
5 -0.024907554 -0.047303427 0.15114017 0.20750791 -0.15089113 -0.20621131 0.12432452 0.24939921 -0.09177343 -0.016637264 0.2453083 0.034470174 0.025934622 0.097234435 -0.13613787 -0.030287364 -0.008096159 0.10833323 -0.18856297 -0.06077488 0.2382418 0.17686787 0.24020353 -0.10202535 0.1249557 0.06531288 -0.13694698 0.11510646 -0.14420603 -0.0904629 -0.12845151 -0.067348436 0.10364806 -0.17372179 -0.019101702 0.022618555 0.11934308 -0.05447952 0.21643299 -0.052102555 -0.0949263 0.08574664 -0.123931155 -0.10593318 -0.07219888 0.05192593 -0.08419557 0.09097469 -0.0015512636 0.07450078 -0.004924801 0.13146459 -0.030796811 0.114509694 0.18881758 -0.104372516 0.07621619 -0.19788982 -0.018623127 0.06491498 0.04993376 -0.099278726 -0.16149075 -0.088791475
