7 64
902 -0.024221223 0.00092935003 0.13628697 0.23892817 -0.22348072 -0.1714019 0.19479342 0.2645048 -0.11977198 -0.09297314 0.23071204 -0.006645305 -0.05824033 0.13484058 -0.12534626 -0.058320086 0.06530635 0.054981206 -0.18357542 -0.12460442 0.18198688 0.15682171 0.21551083 -0.04256109 0.14126654 -0.022328073 -0.050123535 0.13538 -0.1484424 -0.097241424 -0.12291057 -0.0139372 0.14498416 -0.21483432 -0.06367828 0.002440049 0.15576538 -0.09162829 0.10191545 -0.07128641 -0.14189357 0.094706215 -0.15477678 -0.09282659 -0.031059435 -0.011179067 -0.15888655 0.15884995 0.06192745 0.18692714 -0.112866186 0.1403393 -0.051644295 0.07983969 0.19021904 -0.10964083 0.10722161 -0.18507321 -0.02724928 0.1309408 0.022331523 -0.0051279645 -0.13361917 -0.12241409
6 -0.025274301 -0.049868308 0.09246579 0.20877409 -0.14789397 -0.16515507 0.1849973 0.2778115 -0.12023468 -0.023757802 0.22905205 0.033682827 -0.0072671706 0.14288679 -0.10910323 -0.020670203 0.03585677 0.09957232 -0.16889144 -0.0072707976 0.22817937 0.17045087 0.23650905 -0.107536666 0.13629569 0.033268224 -0.12378183 0.08669955 -0.11774984 -0.120615214 -0.091155544 -0.06466237 0.11601293 -0.22301362 -0.045058507 0.07722264 0.11003573 -0.029394932 0.20942727 -0.047448356 -0.06262817 0.060207162 -0.095047705 -0.111142784 -0.07612844 0.03933089 -0.11173628 0.07216018 0.0018258682 0.12067205 -0.025874427 0.19486208 0.025344802 0.10591479 0.19663994 -0.0936907 0.08451045 -0.19818965 0.054852657 0.020361418 0.06335732 -0.06699912 -0.2061261 -0.05849874
9 -0.025040504 -0.025799513 0.12453742 0.2125683 -0.17399414 -0.17373562 0.19057116 0.27597454 -0.10606135 -0.03259014 0.23716463 0.03203762 -0.015038974 0.13068354 -0.12671606 -0.02516554 0.042477865 0.094808 -0.16920586 -0.048714533 0.21893193 0.16794232 0.2432283 -0.10212645 0.14324841 0.021761313 -0.100512184 0.11188582 -0.11650647 -0.10408744 -0.1039087 -0.038540374 0.112957425 -0.21730034 -0.058679644 0.043378722 0.13070548 -0.035473228 0.18454203 -0.07261459 -0.0817554 0.08481816 -0.12078848 -0.12123605 -0.046755098 0.032651804 -0.12821864 0.095430925 0.008807416 0.13278495 -0.046818063 0.16705076 -0.016891273 0.10510468 0.19996846 -0.11134182 0.08747674 -0.18860805 0.023042003 0.043035876 0.04421961 -0.052945223 -0.17725949 -0.08457653
7 -0.018901743 -0.055578142 0.09755901 0.21167982 -0.14844392 -0.1713158 0.15586919 0.26848358 -0.115428425 -0.025406878 0.20816842 0.019942164 -0.008187494 0.15048382 -0.1154786 -0.017094998 0.023422778 0.09674342 -0.1830099 -0.04768812 0.23538749 0.16356769 0.2345509 -0.0968214 0.14544325 0.03544221 -0.12318921 0.08589611 -0.14074932 -0.12101626 -0.11302443 -0.07374525 0.14226653 -0.2159318 -0.029973513 0.061201297 0.11140926 -0.040102705 0.18625908 -0.068728 -0.10002199 0.065790735 -0.122740835 -0.10903126 -0.062699884 0.038450755 -0.11244203 0.094513446 0.008941125 0.124920435 -0.04708171 0.17944953 0.008129243 0.09850909 0.19205645 -0.09761905 0.07516652 -0.18575485 0.027054047 0.049641762 0.032253448 -0.07008785 -0.19359495 -0.08617448
8 -0.02331111 -0.07052064 0.061762813 0.18206225 -0.11661905 -0.16777909 0.17520548 0.25903314 -0.13182388 0.013519931 0.21489261 0.04035265 -0.025945133 0.1639303 -0.09255186 0.0056177406 0.03521926 0.1012043 -0.17725283 -0.0036302703 0.25446934 0.16498396 0.21287222 -0.098480836 0.1409299 0.009825695 -0.1473239 0.0724403 -0.1219381 -0.13574545 -0.115001716 -0.09660985 0.15812157 -0.2064576 -0.042438712 0.08678197 0.12782373 -0.041081984 0.20927379 -0.04818762 -0.067346804 0.060031395 -0.08509781 -0.13014983 -0.089434035 0.07065741 -0.10591075 0.07377163 0.01708095 0.10516878 -0.030450277 0.20391591 0.037702866 0.07252126 0.21531051 -0.077262506 0.08269821 -0.19849432 0.06620515 0.025926096 0.06263413 -0.08777881 -0.22166646 -0.05358725
5 -0.02101707 -0.038832236 0.11479911 0.22171283 -0.17767386 -0.16118602 0.18869646 0.26755303 -0.114864714 -0.036749333 0.22164285 0.015186885 -0.037977666 0.13726297 -0.10412254 -0.013316197 0.05720305 0.074196905 -0.18599905 -0.034282282 0.21859047 0.16793022 0.22879007 -0.0858107 0.14728223 0.013827842 -0.09676245 0.095305875 -0.13122831 -0.115433514 -0.099986374 -0.05238123 0.117791206 -0.22420172 -0.058320094 0.049701467 0.13001749 -0.037689928 0.17568904 -0.06364516 -0.09046903 0.079570144 -0.101806514 -0.10944661 -0.053698584 0.020337662 -0.124823004 0.113200605 0.021072049 0.12102967 -0.047055252 0.16516332 -0.0032530127 0.10239117 0.19004449 -0.101460695 0.080619276 -0.17711987 0.017058369 0.062287044 0.037651908 -0.040816378 -0.17160057 -0.075698294
4 -0.025447885 -0.041947056 0.116886556 0.2176874 -0.1677009 -0.18389116 0.1696722 0.26460958 -0.119926356 -0.03714965 0.23759887 0.021573398 -0.018964307 0.13284875 -0.11661047 -0.031266008 0.032176603 0.08801619 -0.18740416 -0.0553335 0.22696936 0.17161252 0.2262513 -0.08162557 0.13517104 0.020875622 -0.114566274 0.10722486 -0.14206873 -0.11150544 -0.11928321 -0.06205501 0.1330546 -0.20442457 -0.041138552 0.042384535 0.13243435 -0.06399051 0.18314984 -0.048865873 -0.09835323 0.07661266 -0.11585382 -0.10485249 -0.07160352 0.033875506 -0.11513245 0.10707231 0.02590213 0.12172272 -0.044616878 0.16387643 -0.008182177 0.09355571 0.1979948 -0.095464595 0.09103838 -0.19961996 0.009984986 0.07385315 0.05197515 -0.06396566 -0.1767838 -0.08326539
