7 64
902 -0.023877474 -0.018546984 0.18413787 0.19854534 -0.17675246 -0.21147391 0.1526741 0.24904998 -0.07278595 0.00044349162 0.25503185 0.04519828 -0.0010169428 0.08920286 -0.14708954 -0.009591666 0.017339772 0.10113545 -0.1823942 -0.090993375 0.23536502 0.17040934 0.24466552 -0.103977464 0.14314395 0.034049112 -0.10884646 0.13897626 -0.12392348 -0.07491826 -0.14177787 -0.03615829 0.10168644 -0.17004113 -0.054859146 -0.011645386 0.15285788 -0.04334468 0.18096456 -0.09331293 -0.10043099 0.1204035 -0.13591996 -0.13750999 -0.026243694 0.053947654 -0.10561651 0.11118638 0.008082318 0.077932775 -0.030003704 0.09766512 -0.0756577 0.097059 0.19416873 -0.11947679 0.07275742 -0.16600476 -0.03989846 0.07344753 0.022605691 -0.07385148 -0.12407853 -0.105075315
9 -0.02573092 -0.024234712 0.17918544 0.19470802 -0.15401155 -0.20505565 0.14189544 0.2622134 -0.06070981 0.0023749673 0.2557914 0.05999786 0.05021625 0.078407705 -0.16175537 -0.020576496 -0.008768442 0.13020757 -0.16280565 -0.051988743 0.23556894 0.17708059 0.27371964 -0.14350961 0.133069 0.08300789 -0.12874879 0.12969121 -0.105343156 -0.07062938 -0.112142764 -0.034451168 0.06180069 -0.17918834 -0.039453793 0.01494155 0.115637936 -0.0094495835 0.23530078 -0.0860892 -0.0635247 0.10323057 -0.13093019 -0.13361052 -0.036843218 0.062232 -0.090900384 0.064840004 -0.037709523 0.069544576 0.010705996 0.123589724 -0.05491957 0.13922998 0.19379927 -0.13230887 0.06798171 -0.18559645 -0.009385106 0.013777697 0.042919092 -0.10081011 -0.15806304 -0.091520146
7 -0.021213599 -0.026887387 0.17659988 0.17070577 -0.12974134 -0.1955903 0.12103323 0.24642771 -0.03946289 0.027437655 0.23367527 0.06924474 0.0674196 0.06923427 -0.16369657 -0.0029509908 -0.021856956 0.14003272 -0.14902875 -0.042976562 0.23662306 0.16691327 0.27516395 -0.16086933 0.1330667 0.09848608 -0.13428052 0.11941763 -0.089313224 -0.06257007 -0.10744809 -0.03514897 0.048484333 -0.16757253 -0.034930103 0.015126494 0.10462952 0.016795324 0.24686314 -0.10538574 -0.052528687 0.106389716 -0.13154699 -0.14644065 -0.022527365 0.07772472 -0.08083167 0.04816319 -0.060162984 0.049103573 0.025618397 0.11648201 -0.060398772 0.14708889 0.19157203 -0.14029633 0.052269302 -0.17106599 -0.00686509 -0.013048529 0.02986488 -0.11568964 -0.1589272 -0.09270651
4 -0.013260326 -0.046841603 0.14966668 0.17287977 -0.11685405 -0.18312173 0.10188465 0.24309987 -0.04785174 0.027929336 0.19715002 0.052337434 0.059284505 0.09663633 -0.15285735 0.008625222 -0.024646288 0.13496956 -0.16109268 -0.050001703 0.246399 0.1588141 0.26924938 -0.15346779 0.14474432 0.09857374 -0.14027885 0.0961977 -0.10908814 -0.08052982 -0.113644116 -0.057961073 0.08101163 -0.1792412 -0.019446187 0.030129604 0.09435641 0.017803641 0.23513232 -0.11911925 -0.0785843 0.09638016 -0.14347558 -0.14385404 -0.023089476 0.07641668 -0.08457453 0.061117664 -0.055920657 0.062013026 0.0067390515 0.13485672 -0.043556936 0.14288948 0.19167589 -0.13757099 0.042831235 -0.16499043 -0.002701058 -0.0025829095 0.006995803 -0.11784867 -0.17600481 -0.10459465
5 -0.020494813 -0.04006156 0.15957436 0.17819987 -0.13679732 -0.19895689 0.13424422 0.24478337 -0.06515121 0.03001504 0.23343483 0.057431355 0.025914708 0.09510235 -0.14408867 0.009071345 -0.000511756 0.122261375 -0.17446443 -0.049891435 0.25302693 0.17025633 0.2551554 -0.13394281 0.14382869 0.06286438 -0.13759461 0.11418317 -0.11134326 -0.0832208 -0.12843546 -0.05696157 0.09168033 -0.17315839 -0.041924518 0.01867535 0.13154863 -0.010477711 0.22891547 -0.098605305 -0.07500919 0.10895272 -0.123911925 -0.15024106 -0.03595003 0.07944985 -0.09115276 0.07869369 -0.025726108 0.055464488 0.0025269056 0.124889106 -0.050734837 0.11846767 0.20458733 -0.125222 0.059815764 -0.17370735 -0.009448086 0.024673637 0.028144954 -0.10749562 -0.16257785 -0.0924685
6 -0.017353943 -0.035841882 0.18310428 0.20130932 -0.1631742 -0.19486113 0.13512287 0.24772875 -0.05910813 0.01093214 0.23157844 0.04133988 0.01695444 0.083826125 -0.14053468 0.008696597 0.010414783 0.10495422 -0.18729639 -0.053524964 0.24204533 0.17354073 0.26039636 -0.1267761 0.14930145 0.06948936 -0.11947683 0.11539933 -0.12331822 -0.079334155 -0.12059827 -0.04730857 0.072865024 -0.18385877 -0.04530353 0.0063334415 0.12781948 -0.0053702304 0.21693623 -0.102388024 -0.087672286 0.11477686 -0.12217657 -0.13629572 -0.02431664 0.05414753 -0.09259206 0.10001675 -0.023619797 0.050091214 0.0016404078 0.105812185 -0.06135327 0.1341331 0.18693155 -0.1318043 0.05213965 -0.15775007 -0.034295708 0.04513743 0.013306188 -0.08621411 -0.13867943 -0.09685795
8 -0.02409411 -0.034242146 0.18640843 0.19233622 -0.14838733 -0.21354961 0.11736511 0.24376385 -0.058550272 0.009304252 0.2529179 0.054303925 0.049233187 0.06830479 -0.15614125 -0.015517837 -0.018598367 0.12455142 -0.17814335 -0.059393395 0.24311723 0.17890167 0.26219288 -0.13184206 0.12895733 0.08700036 -0.13795996 0.12891388 -0.12198657 -0.068837985 -0.12719026 -0.04941318 0.06682359 -0.1617821 -0.028683782 0.0026628228 0.12209826 -0.02319087 0.23918745 -0.0795066 -0.07754182 0.10872876 -0.12880343 -0.12955289 -0.045909956 0.06844188 -0.078120075 0.078442656 -0.030788729 0.044884026 0.020175125 0.10615924 -0.063695975 0.13697518 0.1934586 -0.12854093 0.06416094 -0.18650192 -0.03357654 0.03848687 0.040372226 -0.11388013 -0.14756624 -0.09563636
