7 64
902 -0.015349444 -0.020970628 0.16439939 0.22690924 -0.20522998 -0.19419213 0.15618157 0.25245252 -0.09507319 -0.039227724 0.21922237 0.0036920866 -0.044732466 0.12893604 -0.1368801 -0.014360461 0.041304544 0.067905694 -0.19738425 -0.13408074 0.21293136 0.15151823 0.21855041 -0.058894515 0.15494162 0.0008901337 -0.073446766 0.12580644 -0.15727697 -0.09124799 -0.14933282 -0.037923608 0.14864445 -0.19047883 -0.05060013 -0.015992967 0.15958995 -0.06838304 0.11928635 -0.1117142 -0.160993 0.11876124 -0.16709846 -0.122263305 -0.013317583 0.021658672 -0.13962807 0.16829267 0.043511856 0.13533795 -0.093586504 0.1129085 -0.0784528 0.08827271 0.19965032 -0.1256466 0.079122595 -0.16435221 -0.05985408 0.13431078 -0.013646144 -0.041423067 -0.12635107 -0.14248526
9 -0.02402427 -0.028722886 0.16128887 0.19747107 -0.15709999 -0.18731187 0.1610627 0.26291844 -0.070802934 0.0012201086 0.24448581 0.05270875 0.025442218 0.09119878 -0.14134438 -0.00891626 0.014534481 0.11564446 -0.16659218 -0.03029255 0.2335398 0.17599373 0.26540267 -0.1369274 0.13989341 0.06595773 -0.12135581 0.116356 -0.10291699 -0.08348232 -0.10172834 -0.038259566 0.06656492 -0.19577248 -0.051686686 0.029869704 0.11928435 -0.0030159962 0.2300075 -0.08302575 -0.057448003 0.09833156 -0.11193458 -0.1336681 -0.03819871 0.054286953 -0.09829148 0.0706218 -0.02961071 0.07314853 0.0051003173 0.13601008 -0.03707751 0.13352938 0.1921656 -0.12527801 0.0666563 -0.17696868 0.0057700924 0.011526813 0.042708375 -0.084019095 -0.16323203 -0.0780555
6 -0.024085458 -0.017256215 0.16715667 0.17490178 -0.15065223 -0.1878367 0.16476806 0.25232655 -0.05845866 0.022678556 0.24579172 0.06576883 0.020198531 0.084605046 -0.14677665 0.004354613 0.018346207 0.11939577 -0.15574425 -0.0393416 0.23455586 0.16943778 0.26143482 -0.14155672 0.14251415 0.052286144 -0.11652508 0.12545864 -0.08520612 -0.07327043 -0.10988741 -0.02780024 0.06583635 -0.18126409 -0.065305375 0.01571637 0.13649295 0.0030510237 0.22407617 -0.101277076 -0.052045595 0.11480601 -0.11583696 -0.15589935 -0.020889927 0.06996442 -0.10331845 0.06983358 -0.030196883 0.0665769 0.0015438437 0.12261154 -0.05814274 0.12292027 0.20307223 -0.13220912 0.06575511 -0.16837339 0.0014426932 0.0053633642 0.03603077 -0.086836666 -0.15362601 -0.083842546
7 -0.019036816 -0.038019132 0.16148582 0.19506912 -0.14856166 -0.18838191 0.14388114 0.26151752 -0.0640528 0.012937894 0.22868106 0.05077894 0.031655144 0.09801291 -0.14530009 0.0034264785 0.005215972 0.12187256 -0.17475599 -0.03911145 0.2483327 0.17502743 0.2746209 -0.1454794 0.15103653 0.07675048 -0.13045211 0.10979561 -0.11125166 -0.08749527 -0.11080831 -0.048771366 0.077290334 -0.19857347 -0.04359092 0.030200785 0.11548657 0.0065256082 0.23333952 -0.1030241 -0.07106021 0.10214989 -0.12512775 -0.1423423 -0.030123781 0.061813697 -0.096998826 0.075127065 -0.03731979 0.068948254 0.0025211386 0.1367405 -0.040600475 0.13831052 0.19506156 -0.1325409 0.056232773 -0.17027357 -2.3913612e-06 0.011066804 0.024088444 -0.0942457 -0.16870455 -0.09046435
5 -0.025345098 -0.036738005 0.14683768 0.1761707 -0.14018624 -0.19135788 0.16975395 0.2534669 -0.078197174 0.033217918 0.2497268 0.06557137 0.006887884 0.10080927 -0.13094945 0.012883968 0.02307954 0.11736601 -0.17056575 -0.019109352 0.2534701 0.1768326 0.25164667 -0.13484259 0.14391388 0.04270607 -0.13612981 0.11382911 -0.09609429 -0.09126564 -0.116790615 -0.053671457 0.08688891 -0.18464555 -0.062711336 0.034042098 0.14318737 -0.008312681 0.2379175 -0.08240679 -0.048556298 0.1056344 -0.09621652 -0.15575178 -0.0457906 0.08027452 -0.09736604 0.069236614 -0.018854758 0.055841047 0.008072134 0.13878575 -0.033433456 0.10966901 0.21072684 -0.11562104 0.06888075 -0.17797354 0.016381105 0.00924948 0.050352383 -0.09610651 -0.17076635 -0.067639284
8 -0.021136554 -0.03421975 0.17344794 0.19507262 -0.15612292 -0.17888916 0.16509388 0.2593 -0.058233358 0.021118429 0.24190196 0.056944925 0.021172447 0.079272695 -0.13195385 0.016563134 0.025453623 0.112760894 -0.17608921 0.0012166379 0.24544531 0.18443024 0.2769602 -0.15341704 0.15062608 0.07603134 -0.12566023 0.10893426 -0.095365144 -0.08396695 -0.09180222 -0.040581863 0.040424 -0.20329665 -0.06376532 0.032642595 0.1213264 0.025125107 0.2536266 -0.091501854 -0.040354256 0.10786948 -0.088233665 -0.14452568 -0.030277085 0.057824466 -0.09055946 0.06940316 -0.04430555 0.03768168 0.030981043 0.12604417 -0.037834603 0.15047266 0.18946902 -0.13251193 0.051987246 -0.16066019 0.0034951817 -0.0043696933 0.03769065 -0.08436468 -0.15757935 -0.06432127
4 -0.023777558 -0.03709837 0.17623726 0.19742945 -0.15425682 -0.19733594 0.14453878 0.2516479 -0.06567194 0.0115583455 0.2514114 0.052975338 0.028884364 0.0760062 -0.13848698 -0.0018382169 0.0069573224 0.11449024 -0.1820342 -0.025845163 0.2453058 0.18433614 0.26469538 -0.13601021 0.1380566 0.07637946 -0.13340674 0.1181177 -0.11349469 -0.08027088 -0.11063031 -0.049460456 0.05809497 -0.1830744 -0.046177257 0.020145288 0.12415139 -0.0072371354 0.24503821 -0.07518308 -0.05929425 0.10492122 -0.10186662 -0.1318475 -0.046395436 0.060689777 -0.08307073 0.076397575 -0.030026902 0.040331207 0.02540786 0.11716563 -0.0444392 0.13791156 0.1894438 -0.12314258 0.0609596 -0.17570789 -0.013901189 0.024021905 0.04504659 -0.09630399 -0.15170658 -0.074192844
