7 64
902 -0.031525478 -0.0023122719 0.13715048 0.20670603 -0.19362697 -0.20873111 0.16799638 0.24481106 -0.12207139 -0.06257021 0.25834784 0.017601356 -0.04026482 0.124175794 -0.14004241 -0.06565832 0.03155985 0.07788392 -0.18082349 -0.15393968 0.20374908 0.15786918 0.19857055 -0.036646824 0.123340696 -0.029600512 -0.08262703 0.15714753 -0.15079825 -0.087205686 -0.1575812 -0.030693896 0.1693386 -0.1547801 -0.04602763 -0.01650259 0.17145906 -0.12669979 0.10477323 -0.054327 -0.14184092 0.09958183 -0.16258863 -0.105324745 -0.053188495 0.03222189 -0.137361 0.14304164 0.07301002 0.16433538 -0.10314839 0.12412352 -0.0666186 0.043927304 0.20845105 -0.09316047 0.1181055 -0.20605583 -0.036176834 0.14116313 0.0432191 -0.04880072 -0.13267031 -0.125877
9 -0.034973882 0.003561262 0.19102144 0.23098835 -0.20904349 -0.19255926 0.19097972 0.26962057 -0.0833932 -0.061528195 0.28869772 0.03753983 0.011258884 0.061453518 -0.14249107 -0.05893215 0.03483222 0.08888284 -0.163792 -0.0428999 0.1864278 0.18424776 0.25202993 -0.102042794 0.11403678 0.049667533 -0.08219401 0.14787695 -0.107608065 -0.0653399 -0.08695729 -0.00071178307 0.034002893 -0.19501728 -0.06523351 0.004159103 0.13043672 -0.043307733 0.20598258 -0.037364777 -0.057360068 0.09935878 -0.1039222 -0.09517708 -0.05097206 0.009975198 -0.108679295 0.09184112 -0.0017876811 0.09637462 -0.0015451197 0.11520177 -0.0535249 0.139566 0.17748368 -0.120757855 0.09609063 -0.19755806 -0.020310557 0.05464985 0.07567571 -0.0458831 -0.12803484 -0.072176956
6 -0.034104217 0.007532515 0.2016227 0.21665598 -0.19973238 -0.19542375 0.18674442 0.2660825 -0.06681474 -0.040580966 0.28829998 0.05119842 0.0241268 0.05198381 -0.15218747 -0.047132134 0.027546246 0.1008853 -0.1549113 -0.040588286 0.19257939 0.18260686 0.26193535 -0.12021197 0.11719854 0.058999754 -0.08688089 0.1512098 -0.09236133 -0.05622115 -0.087912284 0.0049025416 0.021467632 -0.1882949 -0.069527514 -0.0013356033 0.13149619 -0.024730096 0.21907067 -0.054861087 -0.04648238 0.10955074 -0.10734541 -0.11240971 -0.037536934 0.024532937 -0.10534692 0.08016507 -0.018250594 0.082197234 0.009854881 0.10712587 -0.06628389 0.14603198 0.18210237 -0.13115515 0.088626646 -0.190479 -0.020512491 0.033988245 0.06973964 -0.05705316 -0.1266036 -0.074756764
8 -0.02818628 -0.016906273 0.19197586 0.23146573 -0.19413744 -0.19113332 0.17089513 0.27135253 -0.073443 -0.03979611 0.26975405 0.037589557 0.024626361 0.066824086 -0.14221464 -0.03565962 0.023141382 0.09813217 -0.17588654 -0.027860342 0.20909159 0.18759444 0.26833463 -0.122441955 0.12790221 0.07606308 -0.101217665 0.12986772 -0.11519626 -0.07340312 -0.08837628 -0.020333843 0.03266115 -0.20556982 -0.054518174 0.015432465 0.117364064 -0.017463466 0.23094024 -0.05662095 -0.060705714 0.09980524 -0.10448486 -0.104208276 -0.046937015 0.019951878 -0.09817763 0.08817466 -0.022543881 0.07349477 0.0148733575 0.119647026 -0.04623932 0.15780306 0.17657107 -0.12911294 0.076498345 -0.18711485 -0.02019127 0.039296705 0.057738088 -0.06303876 -0.14074369 -0.07453104
7 -0.035684202 -0.0019649384 0.17860028 0.21134385 -0.19462475 -0.20021217 0.19673781 0.26187727 -0.089720614 -0.03287127 0.29117298 0.04899553 -0.0046637575 0.07454664 -0.13860348 -0.04096033 0.039323274 0.09358324 -0.16755603 -0.04707155 0.2069455 0.18318984 0.2415767 -0.09958156 0.120526195 0.026303893 -0.095332034 0.14931485 -0.10443167 -0.072236165 -0.10815566 -0.013988204 0.06272424 -0.18490458 -0.07377991 0.004128837 0.15533544 -0.05210698 0.20748755 -0.044918478 -0.05841338 0.10914396 -0.10239127 -0.11963022 -0.05385471 0.03613074 -0.112986326 0.095154956 0.009824933 0.09087589 -0.008651792 0.120002605 -0.056432813 0.11563456 0.20047788 -0.11616797 0.10033598 -0.20180532 -0.01355316 0.057367723 0.077300996 -0.05941926 -0.1379041 -0.07327394
5 -0.030630002 -0.002898689 0.20822522 0.2354508 -0.21469653 -0.1907272 0.19171754 0.2681058 -0.07228797 -0.04472727 0.2841914 0.036936305 0.00400148 0.05535443 -0.13803542 -0.034113053 0.043729767 0.08433263 -0.17829621 -0.028211053 0.19945613 0.19039448 0.26235735 -0.112535276 0.12809984 0.057433553 -0.08401227 0.14241163 -0.10924842 -0.06613791 -0.086996175 -0.004829227 0.02026492 -0.20404144 -0.07442099 0.00042448187 0.13699535 -0.022320868 0.22126842 -0.054130692 -0.056942523 0.11347269 -0.09403332 -0.107456654 -0.039449483 0.012208915 -0.106389225 0.10295112 -0.0108521655 0.06945886 0.012603408 0.10376284 -0.062068682 0.1549377 0.17851199 -0.1318514 0.082375295 -0.18258391 -0.032933734 0.05355803 0.06147925 -0.04616053 -0.12109403 -0.071345486
4 -0.037427053 0.001992882 0.18033072 0.2150208 -0.20059025 -0.21719977 0.17400457 0.24991444 -0.09970643 -0.054160025 0.29482272 0.03646807 -0.0073888563 0.075278655 -0.14581217 -0.06585853 0.02464707 0.08785132 -0.1763349 -0.09880421 0.2009511 0.17869408 0.22331442 -0.06875744 0.10995324 0.013651285 -0.09216325 0.16481823 -0.12985381 -0.06735882 -0.13209641 -0.017459467 0.09291708 -0.15649621 -0.054729253 -0.018335622 0.16029036 -0.09550394 0.16978702 -0.032439765 -0.092341565 0.10643004 -0.12578446 -0.10121018 -0.062038306 0.031436015 -0.11138222 0.1145169 0.036385763 0.10752016 -0.034091335 0.1038133 -0.07107063 0.090882234 0.1963029 -0.10447671 0.1109855 -0.21029927 -0.040808085 0.10374559 0.07389997 -0.060732123 -0.12078946 -0.09386021
