7 64
902 -0.024683867 -0.019526048 0.1702797 0.21702662 -0.18492115 -0.22201839 0.1271689 0.24804477 -0.093786985 -0.044523004 0.24964613 0.020777432 0.0038834626 0.107337974 -0.15975854 -0.05125554 -0.0019257332 0.09925931 -0.1958096 -0.14898397 0.22856052 0.16865574 0.23604892 -0.07245513 0.13458763 0.03084452 -0.10752076 0.15044524 -0.16378714 -0.081077 -0.16534054 -0.043966435 0.14685313 -0.16883707 -0.026666503 -0.020128371 0.15384433 -0.09563203 0.15600774 -0.08291941 -0.14924394 0.10796253 -0.17835683 -0.11173825 -0.04231431 0.041659657 -0.117247686 0.1360389 0.035296913 0.12891132 -0.0715457 0.1108097 -0.07936252 0.08408797 0.20176356 -0.11531344 0.09311835 -0.19733152 -0.0578308 0.124956556 0.020449584 -0.07771969 -0.13407362 -0.13977073
9 -0.03183587 -0.016970946 0.18869096 0.25379732 -0.1922825 -0.18408324 0.15000442 0.28702953 -0.07401254 -0.0871724 0.27239677 0.028396823 0.07552338 0.04981249 -0.15093742 -0.08344957 -0.0069077443 0.10750744 -0.15665007 -0.010090841 0.17736632 0.18935291 0.28076693 -0.13070813 0.09972487 0.12576509 -0.100659154 0.12242072 -0.1178085 -0.0653436 -0.048867863 -0.010997166 -0.008685324 -0.20917541 -0.020649951 0.034658875 0.056587305 -0.013054423 0.24227035 -0.01646029 -0.042715557 0.060806803 -0.10276297 -0.052110437 -0.06948864 -0.01201929 -0.07614164 0.051136483 -0.048211306 0.085722275 0.039688595 0.13186811 -0.01564028 0.19082771 0.13730468 -0.12073435 0.07689075 -0.20101273 -0.0052825077 0.013670029 0.08109478 -0.061588828 -0.14740871 -0.058778044
6 -0.033444066 -0.0102552585 0.20082846 0.23811877 -0.1864794 -0.18619974 0.1519337 0.2774538 -0.06043948 -0.06874348 0.2805534 0.04201029 0.0805109 0.031273235 -0.15249854 -0.07387302 -0.007350508 0.111495785 -0.14763376 0.0016296232 0.17647967 0.1894869 0.28109208 -0.1407103 0.09610378 0.12785645 -0.10216707 0.12875998 -0.10095104 -0.05414607 -0.046843305 -0.0034429221 -0.029472025 -0.19611685 -0.029936144 0.02606756 0.06323231 -0.0019727794 0.2555791 -0.018258477 -0.024323538 0.07155971 -0.092084795 -0.064009935 -0.06412035 -0.0004495841 -0.0694893 0.04137357 -0.05795531 0.062428094 0.05880878 0.11757848 -0.02788713 0.19480757 0.14018469 -0.1253684 0.074069574 -0.19698183 -0.008503631 -0.00044479055 0.0872685 -0.06876433 -0.13832499 -0.05116769
7 -0.027743207 -0.032701828 0.18730898 0.2510008 -0.17737377 -0.18679824 0.12413112 0.28020516 -0.068659134 -0.07502459 0.25874388 0.02615474 0.08787091 0.04974989 -0.149745 -0.073671885 -0.022915643 0.11272825 -0.16539183 -0.007687166 0.19023274 0.18965478 0.28383386 -0.13674398 0.10241016 0.14445987 -0.11660351 0.11137856 -0.12909187 -0.06875402 -0.054848135 -0.028676275 -0.0050862622 -0.20471138 -0.0047837426 0.03796065 0.045626927 -0.0069148988 0.2542553 -0.020756958 -0.050452 0.058023788 -0.10513972 -0.050980814 -0.07380169 -0.0043967688 -0.062978275 0.04961284 -0.05765287 0.06742654 0.051370796 0.12981942 -0.0115321865 0.19804083 0.13376348 -0.12090635 0.06533074 -0.19762735 -0.011875126 0.013136723 0.0718695 -0.07817617 -0.15210743 -0.06181609
5 -0.03255499 -0.024174742 0.17612174 0.23327602 -0.17867368 -0.19392863 0.1513642 0.27114606 -0.083235554 -0.058705945 0.27481562 0.036089662 0.051696043 0.06138511 -0.14198676 -0.06481829 -0.0009384338 0.10586378 -0.16611084 -0.01952871 0.19784075 0.18802433 0.26120284 -0.117973946 0.10411683 0.09554192 -0.1135694 0.124727726 -0.12077691 -0.07251473 -0.07645438 -0.028565919 0.02623114 -0.1917412 -0.028028732 0.02905666 0.08760649 -0.032473262 0.23706138 -0.018391877 -0.0496896 0.07136097 -0.09753846 -0.07278014 -0.07596589 0.014176372 -0.077732176 0.062377807 -0.026891274 0.07479165 0.03012027 0.12893689 -0.02102495 0.15790214 0.1588605 -0.11024769 0.08196105 -0.20354009 -0.0069839284 0.030857919 0.082478136 -0.07418523 -0.14938812 -0.059739567
8 -0.026928956 -0.023200098 0.193871 0.2519419 -0.19833659 -0.1884253 0.14755476 0.27621493 -0.075079955 -0.07113948 0.26327112 0.021002427 0.04657241 0.05974982 -0.14397912 -0.059467636 0.0057242066 0.09560918 -0.17969021 -0.02949896 0.19534299 0.18966854 0.2743947 -0.118480355 0.11781976 0.105798446 -0.10106473 0.1239391 -0.1347142 -0.0730212 -0.07432727 -0.023162486 0.018282145 -0.20905405 -0.029000808 0.020407781 0.08433877 -0.02150841 0.23003197 -0.03773936 -0.06957532 0.07989415 -0.108841054 -0.069109954 -0.0589107 -0.0038598655 -0.08462181 0.08431851 -0.030169241 0.077166505 0.022856751 0.11929866 -0.032936502 0.17679346 0.1505678 -0.12447161 0.07216566 -0.1899613 -0.028231489 0.046174567 0.058631238 -0.060442824 -0.13760646 -0.0744036
4 -0.030880267 -0.025037037 0.1989008 0.25197107 -0.18942636 -0.19774999 0.12735055 0.2699928 -0.073249996 -0.07979115 0.2742607 0.02389319 0.07231849 0.04132034 -0.14871909 -0.0796031 -0.016671889 0.10290482 -0.17398208 -0.026067924 0.18788609 0.19220102 0.2701217 -0.11736185 0.09715745 0.12552898 -0.110181116 0.12637022 -0.13616619 -0.06292972 -0.06959171 -0.025161795 0.0020935342 -0.18968311 -0.011105055 0.01825307 0.067641236 -0.03214168 0.24069127 -0.011012448 -0.06029885 0.06834788 -0.10404443 -0.049474508 -0.077291094 -0.0045003244 -0.06497127 0.067418166 -0.03676178 0.06384569 0.043961965 0.11150353 -0.028430609 0.18240659 0.13823803 -0.11571229 0.07494763 -0.20163809 -0.032249805 0.04353223 0.077606454 -0.07387032 -0.13366805 -0.06576222
