7 64
902 -0.027476264 0.028693158 0.15493016 0.17951429 -0.18924347 -0.18848902 0.19544506 0.26687577 -0.073043615 -0.033453975 0.25160706 0.0535315 -0.001121349 0.10927258 -0.17745298 -0.044419512 0.032619502 0.11709745 -0.13693063 -0.13046919 0.2033642 0.15638535 0.26194102 -0.113489464 0.14505781 0.0043912902 -0.07141356 0.16830298 -0.088381276 -0.066321634 -0.1343353 0.016799472 0.11444268 -0.19576396 -0.079252765 -0.01133031 0.162626 -0.044385217 0.14768098 -0.12325431 -0.096638545 0.12540562 -0.187178 -0.1593924 0.0043289852 0.048246287 -0.16029882 0.09960032 0.008194845 0.17776468 -0.08772167 0.13771904 -0.09305984 0.092658944 0.22583884 -0.14565334 0.10549984 -0.1979082 -0.0046325745 0.046899103 0.028867226 -0.054102384 -0.1537808 -0.1372947
6 -0.039860588 0.009281872 0.20005368 0.16832733 -0.15853448 -0.2152634 0.1650141 0.2401905 -0.05196584 0.0043725306 0.3056847 0.08614686 0.051576093 0.029629849 -0.16397166 -0.04152102 -0.0022931977 0.12866859 -0.13438392 -0.039066706 0.20711346 0.18010065 0.25216982 -0.13513067 0.0985104 0.062724195 -0.11586748 0.16461402 -0.06842213 -0.038950913 -0.10576021 -0.001299662 0.017778302 -0.13873479 -0.06360065 -0.012166539 0.14044917 -0.029593926 0.24264807 -0.045704406 -0.017152352 0.11514724 -0.099779904 -0.133218 -0.04730106 0.07084051 -0.080323555 0.0431397 -0.029664773 0.044249788 0.03951609 0.0897071 -0.07873492 0.12416236 0.1942372 -0.12150845 0.09002089 -0.19927417 -0.014566515 0.006750065 0.09227658 -0.099098854 -0.12557809 -0.06399608
9 -0.036670517 -0.004316511 0.21654062 0.14896874 -0.13516417 -0.22887719 0.13128132 0.21764854 -0.033063333 0.043785997 0.29903814 0.097093344 0.065306336 0.013115216 -0.1646362 -0.01619177 -0.023034632 0.13692781 -0.14130065 -0.037822567 0.22686923 0.17822514 0.2473809 -0.14409164 0.09856484 0.07822581 -0.13715959 0.15906718 -0.06906556 -0.030515522 -0.12129048 -0.018995343 0.013498588 -0.10881146 -0.053251743 -0.025209447 0.14326975 -0.019899156 0.26072174 -0.056703247 -0.01716702 0.12682739 -0.094423786 -0.14698856 -0.04425146 0.097298525 -0.05667857 0.03940521 -0.041716464 -0.005552332 0.065407865 0.06314027 -0.09352846 0.12318949 0.19420934 -0.122392364 0.07198083 -0.18417592 -0.034719 0.0046469774 0.07997408 -0.12715138 -0.11314908 -0.064709276
4 -0.033860967 -0.027231265 0.21605697 0.16116667 -0.12726086 -0.23186281 0.1144518 0.22068675 -0.036843035 0.04965405 0.29218107 0.090633646 0.07326028 0.016559832 -0.15647466 -0.0071135326 -0.03241712 0.13760227 -0.15899573 -0.018353323 0.24287012 0.18587731 0.25233367 -0.14888963 0.10197543 0.099562585 -0.15610848 0.14222041 -0.086256035 -0.041456603 -0.11942606 -0.04285326 0.012541191 -0.11466596 -0.037904296 -0.011706239 0.12904565 -0.0131682595 0.2822901 -0.048766367 -0.019895844 0.11746383 -0.0826443 -0.13747418 -0.058901466 0.09766207 -0.040603396 0.038653195 -0.0497837 -0.028859248 0.0848109 0.067808464 -0.07550986 0.13585593 0.18654858 -0.11752017 0.06036353 -0.182033 -0.03563436 0.004298578 0.077754684 -0.13890438 -0.12169518 -0.056137823
7 -0.04018413 -0.029898977 0.22084005 0.14364487 -0.116118655 -0.24110048 0.12146159 0.20157187 -0.038759474 0.07506496 0.31786963 0.10681297 0.0633818 -0.0036473784 -0.14201285 0.003910963 -0.026678069 0.13376594 -0.16009483 0.010343989 0.24894874 0.19255036 0.23157698 -0.14274806 0.08805135 0.0860463 -0.16875283 0.14708959 -0.07430157 -0.03587079 -0.12307116 -0.05066862 -0.0013917787 -0.0877887 -0.049616043 -0.016987937 0.15013318 -0.022931471 0.30461988 -0.020198438 0.0085068485 0.12403582 -0.043877408 -0.14386906 -0.0786432 0.11727733 -0.022725755 0.02999283 -0.042337865 -0.07379713 0.11691387 0.050703 -0.075816125 0.12209017 0.1928182 -0.10258061 0.06491736 -0.18603778 -0.036551245 0.0030935684 0.106784865 -0.15151894 -0.110902414 -0.02798045
8 -0.034686968 -0.016851505 0.22460954 0.16160786 -0.1424429 -0.2226948 0.13259669 0.2114976 -0.03496116 0.046466023 0.2987965 0.08760823 0.050006796 0.0041144625 -0.14393307 -0.00080845924 -0.009211704 0.1192529 -0.16013387 -0.0072830017 0.22981699 0.1862209 0.2408698 -0.13765782 0.100669794 0.08182972 -0.1382213 0.14706036 -0.07863373 -0.036170408 -0.112054266 -0.030218873 -0.0046270383 -0.11354697 -0.057581227 -0.022030558 0.14411546 -0.012864083 0.27418086 -0.042645905 -0.01097657 0.12729257 -0.06254218 -0.13732298 -0.052980527 0.08800308 -0.04459065 0.050817106 -0.039845407 -0.04034174 0.0881017 0.051695455 -0.08457888 0.13382663 0.18302251 -0.1167085 0.06214838 -0.1723859 -0.045268353 0.014550866 0.08185932 -0.120479174 -0.10187985 -0.0462317
5 -0.03677146 -0.023589952 0.22320665 0.16403662 -0.13549238 -0.23863238 0.112527974 0.21008217 -0.04189585 0.04025439 0.30483198 0.086064406 0.064270444 0.0053673796 -0.15185575 -0.016674299 -0.030105034 0.12762982 -0.1661775 -0.026277164 0.23689333 0.18919258 0.23896833 -0.13109024 0.09257151 0.09004813 -0.1524609 0.15181302 -0.09489108 -0.036792684 -0.12713028 -0.042244703 0.012329961 -0.10192953 -0.038796227 -0.02510761 0.14148805 -0.03581331 0.27698582 -0.030629456 -0.02533261 0.12162162 -0.07701702 -0.12858316 -0.06972254 0.09382949 -0.037430752 0.0510034 -0.03422345 -0.03577461 0.08643855 0.05394248 -0.084131986 0.12877233 0.18653959 -0.11102858 0.06916694 -0.19053087 -0.05263833 0.029836947 0.089340754 -0.13723767 -0.10802396 -0.054783262
