7 64
902 -0.008407513 -0.06492636 0.16341971 0.25492284 -0.21202111 -0.18699393 0.15799914 0.25016946 -0.11262829 -0.021065382 0.21157339 -0.017965054 -0.08299215 0.13413288 -0.08581295 0.028832577 0.066175036 0.036817055 -0.25144666 -0.079958126 0.24634765 0.17013618 0.2098615 -0.04807967 0.1770256 0.0031701357 -0.095502034 0.09086917 -0.19117227 -0.12194105 -0.14765237 -0.08434211 0.15038183 -0.2112033 -0.051768094 0.0053693075 0.16436307 -0.057680197 0.14560428 -0.09505761 -0.16488755 0.11531288 -0.11269194 -0.11348259 -0.03631334 0.015821157 -0.12047969 0.19701676 0.053317055 0.07532016 -0.06314348 0.11069161 -0.045901015 0.0969398 0.18952578 -0.109803595 0.056787062 -0.14446819 -0.06925816 0.15752584 -0.020434255 -0.03884206 -0.12643327 -0.112807825
9 -0.031033617 -0.041481085 0.15552843 0.20011738 -0.159257 -0.18902208 0.18764572 0.25538656 -0.09262077 0.011959812 0.2756679 0.05682631 -0.005858707 0.08314633 -0.11066281 0.0022841343 0.041013952 0.09797342 -0.18548271 0.024161251 0.24325912 0.19466259 0.24381594 -0.12146444 0.12988113 0.04504133 -0.13388906 0.11258222 -0.104658075 -0.09496023 -0.09669588 -0.056391045 0.053888608 -0.19205171 -0.0690935 0.04135536 0.14218877 -0.018573714 0.25828806 -0.03331707 -0.026539719 0.09564813 -0.04999873 -0.12688734 -0.07576657 0.058333885 -0.08316615 0.07281413 -0.0101322355 0.028950054 0.039954647 0.1339005 -0.014056144 0.123435475 0.19627468 -0.10098435 0.07579744 -0.18770015 0.013694231 0.021132829 0.08401652 -0.08298598 -0.16093804 -0.03343821
5 -0.03343811 -0.021342887 0.18469994 0.18461213 -0.16143966 -0.20590256 0.17988293 0.24666403 -0.07118066 0.023342699 0.29032472 0.07220307 0.010149214 0.060070165 -0.1333783 -0.0017082918 0.027204633 0.109926805 -0.17149287 -0.0061696013 0.2384961 0.18995582 0.24790098 -0.12867686 0.12479789 0.046987712 -0.12793237 0.13652544 -0.089645915 -0.07086116 -0.10947231 -0.035577383 0.04226675 -0.16623488 -0.07349413 0.011033767 0.15411529 -0.019413235 0.25284982 -0.051350754 -0.027144024 0.11608501 -0.07134483 -0.1428607 -0.055700563 0.071917444 -0.08375395 0.06964898 -0.016905343 0.024040967 0.039751634 0.10657667 -0.052702926 0.121371016 0.20256135 -0.11469495 0.07750489 -0.18547878 -0.007555993 0.02043676 0.07828288 -0.09250277 -0.14045411 -0.050967682
7 -0.032333963 -0.038909607 0.17614754 0.17691968 -0.14023177 -0.20587102 0.1617841 0.23813972 -0.070155695 0.03961823 0.28436074 0.07601504 0.021555187 0.057581518 -0.12664749 0.008226956 0.015560559 0.116796106 -0.1790558 0.018136265 0.25428647 0.19624567 0.24975923 -0.13798797 0.12203944 0.06391407 -0.15029612 0.12418134 -0.094121434 -0.0766891 -0.10889635 -0.05616093 0.03761819 -0.16170149 -0.062443685 0.02331236 0.14467995 -0.012685339 0.27969941 -0.039561063 -0.015934426 0.10830738 -0.05411763 -0.14061204 -0.0719204 0.08360425 -0.0645394 0.056541614 -0.027140284 -0.0052989316 0.06580287 0.10924724 -0.036850616 0.12676127 0.19969071 -0.10707924 0.069144905 -0.18714343 -0.0013464364 0.008341912 0.08643985 -0.11154773 -0.15004209 -0.03634904
6 -0.038201727 -0.035360556 0.15367645 0.16391437 -0.13525987 -0.19948314 0.19536076 0.23828143 -0.08670339 0.04859068 0.29874805 0.087161615 -0.0020097245 0.06726771 -0.11202296 0.012158402 0.038009565 0.112606265 -0.1706576 0.043108724 0.25414503 0.19785966 0.23401782 -0.13153774 0.11745298 0.032180704 -0.150406 0.124593474 -0.07647337 -0.08458694 -0.104314074 -0.055936452 0.045168757 -0.16262627 -0.0827918 0.03711115 0.16324943 -0.020537654 0.28226027 -0.020360276 0.009389464 0.10484774 -0.027393416 -0.1497356 -0.08542336 0.092735134 -0.071457386 0.047073126 -0.01289457 -0.0016803761 0.06548339 0.12520291 -0.02036354 0.10509535 0.21324436 -0.09286612 0.08308584 -0.19636492 0.027058937 -0.0030263858 0.11238887 -0.10521141 -0.1611926 -0.012894335
8 -0.027882898 -0.04171705 0.18090133 0.19884427 -0.17002428 -0.19292383 0.1845606 0.23833013 -0.081161 0.029040284 0.2770496 0.05378424 -0.025959658 0.06609448 -0.10111651 0.02608853 0.052888118 0.082040645 -0.20143177 0.022633394 0.24789038 0.19568516 0.23426671 -0.11279212 0.13697293 0.036392614 -0.12759218 0.115632236 -0.10885647 -0.08778165 -0.106676534 -0.057068758 0.04364819 -0.17879637 -0.080736056 0.018415865 0.16217208 -0.015390924 0.25343946 -0.04341067 -0.03374276 0.11698752 -0.03711531 -0.13592847 -0.062919065 0.06095378 -0.07804116 0.09664644 -0.0030558696 -0.0069027613 0.048727196 0.10004223 -0.03807259 0.12243062 0.19508867 -0.10554906 0.06522815 -0.16771811 -0.01852078 0.044261143 0.06931709 -0.079194054 -0.13211107 -0.035319068
4 -0.03846849 -0.039957307 0.18760669 0.19513728 -0.15655352 -0.21279158 0.17084567 0.23761891 -0.08290829 0.020049868 0.31278086 0.06988028 0.0144007765 0.039813746 -0.11489137 -0.007974879 0.022930466 0.10277047 -0.19145145 0.03718513 0.24577303 0.20999037 0.23931131 -0.12116895 0.10671476 0.06340334 -0.1496195 0.1305752 -0.10449099 -0.07525566 -0.101574905 -0.057542473 0.017888254 -0.15720592 -0.06323255 0.020524576 0.14807075 -0.03365359 0.2898804 0.002419999 -0.005646271 0.10237577 -0.025915852 -0.1160964 -0.09822495 0.06882188 -0.052669223 0.061936937 -0.014315377 -0.023596255 0.08645994 0.099059686 -0.029105231 0.13122852 0.19032435 -0.09381373 0.07949255 -0.20060399 -0.011506348 0.028495193 0.11550641 -0.10522485 -0.13776618 -0.015414498
