7 64
902 -0.034576543 -0.00017875645 0.11883739 0.19947474 -0.20106056 -0.18389201 0.2325359 0.24791674 -0.1346523 -0.04014774 0.26774555 0.028305056 -0.08999824 0.13307142 -0.10537929 -0.03193729 0.08745356 0.057961788 -0.17660576 -0.08631051 0.20490454 0.16389194 0.18674606 -0.03926315 0.13339926 -0.07042715 -0.07199107 0.14457008 -0.11822372 -0.101466045 -0.13913825 -0.026269633 0.15712397 -0.18740217 -0.09664304 0.007403357 0.20551124 -0.1063145 0.12773524 -0.04661498 -0.099255286 0.10968819 -0.10899453 -0.13170634 -0.05655618 0.03578278 -0.15576367 0.14405148 0.08218621 0.15278885 -0.091586985 0.14573449 -0.046064924 0.039719068 0.22982441 -0.0901716 0.12607925 -0.20380993 0.00034491988 0.117062725 0.067156166 -0.025371369 -0.1460983 -0.08672907
9 -0.04125364 0.00054315524 0.17124322 0.20149906 -0.18332927 -0.20691535 0.19655156 0.26051745 -0.09458197 -0.032835264 0.30598378 0.059408158 0.007878798 0.06910059 -0.14218107 -0.055289503 0.028864011 0.10307215 -0.15597238 -0.042491782 0.20364276 0.1841236 0.23591602 -0.09991141 0.10576847 0.02683608 -0.10406972 0.15533201 -0.09623832 -0.068150364 -0.106170185 -0.013773988 0.060044665 -0.1694976 -0.06809501 0.007873034 0.15103626 -0.06284027 0.21401983 -0.023999736 -0.042357247 0.09949977 -0.095811345 -0.11371891 -0.068937406 0.044289224 -0.10393569 0.07498616 0.009428805 0.08965621 0.0008348124 0.12339112 -0.04874545 0.106533594 0.20021693 -0.10527244 0.1088133 -0.21456979 -0.0012617904 0.0461738 0.0990588 -0.06954592 -0.14256676 -0.0620979
6 -0.03499965 -0.008642893 0.19381484 0.17721686 -0.15260461 -0.22031683 0.1517642 0.248405 -0.057251472 0.01206117 0.29084867 0.07941901 0.052485168 0.050398443 -0.16471633 -0.030277345 -0.009949792 0.13330299 -0.15014066 -0.047296055 0.22737196 0.180668 0.25933987 -0.13840605 0.112516835 0.0704282 -0.12971161 0.15178707 -0.08664977 -0.05280919 -0.11708032 -0.02204832 0.043338254 -0.14876494 -0.051265314 -0.0027511606 0.13605823 -0.026677102 0.24570574 -0.061619446 -0.038463302 0.113061234 -0.11373537 -0.13843729 -0.047882892 0.076508515 -0.081423126 0.05245848 -0.031165836 0.047938958 0.030554002 0.10253627 -0.07083616 0.12596312 0.19997656 -0.12434635 0.08179841 -0.19749752 -0.0147391455 0.012832405 0.074080385 -0.109079085 -0.14103293 -0.07618921
7 -0.031079907 -0.023426743 0.18816143 0.19186135 -0.1482093 -0.21962214 0.13671736 0.26303202 -0.059678372 0.0047239335 0.27821276 0.07145936 0.069463685 0.063357465 -0.16937324 -0.032781087 -0.02381225 0.14144287 -0.15834945 -0.04602499 0.23683305 0.18345538 0.27566996 -0.14899552 0.11958955 0.09538699 -0.14106078 0.13877848 -0.10187419 -0.063311316 -0.11364992 -0.035285506 0.04955264 -0.16609888 -0.03303888 0.012638111 0.11384069 -0.017147353 0.2562842 -0.06808696 -0.05008513 0.10118873 -0.1262789 -0.12998687 -0.0518391 0.07088955 -0.078224175 0.049204383 -0.043813907 0.056141455 0.030897466 0.11947807 -0.055425398 0.14255069 0.19439757 -0.12833825 0.0737739 -0.20015119 -0.009032421 0.006248725 0.06380647 -0.116473645 -0.15887189 -0.083050504
5 -0.034727395 -0.022464143 0.15171488 0.18070629 -0.15120593 -0.20743431 0.17050129 0.24728316 -0.09145519 0.0040114047 0.27918255 0.06381207 0.009426661 0.085754804 -0.13571692 -0.026051795 0.0154175395 0.11231969 -0.16314329 -0.041453484 0.2305282 0.17708318 0.23014325 -0.10711892 0.1164336 0.029893003 -0.12818165 0.13551973 -0.101888075 -0.0791383 -0.123583324 -0.04318525 0.08885987 -0.16083723 -0.055944398 0.017464526 0.15036741 -0.053480156 0.22108392 -0.043140978 -0.051745452 0.099184595 -0.09892837 -0.13155803 -0.06836981 0.071027085 -0.09430782 0.07188011 0.0042140787 0.07094257 0.0020493306 0.12911578 -0.040824473 0.09397901 0.20887029 -0.10144052 0.09345955 -0.20422019 0.0042066723 0.03890142 0.08049852 -0.0937949 -0.15754168 -0.06692319
8 -0.030820854 -0.01828858 0.18710719 0.1961814 -0.17378005 -0.20767677 0.17456427 0.251206 -0.07430691 0.0069030453 0.2813977 0.05965097 0.00497071 0.07024889 -0.13947502 -0.009790893 0.026380325 0.104947895 -0.17771336 -0.03735287 0.23441878 0.18526575 0.24897681 -0.11796068 0.13109034 0.04243349 -0.1179814 0.14007261 -0.104443416 -0.07259734 -0.1188481 -0.03286867 0.060966697 -0.17198001 -0.067991175 0.0026072224 0.1553385 -0.030710898 0.22935326 -0.06426802 -0.055399913 0.11864307 -0.09643068 -0.13888155 -0.046944372 0.06135281 -0.09607031 0.08923119 -0.006870937 0.049343597 0.013502862 0.107164286 -0.062254615 0.11914075 0.2036485 -0.12054839 0.080105156 -0.18590601 -0.020957567 0.04382075 0.0615198 -0.084185116 -0.1377697 -0.0729408
4 -0.033894077 -0.01162547 0.16475792 0.19826798 -0.18127014 -0.20893718 0.17642325 0.24265465 -0.09846132 -0.021790167 0.27965596 0.043854002 -0.018743329 0.08683082 -0.13263242 -0.035297517 0.0321986 0.08934202 -0.17844678 -0.07569112 0.21884596 0.17617713 0.21901837 -0.077965 0.12064544 0.006481452 -0.10456729 0.14827606 -0.12129197 -0.0777666 -0.1357163 -0.03344137 0.10316 -0.16235699 -0.06301679 -0.0052453144 0.16967508 -0.07958844 0.18477201 -0.04546378 -0.08418187 0.110946715 -0.11273431 -0.122857176 -0.060541283 0.050508697 -0.1110225 0.11166226 0.03245732 0.09087413 -0.027814697 0.11384101 -0.061526358 0.085066706 0.20912525 -0.10397683 0.10252224 -0.20270622 -0.026400395 0.08853908 0.06829551 -0.07037218 -0.13516141 -0.085985616
