7 64
902 -0.017956272 -0.038244817 0.23326844 0.2596096 -0.18468112 -0.2311737 0.016081573 0.23201112 -0.047996063 -0.09395106 0.23069349 -0.009833695 0.105740905 0.026019199 -0.17454197 -0.093968995 -0.08140397 0.101996936 -0.20434143 -0.138018 0.19313586 0.17548777 0.2599867 -0.08677343 0.09513056 0.16112873 -0.116828255 0.1340082 -0.20136854 -0.04383662 -0.12694559 -0.047372296 0.04449643 -0.14222562 0.051467724 -0.039907087 0.054429233 -0.07442503 0.19370753 -0.04300865 -0.1581151 0.08000879 -0.1827542 -0.025729612 -0.061257046 -0.006908223 -0.04526067 0.117321596 -0.024920365 0.05891096 0.012641613 0.054485656 -0.083746895 0.17778465 0.11862748 -0.12532727 0.05554341 -0.18884197 -0.12718673 0.13136856 0.014198728 -0.102468476 -0.09176462 -0.14032471
6 -0.041487053 -0.02399589 0.1801199 0.21024996 -0.13903199 -0.21160233 0.10835203 0.26035133 -0.067085974 -0.056783065 0.29702243 0.061774243 0.12807284 0.021368995 -0.16455841 -0.10243673 -0.06050429 0.14267649 -0.13309745 -0.0038795222 0.18663698 0.18987569 0.26723024 -0.1419855 0.06205282 0.15043232 -0.1446993 0.13304658 -0.10394224 -0.0477043 -0.06410166 -0.028110545 -0.014615577 -0.15305166 0.008367535 0.032781012 0.04689665 -0.035035312 0.2827648 0.023137845 -0.0101589635 0.046854302 -0.093706466 -0.04870761 -0.10669842 0.031644274 -0.034103397 -0.002252587 -0.06253936 0.04660277 0.08392375 0.12179806 -0.0108671095 0.17284639 0.13968715 -0.09838326 0.08444936 -0.22880228 0.005670816 -0.014139411 0.124854006 -0.11780219 -0.15510646 -0.039491925
9 -0.036370125 -0.02528095 0.19675678 0.20308837 -0.13938858 -0.22048831 0.08690696 0.24314882 -0.054621283 -0.041125316 0.2868012 0.05833835 0.12160958 0.016582776 -0.16945916 -0.086157545 -0.06599798 0.13954489 -0.14709374 -0.033783853 0.19848593 0.18636216 0.26435345 -0.13630754 0.07199254 0.14715813 -0.14497533 0.1384076 -0.11583971 -0.04183995 -0.08790582 -0.03291459 -0.0013199401 -0.13715434 0.0101879155 0.008392579 0.062234882 -0.038930167 0.26877856 -0.0014514091 -0.036181528 0.06643146 -0.11034209 -0.061926566 -0.08991491 0.041301247 -0.033978973 0.021348353 -0.056404293 0.032143213 0.07466224 0.09639126 -0.03945461 0.1661853 0.14468001 -0.106916346 0.07518682 -0.21496156 -0.026898392 0.012019555 0.098650396 -0.124566145 -0.13647388 -0.061610583
7 -0.0271049 -0.047484197 0.18935075 0.23052917 -0.14478014 -0.21615657 0.057545755 0.24930334 -0.061316136 -0.060272805 0.25138542 0.028231692 0.11990589 0.037022457 -0.16195102 -0.084401116 -0.074168175 0.12829226 -0.17125587 -0.05086403 0.20393084 0.18290369 0.26599604 -0.12423811 0.084216565 0.16297081 -0.14624785 0.11636452 -0.15313324 -0.05780872 -0.09255874 -0.054926652 0.02287647 -0.15431872 0.035726883 0.015969835 0.04086581 -0.04165732 0.25123662 -0.011917024 -0.07746724 0.05407578 -0.12880959 -0.041281763 -0.09020248 0.021545952 -0.033197764 0.046361286 -0.052054666 0.044149935 0.05616672 0.10365 -0.026828246 0.17535554 0.12981385 -0.1067521 0.06148399 -0.20527564 -0.04260547 0.040818315 0.06748443 -0.1197381 -0.14118393 -0.08075013
4 -0.041154858 -0.029182032 0.17950708 0.2055298 -0.14059903 -0.21956639 0.111197166 0.24968377 -0.0748282 -0.042711455 0.30018836 0.060357384 0.10279706 0.027795976 -0.15521376 -0.08792143 -0.04987717 0.13340767 -0.14907256 -0.013488035 0.2005648 0.19145584 0.25238046 -0.12646653 0.06826673 0.12633546 -0.14851956 0.13584796 -0.11364533 -0.053430323 -0.08501221 -0.040142205 0.008910258 -0.14371036 0.00067974156 0.02330925 0.073300816 -0.051962856 0.2740635 0.021660833 -0.023262776 0.05883473 -0.08918665 -0.060378965 -0.10989681 0.042815007 -0.037607264 0.019047894 -0.04189997 0.036738053 0.074945845 0.11377385 -0.019469982 0.1530228 0.15352984 -0.09307325 0.087636895 -0.22839196 -0.0068273856 0.012283206 0.12169973 -0.120230295 -0.1493752 -0.04302569
8 -0.027943434 -0.038249377 0.21159929 0.24011426 -0.16675583 -0.21420789 0.07497918 0.2479638 -0.05683387 -0.06429248 0.2651336 0.025621463 0.103398144 0.022175502 -0.15718319 -0.0783564 -0.054531742 0.114473246 -0.17986995 -0.0420183 0.19844174 0.19017513 0.2677845 -0.12054774 0.08779856 0.15588766 -0.13216648 0.12501022 -0.15081939 -0.05215308 -0.086873285 -0.042786572 0.0006654695 -0.15961923 0.017890586 0.0034841695 0.055126213 -0.037593238 0.25378937 -0.010752471 -0.072536826 0.06825604 -0.11443987 -0.042749356 -0.08308151 0.011091101 -0.036953997 0.061416905 -0.04811989 0.029694384 0.064431645 0.08655777 -0.04068079 0.18512468 0.12813523 -0.1133535 0.061620407 -0.19839315 -0.058619134 0.05179576 0.0689119 -0.10495295 -0.12219742 -0.07538225
5 -0.036569335 -0.035912734 0.19758242 0.2155459 -0.14169571 -0.22406106 0.07493121 0.240068 -0.062033754 -0.051990088 0.2881125 0.047843914 0.12199504 0.012565094 -0.1614239 -0.093120776 -0.070904166 0.13214353 -0.16075122 -0.028626353 0.19904865 0.19211495 0.25833446 -0.12532273 0.06577466 0.15545195 -0.15106203 0.13349913 -0.13360925 -0.045830987 -0.08833649 -0.045353062 -0.002314998 -0.13553499 0.022199359 0.010040945 0.05577983 -0.051703285 0.2737471 0.018900424 -0.04302485 0.05837795 -0.10141801 -0.043327887 -0.107378356 0.032824807 -0.022799596 0.028040858 -0.050488614 0.020877173 0.08422331 0.09309956 -0.030273372 0.17024668 0.13558228 -0.09810555 0.07513625 -0.22060223 -0.03678141 0.029400682 0.10568799 -0.12696862 -0.13356006 -0.05588229
