7 64
902 -0.018199643 -0.02886695 0.11510421 0.23879516 -0.19626428 -0.1878939 0.12924094 0.25163487 -0.12660642 -0.09515395 0.19866277 -0.024011666 -0.03472011 0.15425827 -0.12573954 -0.06572423 0.019098338 0.06122225 -0.192026 -0.16823077 0.19054243 0.13970666 0.1943615 -0.023455089 0.13262126 -0.004082125 -0.07279049 0.11588212 -0.184329 -0.10261062 -0.15110715 -0.05049823 0.19342318 -0.18666208 -0.012394744 0.00043568382 0.12887962 -0.11787332 0.07547515 -0.07200118 -0.18842284 0.075307414 -0.18816282 -0.07321725 -0.045517273 -0.0013374902 -0.13846149 0.1637073 0.06982683 0.19174716 -0.13034622 0.13922204 -0.04338672 0.05979769 0.1791281 -0.09380111 0.096936 -0.185906 -0.04440627 0.16090858 -0.0009805262 -0.033840157 -0.14017588 -0.14811519
7 -0.017489422 -0.031259518 0.17357661 0.24108377 -0.18331191 -0.18502596 0.12154823 0.2704838 -0.073329166 -0.061582748 0.22135282 0.011041305 0.04263721 0.09175725 -0.15160367 -0.04715736 -0.0058838166 0.10101848 -0.18301547 -0.076350346 0.20837113 0.17195146 0.2716628 -0.1137075 0.13579795 0.097042456 -0.10200464 0.11287202 -0.14892647 -0.08221932 -0.098685995 -0.03602305 0.070359334 -0.20822221 -0.014420445 0.01816948 0.08353463 -0.023871271 0.19456534 -0.08011513 -0.1123452 0.082059324 -0.15223876 -0.083829 -0.0372985 0.0060855513 -0.09925911 0.10128634 -0.023355182 0.10882176 -0.021406805 0.1290834 -0.040670224 0.1575541 0.1600305 -0.13085783 0.06340519 -0.17791235 -0.032818493 0.060951296 0.016157757 -0.065778896 -0.14849004 -0.11159013
6 -0.020854138 -0.021452978 0.18785253 0.22515959 -0.18477719 -0.1958149 0.13392657 0.25995004 -0.06711373 -0.039030418 0.23936827 0.026007844 0.03007551 0.08056111 -0.15393698 -0.034659654 0.0028712638 0.10188989 -0.18240932 -0.07993748 0.21606104 0.17444623 0.2658519 -0.11354513 0.13678096 0.07789086 -0.10219785 0.12864003 -0.13612194 -0.0734898 -0.11236929 -0.02949249 0.0688975 -0.19201307 -0.03303953 0.0009264212 0.112082355 -0.027919019 0.19724198 -0.08523155 -0.10297754 0.10241001 -0.14493065 -0.10592627 -0.030779641 0.024386017 -0.10141652 0.105176345 -0.01648526 0.09089436 -0.016601827 0.11157792 -0.06255931 0.14429641 0.17553036 -0.13336565 0.067952305 -0.17660065 -0.041724026 0.064108536 0.021923244 -0.07077967 -0.13568586 -0.10979905
8 -0.012879077 -0.04632186 0.16215634 0.23490849 -0.17266232 -0.18665746 0.10949921 0.26179305 -0.07769617 -0.043698594 0.20477161 0.00646322 0.028634513 0.10785783 -0.14273885 -0.027291967 -0.005789798 0.097605385 -0.19664423 -0.084638074 0.22595266 0.16789652 0.261796 -0.106524915 0.14624722 0.08688617 -0.11193259 0.10188582 -0.16125277 -0.09270531 -0.11618563 -0.056444548 0.09937017 -0.20442131 -0.010014648 0.019225845 0.092423186 -0.02782433 0.18645848 -0.09238735 -0.12997459 0.08554487 -0.155451 -0.093998596 -0.036520008 0.018320592 -0.09897223 0.115091704 -0.014014883 0.10169626 -0.03144031 0.12962759 -0.039183028 0.14283992 0.16752972 -0.12676282 0.056184262 -0.17008008 -0.037783563 0.07494593 -7.9876976e-05 -0.07377 -0.15266973 -0.11916007
9 -0.020273516 -0.033447906 0.16944095 0.22916774 -0.17891161 -0.18702263 0.13878673 0.2624295 -0.079636276 -0.04050543 0.23381841 0.020826146 0.021698553 0.091271244 -0.13912748 -0.03113081 0.0097755445 0.09628 -0.1877294 -0.05781938 0.21914798 0.17667036 0.2595898 -0.10954006 0.13667312 0.07543138 -0.108278014 0.11431134 -0.14086212 -0.086300686 -0.10466071 -0.042694494 0.0747291 -0.20355393 -0.030955452 0.019491633 0.10769701 -0.028510613 0.20624799 -0.07206334 -0.098852664 0.090958685 -0.12993617 -0.09895874 -0.045816213 0.020852419 -0.09939462 0.1038137 -0.013036882 0.09013948 -0.012345537 0.12810759 -0.03919884 0.14426894 0.17446992 -0.12417551 0.06825391 -0.18088877 -0.027067546 0.06169956 0.029937431 -0.0692688 -0.14966139 -0.09673725
5 -0.015913207 -0.028736414 0.19835804 0.24417208 -0.19888015 -0.17867431 0.1381638 0.26129633 -0.06243034 -0.04655629 0.22869833 0.011600197 0.019723311 0.07197386 -0.13825788 -0.021239681 0.019819267 0.08450308 -0.19786398 -0.048481513 0.21234003 0.18176433 0.2732756 -0.11619697 0.14506488 0.09148386 -0.093434244 0.113983475 -0.14314581 -0.07866408 -0.091165796 -0.030561287 0.039782897 -0.21313809 -0.03847593 0.0077911485 0.101636164 -0.005624236 0.20919487 -0.08386753 -0.09899715 0.10197985 -0.12211777 -0.09412221 -0.027484845 0.0024347724 -0.09686828 0.11697871 -0.024885878 0.06948755 0.0012564244 0.105884 -0.053458355 0.17105968 0.15855882 -0.13832083 0.05377384 -0.15990037 -0.050038714 0.065208256 0.013398418 -0.054148704 -0.12680705 -0.097390994
4 -0.02005982 -0.03287116 0.19256535 0.23778322 -0.1854287 -0.19629791 0.12012315 0.25762382 -0.0692199 -0.047508273 0.23976128 0.017199915 0.03716369 0.071398154 -0.14709128 -0.038742162 -0.0035785572 0.096975066 -0.19533451 -0.065510094 0.21739866 0.18222615 0.26684326 -0.11080517 0.13174976 0.096070744 -0.1098194 0.12131903 -0.15098113 -0.076275826 -0.10648734 -0.040657308 0.056420974 -0.19392525 -0.020937623 0.0051773195 0.100357234 -0.030292185 0.21281344 -0.06782666 -0.10471437 0.09485871 -0.13378201 -0.08816083 -0.04626019 0.014975256 -0.08774502 0.107848205 -0.01965438 0.07335481 0.0018149896 0.10846435 -0.05236316 0.15911585 0.16413048 -0.12908995 0.063666426 -0.18032861 -0.050698455 0.07266184 0.02800055 -0.07486304 -0.13434021 -0.10180802
