7 64
902 -0.010632746 -0.048163217 0.160606 0.23916994 -0.19205372 -0.17970796 0.14863947 0.26292574 -0.09024031 -0.027980845 0.20756662 0.0010865891 -0.027734684 0.12482084 -0.11991752 0.006647622 0.03998286 0.0736163 -0.22053888 -0.06992689 0.24139911 0.17468837 0.2527692 -0.093574926 0.17029898 0.046101008 -0.10346746 0.10027894 -0.16576196 -0.11031391 -0.12513694 -0.06258283 0.116072275 -0.2263664 -0.044555623 0.01977023 0.13291356 -0.025917472 0.18215431 -0.105454884 -0.13552806 0.10671426 -0.13346627 -0.11819776 -0.02905595 0.019446764 -0.11959544 0.15034659 0.009348249 0.09402894 -0.04419845 0.13213275 -0.04220985 0.13180059 0.18869284 -0.12950943 0.05763954 -0.15999626 -0.04052346 0.096628495 -0.00813885 -0.053934675 -0.15069166 -0.113607354
8 -0.019431243 -0.06524028 0.14318448 0.2182658 -0.14321473 -0.18684049 0.12688704 0.26615047 -0.08629409 -0.009282384 0.22730224 0.03262846 0.037992522 0.10464824 -0.12758468 -0.011493317 -0.0048394534 0.11304405 -0.19105424 -0.0131472815 0.24708661 0.18259153 0.26365852 -0.13051763 0.13780546 0.09636319 -0.1463906 0.0884059 -0.13970336 -0.103598505 -0.10004423 -0.076959155 0.07870691 -0.20596035 -0.016631197 0.05384231 0.08894678 -0.009520011 0.24700157 -0.05992502 -0.07398165 0.071914636 -0.103547685 -0.10301763 -0.06930535 0.044542912 -0.07584213 0.07223569 -0.032222845 0.058674686 0.020210112 0.15143335 -0.0010534507 0.14635329 0.17533682 -0.11043259 0.05564848 -0.18333645 0.005727084 0.024076853 0.042265803 -0.098460376 -0.18122585 -0.07070791
4 -0.027942268 -0.06623202 0.16408497 0.17989121 -0.1061115 -0.21890268 0.103927106 0.24687202 -0.06546864 0.041145824 0.26324502 0.075589344 0.081441656 0.06706743 -0.14583118 -0.006617394 -0.042871617 0.14866969 -0.17480578 0.003109474 0.26887664 0.19068559 0.26636258 -0.15826575 0.115436874 0.11902207 -0.18440434 0.105104014 -0.11258446 -0.07989697 -0.113940224 -0.08327608 0.05267437 -0.15409406 -0.009595735 0.04107555 0.095382445 -0.0072963126 0.2978806 -0.04345593 -0.03201173 0.08116634 -0.08748399 -0.123719774 -0.08548092 0.094619215 -0.0398552 0.02674173 -0.05641147 -0.0012399845 0.07525038 0.12683225 -0.016652707 0.14121239 0.18627025 -0.105250865 0.054900765 -0.19698142 0.0067345574 -0.012652986 0.07533446 -0.15100536 -0.17804718 -0.05186195
7 -0.014426398 -0.070069484 0.15185809 0.20403655 -0.13278957 -0.1932767 0.10305263 0.24630836 -0.073604606 0.014319734 0.21305504 0.033437807 0.03535332 0.10019024 -0.12842232 0.008327703 -0.013330185 0.11306026 -0.19979802 -0.031338625 0.2600161 0.17694694 0.25694075 -0.12834121 0.14419825 0.09509031 -0.15227172 0.087305784 -0.14553702 -0.0988066 -0.119743764 -0.08649839 0.09018263 -0.18666598 -0.012419736 0.036943536 0.098971225 -0.008877601 0.23992623 -0.079527035 -0.09002285 0.08589676 -0.11199286 -0.11637768 -0.05734185 0.059921026 -0.06950931 0.08443598 -0.030754272 0.037219714 0.018999254 0.12994978 -0.020686284 0.13742761 0.17857152 -0.113903224 0.044144165 -0.16877994 -0.01676567 0.037929513 0.021223793 -0.11066163 -0.16780503 -0.0842726
9 -0.02016801 -0.07108493 0.13709727 0.1956963 -0.12847218 -0.19534507 0.12340667 0.24337064 -0.08980223 0.020997833 0.23059988 0.041137878 0.017685525 0.10435951 -0.11580465 0.008285437 -0.00049188273 0.10889816 -0.19882512 -0.014640777 0.26274368 0.18093911 0.24029227 -0.11771894 0.1368278 0.071207754 -0.15794809 0.08983794 -0.13909857 -0.10489805 -0.12247245 -0.09239406 0.09931782 -0.18059127 -0.023495613 0.044302043 0.11627991 -0.025341976 0.24465908 -0.055724602 -0.07396957 0.08300952 -0.08942468 -0.11941731 -0.07648001 0.069193736 -0.06959604 0.08022305 -0.014829577 0.033152398 0.022729736 0.13826871 -0.008637203 0.11793488 0.18984427 -0.09877826 0.057291124 -0.18152002 -0.0014400871 0.039281636 0.046610694 -0.111450665 -0.17443122 -0.065427564
6 -0.020856462 -0.070528716 0.16138873 0.2083277 -0.13610421 -0.19672891 0.12433714 0.2542073 -0.07637908 0.020168703 0.24286675 0.046687525 0.039102755 0.084452204 -0.12308212 0.00820669 -0.0055685313 0.1160272 -0.1986913 0.010417134 0.26267716 0.19171593 0.26299712 -0.13993736 0.13593517 0.101603925 -0.16032042 0.09040364 -0.1315776 -0.096993335 -0.10370112 -0.08411148 0.058162495 -0.18848409 -0.023893718 0.046443727 0.10054227 -0.0005965843 0.2737743 -0.053395778 -0.05356067 0.08349743 -0.0773361 -0.11455607 -0.07391657 0.06275023 -0.057942554 0.065579206 -0.03958715 0.010398742 0.053833425 0.13050121 -0.008822628 0.14840673 0.17753664 -0.10841828 0.047957815 -0.17707874 -0.0030653714 0.0160026 0.051853806 -0.11382472 -0.16974597 -0.053984586
5 -0.02088561 -0.06505453 0.16035141 0.21859768 -0.14942457 -0.20135315 0.115652055 0.2503781 -0.08570208 -0.00687199 0.23947498 0.029905861 0.029947067 0.08965186 -0.12547414 -0.0118598845 -0.007228963 0.104802795 -0.20562881 -0.027207535 0.25086728 0.187245 0.25150752 -0.11447568 0.13237458 0.08982009 -0.14861816 0.09950855 -0.15268965 -0.09693812 -0.117283255 -0.08183839 0.0808282 -0.18571603 -0.015370667 0.032599542 0.10609794 -0.031162538 0.24343486 -0.04941489 -0.08566238 0.08327066 -0.10016834 -0.100118615 -0.07630001 0.048102725 -0.068090275 0.090081826 -0.017511956 0.037972137 0.025426878 0.12689713 -0.018881248 0.1383268 0.17705253 -0.10633128 0.05883586 -0.18603544 -0.022935746 0.055743366 0.045635357 -0.103913195 -0.1611949 -0.07424761
