7 64
902 -0.028014366 0.03425731 0.17138824 0.19653325 -0.20768772 -0.18266137 0.22213036 0.28484938 -0.07371179 -0.037945777 0.24202122 0.048384048 -0.014860569 0.10773177 -0.16557999 -0.033746928 0.051608536 0.10061242 -0.13042581 -0.115341246 0.18668503 0.14835176 0.2548058 -0.11021005 0.14828885 -0.0036868555 -0.05162717 0.15765189 -0.07567147 -0.06431409 -0.11222345 0.028518504 0.09726525 -0.20173162 -0.092883125 -0.009267491 0.16023575 -0.026093936 0.13853057 -0.13054678 -0.08957093 0.12730299 -0.17339352 -0.15794128 0.018722821 0.033593703 -0.16599421 0.1054568 0.0060246517 0.17519154 -0.088482015 0.13321066 -0.09153353 0.099726625 0.21543403 -0.14917627 0.09805697 -0.17452495 -0.0025296174 0.04081545 0.017228197 -0.030278087 -0.14134145 -0.12877871
9 -0.046143346 0.019287264 0.17722048 0.19372836 -0.16822663 -0.19047207 0.19269332 0.27322873 -0.06638796 -0.04788251 0.31717357 0.08131287 0.075701706 0.03548276 -0.16507001 -0.086276904 0.0022727347 0.13215758 -0.10438999 -0.00083664356 0.16870195 0.18184243 0.26725262 -0.1458017 0.080448255 0.08341224 -0.09999242 0.15577088 -0.051737808 -0.043572698 -0.05186981 0.021628803 -0.016814724 -0.17548855 -0.059268553 0.027017394 0.09480409 -0.016844295 0.25228536 -0.010154307 0.017508239 0.07542885 -0.087994106 -0.09470467 -0.06464887 0.03209529 -0.085729666 0.005024507 -0.047317337 0.090071455 0.045004427 0.1325597 -0.032741774 0.15108879 0.1701054 -0.114990905 0.103037186 -0.21674764 0.03501481 -0.03676232 0.12481396 -0.07265824 -0.15039095 -0.037037645
6 -0.040582635 0.036668442 0.18138614 0.16029786 -0.16447148 -0.18960705 0.20573233 0.26353675 -0.048365727 -0.0076139527 0.29107648 0.0943519 0.049470797 0.04857478 -0.17307301 -0.048204634 0.017033253 0.13412392 -0.09163759 -0.039931323 0.1777584 0.16059414 0.26054916 -0.15001276 0.104090005 0.044882618 -0.08426118 0.16362913 -0.028113347 -0.035845906 -0.077441834 0.03574127 0.013693423 -0.16248445 -0.08548222 0.0030367288 0.13048963 -0.0014649158 0.21669069 -0.07393228 0.0012780111 0.10966826 -0.11647404 -0.14706887 -0.0149553735 0.060054425 -0.11211819 0.022054095 -0.04119217 0.10188501 0.0064940364 0.11803916 -0.07354388 0.12213785 0.19652104 -0.13387877 0.095555566 -0.18876345 0.027009668 -0.037779663 0.083009996 -0.06952367 -0.13971289 -0.06819346
7 -0.036313463 0.016724948 0.169897 0.17887841 -0.16201003 -0.18864265 0.1841899 0.26897392 -0.05921471 -0.022469245 0.27611005 0.076551594 0.055187214 0.063720345 -0.1688625 -0.054057978 0.0059722713 0.13194588 -0.11018467 -0.043665137 0.1866932 0.16441248 0.2648506 -0.14429349 0.10825778 0.061653316 -0.09523058 0.14912465 -0.056796137 -0.050449777 -0.08031884 0.014462433 0.030696578 -0.17604299 -0.06319366 0.015871873 0.112866715 -0.008728653 0.21825457 -0.06822863 -0.02130723 0.095100924 -0.12508078 -0.12876712 -0.028974142 0.049216025 -0.10703492 0.031393334 -0.03956134 0.10908351 0.0020440468 0.13184226 -0.055120043 0.1306366 0.1887941 -0.12944233 0.090893805 -0.19430211 0.023989733 -0.022390706 0.0750598 -0.07384878 -0.1527644 -0.07457846
8 -0.04233828 0.010572435 0.17149937 0.18365249 -0.16647168 -0.19421902 0.20138226 0.2661091 -0.072669774 -0.018811012 0.306193 0.08118393 0.040150326 0.054316755 -0.15314569 -0.05315361 0.020055527 0.12330441 -0.12240431 -0.010648519 0.19265044 0.17953062 0.25466317 -0.13580437 0.09977328 0.0517923 -0.104445994 0.15162325 -0.058294963 -0.055443022 -0.077145435 0.0053812806 0.018695118 -0.1728367 -0.073478594 0.02123947 0.12723204 -0.021518767 0.24012437 -0.03249662 4.3968692e-05 0.09359862 -0.086975455 -0.122439064 -0.055621307 0.051102236 -0.096505076 0.030936042 -0.028203776 0.08146957 0.027217222 0.12958106 -0.04234056 0.12708734 0.1916575 -0.114770226 0.0995372 -0.20604625 0.027545877 -0.016107952 0.10642207 -0.07476991 -0.15064418 -0.045937132
5 -0.037663616 0.011817378 0.18860124 0.20691705 -0.1865429 -0.1846132 0.19699645 0.27264243 -0.064388454 -0.039850075 0.29556307 0.064547226 0.042307805 0.047558635 -0.15348601 -0.055229396 0.02469338 0.11244972 -0.13130844 -0.010282574 0.1818607 0.18161656 0.26783168 -0.13745286 0.10656956 0.069887914 -0.089326434 0.14690053 -0.06885151 -0.053620398 -0.062860414 0.014077008 -0.00246621 -0.19058847 -0.0708545 0.017610708 0.11173659 -0.0068277167 0.23516266 -0.04123343 -0.010965358 0.09378761 -0.09086979 -0.107612185 -0.042909138 0.02534608 -0.09813232 0.044280328 -0.03663331 0.08244604 0.027913494 0.121104576 -0.046235554 0.15243591 0.17346251 -0.12582149 0.08910693 -0.19258854 0.011196122 -0.008494263 0.08909778 -0.05782448 -0.13847932 -0.05265876
4 -0.04686767 0.0074117878 0.19329162 0.19768105 -0.16630533 -0.20462911 0.17236073 0.25964093 -0.06469419 -0.04029453 0.33102426 0.08008646 0.079474345 0.0183978 -0.16084954 -0.083247304 -0.007510272 0.1293334 -0.12411829 0.005170685 0.18088552 0.19295578 0.26307696 -0.14003617 0.07460304 0.09527452 -0.11532414 0.15808287 -0.06826891 -0.041156527 -0.062536485 0.005988364 -0.025007483 -0.15987669 -0.0500907 0.016919069 0.09962337 -0.028552096 0.27032205 0.007736287 0.014724351 0.0796008 -0.07382068 -0.08674204 -0.081325024 0.037365794 -0.06599345 0.012647574 -0.044402067 0.05275015 0.06974869 0.11271623 -0.037587322 0.15546596 0.1664272 -0.109002694 0.09951854 -0.22063927 0.0119599225 -0.01735111 0.1331918 -0.08768134 -0.13836068 -0.03038498
