7 64
902 -0.03735708 0.014367313 0.12540922 0.19415817 -0.2033196 -0.1639926 0.27727988 0.27309585 -0.11868476 -0.025962481 0.27999645 0.052474275 -0.07827189 0.12341595 -0.109200545 -0.017985534 0.107798986 0.07100251 -0.14778243 -0.027287623 0.19534688 0.1677444 0.21514072 -0.0827211 0.1389751 -0.05702888 -0.063133985 0.14159721 -0.06962032 -0.09642352 -0.09575515 0.0020639757 0.10148566 -0.21546423 -0.12725191 0.030682953 0.19301179 -0.04801737 0.16430125 -0.058275465 -0.0394752 0.11031473 -0.08037769 -0.15079635 -0.03747661 0.035520718 -0.1612358 0.1036621 0.04371604 0.14496526 -0.06147157 0.16177529 -0.033556473 0.06950698 0.22781193 -0.10575309 0.11862727 -0.1916867 0.042870153 0.042298276 0.08003428 -0.013207314 -0.15873586 -0.056838155
9 -0.03114132 -0.048673894 0.11954017 0.20628107 -0.14172342 -0.17648792 0.18194813 0.27931443 -0.10404996 -0.011748897 0.2600808 0.05403584 0.02672976 0.10602832 -0.117276445 -0.024473866 0.020297192 0.11533777 -0.16154733 0.031765454 0.23028347 0.1857582 0.25375488 -0.1340828 0.12133478 0.068660125 -0.14021468 0.09437822 -0.100926876 -0.10519447 -0.07391399 -0.059060644 0.061685685 -0.21178931 -0.044100255 0.07740847 0.09736476 -0.010108837 0.25990257 -0.02462176 -0.019497938 0.058961242 -0.065917134 -0.1056386 -0.08755689 0.047426283 -0.08330428 0.037933636 -0.028102903 0.07204216 0.030770965 0.17740925 0.025561377 0.132068 0.18400162 -0.094523855 0.07818889 -0.20134634 0.056441087 -0.015406985 0.091051854 -0.08550259 -0.19788273 -0.030721921
8 -0.0343966 -0.028210336 0.12291233 0.174687 -0.1337336 -0.18361689 0.19551426 0.270334 -0.093049794 0.014071758 0.2693481 0.076861925 0.02177558 0.10286995 -0.13056464 -0.016231671 0.023392633 0.12679645 -0.14051533 0.010773166 0.23135863 0.17639318 0.24860518 -0.13985808 0.12206412 0.042818923 -0.13481997 0.113606334 -0.07306362 -0.09171222 -0.089103684 -0.041547984 0.07122729 -0.19129881 -0.06362121 0.05999268 0.12449321 -0.010874911 0.24898602 -0.04656251 -0.010644436 0.079275906 -0.0790488 -0.138909 -0.06776524 0.07327729 -0.096159615 0.031180039 -0.025017591 0.079476334 0.017215746 0.1686481 -0.0019008198 0.10933116 0.2064162 -0.10201774 0.086269766 -0.20046666 0.060089033 -0.026948396 0.09025157 -0.09147904 -0.1926885 -0.04076061
5 -0.025445819 -0.061539616 0.117027804 0.20517707 -0.12965247 -0.18093975 0.15730493 0.28029278 -0.098660566 -0.00089182175 0.24088317 0.051133044 0.039233483 0.117845125 -0.12530684 -0.014952345 0.0032006677 0.1258051 -0.16976953 0.015981955 0.24751401 0.18321356 0.26429707 -0.1432126 0.13242325 0.084205955 -0.15354602 0.086041346 -0.113950916 -0.11076034 -0.08657133 -0.07387917 0.08008277 -0.21402 -0.028451292 0.07951709 0.08881177 -0.0029930924 0.26234505 -0.04684005 -0.039544664 0.059608128 -0.08755414 -0.11287098 -0.081049405 0.05665878 -0.08116705 0.041083194 -0.03700653 0.0730604 0.024515128 0.18201387 0.023898259 0.13631648 0.18718237 -0.101656914 0.06726817 -0.19734733 0.051172692 -0.015076278 0.06941948 -0.10079277 -0.20823464 -0.048388533
6 -0.026428727 -0.078495085 0.11941614 0.20722513 -0.124642886 -0.18989055 0.1470638 0.26658908 -0.10661584 0.009998277 0.24995984 0.04820545 0.029479431 0.10990432 -0.10912172 -0.0056699035 0.0029056172 0.116992235 -0.19119163 0.033107977 0.26154625 0.19310865 0.2502372 -0.13113381 0.12733644 0.083599836 -0.17001791 0.080651976 -0.12971364 -0.116347514 -0.095934354 -0.09662482 0.081130765 -0.20120986 -0.023293814 0.07855836 0.097609505 -0.017355343 0.2777775 -0.022306934 -0.038463816 0.059124585 -0.061462805 -0.10528728 -0.104176134 0.063334905 -0.06271676 0.049477905 -0.026409872 0.03575857 0.04667064 0.17029276 0.031130727 0.13093662 0.18574652 -0.08740001 0.06521387 -0.20056489 0.038543373 0.0045327535 0.08200432 -0.11225963 -0.20193143 -0.032892384
7 -0.024881057 -0.05981121 0.14022535 0.22347158 -0.15660219 -0.17933784 0.17181572 0.276321 -0.098874524 -0.007586176 0.2510683 0.039806772 0.012558694 0.10429313 -0.1113035 -0.0046018763 0.027587546 0.10238714 -0.19084686 0.027851604 0.24472521 0.19292593 0.2600821 -0.13026574 0.13786238 0.07485878 -0.13991609 0.08940544 -0.123237975 -0.11015312 -0.08319131 -0.06997576 0.061478004 -0.2198115 -0.044462275 0.06658782 0.10477605 -0.0040486846 0.26051953 -0.039951313 -0.04211231 0.07270017 -0.06516494 -0.10745114 -0.078666724 0.04068651 -0.08174284 0.067962654 -0.025213024 0.050133828 0.033267118 0.1603657 0.013565679 0.14441307 0.1809933 -0.103324234 0.064483 -0.18615472 0.02673489 0.01115295 0.06758247 -0.08202977 -0.18390557 -0.040659264
4 -0.029986907 -0.054622542 0.14991751 0.22414476 -0.15717393 -0.19838622 0.14620566 0.26145482 -0.102425784 -0.027040124 0.2669985 0.035675783 0.027010748 0.085939 -0.11962552 -0.035652682 0.0046965885 0.10233448 -0.19202788 -0.0028171085 0.23359197 0.19341016 0.24478185 -0.1086541 0.115069546 0.078426726 -0.14281173 0.1065144 -0.13906959 -0.097138986 -0.098757505 -0.07019867 0.06631039 -0.19006552 -0.025142753 0.0455173 0.10563384 -0.043936 0.25001457 -0.0119937025 -0.056998525 0.06915838 -0.0773461 -0.08537797 -0.0979342 0.03818217 -0.06973176 0.072656594 -0.010224201 0.050710633 0.03324073 0.14179748 0.00050751754 0.13424444 0.17540972 -0.09277469 0.078004904 -0.20563361 0.0017090874 0.043911934 0.08377603 -0.092596635 -0.16807623 -0.048846092
