7 64
902 -0.020915637 0.03363369 0.22479111 0.19636717 -0.22390126 -0.19002642 0.17242125 0.20827529 -0.050900064 -0.02220161 0.23770165 0.024313863 -0.062266007 0.06808047 -0.14572272 -0.0055071064 0.064099014 0.055405937 -0.17592612 -0.16060618 0.18702927 0.14564866 0.21126409 -0.05755975 0.14949444 -0.031860884 -0.03302971 0.17209356 -0.11190542 -0.04416436 -0.1547001 0.020334795 0.1004179 -0.14922269 -0.098220974 -0.07964542 0.20735654 -0.06308458 0.09508945 -0.13480523 -0.14015324 0.16976082 -0.16344818 -0.15424095 0.033873048 0.029885933 -0.15109469 0.18062402 0.048702072 0.10907434 -0.09014595 0.043539684 -0.15488905 0.077497914 0.20528069 -0.1461801 0.084169 -0.13890916 -0.10289392 0.14212307 -0.017208189 -0.020966278 -0.05954026 -0.14987816
9 -0.023375694 -0.046361446 0.15550126 0.19420397 -0.14586201 -0.19990548 0.14266156 0.26011723 -0.07637099 0.011213106 0.24868296 0.0526932 0.03308293 0.09112095 -0.13831894 -0.005251005 0.00041234223 0.11995505 -0.18035416 -0.023791758 0.249528 0.18233357 0.26166737 -0.13513203 0.13632701 0.07786293 -0.14240457 0.10995592 -0.1183777 -0.08904174 -0.111944765 -0.06075532 0.073793955 -0.18667147 -0.036585182 0.033560835 0.11639663 -0.011832924 0.24691503 -0.070029534 -0.061696302 0.093524106 -0.104984954 -0.12826519 -0.05680181 0.06410941 -0.081998035 0.06988541 -0.029349193 0.050694995 0.020971866 0.1345132 -0.028683592 0.13336428 0.19238195 -0.11709104 0.06311555 -0.18412605 -7.523995e-05 0.019525489 0.04861811 -0.10334676 -0.16871597 -0.0733539
6 -0.021108108 -0.011609669 0.19346967 0.17464587 -0.16828147 -0.1983351 0.14961472 0.22377826 -0.05061884 0.02480467 0.24345137 0.05273786 -0.0062808166 0.0677149 -0.14091998 0.01433646 0.025835034 0.096112385 -0.17543855 -0.07435004 0.2303745 0.16495 0.2381553 -0.11133528 0.14333987 0.031727176 -0.10129173 0.13768755 -0.103036545 -0.06154751 -0.13481024 -0.026408928 0.073744655 -0.15493064 -0.0699419 -0.024182722 0.16412151 -0.020629961 0.19251262 -0.10792825 -0.08341974 0.13861103 -0.12018146 -0.15583213 -0.008801018 0.066464186 -0.102445506 0.11139146 -0.0043353126 0.045520477 -0.010229797 0.077622734 -0.09569082 0.1072614 0.20048662 -0.13255167 0.06283576 -0.15215899 -0.05065973 0.06113282 0.016283048 -0.07845486 -0.111320905 -0.101549715
7 -0.015669644 -0.053502217 0.15614274 0.18167086 -0.13629386 -0.20005418 0.12098539 0.24180295 -0.06712408 0.034371793 0.22111142 0.047566433 0.019211045 0.101471856 -0.13683411 0.020570522 -0.0017085153 0.116104744 -0.19144168 -0.05222832 0.2643066 0.1715484 0.25331235 -0.12883791 0.1517948 0.066689156 -0.1437126 0.10411272 -0.12840411 -0.09102556 -0.13622278 -0.072659194 0.10294752 -0.1757302 -0.034205724 0.019147256 0.12990205 -0.010949339 0.22605062 -0.10337265 -0.09104207 0.10882882 -0.123454444 -0.14713481 -0.037077993 0.07797078 -0.086177334 0.09237668 -0.021851482 0.044492185 0.0013533471 0.120810084 -0.047807217 0.118499406 0.20058258 -0.12309045 0.050620746 -0.16524872 -0.020722102 0.039945014 0.014206022 -0.10957127 -0.16043006 -0.09673093
5 -0.020729743 -0.025280757 0.17367528 0.18034764 -0.16433676 -0.1975845 0.1561337 0.2288745 -0.06975124 0.02668456 0.2403146 0.04724497 -0.02358016 0.09129041 -0.13011833 0.019818129 0.033791654 0.09232058 -0.18846248 -0.07087324 0.2445624 0.16788268 0.23090956 -0.101795405 0.15008658 0.01708738 -0.11066889 0.12832156 -0.11581021 -0.07953356 -0.14346127 -0.045128196 0.10322331 -0.16480282 -0.06874874 -0.009685525 0.17154802 -0.032635782 0.1904497 -0.10225326 -0.09280666 0.13213569 -0.11636201 -0.15734139 -0.02253275 0.07036362 -0.1080926 0.12048393 0.010051464 0.055159878 -0.022006946 0.09754587 -0.07800272 0.094404235 0.21141401 -0.123401985 0.06769572 -0.16065104 -0.038955145 0.07189775 0.018851815 -0.0799401 -0.12917733 -0.0993689
8 -0.017898945 -0.02187943 0.1938238 0.20040318 -0.18305035 -0.19215071 0.15232392 0.2348032 -0.060072668 0.007812873 0.2359849 0.035244357 -0.016738486 0.07846197 -0.13226265 0.015023137 0.03533902 0.08435788 -0.19378883 -0.06792689 0.232692 0.17102866 0.24384166 -0.10539218 0.15248233 0.036938872 -0.097936265 0.12725002 -0.122378394 -0.07408144 -0.12885973 -0.03463316 0.07656742 -0.17699084 -0.06637301 -0.015082412 0.15677048 -0.019262318 0.1906127 -0.10583256 -0.0972318 0.1326144 -0.11718466 -0.1426561 -0.012757071 0.04779941 -0.105950154 0.12787221 -0.00019290845 0.051002007 -0.014867312 0.085971 -0.08333895 0.11929046 0.19313847 -0.13302223 0.058882967 -0.14966191 -0.054705087 0.07560354 0.008121084 -0.06638585 -0.11488466 -0.10216509
4 -0.023604352 -0.031939097 0.18394835 0.19654931 -0.16652146 -0.21048126 0.1364224 0.23593801 -0.07098472 0.005824236 0.25387666 0.04291458 0.0076483455 0.074879296 -0.13760288 -0.0056223744 0.009650507 0.09961207 -0.1929282 -0.06494151 0.24044885 0.17821957 0.24110462 -0.10518748 0.1347954 0.051567797 -0.12298069 0.13043985 -0.13058047 -0.075173184 -0.13605748 -0.05044246 0.08305858 -0.16215006 -0.045563754 -0.0069518867 0.1477079 -0.04110186 0.2122674 -0.074806735 -0.090332866 0.11759881 -0.115586124 -0.1297762 -0.044764724 0.05955216 -0.08864371 0.10836236 -0.00093759137 0.045336172 0.0019215873 0.09554846 -0.06853249 0.11535638 0.195405 -0.11915005 0.06908837 -0.17676298 -0.046263337 0.07293651 0.03618973 -0.0918734 -0.13000919 -0.093222685
