7 64
902 -0.033384033 0.036116127 0.1835892 0.24333288 -0.22889473 -0.17767975 0.19462997 0.2837982 -0.082169205 -0.112215124 0.26529896 0.020998416 0.017023077 0.08134795 -0.16852728 -0.09831255 0.032504614 0.09009459 -0.1375962 -0.10995492 0.14400902 0.15802015 0.2535946 -0.08828673 0.11297499 0.036446847 -0.039269585 0.16007482 -0.103562646 -0.055231098 -0.08099432 0.037763618 0.056762002 -0.20518497 -0.058791623 -0.007148875 0.113300666 -0.054679163 0.13702716 -0.066136956 -0.092311375 0.09138275 -0.16602151 -0.08233323 -0.017554404 -0.020554535 -0.14440033 0.10036979 0.0068717594 0.18629661 -0.06952597 0.12783302 -0.06956388 0.13057569 0.16896586 -0.133508 0.10850888 -0.19544129 -0.018771451 0.06533917 0.047569495 -0.012966183 -0.12473348 -0.114953905
9 -0.034029193 0.012916831 0.15813355 0.22814445 -0.19797847 -0.14307982 0.2312913 0.30514997 -0.07415234 -0.07270183 0.2686064 0.04946582 0.038128022 0.07054476 -0.13872416 -0.06064005 0.049988855 0.10191543 -0.112318456 0.032312877 0.15554073 0.17582949 0.2823364 -0.15030614 0.114296325 0.07789696 -0.065735705 0.119070075 -0.053959034 -0.06986252 -0.011624616 0.028897557 -0.023839846 -0.2431649 -0.07861368 0.0600162 0.073331006 0.031519137 0.22996141 -0.04210207 0.010228152 0.065019354 -0.07650693 -0.08810871 -0.03431039 -0.01230215 -0.113827616 0.02663283 -0.053905305 0.121026106 0.019043587 0.16230048 -0.0022515792 0.17670374 0.15096697 -0.12734525 0.08268392 -0.179191 0.057547215 -0.05010783 0.08513721 -0.019661373 -0.16134253 -0.033653468
5 -0.034580532 0.024346069 0.1779188 0.21990015 -0.2042797 -0.15754211 0.22851065 0.29589048 -0.06514831 -0.06146025 0.27664614 0.055535674 0.03183396 0.06366046 -0.15092416 -0.055956382 0.04869591 0.10421334 -0.11576773 6.361781e-05 0.16090897 0.17357194 0.2801584 -0.14560767 0.11843122 0.06434002 -0.061405435 0.13742183 -0.05347179 -0.05917574 -0.03401253 0.03672341 -0.013045003 -0.22623911 -0.086236894 0.033892423 0.097425245 0.020451546 0.21715735 -0.060418576 -0.004902256 0.08694876 -0.095034994 -0.10623955 -0.01966019 6.262624e-05 -0.121459395 0.042427126 -0.04482572 0.120354205 0.0063779335 0.14229003 -0.03466146 0.16527781 0.16497178 -0.13661186 0.08636365 -0.17799397 0.03445901 -0.03091099 0.07461402 -0.024395991 -0.14597687 -0.053252466
7 -0.029986111 0.0038469408 0.16360676 0.23626417 -0.19908953 -0.157586 0.20452678 0.29938123 -0.077167004 -0.074207135 0.2573708 0.037282605 0.035591256 0.082363166 -0.14636987 -0.060578715 0.036051556 0.102004275 -0.13360573 -0.010078 0.17007707 0.17362718 0.27943173 -0.13635117 0.12253917 0.07678159 -0.07260759 0.12146639 -0.08308713 -0.07423361 -0.041170295 0.013053025 0.012373462 -0.23547293 -0.061861686 0.045502443 0.081070974 0.009667034 0.2118424 -0.057191115 -0.03224787 0.07206699 -0.10730255 -0.08920334 -0.032641813 -0.008028201 -0.1169764 0.05346072 -0.03979111 0.13020696 -0.0038990104 0.15578751 -0.017067421 0.16705723 0.15832023 -0.13019267 0.08153063 -0.18212768 0.030812649 -0.012004717 0.06309335 -0.029986849 -0.15902856 -0.06302915
6 -0.033761922 4.9537924e-05 0.15169275 0.2215909 -0.1919786 -0.1458074 0.23804303 0.29806063 -0.08196219 -0.05061228 0.2721301 0.052583598 0.017696505 0.07577295 -0.12298638 -0.03912675 0.06178559 0.09581175 -0.12715942 0.05054031 0.1746644 0.18236417 0.27306202 -0.14609398 0.12056925 0.063861035 -0.07829796 0.11293216 -0.05792844 -0.08013655 -0.021066274 0.011044111 -0.013489336 -0.24086305 -0.087184384 0.0646814 0.09131847 0.028866524 0.24167722 -0.03646024 0.014993469 0.070687205 -0.054418374 -0.09934318 -0.044481006 0.0013057112 -0.10936036 0.03426357 -0.044370577 0.09655949 0.02876217 0.16189283 0.0042378255 0.16591015 0.16155155 -0.11942004 0.0808446 -0.1777361 0.05904476 -0.04370715 0.09033065 -0.026208255 -0.16443835 -0.021183843
8 -0.029358305 0.0023517362 0.17518392 0.2428986 -0.2101683 -0.1425399 0.22570862 0.30053774 -0.07062321 -0.06824542 0.2631639 0.037685357 0.023398558 0.06556663 -0.12814118 -0.04188157 0.059830748 0.08741975 -0.1370271 0.04007708 0.16602476 0.18333854 0.28462493 -0.1462127 0.12599063 0.082645684 -0.06546257 0.112423435 -0.07069848 -0.07438724 -0.014627879 0.018901035 -0.030965727 -0.24965121 -0.081237085 0.053295664 0.07906186 0.03843269 0.2344322 -0.047954258 -0.0016679582 0.074859425 -0.064894885 -0.086778015 -0.030446602 -0.019505447 -0.10889064 0.04989256 -0.0515125 0.094442494 0.028443648 0.14631937 -0.00806924 0.1879981 0.14526929 -0.13143235 0.07029961 -0.16471806 0.0343615 -0.029938199 0.07030784 -0.014831575 -0.14754386 -0.03382039
4 -0.034935724 0.009839513 0.17530434 0.23702386 -0.2042694 -0.1646932 0.20710501 0.2951251 -0.07670781 -0.08042453 0.27799064 0.041601613 0.04086327 0.062839076 -0.1463312 -0.072367035 0.034196068 0.100133255 -0.13128884 -0.001751768 0.1621786 0.17999858 0.2754389 -0.13257425 0.10913372 0.0798048 -0.07239864 0.13174348 -0.079780675 -0.06515216 -0.037061132 0.01936646 -0.0074256915 -0.22419395 -0.06358226 0.037996043 0.08361451 0.00014230842 0.22150351 -0.0348228 -0.01884641 0.07227437 -0.093655884 -0.07960428 -0.044077493 -0.010589189 -0.107720554 0.047990587 -0.03829182 0.11592269 0.013412297 0.14373335 -0.020816065 0.1699933 0.15363178 -0.1252386 0.088174924 -0.19037683 0.024206588 -0.009007127 0.08309507 -0.03125558 -0.14794406 -0.05134305
