7 64
902 -0.0273468 -0.012464041 0.20787425 0.25744984 -0.20502229 -0.22117178 0.11523784 0.28083912 -0.07460959 -0.09084188 0.2663605 0.016215967 0.06932838 0.06971586 -0.18303777 -0.09196338 -0.03000081 0.11426886 -0.18292648 -0.11647892 0.18323536 0.16884415 0.25937954 -0.094228685 0.10905108 0.099092074 -0.09363255 0.14007813 -0.15421547 -0.05943435 -0.11010625 -0.01925339 0.066165596 -0.17690663 -0.00022363552 -0.010973435 0.084552385 -0.062573455 0.17665857 -0.05677173 -0.123771794 0.082288735 -0.17352897 -0.06299263 -0.046929024 -0.00034402465 -0.093404725 0.101977326 -0.011158715 0.12126632 -0.026836254 0.10609583 -0.064865015 0.14940882 0.15374349 -0.12640642 0.08135791 -0.19798367 -0.058991864 0.08868545 0.0332031 -0.07025883 -0.1262691 -0.12496106
9 -0.032089867 -0.008303962 0.17776719 0.21133266 -0.16699348 -0.17578387 0.16177784 0.2705492 -0.059136596 -0.043652974 0.26691678 0.05419606 0.069728605 0.046780307 -0.14859773 -0.05577637 0.00046544464 0.117133304 -0.1322242 0.0040384796 0.18508783 0.18129686 0.27757305 -0.1491711 0.10389533 0.10908422 -0.104986094 0.12516625 -0.08221774 -0.05878509 -0.051279716 -0.003627377 -0.011781531 -0.19623029 -0.042264108 0.034410957 0.07433906 0.008649424 0.25205347 -0.0369133 -0.013346722 0.073804244 -0.09127102 -0.08759029 -0.052029554 0.019065246 -0.07780552 0.029471617 -0.05812289 0.069626145 0.046548154 0.12825353 -0.02479544 0.17345263 0.15267353 -0.12318988 0.072395 -0.1875768 0.014555245 -0.02272981 0.08115091 -0.07085045 -0.14899215 -0.049320705
6 -0.03152364 -0.009288332 0.18966241 0.19888154 -0.15720414 -0.1947584 0.14859046 0.2686184 -0.049351394 -0.0196531 0.27179497 0.06740242 0.08161395 0.046958208 -0.16594893 -0.046364993 -0.015737997 0.13474959 -0.1350464 -0.01827438 0.20472923 0.1806925 0.28506556 -0.15986612 0.11027299 0.11243008 -0.119127065 0.13427202 -0.08181161 -0.053774476 -0.07397429 -0.0090545565 0.0029336063 -0.18177429 -0.038759492 0.022091618 0.08613812 0.00845708 0.25871134 -0.058752943 -0.022970248 0.08839662 -0.11172268 -0.11018543 -0.04331493 0.043587685 -0.07704403 0.029180031 -0.06338425 0.062494155 0.044683192 0.12077463 -0.04462932 0.16775484 0.1689943 -0.13242148 0.06978816 -0.1899042 0.0048778537 -0.023563031 0.07086778 -0.093218 -0.15154056 -0.066392526
7 -0.027464617 -0.025297835 0.17976676 0.20641162 -0.15159595 -0.1864714 0.13906246 0.26890886 -0.053299565 -0.019420067 0.25638303 0.05768781 0.08005431 0.0547707 -0.15445523 -0.03758418 -0.015829552 0.12966058 -0.14574938 -0.0027732546 0.21350439 0.18415925 0.28843462 -0.16191496 0.11614332 0.123959176 -0.12731133 0.11828457 -0.094041005 -0.065070584 -0.06887555 -0.024589807 0.0045276936 -0.193896 -0.030348685 0.035759415 0.07417888 0.016663749 0.26781076 -0.05646978 -0.02661184 0.07969148 -0.10325116 -0.10244397 -0.050217353 0.038455166 -0.0704998 0.03134326 -0.06774524 0.053527836 0.051927384 0.12891735 -0.02773339 0.17658381 0.1617634 -0.12917805 0.060553256 -0.1850794 0.008226186 -0.024358038 0.065156996 -0.094481006 -0.15970153 -0.060738523
5 -0.03469697 -0.022418885 0.16698514 0.19077763 -0.14467372 -0.18551525 0.16780998 0.26336953 -0.06512029 -0.0042397096 0.27915698 0.07315162 0.061905053 0.051370423 -0.13920353 -0.032278582 0.0020785632 0.12625642 -0.13785367 0.02857236 0.21773969 0.19219382 0.27659395 -0.16016324 0.1082894 0.10054 -0.13412744 0.12421841 -0.07617527 -0.068236835 -0.06581784 -0.02519781 -0.0002922279 -0.1884518 -0.05065525 0.044511843 0.095305294 0.0091376705 0.2853297 -0.030937904 0.0058600022 0.080584906 -0.06980324 -0.11232388 -0.06854603 0.052330606 -0.069223605 0.018551106 -0.058145367 0.039581254 0.06771533 0.13608867 -0.016503166 0.16150945 0.17594256 -0.116307095 0.07413057 -0.19804367 0.029744137 -0.036986947 0.09895672 -0.09634046 -0.16642451 -0.032541484
8 -0.029204693 -0.012523113 0.19769111 0.2163999 -0.177455 -0.1796192 0.1688773 0.27029943 -0.05203442 -0.025542948 0.27067727 0.055180233 0.054786734 0.042701274 -0.1449857 -0.030769324 0.013713145 0.11148354 -0.15050268 0.012219173 0.20343861 0.19074295 0.2876791 -0.15635218 0.12028466 0.10790767 -0.10737933 0.12674211 -0.08609164 -0.06111899 -0.058114268 -0.0075190095 -0.018793054 -0.2030394 -0.05615016 0.026421325 0.09154646 0.022200434 0.26483992 -0.05351368 -0.015682606 0.09295572 -0.08245772 -0.10475921 -0.04139574 0.024688011 -0.07937279 0.04623391 -0.060136568 0.044515293 0.056174416 0.11535927 -0.038134426 0.18259248 0.1605782 -0.13396817 0.06326665 -0.17628741 -0.00073421205 -0.016344503 0.0693447 -0.0710825 -0.1408014 -0.05037965
4 -0.034496833 -0.009246232 0.2007996 0.21541446 -0.17064361 -0.19664156 0.14202376 0.26165956 -0.054800805 -0.04472526 0.28414214 0.05482718 0.08139311 0.027424894 -0.15695795 -0.06504833 -0.015976897 0.11967782 -0.14412148 -0.011222671 0.18875173 0.18721221 0.27394062 -0.14158902 0.09417023 0.11919449 -0.11307433 0.13725989 -0.09537523 -0.048465762 -0.06582856 -0.008087915 -0.016895229 -0.1744992 -0.031311825 0.014772048 0.07956792 -0.009809556 0.25780773 -0.024801312 -0.022715524 0.080536015 -0.09464606 -0.07998357 -0.06158079 0.023238674 -0.063982084 0.0367134 -0.053988192 0.04878688 0.059271015 0.10507126 -0.04139721 0.17449597 0.15039267 -0.12150366 0.07420984 -0.19508043 -0.013004549 -0.00018212892 0.08702099 -0.084645785 -0.13288984 -0.05458037
