7 64
902 -0.029957712 0.020915477 0.19393556 0.20431226 -0.22987628 -0.19946334 0.2054597 0.23044796 -0.089482635 -0.037127458 0.27350298 0.026437383 -0.0745867 0.07970292 -0.13059707 -0.023271589 0.07736905 0.053555675 -0.19042782 -0.12087134 0.19853468 0.16889367 0.20766208 -0.048482634 0.14041635 -0.043192986 -0.05227756 0.17321815 -0.1238258 -0.06573645 -0.15085728 0.0024026996 0.107779406 -0.16761918 -0.10345516 -0.051851664 0.21833402 -0.090657055 0.12837146 -0.08185402 -0.11915219 0.15322472 -0.13018033 -0.14081226 -0.015787488 0.028171167 -0.14936672 0.17405187 0.066029996 0.11146869 -0.07354139 0.07654175 -0.116996676 0.07402459 0.21889761 -0.12530945 0.10869544 -0.17873189 -0.07442916 0.14534022 0.03460496 -0.02434106 -0.08818459 -0.118117526
9 -0.028843092 0.0026749389 0.17675164 0.20646799 -0.18192339 -0.17948928 0.18970086 0.2800602 -0.0630717 -0.028072858 0.2609392 0.056482583 0.033338904 0.07830126 -0.15714714 -0.034201734 0.025207525 0.11562613 -0.13900119 -0.034736384 0.19881108 0.1717822 0.2762312 -0.14276901 0.13162081 0.06565089 -0.0907497 0.13477562 -0.078933746 -0.067022115 -0.077478684 0.0033117863 0.03401682 -0.20714545 -0.06759329 0.022745347 0.112874955 0.0061846212 0.21823287 -0.08486528 -0.041304197 0.099920325 -0.12114109 -0.12766078 -0.020452406 0.032084774 -0.11492454 0.06024343 -0.037804756 0.10497805 -0.003487447 0.13569094 -0.049311526 0.1481392 0.18496554 -0.13832974 0.07775755 -0.179235 0.012672575 -0.0056136376 0.050715297 -0.058612302 -0.15329984 -0.07969998
6 -0.03408587 0.015899444 0.20637332 0.1634063 -0.15490395 -0.20815481 0.17184995 0.25969183 -0.032032598 0.022682374 0.28735295 0.09723272 0.06624431 0.043830223 -0.1827177 -0.022753112 -0.0043664942 0.14687368 -0.117384 -0.045797404 0.213473 0.17014953 0.2806032 -0.16856198 0.12005666 0.07514327 -0.11110322 0.1592207 -0.047276683 -0.03749569 -0.097907074 0.01211643 0.015891155 -0.15741351 -0.07078201 -0.0052943644 0.12999482 0.013735698 0.2442525 -0.09866304 -0.015884627 0.124158345 -0.12688383 -0.16231614 -0.009385392 0.07948244 -0.09627419 0.030649997 -0.058431566 0.06305879 0.02665589 0.10278211 -0.08773496 0.13925561 0.20138545 -0.14702061 0.0749662 -0.18014039 0.0016555768 -0.033463046 0.059814636 -0.098969944 -0.13957052 -0.08202992
7 -0.025856094 -0.00701443 0.18462275 0.19026367 -0.16424873 -0.19279307 0.16668542 0.26793945 -0.05140489 0.0039310907 0.2555501 0.0661121 0.041494478 0.07628362 -0.16368607 -0.013973553 0.009177898 0.12737872 -0.1464034 -0.046673737 0.22217527 0.17086318 0.27864584 -0.1520298 0.13807052 0.07165541 -0.10833301 0.13320573 -0.081369475 -0.06398463 -0.09799934 -0.011429307 0.04625115 -0.18772236 -0.05998738 0.012940112 0.119851746 0.010571031 0.22566712 -0.10343619 -0.04972803 0.11120692 -0.12945543 -0.14599383 -0.014037719 0.057171218 -0.10461038 0.060615063 -0.043824874 0.08027539 0.0031972146 0.12225078 -0.06323586 0.14120193 0.19336063 -0.14173797 0.0665191 -0.1713962 -4.3992997e-05 -0.0050948407 0.036035758 -0.08246493 -0.15128806 -0.08979918
5 -0.031139044 -0.0039607044 0.18040124 0.1864492 -0.1700166 -0.19732925 0.18804502 0.2621453 -0.06572491 0.006193765 0.27666527 0.069907546 0.017251823 0.07394759 -0.15024233 -0.01424708 0.026593618 0.11605559 -0.15084419 -0.036364432 0.2214545 0.17588122 0.25921145 -0.13459536 0.13123061 0.043723557 -0.107030176 0.14081962 -0.07910287 -0.06640636 -0.103608936 -0.013050095 0.051642977 -0.17904547 -0.07476171 0.009837905 0.1442085 -0.0108726965 0.22421932 -0.079854354 -0.03994027 0.115128994 -0.10696894 -0.14731534 -0.02975371 0.061211206 -0.106352784 0.067996494 -0.022067808 0.07262581 0.0051478567 0.11921647 -0.061397057 0.1223409 0.20309655 -0.12870453 0.080316916 -0.18128945 0.0014924852 0.010277676 0.058502328 -0.077433296 -0.14599337 -0.07465991
8 -0.02437953 -0.0065741697 0.19395609 0.21275271 -0.1922232 -0.18008 0.18725793 0.2688563 -0.0586279 -0.01314183 0.2569954 0.048337962 0.009393077 0.07288592 -0.14401068 -0.0069378605 0.040276118 0.09936489 -0.16529588 -0.029223181 0.21325156 0.17809398 0.2729046 -0.13594927 0.14478205 0.05889098 -0.08918816 0.12892105 -0.09142797 -0.06997943 -0.08597371 -0.0072505446 0.03156788 -0.2052305 -0.07604378 0.010765069 0.12865002 0.011290725 0.21697666 -0.09390618 -0.05246938 0.11549249 -0.10532585 -0.13385361 -0.013061738 0.031766143 -0.110467665 0.08702091 -0.029911727 0.07161174 0.0038549274 0.11298892 -0.0608097 0.14926682 0.18320301 -0.14034218 0.06479995 -0.1595531 -0.013332228 0.018215986 0.03372445 -0.053954802 -0.13398111 -0.07919502
4 -0.032809522 -0.007931254 0.20359682 0.18661542 -0.15678686 -0.2129725 0.15149572 0.2584944 -0.047131553 0.007604255 0.28677216 0.07849207 0.066113755 0.04553941 -0.1698021 -0.029024934 -0.011809485 0.13727109 -0.1466444 -0.034892593 0.2242112 0.18300231 0.27759218 -0.1550756 0.117186315 0.09148065 -0.12672344 0.14724858 -0.08160549 -0.050768785 -0.1007801 -0.014871086 0.020924494 -0.16262686 -0.050069824 0.003385715 0.118958965 -0.0033031423 0.25690964 -0.070673235 -0.030781034 0.1104966 -0.1139096 -0.1353442 -0.0384037 0.0672979 -0.07975853 0.043923598 -0.050220493 0.045715265 0.040827423 0.10461566 -0.06782424 0.14832112 0.18985188 -0.13426422 0.07242506 -0.18947378 -0.011137039 -0.0063286843 0.06701898 -0.10509237 -0.14250572 -0.074210994
