7 64
902 -0.035531137 -0.0014032285 0.16233514 0.23182653 -0.20624098 -0.20507361 0.16630939 0.25406498 -0.11185875 -0.0920918 0.29044613 0.015807852 -0.0026777827 0.077646144 -0.14083461 -0.092146136 0.02216272 0.078034475 -0.18532908 -0.094587564 0.18687846 0.184671 0.2252563 -0.056899305 0.10359982 0.030939095 -0.08960789 0.16100305 -0.1565694 -0.07693113 -0.12294306 -0.021794451 0.08876265 -0.18671595 -0.040587068 -0.0069722817 0.14605175 -0.11329892 0.1842834 -0.00722448 -0.107974924 0.092482015 -0.1333568 -0.07092687 -0.08698269 0.0023305123 -0.11497585 0.1270502 0.040029302 0.13054185 -0.03314947 0.12448245 -0.054265104 0.11904024 0.19166362 -0.10667155 0.12369276 -0.23988408 -0.045324095 0.12524796 0.089851305 -0.05458852 -0.13595304 -0.09651814
9 -0.035024982 -0.02612527 0.20440799 0.26981223 -0.1972858 -0.19566143 0.12595531 0.27586812 -0.07802091 -0.106396094 0.28846717 0.01757278 0.08805236 0.02431606 -0.14470516 -0.103181176 -0.02208235 0.098852046 -0.17308025 -0.002562925 0.17155214 0.20126528 0.27274314 -0.11564104 0.08024605 0.14721115 -0.10995147 0.12566845 -0.14092936 -0.05985799 -0.04823814 -0.02185058 -0.028603353 -0.19390355 -0.001289323 0.026255008 0.046400126 -0.036137946 0.25708094 0.024416868 -0.043991506 0.050479006 -0.084524974 -0.017658325 -0.097881906 -0.025015034 -0.049757756 0.054456364 -0.042784184 0.05543895 0.06760151 0.110721424 -0.011376081 0.1999104 0.116601296 -0.10629982 0.07810138 -0.2105655 -0.030047731 0.03960142 0.10073969 -0.06835324 -0.12956253 -0.0460543
7 -0.035675034 -0.022831932 0.22544841 0.24189012 -0.18162708 -0.21866566 0.109122 0.25712678 -0.059080653 -0.065109074 0.2972455 0.039397426 0.09644144 0.010094429 -0.15899011 -0.08366791 -0.03806024 0.11467202 -0.17090598 -0.024447456 0.19190483 0.19855358 0.2709861 -0.12516141 0.08216857 0.14307195 -0.12455346 0.14052296 -0.13014877 -0.045089588 -0.07703505 -0.024406528 -0.02095106 -0.15921202 -0.004651635 0.0007869803 0.069858596 -0.036305465 0.26224506 0.0018529331 -0.04481058 0.074960895 -0.09538681 -0.049609262 -0.08409831 0.011908815 -0.041997 0.052050658 -0.046382908 0.026304247 0.074644096 0.08366529 -0.044995237 0.18347882 0.13413133 -0.11303506 0.07278707 -0.20410627 -0.04850351 0.038631648 0.09173257 -0.09578484 -0.11615171 -0.058390833
6 -0.028939273 -0.0442815 0.2193667 0.26034072 -0.17689614 -0.21013398 0.0852379 0.26337022 -0.05943352 -0.07342595 0.2702658 0.022576226 0.10853987 0.020370089 -0.15294532 -0.07922477 -0.049378768 0.11317358 -0.18370852 -0.015035937 0.19752619 0.19858181 0.28041485 -0.13036484 0.08881759 0.17063539 -0.13234493 0.11630253 -0.14912003 -0.056404375 -0.067496985 -0.042418197 -0.020120267 -0.17411065 0.017256951 0.01722163 0.03973125 -0.021414353 0.26626536 -0.0022712986 -0.05811751 0.05876374 -0.097358026 -0.0321428 -0.08662423 -0.00086442236 -0.031439442 0.052583672 -0.058744647 0.021876331 0.07915747 0.09240612 -0.024353975 0.20039324 0.115198754 -0.11182659 0.055227242 -0.19236203 -0.048198815 0.036207665 0.07313163 -0.09709633 -0.12501635 -0.06013533
5 -0.036090232 -0.036779527 0.20412241 0.24071462 -0.17573678 -0.21713956 0.122287065 0.2576396 -0.0781753 -0.054608416 0.2984579 0.03798559 0.072509445 0.02881541 -0.14151752 -0.07104691 -0.023716757 0.1077736 -0.18406135 -0.008216504 0.20731527 0.20307127 0.2588405 -0.11535464 0.08762391 0.12301301 -0.13541825 0.13072006 -0.13773558 -0.06283098 -0.0841883 -0.044257015 0.0023392905 -0.1659776 -0.010359709 0.015578597 0.08379269 -0.046344157 0.26660305 0.013121594 -0.04393389 0.07112555 -0.0774752 -0.05468942 -0.10069716 0.019838655 -0.044020247 0.059028 -0.030738799 0.022398606 0.07206376 0.099253714 -0.02607964 0.16766103 0.14588483 -0.10030403 0.077196166 -0.21008568 -0.034964032 0.04619751 0.100633025 -0.09719686 -0.13021894 -0.045992695
8 -0.029488388 -0.029670544 0.21741615 0.2659537 -0.20720568 -0.20136037 0.12635039 0.26087412 -0.07488912 -0.08376951 0.28189802 0.011653401 0.052154046 0.029664872 -0.13700047 -0.07154062 -0.0038667344 0.08374558 -0.19979014 -0.022866476 0.19203389 0.20237121 0.26430485 -0.10225592 0.10115338 0.12181794 -0.106955886 0.12978844 -0.15575175 -0.06430582 -0.076401666 -0.03141313 -0.005410157 -0.18982697 -0.016455678 0.004350499 0.08261797 -0.042275697 0.24251916 -0.0019067817 -0.071441025 0.078842185 -0.08804944 -0.041554067 -0.08177153 -0.014604596 -0.059785984 0.09481446 -0.02314275 0.038331985 0.05271541 0.08949202 -0.03822183 0.1865492 0.13333659 -0.11403461 0.072000034 -0.19549258 -0.06135522 0.07703806 0.07534931 -0.066120505 -0.11265602 -0.063025415
4 -0.03321092 -0.03945965 0.23032905 0.26611996 -0.18696016 -0.21767713 0.087198466 0.25739136 -0.06369642 -0.0849287 0.28945798 0.020447602 0.10504941 0.0044076415 -0.14984012 -0.09196616 -0.04752226 0.10513803 -0.18896662 -0.014090196 0.18975924 0.20518602 0.27163216 -0.11737435 0.07706888 0.1674551 -0.12960534 0.12704991 -0.1547348 -0.050242797 -0.06859468 -0.039059665 -0.031383216 -0.16407222 0.016082736 0.0066294903 0.04730643 -0.04002756 0.26870227 0.021656893 -0.055329595 0.06032388 -0.08621194 -0.019470492 -0.10021201 -0.007569875 -0.025319453 0.058792885 -0.048358157 0.011590248 0.08921412 0.07940838 -0.029684061 0.20027772 0.11188489 -0.10564791 0.06425967 -0.20245403 -0.061975405 0.05457073 0.09067475 -0.09475826 -0.11166048 -0.05276792
