7 64
902 -0.009993196 -0.053538986 0.1861308 0.25334135 -0.18238989 -0.21148789 0.049799997 0.24161589 -0.077338055 -0.073297195 0.20312577 -0.020521028 0.043517392 0.09344333 -0.15581173 -0.0551732 -0.041007947 0.09015308 -0.22974211 -0.14855072 0.22842082 0.17213215 0.2547506 -0.0749458 0.13698207 0.10735755 -0.11801108 0.11577881 -0.20629962 -0.079693824 -0.14504474 -0.06851092 0.11704977 -0.16939871 0.027837053 -0.017838834 0.086314 -0.07459294 0.15398958 -0.07862304 -0.18466076 0.08556559 -0.18531975 -0.059077505 -0.046632983 0.0039373273 -0.08160497 0.14929254 0.0076877214 0.09517023 -0.04357301 0.09075852 -0.06522881 0.13623714 0.14821586 -0.11937586 0.055497233 -0.17317252 -0.09943815 0.14547633 -0.016189104 -0.08248167 -0.11849706 -0.15005973
9 -0.015734289 -0.06408975 0.16564423 0.2449085 -0.15264602 -0.1960226 0.06154802 0.25726727 -0.0745655 -0.063318245 0.21135059 0.0026807114 0.08397151 0.080895245 -0.14808339 -0.05960385 -0.051889766 0.11170377 -0.19684522 -0.06515032 0.21983226 0.17746927 0.26826376 -0.11386351 0.1169873 0.14549631 -0.13842738 0.093598045 -0.17790538 -0.08505563 -0.10111268 -0.07278391 0.0671546 -0.18931846 0.033734612 0.02964722 0.0450974 -0.034486677 0.22298999 -0.04664488 -0.11802208 0.055260755 -0.14565004 -0.04939059 -0.073922805 0.009495811 -0.056917936 0.08320865 -0.037217528 0.07248595 0.014882404 0.12510514 -0.015691511 0.16979417 0.1358853 -0.11245695 0.050611787 -0.1872962 -0.04210186 0.06437812 0.026024126 -0.100474484 -0.15522754 -0.101735204
7 -0.020389022 -0.058914877 0.17570132 0.22573838 -0.135537 -0.20624581 0.06601564 0.25998196 -0.059368365 -0.03574191 0.22916885 0.031677153 0.110900484 0.06404525 -0.16085179 -0.054141823 -0.06491339 0.13566265 -0.17528693 -0.042497043 0.2262081 0.18021417 0.28118935 -0.14362068 0.109826684 0.160764 -0.15326582 0.100535214 -0.15127997 -0.074641176 -0.09615922 -0.06649206 0.042486 -0.18060459 0.028353216 0.033584785 0.0435131 -0.013374856 0.26141086 -0.049339384 -0.08305334 0.06026806 -0.13830361 -0.06913884 -0.07361081 0.034424823 -0.0465127 0.04814176 -0.06387843 0.051501475 0.045623522 0.1264567 -0.019172167 0.1803898 0.14567949 -0.119823776 0.049493592 -0.19482106 -0.024488831 0.019887377 0.043697953 -0.12395024 -0.1657893 -0.08927307
6 -0.012697428 -0.076237954 0.15841867 0.23401062 -0.13204184 -0.19637159 0.04428585 0.25218618 -0.06783757 -0.043250997 0.1974313 0.008729232 0.09719176 0.083365455 -0.14744565 -0.046550065 -0.06532739 0.12189103 -0.19395737 -0.055845454 0.23100859 0.17384909 0.27019164 -0.12614377 0.11869405 0.15878938 -0.15352805 0.08144838 -0.17722042 -0.0883952 -0.10383796 -0.08668735 0.07043264 -0.18616502 0.043885212 0.038391225 0.0352448 -0.021212034 0.23850872 -0.05512769 -0.11458528 0.05171991 -0.14588425 -0.056560274 -0.07473385 0.024017131 -0.046563104 0.07066406 -0.05127432 0.058011927 0.026531242 0.12997219 -0.008526023 0.1734666 0.13697286 -0.113076255 0.040084373 -0.18379803 -0.03504797 0.047377508 0.020058643 -0.11847521 -0.16673067 -0.10077409
5 -0.019236535 -0.07904316 0.1447148 0.22986098 -0.13544743 -0.20269376 0.081350915 0.25588313 -0.09196852 -0.030016193 0.22460614 0.01802983 0.06262884 0.096706934 -0.13187686 -0.037411623 -0.039052743 0.115046255 -0.20437995 -0.0365434 0.24661729 0.18466398 0.25581408 -0.11404546 0.12092325 0.12110413 -0.16161498 0.08716915 -0.17442569 -0.10254599 -0.11452877 -0.09707727 0.09063225 -0.18879397 0.021339985 0.04707931 0.070128374 -0.0411015 0.24728893 -0.03499496 -0.101129934 0.057292484 -0.119735986 -0.07149481 -0.09538803 0.038132045 -0.05537465 0.077895865 -0.026490167 0.05462308 0.025314191 0.1437422 0.0024815549 0.14939614 0.16186492 -0.09960453 0.057536412 -0.2005627 -0.018500088 0.056284808 0.046892937 -0.117500074 -0.17849548 -0.08166222
4 -0.018165123 -0.068083584 0.18268338 0.24179526 -0.14959037 -0.19484937 0.08673908 0.26586163 -0.062049285 -0.031130532 0.22993872 0.025364557 0.08882586 0.062303707 -0.14051759 -0.032183547 -0.03852958 0.11910686 -0.19142857 -0.001992918 0.23116024 0.19024172 0.28436512 -0.14644651 0.12060478 0.15953448 -0.14946878 0.0875827 -0.15539058 -0.08610996 -0.08196403 -0.07266755 0.022614598 -0.2043583 0.012688807 0.04471854 0.047832336 0.0062151663 0.28096995 -0.045983683 -0.071217924 0.0642175 -0.10664654 -0.069694385 -0.07534727 0.02384654 -0.045568477 0.05929584 -0.066698804 0.026701579 0.06457799 0.12748814 -0.007288945 0.19826783 0.14217058 -0.12214981 0.040499426 -0.18404244 -0.023660308 0.017876074 0.043935083 -0.11132806 -0.16474204 -0.07043759
8 -0.018272586 -0.068880506 0.17442536 0.23676936 -0.14431109 -0.20528537 0.054084282 0.24484056 -0.07083261 -0.047985032 0.22342333 0.011184332 0.08797637 0.06396306 -0.14312278 -0.05385964 -0.057500035 0.112868235 -0.19967802 -0.050325893 0.22558828 0.18250583 0.2606173 -0.11418229 0.10799865 0.14945213 -0.15007426 0.095647186 -0.17620572 -0.079951085 -0.105174296 -0.0804028 0.05489805 -0.1722303 0.034512155 0.024498679 0.050884098 -0.03786805 0.24170992 -0.031394947 -0.104759544 0.058551956 -0.1269778 -0.05005161 -0.08579594 0.02141602 -0.040683713 0.07684333 -0.039175007 0.03989799 0.03993736 0.11147663 -0.01800461 0.169275 0.1362653 -0.10641975 0.04929575 -0.19036411 -0.049014986 0.063778535 0.040049028 -0.114686325 -0.1483968 -0.088768974
