7 64
902 -0.027362205 -0.014443887 0.160488 0.20706716 -0.18926507 -0.2260996 0.10993953 0.20878689 -0.109218486 -0.06397111 0.24813807 0.002179247 -0.02658024 0.09466638 -0.13994157 -0.070546396 0.001840353 0.06910896 -0.20548852 -0.18152599 0.20694442 0.15993 0.18353754 -0.01569563 0.110357575 -0.007178641 -0.09349746 0.15987496 -0.18427645 -0.073511325 -0.18742758 -0.049397595 0.1709172 -0.1280495 -0.019711798 -0.04878168 0.17639744 -0.15678616 0.110757254 -0.043095034 -0.17792566 0.11119796 -0.17562759 -0.088386185 -0.06725305 0.032423265 -0.11481817 0.17172174 0.08195009 0.12893899 -0.0879927 0.08576884 -0.093355946 0.05236143 0.20155357 -0.093676955 0.113612905 -0.21313807 -0.09427993 0.19484223 0.036499463 -0.0706116 -0.106006764 -0.14447936
7 -0.044497184 -0.015359395 0.18578999 0.2052619 -0.16455197 -0.23080717 0.14143044 0.24453568 -0.08934269 -0.040933084 0.31907314 0.058558267 0.05483248 0.03816975 -0.15031028 -0.0818378 -0.019658996 0.11596231 -0.163648 -0.044953905 0.20608258 0.19308443 0.23371841 -0.09787818 0.077761605 0.07281856 -0.13328889 0.15774445 -0.119478986 -0.056124765 -0.11354051 -0.033809286 0.043016855 -0.13749845 -0.026582757 -0.00012543694 0.124897756 -0.085475266 0.24273865 0.015379464 -0.04450598 0.083947554 -0.09478243 -0.08058315 -0.10392513 0.048145637 -0.06342011 0.058457047 -0.0014574262 0.053280488 0.0403909 0.10399541 -0.045462247 0.12028889 0.18091086 -0.092484534 0.10677785 -0.23441483 -0.0249521 0.057936694 0.120757475 -0.104857445 -0.13540788 -0.05678495
6 -0.03852469 -0.005981199 0.18798886 0.19361044 -0.17243652 -0.23279113 0.14079465 0.23317266 -0.08450934 -0.028331146 0.29783025 0.052738216 0.025402887 0.054900404 -0.15513471 -0.06322007 -0.007865961 0.10740239 -0.16971636 -0.09569894 0.2122118 0.17884813 0.22354925 -0.08282147 0.09715794 0.038748696 -0.117133774 0.16580239 -0.12519003 -0.055728443 -0.1440708 -0.02925736 0.084296055 -0.13118373 -0.03847814 -0.025029765 0.15597981 -0.09563804 0.19971064 -0.0282605 -0.08376933 0.10928112 -0.1286951 -0.107915014 -0.0724546 0.057126004 -0.088636 0.09463829 0.020050723 0.07591694 -0.005637228 0.0918405 -0.07916974 0.09495505 0.20014352 -0.10456004 0.10630466 -0.2194025 -0.048050407 0.091113575 0.08316231 -0.09615525 -0.12288112 -0.09316328
9 -0.040576953 -0.027996331 0.17580758 0.19325359 -0.14607096 -0.23302725 0.1236586 0.23695692 -0.08690595 -0.020338219 0.30271965 0.060708385 0.057476405 0.04850827 -0.1493912 -0.06623715 -0.02996384 0.122414775 -0.1675406 -0.05056344 0.22175996 0.18791752 0.2308012 -0.10155283 0.08423414 0.07494473 -0.14701268 0.14759931 -0.12409338 -0.061592523 -0.12604858 -0.050404303 0.062497675 -0.13069037 -0.017577602 0.0031762952 0.1241692 -0.081570186 0.24371628 0.0015906817 -0.05374879 0.08439311 -0.101639435 -0.09117163 -0.10181339 0.06408821 -0.058502614 0.05774183 -0.004175545 0.045150302 0.037923966 0.106219694 -0.043580502 0.11201017 0.18611671 -0.09123072 0.09783653 -0.22833058 -0.024107682 0.055825543 0.10726358 -0.11980597 -0.14332896 -0.06356317
4 -0.04644056 -0.023529023 0.17507939 0.1888681 -0.15014666 -0.23676819 0.15105666 0.23876488 -0.09622523 -0.01159669 0.32553318 0.07156473 0.041076317 0.04571876 -0.1410169 -0.062357027 -0.013003471 0.11907359 -0.16605484 -0.030514555 0.22415315 0.19455844 0.2229029 -0.09865163 0.08059191 0.054884337 -0.14811864 0.15451771 -0.11179924 -0.063096106 -0.12456753 -0.04786971 0.058013838 -0.12823243 -0.035983745 0.0059202015 0.14352049 -0.08744859 0.25344643 0.017620565 -0.03252955 0.088745005 -0.07805698 -0.099623755 -0.11187768 0.07182582 -0.060597345 0.05377396 0.005071506 0.03591875 0.046833035 0.108340874 -0.039794993 0.10143089 0.1970566 -0.08393841 0.10813873 -0.2360252 -0.012639061 0.05116608 0.12959576 -0.1172169 -0.14429827 -0.045007188
8 -0.041661996 -0.02246409 0.19732608 0.20548972 -0.16897725 -0.22818217 0.1608106 0.24912094 -0.08349261 -0.011413056 0.32087317 0.0659757 0.035890665 0.040411465 -0.14105278 -0.045523744 0.0014481972 0.11242944 -0.17660592 -0.016847236 0.22672899 0.20082618 0.24361886 -0.112936184 0.09756852 0.06759862 -0.13765962 0.15071097 -0.11150383 -0.06323897 -0.11187193 -0.039298475 0.033184186 -0.15034977 -0.047883824 0.0041571492 0.14069724 -0.057750847 0.2622009 -0.003946949 -0.031884793 0.100126505 -0.0733532 -0.10542621 -0.09147322 0.058960024 -0.06553391 0.06485975 -0.009133815 0.024080649 0.05493928 0.100496665 -0.047724437 0.12780641 0.19038765 -0.1012777 0.09390639 -0.21712433 -0.022741562 0.044785433 0.110599354 -0.10366692 -0.13551243 -0.04670631
5 -0.046933927 -0.022377195 0.19923915 0.2030651 -0.15783745 -0.24583405 0.12528057 0.23523885 -0.0859628 -0.0312579 0.33322173 0.06415864 0.0667256 0.021128438 -0.1511048 -0.08220009 -0.033781365 0.12027241 -0.17136514 -0.039320234 0.21473593 0.20048766 0.23115373 -0.098348595 0.068718955 0.08546154 -0.14871365 0.16183497 -0.1255442 -0.050336283 -0.12112185 -0.04387952 0.033148132 -0.119282715 -0.01779682 -0.0077108797 0.12613559 -0.09318535 0.26143488 0.030873965 -0.039368134 0.085895695 -0.08453339 -0.07641501 -0.117870905 0.058058247 -0.044815335 0.054080687 -0.0041446392 0.022729138 0.06431749 0.08869259 -0.049678743 0.12269179 0.17875353 -0.08730421 0.105005704 -0.24005531 -0.03815813 0.06331513 0.13222386 -0.12250828 -0.12796628 -0.049660023
