7 64
902 -0.05126881 -0.016814796 0.08098404 0.22633608 -0.18641731 -0.1769615 0.24408405 0.2770076 -0.17489173 -0.095799536 0.31332043 0.029568141 -0.044143435 0.12042366 -0.08772187 -0.099164195 0.06828334 0.06695911 -0.15839952 0.0017843139 0.17588164 0.18631786 0.18325917 -0.04037772 0.07975082 -0.027581532 -0.098085426 0.12840492 -0.116869755 -0.11324983 -0.08045417 -0.038797628 0.107850336 -0.20157649 -0.0654131 0.06902994 0.14378227 -0.12554565 0.18690933 0.07146185 -0.031206047 0.03792196 -0.04631949 -0.055552356 -0.14426039 0.005860983 -0.116295524 0.07479426 0.068042375 0.15137292 -0.028793579 0.19519322 0.043500766 0.06447427 0.19408287 -0.04523629 0.15064833 -0.25814202 0.06426733 0.07178813 0.1633923 -0.03158762 -0.1854092 -0.012089215
9 -0.042506576 -0.03111664 0.092207044 0.22166334 -0.13729252 -0.14964145 0.18123664 0.29333094 -0.11377705 -0.088888146 0.2701046 0.046995763 0.083346196 0.0796537 -0.11723656 -0.10510354 -0.003132022 0.118993975 -0.107437916 0.072457835 0.15682842 0.17891335 0.24842763 -0.1327867 0.06479518 0.11012509 -0.12163823 0.08773534 -0.07870889 -0.08973434 -0.0041640126 -0.027460752 -0.0017959276 -0.21720746 -0.015073975 0.110988446 0.021150388 -0.015041532 0.26514748 0.054525133 0.031884823 -0.004527259 -0.044598997 -0.027370369 -0.12570043 -0.0034211534 -0.061637536 -0.027814576 -0.05069715 0.10891096 0.057766072 0.20318225 0.07890006 0.15851417 0.12888329 -0.06905709 0.09596298 -0.2271051 0.10208178 -0.06254063 0.14975284 -0.064350314 -0.20599486 0.010974462
7 -0.046121184 -0.024347283 0.120297946 0.20478083 -0.13474129 -0.16860737 0.19134341 0.2879976 -0.09771045 -0.051215082 0.29609284 0.07270405 0.086062096 0.059496514 -0.12789525 -0.084690794 -0.0027256093 0.13225225 -0.10777497 0.08063464 0.1764755 0.18807155 0.2581027 -0.15175542 0.0688928 0.10819975 -0.13303983 0.10466939 -0.059815053 -0.07716232 -0.01665468 -0.022395115 -0.01875686 -0.19938163 -0.033461187 0.09402188 0.047159187 -0.0031248506 0.29215294 0.042011715 0.052200396 0.021523615 -0.0347663 -0.059402514 -0.11648021 0.025623351 -0.05595967 -0.03465825 -0.060738888 0.07185443 0.08209797 0.18276326 0.05296781 0.15945046 0.14767973 -0.07987483 0.09403574 -0.22595766 0.09344354 -0.07707749 0.1566584 -0.08316466 -0.19707009 0.015471131
6 -0.03932577 -0.041678224 0.098540135 0.21732451 -0.12672882 -0.16078016 0.16203344 0.2909563 -0.106481925 -0.07005526 0.26364505 0.05079093 0.0937324 0.08212276 -0.1250335 -0.09263745 -0.018070403 0.12989235 -0.116958275 0.062316645 0.17708118 0.18053389 0.25706428 -0.1425684 0.073063314 0.12233047 -0.13751926 0.08551475 -0.08704259 -0.09100115 -0.019594088 -0.04096071 0.009090795 -0.21128039 -0.0054979436 0.10709338 0.022029443 -0.009959549 0.27544472 0.03767845 0.020246789 0.002492268 -0.057037238 -0.039453063 -0.12182347 0.012264736 -0.055440363 -0.025809994 -0.05849527 0.09544965 0.06169672 0.1989693 0.07097696 0.16089153 0.13561937 -0.07528407 0.08686123 -0.22460741 0.092624694 -0.06197496 0.13612871 -0.08348284 -0.2102666 -0.00073367154
5 -0.047173146 -0.030701011 0.08668266 0.20209138 -0.14222267 -0.16401988 0.20533432 0.26526397 -0.13509631 -0.060914136 0.29119283 0.05107306 0.019568134 0.08594281 -0.092482686 -0.081622116 0.030155411 0.094799064 -0.13030645 0.059937336 0.17453425 0.18150344 0.20401864 -0.09176968 0.066942304 0.04069783 -0.121860415 0.10195556 -0.08486126 -0.09626841 -0.043722544 -0.042185064 0.04119722 -0.18784326 -0.043792993 0.08802301 0.08800228 -0.060832974 0.24156816 0.06828221 0.020924933 0.021083483 -0.020281319 -0.051458716 -0.13810195 0.020979729 -0.0709389 0.011059056 0.0026265746 0.08888265 0.0404178 0.18379626 0.060682427 0.10420791 0.16091344 -0.049706716 0.11415062 -0.23210058 0.08354922 -0.008791748 0.16272491 -0.062286668 -0.18809295 0.016640654
8 -0.042711116 -0.033765975 0.10823054 0.23138063 -0.16003734 -0.16013126 0.20087744 0.2873561 -0.12435095 -0.0786318 0.28580007 0.040681254 0.039009735 0.08199883 -0.10301128 -0.08421443 0.025574954 0.09779059 -0.13902882 0.067494504 0.17403048 0.18980731 0.23656145 -0.11177355 0.078535296 0.07721567 -0.117747426 0.09656673 -0.094524205 -0.09705332 -0.026109435 -0.035951268 0.014324806 -0.2162414 -0.036649395 0.09360535 0.06311033 -0.033350833 0.25726596 0.053282194 0.015600089 0.019204158 -0.030103507 -0.04134514 -0.12624447 -0.00023865009 -0.07100088 0.012650333 -0.021500763 0.09051972 0.050399337 0.18641585 0.06191657 0.14422506 0.14596009 -0.06820797 0.10073808 -0.22432658 0.07633277 -0.019622914 0.14639054 -0.05533784 -0.18968832 0.009415732
4 -0.04840667 -0.028284092 0.10714027 0.22410111 -0.15796162 -0.17636934 0.1953162 0.27741548 -0.1337888 -0.08399277 0.30358523 0.044014595 0.03786138 0.077045895 -0.10707951 -0.102455676 0.016758617 0.09889806 -0.13844246 0.044597022 0.17190854 0.1901587 0.22011846 -0.093416266 0.06413606 0.062441375 -0.12193652 0.112445 -0.10067518 -0.09153276 -0.04448304 -0.0375828 0.031574134 -0.19332613 -0.031607736 0.080230914 0.07817757 -0.068795726 0.24758643 0.07314752 0.007908615 0.020326609 -0.036862873 -0.036789063 -0.1423564 0.0077029373 -0.06912769 0.016661515 -0.002008966 0.096523404 0.042929664 0.17971635 0.05299364 0.12321207 0.15472856 -0.05750873 0.11741377 -0.24366735 0.06701808 0.0038824363 0.16393216 -0.06409311 -0.18453687 0.005293564
