7 64
902 -0.018750904 -0.018664109 0.1172844 0.22827075 -0.1949789 -0.16721821 0.16109003 0.25709638 -0.11541897 -0.07955143 0.20190302 -0.00909859 -0.038478624 0.14419302 -0.12359661 -0.04962112 0.041768804 0.06509738 -0.18201518 -0.12317648 0.19155194 0.14819942 0.21443102 -0.0506337 0.14166367 -0.0012423844 -0.06792304 0.11431296 -0.15558833 -0.10318916 -0.12495442 -0.035011984 0.15735595 -0.20903994 -0.03926856 0.015472393 0.13168249 -0.081015736 0.106796615 -0.07991389 -0.15118018 0.08261363 -0.16475368 -0.09144227 -0.035718847 -0.0008968631 -0.14587492 0.14753082 0.049070016 0.18172354 -0.10892044 0.15130365 -0.03668469 0.08253406 0.18583606 -0.10692241 0.09402234 -0.18171169 -0.020323517 0.11992664 0.009167208 -0.025025588 -0.15045975 -0.12768482
9 -0.02207421 -0.0042733625 0.13078618 0.24609426 -0.2182482 -0.14416502 0.20840493 0.28167722 -0.10890564 -0.09355742 0.21984982 -0.0030410213 -0.03875143 0.1273291 -0.11620779 -0.049091868 0.071873836 0.058422692 -0.16651891 -0.061473515 0.16954595 0.15858859 0.23595977 -0.0746877 0.1416149 0.01099695 -0.047489565 0.1109528 -0.12412923 -0.09946733 -0.074372984 -0.0056068394 0.09228442 -0.24238305 -0.0673802 0.034565505 0.11627654 -0.038058918 0.13373023 -0.06892664 -0.10032037 0.07754496 -0.12487745 -0.08478528 -0.027807921 -0.026131993 -0.14888954 0.124735296 0.024135344 0.17295514 -0.077966444 0.15894327 -0.019876689 0.1183866 0.16897146 -0.11549787 0.090333015 -0.17100263 0.006333309 0.07302968 0.028000755 0.004209528 -0.14857554 -0.092302665
6 -0.020627148 -0.0272846 0.16062522 0.19764848 -0.15654063 -0.18710141 0.15861058 0.27231118 -0.066336595 0.0037446863 0.2341551 0.053057056 0.030562675 0.103719845 -0.1529324 -0.005245759 0.010300711 0.123518266 -0.16252685 -0.04697294 0.23713174 0.17028067 0.2758289 -0.14531484 0.1500004 0.06906303 -0.119066596 0.115515806 -0.10255255 -0.08492687 -0.10608122 -0.035375778 0.07828731 -0.20388351 -0.049605206 0.03011566 0.11619238 0.0061759204 0.22240114 -0.10793089 -0.06998136 0.101953655 -0.13464217 -0.14414375 -0.022797255 0.056633167 -0.10855901 0.07261965 -0.03584852 0.09133538 -0.011100937 0.1434938 -0.04335906 0.13625123 0.19792221 -0.13641652 0.06295997 -0.17321728 0.0076562776 0.00612573 0.024682086 -0.08492288 -0.17107184 -0.09533839
7 -0.01554413 -0.04619339 0.14751992 0.21008454 -0.1500682 -0.1722664 0.154808 0.2834087 -0.069185115 0.0031180936 0.21578795 0.044553794 0.035989933 0.11507103 -0.14155826 0.0057310266 0.011337427 0.12260898 -0.16976085 -0.014798764 0.24367493 0.17348205 0.28678706 -0.15777718 0.15810964 0.090235695 -0.12748468 0.09057662 -0.10878321 -0.09949639 -0.08750313 -0.050119504 0.06983752 -0.22775689 -0.041019633 0.05636904 0.09141749 0.030640537 0.23992752 -0.10781934 -0.06347763 0.08625539 -0.12060935 -0.13457103 -0.027784497 0.04738633 -0.10099361 0.06416498 -0.05179092 0.08316385 0.002485688 0.16146179 -0.014606837 0.15550333 0.18519054 -0.13509476 0.048377313 -0.16423598 0.024242647 -0.013501746 0.018151809 -0.0836038 -0.1875641 -0.082826056
5 -0.021643566 -0.02607824 0.1336813 0.2119319 -0.17707616 -0.16341826 0.19697385 0.27483335 -0.09447026 -0.02086238 0.22964346 0.03322398 -0.020196548 0.12387775 -0.12072861 -0.005711807 0.053637695 0.089855745 -0.16996366 -0.028518476 0.21936662 0.16820459 0.24949035 -0.11311981 0.1516416 0.026821282 -0.09495374 0.10452396 -0.10695916 -0.10252353 -0.09220852 -0.034087423 0.0919953 -0.22476254 -0.069593415 0.044361003 0.1289775 -0.009703391 0.19240604 -0.08535417 -0.07039456 0.09163434 -0.10657655 -0.12884049 -0.032670278 0.030489441 -0.1262585 0.09504171 -0.0029459454 0.11356462 -0.03433992 0.15887065 -0.019356517 0.117504194 0.19417538 -0.11879579 0.074604 -0.16989589 0.021868452 0.02934384 0.033680484 -0.046015963 -0.16973269 -0.07738516
8 -0.017933952 -0.02899366 0.16788688 0.225893 -0.18653248 -0.17118403 0.17120156 0.27149394 -0.074867286 -0.023323625 0.22773048 0.026645493 -0.0010239141 0.101387344 -0.13059254 -0.0031378244 0.038966157 0.09048096 -0.18369544 -0.03457943 0.22239342 0.17489718 0.26661152 -0.1226419 0.15486147 0.05952076 -0.09636188 0.10728923 -0.12026253 -0.0917912 -0.092206724 -0.03288601 0.06563398 -0.22215714 -0.05852406 0.027799405 0.11744474 0.0030118665 0.20492367 -0.09551612 -0.0813753 0.10094307 -0.11366195 -0.12136903 -0.02295751 0.022437671 -0.11300919 0.103883214 -0.01927649 0.0871182 -0.015047285 0.13308045 -0.03806156 0.14541943 0.17983139 -0.1326464 0.059513163 -0.159004 -0.010651387 0.038188756 0.01761014 -0.052037805 -0.15062402 -0.08767621
4 -0.021633685 -0.035461653 0.14846756 0.22408526 -0.17337252 -0.1758987 0.16719197 0.27563015 -0.08885389 -0.030649466 0.23493633 0.02969402 0.01103898 0.10846833 -0.13031185 -0.020669123 0.026265007 0.099025495 -0.17748778 -0.029828604 0.22230116 0.17599456 0.26072007 -0.11941955 0.14211585 0.06258086 -0.10963032 0.10478016 -0.122992024 -0.09725384 -0.091860846 -0.04283129 0.076900356 -0.21819754 -0.045269184 0.042120956 0.1077497 -0.012880504 0.21232776 -0.07171704 -0.07495071 0.08338947 -0.11203696 -0.10965753 -0.04646765 0.026485182 -0.106400095 0.08736409 -0.016507264 0.097481966 -0.012393991 0.15112852 -0.017772699 0.13754968 0.18089442 -0.11912546 0.06960931 -0.17875607 0.0075347926 0.032046206 0.038720276 -0.06303396 -0.16820301 -0.07895263
