7 64
902 -0.042247847 0.06924931 0.1880132 0.18464196 -0.21702303 -0.1838886 0.25650573 0.28415465 -0.06464849 -0.048022624 0.30227363 0.07763107 0.0013319652 0.07193296 -0.18047906 -0.06495383 0.060287833 0.11175505 -0.09573845 -0.08912651 0.15862712 0.15813902 0.2617978 -0.123478584 0.12199385 -0.0071008597 -0.03816726 0.19017008 -0.032844283 -0.039445646 -0.08608417 0.07042078 0.042545848 -0.19170742 -0.11865948 -0.015830839 0.16731466 -0.026020268 0.16081251 -0.096935816 -0.032945003 0.12975572 -0.14947334 -0.15634313 0.011371906 0.03144095 -0.16571958 0.06923105 -0.0037774087 0.17494278 -0.060435034 0.12691839 -0.09987245 0.10778195 0.21683651 -0.14968684 0.12110574 -0.19474004 0.016573675 0.005427685 0.068501264 -0.021654958 -0.13024424 -0.09932378
9 -0.019759528 -0.07146381 0.15813796 0.20421335 -0.1301057 -0.20448978 0.10975302 0.2535479 -0.07569028 0.0188268 0.2373549 0.045837026 0.048642963 0.0902565 -0.133008 0.0016882762 -0.019594565 0.12355646 -0.19784775 -0.013188322 0.26634365 0.18790944 0.26477447 -0.138903 0.1364431 0.10512591 -0.1655853 0.094080806 -0.13971867 -0.09661988 -0.11652969 -0.087949894 0.07555564 -0.1837326 -0.01295607 0.041883346 0.09920293 -0.0095167495 0.26729897 -0.062279075 -0.06995939 0.08395363 -0.099564135 -0.11666549 -0.07250434 0.06817935 -0.060330335 0.06820061 -0.03847732 0.023266943 0.04166135 0.13316832 -0.015201838 0.14433825 0.18273869 -0.1113936 0.049822673 -0.18345737 -0.008354054 0.023547735 0.044310488 -0.12323931 -0.1748875 -0.07020187
6 -0.021096326 -0.06081951 0.16294242 0.18404873 -0.12737557 -0.20379533 0.12988251 0.24694301 -0.067504495 0.045945972 0.24400581 0.0622919 0.033474367 0.08706282 -0.13239513 0.022227852 -0.0043175966 0.1250827 -0.18894279 -0.007551877 0.2713092 0.1848444 0.2610014 -0.14583023 0.14263277 0.083604686 -0.16133927 0.10152007 -0.11660906 -0.091110535 -0.121011786 -0.078196555 0.07299703 -0.17591962 -0.03671062 0.03416117 0.12283241 0.0015065823 0.26786 -0.078130595 -0.054162532 0.101621486 -0.09076685 -0.14472365 -0.057070795 0.08610994 -0.06803098 0.06593895 -0.0379001 0.012614527 0.042072207 0.12518786 -0.030114735 0.13213673 0.19783679 -0.11652573 0.05000684 -0.17422403 -0.0033244854 0.010441465 0.043426234 -0.12255626 -0.16928168 -0.06630276
7 -0.021693971 -0.045978796 0.15607607 0.18959893 -0.13926373 -0.20035224 0.13122354 0.24911782 -0.07392793 0.017195007 0.237168 0.05088972 0.028478108 0.0963585 -0.13985808 -0.0011702544 -0.0035310944 0.11929702 -0.18005702 -0.04476025 0.25088745 0.17418149 0.25327665 -0.12787917 0.13857786 0.068709776 -0.14099365 0.11056951 -0.12163496 -0.08777576 -0.12488567 -0.06338694 0.092004195 -0.17675786 -0.03342387 0.025118241 0.12269641 -0.019315064 0.23048727 -0.081620105 -0.07666721 0.09818715 -0.11849781 -0.1343847 -0.0496602 0.070427395 -0.08541896 0.07813809 -0.022018721 0.056711808 0.005989421 0.12940721 -0.0383718 0.120526366 0.19682765 -0.1172816 0.062277745 -0.17996146 -0.008123823 0.031317543 0.03634461 -0.10604742 -0.16501695 -0.08641396
5 -0.030753557 -0.013471307 0.14858866 0.17573017 -0.15566991 -0.1878056 0.19265497 0.25438437 -0.08192179 0.013458449 0.26284826 0.0668255 -0.0032566101 0.095284835 -0.13385709 -0.006408699 0.0361402 0.109790124 -0.15185449 -0.03080757 0.22649944 0.16989863 0.2397738 -0.12127435 0.13256817 0.02056882 -0.1121172 0.12902857 -0.08149879 -0.08093718 -0.10964894 -0.02823514 0.08127111 -0.18017745 -0.07633294 0.024020823 0.15189254 -0.022044007 0.2136742 -0.07317236 -0.04228145 0.10675824 -0.09854183 -0.15041766 -0.040547606 0.06836016 -0.11085621 0.070405796 -0.0060811155 0.08186124 -0.008660221 0.13635972 -0.042931736 0.0992156 0.21146987 -0.11446757 0.08484438 -0.18384373 0.018981392 0.014768238 0.061999183 -0.07651932 -0.16002686 -0.06806081
8 -0.013403271 -0.090904415 0.1645361 0.20590661 -0.12851776 -0.20010105 0.10435011 0.24242948 -0.07177577 0.04446915 0.22490995 0.03985036 0.027555272 0.09013937 -0.11350536 0.038587615 -0.0062241624 0.110352255 -0.22387399 0.010278878 0.2879041 0.19425827 0.2620849 -0.13940175 0.15227194 0.105186425 -0.17464715 0.07792292 -0.15091392 -0.10657459 -0.121242866 -0.108801186 0.07311308 -0.18755326 -0.01916123 0.042813297 0.108946994 0.0063487967 0.28024572 -0.07138697 -0.0730449 0.09443779 -0.07492521 -0.12612617 -0.0698379 0.07399957 -0.050631694 0.086190544 -0.03838568 -0.019382456 0.058849394 0.119851284 -0.013675196 0.14898996 0.18150218 -0.111266926 0.03121525 -0.16231677 -0.022434235 0.033047363 0.0284275 -0.12552775 -0.1668851 -0.06146879
4 -0.032410935 -0.005131169 0.1842742 0.19127718 -0.16944304 -0.20953842 0.15754338 0.24854974 -0.069466285 -0.013099191 0.27618253 0.058397625 0.027672362 0.06591285 -0.15581709 -0.037587415 0.0056731864 0.11366109 -0.1580014 -0.0687813 0.21450126 0.17407055 0.24706887 -0.11396976 0.117445774 0.04978439 -0.109683745 0.1493372 -0.101949625 -0.060376413 -0.11957743 -0.018991709 0.06484635 -0.16001694 -0.05287932 -0.006018873 0.1407617 -0.043518845 0.20991842 -0.06382257 -0.06513155 0.11064263 -0.124914125 -0.12672004 -0.043274727 0.055431686 -0.09816101 0.07956427 -0.008665185 0.07827875 -0.0024223672 0.1065891 -0.07051746 0.11576093 0.19675604 -0.12166546 0.08753637 -0.1942092 -0.02328107 0.044749517 0.060951896 -0.08525466 -0.13522834 -0.0890674
