7 64
902 -0.04504783 0.056380197 0.16155322 0.16913216 -0.18877164 -0.20753248 0.20373248 0.25669956 -0.08479309 -0.06193771 0.3010832 0.06867924 0.016093427 0.07706047 -0.18458055 -0.10196178 0.017332152 0.118535005 -0.102239124 -0.14535193 0.16129686 0.1509645 0.2277922 -0.08537394 0.09468293 -0.0128874285 -0.061231893 0.1994199 -0.068464905 -0.03885764 -0.12773 0.04249073 0.098643616 -0.15027846 -0.07650383 -0.029862154 0.17048328 -0.09690363 0.14171615 -0.063379206 -0.07317699 0.11545901 -0.1829444 -0.13374576 -0.02823237 0.046220407 -0.15229565 0.07676386 0.027224971 0.19328995 -0.08046995 0.12657732 -0.10144605 0.07195801 0.2249333 -0.12551957 0.14301604 -0.2338684 -0.0030549308 0.05678894 0.08593296 -0.05463294 -0.13641593 -0.12119059
9 -0.03449792 0.01418607 0.18622996 0.18914422 -0.15574165 -0.19824055 0.14222601 0.27257726 -0.04318427 -0.040270798 0.27048108 0.07242941 0.1053082 0.04758128 -0.19206098 -0.07841238 -0.03469124 0.14970562 -0.10485735 -0.061782457 0.18008134 0.16422199 0.28531206 -0.15881845 0.097936556 0.11105266 -0.10384575 0.15027146 -0.068822056 -0.03803879 -0.075829774 0.01599682 0.012387709 -0.1701082 -0.029829256 0.010932796 0.075923786 -0.0035434505 0.22940548 -0.069147445 -0.032226954 0.08383201 -0.1525159 -0.1070611 -0.029626755 0.040644396 -0.08996998 0.016121324 -0.06492499 0.10994788 0.0151155 0.12496927 -0.059765086 0.15830432 0.16889277 -0.1383278 0.08225245 -0.19953917 0.009373067 -0.029552808 0.06788366 -0.090783454 -0.1516847 -0.09001893
8 -0.03414537 0.029748788 0.21474616 0.17099701 -0.16132414 -0.20650075 0.14243977 0.25320378 -0.022443246 -0.016730132 0.27749968 0.083617374 0.09531001 0.026020063 -0.19900416 -0.060765047 -0.028649678 0.14698783 -0.10382412 -0.07922274 0.18179321 0.16128322 0.28109434 -0.15910947 0.101867825 0.09734839 -0.094317056 0.16837768 -0.055957854 -0.019813666 -0.09103842 0.030772375 0.0019188144 -0.1471885 -0.048031896 -0.021440705 0.10369455 -0.00020236996 0.22193143 -0.09061847 -0.03296076 0.1136531 -0.15520297 -0.13101916 -0.005948863 0.055021744 -0.09225004 0.02914992 -0.062362 0.08658206 0.017124055 0.089387774 -0.09993144 0.15108049 0.17801212 -0.15020537 0.07853596 -0.18456817 -0.018664284 -0.019228907 0.05585415 -0.092077285 -0.12257924 -0.10044517
7 -0.028339595 -0.0054819086 0.19415775 0.16774571 -0.12573923 -0.21028492 0.09764713 0.24946173 -0.02376234 0.0011724212 0.25107852 0.08006123 0.122922234 0.039112765 -0.19448437 -0.05001495 -0.061913908 0.16195278 -0.115021 -0.066664815 0.20663458 0.16078746 0.28426674 -0.17062671 0.10276456 0.13199748 -0.13063374 0.13968223 -0.076042995 -0.034186013 -0.0966034 -0.009207378 0.018950328 -0.14315939 -0.011583758 0.0017089455 0.07270797 0.008198797 0.24470505 -0.08776146 -0.040974986 0.092259414 -0.15550818 -0.12141939 -0.024990385 0.06951441 -0.06574149 0.012782761 -0.079187326 0.06403695 0.035594575 0.10327682 -0.07106303 0.15642487 0.16854887 -0.13957778 0.05976495 -0.18333983 -0.009811035 -0.031678434 0.046903066 -0.12423262 -0.14614297 -0.09760822
6 -0.03707568 0.0015673082 0.18312317 0.17349851 -0.14013831 -0.21468358 0.14216328 0.26266518 -0.04985915 -0.0068946537 0.28498346 0.08618074 0.09472894 0.049805056 -0.18496996 -0.059297577 -0.035376247 0.15487193 -0.11697942 -0.052386947 0.20719814 0.17122434 0.27454883 -0.15736984 0.09927577 0.097440094 -0.12788634 0.15157607 -0.07019288 -0.04399642 -0.09704821 -0.0058414596 0.03014741 -0.1524162 -0.03389906 0.0104783885 0.09964214 -0.014748844 0.24716963 -0.061589096 -0.025796432 0.09228942 -0.13600765 -0.12551114 -0.045007456 0.06997372 -0.08034629 0.016215544 -0.055509444 0.08019741 0.028525895 0.12169354 -0.059358295 0.13896936 0.1877839 -0.12833026 0.08422087 -0.20653474 0.01020144 -0.02493376 0.079842076 -0.11315673 -0.15735349 -0.08008397
5 -0.026380079 -0.0038111336 0.22357823 0.1925847 -0.15393396 -0.20549898 0.111120336 0.25675833 -0.016423091 -0.0075940737 0.25874975 0.07079423 0.11203846 0.024302341 -0.18895996 -0.039860923 -0.042603504 0.14678016 -0.13246965 -0.046362888 0.20462008 0.17314437 0.29856333 -0.17495759 0.11281113 0.14219151 -0.118209325 0.14007777 -0.081503734 -0.032887515 -0.082347445 -0.0005737005 -0.014696908 -0.16163212 -0.025179977 -0.0043387506 0.07429087 0.026533471 0.25586766 -0.09039643 -0.03734902 0.10307133 -0.13759604 -0.11635419 -0.015666349 0.049491577 -0.065701626 0.029656967 -0.08526717 0.042399377 0.052277837 0.08753069 -0.07839073 0.18345435 0.15754749 -0.1508236 0.050369516 -0.16932335 -0.02818308 -0.02477553 0.04018696 -0.10647667 -0.12827809 -0.09057008
4 -0.03384446 0.003297735 0.2121196 0.17162809 -0.13964713 -0.22337918 0.10488332 0.242894 -0.027060704 -0.0054055774 0.27766457 0.08202307 0.11486066 0.02148819 -0.1945502 -0.060331274 -0.057067167 0.15473662 -0.12162533 -0.07192266 0.20241682 0.16891268 0.27577242 -0.15716586 0.092925444 0.12163175 -0.12708557 0.1575652 -0.07930558 -0.025582122 -0.104289725 -0.0028486163 0.010373155 -0.12918589 -0.018984161 -0.015861968 0.09127046 -0.013618662 0.24550572 -0.06812312 -0.03903256 0.10172953 -0.14649233 -0.11692161 -0.035015024 0.06815865 -0.06313859 0.023035267 -0.06499987 0.052654833 0.042839505 0.085353374 -0.0856179 0.15136607 0.17198771 -0.1356932 0.071458824 -0.1940319 -0.02782341 -0.009401687 0.06449973 -0.12272703 -0.12901357 -0.09328723
