7 64
902 -0.008368265 -0.048194118 0.1520213 0.26574895 -0.20277621 -0.18109739 0.096249945 0.25202847 -0.102336 -0.09542311 0.18249108 -0.03894346 -0.009543408 0.12740147 -0.12782119 -0.049951628 0.007220662 0.06013224 -0.22509089 -0.13798338 0.2070751 0.16026312 0.23299484 -0.0498811 0.1474597 0.058411557 -0.085018136 0.10074092 -0.20981646 -0.10398056 -0.13419707 -0.0631839 0.14480951 -0.21039699 0.003716091 0.0026728234 0.10009094 -0.07934707 0.1225661 -0.08227 -0.19483054 0.07981833 -0.1799299 -0.05896528 -0.042403504 -0.020386662 -0.11659138 0.17403547 0.034457445 0.14380017 -0.085478686 0.123964004 -0.0434658 0.12293713 0.15668386 -0.115507774 0.06742166 -0.17165366 -0.075182885 0.15886739 -0.021222321 -0.041798845 -0.13339461 -0.14783658
9 -0.030850146 -0.032027267 0.16983001 0.2011511 -0.1461435 -0.20457722 0.13682362 0.26334536 -0.07073947 -0.012694319 0.2689257 0.05963693 0.066985466 0.06710923 -0.15306224 -0.04095215 -0.019194735 0.13092224 -0.15828136 -0.022431204 0.22543839 0.18367615 0.2673711 -0.14085655 0.111818135 0.09989414 -0.13920993 0.12349658 -0.1072635 -0.07180957 -0.09551957 -0.04182391 0.042657692 -0.17612253 -0.02579538 0.030621367 0.095611796 -0.018098904 0.25680947 -0.04405316 -0.042297013 0.080993965 -0.10733069 -0.106400564 -0.06793729 0.054068185 -0.071244724 0.04327731 -0.042073157 0.057535164 0.03761082 0.1311691 -0.028339762 0.14665501 0.17828082 -0.115130976 0.07328991 -0.20076196 0.0039648996 0.0036799866 0.07437106 -0.10643632 -0.16436891 -0.065632574
6 -0.030881366 -0.012612722 0.18473278 0.18684022 -0.15485922 -0.21106642 0.14212838 0.2521436 -0.05988179 -0.003742294 0.27117956 0.06538267 0.053466983 0.061876252 -0.16364883 -0.03562715 -0.012448316 0.1286817 -0.1522944 -0.058152508 0.22148983 0.17523992 0.2610826 -0.13364282 0.1166887 0.07600431 -0.123474725 0.14271545 -0.09809747 -0.058691733 -0.11370145 -0.024266612 0.053280655 -0.16042554 -0.04099325 0.0026276794 0.1222037 -0.026145855 0.23106833 -0.06858386 -0.05581279 0.10460233 -0.1275531 -0.12747024 -0.043806046 0.06286508 -0.08657441 0.060005568 -0.030442879 0.06722613 0.0149327535 0.11098654 -0.06403705 0.13029285 0.19182989 -0.12584843 0.07816277 -0.19358253 -0.015594316 0.02029737 0.05968672 -0.10097679 -0.14519948 -0.08685225
5 -0.02379908 -0.050267667 0.16172211 0.1968163 -0.1298103 -0.20699553 0.11072755 0.25958973 -0.067345165 0.005039653 0.24426249 0.05533375 0.072130956 0.08304249 -0.15456109 -0.023257429 -0.033261634 0.13805832 -0.17065905 -0.03486716 0.24720047 0.1799325 0.27216125 -0.14672726 0.12535714 0.11035245 -0.15520857 0.109716 -0.12249325 -0.08139702 -0.11122781 -0.06370458 0.06781037 -0.17704178 -0.010557215 0.03483168 0.09017331 -0.011228786 0.2578073 -0.06696288 -0.064226784 0.08173908 -0.12389626 -0.11596681 -0.06275548 0.066679135 -0.06770836 0.049898103 -0.04738792 0.052676942 0.030884929 0.13580999 -0.026781049 0.14551593 0.18264857 -0.11885072 0.059691064 -0.1929342 -0.0009967299 0.007190517 0.049797237 -0.122717716 -0.1754328 -0.08128363
7 -0.025042582 -0.03496652 0.1585412 0.21110928 -0.16405024 -0.20178463 0.13861945 0.2551144 -0.08792443 -0.023914503 0.24736561 0.03411473 0.01982818 0.096158154 -0.14066449 -0.03209328 0.002514928 0.10521506 -0.18345147 -0.066921644 0.22976413 0.17546453 0.24580997 -0.103550516 0.12933202 0.05858502 -0.122477464 0.12221634 -0.13679849 -0.086375065 -0.123602584 -0.05173438 0.09714648 -0.1816402 -0.03054371 0.0166983 0.123519436 -0.04871316 0.20552509 -0.062152807 -0.09434438 0.09209522 -0.12901036 -0.109812796 -0.058219265 0.044240028 -0.09600708 0.09597219 -0.0013146113 0.08757345 -0.014791438 0.12962121 -0.04050875 0.11788461 0.18999813 -0.11269969 0.07862632 -0.19366667 -0.019952338 0.06382288 0.044773087 -0.08602325 -0.15563676 -0.09413005
8 -0.021402309 -0.044714883 0.17530802 0.21364157 -0.15394123 -0.19297175 0.12197517 0.2562576 -0.0649119 -0.011924858 0.2399655 0.03939136 0.05106915 0.072589554 -0.14070441 -0.019079242 -0.010483454 0.11375212 -0.18006141 -0.024528556 0.2307926 0.18126856 0.2673087 -0.13453344 0.12837622 0.104806095 -0.13237286 0.106866226 -0.12658733 -0.07931286 -0.09659943 -0.052594215 0.045892656 -0.18743815 -0.022490235 0.027172312 0.091400966 -0.005175188 0.24446124 -0.06361413 -0.06642261 0.08610536 -0.10727546 -0.10277673 -0.05366394 0.041139495 -0.0709604 0.070156 -0.04068517 0.044541292 0.031842474 0.11960071 -0.031248538 0.15605487 0.16662347 -0.12080281 0.05432611 -0.17569593 -0.01774539 0.024310945 0.041812237 -0.0954775 -0.1522745 -0.07542926
4 -0.026136687 -0.043072455 0.18216063 0.20531364 -0.14763947 -0.2156089 0.10610271 0.24535623 -0.067938715 -0.009168466 0.2580422 0.046009984 0.060065426 0.06327739 -0.15026629 -0.03315448 -0.028772797 0.12140867 -0.18259078 -0.04919806 0.23658937 0.1837357 0.25759876 -0.1238127 0.11585617 0.10143469 -0.14445281 0.12319551 -0.13505775 -0.07152547 -0.11942282 -0.058352586 0.06015476 -0.16076148 -0.012287208 0.010824785 0.10412963 -0.035585813 0.24456736 -0.04968859 -0.07568257 0.09064064 -0.11817379 -0.10217488 -0.068226136 0.05560828 -0.063379586 0.07187887 -0.028952507 0.039979924 0.032416612 0.108126774 -0.04516469 0.14107496 0.1762005 -0.11434906 0.065965466 -0.19424383 -0.03295018 0.044785988 0.05533086 -0.11448496 -0.14717239 -0.08318475
