7 64
902 -0.017491926 -0.03751103 0.14822027 0.23654224 -0.16888063 -0.21120952 0.063976556 0.24841702 -0.09534874 -0.09085902 0.20449957 -0.010855751 0.049970493 0.114091516 -0.1648429 -0.089941055 -0.04849775 0.10404475 -0.19446333 -0.1737184 0.20889822 0.15801032 0.24166067 -0.065789975 0.120397605 0.08260159 -0.11295059 0.12628843 -0.19961306 -0.08501475 -0.15383753 -0.060109273 0.15534742 -0.17414291 0.032748844 -0.004929247 0.08883943 -0.10502377 0.14124024 -0.06967489 -0.18825068 0.07146263 -0.21894726 -0.061240554 -0.060867053 0.010670771 -0.10065101 0.12850107 0.02127525 0.15856725 -0.08040817 0.12567188 -0.05319109 0.10678807 0.16423534 -0.10920543 0.083264455 -0.20344318 -0.06382712 0.1348433 0.0046485504 -0.0834561 -0.14568819 -0.15874353
9 -0.024093632 -0.050339557 0.18739197 0.25174618 -0.1740778 -0.19711763 0.11074431 0.26931202 -0.07545469 -0.057843734 0.25359932 0.019409517 0.06913732 0.059677806 -0.14056286 -0.053865556 -0.021421086 0.10572065 -0.19312812 -0.017424451 0.21530646 0.19412224 0.27454218 -0.124391414 0.1134464 0.134579 -0.13083854 0.10660352 -0.15241797 -0.0798242 -0.080336265 -0.054059096 0.023132376 -0.19893362 -0.001048615 0.031836476 0.06435154 -0.02064405 0.2536843 -0.026134586 -0.07252934 0.06613956 -0.102186404 -0.058222365 -0.079077035 0.0077693863 -0.05849459 0.07361766 -0.04163619 0.047751777 0.047250103 0.121363506 -0.015484154 0.1838835 0.1430139 -0.11533747 0.05981143 -0.19351664 -0.030302374 0.043322124 0.059516028 -0.08883165 -0.1493769 -0.06877317
6 -0.02527807 -0.04621514 0.19112681 0.22546521 -0.15972228 -0.20876692 0.10590476 0.2534621 -0.06713642 -0.027663857 0.25868496 0.035758596 0.066518106 0.054656718 -0.14603598 -0.040031545 -0.026589282 0.11435745 -0.18841076 -0.030944495 0.2276284 0.19013537 0.26635075 -0.12639022 0.11375657 0.12044886 -0.13935332 0.11681946 -0.14158085 -0.07211228 -0.10074424 -0.055608384 0.03511933 -0.17429975 -0.007968877 0.016986309 0.086391754 -0.025732327 0.25360304 -0.038166042 -0.07057734 0.08218621 -0.10656832 -0.08263207 -0.07241184 0.03513058 -0.056787804 0.071529254 -0.03773034 0.03303566 0.046843927 0.10687 -0.035176564 0.16325247 0.1585932 -0.1154121 0.060471058 -0.19071113 -0.036191642 0.04272756 0.057747487 -0.104450524 -0.14263482 -0.07392598
7 -0.018449323 -0.06263816 0.17088282 0.24235755 -0.15901572 -0.20203063 0.08559167 0.2594129 -0.07964961 -0.046842314 0.22852708 0.012046979 0.063637234 0.08226993 -0.14206551 -0.04482322 -0.033670858 0.10846996 -0.20309478 -0.052161496 0.23142895 0.18442303 0.2656057 -0.11404937 0.12326209 0.12572642 -0.14064176 0.09953382 -0.17110513 -0.08900608 -0.10749147 -0.073949434 0.069336854 -0.19113995 0.013876042 0.028472174 0.069948666 -0.034952134 0.23287962 -0.046614464 -0.10735107 0.0679139 -0.12967813 -0.06731871 -0.07531992 0.020962385 -0.062971346 0.08942751 -0.029416189 0.060929973 0.019697333 0.12572743 -0.019756695 0.16338897 0.15327941 -0.113436684 0.05610104 -0.19124131 -0.0387769 0.065217145 0.03540889 -0.10094832 -0.15730211 -0.09328126
5 -0.024551272 -0.05835086 0.16954695 0.2383503 -0.16606687 -0.19769217 0.11912745 0.2549013 -0.08973556 -0.039423753 0.25242215 0.019966342 0.03714824 0.072864786 -0.12230854 -0.036960058 -0.006021722 0.09465109 -0.20347996 -0.015469192 0.2275171 0.19239447 0.24987945 -0.105581604 0.1164753 0.10102715 -0.13653481 0.10261184 -0.15620963 -0.0904499 -0.0974522 -0.07038973 0.052604176 -0.1886779 -0.010854884 0.032293104 0.090588555 -0.038836572 0.24346222 -0.019502081 -0.0767695 0.07102172 -0.08693775 -0.069662824 -0.08881951 0.022287952 -0.06100949 0.0872893 -0.01698219 0.038951196 0.03763125 0.121540084 -0.011247671 0.15312187 0.1569598 -0.10056989 0.06475409 -0.19263527 -0.028032925 0.062131125 0.063324265 -0.08973504 -0.14973521 -0.061749563
8 -0.01975466 -0.058278613 0.19739826 0.25857443 -0.18341446 -0.18983892 0.114575945 0.26208547 -0.07218888 -0.04783695 0.24623948 0.01100511 0.046828855 0.056116536 -0.1245188 -0.029448463 -0.0030950285 0.08877785 -0.2117198 -0.0006248557 0.22215472 0.19816029 0.27089044 -0.12007838 0.12473382 0.12973467 -0.1264913 0.0973664 -0.15894164 -0.08451705 -0.078373685 -0.06070945 0.0140386475 -0.20478335 -0.011688611 0.02834898 0.07335949 -0.008961104 0.25517172 -0.031905994 -0.07474901 0.075843535 -0.08158855 -0.061317556 -0.07243552 0.002610489 -0.05599293 0.09301012 -0.038260937 0.02056514 0.05642614 0.10737471 -0.01821616 0.18980686 0.13859881 -0.11712504 0.047751945 -0.17490254 -0.044936243 0.055590067 0.047113743 -0.07940205 -0.13587187 -0.062160958
4 -0.026562855 -0.054798927 0.1975263 0.24665369 -0.16874878 -0.21092978 0.09610667 0.25518185 -0.074432425 -0.049790923 0.26604962 0.022828575 0.072822414 0.044444624 -0.1390173 -0.054991324 -0.0315477 0.105556235 -0.2011509 -0.019079303 0.2212726 0.19890282 0.2646194 -0.116829716 0.10366542 0.13699077 -0.14189623 0.112772286 -0.15947889 -0.073888294 -0.09208238 -0.06295406 0.020543993 -0.17718413 0.005226478 0.020112073 0.07213532 -0.036149636 0.26233235 -0.009978165 -0.07227291 0.070004106 -0.093429424 -0.05443066 -0.09239012 0.017149167 -0.043738715 0.0757591 -0.0360407 0.022054043 0.06317186 0.103815384 -0.02299426 0.17813648 0.14292882 -0.107843414 0.061329335 -0.19913533 -0.04653141 0.05786354 0.070331626 -0.10266166 -0.13822691 -0.064114794
