7 64
902 -0.028763978 -0.0033018368 0.07248672 0.16156663 -0.17001541 -0.16017823 0.2471572 0.24988544 -0.13437146 -0.0067546144 0.23345691 0.04149145 -0.10090883 0.16841431 -0.09920244 -0.0025690878 0.097962625 0.06961864 -0.15392493 -0.075547434 0.21340911 0.14438164 0.18312119 -0.055942316 0.14949691 -0.09178656 -0.074207634 0.12315872 -0.090025425 -0.115085326 -0.13488561 -0.030590184 0.18745689 -0.20084211 -0.109072335 0.03429312 0.20675202 -0.07755981 0.12034177 -0.08238027 -0.08788059 0.106217705 -0.11466786 -0.16601141 -0.037093643 0.058908034 -0.17355455 0.12511103 0.07362086 0.17625827 -0.114468835 0.18001784 -0.028143033 0.019959394 0.24810381 -0.09221397 0.11913767 -0.19018927 0.046004523 0.07430093 0.049798198 -0.026737671 -0.17831704 -0.087199725
9 -0.030430138 -0.036230687 0.15422702 0.22039004 -0.16552122 -0.18958719 0.17359668 0.27759063 -0.092825145 -0.024486331 0.26809594 0.046780147 0.027401112 0.090760626 -0.13204497 -0.031988353 0.017426401 0.11033763 -0.17203845 -0.0028261952 0.22577086 0.18841173 0.26136407 -0.12739706 0.12474714 0.07225958 -0.12688245 0.11334677 -0.11292374 -0.09191646 -0.08642094 -0.045158185 0.055179913 -0.20499611 -0.044673454 0.047435857 0.107309744 -0.019326342 0.24518467 -0.03823559 -0.043171663 0.07710756 -0.08766895 -0.1043379 -0.071684785 0.037639588 -0.0886091 0.062198967 -0.023145221 0.07357634 0.02139699 0.15041779 -0.00822298 0.14021762 0.18189059 -0.10861584 0.07838224 -0.19746085 0.018859353 0.014386994 0.075632885 -0.07947799 -0.17233247 -0.053826015
6 -0.029273659 -0.028888514 0.16060725 0.20161231 -0.16116565 -0.19300485 0.17594498 0.26737064 -0.082321 -0.0016072313 0.26620787 0.057016324 0.018846832 0.08878798 -0.13644382 -0.015276028 0.021436177 0.1131255 -0.16788955 -0.015695563 0.23297845 0.18320438 0.25882012 -0.13087533 0.13202594 0.05782779 -0.124865495 0.1210789 -0.101730734 -0.08568582 -0.09979756 -0.040008236 0.06250872 -0.19368525 -0.05709887 0.03367211 0.12708402 -0.014815514 0.23916642 -0.06043719 -0.04498288 0.09533977 -0.094886 -0.12900643 -0.054788988 0.054697227 -0.09547552 0.06746284 -0.02138866 0.06761166 0.0143915145 0.13973728 -0.029290117 0.12936126 0.19671234 -0.116825975 0.076896325 -0.18997167 0.012080309 0.014179257 0.064862676 -0.08412737 -0.16596776 -0.063663505
7 -0.024035169 -0.04893364 0.1347272 0.2094895 -0.15172541 -0.18461633 0.15923822 0.2663438 -0.0964072 -0.008945278 0.23985547 0.039401244 0.011708989 0.11252145 -0.12364961 -0.012818976 0.017900007 0.10632445 -0.18120356 -0.019172922 0.23936118 0.17855112 0.24967116 -0.11836926 0.13707756 0.058176123 -0.13196738 0.10008449 -0.124235995 -0.103357226 -0.10393795 -0.06331729 0.09195455 -0.2032027 -0.039405238 0.049536865 0.11424552 -0.022895567 0.22684783 -0.057976667 -0.06697087 0.07915803 -0.09928484 -0.115529016 -0.065267295 0.04803738 -0.09393198 0.07719364 -0.012381289 0.07852851 -0.00020816288 0.15585375 -0.006791967 0.12210951 0.19037437 -0.106018655 0.07144487 -0.18778011 0.016726442 0.02880556 0.052568242 -0.08382265 -0.17927785 -0.06785591
4 -0.03268252 -0.035044394 0.1433757 0.19721264 -0.15656815 -0.1916618 0.19153361 0.26399773 -0.09905439 0.004150951 0.27523124 0.059234083 -0.0009308797 0.09688602 -0.12025697 -0.011325719 0.03482478 0.10589772 -0.17201725 0.0022754907 0.23792386 0.18672054 0.24256688 -0.1192482 0.12824531 0.036767587 -0.13090485 0.11732603 -0.101056375 -0.095649615 -0.10175529 -0.050827816 0.0744117 -0.19215891 -0.06500405 0.04398861 0.1403358 -0.028345786 0.24212927 -0.039399456 -0.0344175 0.09026818 -0.0721442 -0.12916395 -0.07307394 0.06052002 -0.09468426 0.06756791 -0.0057779057 0.062531464 0.016730614 0.14910258 -0.013373642 0.11212856 0.20426233 -0.10140393 0.08546224 -0.19796243 0.025743416 0.018460402 0.08348449 -0.083175704 -0.1731631 -0.0459691
5 -0.026473152 -0.04328623 0.16943547 0.22858177 -0.17531876 -0.18985179 0.17643592 0.2765212 -0.087992586 -0.011790038 0.26518017 0.042377748 0.01178394 0.089738466 -0.1253583 -0.009008395 0.029915564 0.1015954 -0.19149706 0.004428517 0.23993903 0.19490741 0.26718706 -0.12974805 0.14000711 0.07152051 -0.12729663 0.1096754 -0.12094378 -0.096385255 -0.09122873 -0.051656514 0.051430695 -0.21271232 -0.053875227 0.041982822 0.11874824 -0.007584406 0.2513415 -0.052666347 -0.05020528 0.0912193 -0.07938193 -0.114942886 -0.06252501 0.038233466 -0.08949322 0.08092466 -0.022960024 0.05203207 0.02722831 0.13956046 -0.016699988 0.14820339 0.18487911 -0.1163632 0.06790352 -0.18409498 0.0035920984 0.02479131 0.06080295 -0.07656691 -0.16417313 -0.055422075
8 -0.030375065 -0.039696306 0.1649451 0.21799542 -0.1650108 -0.2008152 0.15837814 0.26351067 -0.09104018 -0.01844808 0.27190843 0.044669528 0.023861337 0.08165675 -0.1309091 -0.029332565 0.011265027 0.10625058 -0.18372352 -0.01614955 0.23228788 0.19045411 0.25236526 -0.11666309 0.12209215 0.0697612 -0.13225509 0.119136706 -0.124727644 -0.08795572 -0.1026415 -0.053060077 0.061657187 -0.18829001 -0.040040854 0.03208046 0.11880487 -0.034685653 0.24302195 -0.03434791 -0.05556134 0.08550383 -0.08873059 -0.1041835 -0.07635518 0.04393454 -0.08135747 0.07537432 -0.013546251 0.05665821 0.02454436 0.1320029 -0.021398334 0.13284366 0.18325768 -0.10541919 0.07793935 -0.19764435 -0.0033339162 0.037766743 0.0738167 -0.087743826 -0.15885639 -0.059164263
