7 64
902 -0.033570316 0.019112624 0.14520025 0.17905556 -0.19836624 -0.18451467 0.22411779 0.23327325 -0.10456625 -0.024530662 0.26717013 0.04203431 -0.07458831 0.105120756 -0.12018287 -0.025301272 0.0800265 0.065517016 -0.15860401 -0.09748901 0.1933917 0.15705407 0.19348858 -0.05526487 0.13258182 -0.06269203 -0.06403809 0.162703 -0.09693767 -0.07878946 -0.14108737 -0.0030735733 0.13068028 -0.17168196 -0.10804313 -0.01728616 0.21352471 -0.08819697 0.13266498 -0.07158258 -0.08982593 0.13239199 -0.12029358 -0.15230966 -0.029684061 0.04699574 -0.15658268 0.13828824 0.065584086 0.13848442 -0.08233274 0.11948555 -0.08127753 0.0490267 0.23407091 -0.10977711 0.12057657 -0.19307023 -0.016288303 0.10294845 0.057857353 -0.030991025 -0.12716098 -0.0978107
9 -0.032099128 -0.0022077379 0.16519208 0.17462635 -0.16804485 -0.1904673 0.20537014 0.2539183 -0.07489902 0.016576715 0.2745897 0.07161623 -0.010806675 0.084387586 -0.13716288 -0.0023091908 0.046226606 0.106252596 -0.15083243 -0.032905247 0.2229882 0.17200723 0.24229956 -0.122516006 0.13479547 0.013104123 -0.102162324 0.14008385 -0.07290272 -0.07270253 -0.10968091 -0.014818565 0.06844574 -0.17761377 -0.09071153 0.011042388 0.16516222 -0.018398196 0.21207964 -0.07975271 -0.037468314 0.120426334 -0.09589571 -0.15926975 -0.029488355 0.068038896 -0.116207436 0.076705515 -0.0050319233 0.07601702 -0.0071293144 0.12293454 -0.059632596 0.101019226 0.21433195 -0.121505536 0.08601961 -0.17852288 0.009291972 0.016949413 0.061119694 -0.06951664 -0.14650738 -0.06901813
6 -0.032561045 0.008147983 0.17061496 0.16087025 -0.17023385 -0.19712804 0.20484194 0.23815563 -0.07161402 0.024973042 0.27535972 0.074045554 -0.025873616 0.08147283 -0.13919176 0.0017161615 0.05035096 0.10118413 -0.14980143 -0.060680605 0.22152302 0.1656085 0.22840641 -0.10928789 0.13579777 -0.010661397 -0.09501429 0.15413037 -0.071644716 -0.065640874 -0.12989105 -0.009077123 0.08549421 -0.16027999 -0.09983449 -0.010407633 0.19026855 -0.03493668 0.19182236 -0.09060912 -0.0510667 0.13725238 -0.107719705 -0.17361428 -0.019551983 0.07816575 -0.12525816 0.09315857 0.011598621 0.07976821 -0.024647882 0.10746555 -0.08411689 0.08089248 0.22757894 -0.12363676 0.09260095 -0.17751795 -0.0074447137 0.039001234 0.0545865 -0.06897532 -0.13246809 -0.083173096
7 -0.026845504 -0.01973078 0.15672487 0.16673157 -0.1511021 -0.19358496 0.18451491 0.24592197 -0.07362653 0.037898015 0.25642797 0.07020307 -0.011125431 0.096190214 -0.13381839 0.016864536 0.03662563 0.11056157 -0.16309908 -0.037839603 0.24422085 0.16860643 0.23915195 -0.1242025 0.14365974 0.01725029 -0.117993645 0.12662219 -0.08401981 -0.080818705 -0.12401072 -0.036920343 0.08965334 -0.17203385 -0.07927893 0.014475763 0.16371953 -0.014828386 0.21368095 -0.09309844 -0.051336315 0.120699145 -0.10054492 -0.16743532 -0.029043479 0.082489125 -0.10866557 0.08107087 -0.0064954325 0.062114626 -0.007836576 0.12306836 -0.056525778 0.094376944 0.21783474 -0.1194699 0.07419014 -0.17035167 0.0053623887 0.02095858 0.044340253 -0.08499395 -0.15314999 -0.07604836
5 -0.032950018 -0.009698009 0.15619186 0.15764223 -0.15557712 -0.19398503 0.20606673 0.23629159 -0.08001934 0.040259868 0.27579075 0.077474274 -0.029135155 0.08576603 -0.12357898 0.014766874 0.052916758 0.10116257 -0.15735258 -0.025269598 0.23513235 0.17119797 0.2221347 -0.11209078 0.1333411 -0.007241125 -0.11167163 0.13695528 -0.07140742 -0.076286 -0.12282358 -0.028992008 0.08253498 -0.16042505 -0.09687282 0.008780124 0.18450227 -0.028771603 0.21245386 -0.07191169 -0.032951888 0.1255972 -0.077577 -0.16967933 -0.038333084 0.085738845 -0.109611385 0.08062 0.008459616 0.053483393 -0.0019681908 0.11558395 -0.0591404 0.07921498 0.22440398 -0.10972021 0.08699722 -0.17686023 0.008551423 0.026001204 0.06753864 -0.077688225 -0.14310783 -0.058967754
8 -0.02570591 -0.030274263 0.18516728 0.18429096 -0.16429406 -0.18941085 0.19962606 0.254388 -0.06334059 0.052484978 0.27131042 0.07327803 -0.014087626 0.07545952 -0.12169408 0.04292836 0.05378636 0.10361511 -0.18213834 0.019959286 0.257172 0.18950838 0.25972864 -0.14524913 0.15271744 0.040498283 -0.12324137 0.11604837 -0.07967051 -0.08241752 -0.10095019 -0.040057767 0.038490232 -0.18898773 -0.09405181 0.022185786 0.16039558 0.02137628 0.2572121 -0.08643889 -0.021133201 0.12774782 -0.055826858 -0.16780479 -0.030011067 0.07594434 -0.09192465 0.07790042 -0.027888155 0.006769983 0.04100282 0.10936837 -0.0495746 0.12926094 0.20571935 -0.12593527 0.05635596 -0.15390076 0.00094195874 0.0013962149 0.049781054 -0.0813695 -0.14333498 -0.046459075
4 -0.030642655 -0.018981049 0.17738353 0.17244315 -0.1548993 -0.20481509 0.17708193 0.24306674 -0.067992695 0.034767825 0.2766006 0.074412555 0.0042767697 0.072301276 -0.13779496 0.007610637 0.0267322 0.11312812 -0.1666059 -0.026932009 0.2426613 0.17928956 0.24413052 -0.12757029 0.13208064 0.03489594 -0.124194615 0.13456143 -0.085467204 -0.070716724 -0.119904466 -0.035124823 0.06289628 -0.16070315 -0.074381515 0.0064995904 0.15957852 -0.018075714 0.23336384 -0.07297686 -0.039182473 0.121034384 -0.087734744 -0.15595223 -0.040719345 0.08080323 -0.091990076 0.07368752 -0.013488545 0.036391243 0.019580588 0.10668725 -0.061340753 0.10725907 0.20917445 -0.11768443 0.07458278 -0.17662756 -0.007200689 0.021576704 0.060511764 -0.09301891 -0.14107622 -0.065337636
