7 64
902 -0.027818356 -8.8229914e-05 0.15679348 0.18679792 -0.16604854 -0.20962705 0.13249044 0.24295272 -0.08011407 -0.037700806 0.24181347 0.03870643 0.022473006 0.09936304 -0.16847529 -0.05930709 -0.009318882 0.113112636 -0.15366302 -0.14692493 0.20569563 0.1516358 0.23262382 -0.086256474 0.12139782 0.028230036 -0.096855946 0.1528223 -0.124925815 -0.06511243 -0.1490487 -0.020176008 0.13205732 -0.15469678 -0.03155903 -0.017506815 0.141355 -0.08037091 0.14713198 -0.08860325 -0.12467723 0.105647 -0.18816464 -0.1224968 -0.031050872 0.049971893 -0.1234821 0.10487013 0.018321196 0.14675692 -0.07165547 0.11893782 -0.08195501 0.08352733 0.20218554 -0.1197917 0.097542025 -0.19838859 -0.033262074 0.08479271 0.029267672 -0.07846912 -0.13980313 -0.13624127
7 -0.029579354 -0.006451221 0.16892736 0.2184062 -0.17998768 -0.19494005 0.1515407 0.27249637 -0.077693574 -0.058906466 0.25773525 0.037343737 0.046915703 0.081757225 -0.16244507 -0.06767609 -0.0031924546 0.11379095 -0.15192766 -0.07602671 0.19450471 0.17048447 0.2628187 -0.11511583 0.1163056 0.07383019 -0.09819189 0.13790648 -0.11584088 -0.06830542 -0.09747964 -0.012876871 0.0643757 -0.19062112 -0.03224325 0.013592176 0.10164004 -0.03964949 0.19749823 -0.061163943 -0.08001305 0.08466907 -0.14760943 -0.095572494 -0.044923402 0.02168572 -0.10644021 0.07491974 -0.017725011 0.12347442 -0.020433998 0.13303383 -0.04698307 0.13678247 0.1748189 -0.12363186 0.08742558 -0.19861466 -0.0098282695 0.039296683 0.053103693 -0.06797412 -0.15025201 -0.09785976
9 -0.02823704 -0.012923287 0.18021862 0.20150946 -0.16561878 -0.20195279 0.14562151 0.2604172 -0.064936474 -0.021780198 0.26030314 0.052358977 0.04734433 0.07198963 -0.16101643 -0.040686328 -0.005627876 0.12048294 -0.15539159 -0.062406175 0.21346818 0.17275098 0.26315627 -0.1280523 0.121545754 0.0757972 -0.11268387 0.13647282 -0.10605443 -0.0644872 -0.1064652 -0.021734579 0.057287652 -0.17596392 -0.039032083 0.007889987 0.11368899 -0.024701286 0.21747254 -0.07230522 -0.06725792 0.09859131 -0.13390149 -0.117478736 -0.03949275 0.04602175 -0.094828434 0.06935278 -0.027283473 0.08566686 0.0009063305 0.118816845 -0.057452206 0.13537487 0.18502456 -0.1277775 0.07723986 -0.18993288 -0.014966166 0.02759233 0.050030112 -0.0865412 -0.14706676 -0.09252366
6 -0.023803424 -0.022922968 0.16590156 0.20926845 -0.16167255 -0.20065561 0.12330754 0.25986215 -0.07273759 -0.035987638 0.23848778 0.03600944 0.04914099 0.08973256 -0.16177477 -0.048778195 -0.017337253 0.1189401 -0.1646293 -0.08936534 0.2158818 0.1670193 0.26033846 -0.11627983 0.1253182 0.07919146 -0.114937365 0.12854801 -0.1293734 -0.07348885 -0.117727965 -0.03462834 0.08741761 -0.18029755 -0.019202083 0.010449698 0.10363604 -0.039204724 0.19829735 -0.07832828 -0.09925954 0.089501135 -0.15854728 -0.10630502 -0.042311046 0.03890119 -0.098776825 0.082915455 -0.018590478 0.10845918 -0.022469167 0.12819754 -0.05170418 0.1299379 0.18114723 -0.124676876 0.07594847 -0.19193529 -0.021427812 0.048880532 0.033606105 -0.08738382 -0.15410128 -0.111169554
8 -0.028090388 -0.03360912 0.16539338 0.20069152 -0.15460208 -0.20323196 0.14906311 0.2585362 -0.07890359 -0.0037566451 0.26180884 0.053089302 0.032382492 0.083576344 -0.14294308 -0.022775592 0.0016047559 0.11701133 -0.17238814 -0.036090642 0.23495615 0.18079308 0.25522843 -0.12522104 0.12627746 0.06885714 -0.13196947 0.12261407 -0.11479226 -0.08094995 -0.11182472 -0.047751516 0.07072085 -0.17889193 -0.03956352 0.023909336 0.12142087 -0.027318817 0.23519 -0.05889775 -0.06112821 0.09396722 -0.10896051 -0.121215664 -0.05902493 0.057642702 -0.08596884 0.07136271 -0.020516805 0.064522244 0.013645808 0.13057469 -0.037319887 0.12856644 0.19486263 -0.116729096 0.07584813 -0.19553961 -0.004818298 0.029868377 0.059841994 -0.09765273 -0.1624156 -0.076781094
5 -0.023858296 -0.032899708 0.18966644 0.223419 -0.17635214 -0.19710629 0.14876026 0.26554742 -0.06854069 -0.017107949 0.2581223 0.04058715 0.032600712 0.07198305 -0.14264852 -0.01852313 0.009205337 0.10659985 -0.18497309 -0.028164208 0.22972737 0.187327 0.27101833 -0.13070786 0.13490658 0.087405644 -0.12008003 0.12010586 -0.123229675 -0.07825631 -0.09845522 -0.03982845 0.04310288 -0.19562924 -0.04204263 0.018334806 0.11180883 -0.008951412 0.2395655 -0.06752958 -0.06631828 0.099543035 -0.105512425 -0.11179762 -0.04659105 0.03628163 -0.085260496 0.084781304 -0.030822279 0.053063795 0.02324576 0.11732736 -0.044276666 0.15629648 0.17947076 -0.12929432 0.06394898 -0.18084975 -0.023542097 0.03544524 0.045163654 -0.083189234 -0.14743473 -0.078949876
4 -0.02886138 -0.019153066 0.18227299 0.20924772 -0.16844542 -0.212589 0.12890394 0.25364724 -0.0728212 -0.03335165 0.26407257 0.042494457 0.047234632 0.06967047 -0.15959828 -0.05231629 -0.0151235545 0.11566324 -0.16964634 -0.07895446 0.21595994 0.17661008 0.25500596 -0.11163729 0.11539678 0.07725146 -0.11832132 0.14029881 -0.12780902 -0.06579279 -0.119806595 -0.03260894 0.07010607 -0.16667221 -0.025513722 -0.0002634985 0.1159592 -0.04989677 0.21195729 -0.057360902 -0.08622451 0.09608574 -0.13979147 -0.103377104 -0.054349784 0.04217862 -0.08877472 0.0831005 -0.013723637 0.08424272 -0.0020561519 0.11205709 -0.05961176 0.13039349 0.18273258 -0.12036161 0.08228655 -0.2000673 -0.03279419 0.057242047 0.053647358 -0.09190398 -0.14142895 -0.09877824
