7 64
902 -0.033385433 0.030768413 0.27358738 0.24181071 -0.24430819 -0.19001241 0.19720162 0.2640449 -0.030542647 -0.054947928 0.31005564 0.046861947 0.028830625 -0.0077469456 -0.1559105 -0.041648433 0.04557263 0.08151316 -0.1613725 -0.015255626 0.16738772 0.19657132 0.28484467 -0.13399065 0.11695262 0.088535726 -0.055015314 0.16803224 -0.08097212 -0.02636979 -0.055151343 0.04430781 -0.07095686 -0.19062835 -0.09185745 -0.03445658 0.12645036 0.01232304 0.23408647 -0.057705455 -0.023793276 0.13379659 -0.079071045 -0.09982428 -0.008404462 -0.008362283 -0.09332947 0.090018444 -0.04121124 0.029932229 0.052517835 0.048287895 -0.1017122 0.1927105 0.14642425 -0.15202719 0.06893885 -0.15493733 -0.0654619 0.033007175 0.060825083 -0.028336326 -0.06735323 -0.061739918
9 -0.039520014 0.019887056 0.20540348 0.20906238 -0.18024176 -0.16965522 0.18856052 0.27863014 -0.038970202 -0.051854793 0.2966728 0.073327474 0.09145197 0.008304866 -0.1595393 -0.07015607 0.00674792 0.12341248 -0.10167237 0.03718287 0.15264831 0.18251316 0.2877441 -0.16940977 0.085676774 0.122996725 -0.08501633 0.13925299 -0.04072472 -0.032881312 -0.013955532 0.03652701 -0.08022595 -0.19210103 -0.06172188 0.029021032 0.062369023 0.03580177 0.26983124 -0.02324934 0.037559774 0.07518315 -0.06685397 -0.082340375 -0.041060794 0.007918303 -0.07120582 -0.0038301763 -0.08335561 0.05508442 0.07961009 0.111844264 -0.03302599 0.19649225 0.13560739 -0.13064602 0.07386327 -0.18141754 0.02504663 -0.06572311 0.10525531 -0.056968424 -0.12979962 -0.024149334
6 -0.04691354 0.04362424 0.20841962 0.15554783 -0.14489256 -0.17224129 0.19129044 0.26351252 -0.009586644 -0.012382976 0.31246263 0.11851851 0.12854354 -0.02279539 -0.17833099 -0.06863022 -0.012811662 0.15502147 -0.04874779 0.054330517 0.14107755 0.17068613 0.28809273 -0.20253107 0.06450678 0.12987036 -0.09186208 0.15465613 0.018961769 -0.003015857 -0.0027006075 0.06287329 -0.11731095 -0.1555888 -0.07356606 0.02311571 0.060361832 0.061216187 0.29435915 -0.027078813 0.0948115 0.08126353 -0.058459938 -0.10959738 -0.028537456 0.044528455 -0.05776269 -0.06168306 -0.1161755 0.03445426 0.11195148 0.10140105 -0.049400285 0.19341458 0.14430632 -0.13668011 0.07595701 -0.18319632 0.05124105 -0.13298452 0.13010447 -0.08173221 -0.12948112 -0.007674328
7 -0.035567764 0.0052791922 0.19669674 0.19680539 -0.15948473 -0.17262562 0.1718743 0.2745506 -0.03470113 -0.02658398 0.28238285 0.07907026 0.0986749 0.018306557 -0.16040407 -0.051783174 -0.005135019 0.13454427 -0.10591463 0.038397454 0.17341326 0.18042117 0.29145437 -0.1807519 0.09423968 0.13103448 -0.10362782 0.12851423 -0.043271005 -0.03936585 -0.024773873 0.018527338 -0.06496208 -0.18875377 -0.053243704 0.035995178 0.060013246 0.046178486 0.28115368 -0.03882304 0.033544313 0.07605682 -0.07190022 -0.09652066 -0.039490223 0.02720634 -0.06472414 -0.009214473 -0.09263861 0.042817637 0.084056996 0.11756753 -0.029510451 0.19470455 0.1435648 -0.13265784 0.06362643 -0.17752679 0.02969543 -0.07638687 0.093886994 -0.076440714 -0.14299247 -0.028755719
5 -0.03735943 0.009268367 0.21081047 0.2035576 -0.18212976 -0.17757878 0.19128078 0.26308107 -0.043708313 -0.02559571 0.29853126 0.071972735 0.05769637 0.012231367 -0.1443538 -0.040715124 0.023169102 0.10999281 -0.1275575 0.03612051 0.1757464 0.18759632 0.27290013 -0.15528451 0.09796133 0.0978117 -0.092099674 0.13867767 -0.05275837 -0.04059137 -0.03786307 0.01838012 -0.059631437 -0.18235126 -0.07423976 0.017211162 0.09575201 0.025077699 0.2673722 -0.029079111 0.024838446 0.09420926 -0.05244593 -0.10035813 -0.04199806 0.023238933 -0.07123165 0.024318835 -0.062701024 0.026499018 0.0785369 0.09595417 -0.044491023 0.17792629 0.15054786 -0.12626396 0.070450924 -0.1728045 0.005647742 -0.03594563 0.09692476 -0.060862184 -0.118914865 -0.024217408
8 -0.032922924 0.005954122 0.22496887 0.2227632 -0.19463924 -0.1678146 0.18280168 0.26731843 -0.03477948 -0.04042386 0.28747872 0.05832745 0.06429166 0.0029074943 -0.14179456 -0.03992219 0.024103872 0.10150164 -0.13545981 0.046662144 0.1675547 0.19043858 0.2846163 -0.16012055 0.10203906 0.12089656 -0.083574116 0.1300181 -0.061331928 -0.039234545 -0.021370258 0.02206763 -0.0849548 -0.19679531 -0.06886616 0.017910568 0.076415494 0.04297654 0.2712395 -0.03243443 0.021280807 0.09107568 -0.048548155 -0.084652044 -0.034505848 0.0018182806 -0.06572352 0.030571876 -0.07574682 0.017204512 0.089735374 0.08827398 -0.04315304 0.20539714 0.13133962 -0.13478307 0.057777274 -0.16004704 -0.006852206 -0.03556181 0.08452439 -0.04990455 -0.10935824 -0.02404433
4 -0.037990842 0.013296622 0.23223396 0.21595627 -0.19151981 -0.18590121 0.1729669 0.26187262 -0.03532193 -0.04339008 0.30508265 0.06586661 0.07721084 -0.007069474 -0.15460232 -0.058208853 0.0075750076 0.11067747 -0.13033073 0.023960205 0.16616842 0.1912151 0.27981287 -0.15414552 0.08900884 0.119871125 -0.08935091 0.147021 -0.062891334 -0.029088052 -0.03594599 0.024974847 -0.078274086 -0.17538568 -0.061208207 0.003812986 0.08357805 0.019376239 0.26954615 -0.021296965 0.017156191 0.09364754 -0.06161735 -0.08291967 -0.043725763 0.011166024 -0.06179604 0.026534148 -0.068844855 0.020957131 0.08813968 0.0797383 -0.055908006 0.19421588 0.13715768 -0.13085988 0.06940661 -0.1762429 -0.016094647 -0.024483182 0.097436965 -0.062929966 -0.1046105 -0.031237382
