7 64
902 0.0018546082 -0.057813846 0.13641495 0.21483992 -0.16876537 -0.17328548 0.09672232 0.22798215 -0.08365869 -0.014554549 0.14612949 -0.017651074 -0.040875606 0.15195419 -0.12009332 0.022687668 0.022187093 0.06765333 -0.22539963 -0.14206587 0.24709524 0.14372234 0.22514828 -0.06714898 0.18229005 0.024708312 -0.09756901 0.08666436 -0.1874267 -0.11230626 -0.16439569 -0.08025932 0.18445876 -0.19933125 -0.021130342 -0.001085106 0.13727611 -0.04568379 0.116716646 -0.14946733 -0.19873123 0.112186655 -0.1836949 -0.12760954 -0.0028256709 0.031549055 -0.12885092 0.18271768 0.031576082 0.118953645 -0.10125445 0.119537 -0.06395128 0.09199281 0.19151221 -0.12785286 0.045215875 -0.13677968 -0.068363264 0.14002764 -0.06519063 -0.060041357 -0.1417741 -0.16287851
9 -0.0166538 -0.050364275 0.16225217 0.22061516 -0.14761157 -0.18416382 0.11965945 0.27917108 -0.06257453 -0.015694503 0.21974061 0.037977893 0.069769874 0.095009305 -0.15277559 -0.018706761 -0.019563967 0.12911768 -0.17221995 -0.025735825 0.23612185 0.17711431 0.2918185 -0.15695433 0.1418342 0.12481496 -0.13592967 0.09412573 -0.12514532 -0.088851206 -0.08661035 -0.0532116 0.053229194 -0.21331804 -0.012924756 0.04803648 0.06688201 0.01974872 0.24838518 -0.08886413 -0.071095 0.07533456 -0.13001268 -0.10707506 -0.041343063 0.037974484 -0.08010679 0.056713615 -0.061599042 0.07260694 0.019914288 0.1476371 -0.016767533 0.17173325 0.1657703 -0.13259788 0.045920942 -0.17282726 0.00477893 -0.004416367 0.024140345 -0.09670828 -0.17805114 -0.086802416
6 -0.01738674 -0.04558147 0.17409071 0.20505518 -0.14105618 -0.1941833 0.112484396 0.26731625 -0.05182022 0.0030644783 0.22552797 0.048819233 0.072857164 0.08339784 -0.15916122 -0.01074126 -0.025853774 0.1348606 -0.16963202 -0.03576997 0.24219993 0.17566586 0.28908074 -0.16002792 0.14033529 0.12160342 -0.13997325 0.103643835 -0.11792918 -0.07878645 -0.09903902 -0.05098581 0.051991615 -0.19434819 -0.016577845 0.032631163 0.07984242 0.018507095 0.25091538 -0.09718683 -0.069443256 0.088731274 -0.13325356 -0.121306576 -0.034576192 0.054147623 -0.07595961 0.056046575 -0.06270515 0.056559708 0.025438992 0.13074046 -0.035900246 0.16477135 0.17319804 -0.13611756 0.044603847 -0.16999714 -0.0068711173 -0.0034290592 0.022243528 -0.10807272 -0.16773432 -0.09160856
7 -0.0084582865 -0.06988914 0.14402945 0.20662944 -0.12781224 -0.18288432 0.09123309 0.25893724 -0.064338215 0.0073035858 0.18590505 0.028538933 0.05412409 0.115375735 -0.14213924 0.006393811 -0.025276354 0.12436978 -0.18888682 -0.047333207 0.25677487 0.1668243 0.27565652 -0.14441194 0.15472984 0.11303511 -0.14744994 0.077989906 -0.14439145 -0.10077848 -0.11304278 -0.08116712 0.097025156 -0.20386268 -0.0011241713 0.045705684 0.07563388 0.012209983 0.23060273 -0.110358536 -0.10364058 0.07967251 -0.1431152 -0.1188351 -0.0369269 0.053833593 -0.07911181 0.077666886 -0.04879571 0.06636062 0.00067812967 0.14550279 -0.01858923 0.15043665 0.17361465 -0.12796551 0.034294408 -0.16004117 -0.0074618445 0.019521004 -0.004839595 -0.108755045 -0.18124317 -0.1044125
5 -0.014454899 -0.06816626 0.14479493 0.20788595 -0.13269337 -0.18713081 0.118877396 0.26741034 -0.07391263 0.013333111 0.21217595 0.03977178 0.04462892 0.11288197 -0.13647881 0.007820778 -0.011073885 0.12502263 -0.18966411 -0.020908028 0.2625426 0.17815764 0.27660358 -0.14811568 0.15221581 0.10251741 -0.15277787 0.08387181 -0.13410948 -0.10443654 -0.107749134 -0.0802823 0.08754351 -0.20871764 -0.016987147 0.053841315 0.08938328 0.0107634105 0.2509457 -0.092686266 -0.07972797 0.08137775 -0.11932866 -0.1252324 -0.050381634 0.059782267 -0.079649955 0.06973447 -0.04569758 0.056782834 0.015589889 0.15316807 -0.009893357 0.14893945 0.18387993 -0.12294186 0.043910477 -0.17159583 0.0075310254 0.008788447 0.02036118 -0.10868129 -0.18811846 -0.083831765
8 -0.008795257 -0.056877177 0.16467364 0.2229261 -0.15875457 -0.17358932 0.119084716 0.26256275 -0.0619416 -0.005565389 0.19572197 0.020743348 0.029130602 0.103860244 -0.13329887 0.011569862 0.0048131067 0.10345534 -0.19568707 -0.035603017 0.24306849 0.17213209 0.276519 -0.13743733 0.16048384 0.10011736 -0.12277512 0.08448263 -0.13993557 -0.096784405 -0.099514 -0.06218335 0.07186614 -0.21696284 -0.024950545 0.03549112 0.08837178 0.019855509 0.22237891 -0.110464096 -0.09812438 0.09192449 -0.12576692 -0.11661981 -0.024338413 0.033019923 -0.089440085 0.096838824 -0.04186054 0.06115492 0.0014106294 0.13074736 -0.029633738 0.16059555 0.16748638 -0.13480863 0.034547698 -0.14737321 -0.020371001 0.031138396 -0.006857504 -0.08029814 -0.15948722 -0.09759569
4 -0.016268114 -0.052608013 0.18351513 0.22547428 -0.15643534 -0.19613186 0.10491185 0.26392987 -0.05885511 -0.014676931 0.22698182 0.03136096 0.06243254 0.07827786 -0.14949009 -0.01583821 -0.021581631 0.11878936 -0.19128388 -0.037813585 0.24076912 0.1829625 0.283949 -0.14303213 0.13954572 0.12437137 -0.13679521 0.10202477 -0.14159274 -0.08259697 -0.10121344 -0.0591045 0.050919436 -0.19801092 -0.010357217 0.026574671 0.080474906 0.003943162 0.24671498 -0.08273988 -0.0863207 0.08775051 -0.12695312 -0.10250485 -0.045063015 0.037314344 -0.07133406 0.07847557 -0.050364353 0.047914136 0.027425865 0.12067146 -0.03529558 0.1710494 0.16368386 -0.13183773 0.04426895 -0.1708603 -0.02880044 0.028728675 0.021161413 -0.100371376 -0.1558916 -0.09208803
