7 64
902 -0.021543143 -0.020562068 0.104761206 0.23017403 -0.17139302 -0.15812443 0.17212576 0.30357578 -0.10424252 -0.078555845 0.20815063 0.018154396 0.029857146 0.14872271 -0.15001655 -0.064931765 0.014430372 0.11210508 -0.14265785 -0.07124231 0.1924106 0.15435004 0.26806846 -0.11706787 0.13877855 0.05936618 -0.0894593 0.101341784 -0.119225524 -0.104812495 -0.07906024 -0.02379612 0.113640435 -0.24442306 -0.027547967 0.06504115 0.07480961 -0.022180894 0.16845682 -0.08464127 -0.09595453 0.053230308 -0.16714911 -0.093361005 -0.037739325 0.0040676263 -0.13782008 0.07164314 -0.015803555 0.19818544 -0.07270419 0.20204183 0.0035116097 0.12970436 0.17856038 -0.12142637 0.08654826 -0.19600412 0.046726502 0.016279995 0.029656466 -0.04453051 -0.20272467 -0.10654474
9 -0.034329064 -0.016335856 0.121053584 0.23753053 -0.15966256 -0.14692248 0.1656301 0.30326658 -0.0899317 -0.107003964 0.24755782 0.03349975 0.09688056 0.07787059 -0.14245757 -0.10819458 -0.010790917 0.12073027 -0.107300036 0.026687277 0.14685689 0.17049259 0.2750155 -0.14303024 0.082195744 0.12947066 -0.09770704 0.09539251 -0.08613666 -0.077693485 -0.0055669253 -0.0044421917 -0.007517893 -0.23101684 -0.010365834 0.0887423 0.009332363 0.0042658406 0.23910145 0.004862949 -0.0033293709 0.010798948 -0.09314301 -0.03109445 -0.08279623 -0.022340558 -0.07897213 -0.007095288 -0.06495477 0.1362626 0.030418878 0.18906096 0.04513579 0.1827489 0.12055894 -0.10023328 0.083317384 -0.20794632 0.07256859 -0.05260808 0.10377341 -0.050404325 -0.19029614 -0.031111049
7 -0.03560824 -0.009341968 0.14210437 0.22709793 -0.16268605 -0.15780716 0.17610814 0.30050388 -0.07828529 -0.08176279 0.26308772 0.04895074 0.09199441 0.06702828 -0.14946727 -0.09058358 -0.004831005 0.12640436 -0.10930024 0.027288053 0.16017723 0.17575242 0.2823147 -0.15445615 0.0898805 0.12305538 -0.100751914 0.10828917 -0.07399158 -0.07002956 -0.015789395 0.001683928 -0.01601029 -0.22299127 -0.027533565 0.074570306 0.031920068 0.013564938 0.25190854 -0.010992954 0.0056008273 0.032996338 -0.089914516 -0.056849983 -0.070406646 -0.004492297 -0.08105866 -0.004680755 -0.0691016 0.11565927 0.040148374 0.17398825 0.022833103 0.18253343 0.13551137 -0.11096107 0.08157643 -0.20354126 0.06356755 -0.058070417 0.10212521 -0.05808911 -0.18181595 -0.032593396
5 -0.02990917 -0.035865307 0.12089168 0.23036656 -0.1437074 -0.15133949 0.14567465 0.2920279 -0.0856861 -0.08026803 0.23654166 0.03454702 0.096337326 0.07930393 -0.13485247 -0.08394223 -0.01818434 0.122672185 -0.12345518 0.03614991 0.16994913 0.1733092 0.27347553 -0.14777027 0.08998519 0.13795616 -0.11728989 0.0830577 -0.0962861 -0.08416752 -0.017391682 -0.028044695 0.00014075138 -0.22382364 -0.0028795023 0.0906499 0.011405905 0.011711057 0.25450432 -0.0020363366 -0.008082351 0.014889337 -0.084375806 -0.039959516 -0.08637999 -0.0062105116 -0.06496601 -0.003387564 -0.06943704 0.10353151 0.045496814 0.18212767 0.047364917 0.18232384 0.12288925 -0.09806843 0.069273256 -0.19889186 0.06451443 -0.050413273 0.09344314 -0.06843482 -0.19215462 -0.029088773
6 -0.038437966 -0.030004196 0.12361874 0.22588044 -0.14868988 -0.16129138 0.17809959 0.29651278 -0.09701326 -0.07005806 0.27258196 0.05082764 0.08220088 0.07346245 -0.12973164 -0.08365549 -0.0020658225 0.12333781 -0.12289279 0.058970034 0.17629924 0.18537632 0.2684851 -0.1471049 0.08408731 0.117790855 -0.12319648 0.09630187 -0.08276614 -0.0849198 -0.018333364 -0.025288405 -0.0065221684 -0.21990979 -0.02363496 0.092831366 0.036129657 0.0013173315 0.2736651 0.020460729 0.01870351 0.021202752 -0.05815215 -0.0507888 -0.10268824 0.0058650337 -0.066175215 -0.010465717 -0.05973167 0.09156723 0.06017331 0.18534577 0.05019232 0.17213342 0.13934638 -0.090450265 0.084747545 -0.2152104 0.07752694 -0.05641819 0.12600482 -0.070621185 -0.19566183 -0.0071433973
8 -0.027816122 -0.021325465 0.13850994 0.25060308 -0.17812768 -0.14288491 0.17426115 0.3056225 -0.08421209 -0.09658725 0.23799556 0.023835918 0.07141784 0.083007924 -0.13536614 -0.07924758 0.010589733 0.106818445 -0.131062 0.02786807 0.16115175 0.17561644 0.28402516 -0.14422658 0.10643306 0.123300634 -0.09009986 0.09078554 -0.09648084 -0.08466196 -0.010900585 -0.007583865 -0.007070314 -0.24787538 -0.025287535 0.08112879 0.02483355 0.020772124 0.23619469 -0.022482395 -0.019121118 0.030072736 -0.09040755 -0.045903925 -0.06292661 -0.027163738 -0.08859575 0.022830106 -0.062362965 0.12231671 0.025413014 0.17803994 0.031875934 0.19227608 0.12462111 -0.113815434 0.07018312 -0.18725628 0.053193875 -0.036539897 0.07665377 -0.03842228 -0.17961287 -0.039956536
4 -0.035737175 -0.03669106 0.14250961 0.2518807 -0.15723361 -0.16307397 0.1410171 0.2958536 -0.08889277 -0.102978535 0.26528025 0.030919984 0.11278947 0.05309482 -0.13541286 -0.107618906 -0.027096983 0.11975164 -0.13228628 0.05278859 0.16162843 0.18939877 0.27799883 -0.14426386 0.07236919 0.16097297 -0.12217684 0.09181678 -0.107420355 -0.076987654 -0.006635369 -0.026829133 -0.032605525 -0.21985549 0.0065727546 0.08700592 0.0007388616 -0.0008484141 0.27770182 0.03639586 0.0035124514 0.0070926435 -0.06628306 -0.01183625 -0.11111324 -0.021425135 -0.046539295 -0.0082005765 -0.072391726 0.08261812 0.07656956 0.17042224 0.05194665 0.20247066 0.10766135 -0.09184507 0.07525904 -0.21471028 0.05124779 -0.041317765 0.12099238 -0.071078576 -0.18141732 -0.012732795
