7 64
902 -0.014583452 -0.0009731286 0.1646286 0.22112182 -0.19673204 -0.18243285 0.103496276 0.23029897 -0.07685184 -0.09234396 0.1961576 -0.015262573 0.0015995413 0.09678506 -0.15165947 -0.068832055 0.003167133 0.07017096 -0.18428102 -0.1750542 0.17757282 0.1476862 0.22981675 -0.052890897 0.13236767 0.039172906 -0.060475487 0.13919614 -0.17178835 -0.069804005 -0.13963501 -0.017157113 0.12854207 -0.18296036 -0.016718866 -0.03216078 0.12355925 -0.08770845 0.10529836 -0.09982366 -0.18609105 0.10540418 -0.21039882 -0.082899176 -0.017132165 -0.008894939 -0.13595667 0.16638386 0.034286324 0.16894487 -0.101324365 0.10467371 -0.0906541 0.11517965 0.1773996 -0.13533257 0.08898644 -0.18732046 -0.08486676 0.15337004 -0.012184664 -0.041434355 -0.11929717 -0.17034647
9 -0.020769116 -0.028882815 0.14633535 0.23451027 -0.18244715 -0.17547101 0.1529742 0.27611873 -0.09232899 -0.06062283 0.22513054 0.014161589 0.016331943 0.11243622 -0.13804388 -0.044567723 0.016920712 0.094336614 -0.17605667 -0.06430268 0.20617013 0.16904274 0.25757033 -0.103975855 0.13715337 0.064082794 -0.09687567 0.10967121 -0.13817629 -0.094250046 -0.09589347 -0.03605355 0.090302825 -0.21833752 -0.031054102 0.033404443 0.098093964 -0.03197577 0.18443398 -0.07165169 -0.101740584 0.07684287 -0.13932 -0.091364056 -0.044263557 0.0087239845 -0.11395937 0.09982384 -0.0067113247 0.12932996 -0.037608117 0.1511486 -0.023690162 0.13587058 0.17279573 -0.11996299 0.07599486 -0.18447949 -0.005480314 0.056076366 0.029445222 -0.05377568 -0.16313322 -0.099433675
6 -0.020258851 -0.0366246 0.15242708 0.22322842 -0.17004676 -0.18066224 0.15225968 0.27367267 -0.083227515 -0.029557463 0.22839801 0.029075801 0.02180066 0.10824226 -0.13843188 -0.022676745 0.013745888 0.104766704 -0.1758126 -0.04539671 0.22275299 0.17100514 0.26185036 -0.12099057 0.14144601 0.07033593 -0.11153029 0.104967125 -0.12590821 -0.0930412 -0.09771235 -0.04371654 0.08168438 -0.21016824 -0.035681028 0.036221646 0.10117049 -0.013007727 0.20567638 -0.07956505 -0.08331529 0.08290955 -0.12469976 -0.10862722 -0.04067117 0.029445237 -0.10259578 0.085433416 -0.020519363 0.09855693 -0.016159454 0.14509375 -0.024423301 0.13591509 0.17654407 -0.12063747 0.064789996 -0.1737606 0.00069907034 0.032901242 0.028815454 -0.06883817 -0.16392745 -0.08833798
5 -0.015034779 -0.060587082 0.12345906 0.22864048 -0.15455054 -0.1696882 0.13918923 0.27695864 -0.095701665 -0.028720947 0.20233588 0.017159753 0.020134572 0.13271315 -0.12450536 -0.014245919 0.009767103 0.10308697 -0.18477751 -0.03194716 0.23415986 0.1683397 0.2587189 -0.11953246 0.14796048 0.07761428 -0.12485313 0.07864797 -0.14146522 -0.11309677 -0.09486117 -0.06945312 0.10352627 -0.22415957 -0.019259086 0.061716344 0.082851194 -0.008546298 0.20738399 -0.07745033 -0.09240685 0.063611075 -0.120833874 -0.09900465 -0.052444663 0.027369773 -0.09732335 0.08355739 -0.02141102 0.10240832 -0.020004468 0.16801196 0.006501652 0.13420725 0.17024554 -0.11020169 0.05540316 -0.16989927 0.017236145 0.029257063 0.020143619 -0.072660476 -0.18477264 -0.0836535
7 -0.022338578 -0.0492186 0.12382786 0.21798457 -0.15898587 -0.17576902 0.16914943 0.2757858 -0.10385684 -0.019369649 0.23032396 0.031801496 0.0023249765 0.12817834 -0.120616466 -0.013951369 0.026954373 0.10136556 -0.17923337 -0.021790385 0.23437932 0.17355885 0.24859697 -0.114302814 0.1424598 0.05013651 -0.12309209 0.09346118 -0.1252966 -0.11057331 -0.09857379 -0.06128844 0.10264081 -0.21615067 -0.04142021 0.05781923 0.109998554 -0.020829694 0.21190903 -0.063136965 -0.072354086 0.072847046 -0.10317594 -0.11240861 -0.060170505 0.038715433 -0.1038384 0.08088621 -0.007962729 0.09912457 -0.016920036 0.1675469 0.0020429725 0.117703564 0.18698335 -0.1042896 0.07116176 -0.1816207 0.026619192 0.027935842 0.044802163 -0.07040218 -0.18343034 -0.06953297
8 -0.01458195 -0.04800986 0.15115863 0.23818798 -0.18103056 -0.16985916 0.15221778 0.2703647 -0.08818605 -0.034277618 0.21148574 0.010506908 -0.0016970345 0.11619548 -0.12075505 -0.0073589585 0.030389266 0.08482685 -0.1970882 -0.037448928 0.22657168 0.17315064 0.25723732 -0.109354205 0.15355356 0.06550003 -0.10524306 0.090993024 -0.14366712 -0.10466431 -0.09595486 -0.054648437 0.08640344 -0.22483402 -0.037913825 0.03914059 0.103041686 -0.009617327 0.1974114 -0.08355829 -0.09943784 0.08420788 -0.11461205 -0.10209095 -0.03867607 0.014997196 -0.10513038 0.11063588 -0.011224758 0.09076288 -0.021013128 0.14258702 -0.01827751 0.14069955 0.1699343 -0.11996011 0.05567285 -0.16011783 -0.011262619 0.0546419 0.01276339 -0.05469807 -0.15809894 -0.08833589
4 -0.018594658 -0.05007877 0.15391776 0.2405399 -0.17557262 -0.1868326 0.13226633 0.26853153 -0.09312595 -0.04590279 0.2250345 0.01101896 0.018905818 0.10861498 -0.1308387 -0.03105826 0.0067859087 0.0938414 -0.197879 -0.05391789 0.22637257 0.17669643 0.2547687 -0.102876335 0.13848536 0.07780514 -0.11722323 0.10018771 -0.15605684 -0.099641606 -0.10620309 -0.060730025 0.09206948 -0.20886396 -0.018413171 0.033403218 0.0966317 -0.03400623 0.20203589 -0.06314948 -0.1068953 0.07657543 -0.12583368 -0.08739555 -0.057916954 0.017621504 -0.09424004 0.105001345 -0.007886641 0.09276694 -0.016214686 0.14006801 -0.01902371 0.13823314 0.16797736 -0.11262966 0.06459399 -0.17967924 -0.019501582 0.06679357 0.027682036 -0.07043422 -0.15890111 -0.09235468
