7 64
902 -0.023985786 0.012439715 0.16176435 0.15602736 -0.17657511 -0.21301337 0.16823733 0.21823984 -0.079580665 0.010626113 0.24205412 0.046333402 -0.053443566 0.11261088 -0.15254577 -0.005020551 0.040193655 0.08938207 -0.17295513 -0.17242484 0.2292276 0.14498845 0.20474055 -0.06520105 0.15346217 -0.04866191 -0.08308462 0.1692686 -0.117898524 -0.07040889 -0.1927731 -0.02033144 0.1760792 -0.14323126 -0.083019 -0.049975406 0.2180981 -0.090143844 0.10876034 -0.12988293 -0.14279489 0.15463957 -0.18096806 -0.17864391 0.0025040773 0.07809358 -0.15251535 0.15583062 0.059162933 0.13331889 -0.10730967 0.09125787 -0.12611753 0.033542067 0.23997457 -0.1247578 0.09970381 -0.1718877 -0.057554096 0.12465502 0.0022007974 -0.06282677 -0.11231422 -0.15074873
6 -0.019199286 -0.06571465 0.16544156 0.2153508 -0.14929451 -0.19208634 0.13928074 0.26253313 -0.076494575 0.017830241 0.23962511 0.043374278 0.025914028 0.09312669 -0.12375119 0.015011295 0.008483425 0.110945895 -0.20087261 0.0060311207 0.2622428 0.19077781 0.26862124 -0.14011838 0.14633262 0.092291236 -0.14893009 0.09090489 -0.12980859 -0.099828154 -0.10180208 -0.0765062 0.06103962 -0.20177148 -0.034761086 0.04543229 0.108664185 0.006782562 0.26644003 -0.070082754 -0.06035147 0.09151423 -0.08381553 -0.12402099 -0.060775455 0.057552807 -0.07244311 0.077484034 -0.037285976 0.023215542 0.040296182 0.13506956 -0.014344173 0.15230262 0.1851173 -0.1185182 0.048022293 -0.17289864 -0.0034472053 0.018988205 0.040539082 -0.10271036 -0.17173529 -0.062234618
7 -0.018233705 -0.055105828 0.177355 0.19655514 -0.14499041 -0.19529305 0.13632685 0.25024763 -0.06040531 0.037365004 0.23777583 0.053952154 0.025444416 0.083053656 -0.13135847 0.027273236 0.0075631156 0.11510535 -0.1927674 -0.007868989 0.26345068 0.1845136 0.26757947 -0.1457582 0.14966697 0.085120656 -0.14472073 0.10051172 -0.11633069 -0.08791546 -0.11154504 -0.0665747 0.0584849 -0.1865175 -0.04436229 0.027912218 0.12194102 0.013924566 0.2599938 -0.090678 -0.05931641 0.10850439 -0.09166344 -0.14351292 -0.041423388 0.07141498 -0.07488225 0.07837704 -0.040539786 0.013966111 0.038133003 0.116918325 -0.038775545 0.14529255 0.1917169 -0.1270782 0.0439527 -0.16154718 -0.014265003 0.015479855 0.029304624 -0.10672249 -0.15808803 -0.071517244
9 -0.010627357 -0.07581789 0.14895086 0.20732261 -0.14111084 -0.18444826 0.117917255 0.24485174 -0.078050755 0.025004365 0.20349078 0.026889468 0.0045693894 0.11260105 -0.11360573 0.032375682 0.010569358 0.098561205 -0.21420336 -0.023503093 0.26932043 0.17829734 0.25300068 -0.12213131 0.16019054 0.07552841 -0.14616138 0.07910542 -0.14924839 -0.10938142 -0.12312518 -0.09258808 0.10089541 -0.19832948 -0.027746327 0.0384428 0.116358824 -0.0022836595 0.23308334 -0.09329275 -0.09749425 0.096217014 -0.10163128 -0.12935099 -0.048625533 0.059631772 -0.07974698 0.105644345 -0.020094184 0.031519957 0.009803847 0.13045923 -0.020911848 0.1326859 0.18750814 -0.11672896 0.03914472 -0.15658183 -0.019795865 0.049849942 0.0074285967 -0.09960079 -0.16700253 -0.08436852
5 -0.019135596 -0.06377135 0.15324083 0.19196509 -0.13995756 -0.19320168 0.14129727 0.23961945 -0.08098463 0.037630167 0.23472764 0.046378948 -0.002340445 0.09837551 -0.112146616 0.029960666 0.019661736 0.1012771 -0.20292076 -0.008729304 0.26710585 0.18276067 0.24185191 -0.12102623 0.14792646 0.056336496 -0.14805497 0.09503509 -0.12817216 -0.10102312 -0.124029584 -0.083174855 0.08952187 -0.18168713 -0.046068545 0.032943167 0.13798815 -0.012335271 0.24477278 -0.0732608 -0.06878299 0.10342675 -0.079989485 -0.13993157 -0.05889147 0.07429171 -0.07771728 0.09276766 -0.013177228 0.018145222 0.024249088 0.12424539 -0.026171671 0.118433684 0.1993995 -0.10900641 0.053157274 -0.1681217 -0.010631185 0.040527053 0.037581075 -0.1033483 -0.16206555 -0.065288186
4 -0.013578561 -0.059841517 0.17980787 0.2170624 -0.16640608 -0.1848566 0.14432597 0.25108013 -0.068086915 0.022813858 0.22624817 0.032385953 -0.00412957 0.091451235 -0.11564927 0.03643237 0.03024554 0.09100337 -0.21434224 -0.008236874 0.26108202 0.18735316 0.26332402 -0.12914461 0.16267669 0.073350705 -0.13051432 0.093167454 -0.13544853 -0.09845334 -0.11073864 -0.07038281 0.06467584 -0.20455787 -0.05153195 0.025832692 0.12898795 0.011403712 0.24258018 -0.094456576 -0.07954364 0.11246158 -0.08547174 -0.13525958 -0.036384724 0.050535668 -0.084255606 0.11040407 -0.025013158 0.016371902 0.024659373 0.11283066 -0.037963036 0.14789091 0.18507546 -0.1274693 0.039524645 -0.14876194 -0.029890206 0.045147214 0.0133058205 -0.08389704 -0.1470007 -0.07494704
8 -0.020540345 -0.06478635 0.1667653 0.19248153 -0.13590202 -0.21186742 0.1098558 0.22924684 -0.07648638 0.030235868 0.24166617 0.044335704 0.019038232 0.083463944 -0.124450214 0.0121114245 -0.007358488 0.10784831 -0.20758823 -0.03572084 0.26717013 0.18360554 0.23873074 -0.11358585 0.13550788 0.07210066 -0.15732862 0.10586052 -0.14402635 -0.09054922 -0.13982168 -0.08815513 0.092569284 -0.15909782 -0.024988899 0.015569229 0.1330491 -0.034271672 0.24346083 -0.062836684 -0.08494885 0.10310684 -0.09667516 -0.12683976 -0.06853343 0.07696692 -0.0641539 0.095038295 -0.011111313 0.011178387 0.028823629 0.10694688 -0.040133595 0.11848808 0.19476388 -0.10707402 0.05594397 -0.1792298 -0.035209842 0.061690338 0.040241048 -0.12022684 -0.1515592 -0.07819466
