7 64
902 -0.015820464 -0.017810298 0.19490969 0.22138782 -0.18425845 -0.19834442 0.108782515 0.25048456 -0.055370495 -0.041445058 0.2202015 0.018143307 0.036411826 0.08069922 -0.16479942 -0.035135765 -0.010353791 0.102374256 -0.18292667 -0.118130594 0.21311662 0.16386783 0.26554254 -0.10862624 0.14113401 0.08198943 -0.09511549 0.13173331 -0.14556031 -0.06564907 -0.1265834 -0.026192041 0.082167625 -0.18272063 -0.02190394 -0.017360896 0.11039464 -0.031435203 0.17579179 -0.110389724 -0.13249654 0.11095116 -0.17719151 -0.10859791 -0.012348114 0.023811657 -0.1059273 0.11992087 -0.016192468 0.10212287 -0.036151346 0.09800698 -0.08491309 0.1432988 0.17390525 -0.14491308 0.06219848 -0.16915263 -0.06560254 0.08254968 -0.0050998437 -0.073792055 -0.12568907 -0.13930213
6 -0.019861463 -0.030469738 0.20474105 0.24147804 -0.19107524 -0.19496846 0.1298254 0.2665269 -0.060683403 -0.04113547 0.24528056 0.023127126 0.04169161 0.065701544 -0.14969952 -0.030008458 0.0010271963 0.10009413 -0.19218446 -0.05036877 0.21847735 0.18541734 0.27925122 -0.12571624 0.13678217 0.10500965 -0.107914075 0.12104536 -0.14027657 -0.07299653 -0.09632145 -0.03320909 0.036264256 -0.20161198 -0.029348545 0.0068191304 0.09709069 -0.0093617635 0.22477727 -0.07634124 -0.090443954 0.09931371 -0.12569101 -0.0947941 -0.0362244 0.014919617 -0.08654631 0.1001284 -0.033540696 0.062078573 0.014418725 0.104909785 -0.054806523 0.17194788 0.16109818 -0.13684727 0.056545533 -0.17114952 -0.047180165 0.053940747 0.025465626 -0.07243457 -0.13176207 -0.09567216
9 -0.019762268 -0.020757474 0.21762434 0.21695645 -0.17860354 -0.19697249 0.120392025 0.24940853 -0.03899776 -0.017488912 0.2441225 0.038578223 0.05285293 0.045588605 -0.15675648 -0.01888493 -0.007187156 0.10797857 -0.17664407 -0.052099638 0.2155797 0.17822927 0.27704751 -0.13683069 0.13211346 0.108205415 -0.10724763 0.12769146 -0.11936352 -0.055783343 -0.098084725 -0.022559106 0.018769378 -0.1787907 -0.034894954 -0.008463261 0.10134997 0.004122184 0.22845575 -0.08915788 -0.07636342 0.111640625 -0.12460655 -0.1099325 -0.020603973 0.03106036 -0.07843348 0.08737849 -0.045879 0.039803077 0.027488766 0.082755975 -0.07521821 0.169527 0.16074857 -0.14242601 0.049004976 -0.15814643 -0.054329198 0.037485205 0.021012507 -0.08191749 -0.116332665 -0.095701
7 -0.013839296 -0.040281642 0.19244777 0.22185758 -0.16933268 -0.19013344 0.10347496 0.24613625 -0.052441943 -0.020601807 0.21663295 0.021297766 0.041242585 0.07119485 -0.14455059 -0.012362143 -0.009203495 0.1004317 -0.19198869 -0.061647423 0.22544451 0.17295353 0.26700297 -0.12291324 0.14037302 0.103777416 -0.11420739 0.108519 -0.14303495 -0.07364997 -0.108046085 -0.046632435 0.054098804 -0.18660094 -0.019270265 0.003605605 0.094645806 -0.005587867 0.21294524 -0.092589326 -0.10321541 0.10037746 -0.13272817 -0.102148436 -0.027827471 0.027894484 -0.07977194 0.102554776 -0.033892002 0.05123528 0.0084142005 0.09709016 -0.058061384 0.1589934 0.15935512 -0.13370432 0.043804727 -0.15532616 -0.053396557 0.05696791 0.0047113523 -0.082638405 -0.12879384 -0.10454166
4 -0.019739041 -0.043972008 0.18862544 0.22718398 -0.17978266 -0.18778346 0.14160785 0.2484747 -0.07087312 -0.014237324 0.24361506 0.025755093 0.008633451 0.06958223 -0.12020954 -0.0017041982 0.022681413 0.08465266 -0.20317167 -0.01809937 0.23034814 0.18685448 0.25372407 -0.113163896 0.13826072 0.07856592 -0.11592555 0.10767759 -0.13696325 -0.084023766 -0.09959585 -0.052291196 0.044101924 -0.1931202 -0.043704297 0.014697553 0.11725605 -0.011951785 0.22951221 -0.061049886 -0.075546876 0.10116322 -0.084808156 -0.10311846 -0.049135264 0.027962627 -0.07840904 0.105697736 -0.017676983 0.028231665 0.027243096 0.10103856 -0.04075326 0.15039195 0.16634136 -0.11826984 0.053115465 -0.16072859 -0.039742004 0.058711614 0.03499779 -0.07176676 -0.12854755 -0.069602236
8 -0.014057519 -0.032902967 0.2098719 0.24383377 -0.20285158 -0.18112887 0.13634364 0.2536521 -0.05708616 -0.03356581 0.22885717 0.010598901 0.008273266 0.06598871 -0.13080631 -0.0037406432 0.02664846 0.07640182 -0.20801596 -0.04395742 0.21821812 0.18263556 0.26779753 -0.11328154 0.14999403 0.08732342 -0.09290433 0.112015896 -0.14493912 -0.07671519 -0.09621743 -0.034553465 0.03472573 -0.20632379 -0.044663053 -0.0016445969 0.11127531 -0.00050560327 0.20855065 -0.089321434 -0.09990968 0.11198648 -0.11012597 -0.09991785 -0.020974146 0.0063415957 -0.091341004 0.12729816 -0.02242493 0.04467185 0.009158067 0.0876911 -0.06294486 0.16877224 0.15635543 -0.13868447 0.045135487 -0.1456466 -0.06469592 0.07391176 0.0046358067 -0.053513892 -0.112018205 -0.09494143
5 -0.019451253 -0.036854487 0.21457672 0.23083504 -0.18183884 -0.19947122 0.11231548 0.24397296 -0.052469496 -0.024804575 0.24616471 0.025338229 0.041208927 0.046054587 -0.1403555 -0.018710393 -0.004368058 0.09446556 -0.19892843 -0.040756993 0.22165585 0.18633775 0.2654065 -0.1200104 0.12892301 0.108466 -0.11544718 0.119076036 -0.14199041 -0.06571054 -0.10150508 -0.042420287 0.023954565 -0.17881034 -0.026370255 -0.004337106 0.10175707 -0.012089183 0.23306535 -0.064730585 -0.084480494 0.10426905 -0.105995946 -0.09213571 -0.042744532 0.023351587 -0.06705642 0.10136341 -0.03248111 0.02192806 0.037298813 0.0799808 -0.06145111 0.16832598 0.1538415 -0.12886457 0.048642173 -0.16211417 -0.06460913 0.06255224 0.02890249 -0.08229598 -0.11338388 -0.084994525
