7 64
902 -0.0052858335 -0.025327263 0.21256031 0.2705192 -0.24360414 -0.17149137 0.14259833 0.24205977 -0.066501096 -0.06400198 0.1899882 -0.02831929 -0.04508241 0.090012774 -0.11679203 0.0003801293 0.056151778 0.037228383 -0.22783503 -0.10250852 0.20080598 0.16504773 0.24325411 -0.06730278 0.17232932 0.04585708 -0.0536068 0.11329111 -0.17792141 -0.08626242 -0.11671262 -0.02830997 0.08074512 -0.22102034 -0.05290891 -0.025637832 0.13429846 -0.026533563 0.13466841 -0.11962014 -0.16563632 0.1267422 -0.14333853 -0.09493475 0.0066550234 -0.0249822 -0.12661639 0.1952603 0.020122433 0.09064184 -0.058819056 0.07731272 -0.08656218 0.14873396 0.15677932 -0.14506578 0.04735919 -0.12651835 -0.10267454 0.1463703 -0.0420491 -0.011748896 -0.0882965 -0.13577807
6 -0.020226968 -0.025435401 0.18985379 0.27086282 -0.21122885 -0.16077504 0.15847321 0.2923737 -0.071426176 -0.08732296 0.24014923 0.005492533 0.04051484 0.068834744 -0.13506544 -0.050536364 0.023689976 0.083975516 -0.18093756 -0.006442827 0.18414931 0.18777165 0.28858352 -0.12801358 0.13243969 0.11836365 -0.08348898 0.10489754 -0.13383667 -0.08158488 -0.045172196 -0.015123054 -0.0018681189 -0.24437118 -0.034722976 0.03742176 0.061908986 0.012226535 0.22598884 -0.052792434 -0.0671107 0.071698844 -0.10150556 -0.059539657 -0.041535296 -0.0312606 -0.09277573 0.087589 -0.04435593 0.08674119 0.020106379 0.13028188 -0.017254513 0.20188074 0.13198413 -0.13388865 0.057183024 -0.1676209 -0.018271158 0.03020398 0.038432922 -0.03396093 -0.13961871 -0.07003515
9 -0.026018307 -0.01514274 0.2092599 0.2415194 -0.20134737 -0.18441208 0.1666294 0.27913377 -0.060005803 -0.046019785 0.26986155 0.035415854 0.03912443 0.052440032 -0.14673716 -0.03445225 0.021320406 0.09879434 -0.17609227 -0.012715426 0.20360218 0.19244358 0.28641877 -0.13786949 0.12826975 0.10024184 -0.095286585 0.12589033 -0.11053143 -0.06622722 -0.067607455 -0.010794999 -0.002342569 -0.21058406 -0.052243363 0.015700018 0.09676232 0.0076385406 0.23998041 -0.0599921 -0.048905786 0.09712898 -0.09580628 -0.09445045 -0.03650252 0.007220331 -0.08834376 0.07897895 -0.042864606 0.057004277 0.03409867 0.108241804 -0.046415426 0.18171768 0.15668903 -0.13635567 0.06267598 -0.1711236 -0.024937572 0.022420138 0.05049373 -0.056792956 -0.12936406 -0.06783664
7 -0.018697983 -0.034790415 0.18912049 0.25699624 -0.1968556 -0.17232414 0.14574197 0.28199294 -0.06903446 -0.06088334 0.23733862 0.012931153 0.038693387 0.073621444 -0.13664322 -0.034009933 0.015443778 0.09126892 -0.18911071 -0.01603676 0.20548591 0.18748656 0.28494373 -0.1298447 0.13695747 0.11298799 -0.0989732 0.10347978 -0.13677476 -0.08327343 -0.06564342 -0.030540995 0.018019084 -0.22904214 -0.031399578 0.032051418 0.07455601 0.0082857 0.22979103 -0.06361969 -0.07469721 0.08034489 -0.10579044 -0.07648788 -0.041505486 -0.00824611 -0.08762993 0.09055678 -0.04153617 0.07094382 0.020638587 0.12466334 -0.024869617 0.18810448 0.1445085 -0.13244015 0.05285117 -0.16593455 -0.02416907 0.035017367 0.031183185 -0.052846685 -0.14210518 -0.07642098
8 -0.027862437 -0.029979099 0.18548872 0.23718765 -0.19147623 -0.18789598 0.16714473 0.26731855 -0.08230389 -0.040366188 0.270802 0.030735902 0.016397707 0.066624746 -0.12696244 -0.03115141 0.027535148 0.08883506 -0.18926592 -0.007831858 0.2138323 0.19369546 0.2603247 -0.11456897 0.12351767 0.07646417 -0.10757902 0.11838558 -0.124529734 -0.08056215 -0.0819752 -0.03474743 0.028783364 -0.201465 -0.049046952 0.023754384 0.11119173 -0.020664712 0.23464616 -0.035702333 -0.054982133 0.08935405 -0.07938372 -0.08970295 -0.062318917 0.015565117 -0.08416812 0.08851892 -0.01734726 0.051950663 0.029081166 0.116543256 -0.029072305 0.15448007 0.1645968 -0.11425336 0.07125491 -0.1815517 -0.019617047 0.045226157 0.064603254 -0.061946966 -0.13688342 -0.05680333
5 -0.013769905 -0.027186869 0.20660275 0.26252842 -0.221453 -0.1605568 0.15916358 0.2651147 -0.061723083 -0.058470145 0.22491618 -0.001090785 -0.0021810075 0.06659194 -0.11917361 -0.010126436 0.047728248 0.061180092 -0.20335096 -0.020117398 0.19702235 0.18312816 0.27031574 -0.111100726 0.14951293 0.08673731 -0.072173744 0.10329473 -0.13898201 -0.080200985 -0.06709647 -0.02069875 0.011927149 -0.22978109 -0.05437871 0.011037486 0.09750759 0.0127593195 0.20183508 -0.07951499 -0.08765845 0.10109318 -0.092953645 -0.08249896 -0.018141309 -0.02189835 -0.09799833 0.1269591 -0.024293322 0.056478146 0.009006635 0.096035235 -0.04672974 0.18248105 0.13941464 -0.13740486 0.044289 -0.13684908 -0.05275162 0.065448396 0.0077175787 -0.024811644 -0.10895746 -0.080409996
4 -0.023573993 -0.02893849 0.21526553 0.2561691 -0.20675232 -0.19443935 0.13810202 0.2630768 -0.0672431 -0.058723915 0.26255158 0.015404383 0.03287396 0.048623372 -0.13757582 -0.040429663 0.011579968 0.08427388 -0.20094253 -0.031898662 0.20635279 0.19462949 0.27047554 -0.111948796 0.124355465 0.103838675 -0.1005805 0.12348007 -0.14533833 -0.06976824 -0.08474454 -0.030052943 0.013337842 -0.19896683 -0.032864287 0.0032908192 0.09762782 -0.020631803 0.22850636 -0.044650987 -0.080262564 0.095000796 -0.099181265 -0.0731935 -0.05201686 -0.0019635623 -0.07714212 0.105706826 -0.024446644 0.04501966 0.031471234 0.09224305 -0.049620952 0.17700769 0.14737594 -0.12649092 0.06124046 -0.17365617 -0.05706673 0.06884681 0.044529743 -0.06048902 -0.11529745 -0.076860406
