7 64
902 -0.027352476 -0.005747809 0.21463166 0.28908303 -0.2501069 -0.17075142 0.18377465 0.28199518 -0.08297451 -0.117293954 0.27565163 -0.0054684156 0.008490831 0.044832185 -0.124912664 -0.07139826 0.049195312 0.05528768 -0.19524932 -0.015753705 0.1645615 0.20036222 0.27289823 -0.09464857 0.11953705 0.09094839 -0.060079444 0.13188332 -0.14456403 -0.07187619 -0.048449893 0.0028716298 -0.016844396 -0.23645316 -0.053800885 0.010050934 0.09228303 -0.02624074 0.21007884 -0.017599415 -0.07071564 0.08360947 -0.08260994 -0.0410148 -0.054840058 -0.054388553 -0.09899451 0.118878014 -0.011135537 0.08098397 0.017147176 0.09911992 -0.036984067 0.18850346 0.1261314 -0.12313258 0.076766424 -0.17488794 -0.04987413 0.07938301 0.062149096 -0.009044168 -0.10472271 -0.062481422
9 -0.02758164 -0.022662453 0.17038596 0.25908 -0.18337509 -0.14027277 0.15758699 0.29393247 -0.06353879 -0.09838853 0.24435292 0.02242477 0.091028646 0.042636525 -0.13080916 -0.07734361 0.003168289 0.10059646 -0.13373499 0.05938591 0.14954156 0.18349338 0.28945526 -0.15356003 0.09434876 0.15761058 -0.08870438 0.087682635 -0.093231395 -0.06836607 0.010998175 -0.0014486592 -0.06496511 -0.23825422 -0.020474745 0.07207572 0.0054106386 0.041225005 0.26187894 -0.0054096906 0.0025236644 0.030227179 -0.061943755 -0.02621628 -0.06445705 -0.040038567 -0.060906082 0.013219877 -0.08395532 0.07260325 0.072536506 0.14746805 0.027154868 0.22550772 0.09727097 -0.11697166 0.054769475 -0.17387909 0.032049086 -0.04543853 0.082967944 -0.038853083 -0.15282165 -0.02037334
5 -0.031011507 -0.017883314 0.17716748 0.24248096 -0.17509826 -0.15398486 0.16961503 0.2979272 -0.0582519 -0.07047913 0.26244378 0.04500278 0.095056735 0.041967195 -0.14257608 -0.06603579 0.0014169832 0.11764019 -0.12743361 0.059973996 0.16640311 0.1866237 0.29684433 -0.16947998 0.098706685 0.15044095 -0.1006391 0.09920607 -0.07615105 -0.06449439 -0.00084837 0.00048346832 -0.061315298 -0.22925596 -0.032722637 0.068407096 0.024034623 0.047157567 0.2779562 -0.018127503 0.016654896 0.04450969 -0.06406475 -0.05508843 -0.059266903 -0.013005036 -0.06381984 0.0015915121 -0.08987155 0.06426657 0.07853629 0.14825617 0.015204339 0.21780628 0.11887551 -0.12340837 0.058404576 -0.17988512 0.040835593 -0.06393216 0.08948218 -0.0553998 -0.1606112 -0.02046628
6 -0.022131108 -0.037179735 0.1574511 0.25900912 -0.17358004 -0.14317559 0.14320907 0.29706785 -0.06826173 -0.088798255 0.22521064 0.016640045 0.088608004 0.065806806 -0.13244109 -0.06605961 -0.0041970382 0.105710775 -0.14608213 0.042160958 0.16901636 0.18044052 0.2930735 -0.15421616 0.108674906 0.15794477 -0.1006326 0.07791092 -0.109569535 -0.081448495 -0.005916045 -0.020363674 -0.031339906 -0.24508692 -0.009635669 0.07819926 0.0055084233 0.039902393 0.25603232 -0.025369354 -0.021986092 0.029978385 -0.08138469 -0.035497364 -0.061565705 -0.030718734 -0.065683305 0.023709929 -0.081239864 0.08246209 0.054871645 0.15919837 0.030833723 0.21791261 0.106139764 -0.118631855 0.048549738 -0.17178479 0.032027137 -0.03691172 0.06259681 -0.049062222 -0.16780508 -0.037309736
7 -0.03199163 -0.029962154 0.15187061 0.24345587 -0.1707438 -0.1519972 0.17885092 0.29668236 -0.08117706 -0.07086655 0.26178548 0.03856578 0.071257934 0.061833356 -0.124956615 -0.06340645 0.013319789 0.10807446 -0.13927159 0.067119874 0.17509177 0.18898712 0.28035086 -0.1519835 0.099717535 0.12841551 -0.10792768 0.090992585 -0.08830683 -0.08176163 -0.008683788 -0.018029977 -0.03272569 -0.23370391 -0.033587106 0.08164899 0.035059996 0.026996842 0.27212054 -0.0007405891 0.011123518 0.035929214 -0.051260103 -0.051552307 -0.079290956 -0.010983626 -0.06706053 0.011128329 -0.06826047 0.07009737 0.06797924 0.16363199 0.035245195 0.1963911 0.1264028 -0.10622479 0.06643702 -0.18819048 0.05231825 -0.04775716 0.099492595 -0.053321138 -0.1725843 -0.011215927
4 -0.025691397 -0.02749668 0.18150583 0.26636764 -0.19691992 -0.14290039 0.16951637 0.29236868 -0.06680179 -0.08776452 0.24905308 0.017777242 0.06340494 0.044577044 -0.11994456 -0.05678181 0.023178283 0.0868265 -0.15556146 0.06399487 0.16258503 0.19027601 0.28554714 -0.14548731 0.107248075 0.14159939 -0.08682994 0.08785304 -0.10215921 -0.074640304 0.0012236437 -0.008445429 -0.05976921 -0.24212967 -0.03501274 0.064321816 0.027994525 0.040131524 0.25996214 -0.011662771 -0.005293945 0.045293078 -0.0487766 -0.036860943 -0.060630903 -0.038488377 -0.06506491 0.03769374 -0.07115383 0.054086275 0.07197226 0.13568245 0.018605012 0.22050612 0.104338706 -0.11815927 0.051096454 -0.16408846 0.016866857 -0.02459802 0.07490082 -0.032336712 -0.14255205 -0.0193303
8 -0.028371101 -0.025965454 0.19182639 0.26670918 -0.19727197 -0.16379437 0.14982799 0.28436032 -0.069042176 -0.09458901 0.2619959 0.016884394 0.07310201 0.036365654 -0.13104679 -0.07403354 0.004549882 0.09154132 -0.16305861 0.033097394 0.16688512 0.19433372 0.28266054 -0.13440527 0.09865284 0.14484257 -0.09515036 0.104080416 -0.11904539 -0.068234436 -0.020267617 -0.012880475 -0.04651715 -0.2241035 -0.021547755 0.0468726 0.035965543 0.010708684 0.25755477 -0.0018378316 -0.02413967 0.04943139 -0.06692405 -0.030789062 -0.07232844 -0.033363614 -0.06042951 0.046891198 -0.060577538 0.055596367 0.06795828 0.12382189 0.0032270586 0.21292754 0.109382294 -0.11549815 0.060546238 -0.18048401 -0.0049282643 0.00258146 0.08127361 -0.046678714 -0.13607638 -0.03367843
