7 64
902 -0.028972432 0.0032346703 0.20585087 0.28859735 -0.25851968 -0.17144054 0.18536548 0.27503148 -0.09387935 -0.13268775 0.2704151 -0.014894098 -0.010162726 0.056322817 -0.12404196 -0.083794296 0.05482226 0.04449861 -0.1921385 -0.051967364 0.15061364 0.18731071 0.24712649 -0.06545711 0.11403896 0.059213325 -0.043630958 0.13797668 -0.14976013 -0.07027023 -0.06293638 0.008070697 0.014904439 -0.22281715 -0.05383729 -0.0030954482 0.105846435 -0.056419317 0.16632774 -0.017423626 -0.094834335 0.08504709 -0.10084305 -0.036995392 -0.05112706 -0.05903124 -0.11294402 0.13766542 0.017191216 0.113998465 -0.018353708 0.100391634 -0.04669458 0.1653607 0.1342086 -0.11836446 0.091005616 -0.18196572 -0.05828261 0.11186321 0.056677364 0.0038568238 -0.0961772 -0.078706816
9 -0.034527868 -0.015935134 0.13837273 0.23991786 -0.18584104 -0.17021967 0.18643361 0.28944784 -0.1060541 -0.08689063 0.266297 0.027674299 0.0324493 0.0909004 -0.13173637 -0.08105403 0.022497917 0.09705264 -0.14904138 -0.011909868 0.17653139 0.17927976 0.25324354 -0.10738846 0.10391553 0.06988069 -0.09412922 0.11657492 -0.1112558 -0.08713695 -0.05670768 -0.017446164 0.043369662 -0.21970306 -0.03831138 0.05491363 0.081044674 -0.0369494 0.21236417 -0.009830574 -0.04370948 0.050955605 -0.09658347 -0.062750995 -0.07862191 -0.005687254 -0.101407506 0.056775257 -0.013719456 0.12853041 -0.0021051252 0.16640727 0.00820091 0.14479466 0.15846966 -0.10073347 0.09651647 -0.20990328 0.031842005 0.019944571 0.09122449 -0.0449815 -0.17014265 -0.05201602
6 -0.033735722 -0.023876801 0.15868764 0.22337373 -0.17507885 -0.18800804 0.1791472 0.27730203 -0.09306974 -0.04312195 0.2774164 0.044899233 0.030433474 0.07963594 -0.13434048 -0.05007122 0.018748518 0.1059992 -0.16276978 -0.00642533 0.20717442 0.18743333 0.25759074 -0.120496705 0.11363697 0.0706521 -0.11473729 0.12234223 -0.10829964 -0.08346371 -0.07805261 -0.030490603 0.042281117 -0.20218728 -0.04667586 0.041443676 0.105057836 -0.02805778 0.23803286 -0.025133498 -0.03836733 0.07445999 -0.08751963 -0.09257469 -0.07403709 0.025788354 -0.0906473 0.060028326 -0.019644188 0.08345809 0.02027144 0.14612968 -0.011884895 0.14222974 0.17568451 -0.107325464 0.08702364 -0.203657 0.016392894 0.018243993 0.08675536 -0.0697282 -0.16376956 -0.051510267
7 -0.02876383 -0.054076333 0.112595364 0.21505256 -0.14338957 -0.1869705 0.16018851 0.27983844 -0.113962434 -0.027684892 0.24881443 0.039788008 0.02784193 0.12314303 -0.12575981 -0.03881173 0.0056105307 0.11601323 -0.1731413 -0.0121013215 0.23528636 0.18155026 0.25019023 -0.11748212 0.124118 0.06604214 -0.14292502 0.09723345 -0.128102 -0.11119951 -0.09674643 -0.070032634 0.10066133 -0.20958963 -0.024691397 0.070222475 0.09775126 -0.037628446 0.23626047 -0.031299658 -0.059769414 0.05623689 -0.10073063 -0.09818881 -0.091134556 0.044441633 -0.09100738 0.05813239 -0.012110382 0.101051174 0.000113765585 0.18315542 0.020072715 0.12095389 0.18929102 -0.09386283 0.08432007 -0.21253832 0.041429453 0.018493203 0.07687015 -0.09044962 -0.20310792 -0.058677018
5 -0.031545617 -0.036377456 0.124148406 0.23280653 -0.17991006 -0.18237604 0.18647455 0.27637562 -0.12529303 -0.057913255 0.2615637 0.022976048 -0.010075801 0.11763721 -0.114357024 -0.050728314 0.036893588 0.08590362 -0.18242837 -0.026673147 0.21260834 0.18260969 0.23217501 -0.08476501 0.12169464 0.032395054 -0.111092165 0.11167181 -0.13569671 -0.107958406 -0.09629861 -0.05150835 0.099838726 -0.21265708 -0.044407424 0.050978582 0.1212003 -0.06325935 0.20191129 -0.01784183 -0.07311288 0.06578725 -0.09370526 -0.08541558 -0.088222235 0.01793698 -0.10821033 0.0924809 0.019821262 0.1170872 -0.021937925 0.16760206 0.005607407 0.110297196 0.18640304 -0.09047772 0.098870665 -0.21139973 0.019866386 0.061585832 0.08039369 -0.05572127 -0.17611428 -0.060605783
8 -0.030152988 -0.018351294 0.19596909 0.26139963 -0.219271 -0.17338747 0.18999428 0.2769825 -0.08522757 -0.07379416 0.27907455 0.018516349 0.008483641 0.05346758 -0.11768159 -0.046750613 0.0474837 0.07050193 -0.1860338 0.013488068 0.18571003 0.19787909 0.2613098 -0.10752548 0.118307464 0.0795493 -0.08415193 0.12061216 -0.12246912 -0.07781312 -0.053648338 -0.014648719 -0.005917852 -0.22101592 -0.059958544 0.02646968 0.101383805 -0.015394696 0.23177384 -0.016442468 -0.042386785 0.08284551 -0.06080679 -0.066148974 -0.06331219 -0.018106485 -0.088495195 0.09261048 -0.016955558 0.05852298 0.035720408 0.11449621 -0.021880385 0.17447403 0.14594305 -0.115077324 0.07534024 -0.17934807 -0.02018403 0.046982672 0.07584341 -0.032103833 -0.124247655 -0.04221403
4 -0.033868697 -0.021805353 0.18721573 0.25623778 -0.20739911 -0.18875328 0.17324139 0.27338058 -0.09424233 -0.07851365 0.2875042 0.021303236 0.022514481 0.055887632 -0.12552804 -0.06589022 0.026418736 0.08076998 -0.18441626 -0.0062244986 0.18928896 0.19768001 0.25374103 -0.09907638 0.105858885 0.08109176 -0.09808738 0.12752159 -0.13241582 -0.077177666 -0.06909028 -0.024476772 0.014600414 -0.20457058 -0.042645555 0.02457762 0.10055043 -0.04249874 0.23100424 -0.0004938109 -0.051592045 0.07489052 -0.07455428 -0.0587517 -0.082101196 -0.008508168 -0.082349166 0.08672273 -0.008724155 0.06818938 0.031184686 0.1196172 -0.019635951 0.16131152 0.15177265 -0.105490506 0.08662479 -0.2004227 -0.020502577 0.058044918 0.089311175 -0.049593855 -0.13263501 -0.048306458
