7 64
902 -0.016971586 -0.025730355 0.088803336 0.23346849 -0.18734486 -0.16637585 0.16246225 0.2766177 -0.13174342 -0.08897715 0.1885004 -0.013220623 -0.03438604 0.18304676 -0.1382243 -0.061895866 0.035804156 0.08034956 -0.19063191 -0.1458386 0.21143182 0.15377295 0.23606052 -0.05697476 0.157706 -0.00051248615 -0.07993412 0.11399075 -0.17434742 -0.124461845 -0.1378277 -0.0469149 0.2006394 -0.23937123 -0.026831416 0.033760898 0.11920825 -0.08432848 0.08591234 -0.09328845 -0.1657815 0.06682822 -0.18955038 -0.094514 -0.035012517 0.002703142 -0.15968595 0.14238809 0.052385896 0.2244711 -0.1411461 0.18381023 -0.019565308 0.06861249 0.19422933 -0.10435572 0.09794783 -0.188881 0.0039781504 0.11301609 -0.0017595628 -0.0274268 -0.16491108 -0.13478447
9 -0.027746724 -0.031574745 0.20589542 0.2743874 -0.21761578 -0.19042176 0.13913725 0.2606651 -0.08676147 -0.09355554 0.27133885 -0.0014287878 0.02534089 0.04297971 -0.12047177 -0.066422254 0.015730841 0.06561488 -0.20456125 -0.021931075 0.18395227 0.1963253 0.24837002 -0.08424411 0.105010554 0.09961916 -0.09332506 0.12038118 -0.15996431 -0.07296002 -0.07328995 -0.03301337 0.008352411 -0.1971013 -0.024014719 0.008847148 0.08998967 -0.049715165 0.22263654 -0.00030255286 -0.08224554 0.07666474 -0.08229813 -0.036694635 -0.081333086 -0.026908278 -0.07061118 0.112532675 -0.0058445376 0.05143604 0.03444523 0.09555359 -0.030138562 0.17613582 0.13224074 -0.10796183 0.0742761 -0.18945816 -0.05972199 0.09431679 0.06915 -0.047154162 -0.11349143 -0.06335326
6 -0.02859012 -0.026251867 0.23436491 0.26589292 -0.22467849 -0.20402943 0.14115551 0.24634412 -0.074720815 -0.07015775 0.28751713 0.0078053274 0.01305939 0.023042252 -0.12060034 -0.04745301 0.022571703 0.061192255 -0.21443388 -0.025462905 0.19433476 0.20141232 0.24415655 -0.083013915 0.108540535 0.089549765 -0.0938036 0.13410847 -0.15590407 -0.0619538 -0.08861665 -0.030131232 -0.001708871 -0.17797251 -0.039506197 -0.015781935 0.11890691 -0.051330015 0.23104689 -0.008453621 -0.081570454 0.102982596 -0.073945664 -0.055722922 -0.07296429 -0.012609245 -0.06729388 0.1276915 -0.001003659 0.017883355 0.04734735 0.065808155 -0.05930769 0.1733798 0.1430858 -0.115010485 0.071975894 -0.18281685 -0.08631328 0.109334484 0.067028075 -0.053529043 -0.09308922 -0.066035345
7 -0.021217722 -0.046707895 0.21290743 0.27790105 -0.21276581 -0.19711576 0.11400176 0.25623113 -0.080623314 -0.080915265 0.2550333 -0.008643921 0.027978167 0.04879331 -0.12247262 -0.050099835 0.004613075 0.0673805 -0.2234961 -0.03586967 0.2033227 0.19680046 0.25442407 -0.086868905 0.11791917 0.11202178 -0.10483201 0.1123506 -0.1791816 -0.0780237 -0.089277185 -0.050688427 0.023058405 -0.1963048 -0.011743816 0.003718815 0.08940235 -0.045567647 0.22560151 -0.020495873 -0.10701383 0.08390609 -0.09643299 -0.042965855 -0.07531118 -0.02015859 -0.06590569 0.12817897 -0.009185592 0.038375564 0.032858945 0.08878847 -0.037746266 0.18168288 0.13415699 -0.114995204 0.06091417 -0.18106534 -0.07873677 0.10892387 0.04508855 -0.059826944 -0.11434301 -0.0803271
5 -0.02790229 -0.040059436 0.17741351 0.259701 -0.20431027 -0.19444384 0.14432979 0.25426388 -0.10563306 -0.07811532 0.26546443 4.3179578e-05 0.00047065376 0.071534075 -0.112927206 -0.057105977 0.02274843 0.06505873 -0.21299216 -0.038087625 0.20289981 0.19323203 0.23165907 -0.06885431 0.11251907 0.06661919 -0.10410995 0.118741006 -0.16873117 -0.08885278 -0.09895146 -0.052055676 0.058991037 -0.19340627 -0.026513586 0.0139172 0.11247968 -0.07244722 0.20438667 -0.003083915 -0.096590206 0.07718955 -0.08720775 -0.05226994 -0.089477114 -0.0076184515 -0.080992684 0.12341657 0.019011026 0.0664 0.008136655 0.11060492 -0.023714717 0.14006832 0.15422796 -0.09555605 0.08348133 -0.19694836 -0.04886165 0.110723704 0.068187505 -0.053782158 -0.12562521 -0.06759118
8 -0.023322169 -0.036207717 0.2060294 0.27172315 -0.2263042 -0.18602198 0.14991713 0.2480122 -0.09088557 -0.07638116 0.26093462 -0.009344816 -0.016944354 0.053955637 -0.10339298 -0.036655754 0.042443767 0.04558853 -0.22578472 -0.02722675 0.19731395 0.1956942 0.2341583 -0.067834646 0.12280929 0.067870796 -0.08629996 0.11692611 -0.1690447 -0.08226698 -0.089926705 -0.04209373 0.03013288 -0.1988009 -0.042030234 -0.0013453034 0.11977225 -0.053260718 0.20273112 -0.016467562 -0.098688945 0.094422966 -0.07249177 -0.053745124 -0.06968701 -0.022379505 -0.08104741 0.14551648 0.01615227 0.039498672 0.018633695 0.08336174 -0.041387767 0.15756099 0.14291829 -0.10713176 0.069236994 -0.17146732 -0.07544029 0.122846015 0.04985177 -0.03547756 -0.09940738 -0.067345425
4 -0.029932877 -0.03386354 0.21315737 0.2834736 -0.2274066 -0.20146309 0.13158198 0.25105712 -0.0964077 -0.105540626 0.28262562 -0.0111941835 0.014427544 0.03615014 -0.1146789 -0.07646076 0.015636584 0.053625513 -0.22054975 -0.03551203 0.18334618 0.20169695 0.23420668 -0.061461877 0.09764096 0.091051824 -0.093548395 0.12814045 -0.17974888 -0.07255035 -0.086675644 -0.040219497 0.017319713 -0.18519607 -0.018733356 -0.004475815 0.10155994 -0.079074115 0.21346606 0.01980465 -0.097872734 0.07861641 -0.07919696 -0.023078706 -0.09640166 -0.032600075 -0.065926045 0.13207364 0.014768612 0.044807248 0.032397617 0.08195987 -0.036402818 0.1669334 0.13106981 -0.09866845 0.082274005 -0.19834647 -0.08192971 0.13110715 0.07702807 -0.04651239 -0.10017104 -0.06535306
