7 64
902 -0.028439146 -0.022209061 0.1701332 0.19916582 -0.18017952 -0.20328824 0.17803963 0.24317381 -0.09081985 0.00071623595 0.26731128 0.044694193 -0.027782453 0.09247268 -0.126575 -0.005665982 0.041345295 0.08834924 -0.19057022 -0.059919037 0.23658112 0.17900366 0.22885154 -0.09107372 0.13864188 0.010473059 -0.11003558 0.13665634 -0.121090166 -0.08499258 -0.13599999 -0.042890176 0.10109668 -0.17577338 -0.07157857 -0.00015883437 0.1748722 -0.054750063 0.19940406 -0.06830278 -0.08393224 0.12168212 -0.10528238 -0.14089158 -0.04831965 0.058209825 -0.11198305 0.11883681 0.022327814 0.07090236 -0.019537283 0.113754146 -0.06240966 0.095695354 0.21486208 -0.11404535 0.08772754 -0.18744357 -0.027481861 0.07953337 0.050886206 -0.073140174 -0.13913828 -0.08563943
9 -0.035638116 -0.006704107 0.17801136 0.20777048 -0.18894053 -0.19948447 0.19499895 0.2579847 -0.08828401 -0.02367565 0.29098213 0.05231452 -0.0040234006 0.07178016 -0.13417 -0.033971764 0.038965996 0.09445203 -0.16853811 -0.035011973 0.21142958 0.18472345 0.24026226 -0.10306166 0.1199315 0.028922208 -0.10124942 0.14532246 -0.10168949 -0.07311322 -0.10523327 -0.019181274 0.0573815 -0.1813507 -0.07386514 0.007695655 0.15385841 -0.046328194 0.21603683 -0.041542806 -0.04984674 0.107937574 -0.09125877 -0.12109475 -0.05692251 0.04144679 -0.106041074 0.08949829 0.005834102 0.07632735 0.0025185223 0.11823455 -0.05196022 0.11611622 0.1991223 -0.11324221 0.09616021 -0.19854592 -0.010455867 0.0501073 0.08013086 -0.06424412 -0.1383946 -0.06504552
6 -0.032938372 -0.00037543091 0.20152438 0.19102292 -0.16416244 -0.19190834 0.17917697 0.2734871 -0.04177859 0.0017147285 0.2859689 0.08199654 0.06668387 0.040724322 -0.16359568 -0.024773777 0.006675126 0.1340359 -0.13193223 0.005234134 0.20896167 0.1842744 0.28992996 -0.17254694 0.119119205 0.099018954 -0.112924196 0.13856651 -0.058742795 -0.050641447 -0.06663519 0.0028459667 -0.01613671 -0.18561642 -0.066349834 0.020418724 0.10380862 0.030099878 0.2692955 -0.070029914 0.0014323544 0.10382747 -0.09098778 -0.13275291 -0.028951656 0.052137695 -0.082739696 0.025551436 -0.068870716 0.044831716 0.055809703 0.11405644 -0.052730013 0.16861252 0.17720924 -0.1392116 0.06643686 -0.1771726 0.012407235 -0.04318822 0.07272903 -0.08556241 -0.14510527 -0.053200554
7 -0.027922226 -0.024255408 0.18063933 0.20330293 -0.16004065 -0.19672953 0.16090263 0.27302846 -0.06260524 -0.0022363109 0.26689157 0.06266426 0.05045652 0.07159662 -0.15388685 -0.020233337 0.0028789747 0.12713386 -0.16008233 -0.016007522 0.23005463 0.18492971 0.28083158 -0.15283842 0.13066413 0.09061379 -0.12682496 0.12491744 -0.09560959 -0.07314757 -0.090525635 -0.029537262 0.03451416 -0.1937082 -0.04849844 0.028602753 0.108042896 0.006010908 0.2557194 -0.0719695 -0.038525876 0.097141676 -0.10618112 -0.12750466 -0.043464944 0.05297599 -0.08687104 0.05265009 -0.047560327 0.05873829 0.031377736 0.13013422 -0.039473865 0.15443708 0.1858704 -0.13063762 0.06680837 -0.18489364 0.005233972 -0.006386199 0.058058206 -0.092381105 -0.16119781 -0.06925135
5 -0.031983726 -0.0246777 0.17307474 0.19305629 -0.16231968 -0.19943808 0.18010427 0.2560488 -0.077673994 0.010368163 0.28087723 0.06475031 0.012587745 0.07208168 -0.13259564 -0.008890706 0.026160145 0.109536484 -0.1697559 -0.0076904153 0.23400296 0.18709815 0.25096765 -0.12793384 0.12661442 0.05083176 -0.12578121 0.12923439 -0.09502682 -0.0777856 -0.10344795 -0.03739985 0.049827848 -0.17856048 -0.06667301 0.022004977 0.14172342 -0.018577691 0.24647321 -0.051541544 -0.033343602 0.10534803 -0.07848421 -0.13419208 -0.05733266 0.062435944 -0.088202655 0.06836487 -0.01760851 0.042763785 0.029531114 0.12108333 -0.040157434 0.12433785 0.19819874 -0.11360748 0.07785785 -0.18752205 0.0019720818 0.01821839 0.0746682 -0.087008245 -0.15085377 -0.053827245
8 -0.021418523 -0.028657127 0.20217606 0.21086238 -0.16743182 -0.1835539 0.15465057 0.2686387 -0.04266877 0.0054276837 0.25341263 0.05603305 0.05039697 0.053628214 -0.14563257 0.0027639056 0.011250266 0.11642513 -0.16918433 0.009833443 0.2281776 0.18766457 0.2916627 -0.16541174 0.14008252 0.111865096 -0.11918694 0.11268029 -0.09365707 -0.068332 -0.07263325 -0.026062382 -0.0037102222 -0.2020991 -0.053700592 0.025067607 0.09598375 0.04084705 0.26729405 -0.085109115 -0.030482879 0.1042812 -0.086889125 -0.12500714 -0.025859151 0.040747534 -0.07573526 0.057490062 -0.06667986 0.022081023 0.055950437 0.10818557 -0.04460864 0.18131262 0.16543658 -0.14091851 0.04303036 -0.15468529 -0.010896379 -0.0154508 0.03858429 -0.08263846 -0.14120291 -0.06110496
4 -0.03548132 -0.009716411 0.20976083 0.2016075 -0.17176072 -0.21190965 0.16523613 0.26165238 -0.055972915 -0.0050398866 0.30111343 0.07209802 0.0542152 0.03666871 -0.15748873 -0.032998603 0.0020392775 0.12361666 -0.15788624 -0.013218397 0.21928687 0.19343643 0.2735267 -0.14598203 0.11259779 0.08939393 -0.122950844 0.14741021 -0.088144235 -0.05379781 -0.09150497 -0.01520726 0.004368152 -0.16903082 -0.05662645 0.005386155 0.12206317 -0.009343368 0.2650712 -0.04661953 -0.021782078 0.107854426 -0.08942701 -0.12115012 -0.05226695 0.05356542 -0.07500096 0.050872464 -0.04273245 0.032186005 0.054934196 0.10017167 -0.05968043 0.15508147 0.1825237 -0.12732194 0.07622076 -0.1927333 -0.015428152 0.0045060115 0.08269552 -0.09432194 -0.13461493 -0.05756398
