7 64
902 -0.010446312 -0.04417667 0.15058662 0.22878134 -0.1879904 -0.1719995 0.14456567 0.2528353 -0.09342418 -0.035041045 0.19045986 -0.0042062774 -0.036737107 0.13725294 -0.121058196 -0.00039385096 0.040568992 0.07027185 -0.21120504 -0.09826414 0.23110858 0.16086724 0.23820543 -0.0786798 0.16612561 0.025091894 -0.08879625 0.099415876 -0.16181314 -0.106938615 -0.13140501 -0.056122012 0.13980192 -0.2139589 -0.04224091 0.013589101 0.13570821 -0.040642943 0.14583272 -0.112558626 -0.15101819 0.103753544 -0.15099575 -0.11717666 -0.020505482 0.017900065 -0.13033026 0.15640247 0.024188068 0.12176386 -0.07481516 0.13309817 -0.047103625 0.10838331 0.19063926 -0.12507534 0.06356524 -0.15751956 -0.039787088 0.10939917 -0.018261176 -0.045718163 -0.14819084 -0.12786385
9 -0.019054357 -0.06048187 0.13021937 0.23466206 -0.16868338 -0.17289934 0.15493761 0.26563153 -0.108105026 -0.0319723 0.22573438 0.01208709 -0.009644615 0.118778475 -0.103726566 -0.011506636 0.032089088 0.08098047 -0.20595697 -0.013232075 0.23491319 0.18243632 0.24194843 -0.0977158 0.14220043 0.057390146 -0.12256596 0.085595876 -0.15123859 -0.11606264 -0.09829731 -0.07492226 0.095248595 -0.22023065 -0.034113955 0.053642124 0.10840197 -0.030259453 0.21421817 -0.04685528 -0.08766877 0.07189997 -0.08815342 -0.091948345 -0.072908364 0.021286141 -0.09368101 0.1052776 0.0019589423 0.076840885 -0.0057797525 0.15405422 0.005857428 0.12928708 0.17433327 -0.09939686 0.06586033 -0.1790748 0.0013851208 0.0609587 0.042462204 -0.06435866 -0.17056449 -0.065631405
6 -0.017595803 -0.055271935 0.15173739 0.2160986 -0.16369295 -0.18669136 0.14895384 0.2545033 -0.089721546 0.0003213077 0.22855505 0.026965288 -0.009265901 0.10987747 -0.11614226 0.0098126335 0.027519114 0.09069324 -0.20638396 -0.031207949 0.25077435 0.18041034 0.24660504 -0.108442865 0.15290391 0.05314677 -0.1282857 0.09833318 -0.14320068 -0.10558694 -0.11932218 -0.07207047 0.09872363 -0.20336257 -0.043790244 0.032187384 0.13068111 -0.022269022 0.21833663 -0.07673904 -0.09233843 0.097890526 -0.10082153 -0.12310421 -0.052626733 0.04606884 -0.09549149 0.11138516 -0.0029459982 0.058174357 -0.0046327864 0.13361864 -0.025954604 0.124126494 0.191317 -0.11356872 0.05974336 -0.17034487 -0.016236806 0.06097737 0.026994098 -0.07947613 -0.16022442 -0.080991395
5 -0.011631928 -0.070342354 0.10843712 0.20539622 -0.13803872 -0.16691133 0.13272688 0.25169614 -0.09877415 -0.00040438588 0.18640247 0.017014533 -0.008263114 0.14184564 -0.10685577 0.012596438 0.019738847 0.09261331 -0.19549794 -0.03601816 0.24794766 0.16192886 0.23458016 -0.104127355 0.15363945 0.049601566 -0.12989567 0.070436954 -0.14438114 -0.11904881 -0.11424257 -0.086562164 0.13085172 -0.20732747 -0.025443882 0.055912256 0.10598749 -0.018088054 0.19360101 -0.08479095 -0.1031133 0.073594205 -0.111952335 -0.11535157 -0.0517611 0.045500897 -0.09724167 0.10036466 -0.0027358984 0.08529623 -0.028881451 0.15929559 0.002156564 0.10720275 0.1827706 -0.101505585 0.052194614 -0.16072528 0.009928911 0.04878383 0.010138367 -0.07828733 -0.18108588 -0.08532334
7 -0.019881548 -0.064788006 0.11402898 0.20187332 -0.142986 -0.17867893 0.15978247 0.2527255 -0.107556924 0.010027361 0.22400066 0.032696676 -0.019206023 0.12900443 -0.100691006 0.012672694 0.03278712 0.09203431 -0.19673856 -0.0108187385 0.25338715 0.17513458 0.22845228 -0.10285809 0.14541097 0.03457082 -0.13751137 0.083985 -0.13309003 -0.117974244 -0.11537101 -0.08540638 0.1184611 -0.20061563 -0.043797806 0.055342525 0.12920699 -0.028791424 0.21683922 -0.058491956 -0.07564731 0.080394305 -0.08237177 -0.12285793 -0.07033182 0.05688782 -0.09323124 0.09364872 0.0054449523 0.064341016 -0.0071640816 0.15658902 0.0033585504 0.10044654 0.19531453 -0.09306647 0.06562385 -0.17587367 0.017198442 0.045092754 0.043905847 -0.08250422 -0.17971571 -0.06131059
8 -0.011035252 -0.07800375 0.12564611 0.23174785 -0.1620285 -0.16628425 0.14859267 0.26039362 -0.10556022 -0.006905899 0.20088904 0.0062698545 -0.02857278 0.13568012 -0.09241967 0.023469398 0.04151191 0.07513754 -0.22400473 -0.009029848 0.2569696 0.1802205 0.24203981 -0.10056136 0.16466337 0.052255806 -0.12983578 0.06861857 -0.16123138 -0.12913278 -0.10838152 -0.09377373 0.11373203 -0.22857079 -0.03727093 0.058044795 0.11588315 -0.013965065 0.21253857 -0.07364258 -0.10224429 0.08065417 -0.08584712 -0.10929903 -0.06037777 0.030673876 -0.09578364 0.12215386 0.0022920826 0.061274387 -0.011234901 0.1539572 0.006830753 0.12619628 0.1802155 -0.10363271 0.04894063 -0.15868415 -0.0034041163 0.06601174 0.014561974 -0.06668131 -0.17404976 -0.071914665
4 -0.018008672 -0.07555004 0.13025498 0.22763555 -0.1551987 -0.1826817 0.13373977 0.24915895 -0.108883 -0.014404417 0.22528869 0.012400321 -0.010478185 0.11294679 -0.0952911 -0.00028195148 0.022206306 0.07964542 -0.22043663 -0.009339369 0.25014088 0.1857996 0.23028442 -0.09106517 0.14028944 0.060847145 -0.14142868 0.08117859 -0.16504171 -0.118795745 -0.11342806 -0.09672326 0.10347077 -0.2032598 -0.024375865 0.049522426 0.11455411 -0.0404817 0.22545914 -0.036944 -0.09270742 0.073878415 -0.07722887 -0.0918087 -0.0870035 0.03503083 -0.076949395 0.11034934 0.0070180334 0.045544345 0.009572326 0.14222522 0.006191666 0.122149505 0.17555714 -0.090227254 0.060575698 -0.17939034 -0.011866357 0.07525747 0.044784058 -0.08227271 -0.16647634 -0.061013486
