7 64
902 -0.0069567766 -0.065017916 0.11714992 0.21873538 -0.14350317 -0.18925434 0.06919053 0.24137357 -0.0957719 -0.04096321 0.16609241 -0.009339355 0.019764924 0.14482515 -0.1374064 -0.02940718 -0.026769172 0.09822579 -0.20785165 -0.13440631 0.24107166 0.15148832 0.23508896 -0.07800763 0.14862148 0.06871292 -0.12870698 0.088443734 -0.19427781 -0.11053822 -0.15400958 -0.091409825 0.17710128 -0.19039033 0.020808887 0.022536501 0.09429527 -0.06688136 0.15041906 -0.099763125 -0.18120934 0.073380955 -0.1915754 -0.09117673 -0.048178244 0.032177206 -0.1025206 0.13394766 0.0137633905 0.13214788 -0.07555267 0.1461653 -0.029902399 0.10344987 0.17855111 -0.110297486 0.059757724 -0.17872949 -0.041414123 0.11374888 -0.020613877 -0.09055156 -0.17055796 -0.14807476
7 -0.015865345 -0.090134166 0.11425941 0.22163993 -0.10777404 -0.18958849 0.0592235 0.26109847 -0.0916189 -0.03401522 0.19587696 0.016972521 0.091842026 0.11293038 -0.13584274 -0.046448927 -0.062477984 0.13062948 -0.18471175 -0.03300943 0.24095432 0.17185703 0.25996146 -0.12687147 0.11582948 0.14341874 -0.17072818 0.06645692 -0.16815309 -0.10731434 -0.100074306 -0.10424377 0.0982989 -0.19242926 0.04519409 0.07166955 0.03173848 -0.026775153 0.2439421 -0.03757725 -0.09664459 0.030051675 -0.13146077 -0.05950217 -0.097037405 0.03780097 -0.047930036 0.047479965 -0.045043346 0.07423857 0.021143848 0.16762052 0.029629344 0.15043564 0.14736964 -0.09302925 0.04908955 -0.19723687 0.010716807 0.023536542 0.040657204 -0.12521014 -0.20074272 -0.0809609
6 -0.013840686 -0.08612588 0.12543224 0.2020321 -0.10247687 -0.19453502 0.06258354 0.24952464 -0.078028746 -2.4478468e-05 0.19569533 0.030117806 0.08049932 0.10852648 -0.137898 -0.018611599 -0.055712376 0.1336769 -0.18665707 -0.036837313 0.25641885 0.17019711 0.2599423 -0.13508244 0.12738833 0.1308815 -0.17351106 0.072221465 -0.15647112 -0.10216204 -0.11474018 -0.103446625 0.10098809 -0.18108241 0.029391719 0.057856146 0.05560398 -0.01523439 0.2480914 -0.06306411 -0.0946115 0.053097706 -0.13088506 -0.09021541 -0.07944976 0.060303535 -0.05122704 0.054287367 -0.046982825 0.053435635 0.023539167 0.15283796 0.0073466105 0.14323866 0.1639041 -0.1030418 0.042413928 -0.18544781 0.00121621 0.020640804 0.027939428 -0.13418475 -0.19333227 -0.08720866
9 -0.008988452 -0.09999846 0.1081982 0.20473701 -0.09244882 -0.18663523 0.04323847 0.24518983 -0.082946345 -0.0047109798 0.17153491 0.01721274 0.08117061 0.121632695 -0.1301389 -0.016859902 -0.06299615 0.12964721 -0.19265947 -0.04081094 0.25784323 0.1640381 0.2535612 -0.1280812 0.12938859 0.13675454 -0.17752849 0.055613533 -0.17092703 -0.11135916 -0.1156871 -0.1185421 0.117426276 -0.1843757 0.045513425 0.06729554 0.040920034 -0.01710119 0.23818842 -0.06397549 -0.11048569 0.040870044 -0.13635914 -0.07896031 -0.0836866 0.055055443 -0.04716471 0.058664843 -0.044990074 0.05881341 0.015166115 0.16076148 0.021365047 0.14089175 0.15536475 -0.09679353 0.035142843 -0.18040276 0.0020936746 0.028265268 0.015495154 -0.1354158 -0.20025496 -0.0919737
4 -0.012973673 -0.10690453 0.0960002 0.20281515 -0.09090163 -0.18621133 0.06152007 0.24238476 -0.09939336 0.0014307107 0.18500304 0.019743834 0.060081076 0.12593055 -0.11236961 -0.011545456 -0.0471031 0.12079296 -0.19941466 -0.017042022 0.26314816 0.17031366 0.23796128 -0.11686201 0.12525168 0.11680046 -0.1837218 0.052484702 -0.17046872 -0.12095306 -0.11593945 -0.12927784 0.123348475 -0.18351175 0.035486117 0.07702516 0.055548236 -0.029339889 0.24606766 -0.03987574 -0.096837126 0.03735714 -0.10820794 -0.07863876 -0.10348021 0.059779163 -0.044403013 0.05933309 -0.029868677 0.0468031 0.023277469 0.16707847 0.036989443 0.12650028 0.16183254 -0.0812996 0.043173876 -0.18782909 0.013793572 0.032802593 0.036850914 -0.1336858 -0.20477417 -0.070355184
5 -0.00825377 -0.10054293 0.12394111 0.22445504 -0.11625754 -0.18243924 0.06216899 0.2512373 -0.086039916 -0.011932119 0.17964183 0.007913282 0.05943666 0.117511064 -0.11920689 -0.007466601 -0.03972556 0.11277766 -0.21053462 -0.024801482 0.25865737 0.17436081 0.25759783 -0.12328443 0.1385757 0.13141437 -0.16768537 0.055559333 -0.17846622 -0.11622841 -0.10878018 -0.11610261 0.10303505 -0.20097554 0.030770838 0.065174885 0.05108352 -0.011687219 0.24243169 -0.0615652 -0.11075029 0.04928161 -0.118853375 -0.07655219 -0.08082667 0.039850105 -0.05125003 0.07791331 -0.0387776 0.046071164 0.02113374 0.15235816 0.0196411 0.15165031 0.15130205 -0.09995133 0.032213382 -0.17181738 -0.008892881 0.04121019 0.013872368 -0.11800503 -0.18833338 -0.08352021
8 -0.0139742615 -0.0983166 0.12975925 0.20998436 -0.09766894 -0.20205136 0.039465085 0.24380787 -0.080074236 -0.006863287 0.19746032 0.023512956 0.09398768 0.09923853 -0.13547003 -0.027360482 -0.071931735 0.13324322 -0.19728272 -0.034214705 0.2590279 0.17554449 0.2573848 -0.12994236 0.11820877 0.14953922 -0.18537836 0.06814992 -0.17316334 -0.10203347 -0.116790436 -0.11696888 0.09635631 -0.17247128 0.04803757 0.057563215 0.04340406 -0.025677683 0.25846207 -0.043892156 -0.09974561 0.04417123 -0.12595254 -0.07153053 -0.096835904 0.056755636 -0.0335864 0.05346251 -0.04799498 0.03622223 0.039377797 0.14559972 0.013926371 0.14962351 0.15246873 -0.09506772 0.03948266 -0.19106507 -0.010498767 0.032107923 0.034583442 -0.14504722 -0.18984136 -0.0830217
