7 64
902 0.0016744587 -0.05971963 0.11903137 0.23264469 -0.17471915 -0.15822425 0.11720476 0.25522465 -0.09431081 -0.035057686 0.1412517 -0.022402069 -0.035357717 0.1693114 -0.118301325 0.01224531 0.030365145 0.07032921 -0.2163837 -0.118850574 0.23849754 0.14538208 0.24018066 -0.078793265 0.18530637 0.033761863 -0.09219466 0.07405688 -0.18236692 -0.12493273 -0.13865788 -0.07553412 0.1782815 -0.23532139 -0.021246398 0.02858645 0.11500262 -0.029164324 0.12601325 -0.1461181 -0.18763925 0.093402974 -0.18228075 -0.11731721 -0.006943198 0.013695558 -0.13864326 0.16812341 0.01986672 0.14822993 -0.10502879 0.15399277 -0.034268867 0.10935036 0.18557939 -0.12963858 0.04713181 -0.14228992 -0.035804287 0.11314505 -0.058886997 -0.046001896 -0.16621475 -0.15277968
9 -0.016651552 -0.04471058 0.16144666 0.27752972 -0.18391949 -0.16290638 0.108697206 0.2988818 -0.07697446 -0.11015462 0.20992197 -0.0066116243 0.0887436 0.08739026 -0.14913286 -0.081210196 -0.024909409 0.10544845 -0.17253256 -0.029722247 0.18236163 0.17792957 0.29609555 -0.13256893 0.120295495 0.15857288 -0.103372894 0.08591726 -0.15542291 -0.088310316 -0.044560384 -0.03541348 0.022725184 -0.24313207 0.016972495 0.05860131 0.010854563 0.0033908046 0.22168219 -0.046212286 -0.089720346 0.03549295 -0.13806099 -0.02926156 -0.05877963 -0.036235034 -0.0786771 0.06435891 -0.05940899 0.11828574 0.009827856 0.15757924 0.010850429 0.20765112 0.114404984 -0.1253609 0.052801695 -0.18235184 -0.0042753173 0.021161012 0.031338815 -0.056106746 -0.16827638 -0.086554125
5 -0.015283313 -0.043607466 0.15709297 0.24229437 -0.16431342 -0.16872023 0.112180136 0.2812809 -0.06803269 -0.06231997 0.20520055 0.013314646 0.07222113 0.09346992 -0.14880338 -0.047832884 -0.019315623 0.11289823 -0.16817413 -0.03808497 0.20353922 0.17007852 0.2855394 -0.13802586 0.1313014 0.13163917 -0.1122205 0.08957937 -0.13793288 -0.08671597 -0.06857941 -0.041109107 0.045757845 -0.22375886 9.417422e-05 0.048381913 0.042518947 0.008788616 0.219649 -0.0741472 -0.08676439 0.057601925 -0.13928771 -0.0704429 -0.042779334 0.0006076986 -0.083966136 0.06575816 -0.054742146 0.102171645 0.0033088278 0.14898157 -0.00827087 0.18075337 0.1401419 -0.12845924 0.04923176 -0.17175314 -0.0026534307 0.014291536 0.020071726 -0.07142141 -0.16808015 -0.092514366
7 -0.010654358 -0.06595535 0.147869 0.2595097 -0.1578472 -0.16899404 0.08927186 0.2900825 -0.075210884 -0.07084483 0.18967067 -0.00049466145 0.085207604 0.107104205 -0.1467286 -0.049569413 -0.034484282 0.11603307 -0.18511103 -0.03510723 0.21641232 0.17480339 0.29540336 -0.14085856 0.13674751 0.15656249 -0.12819606 0.07232894 -0.16336831 -0.10082928 -0.068831705 -0.06410741 0.057109907 -0.23752636 0.023996903 0.06440273 0.020012429 0.010467202 0.22991326 -0.07166735 -0.103694916 0.042365123 -0.14586686 -0.05489226 -0.05538912 -0.0062281857 -0.074706525 0.067868106 -0.061440088 0.102211766 0.006551769 0.16323128 0.012013908 0.19405049 0.13119094 -0.12579961 0.040072758 -0.17474274 -0.002260858 0.018936038 0.011127103 -0.080865584 -0.18389153 -0.09643942
6 -0.015208337 -0.06464572 0.13269779 0.24951512 -0.15942836 -0.1698564 0.117052495 0.28293005 -0.09394056 -0.06021643 0.20417455 0.004206964 0.04878301 0.11713889 -0.12936157 -0.040866915 -0.00957446 0.10372108 -0.18990527 -0.026932416 0.22152916 0.17659293 0.27161002 -0.12134533 0.13593856 0.11496744 -0.12719493 0.076562986 -0.15893039 -0.10949456 -0.079581834 -0.06970496 0.07853298 -0.23217136 0.0037927215 0.065630935 0.052363317 -0.011024774 0.22184816 -0.056177605 -0.0969609 0.048201963 -0.1250427 -0.066295564 -0.068151005 0.0040165787 -0.083923385 0.07907483 -0.033905186 0.10202778 -0.0025976745 0.1684667 0.016622107 0.16503078 0.14978363 -0.1118658 0.05479107 -0.1831114 0.0069044135 0.034262996 0.028847542 -0.07476765 -0.18592086 -0.08331609
8 -0.0097747035 -0.057125896 0.1667267 0.2743801 -0.18503346 -0.16362058 0.10748311 0.29008263 -0.07383318 -0.08126845 0.19512635 -0.010564743 0.060457584 0.099154696 -0.13885954 -0.043259226 -0.009938207 0.09604607 -0.19686809 -0.033542916 0.20813501 0.17905617 0.29397073 -0.13034095 0.14391734 0.14353319 -0.10796494 0.0781151 -0.16658275 -0.09862696 -0.064274274 -0.051914323 0.043547407 -0.24712442 0.006087977 0.051622514 0.034555472 0.011841434 0.21863754 -0.074911356 -0.10885892 0.055586353 -0.13592564 -0.053574957 -0.04419494 -0.023302594 -0.08411757 0.09238402 -0.051013302 0.09743625 0.0025463363 0.14749849 -0.001361607 0.20008428 0.12758352 -0.13194917 0.039634757 -0.16338213 -0.020904921 0.039499156 0.0041135866 -0.057894964 -0.16308415 -0.09643475
4 -0.01662604 -0.06305084 0.15790671 0.26453432 -0.16436402 -0.1781104 0.08632558 0.27967107 -0.08121743 -0.08450443 0.21234305 -0.002351036 0.08573445 0.085536905 -0.14071555 -0.06749668 -0.037059803 0.10740722 -0.18910201 -0.029230755 0.20546514 0.1819862 0.280844 -0.12425413 0.11712004 0.1559 -0.12845752 0.08228632 -0.16927315 -0.09278626 -0.06803599 -0.0632961 0.041700512 -0.21973442 0.02741063 0.054329555 0.023712127 -0.013618007 0.23419057 -0.03492138 -0.09582027 0.038594007 -0.12731044 -0.034384727 -0.07734552 -0.013091407 -0.060855493 0.06874936 -0.04985096 0.08483399 0.023884295 0.14700158 0.011165197 0.19119553 0.12255749 -0.11261323 0.050107796 -0.18686944 -0.015789216 0.037789468 0.036822047 -0.081234306 -0.1677879 -0.08212741
