7 64
902 -0.029449463 0.007638818 0.17107937 0.2073131 -0.19506876 -0.21654387 0.15355387 0.25223687 -0.09132532 -0.055723593 0.2518045 0.028595245 -0.0014112702 0.09828138 -0.15663859 -0.061945036 0.010416943 0.09122784 -0.15734112 -0.15476525 0.18932264 0.14713614 0.21417898 -0.06277202 0.11931239 0.0045059645 -0.07586533 0.15591191 -0.12853515 -0.063637376 -0.14881638 -0.011691183 0.13452119 -0.15417607 -0.042753182 -0.028131025 0.15537986 -0.09501309 0.12409415 -0.08225393 -0.13456325 0.11092603 -0.18299377 -0.11540754 -0.028525941 0.034831174 -0.13329978 0.12766479 0.038309094 0.15584299 -0.086336285 0.11087137 -0.089912154 0.07646358 0.20348138 -0.11892806 0.10574936 -0.19838853 -0.04672941 0.11284767 0.029018866 -0.059109725 -0.1264159 -0.13948913
9 -0.03262237 -0.016733216 0.18403152 0.22506995 -0.17123137 -0.19859795 0.13627407 0.27058518 -0.069510706 -0.058134228 0.2759549 0.043673538 0.07741259 0.0531428 -0.16268308 -0.07519289 -0.020428268 0.122689724 -0.15614635 -0.03541566 0.19774027 0.187354 0.2769148 -0.13279468 0.101898655 0.114497356 -0.11761343 0.13515474 -0.1163762 -0.06228179 -0.07917356 -0.019712638 0.018865686 -0.18704608 -0.019814 0.021847138 0.07890254 -0.02703025 0.2440497 -0.0298133 -0.050242636 0.07382981 -0.11836542 -0.07631812 -0.06764246 0.01957235 -0.075653344 0.05009359 -0.041775867 0.08069515 0.03223607 0.12537016 -0.033522855 0.1671799 0.15893586 -0.12044234 0.081057005 -0.20765385 -0.010381949 0.018418988 0.07905806 -0.08543143 -0.15010819 -0.07195458
6 -0.03222573 -0.014023654 0.18721002 0.20812318 -0.16597968 -0.2120647 0.13527615 0.26100862 -0.067507684 -0.034121335 0.27660954 0.052666664 0.06439813 0.05908762 -0.16652024 -0.059813317 -0.019927345 0.1256143 -0.1579914 -0.06154572 0.21142201 0.18108773 0.26645848 -0.12691584 0.1088827 0.09142863 -0.12105677 0.14381066 -0.11411067 -0.05997384 -0.10595235 -0.023674358 0.04666219 -0.16925426 -0.027225716 0.00591833 0.105972804 -0.03794552 0.23116602 -0.049794212 -0.06402187 0.0918944 -0.13233355 -0.101835795 -0.05717896 0.042544525 -0.08340307 0.062347513 -0.029158989 0.07956404 0.015676197 0.11575913 -0.05484352 0.14325641 0.17909627 -0.12288496 0.08331148 -0.20514746 -0.020594358 0.0321804 0.06769799 -0.09542884 -0.14584106 -0.0874307
5 -0.02675002 -0.040993225 0.16566257 0.21092872 -0.14614873 -0.20451587 0.113936275 0.25986087 -0.07377598 -0.025817782 0.25231197 0.043817718 0.069925874 0.074940994 -0.15524253 -0.04812314 -0.030128084 0.12817968 -0.17180593 -0.042969458 0.22875108 0.18322949 0.2686481 -0.13185355 0.1148748 0.10936549 -0.14185552 0.11888261 -0.13095626 -0.07723625 -0.10451878 -0.052721992 0.059241794 -0.1794694 -0.008277309 0.02866708 0.086623326 -0.029321449 0.24613291 -0.046619933 -0.06949145 0.07585895 -0.12486134 -0.093787596 -0.07120024 0.045222916 -0.07037785 0.05782845 -0.036799766 0.067400195 0.025550557 0.13215823 -0.027341316 0.14929108 0.1726803 -0.11500644 0.07050229 -0.20250697 -0.010100472 0.02608764 0.061032653 -0.108160235 -0.16522507 -0.08096659
7 -0.031938773 -0.031298727 0.16168876 0.20393564 -0.15129428 -0.20642252 0.13674553 0.25710747 -0.082571 -0.024367977 0.26927006 0.050631955 0.0519959 0.07400782 -0.1480692 -0.05008058 -0.014717067 0.12137967 -0.16504161 -0.039380275 0.221854 0.18213437 0.2529568 -0.120189115 0.10848446 0.08252021 -0.13458914 0.12739788 -0.11941846 -0.075474255 -0.10597568 -0.045335624 0.06288339 -0.17132606 -0.023988213 0.025199682 0.10556362 -0.042781122 0.23740779 -0.033870474 -0.05802279 0.07946892 -0.11173183 -0.09874373 -0.076014504 0.049030297 -0.07674181 0.058575645 -0.02116459 0.07084021 0.020433415 0.13093507 -0.02896538 0.13061742 0.18094245 -0.10656999 0.082771935 -0.20760685 -0.00328469 0.03042147 0.07697074 -0.100219764 -0.16050188 -0.07091336
4 -0.028238455 -0.02312402 0.19523701 0.2283257 -0.18048202 -0.19692339 0.14386527 0.26676646 -0.06637346 -0.039992694 0.2713353 0.04000234 0.052062284 0.055669274 -0.15089467 -0.04551008 -0.0013048829 0.10985285 -0.17495197 -0.028341731 0.21186432 0.19041538 0.2752478 -0.13061622 0.11883885 0.10247636 -0.11513707 0.12968236 -0.12130837 -0.06800004 -0.08610389 -0.02672101 0.02124688 -0.19187309 -0.03421648 0.015445252 0.096916676 -0.016141968 0.24245809 -0.046795994 -0.057192206 0.090003 -0.10612205 -0.09131537 -0.055323284 0.022893758 -0.078897394 0.07216646 -0.035986785 0.058396462 0.032945417 0.11267826 -0.042754557 0.16602865 0.16380294 -0.12538296 0.07008506 -0.18887278 -0.02447478 0.031150121 0.06135343 -0.07911067 -0.13926524 -0.07235475
8 -0.033357315 -0.020683955 0.19658777 0.2229433 -0.17204942 -0.21547472 0.12202461 0.2565322 -0.0701144 -0.05009002 0.2843814 0.04263751 0.07133831 0.044219323 -0.16027693 -0.071650505 -0.026559457 0.117461726 -0.16939071 -0.05246566 0.20556578 0.18862426 0.26289064 -0.117761396 0.09815702 0.10703633 -0.123946585 0.14206845 -0.12954025 -0.05813672 -0.10023459 -0.029819407 0.030500244 -0.16512276 -0.015092763 0.0036126229 0.09482199 -0.047938935 0.23858988 -0.024282858 -0.06499386 0.08355896 -0.119073205 -0.077109315 -0.073930204 0.028776053 -0.067742616 0.065724485 -0.027468352 0.061775252 0.03347694 0.1045083 -0.048659686 0.15383488 0.1625179 -0.11480566 0.08201943 -0.2085261 -0.035113484 0.047380492 0.07786755 -0.09522652 -0.13483727 -0.0780017
