7 64
902 -0.0054784934 -0.046290077 0.16776045 0.18392925 -0.13845025 -0.2118877 0.05314693 0.21534115 -0.05510753 0.008631746 0.18271509 0.019081898 0.031254955 0.11076717 -0.16545466 -0.0006004529 -0.03891386 0.11500517 -0.2030123 -0.1661988 0.25821248 0.14961153 0.24721359 -0.09974652 0.15800314 0.07013836 -0.12967892 0.11756852 -0.17091599 -0.07867613 -0.18195683 -0.072254606 0.15825763 -0.15160306 0.0028975904 -0.02580726 0.12784187 -0.049627397 0.1581037 -0.14590412 -0.17972846 0.12086082 -0.20991503 -0.13811134 -0.009238204 0.069124565 -0.09955803 0.13864525 -0.0015206629 0.09081104 -0.062091276 0.09500239 -0.09580073 0.10327587 0.19707683 -0.13716431 0.048292533 -0.15977359 -0.08101769 0.109516814 -0.042385224 -0.11327212 -0.13670447 -0.17081885
9 -0.03466134 -0.03455417 0.13573696 0.22747461 -0.14896947 -0.18231103 0.1514054 0.29413944 -0.092237614 -0.06393407 0.26157397 0.04567163 0.08646158 0.08234214 -0.14590693 -0.0817903 -0.020910773 0.13050881 -0.13697854 0.008119735 0.1933276 0.18166691 0.27174747 -0.1410629 0.09424471 0.11844944 -0.13055713 0.104825705 -0.10494728 -0.083877265 -0.051902704 -0.035406474 0.028706674 -0.20821269 -0.00911097 0.07264125 0.046962727 -0.015657587 0.25706017 -0.0061859847 -0.022772914 0.03487105 -0.09843058 -0.06207103 -0.092371 0.017696632 -0.07178039 0.01235516 -0.05135474 0.1022124 0.035885323 0.17569281 0.02502404 0.16288131 0.15190406 -0.0999864 0.08304838 -0.21739376 0.04967225 -0.025499009 0.09998597 -0.08593455 -0.19276607 -0.043226656
7 -0.025146628 -0.038369976 0.16054954 0.19768031 -0.13666052 -0.1995811 0.118014 0.26072112 -0.066248365 -0.010122246 0.24360132 0.053016417 0.072564766 0.07964568 -0.15662397 -0.035516735 -0.029156113 0.1343882 -0.15868391 -0.03956946 0.22927925 0.17475492 0.26963174 -0.14275719 0.11960004 0.10627752 -0.14070071 0.11394104 -0.11480504 -0.07560709 -0.101554535 -0.04867364 0.059964724 -0.1786728 -0.013977585 0.032525253 0.085532025 -0.012439054 0.24472672 -0.06420057 -0.061083958 0.07843027 -0.12744488 -0.1086308 -0.05745265 0.055315044 -0.07387679 0.04722259 -0.04610629 0.06892924 0.022659676 0.1358419 -0.028606655 0.14571144 0.17641577 -0.11949156 0.064558774 -0.19239736 0.0019214788 0.005096967 0.052095074 -0.10999664 -0.17003942 -0.08193177
5 -0.020739596 -0.053956494 0.1436163 0.2115171 -0.13293573 -0.19856228 0.09486388 0.2637689 -0.0782789 -0.027806295 0.22222424 0.03372049 0.07560295 0.09928664 -0.15392601 -0.045103483 -0.041694798 0.13130742 -0.17100586 -0.058612164 0.23222084 0.17087036 0.26618558 -0.13005033 0.12192774 0.11402443 -0.14612044 0.10070374 -0.14226446 -0.08829324 -0.10907877 -0.06691478 0.08875012 -0.1861559 0.009972073 0.041232597 0.069532946 -0.026949635 0.22966725 -0.06284907 -0.091551386 0.06330282 -0.14615054 -0.090715535 -0.06695827 0.044904456 -0.073666506 0.05909036 -0.038099248 0.08910001 0.003848495 0.14937478 -0.014197884 0.14338665 0.16962996 -0.113355115 0.06260261 -0.19680701 -0.0017479076 0.02629351 0.039018873 -0.11168101 -0.18123056 -0.096190706
6 -0.030122396 -0.051736806 0.13779233 0.2173717 -0.14100216 -0.20087263 0.13739608 0.27951267 -0.09703473 -0.028736368 0.25785777 0.046123646 0.06182454 0.09875711 -0.14268535 -0.05027013 -0.02006085 0.1295496 -0.16879669 -0.017157545 0.23324898 0.18551818 0.26392278 -0.13122414 0.11454203 0.098351546 -0.15097046 0.10611021 -0.12820701 -0.09578947 -0.09542907 -0.06483798 0.07512543 -0.19648202 -0.010318909 0.05874014 0.08285005 -0.032082696 0.25486222 -0.029139148 -0.055444334 0.057798646 -0.10952261 -0.09115023 -0.09119866 0.046586707 -0.07486376 0.044808213 -0.03161129 0.08345648 0.02273109 0.16659337 0.0070354803 0.14056912 0.17963184 -0.10161767 0.0790894 -0.21602419 0.026119644 0.01013388 0.07976178 -0.10661795 -0.19413288 -0.06287189
8 -0.021964906 -0.05372692 0.1586251 0.22280681 -0.15145731 -0.19446526 0.121423066 0.26676428 -0.08021332 -0.023203997 0.23790616 0.033353347 0.05211279 0.09019205 -0.13961656 -0.029339634 -0.014557945 0.116377585 -0.185079 -0.02740557 0.23574302 0.18329702 0.26774287 -0.12975383 0.12846951 0.10488945 -0.13999858 0.101100884 -0.1389266 -0.09139233 -0.0991073 -0.064079 0.06605082 -0.19746828 -0.012212426 0.04116971 0.08488061 -0.016916597 0.24364829 -0.054708157 -0.0754215 0.073442295 -0.11381592 -0.094361536 -0.06785951 0.03807039 -0.07399143 0.070023626 -0.03453373 0.063579865 0.021681437 0.14041021 -0.013749274 0.15233202 0.16964513 -0.11417814 0.060568336 -0.18903434 -0.005880067 0.028912194 0.04703124 -0.09796549 -0.17034239 -0.076941505
4 -0.023965312 -0.047969032 0.16081676 0.21647282 -0.14749427 -0.2086069 0.10092244 0.2562755 -0.080630615 -0.03140882 0.2416116 0.032387853 0.062298123 0.08558023 -0.15111949 -0.048008367 -0.0335278 0.12112671 -0.18167472 -0.06417554 0.2310885 0.17792515 0.25819084 -0.11651278 0.11744951 0.10232457 -0.14123651 0.11412659 -0.14793403 -0.082374275 -0.11753277 -0.0631952 0.083422296 -0.17538989 0.0016521643 0.024138309 0.08852445 -0.044233378 0.22690497 -0.050390903 -0.09436283 0.07448437 -0.13732606 -0.08856391 -0.07215359 0.04268785 -0.07259017 0.074790396 -0.023559416 0.07605941 0.007926407 0.13062802 -0.028914213 0.13837689 0.17227697 -0.11090679 0.06972785 -0.20071098 -0.021942053 0.050895743 0.048016507 -0.10760748 -0.16301976 -0.094030656
