7 64
902 -0.01191242 -0.016294423 0.16993532 0.21791643 -0.2160575 -0.17349541 0.17516394 0.22921519 -0.08723396 -0.023507662 0.20561491 -0.002499098 -0.087902054 0.11667854 -0.10731335 0.017968183 0.07933779 0.04040217 -0.2139646 -0.113025635 0.21771383 0.15623459 0.20910226 -0.050618358 0.1699368 -0.027433671 -0.05869149 0.12294309 -0.14978243 -0.0930039 -0.14634402 -0.033660106 0.13634194 -0.19480975 -0.08280813 -0.02577379 0.18869159 -0.05624898 0.11337945 -0.11972264 -0.15332071 0.13958038 -0.1345101 -0.1375436 0.0010630885 0.018717784 -0.14636827 0.19346471 0.056480758 0.10606872 -0.08906556 0.09241319 -0.09003307 0.083733365 0.20266578 -0.12777182 0.07175416 -0.13971837 -0.073423214 0.1482556 -0.022810848 -0.019408777 -0.103195645 -0.12980972
7 -0.014641212 -0.014316962 0.21311241 0.24351753 -0.21251121 -0.1663325 0.16927497 0.27572897 -0.046259485 -0.035166517 0.23007978 0.022209017 0.013920521 0.0685302 -0.14156047 -0.0016735308 0.041360788 0.08511882 -0.1834978 -0.028574914 0.20595221 0.17947042 0.29057193 -0.13936995 0.1586968 0.08941119 -0.07571548 0.11489235 -0.11345504 -0.07216955 -0.07103493 -0.0060136276 0.010113038 -0.23019472 -0.06558457 0.008771311 0.10372394 0.03469628 0.2125874 -0.11171507 -0.07489254 0.11462798 -0.11292427 -0.11477592 0.004123291 0.00017204201 -0.10878603 0.10790446 -0.043770887 0.0666634 0.0057127285 0.10230918 -0.06289622 0.18471044 0.15748961 -0.1551955 0.043662205 -0.13660058 -0.038076427 0.030411443 0.0012039136 -0.03668024 -0.12026919 -0.091394424
9 -0.012728259 -0.013447501 0.20992717 0.21749717 -0.20279065 -0.17237557 0.16368364 0.24864736 -0.044312865 -0.0057590525 0.22246863 0.026611686 -0.014080526 0.07228548 -0.13418792 0.021540744 0.049056362 0.07730696 -0.18986249 -0.053145986 0.21791239 0.1703029 0.26559567 -0.12174842 0.16445018 0.054619458 -0.075940534 0.12029818 -0.11346167 -0.07021618 -0.10114435 -0.014018614 0.041444805 -0.20410939 -0.07646454 -0.012200164 0.13891065 0.018062482 0.19064216 -0.12776862 -0.09152786 0.13549867 -0.11661624 -0.13936013 0.013833471 0.023230819 -0.11415551 0.12993076 -0.021058926 0.054775655 -0.0116296755 0.08317515 -0.086197816 0.15121828 0.17593709 -0.15161552 0.04427315 -0.12707113 -0.056069758 0.05718496 -0.0122872405 -0.042630933 -0.10620526 -0.10338705
6 -0.011097659 -0.03155811 0.20714797 0.22821319 -0.19089165 -0.17158559 0.1466185 0.2590286 -0.043525692 -0.006713769 0.21904445 0.025511423 0.0127763515 0.071646966 -0.13503282 0.019922579 0.03141459 0.08858723 -0.1951011 -0.026893945 0.22730954 0.17843746 0.28249264 -0.1399207 0.16307911 0.09125462 -0.09542116 0.10484066 -0.12143411 -0.07706102 -0.08772914 -0.029375542 0.02584482 -0.21538648 -0.056993324 0.008269454 0.10910157 0.03487295 0.22128858 -0.117553405 -0.08127922 0.11836089 -0.108147226 -0.12531161 -0.00042130618 0.020861952 -0.095791355 0.11019002 -0.043663688 0.03884571 0.015037323 0.09518773 -0.0624554 0.17462835 0.16246985 -0.14964789 0.03304318 -0.12984312 -0.04469759 0.03466725 -0.0073431004 -0.056950256 -0.12206687 -0.09149307
5 -0.016298078 -0.022808619 0.19147527 0.21697043 -0.19760679 -0.17157966 0.17622985 0.24759278 -0.06316432 -0.004017935 0.23251542 0.026979951 -0.029640097 0.08077416 -0.118000016 0.021876002 0.0592457 0.07108239 -0.19630982 -0.032274123 0.22364335 0.17606445 0.25158176 -0.11075 0.15936583 0.039449092 -0.085062526 0.1146868 -0.11683078 -0.08201552 -0.101265594 -0.027912412 0.05213119 -0.20512809 -0.07954195 0.0016343246 0.14643691 0.003585355 0.19716544 -0.10143063 -0.0808467 0.12588067 -0.09278878 -0.13392186 -0.009579377 0.026605254 -0.11024549 0.12766956 -0.007057244 0.04924478 -0.0059892004 0.095521 -0.065182276 0.13758099 0.18086502 -0.13464747 0.05280947 -0.1381189 -0.041197985 0.061185997 0.00906143 -0.043393724 -0.11638011 -0.08391067
4 -0.011886736 -0.021773443 0.22723074 0.24995345 -0.21789826 -0.15830089 0.17180826 0.27121738 -0.03834652 -0.02522842 0.22925748 0.019398978 0.0060926024 0.055301603 -0.12825449 0.018737981 0.053622726 0.07442007 -0.19569512 0.0034735647 0.20960943 0.18659662 0.2938848 -0.14564453 0.16417463 0.099259734 -0.07532054 0.1049719 -0.112675376 -0.072679915 -0.058270443 -0.009546543 -0.01818572 -0.23594028 -0.07364823 0.01018882 0.101643 0.05602415 0.2295877 -0.10987388 -0.06155352 0.11936891 -0.084364146 -0.1132456 0.0069351178 -0.0054571144 -0.097555764 0.111557394 -0.052987207 0.029553311 0.031952895 0.08778624 -0.0600856 0.2008313 0.14563271 -0.15656592 0.028981144 -0.11852059 -0.04609219 0.025004316 -0.002288545 -0.031212995 -0.10758857 -0.074571654
8 -0.016083743 -0.019618355 0.21620822 0.23391496 -0.20993298 -0.18172404 0.15953545 0.25325936 -0.053521305 -0.021309583 0.23834562 0.02109592 -0.0074417265 0.0645197 -0.13219412 0.006087822 0.042895645 0.07497412 -0.20076059 -0.045813978 0.21783781 0.1810417 0.26584527 -0.11498879 0.15502732 0.0657332 -0.08342778 0.122818425 -0.1279769 -0.07198786 -0.09949715 -0.021211954 0.034009576 -0.20387347 -0.06634128 -0.010209039 0.13271932 0.0030013835 0.20231484 -0.10070569 -0.09078933 0.12672773 -0.10709007 -0.11972841 -0.0077352007 0.014682398 -0.10328928 0.13015346 -0.017175553 0.04667354 0.0021419334 0.082495555 -0.07726442 0.15849255 0.16916418 -0.14367567 0.049957015 -0.14110267 -0.062070515 0.06940824 0.005124212 -0.046304353 -0.10566885 -0.09464654
